question-id,0,1,2,3,4,5,6,7,8,9,10,11,12,13,14,15,16,17,18,19,20,21,22,23,24,25,26,27,28,29,30,31,32,33,34,35,36,37,38,39,40,41,42,43,44,45,46,47,48,49,50,51,52,53,54,55,56,57,58,59,60,61,62,63,64,65,66,67,68,69,70,71,72,73,74,75,76,77,78,79,80,81,82,83,84,85,86,87,88,89,90,91,92,93,94,95,96,97,98,99,100,101,102,103,104,105,106,107,108,109,110,111,112,113,114,115,116,117,118,119,120,121,122,123,124,125,126,127,128,129,130,131,132,133,134,135,136,137,138,139,140,141,142,143,144,145,146,147,148,149,150,151,152,153,154,155,156,157,158,159,160,161,162,163,164,165,166,167,168,169,170,171,172,173,174,175,176,177,178,179,180,181,182,183,184,185,186,187,188,189,190,191,192,193,194,195,196,197,198,199,200,201,202,203,204,205,206,207,208,209,210,211,212,213,214,215,216,217,218,219,220,221,222,223,224,225,226,227,228,229,230,231,232,233,234,235,236,237,238,239,240,241,242,243,244,245,246,247,248,249,250,251,252,253,254,255,256,257,258,259,260,261,262,263,264,265,266,267,268,269,270,271,272,273,274,275,276,277,278,279,280,281,282,283,284,285,286,287,288,289,290,291,292,293,294,295,296,297,298,299,300,301,302,303,304,305,306,307,308,309,310,311,312,313,314,315,316,317,318,319,320,321,322,323,324,325,326,327,328,329,330,331,332,333,334,335,336,337,338,339,340,341,342,343,344,345,346,347,348,349,350,351,352,353,354,355,356,357,358,359,360,361,362,363,364,365,366,367,368,369,370,371,372,373,374,375,376,377,378,379,380,381,382,383,384,385,386,387,388,389,390,391,392,393,394,395,396,397,398,399,400,401,402,403,404,405,406,407,408,409,410,411,412,413,414,415,416,417,418,419,420,421,422,423,424,425,426,427,428,429,430,431,432,433,434,435,436,437,438,439,440,441,442,443,444,445,446,447,448,449,450,451,452,453,454,455,456,457,458,459,460,461,462,463,464,465,466,467,468,469,470,471,472,473,474,475,476,477,478,479,480,481,482,483,484,485,486,487,488,489,490,491,492,493,494,495,496,497,498,499
R1,0.021562241,0.014934739,0.061660297,-0.12326814,0.0173423,-0.057691872,-0.028552383,-0.071607135,-0.06816864,0.14639634,-0.05819837,0.06609955,-0.046688303,-0.052613802,0.04546282,0.06491325,0.004458876,0.07751852,0.045792863,-0.031693686,0.01418336,0.029468173,0.060087826,0.01259832,0.09254229,-0.033654783,-0.00849548,-0.064765096,0.0050825,-0.04774839,0.05899698,-0.17903794,-0.06102259,-0.20016849,-0.058244184,0.013835375,0.009306156,0.008262568,0.07654683,0.072118625,-0.0018499,0.052081306,-0.038517706,0.015815102,0.05133889,0.04695932,-0.0341428,-0.111370794,0.124904476,0.057416014,0.013528452,0.025806027,0.014525697,0.17326462,-0.021933528,-0.011785998,-0.07916859,0.012162292,-0.03094172,0.0020802796,-0.035477974,-0.016830623,-0.049050007,-0.005867595,-0.008036373,-0.111673586,-0.06276293,0.082178645,-0.061048605,0.04861572,-0.05401085,-0.043101877,0.018093608,-0.0030124052,0.09356517,-0.15241548,-0.026139094,0.02169459,0.082264714,0.011493014,-0.087457076,-0.17239682,0.064128205,-0.013705172,0.117338724,0.08689682,-0.0090688225,0.0438842,0.0077629453,-0.10395397,0.018839631,0.06209076,0.071952224,-0.05739527,0.072533816,-0.07791997,-0.012102736,0.03810636,0.043311484,0.05315886,0.009919039,0.12088674,0.083090134,-0.007547323,-0.032410894,-0.16222256,-0.11583304,-0.030411344,-0.011610223,0.04113251,0.037349105,0.15292616,0.006435625,0.087026946,0.044317085,-0.038018763,0.0038733738,-0.01764203,0.026613617,-0.041811742,0.012042851,0.0023060958,-0.082039334,0.008535259,-0.09611776,0.08699338,0.051973935,0.060301226,-0.060783807,-0.019277344,-0.03596324,0.019729787,-0.09776486,-0.016060434,-0.08180489,-0.019273221,-0.0841196,-0.15732113,-0.056303285,0.03146787,0.03977527,0.06868368,-0.023114624,-0.08775455,0.009420566,-0.12721449,0.017338803,0.20769311,-0.016290408,0.1002779,0.02320909,0.028684398,-0.04016844,-0.077568956,0.033267256,-0.0004167604,-0.07589115,0.0023665845,0.006842429,0.055219907,-0.017940111,-0.09684119,0.029487783,0.04720386,0.011549163,-0.074806534,-0.02813106,0.055868663,0.024688445,0.027140616,0.045521565,0.04562131,-0.0081519885,0.12186587,-0.06927321,-0.104440205,-0.0580999,0.0052439542,0.0011350897,0.027874477,0.03789449,0.005986416,0.035903387,0.094113365,-0.07130966,-0.11417727,0.04908578,0.022442244,0.00045217248,-0.09668295,-0.011457966,0.020913951,-0.0026479706,-0.029245872,0.06262675,0.050336942,-0.0535129,-0.011046033,-0.09387282,-0.20483018,-0.12960154,-0.057311043,-0.118315004,-0.034721624,-0.045130834,0.100541584,-0.03191756,-0.005803539,0.083640024,0.08172435,-0.0015346182,0.0421516,0.13586116,-0.009236092,0.04985703,0.046954613,-0.06755279,0.0065665515,0.079966985,-0.081539184,-0.022557123,0.005646387,0.02346582,-0.03267871,0.019454056,0.014680482,0.0041787205,-0.013469772,0.042894296,-0.007968623,0.14492379,0.042206492,0.015571699,0.0057253204,-0.0042833,0.07213601,-0.042264488,-0.16410138,-0.0004272976,-0.12875623,-0.054626204,0.11984978,-0.007928002,-0.0029326153,0.032979067,-0.08334469,0.037325375,0.012838805,0.018689178,-0.08660614,-0.06329233,-0.035906572,0.07102955,-0.049370207,-0.066304274,0.102926634,0.017634738,-0.03327682,0.00965914,-0.028400725,-0.018721448,0.021564765,0.039191313,0.06116942,0.036907215,-0.04850351,-0.12647028,0.10765475,-0.022772517,-0.117544666,-0.051277142,-0.0016910548,-0.0126390355,0.010457093,0.0009847226,-0.03059675,0.05872787,-0.043907043,0.088685505,0.09197397,0.046056714,0.089821406,0.059598394,0.028723842,-0.08100886,0.029362429,-0.010656834,0.10757488,0.0038674192,-0.059275027,-0.0011179716,0.07354759,0.033935864,0.16660011,0.025494179,0.019976158,-0.049043298,-0.0028813866,0.039954435,-0.039928276,0.057746008,0.1085086,-0.058308918,-0.10683004,0.049967445,-0.06063743,0.03781257,0.030837048,-0.004915212,0.010525455,-0.040200952,0.06489487,-0.01970368,0.15131228,-0.015992573,-0.053725865,-0.04055393,-0.039913923,0.051908255,0.141542,-0.042834766,-0.032489303,-0.026643667,-0.060950134,0.0050801947,-0.012237197,-0.040740594,0.008080264,0.0010905368,0.004754997,0.06804509,0.013710753,-0.036877777,0.03669941,0.023711469,-0.043339144,0.070627294,0.005119367,-0.043945372,0.038819678,0.03550111,0.063385166,-0.023982586,0.037021264,0.09561861,0.053148303,0.014734324,0.112835616,-0.06588308,0.034267444,-0.068835914,0.051434446,-0.00059116766,-0.032585893,0.061164755,0.0016518615,-0.039140582,-0.077221796,0.12563047,0.028640019,0.030579813,-0.047618665,0.003985596,0.077853024,0.053493835,-0.03646401,0.11861949,0.032008294,-0.15787211,-0.07933541,-0.10668893,0.019529127,0.067549974,-0.0015673636,0.028398287,0.0029324065,0.029586785,-0.10588235,0.007395737,-0.07696687,-0.20778726,0.045896526,0.042804673,-0.0059851003,0.06868454,-0.054409064,0.021200983,0.2857746,-0.14379355,-0.0002563266,0.00669996,0.045628916,0.0154857375,0.05212972,0.0104961805,-0.052993216,0.089671046,-0.08774149,-0.009898564,0.05024471,0.010725136,-0.08141016,-0.009888432,0.021334218,-0.050581735,-0.0077053737,0.0010390334,-0.09611578,-0.10626071,-0.084636845,0.07528566,0.09971844,0.090653904,-0.037491497,-0.01824679,-0.033797346,0.15465017,-0.02040221,-0.10493288,-0.05250138,0.003952389,-0.044078212,0.027966626,0.03367363,-0.032345366,-0.12627472,-0.07750301,0.012438277,0.020118633,0.010300564,-0.046295576,0.062337004,-0.15824597,-0.059829324,-0.036299523,0.13691778,0.03282236,-0.118100844,-0.052828074,-0.14476961,0.0484133,0.06881128,-0.019415447,0.048647553,0.037586067,0.073036,0.006266462,-0.053900447,0.09474178,0.0010512328,0.010061569,-0.021785332,0.056096762,-0.1230323,0.086609155,0.0802403,-0.025544787,0.012308427,0.043678526,0.04090971,-0.07742264,0.071366034,0.07219557,-0.029214345,0.053790353,-0.0075755697,-0.0014520577,0.07616388,-0.0016136547,0.008034618,-0.050678987,-0.028557789,-0.02262887,0.0795412,0.063911326,-0.10883016,-0.07658744,0.020384684,-0.06198197,-0.027978342,0.0903413,0.028314933,-0.041230924,-0.08008976,-0.10582291,-0.0053979657,-0.047616873,-0.09102154,0.038641617,-0.033316515,0.03362562,0.005041168,0.027210344,-0.020538406,-0.06535187,-0.0064803585,-6.1945335e-05,-0.0045387587,0.10674318,0.041640077
R2,0.014063113,-0.03173225,-0.03905553,-0.044344965,-0.0022203736,0.07733998,-0.08459425,-0.03009607,-0.01627107,0.015113771,-0.05984756,0.057970505,-0.06648124,-0.026748054,0.018344529,0.07696699,-0.05657155,0.031809382,0.03074997,-0.0056254435,0.06994998,0.00604518,0.026934782,0.044294126,0.04199019,-0.030838812,-0.020166853,0.031185355,0.039699703,-0.017703177,0.08682409,-0.11982927,-0.016878113,-0.106611945,-0.01546649,0.010370458,-0.023084348,-0.050857577,-0.10172768,-0.057130847,-0.064503364,-0.06707571,-0.11150564,-0.02393489,0.037672628,-0.011609677,0.012122427,-0.09924041,0.017248642,0.03459992,-0.04188983,0.03762903,-0.018725496,0.08619855,-0.0049555283,0.058912367,-0.03368158,0.032383535,-0.07793698,0.03890335,-0.008665853,-0.0003099902,0.0011623119,0.034100905,-0.02457541,0.02259062,0.103288256,0.039199673,-0.0065913196,-0.0054451567,0.0022401942,-0.0026503094,-0.02379873,0.017322818,0.04005337,-0.039857395,0.035870515,-0.02057703,0.011033639,0.05308959,-0.056351937,-0.07324979,0.06201606,0.049397033,0.04903961,0.04278002,-0.02798127,0.035773434,-0.042908933,-0.10619722,0.08672476,0.033810046,0.06399835,-0.035903104,0.024403991,-0.038963955,-0.0037128723,0.027359929,0.005539341,0.08011501,-0.068551555,0.032802835,-0.02471075,0.035731796,-0.024403607,-0.064504005,-0.07865401,-0.009137098,-0.0090388255,0.0796048,0.037323862,0.12210734,0.008149181,0.09877943,0.08377648,0.053462174,0.079244286,0.023249503,0.03773335,0.0040580337,0.08029169,0.067787945,-0.07815109,0.045270547,-0.12799355,0.010328535,0.0944909,0.043789662,-0.004031876,-0.059147906,0.013983218,0.029219465,0.054343216,0.033297423,-0.018085707,-0.06873466,0.002229242,-0.12088286,-0.05559427,0.049905308,0.0096033625,0.03608631,0.029712506,-0.023468375,-0.05763478,-0.018876595,-0.0666007,0.13769965,0.031801913,0.075456314,-0.05634212,-0.036960293,-0.024424275,0.017902985,0.00756226,-0.01975264,-0.030473784,-0.00998301,-0.04888689,-0.01582596,-0.0026299185,0.027751612,0.029945122,0.04819028,0.08014877,-0.03424082,0.053558744,0.0680558,0.007569383,-0.0067770462,0.041165072,-0.049280465,-0.02331712,0.024087394,-0.012716474,-0.06935517,-0.02996034,-0.04219963,0.0025040703,-0.07738297,-0.042971544,-0.07643847,-0.039687987,-0.012445585,-0.043036867,-0.10676942,-0.007869741,0.007537181,0.008999415,-0.054032374,0.042222176,-0.030689828,0.001989596,-0.053976614,0.042431407,-0.011171621,-0.025257805,0.013790385,-0.031787824,-0.09158999,-0.14176095,-0.09914096,-0.06660112,-0.074594356,-0.055716142,0.028979829,-0.01046981,0.07043939,0.0384183,0.021831855,0.03649531,0.080714606,0.08392167,-0.012411562,0.055054646,-0.0008691783,-0.041514583,-0.016624665,0.031003268,0.051697314,0.0229029,-0.036139358,0.060975738,-0.0027553132,-0.039296314,-0.053719632,0.07081059,0.07572359,-0.06551297,-0.05855621,0.066737,0.10074289,0.003001446,0.05955557,0.019254487,-0.003510799,-0.0062125567,-0.01170669,-0.0274999,0.04862455,0.04092577,0.04077926,-0.033744786,0.06709545,0.042313952,0.08940085,0.10155163,-0.05490108,-0.02554204,-0.059364993,0.047443468,-0.06015215,0.10790957,-0.041741494,0.028134469,0.014291405,0.093901195,-0.026779464,0.0016603069,-0.031935945,0.13950494,0.09847581,-0.01181525,0.06258632,-0.06067593,0.017727831,-0.03889173,0.026501302,-0.015470135,-0.019732896,0.001972368,0.038182244,-0.026656091,0.061998006,0.033469494,-0.024296276,-0.040050756,0.0075763417,0.016029524,0.057464235,-0.046366733,-0.062916905,0.104764305,-0.022793809,-0.06694083,0.055394247,-0.0013081909,0.025953336,-0.104244135,0.032408,-0.004658942,0.00043096516,0.07637535,0.07553942,0.029201705,0.052887592,-0.08656179,-0.03218664,0.07372013,0.0024344348,-0.008447314,0.08069285,-0.01130859,0.02279218,0.049528252,-0.05546017,-0.03026639,0.011684017,-0.051773723,-0.032480866,-0.098784484,0.025392352,-0.080876954,0.11399936,-0.015837004,-0.011148969,-0.018905772,0.028262295,0.014980253,0.051752884,-0.04388415,0.021998895,0.043172065,-0.0047203465,-0.08528888,-0.03243514,-0.09453893,-0.046092026,0.011247159,-0.06601741,0.06732746,0.05059477,-0.032687243,-0.0036051318,-0.020179695,-0.052801587,0.018950615,0.09812689,-0.008639028,-0.018630495,0.02211394,-0.006582979,-0.0021856292,0.0773049,0.019593239,0.09938315,-0.10923527,0.117291346,-0.01390049,0.024027256,0.03253069,0.065792836,0.0071341638,-0.021182703,0.03639176,0.010430778,-0.00793837,-0.09929372,-0.0039811064,0.07709805,0.05505398,0.028445419,0.010957256,0.067973845,-0.03816937,0.0040879026,0.096449256,-0.01224819,0.0054860795,-0.07209355,-0.017670417,0.035976198,0.007587789,-0.007244516,-0.056067925,-0.020821245,0.061828688,-0.10566619,0.02715115,-0.20577078,-0.09144988,0.011991305,-0.0018569691,0.0064635007,0.0024720614,-0.043637972,0.09345078,0.1564216,-0.018446071,0.12753783,0.03469969,0.038439382,0.011088972,0.0634268,-0.049729776,0.07524563,-0.03993047,-0.04372493,-0.0035402577,0.14130235,-0.030434066,-0.047639847,-0.09060882,-0.03219477,0.014416825,-0.03748921,0.022062745,-0.078893654,-0.034475565,-0.0734686,0.011365106,0.034795377,0.10225234,0.049422562,-0.0014077829,-0.11253729,0.016144663,-0.011700976,0.011759456,-0.07011722,0.049613345,-0.10203473,-0.10270314,-0.010792987,-0.0020347096,-0.05314763,-0.070181325,-0.03692777,-0.042343453,0.11937013,0.079230286,0.053286273,-0.049390174,-0.032270476,-0.029533057,0.117463864,0.0021368305,-0.03995422,-0.01770485,-0.042014707,-0.018722195,0.063665144,0.020740269,-0.0016671816,-0.0061689564,-0.038833816,0.03309854,-0.09199131,0.09570268,0.07701167,0.045243353,-0.04067916,-0.0047292956,-0.1135207,0.06713986,0.03137199,0.048306428,0.13593397,0.057492908,0.039289206,-0.07676618,0.030901669,0.07103035,0.024550982,0.00086156715,-0.076839216,0.032553002,0.048459567,-0.0018256933,-0.061151866,-0.06441731,-0.004993212,-0.103658125,-0.06292563,0.040138565,-0.017820435,0.035948765,0.029954435,-0.13892548,-0.044259988,0.06232541,0.05879161,0.020170351,0.0056502805,-0.026382312,0.038782112,-0.021557152,-0.016650273,0.0027901293,0.04594478,0.09318522,-0.11099835,-0.036965378,-0.10797474,0.051621597,0.037991755,-0.042183004,0.0026666953,0.15476707,0.029459732
R3,-0.010597525,-0.03764225,0.0592622,-0.10689399,0.012833997,0.01222007,-0.10554842,0.006548832,-0.06699659,0.09585571,-0.049299963,0.011181094,-0.009223195,0.012636762,0.0638747,-0.0084056845,-0.041283898,0.07309305,-0.018080993,-0.027264329,0.069287546,0.010343813,0.032864444,0.07047969,0.08388559,0.015321414,-0.011742264,-0.024691721,-0.013142363,0.008048368,-0.0018484197,-0.08156911,-0.022744214,-0.17215864,0.041058525,0.03981125,-0.0070593474,0.01531098,0.08044783,0.03568947,-0.045051992,-0.0122943185,0.04882671,0.031885874,0.046848163,0.002957637,-0.121898666,-0.0875563,0.046533756,0.0142539125,-0.038820945,0.04319592,-0.01629342,0.08996483,0.0055804923,-0.001016215,-0.048153646,0.013498486,-0.007064755,0.034539275,0.019696731,-0.12662156,-0.044859648,0.014370312,-0.044579346,-0.021747842,-0.046904948,0.10148876,0.008861191,0.006885718,-0.02811971,-0.014736653,0.02432284,0.04315257,0.1146265,0.019146878,-0.056223944,-0.008241845,-0.023753105,-0.053661954,-0.056776594,-0.113018215,-0.03886106,-0.044093918,0.053715784,0.08162821,-0.0062357844,0.006970768,0.015235644,-0.019794425,-0.020962302,0.04302278,0.042740993,0.0115308305,0.013380655,-0.035617355,0.0062588397,0.059106782,0.024749879,-0.016941864,-0.016584288,0.05319262,0.018303659,-0.013687112,-0.024187876,-0.052548192,-0.0604408,-0.005408134,0.028819945,-0.020385386,0.020388765,0.11143088,-0.016741801,-0.009291342,-0.003304608,0.0070699994,0.0065199146,-0.040333387,0.023272729,-0.03111388,0.08194903,-0.006124411,-0.0851172,0.035541344,-0.073100895,0.03537439,0.018234657,0.08203029,-0.0103784995,-0.06138384,-0.014501082,0.06703107,-0.07926094,-0.0302275,-0.06261251,0.07638452,-0.050507277,-0.11172353,-0.0033493938,-0.0824521,0.016989952,0.026584927,-0.016401805,0.022736264,-0.003790903,-0.058744725,0.039595276,0.1030281,-0.09134858,0.10523683,0.067600094,0.022408446,0.021294322,-0.084273495,0.061726242,-0.012563981,-0.039401896,-0.034835923,-0.008358412,-0.015415977,-0.014910816,-0.061802205,0.044336226,0.06675473,-0.027573064,-0.00138576,-0.0036368363,0.021978972,-0.00435514,0.040376756,-0.02014587,0.025780722,-0.020186769,0.016264776,0.023305098,-0.017128615,-0.011300504,0.022339225,0.00040632082,-0.03181168,0.06832706,-0.039232913,0.0059602703,0.08451861,-0.014495311,0.005315847,-0.0019956874,0.0067892056,0.02831046,-0.018176561,-0.013492636,0.019225871,-0.013877562,0.05047552,0.03643541,0.015455334,0.004655282,0.019715292,-0.014117484,-0.111734435,-0.025672136,0.019070355,-0.017531479,-0.041890718,-0.009562631,0.032996796,-0.089685954,0.0036373727,0.11783793,0.046512,-0.027364219,0.072808854,0.057749406,-0.031579804,0.07104468,0.0104889115,-0.030149503,0.036987316,0.028323995,-0.05288718,-0.03820531,0.031465024,0.06535879,-0.0029626351,0.02337475,-0.024962068,-0.015455808,0.06885933,-0.014255892,-0.03926035,0.14288265,0.018265717,-0.016294107,0.018487241,-0.04703644,0.057362754,-0.05125867,-0.07096491,0.029669546,-0.014856911,-0.024382537,0.11084875,-0.037327096,0.02133817,0.046386223,-0.03784037,0.01760941,-0.008098782,-0.010776859,-0.06787955,-0.08113812,-0.054682992,0.030097313,0.022153169,-0.047209382,0.06227003,0.006343188,-0.035681475,-0.0031581041,0.0051483694,-0.042598102,0.026008846,0.049538076,0.0027467771,0.00683404,-0.0022136555,-0.06942184,0.12823136,-0.07511211,-0.03555688,-0.052727636,-0.011828589,0.015535819,-0.024888014,0.047103044,-0.0792497,0.018716305,0.0060239653,0.038384758,0.08687576,0.049127672,0.053942338,0.054371394,-0.0067854454,-0.07473754,-0.09563367,0.032179978,-0.007131934,-0.06574192,-0.06644285,-0.0054057906,-0.02972058,0.044924095,0.07523595,0.031225221,-0.032449447,-0.0351948,-0.026586734,0.008590506,-0.011419395,0.0074854116,0.038652577,-0.016443256,0.031851463,-0.024899608,0.016362837,-0.025821993,0.026132666,-0.0067380155,0.014193108,-0.06395911,0.07157538,0.020425268,0.094183125,0.024334887,-0.024335667,0.0037804453,-0.08594116,0.0072853984,0.12833926,-0.026221918,0.002921609,-0.00075697806,-0.0034601681,-0.041031335,-0.007973743,-0.054606818,-0.0042993105,0.007685422,0.021992626,0.06472832,-0.02712646,-0.031816613,0.06384675,0.007391545,-0.10642947,0.003277823,0.035913188,-0.057504047,0.028852819,0.021382134,0.01593791,0.046972994,0.02256741,-0.011805152,0.04995509,0.05334988,0.008982521,-0.00071941334,-0.016682694,-0.087543815,-0.001438783,0.03433777,0.010950939,0.053719874,-0.06569445,-0.025588518,-0.038741346,0.09365241,0.0005992589,0.011791973,0.023306197,-0.009892694,0.06686374,0.0029706021,0.031920828,0.050041176,-0.012220104,-0.11072802,0.018166792,-0.09912287,0.016782185,0.052339222,-0.027068432,-0.008536371,-0.03128073,0.021940542,-2.8047907e-05,-0.046560735,-0.07383053,-0.07940979,0.014984649,0.040908825,-0.01267499,0.008561846,-0.04965901,0.04468018,0.157132,-0.056525532,0.021465316,0.041400544,0.014819795,-0.051717307,0.087613575,0.027732834,-0.022558773,0.09671121,-0.09141736,-0.011219366,0.017951433,0.06752386,-0.050635904,0.009796418,0.019906623,0.04153659,-0.052910984,0.028132977,-0.053827006,-0.045404598,-0.031129025,0.031927254,0.045793384,0.03876124,-0.03926219,-0.0789117,0.03564995,0.009193843,0.02933882,0.0069679166,0.0032790431,-0.018433541,-0.072563075,-0.0859408,-0.018992422,-0.036067843,-0.029607764,-0.022467341,-0.0033880724,0.087660775,0.05147025,-0.0090316655,0.07052507,-0.05880836,-0.02151253,-0.031180667,0.07955494,0.041425586,-0.05943701,-0.058355432,-0.067905895,0.052916892,0.032196652,-0.0095724305,0.044332195,0.056432538,-0.06583304,0.07489978,-0.05305886,0.06325779,0.0035730456,0.00059392286,-0.054261807,-0.051263317,-0.0077369763,-0.0028975022,0.13323814,0.025477443,-0.092802435,0.047761995,0.057648294,-0.07709384,0.05093046,-0.017937278,-0.03303895,0.020091645,0.027750652,0.015182033,0.09968733,-0.009552786,-0.061596718,-0.08005725,-0.07905814,-0.073037334,0.028110307,0.064351626,-0.030428452,-0.029219946,0.0308664,0.06256867,-0.03417598,0.0027523933,0.099620305,0.06140642,-0.0958556,-0.03497492,-0.045035955,-0.047068395,-0.052633446,0.01792838,-0.03259983,0.0099366335,0.017334713,0.03338448,-0.04163969,-0.01103837,-0.023762655,0.0023882089,-0.003792749,0.087967925,0.02282218
R4,-0.01003573,-0.02510014,0.012554904,-0.060030997,0.065567784,0.0029726117,-0.028211018,-0.030652588,-0.065164275,0.08233883,-0.033457283,0.012168617,-0.03526386,-0.010691179,-7.900316e-05,0.10557479,0.008242717,0.05914065,-0.049166225,-0.0026064,-0.02498969,0.03349863,0.008632866,0.068193585,0.13819265,-0.047750797,-0.068715274,-0.015369278,0.066624224,-0.065375775,0.03399466,-0.13987824,-0.052495122,-0.101782575,-0.007260317,0.10327325,-0.06642818,0.06652115,0.06789023,-0.0328331,0.023260484,0.051753536,0.052924264,-0.014281274,0.0004244931,0.00012791948,-0.058069386,-0.048788667,0.03849306,-0.02192348,0.04300688,0.018190183,-0.013117772,0.04661228,-0.025344025,-0.02411525,-0.112253524,0.042340055,-0.0070313876,0.0016209856,-0.0055478076,-0.011017927,0.008765238,0.029347705,-0.004100965,-0.03254031,0.022158222,0.061116546,-0.027331272,0.008121436,-0.048558485,-0.11539734,0.02829674,0.08672523,0.0066256523,-0.062981136,-0.01065759,0.006700719,-0.006636394,-0.02124814,-0.023195252,-0.12505835,-0.010577917,0.040565427,0.060591344,0.05045572,-0.07992536,0.060860783,0.0008795168,-0.056864165,0.0054494664,0.062806934,0.022742564,-0.018222464,0.026244929,-0.00044558197,0.007913714,0.12381828,0.01105419,0.013386257,-0.011173821,0.028649935,0.0124248965,-0.02208796,0.007931704,-0.10484071,-0.07702773,-0.0033593588,-0.0068968423,-0.008298921,0.06435348,0.0614013,0.022402799,0.014216972,0.03814093,-0.0081411125,0.008481948,0.07620363,0.023420524,-0.008027578,0.05693671,0.039928485,-0.0739965,0.0357253,-0.06748172,0.0769894,0.037004035,-0.005996112,-0.0047693215,-0.033541415,-0.0034998483,0.061136067,0.025202028,0.00014766585,-0.021975078,0.0034967046,-0.054517582,-0.13552396,-0.034013566,0.035209488,0.05020786,0.005546294,-0.06907685,-0.09553307,0.0191742,-0.0801561,-0.025955198,0.01837647,0.03617041,0.036054224,-0.027785743,0.027803529,0.0059568235,-0.037116155,0.0059003555,0.0088495985,0.018631743,0.012948414,-0.056218505,0.0526153,-0.0068403957,-0.08761343,0.046255954,0.053156473,0.010340342,0.021955922,-0.024625067,0.06375494,-0.08302494,0.0060409606,0.002625335,-0.010648873,0.014098767,0.0134102255,0.012853968,-0.06864531,-0.03922137,-0.029420577,0.015773166,0.027198492,-0.04479801,-0.079576194,0.026675092,-0.0050358595,-0.055132497,-0.086813405,0.06196817,0.006414984,-0.029507482,0.050066113,-0.024390858,0.023099817,0.03661052,0.00721256,0.06774174,0.0044077216,-0.0042499295,-0.036162533,-0.0052759945,-0.06526953,-0.109519444,-0.031867824,-0.06410725,-0.054443344,-0.0017991159,0.05139923,-0.09095694,-0.052041832,0.029006267,0.05462649,-0.040658507,0.11955838,0.07605714,0.018573076,0.015736919,-0.04021961,-0.08235489,0.06039522,0.0015279427,-0.044748817,-0.036592394,-0.044470504,0.05013585,-0.017873283,-0.0025295876,0.009129292,0.004709083,-0.037971567,-0.13016033,-0.019472294,0.036228012,0.099398926,0.04994675,0.010638358,-0.075036265,0.054025292,-0.037974462,-0.14644,0.006361135,-0.003623391,-0.024045356,0.14534725,-0.07175909,0.023416016,0.018683732,-0.04730577,0.026640745,-0.086321466,0.0011325153,-0.09520382,-0.008232318,0.0044343425,0.111231595,-0.04185684,-0.0370037,0.034292668,0.0040006433,-0.049206123,0.006709274,0.04333871,-0.05780154,0.0459777,0.032252364,0.07389331,-0.02545544,-0.078427434,-0.072285615,0.06319151,-0.00976237,-0.0028561763,-0.00200909,0.066991456,0.013213705,-0.0035514075,0.0315279,0.028699894,-0.06794386,-0.051721692,0.16265485,0.07791583,0.022892779,0.016338747,0.060897786,0.026366625,-0.06071276,0.044389047,-0.05357131,0.01025242,-0.047978945,-0.016296875,0.013447745,-0.0028251074,-0.0009179171,0.03812577,-0.031541903,0.03175672,0.0049104765,-0.025312454,0.11230114,0.0020252378,0.012154717,0.11912693,-0.05216107,-0.06789918,0.058231495,0.0007537268,-0.028809326,0.006138553,-0.07331226,-0.017503161,-0.08250807,0.002736017,-0.08410823,0.066003725,-0.03632096,-0.038753983,0.015672635,-0.070060775,-0.032264765,0.059200153,-0.0020668171,-0.011847725,0.0011240821,-0.011811826,0.016611148,0.019461133,-0.051067293,-0.035924274,-0.042757347,0.010719804,0.07750525,0.012024544,0.03749948,0.01575032,-0.011290487,-0.097521044,0.058628477,0.01911337,-0.019828878,0.067336574,0.044986185,0.12320055,0.010056751,0.023261176,0.050485745,0.030648112,-0.02247155,0.010144626,-0.040741924,0.010285115,-0.07766801,0.07295139,0.020138586,-0.041218504,0.023162879,0.037181534,-0.06352182,-0.09337585,0.036908112,0.018079134,0.027625054,-0.03808221,0.05143843,0.0074728187,-0.059467606,-0.005592039,0.08071653,-0.010516295,-0.07176415,0.016856704,-0.048537835,0.04932818,0.068677306,0.06011397,0.034390084,0.011829139,0.037139133,-0.001983733,-0.0100662215,-0.05023756,-0.058675334,0.045924794,0.017880749,0.013151108,3.59891e-05,-0.035654664,0.035783958,0.15960447,0.027756594,0.0029281517,-0.008582019,0.009566594,0.0154328495,0.045479804,0.06368012,0.05191747,0.038418896,-0.03925644,0.016012033,0.07057807,-0.035235688,-0.07957396,0.041907147,0.044559658,-0.07073559,0.051184528,-0.004745202,-0.113430716,-0.012658214,-0.050460637,0.026160968,0.008211387,0.13272625,-0.0012618396,-0.0695756,-0.017015278,0.10121907,-0.0067027807,-0.031649463,-0.031488456,0.016543288,-0.09608855,-0.0090937875,0.04458522,-0.0004992392,-0.100666225,-0.043716185,0.038645394,0.06574056,0.0032449793,0.022943009,0.031514347,-0.057339173,-0.035569705,0.03113354,0.055726487,0.034943618,-0.054113306,-0.01239757,-0.08414474,0.05871333,0.05672868,-0.02881812,0.012553164,0.03819891,-0.03201608,-0.001062505,0.024615178,0.07107789,0.006901133,0.00032292196,0.016983613,0.03916244,-0.04504568,0.06517257,0.05355619,-0.014039748,0.049779728,0.004424195,-0.004955301,0.019878017,0.072057985,0.101341866,0.005393709,0.0012840674,0.0001503285,-0.044717293,0.10816428,-0.035373434,-0.0047982344,0.016562223,-0.023189327,-0.13839473,-0.014786113,0.021443995,-0.060427636,-0.019167636,0.012916245,-0.09217369,-0.05592169,0.015958086,0.03773699,-0.001807034,-0.02383335,-0.0484021,-0.082211986,0.0034134118,-0.018672869,-0.028245926,0.0058230665,0.008082622,-0.00534212,0.072094716,-0.021811284,-0.10575562,-0.022376522,0.0163634,-0.08644658,0.04858564,0.07862392
R5,0.05965999,-0.052031722,0.040053304,-0.07995594,0.0059205997,0.063430354,-0.0832798,-0.013025579,-0.08127921,0.115005635,-0.08137132,0.059045374,-0.0498783,-0.031519793,0.05597532,-0.0039527444,-0.02769642,0.05011477,0.030025676,-0.016015613,0.0969082,0.01190381,0.06671267,0.029876411,0.14300954,-0.069192305,-0.005732679,0.067171864,0.07474808,-0.04005128,0.079754844,-0.19358267,-0.060282286,-0.120360404,0.07686786,0.025079848,-0.008276502,0.025887243,0.06303151,-0.036420688,-0.060362853,0.023443798,-0.026156424,0.017344236,0.021298833,-0.0009891207,-0.079727,-0.08131356,0.058255248,-0.046845023,0.037527382,0.017382478,0.024960887,0.18880616,-0.01990257,0.08823683,-0.0123895565,0.016854824,0.011991607,0.027408062,-0.083522335,-0.108040705,-0.04393362,0.026704626,-0.028570466,-0.0878314,-0.04158186,0.16790086,0.0024150764,0.052363414,-0.055485673,0.0781563,-0.021020448,0.0060486654,0.075701565,-0.04828022,-0.0018420949,0.014800788,0.004183487,-0.114303954,-0.14819938,-0.12037816,0.010064311,-0.0085204,0.097153716,0.12803954,-0.069331296,0.038854405,-0.04412718,-0.032161642,0.035462756,0.087092355,0.08453025,-0.11480526,0.038588785,-0.101472,-0.048735503,0.09783311,-0.009653662,0.048142556,-0.025045544,0.057848763,0.009132875,0.021940203,0.037738066,-0.056649413,-0.12431119,-0.013219866,0.08695325,0.04884316,0.07879064,0.08796673,0.075650394,0.038576726,0.07294571,-0.023904001,0.07631107,0.028741512,0.026415458,0.0024926842,0.04198676,-0.008530773,-0.06863765,0.085007146,-0.12769546,0.015525471,0.03027714,0.016717618,0.0072255274,-0.017008556,-0.047866862,0.06839347,-0.04730899,-0.02221719,-0.08858667,-0.05945416,-0.06144998,-0.16924135,-0.03272289,0.04520882,0.041940283,0.09913325,-0.015218508,-0.076920286,0.025753291,-0.15153344,-0.0014828296,0.16220123,-0.016684027,0.05247834,-0.0012702665,-0.0027398383,-0.014086523,-0.09774561,0.057699174,0.036843274,-0.09384254,0.05337224,-0.05348617,0.0121619,-0.0399969,-0.08112199,-0.009511403,0.10465916,-0.00866341,-0.0338452,-0.0067195026,0.019747881,0.027471127,0.10625399,0.012212805,-0.006924397,-0.030984193,0.103354916,-0.021183548,-0.122820355,-0.009076585,-0.030473974,0.056349173,0.043438796,0.08103319,-0.012976891,0.03382086,0.10937008,-0.08354355,-0.08860799,0.025371904,0.03143155,0.05140616,-0.025711147,-0.015386097,0.0065521696,-0.0425456,0.033781014,0.079435125,0.026681824,-0.08253648,-0.024856212,0.0022677507,-0.19664411,-0.07852059,0.018748038,-0.08268175,-0.14728424,0.025385471,0.101273164,-0.09568144,-0.0052395244,0.025162999,0.052117728,-0.06496445,0.13135238,0.13018122,0.038136348,0.007819816,-0.00804737,-0.06189327,0.009608797,0.04995942,-0.066980645,-0.05635229,-0.015134322,0.08109436,-0.03289112,0.019304981,-0.008909895,0.034506496,0.027151711,-0.06369221,-0.023178875,0.17083147,-0.0010771345,0.045397975,0.019178847,-0.07934824,0.114751875,-0.013774432,-0.1759985,0.04873755,-0.10712274,-0.043224685,0.08885771,0.04196649,0.010248698,0.08647403,-0.007593378,0.023639096,-0.03992095,0.001198253,-0.04920912,-0.06267449,-0.08450072,0.050400186,-0.0913038,0.0070162914,0.14413661,0.018600421,-0.07855395,0.032872714,-0.011720799,0.0053664465,-0.032055184,-0.0036112263,0.03566898,0.020723052,-0.09498486,-0.13803512,0.08069177,-0.010654509,-0.03426831,-0.077469915,0.031371616,0.051784784,0.10172066,0.029490145,-0.08391102,-0.041503523,-0.012055713,0.020514367,0.10680615,-0.0071914615,0.08555362,0.033901107,-0.054704413,-0.056317706,0.006109465,-0.024616394,-0.033870716,-0.013942047,-0.09334196,-0.024791617,0.054978784,0.025019392,0.0828192,0.061171815,0.004776082,-0.042214163,-0.062920354,0.12192894,-0.03217639,-0.0034692218,0.097334325,-0.0007263061,-0.1124979,0.034390762,-0.100892425,-0.038201872,0.015623126,0.053258687,-0.010119298,-0.0023160407,0.030931914,-0.02411371,0.24286214,0.058077093,-0.05880095,-0.0014694025,-0.08641222,0.088680424,0.08101666,-0.05597199,-0.028952574,-0.004258066,0.008063269,0.0028722524,-0.0063613453,-0.10066822,-0.027606077,-0.06419283,-0.021079142,0.15473633,-0.026057146,0.056175012,0.10577449,0.025478687,-0.07746189,0.036640678,0.016493939,-0.033690073,-0.005660376,0.0393396,0.11320604,-0.056584496,0.05723875,0.09099905,0.04761987,0.03612693,0.058690235,-0.010149138,0.029492337,-0.0756815,0.07527663,0.078438185,-0.02832581,0.06821911,-0.063869745,-0.024307184,0.019068157,0.14655364,0.0736047,0.015154787,-0.10456781,-0.012317994,0.043916907,0.004905334,-0.038609173,0.07628684,0.011685596,-0.16222572,0.01912693,-0.040195193,0.08612962,-0.011717754,-0.027952423,0.03963208,0.028668845,0.054533344,-0.11164842,0.022657774,-0.1509998,-0.12019871,0.059647053,-0.02252177,-0.04408072,0.07287265,-0.08984878,0.01859938,0.25346574,-0.09288171,0.013664528,-0.015603412,0.11737476,-0.034384847,0.14136451,-0.04882521,-0.037577912,0.07279114,-0.058278646,-0.02494691,0.122155264,0.019546956,-0.042538207,0.09477684,0.097766444,0.0015036828,-0.065312125,-0.023898402,-0.04460325,-0.050086547,-0.12991698,0.07386897,0.06863015,0.14465728,-0.06842256,0.016335672,0.005736434,0.15531132,-0.006910549,-0.0025377409,-0.04059104,0.060598582,-0.082208574,-0.011467038,0.04685791,-0.04803349,-0.15111554,-0.098634705,-0.0074311034,0.029357433,0.015473479,-0.0062527526,0.083548754,-0.14520964,-0.06975097,-0.08533258,0.0753842,0.015366688,-0.059843425,-0.051137604,-0.1458401,0.032069273,0.079339884,-0.033234548,0.032656744,0.05911137,0.004502681,0.07018253,-0.058974415,0.11981892,0.0458321,0.0112227285,-0.0720198,0.017864596,-0.17591433,0.10862928,0.053192146,-0.022312116,0.050083853,0.03392924,0.06762402,-0.08679611,-0.0038792118,0.07027059,0.0030384888,-0.0047422796,0.029171629,0.06888166,0.14141978,-0.025191996,-0.036783792,-0.053688668,0.016349047,-0.015026498,0.0131668495,-0.02344389,-0.04259373,-0.09513948,0.019817552,-0.06146764,-0.037339397,0.038529083,0.07150956,0.03560376,-0.038088597,-0.094667755,0.023422543,-0.056426056,-0.051786497,-1.4704311e-05,-0.034537546,0.009933358,0.0059605413,0.010311892,-0.028557384,-0.037071988,0.005394872,0.021998418,-0.02885397,0.0732313,0.048255388
R6,-0.056306005,0.012802201,0.020677472,-0.07933634,0.041609943,0.0067433715,-0.02669988,-0.039425842,-0.02802927,0.101467654,-0.01990616,0.03116816,-0.035894975,-0.009637506,0.011487574,-0.008179918,0.018174227,0.013482857,0.012568727,-0.03442767,0.042070355,-0.026235413,0.07222109,0.015327509,0.058069192,-0.060778223,0.01118954,-0.011403697,0.00031448092,0.02298142,0.08261079,-0.117478356,-0.041297354,-0.18086086,0.05352915,0.010296558,-0.013009421,-0.029808963,-0.006997703,0.05336496,-0.009416434,-0.041751232,-0.041119896,0.06804873,-0.00083312433,0.06471722,-0.13032122,-0.020055642,0.0070630903,-0.07819011,0.0055487943,-0.023107326,0.03379009,0.13620578,0.020133263,0.013169059,-0.005972915,0.03736687,-0.013854138,-0.039534915,0.016191855,-0.06982197,-0.044544682,0.03863331,0.04637275,-0.017751435,-0.0256791,0.01195246,-0.016784849,0.007229161,0.021718042,0.034159113,0.02307078,0.019448686,0.03256927,-0.104390234,-0.013109958,-0.0034511974,-0.0037119489,0.006770021,-0.13400155,-0.067300916,0.008429375,-0.070879616,0.07032874,0.04662895,-0.08267599,0.03490035,-0.037548453,-0.07186823,0.001542624,0.018761417,0.07940479,-0.032404516,0.044824276,-0.11931146,-0.08971165,0.10367057,-0.061615307,0.06652284,-0.035457086,0.03557235,0.05792156,-0.0138741005,0.011083393,-0.073787205,-0.10252457,0.023336764,0.028304491,0.05457742,-0.005561691,0.10103241,0.030608796,0.10677143,0.11599655,-0.01584807,0.0067375856,-0.08221019,0.0003092351,-0.01596892,0.10175808,-0.020741545,-0.109224804,0.055880126,-0.024827428,0.028660575,-0.0047983346,0.0371742,0.028699366,0.037493333,-0.031193692,0.033828154,0.010036636,-0.05168864,-0.048340973,0.053132065,-0.058590956,-0.19513339,-0.11643581,-0.056948088,-0.029148513,0.13610528,-0.0019895223,-0.11105735,-0.022686845,-0.10289137,0.0005261296,0.106619,-0.036956016,0.066196516,-0.08695658,-0.023637718,-0.048317187,-0.075363085,-0.0022020193,0.05233394,-0.053505644,0.0030392646,0.022648066,0.014955558,-0.024480386,-0.0793892,-0.025508622,0.06732039,-0.03521252,-0.05646903,0.021838253,0.05965266,0.016819907,0.031218123,-0.011287739,-0.033511125,-0.012776741,0.016638283,0.021426912,-0.07781533,-0.010502645,0.043231852,0.0038209055,-0.0033190062,0.058221363,-0.0135484915,0.04006647,0.07461877,0.006607809,-0.15442999,-0.038769044,0.026621006,-0.03392959,-0.054327685,-0.026042776,0.005252023,-0.048419062,-0.03927725,0.018415898,0.032240983,-0.044536754,-0.030004852,-0.026234003,-0.12819347,-0.039107703,-0.07525187,-0.07607483,0.025162412,0.010944704,0.049898356,-0.0098793525,-0.0086689545,0.0077482783,0.0727577,0.0071473983,0.076031424,0.17056116,-0.0040938645,0.02627781,0.038967397,-0.08500172,0.01813675,0.012422483,-0.012570577,0.023745134,-0.050223418,0.04485919,-0.018387154,0.029538298,-0.0142792985,0.007731007,0.043294385,-0.10155441,-0.003449549,0.14240274,0.0042626983,-0.011614689,0.005295679,-0.027284466,0.015303269,-0.037331022,-0.11855309,0.009091438,-0.054818258,0.039700847,0.055490866,-0.010961004,0.033205736,0.03206244,-0.003949184,0.045222268,-0.068679176,-0.011762405,-0.010316022,0.022965051,-0.09693648,0.03879138,-0.04105554,0.00022765563,0.029535756,-0.0025011231,0.0651756,0.041414212,0.03231236,0.031069795,-0.049427643,0.031224255,0.027961178,-0.030313117,-0.04383245,-0.16226469,0.0854118,-0.05225379,0.013862014,0.09945548,0.020191811,0.029140713,0.028208677,0.060061514,0.0030231797,0.05558752,-0.03976236,0.07934365,0.05821436,0.0072263936,0.057503812,0.03799006,-0.07689289,-0.07904487,-0.078624584,0.0106709525,-0.01085594,0.033025485,0.013251432,-0.014468063,-0.011663453,0.058424883,0.13370495,0.009961511,-0.030240787,0.0017081536,-0.038614824,0.05966237,0.035655696,-0.050352126,0.11933854,0.05577693,-0.054815914,-0.018442925,0.0021610358,-0.13397123,0.044772744,-0.07092853,-0.05834668,-0.053088054,0.0100898305,0.0040331306,0.14503495,0.003103569,-0.028460259,-0.05521494,-0.011034496,0.044014752,0.06573032,0.025491122,0.035121515,0.043559294,0.003339098,-0.06384666,-0.004146163,-0.107433714,-0.09933908,0.005450218,-0.06488239,0.080104865,0.033409584,0.008134667,0.018034872,0.04998669,-0.117615595,-0.11437018,0.010438886,-0.007362186,-0.10676839,-0.04923368,0.07406013,0.00783822,0.00505183,0.020951318,0.023672657,-0.045390874,0.064497046,-0.005982539,-8.3062616e-05,0.0011949888,-0.0046381284,0.02118328,0.020471541,0.05211453,-0.05729209,-0.009831516,-0.044673715,0.09231301,0.034686204,0.07780259,-0.03302478,0.0077917576,-0.009037495,-0.0042134277,-0.042644914,0.09525563,-0.021607252,-0.13525599,-0.053444654,-0.059583146,0.02437436,0.014625178,-0.007125359,0.059871793,0.03285825,0.06813605,-0.06707886,-0.04076396,-0.07235102,-0.067954116,0.06920952,0.005081515,-0.015296334,0.0069556893,-0.080669105,0.057237793,0.13104782,-0.0870624,0.017166259,0.030334953,0.08300062,-0.0033797917,0.051671457,0.061391722,0.036665365,0.088956475,-0.06734071,-0.025594288,0.1105672,0.027485741,-0.023060754,0.07028696,0.015375271,-0.05171099,-0.037060846,0.026607282,-0.056147985,-0.035183143,-0.057785314,0.08165884,0.05369281,0.08772798,0.09337445,-0.034529354,-0.0935615,-0.022282064,-0.023368578,-0.04982765,-0.008051041,0.024061466,-0.089771055,-0.071123555,0.055659432,0.01335043,-0.06364047,-0.010948926,-0.011746054,0.0026938594,0.039923068,0.03332406,0.11077447,-0.04444844,0.037805174,-0.017384436,0.058314566,-0.00996197,-0.07275703,-0.052818347,-0.056694847,0.028100852,0.04888126,-0.046188988,-0.0457739,0.015161844,-0.0053957715,0.028809419,-0.031535864,0.035439022,0.0027125678,0.02652871,-0.03339257,-0.00631958,-0.008844763,0.09979653,0.030319346,-0.002331921,0.044145394,-0.0029917136,0.038501017,-0.101376005,0.013162374,-0.041531198,-0.006476237,-0.01500368,0.0183119,-0.007899681,0.16399667,-0.09634435,-0.040897798,-0.0948895,-0.0004514728,-0.031364016,-0.028124573,0.07910203,-0.0093650175,-0.042104095,-0.030524233,0.019612668,0.005288077,0.15020809,0.08824643,-0.019724594,-0.0544592,-0.10376671,-0.045149438,-0.060333278,0.01142692,-0.0067887055,0.053110413,0.06787749,-0.0109745525,0.040173765,-0.057388477,-0.05524076,-0.0968515,0.024075795,-0.0069588907,0.08890239,-0.038460087
R7,0.00040120378,0.0071585053,0.0045731426,-0.05454093,0.021288235,0.031797882,-0.06548943,0.0093957335,-0.038458113,0.0802431,-0.08400668,0.021165468,-0.02577689,-0.04793544,0.042197198,0.013552142,-0.00094766374,0.03847932,0.011179194,-0.018779075,0.037754674,0.028251654,0.075692765,0.04975308,0.14889571,-0.0984912,-0.01535954,-0.0017078918,0.0379365,-0.037888996,0.030053291,-0.16169186,-0.057565812,-0.10740272,0.044023868,0.009492332,-0.028047968,0.041786153,0.08242956,-0.007616583,-0.035989575,0.01741828,-0.029132515,0.012701361,0.012585522,-0.014328752,-0.04031458,-0.08603742,0.08026819,-0.025879404,0.009023874,0.016941408,0.0020228173,0.11474032,-0.03293076,0.050651874,-0.045604028,0.019698948,-0.023781402,0.003909047,-0.053615477,-0.024410801,-0.0051560765,-0.002377465,-0.03895395,-0.10866434,-0.008512085,0.17543675,-0.001976669,0.03149318,-0.045466226,0.024850525,-0.012368552,0.06408368,0.10916868,-0.06120295,-0.0036435982,-0.0060420614,0.03169455,-0.05460334,-0.09573874,-0.18589771,0.045319404,-0.0069081737,0.08128356,0.11243694,-0.056201622,0.085396886,0.003546996,-0.029839575,0.030399283,0.062175762,0.08143388,-0.10710248,0.016537635,-0.04442415,-0.01602952,0.05425571,-0.047991596,0.09746223,-0.048329845,0.04335341,0.02840417,-0.011688127,0.03144909,-0.0749834,-0.059252493,-0.015573559,0.03008181,0.008920389,0.12297461,0.02882953,0.029918814,0.028271893,0.048447702,-0.037505146,0.03562882,0.060640197,0.038289744,-0.0011347746,0.042643376,0.028505282,-0.09985419,0.03551396,-0.104257725,0.022843061,0.01616222,0.009287115,-0.022748632,-0.027294312,-0.0719487,0.035245825,-0.0372823,-0.0014777753,-0.034039665,-0.05445149,-0.040860288,-0.1623431,-0.038791504,0.052849166,0.0501513,0.049794506,-0.049396023,-0.1036773,0.031082178,-0.12535886,-0.02833287,0.09992342,0.017495796,0.061643347,-0.013699644,-0.03947194,-0.011575831,-0.062185436,0.048475858,0.017089693,-0.04211451,0.02677427,-0.053516492,0.030667197,-0.035084914,-0.04735707,0.01995163,0.14076917,-0.01811346,-0.03122507,0.0033606181,0.016018927,0.015752455,0.076942235,0.015784556,0.0061995992,-0.023742322,0.066344894,-0.06966423,-0.07380126,-0.0010113228,-0.005525378,0.056478817,0.038973533,0.015431067,-0.096829794,0.008144769,0.0366107,-0.053973027,-0.10025254,0.037225805,0.03423808,0.008362985,0.015651492,0.021905905,-0.019471193,0.0069893654,0.044109512,0.083057106,0.028637486,0.005991849,0.001151642,0.00898501,-0.13091365,-0.098233,0.010842616,-0.11560973,-0.1241103,0.0027962849,0.070088066,-0.07707942,-0.05825096,0.035019264,0.057345904,-0.07023194,0.13608894,0.07887655,0.027947418,-0.0170218,0.016347827,-0.018975316,0.00556799,0.0301369,-0.0909656,-0.018614575,-0.030642074,0.05164941,-0.018130597,-0.020967996,-0.0014090526,0.0006624178,-0.008481048,-0.053951222,0.0033100715,0.09232108,0.037661925,0.060835827,0.008076066,-0.048742816,0.07553013,-0.040874247,-0.14914922,0.041229073,-0.08638591,-0.04527691,0.104434095,-0.008869302,0.036405534,0.045212485,-0.068060756,0.022522788,-0.054336436,-0.03909864,-0.099782154,-0.06420306,-0.034601063,0.13503471,-0.11210019,-0.02198058,0.07835597,0.041586634,-0.13131534,0.011875703,0.0156289,-0.008194496,0.025306148,0.025823614,0.072591394,-0.009956502,-0.12390493,-0.1341639,0.08460806,0.032243084,-0.02710423,-0.00869929,0.02602601,-0.008371825,0.076832704,0.028977413,-0.055420272,-0.051157106,-0.0359718,0.061768938,0.0966854,0.046449173,0.0954177,0.042259187,-0.04340791,-0.044672012,0.092735656,-0.016606633,-0.042864986,-0.0035371897,-0.07132275,-0.032563552,0.051350717,-0.011585263,0.09414097,-0.01241912,0.022998832,-0.08670113,-0.065354064,0.09475494,-0.038848605,0.043104988,0.114708036,-0.0077882037,-0.045004986,0.025853623,-0.058408998,-0.05169069,0.00827232,-0.009171537,0.012260105,-0.06268244,0.04520774,-0.10482762,0.17157553,0.0063523343,-0.018332787,0.04796916,-0.083911665,0.060577333,0.08519381,-0.03813819,-0.018506557,-0.0048500896,-0.019364098,0.04210524,0.015462165,-0.08198501,-0.046507604,-0.06614301,-0.014037174,0.13003656,-0.0012735664,0.06298716,0.06934313,0.0043956693,-0.04877999,0.039192677,0.042469796,-0.016947001,0.062154725,0.05802695,0.10342781,-0.0330783,0.05772333,0.08517869,0.07294166,0.022696808,0.048359722,-0.015040757,0.007913948,-0.06610578,0.07843309,0.070655115,-0.0363473,-0.0048958366,-0.029766213,-0.05037633,-0.0845122,0.101509966,0.036559522,0.023646398,-0.09420528,0.024009394,0.032648988,0.0029575985,-0.029416429,0.08024877,0.034365308,-0.13753448,0.0047750254,-0.076339826,0.09263734,0.050988145,0.031729,0.05181481,0.026559731,0.020100866,-0.10852456,0.03180582,-0.04972886,-0.13359939,0.019829996,0.0054404186,-0.018323671,-0.010721328,-0.05755206,0.008100902,0.17720576,-0.041330513,0.025000958,0.01628159,0.06414853,-0.0237037,0.09344907,0.037360337,-0.008679478,0.037288316,-0.043904744,-0.023253676,0.103918485,-0.022777295,-0.06428839,0.06128806,0.063158765,-0.010383678,-0.024868902,-0.053578604,-0.07833316,-0.05670106,-0.080101065,0.03613169,0.07833018,0.13639617,-0.047778856,0.022650033,-0.01759758,0.11777282,-0.0017503371,-0.02377337,-0.04736566,0.004923624,-0.11281112,-0.033437233,0.048459344,0.011045731,-0.12934683,-0.08465962,0.027177839,0.029993007,0.0378687,0.02112616,0.04427265,-0.13310388,-0.046106476,0.019781493,0.10833882,0.010572012,-0.08317783,0.01480726,-0.131061,0.058911663,0.058182187,-0.03411107,0.04133777,0.076511815,-0.0046015866,0.068214156,0.0045599467,0.07543233,0.032311745,0.007142732,-0.025253493,0.056409236,-0.12969823,0.08457684,0.061222807,-0.007090561,0.028942646,0.052116763,0.027011096,-0.05503392,0.014080551,0.09472899,-0.040203687,-0.02656291,0.011514522,0.008848127,0.098860726,-0.03176226,-0.013668724,-0.025212264,0.045682408,-0.026809521,0.028322289,-0.005912817,-0.037900824,-0.061880987,-0.024796586,-0.07772355,-0.04435095,0.054926734,0.03153476,0.005283933,-0.06622711,-0.05490038,-0.0138650425,-0.016784597,-0.0753453,-0.0001414274,0.021802718,0.027718125,0.02618966,0.03178402,-0.026408931,-0.065075256,-0.039913267,-0.009700636,0.0102714235,0.01224617,0.08698125
R8,0.025566312,-0.021137645,0.0098265065,-0.047501028,-0.017482156,0.030783024,-0.06531052,-0.03405083,0.018379044,0.02968751,-0.059719224,-0.010685143,0.0010943108,-0.019385044,0.036039215,0.019267177,-0.072432645,0.033922397,-0.0073232814,0.028321035,0.03028981,0.049552046,0.09502349,0.029104711,0.080656454,-0.05634948,-0.0019835676,0.038623367,0.018438926,-0.022167685,0.047560003,-0.12035836,-0.09582628,-0.07669801,-0.017885251,-0.023763731,-0.02851723,-0.01183495,-0.0045723673,-0.031008674,-0.07032249,-0.032355066,-0.0670037,-0.018897694,0.039490208,-0.051707692,0.0354406,-0.07750242,0.021507792,0.012615513,-0.02469662,-0.010479281,0.02607034,0.09996821,-0.02532155,0.08362212,-0.031957854,0.011039832,-0.023280088,0.0456909,0.037414398,-0.04142566,-0.032314185,0.007866577,-0.002484334,-0.053396013,0.0640421,0.10670251,-0.06021079,0.0036712103,-0.010219978,0.07040984,-0.06348342,-0.04075888,0.066833,-0.00153583,0.019745855,-0.04905309,0.0068086875,-0.059370633,-0.02099932,-0.09811203,0.05914579,0.042286895,0.048006464,0.030480681,0.06084627,0.078011915,-0.010097624,-0.044267986,0.06847971,0.050166145,0.06641033,-0.0957365,0.015583049,-0.02461927,-0.0043873354,0.017249862,0.0067082006,0.10116144,-0.072172046,0.03046031,-0.035206966,0.061661154,0.023994152,-0.063413724,-0.055898905,0.015180781,0.015903328,0.05365089,0.051266383,0.065963596,-0.029453492,0.049876828,0.080208816,0.02062182,0.087430574,0.08612896,0.027476642,-0.028937351,0.059140265,0.03186407,-0.07044623,0.08394048,-0.10389256,0.033182494,0.045882482,0.0053583337,-0.04164978,-0.024600545,-0.034142658,0.023897054,0.07388042,0.057661846,-0.015632972,0.0316695,0.015023321,-0.13219945,-0.03211996,0.050232016,0.050113298,0.031861186,-0.011489013,-0.0051141647,-0.0059538926,-0.09445041,-0.01848309,0.07780842,0.027085926,0.08087797,0.07269979,-0.02691496,-0.056423303,-0.041101202,0.051305056,-0.006569788,-0.0022479328,-0.052202754,0.021726662,0.008391695,-0.032303754,0.004281458,0.005544586,0.08446738,0.029278439,-0.022452498,0.037126668,0.036863364,0.0655272,0.03434878,0.016424444,-0.02833476,-0.04454754,0.011785833,-0.04898939,-0.026257146,-0.057114046,-0.025846137,-0.018331515,-0.022930637,-0.001862077,-0.040276222,-0.0031249686,0.049563885,-0.06811094,-0.030737376,-0.010044778,-0.02243302,0.03139361,-0.012710235,-0.016227923,-0.02013619,0.011388379,0.023268377,0.01461829,-0.01947389,-0.0050831423,0.030556038,-0.046441298,-0.1338943,-0.12102988,-0.03284376,-0.067984916,-0.12281886,-0.008020676,-0.040745504,-0.079192266,0.04269584,-0.011495708,0.07796937,-0.01044252,0.06400311,0.08960072,0.053373463,0.0010209917,0.03899364,-0.047326855,-0.030922875,0.044570796,-0.05229487,-0.044410627,-0.020488286,0.008940326,-0.007582592,0.012064284,-0.0072863554,0.04549935,0.00028820641,-0.040675547,-0.0994519,0.09533721,0.06848495,0.048518647,0.07399884,-0.01733631,0.06392549,-0.0130409235,-0.07419224,-0.029343149,-0.01745358,0.013166558,0.0429466,-0.040968567,0.059230633,0.04013223,-0.0043357443,0.062292635,-0.075509496,-0.009791611,-0.06298052,-0.015941707,-0.03741312,0.067189224,-0.08425681,0.034227055,0.079940155,0.024918243,-0.12065185,0.014162328,-0.015491801,0.05238646,0.0556412,0.004900957,0.06720131,0.00401787,-0.017112754,-0.06688394,0.043106776,0.0050099483,-0.040312786,0.010813369,0.01580109,-0.06425341,0.06628706,0.051796608,-0.07657154,-0.058619224,-0.006704703,0.05323303,0.050282218,-0.014468886,0.0050169905,0.08080763,-0.02954068,-0.045722418,0.03326169,-0.021942891,0.04393051,-0.05332868,-0.025532462,-0.032575704,-0.036307402,0.07407454,0.04994359,0.06385088,0.015123906,-0.090346284,-0.003625682,0.048048984,-0.04956982,0.020673668,0.14486264,-0.05152151,0.03495621,0.06648043,-0.042114817,-0.031847928,0.0316621,0.022051403,0.021805268,-0.06697526,-0.0016364639,-0.054738097,0.14393394,-0.0028618488,0.006796591,0.015806828,-0.048500497,0.021858132,0.0151207065,-0.06629666,-0.04973245,0.00017508082,-0.044468306,-0.0024042313,0.018234339,-0.063567884,-0.06876909,-0.050029095,-0.04560096,0.12308119,0.030248716,-0.029080758,0.022949101,-0.016786853,-0.052638102,0.0010396242,0.059715707,-0.009640739,-0.020679357,0.042067498,0.032930974,-0.030247105,0.06831351,0.0969091,0.124125525,-0.072768785,0.078982785,0.04092533,-0.055098884,-0.023731263,0.014887668,0.01060355,-0.031631693,0.010186735,0.010358326,0.028762817,-0.124575436,0.05588416,0.0697796,0.07467071,-0.01027471,0.002510621,0.059445314,0.016779048,-0.0030764928,0.07916405,-0.038745232,-0.014782362,-0.067463845,-0.043727692,0.041787688,-0.02218062,-0.009216474,-0.013704626,-0.013877226,0.012018724,-0.07397524,0.0233037,-0.051005464,-0.11762035,-0.015565652,0.027097667,-0.0059826993,0.10038115,-0.024702523,0.0493042,0.09514426,-0.035325587,0.10148734,0.06671799,0.053436436,-0.052683752,0.07285806,-0.042783972,0.0864729,0.036229443,-0.08260223,-0.015420367,0.076147124,-0.020930856,-0.06471429,0.028750699,-0.0017131872,-0.027134279,-0.06403517,-0.017054591,-0.08188734,-0.015189379,-0.063548654,-0.017702885,0.05742543,0.06714755,-0.06574569,-0.01729024,0.008609171,0.024596332,-0.0038928557,0.017685864,-0.028709233,0.065254316,-0.123699225,-0.07036702,0.05695054,0.040634267,-0.07492909,-0.09815428,0.024454882,-0.01798872,0.04875414,0.05466191,0.06371205,-0.031197485,-0.019607602,-0.021586202,0.10596539,0.03182046,-0.0534734,-0.0192021,-0.022762004,0.060139272,0.040080324,0.08229793,0.005108911,-0.0015266687,-0.03002463,0.076016866,-0.04743269,0.092963845,0.031423587,0.012823419,0.014551938,0.047239095,-0.095494434,0.012623148,0.076885685,0.02551949,0.053989608,-0.014403518,0.029577268,-0.07625832,0.004269919,0.12568857,0.023011476,0.0032214734,-0.05023842,0.01815276,0.05486583,-0.013891822,-0.052724868,-0.085912675,-0.041716356,-0.036526218,-0.044806022,-0.0048607695,-0.04366826,-0.005249528,-0.018097967,-0.15893616,-0.02777585,0.058522344,-0.043572865,-0.012632146,-0.056352813,-0.013963873,-0.029343506,-0.029590953,-0.04043532,-0.030714627,0.03254126,0.058939863,-0.102741696,-0.007989235,-0.051360827,-0.0027617957,0.047789507,-0.008924376,-0.064806335,0.10608816,0.0034343346
I1,-0.015126131,-0.02115958,0.10216253,-0.13416868,-0.002707512,-0.08911847,-0.043150265,-0.10082491,-0.05431426,0.16541885,-0.082079664,0.08337261,0.029230513,-0.039083406,0.060106486,0.05082208,-0.08105265,0.15161322,0.06533292,-0.029551482,0.0236575,0.006096941,0.03172225,0.080309466,0.054561194,-0.024397317,0.016998157,-0.08417662,0.00273539,-0.092619695,0.12296045,-0.2912782,-0.013578632,-0.1726527,-0.112025395,0.050877497,0.13578093,-0.024244266,0.041617572,0.088260055,0.0007827355,-0.031217635,-0.14907299,-0.0011312477,-0.0021972423,0.015265061,-0.059329066,-0.14172713,0.10222549,0.0745213,0.041898355,0.1332912,-0.0748099,0.114129536,-0.012220287,-0.00611154,-0.111655034,0.07437163,-0.053234167,0.046786338,-0.018882226,-0.045743983,-0.022600727,-0.004643164,0.0014322369,-0.019878643,-0.06106093,0.047979236,-0.0019869218,0.05923211,-0.027936773,-0.09373825,-0.08525955,0.067904726,0.17028433,-0.09886899,-0.006817137,0.02877936,0.085218646,-0.013798567,-0.12616493,-0.19197801,0.050156996,-0.014425905,0.085568495,0.06962831,0.053412333,0.06307938,-0.025838654,-0.083194785,-0.0044596256,-0.006697483,0.10205653,0.10399892,0.11518914,-0.09394804,-0.036537077,0.00931502,-0.0155536905,0.13453808,-0.0022695854,0.19263904,0.038180865,-0.009232497,-0.025875408,-0.13450366,-0.099662505,-0.00042274475,0.06689868,0.07394552,0.11370574,0.13099647,-0.0010649113,0.09368372,-0.020055147,0.008406871,0.026948838,-0.045815736,0.024429008,0.0036382193,0.0052738874,0.052688036,-0.1459642,-0.012991027,-0.12472571,0.0804532,0.030139612,0.010617113,-0.101448275,-0.030588636,-0.0002246888,0.012401602,-0.06773406,-0.020559767,-0.13804786,-0.042389996,-0.11172555,-0.1922471,-0.035309535,-0.03271654,0.035413865,0.10285718,-0.01963207,-0.1130367,-0.07440214,-0.1426483,-0.05882728,0.21319196,0.03013366,0.1333222,-0.053770475,-0.0996284,-0.04499578,-0.05953089,0.055261996,-0.052223023,-0.09940986,-0.009255879,-0.07486063,0.0579427,-0.004597883,-0.11755631,0.030136215,0.10641056,0.071032055,0.031279262,-0.09577702,0.079626516,0.023307815,0.045335237,0.099459864,0.07683407,0.03719907,0.07492853,0.005575002,-0.09894076,-0.04531738,0.032202795,-0.06092032,-0.022954447,-0.0289415,-0.07727151,-0.04780238,0.044979133,-0.054623455,-0.15067574,-0.016070709,0.022687178,0.05309609,-0.14161262,0.051025722,-0.020029932,-0.09240345,0.0025421216,0.016714888,0.04209466,0.00036104277,-0.08303698,-0.11924213,-0.08602844,-0.053279333,-0.105421744,-0.20683849,0.008033727,-0.0691617,0.10614566,-0.03382831,0.0038232184,0.032972407,0.12063113,0.0015974427,0.12579446,0.16414393,-0.07479312,0.015286512,-0.008275716,-0.06245269,0.017519044,0.07366702,-0.013407254,-0.020126699,-0.03702021,0.01945185,-0.024227547,-0.004288123,0.025025032,0.015301758,0.08760262,0.005911374,-0.09033833,0.222461,0.11656663,-0.07117273,0.06645016,-0.061307233,0.078853674,-0.05104978,-0.166089,-0.01626161,-0.036118526,0.007894359,0.118994676,0.0002048113,0.0419308,-0.009523727,-0.042374346,0.03247539,0.05984869,-0.0067314417,-0.06344638,-0.08207067,-0.037192274,0.10692998,-0.0129882945,-0.09789231,0.039486397,-0.015811764,0.021987233,-0.019866422,-0.014265956,-0.01295905,0.06043471,-0.06773991,0.08480505,0.03192197,0.067003496,-0.17107911,0.09961283,-0.016584428,-0.13477087,0.006821817,-0.02278775,-0.016297258,0.015018392,0.019368298,-0.05460846,0.057495445,-0.10294775,0.020378662,0.09057328,0.088761225,0.013291952,0.090421505,0.01707682,-0.105829075,0.05350874,0.002325876,0.0049828533,0.014534228,-0.06773676,0.005924978,0.09259786,-0.05268131,0.19650157,0.10654595,0.06810704,-0.107908286,-0.037690442,0.05736726,0.034937732,0.124038525,0.027974768,-0.09469327,-0.043487146,0.034029182,-0.08205606,0.0030237297,0.1026472,-0.031789858,0.011947368,-0.080645286,0.09008135,-0.100550056,0.1215711,-0.006279717,-0.049762204,-0.079270944,0.06810985,-0.031994224,0.16354078,-0.057157643,0.019010842,-0.087579414,-0.14720847,-0.019250067,0.021775404,-0.044749953,0.06628952,0.04140768,-0.019917088,0.075872555,0.05846675,-0.019466503,-0.015558591,-0.014259049,-0.047643278,0.10995393,0.038843017,0.039053176,0.052184407,0.08952996,0.08180911,-0.01044868,0.02975318,0.06907449,0.056545183,-0.047240045,0.12857713,-0.08021383,0.13596195,-0.073036395,0.11205609,-0.05434697,-0.020262456,0.098792434,0.016082918,-0.014816458,-0.12411667,0.034314428,0.06481006,-0.0022099207,0.008768868,-0.012000064,-0.012105297,0.0992398,-0.07016371,0.08372006,0.07246364,-0.17231907,-0.21383023,-0.10081663,0.015085434,0.1317398,-0.054987296,0.063378006,-0.0025080647,0.03159379,-0.092761666,0.045776214,-0.22575949,-0.19314082,0.088252455,0.060313195,0.012182118,-0.0432721,-0.12200596,0.109457135,0.1682762,-0.10279313,0.07542129,0.1093861,-0.0013748276,-0.0007441698,0.102192245,0.08208577,-0.051485665,0.0056919423,-0.07933853,-0.05810356,0.15428136,0.01226638,-0.016584722,-0.055672567,0.027608035,0.0015404054,-0.011882694,0.0429013,-0.13287817,-0.034165576,-0.041389477,0.09543967,0.10721274,0.21270286,-0.01949063,-0.018412663,-0.12749422,0.088613234,-0.032268535,-0.14424743,-0.019531857,-0.061956607,0.0012158365,-0.005198937,0.0086523425,-0.056102093,-0.09405195,-0.12307386,0.02467592,0.084561735,0.14843038,-0.13046704,-0.010014589,-0.13539505,-0.05028548,-0.06295919,0.13672385,0.074086405,-0.0705347,-0.08389699,-0.1552996,0.016305948,0.005803461,-0.06754867,0.009330172,0.05531833,0.052708503,-0.00362983,-0.025752684,0.18762389,0.071758755,0.020325284,0.045705125,0.03174179,-0.13269538,0.06466341,0.18206029,-0.008769582,-0.021018893,-0.0742112,0.09800029,-0.07703493,0.0045847264,0.13704917,-0.04400711,0.009723655,-0.027030746,-0.04283712,0.11341705,-0.060318105,-0.014583774,-0.09052339,-0.022245107,-0.13255921,0.07977049,0.12014538,-0.0058829566,-0.05316056,0.03722308,0.04347397,-0.03481598,0.046593186,0.06445348,-0.035842333,-0.12231041,-0.11502329,-0.06274348,-0.07269043,-0.07979742,0.013935508,0.050903354,-0.003707113,0.02406604,-0.034807328,-0.11505366,-0.07432905,-0.054559276,0.008456362,0.010341417,0.15648878,0.10295144
I2,-0.0047682473,-0.035590164,0.05255085,-0.046638757,-0.022881454,-0.041567154,-0.08913811,-0.10101584,-0.079585224,0.056032356,0.03247777,0.08490071,0.056970775,0.012176077,-0.003715232,-0.007193273,-0.017179808,0.09485373,0.035122417,-0.074671656,0.014515002,-0.005059301,0.019263439,0.071648896,0.039969105,-0.035181515,0.011963159,-0.042796217,-0.011290456,0.023661979,-0.011495016,-0.14080518,-0.038196944,-0.024414206,-0.080240756,0.041103806,0.077589214,-0.04498604,0.027115282,0.12879267,0.008671329,-0.028607005,-0.12236748,0.004135953,0.010070161,0.085519835,-0.053540654,-0.054891236,-0.011851965,0.077241585,0.005773171,-0.012082307,-0.027298499,0.07728766,-0.027764842,-0.033424936,-0.090666294,0.14140563,0.0070379507,-0.040265985,0.012778286,-0.0055528022,0.021480327,-0.031289678,0.018458217,0.015142958,0.0589353,0.046866305,-0.0053693834,0.008276573,0.004568942,-0.048318982,-0.0351225,0.16227594,0.06221315,0.04223037,0.0024115369,0.05624224,-0.0033409668,-0.030282967,-0.02735087,-0.09600626,-0.046719108,0.018023435,-0.02059212,-0.011371441,-0.03607562,0.03851843,0.060651362,-0.050755255,-0.0068054814,-0.06487295,0.03268273,0.11739495,0.027301315,-0.029042277,-0.08682536,-0.016091973,-0.0006997818,0.034414202,0.015835874,0.034157928,0.0014669095,-0.040532835,-0.008232245,-0.049085338,0.03773133,0.11518231,0.073505804,0.07388498,0.14656107,-0.015994132,0.11160433,0.076566085,-0.024806509,0.041135736,0.03297461,-0.0392398,0.03766066,-0.043217357,0.0023890305,0.030041438,-0.1298236,-0.03871727,0.006753117,0.01756676,-0.007920456,-0.1262371,-0.013702023,0.02726382,0.060982767,0.0162361,-0.1049693,-0.014925917,-0.024613602,-0.005968891,-0.055447966,-0.02588709,-0.059539415,-0.080293454,-0.011354088,-0.026420996,-0.033082932,-0.027143158,-0.03923219,-0.015317471,-0.13301684,0.06913472,0.049066283,0.06206509,-0.055389803,-0.062204674,0.008482004,0.039152324,0.0030365677,-0.024572726,-0.031015484,-0.009354306,-0.10653788,-0.01537817,0.035118945,-0.03369154,0.03437084,0.008467227,0.020409986,0.030694753,-0.028398855,0.096657336,-0.0349925,0.036981247,0.084615804,0.06706116,0.01898789,0.0026878752,-0.0028512916,-0.039093055,0.035590075,0.05890754,-0.018158073,-0.011475813,-0.052817002,-0.057677045,-0.028974269,-0.08342349,-0.018864317,-0.02813383,-0.047583975,0.00067678094,-0.038185216,-0.015945211,0.03987396,-0.014319574,-0.04501114,0.08206919,-0.018704524,-0.032692853,0.09028657,-0.028682744,-0.020330114,0.019034456,0.06501414,-0.056559667,-0.07842064,0.031761922,-0.07587023,0.054287978,0.023412775,-0.05899786,-0.000295138,0.030419085,-0.019455334,0.12636217,0.034426175,-0.06024032,0.031164352,0.03055493,-0.06773473,0.054607827,0.05128038,0.051592078,-0.052844077,-0.095448166,-0.00040598447,0.029580232,-0.091551006,-0.0065103355,-0.033889264,0.070971645,0.010509684,-0.07329852,0.057830293,0.009977755,-0.046926536,0.051629923,-0.0508488,0.017315947,-0.05487357,-0.065597504,0.02215406,0.023352329,0.06845696,0.08523317,0.0066409823,0.07330049,-0.054841936,-0.07821702,0.010282658,0.0022318922,-0.05562033,-0.031940613,-0.07248354,-0.010112222,0.13043517,0.061386347,-0.04648219,0.0137381805,0.052676424,-0.04965526,0.0891105,0.07543731,0.0029950887,-0.029511463,-0.025901403,0.06553809,0.012602061,0.0630452,-0.08093999,0.08341858,0.010647441,-0.0077397246,-0.021981055,0.008600459,0.044882707,-0.002993681,-0.024842001,0.044378802,-0.05374436,-0.011649689,-0.0019858284,0.049448434,0.05055776,-0.048135437,0.07939132,-0.0023930706,-0.020678028,0.062361024,-0.03146475,-0.029078923,0.042532075,0.018807737,0.044528596,-0.031264313,0.006596042,0.022780173,0.03133941,-0.011054526,-0.059858277,-0.03990285,0.016168244,0.032437917,0.034361113,-0.041512,-0.079288945,0.019611878,-0.10698253,0.025070911,0.0063959155,0.13827294,-0.02115268,0.006894674,-0.11538519,0.054292716,-0.018615624,-0.042242363,-0.020098258,-0.0560174,-0.035900813,0.12994769,-0.0650396,0.11006741,0.0026470763,0.051497135,-0.019214679,-0.064536914,0.01714666,-0.020667065,-0.005060789,0.030483197,0.014988093,-0.1165261,0.023285136,0.05014187,0.031537212,-0.0793501,-0.09501999,-0.026887722,0.00013034604,0.05527219,0.016962495,-0.03337816,0.095164075,0.0055103414,0.048065227,-0.014263626,-0.05715057,0.01971717,0.057558566,-0.003111688,-0.0011029905,0.07252285,0.0011176094,0.06884685,-0.09402883,0.048462186,-0.051039737,0.039067782,-0.084228486,-0.14817424,-0.10284208,-0.018837012,0.007637254,-0.025506768,0.020662325,-0.057398405,0.019430526,-0.048257433,0.051130857,0.050998732,-0.04658869,-0.1120446,0.038276996,-0.02349125,0.16329193,-0.048425276,-0.03392441,0.011759296,-0.007868506,-0.06395243,-0.00314454,-0.078995414,-0.06495993,0.051989563,0.05018544,-0.011991284,-0.055399008,-0.089969814,0.071415305,0.0609968,0.0036138578,0.045715228,0.07519603,-0.014338993,0.030031431,-0.029983688,0.087408245,-0.032282934,-0.03660403,-0.010557683,-0.024096997,0.054168552,-0.011073019,-0.026144437,-0.04740078,-0.05178638,-0.055217274,0.08045111,0.042026695,-0.11949689,0.005859367,-0.0058087297,0.053093843,0.08892295,0.10539346,-0.0013681762,-3.1608157e-05,-0.004562117,0.012934206,0.052234367,-0.12138084,0.04889138,-0.10791464,-0.07635429,-0.079624355,-0.023212872,-0.0047278106,-0.01719068,-0.042752907,-0.02706394,0.06471821,0.069131546,-0.07266558,0.032823734,-0.09089944,0.019282214,0.0762871,0.081503734,-0.018998675,-0.03174695,-0.092650466,-0.09086274,0.01438289,-0.021713164,-0.05287498,0.0019965163,0.06668389,0.055509955,-0.011786241,0.10570399,0.14169435,0.062390894,0.034311764,0.010563233,0.048486784,0.08358431,0.01758143,0.051210646,-0.0012563791,-0.01361248,-0.08934452,0.060530085,-0.0031082276,0.023308171,0.07272608,0.033012267,-0.015663002,-0.050907377,-0.050867915,0.08444399,-0.07352267,-0.009459129,0.04193644,0.006425039,-0.09999361,0.10558142,0.05941315,-0.021268236,0.026450362,0.05070916,0.10441525,-0.044387043,-0.02136627,0.014987467,-0.036705565,-0.06976163,0.013947146,-0.09923327,-0.036234878,-0.016497416,-0.0059617534,0.038651302,-0.002512799,0.026339825,-0.030727345,-0.0537543,-0.124939255,-0.08288422,0.03613057,0.017882874,0.082711756,0.08024203
I3,-0.025584515,-0.03766163,0.12894075,-0.119344406,0.029290363,-0.02415835,-0.081636384,-0.12723035,0.012846774,0.070021495,-0.03171889,0.09370068,0.06826979,-0.0084707495,0.048004515,0.03988267,-0.06661709,0.112598024,0.09577867,-0.004835373,0.026999552,-0.020089151,0.063151605,0.07595314,0.055225797,-0.067907654,0.038888518,-0.037583802,0.039212886,-0.0925005,0.025845785,-0.16672209,-0.063748494,-0.11552286,-0.061224427,0.00999321,0.06325551,-0.011595938,0.02802864,0.117602415,-0.032735124,-0.0046474435,-0.0625678,-0.023324806,0.04037625,0.12269074,-0.03247865,-0.098955065,0.049041685,0.090683214,-0.009035361,0.01960834,0.013800411,0.15395099,0.05196159,-0.052610055,-0.08865774,0.15759303,0.011129235,-0.07389756,-0.03910225,-0.025743239,0.010153315,-0.025554312,-0.044977825,-0.032811515,0.058002055,0.09725453,-0.0074056173,0.010968437,-0.012582918,-0.047633797,0.008785782,0.10984987,0.06810221,-0.0012833361,-0.011120774,0.03044843,0.02269579,-0.029547796,-0.022120554,-0.11063153,-0.010178828,-0.0125604505,0.06151491,-0.046575293,-0.04315005,0.01699724,0.038538262,-0.042622395,-0.00192981,0.052154135,0.045545172,-0.023102174,0.06693179,-0.053425234,-0.10585462,0.019278808,0.017795008,0.0144526595,-0.011156068,0.04049539,0.009358816,-0.005868808,-0.07076859,-0.0734979,0.04192818,0.040606577,0.07189218,0.01567719,0.09867643,0.009969384,0.07701732,0.05146412,0.0059467424,0.0010405113,0.059298523,-0.0046232636,0.025425276,-0.0786345,0.01682919,-0.010519201,-0.18825686,0.008070798,-0.08477588,0.03671977,0.010581295,0.0051207985,0.017705144,0.007673244,0.015605213,0.0027005004,-0.057368953,-0.046866763,-0.097850315,-0.011013327,-0.060195312,-0.10908885,-0.08362372,-0.012200973,0.016741611,0.06794181,-0.03313616,-0.04640533,-0.08472888,-0.004370249,-0.12310117,0.21916157,0.058029044,0.09018877,-0.00552088,-0.022838816,0.021129524,0.008029117,0.000849225,-0.022776812,-0.061855856,6.280647e-05,-0.09854936,-0.016789582,0.06339275,-0.012748388,0.028583929,0.016616289,-0.003587292,0.018826777,-0.087941855,0.061139844,0.0045809667,0.009276922,0.061978497,0.036254987,0.033425685,0.06681652,0.0055548907,-0.08828258,-0.010146231,0.02376501,0.00020764623,0.040865287,-0.05015656,-0.056319017,-0.049849775,-0.011882904,-0.05840277,-0.08132414,-0.0027377862,0.06744102,-0.048317846,-0.054806054,0.050449565,0.00919871,-0.024144238,-0.0056249653,-0.028528156,-0.038598035,0.018716564,-0.022708453,-0.05964805,-0.10799052,0.021565259,-0.09814127,-0.09027321,-0.01422596,-0.055180244,0.15358306,-0.039637618,-0.09082105,0.050178077,0.059669983,-0.06121634,0.10590138,0.043676358,-0.018716738,0.02683419,0.01182911,-0.074503355,0.00752824,0.008802358,-0.06125447,-0.07193262,-0.016623236,0.056987494,0.010707587,-0.08063292,-0.01950497,0.043056753,0.04063182,-0.045202266,-0.020922296,0.0988817,0.04096512,0.05746265,0.058120813,-0.03312211,0.059546348,-0.03462013,-0.1026976,0.06642135,-0.03419997,0.027079977,0.08395894,-0.010424925,0.059080165,0.0056883013,-0.056463495,0.07187559,0.018752323,-0.048273448,-0.051626958,-0.116536885,-0.007669649,0.15390503,-0.0023923146,-0.06992499,0.06598218,0.025117235,-0.013679688,0.014932809,0.076550856,0.015051039,-0.0073801647,-0.024687266,0.10398919,0.033833645,0.053848222,-0.055849142,0.08647312,-0.008458407,-0.04305728,-0.029370504,0.012225508,0.058832586,-0.010708083,-0.039709173,0.020664154,0.030551996,-0.04166707,0.014206261,0.07040002,0.011870762,0.0027242338,0.07145209,0.011684628,-0.056170654,0.12428958,0.039164983,0.039056912,0.005220895,0.04178316,-0.0135115,0.020692999,0.02942355,0.10983033,0.010927241,0.011019997,-0.10352767,-0.09302623,0.12780361,0.019875173,0.067465015,0.019118197,-0.029466297,0.0030891397,-0.14749762,0.0075811124,0.002138364,0.11305265,-0.023674982,0.00015625585,-0.105428375,0.10057524,-0.06940059,0.021405157,-0.026786024,-0.021044435,0.00051137374,0.09585605,-0.018026909,0.14074318,-0.09513092,0.043405406,0.0038923172,-0.034708764,0.0506376,-0.055598695,0.019324975,0.051321354,-0.022278776,-0.039762255,0.035099044,0.08450815,-0.0046224627,-0.025063673,-0.08092333,-0.064899564,0.078720696,0.07098847,-0.017626064,-0.049510244,0.07252006,0.098253615,-0.014718944,0.029183911,0.040581197,0.05198906,0.037397347,0.04289368,-0.044984512,2.3598188e-05,-0.046691462,0.10498369,-0.02834723,0.002026506,0.022973467,0.09287444,-0.07658516,-0.14552213,-0.004425881,-0.009856879,0.062493347,-0.022672586,-0.0053983517,0.004785929,0.018795544,-0.06615001,0.052133095,0.07432555,-0.060017545,-0.0727618,-0.09273182,0.0037526614,0.14760645,-0.041812263,-0.04130418,0.04738711,-0.036830876,-0.06368961,-0.04217448,-0.14199035,-0.17610039,0.044150062,-0.015754493,0.026981888,-0.06029479,-0.06316404,-0.017479973,0.21975726,-0.039527502,-0.005386071,-0.0030716935,0.003809949,0.022903427,-0.010717904,0.02958976,0.011505226,0.04774784,0.010544605,-0.010672576,0.079801455,0.01620306,-0.10168264,-0.07444808,-0.06375855,-0.04819568,0.083101414,0.032450195,-0.09753878,0.007521736,-0.06811491,0.016090607,0.095496,0.1279004,-0.007825851,-0.045985304,-0.015032053,0.045207523,0.004084437,-0.0843659,0.011776084,-0.018779907,-0.098331094,-0.09137952,-0.012253073,-0.029096752,-0.021983089,-0.035443783,0.042896174,0.07755589,0.1716811,-0.10385643,0.07471497,-0.062060412,-0.00091716583,0.09984886,0.13263886,-0.051488217,-0.057179328,-0.018617576,-0.05265501,-0.01653346,0.014440822,-0.05792955,0.043057658,0.02924015,0.032214455,-0.05089501,0.042907838,0.114151835,0.053003985,0.0527646,-0.021430274,0.05308798,-0.033554193,0.051981855,-0.012735256,-0.011844652,0.015698884,-0.0009898827,0.061928764,-0.0053604613,0.05534351,0.07121524,0.006780414,-0.007022291,-0.053530123,-0.04491359,0.087499164,-0.0339701,-0.031918377,0.037344836,0.01668288,-0.07115845,0.07360388,0.046736933,-0.0042836433,-0.015933339,0.009849387,0.0065515176,-0.06525236,0.010413107,0.036254887,-0.065576725,-0.059662536,-0.0079416605,-0.057915468,-0.052002046,-0.08334637,-0.063497454,0.018180642,0.036921993,-0.02111696,0.011148726,-0.028912654,-0.10140519,0.03285384,0.07144678,0.0010634029,0.14123505,0.14322704
I4,0.021310184,0.011345716,0.08983473,-0.16328016,0.0053781904,-0.062119883,-0.086154476,-0.07549459,-0.057145722,0.09210643,-0.09306175,0.08015912,-0.0019800747,-0.023838714,0.035770226,0.016964272,0.020668609,0.02315888,0.08473176,0.02010067,0.008312461,-0.039633404,0.06864576,0.018534904,0.14570557,-0.09192818,0.07312497,-0.017888103,0.013251308,-0.053700943,0.031847175,-0.2738157,-0.06911707,-0.1210104,0.01259861,-0.056553215,0.052610636,-0.07697023,0.0927637,0.10552688,-0.026150128,-0.03075648,-0.024289714,0.013608301,0.05196863,0.09341042,-0.10350606,-0.013187401,0.04269257,0.08043354,0.06343989,0.050104197,-0.058486793,0.16189297,-0.019471522,-0.058914408,-0.04893416,0.15868042,-0.011596003,-0.008654008,-0.0040187975,-0.041550454,-0.022340054,-0.035311967,0.017843649,-0.096919775,0.07755804,0.048266858,0.014160936,0.06233686,-0.061922446,0.004206705,-0.056831535,0.14130569,0.070912935,-0.010645152,-0.00935567,0.083433926,0.024253273,-0.07319714,-0.08563756,-0.17033993,-0.023549046,0.03602697,0.031212512,0.04922423,-0.050448947,0.07201254,0.043343272,-0.0743657,-0.0049526393,0.019643022,0.11189856,0.0969146,0.09062255,-0.030500224,-0.11094082,-0.005219063,0.06623695,-0.0024557756,-0.015223761,0.10248024,0.070378445,-0.08204368,-0.016887873,-0.059708357,-0.097067334,0.07055927,0.0682794,0.06558249,0.123674184,0.012191267,0.11628359,0.071712725,0.051054493,0.042388428,0.022840241,0.026626598,0.068447545,-0.02703236,0.033565372,0.056723338,-0.14073965,0.02098383,-0.05094169,0.030335806,0.021269748,-0.06775123,-0.03826557,-0.05998387,-0.003881655,0.024203911,-0.058233228,-0.010377631,-0.055396356,0.00657548,-0.047819015,-0.15221553,-0.12671714,-0.04022973,0.04377436,-0.0066767735,0.02363039,-0.16891906,-0.07371456,-0.057489347,-0.03414535,0.18567476,0.0067598647,0.10979195,-0.065031596,0.0028803407,0.029328465,-0.033336774,-0.003664765,-0.034283724,-0.08435538,0.044777438,-0.06955281,0.032645617,-0.05710333,-0.06338672,-0.013617647,0.06380146,0.081347995,0.03169531,-0.020097448,0.015560818,0.05231646,0.0643279,0.024381049,0.030663172,0.0016903863,0.107277766,-0.06822321,-0.09121149,-0.038168427,0.035109315,-0.05640277,-0.03593252,0.019838514,-0.060627557,-0.0015019135,0.032099478,-0.06819632,-0.07282072,-0.0024311736,0.026032312,0.016002953,-0.117837384,-0.0023081163,0.049828824,-0.11581687,-0.0073611657,0.017520184,-0.03228666,-0.008684427,-0.0550457,0.0013137314,-0.17089288,0.029642388,0.033321466,-0.1586648,-0.0016753689,0.028287848,0.14780812,-0.068942055,-0.001277172,0.056228142,0.11341229,-0.008551932,0.05580545,0.1902762,-0.0049610627,0.013363847,0.00026412954,-0.15961127,0.021877872,0.0168651,-0.012804548,-0.05654721,-0.02092106,0.08773568,-0.05477052,-0.10942665,0.0058409204,-0.06712336,-0.01640365,-0.07805471,-0.06145977,0.070053995,-0.00048285615,-0.03245117,-0.0048330687,-0.027193232,0.059120093,-0.10431827,-0.111524485,0.046388965,-0.11945276,0.026931552,0.085091256,-0.041563388,0.046152808,-0.024437023,-0.07659905,0.0021453786,0.07131994,-0.021281365,-0.058388524,-0.070631124,-0.023320602,0.13628148,-0.12022267,-0.04292134,0.06649671,-0.036974132,0.012880883,0.03933757,0.06535457,-0.106750846,0.037461594,0.053331133,0.040977407,0.06222189,-0.046631426,-0.13855189,0.08919132,-0.052700177,-0.0050479467,0.032715138,-0.019681564,0.07113247,-0.008453237,0.010017845,-0.033137422,0.004625117,-0.046499703,0.017972173,0.10620297,0.050931226,-0.0024855498,0.09857753,0.022239454,-0.08481583,0.06990342,-0.021302763,0.06660265,0.08619372,-0.047314618,0.030434044,0.077679135,-0.021290785,0.16402543,-0.016729355,0.062905274,-0.05876468,-0.048066046,0.01127984,0.03301553,0.019109713,0.09807996,-0.040393658,-0.09686726,0.021973649,-0.015789235,0.017552026,0.070111156,-0.006087747,-0.018257929,-0.0149953645,0.01807859,-0.02730869,0.0506292,0.042944204,-0.034101684,-0.05162718,0.08133726,-0.08185628,0.10307464,-0.08512169,0.025613725,-0.090574674,-0.075363874,0.03318452,-0.021371042,-0.027491217,0.04145372,0.025148362,-0.07463092,0.025097206,0.07539628,0.015946798,0.00046444644,-0.023231806,-0.07925711,0.017323893,0.062360056,0.0052728653,0.0001738044,0.11539232,0.054810446,-0.012094262,0.034917798,0.0673396,0.010643477,0.035662334,0.106770664,0.010351223,0.05634337,-0.041857544,0.031290546,-0.02107358,-0.0036153765,0.14959012,0.019640286,-0.079984866,-0.115851454,0.04628146,0.024113486,0.058259036,-0.10409632,0.033968557,0.102292344,0.022855693,-0.04890234,0.044430096,0.055265974,-0.20186983,-0.09429562,-0.13839367,-0.008792699,0.018202469,-0.05413226,-0.027966525,-0.05549736,0.003921595,-0.11541677,-0.050401624,-0.15998518,-0.15139244,-0.019627227,0.0010324885,0.022792364,0.035122126,-0.14604579,-0.038304605,0.23078744,-0.03469175,0.078191854,0.055411905,0.008904361,-0.035538998,0.056735728,0.14025033,0.009317539,-0.0007362378,-0.09374283,-0.03111408,-0.015595318,-0.035227016,-0.1076681,-0.021934442,0.0019979654,-0.12273916,0.017720206,0.030731969,-0.065988146,-0.044629626,-0.036178518,0.023846816,0.10789366,0.15504453,0.013163694,-0.031236373,-0.007907223,0.098225206,0.05953387,-0.07667357,0.07402677,-0.024234392,-0.102730855,-0.027395654,0.011379615,-0.013989241,-0.09731199,-0.07787406,0.019700443,0.057995804,0.023196986,-0.09034136,0.07336736,-0.18044141,0.0038180028,-0.0077071493,0.16233361,0.036273263,-0.12372118,-0.09204216,-0.17388938,0.01722656,-0.015127929,-0.01789862,0.08219144,0.0739127,0.07084602,0.048281834,-0.025339892,0.21027382,0.061730694,-0.001648464,0.012054449,-0.0122329295,-0.15103126,0.118962556,0.03918685,0.019459277,-0.07553399,0.033384394,0.06258026,-0.030537294,0.02226046,0.11492103,-0.010751758,0.059643082,-0.008055361,-0.043736417,0.11814749,-0.05913699,-0.006897001,-0.002555972,-0.0137455175,-0.08301716,0.079344325,0.0033353437,-0.032949336,-0.14312659,-0.019146759,0.026936663,-0.071251705,0.025390483,0.0859506,-0.0570923,-0.004039378,-0.072928146,-0.08505583,-0.091494255,-0.04289738,-0.030951321,0.0072007556,0.0066466792,0.022337945,0.013538673,-0.04223319,-0.06707456,-0.02927723,-0.0014442671,0.010142755,0.117686026,0.069442034
I5,-0.011012964,-0.033851784,0.08725017,-0.060773045,-0.07171495,-0.05180437,-0.028313283,-0.0043974193,-0.091371626,0.013823825,0.006752906,0.008050103,0.026309721,0.07804607,-0.016504921,-0.059786595,-0.015740734,0.06853366,0.028014485,0.01581902,-0.025250506,-0.00096597616,0.0074333325,0.02570023,0.042070985,-0.059154153,0.015667174,-0.05058905,-0.045000635,-0.024555374,-0.048751693,-0.17305084,-0.09584064,-0.04266984,-0.05889694,0.024295323,0.048681717,-0.010820079,0.07034321,0.09605619,0.03256697,0.03180702,-0.06319475,-0.027558446,-0.046175484,0.04512391,-0.04176008,-0.03382713,0.077769764,0.13759851,0.019656282,-0.05522401,-0.015720008,0.107537925,0.009910172,-0.038268387,-0.052584734,0.0811047,0.05686315,0.011302004,0.033040214,0.018620618,0.029717058,-0.03212074,0.012585584,-0.003524744,0.053187557,0.040281914,-0.01365147,-0.038832247,-0.028667625,-0.113563,-0.018829707,0.123265535,0.04412908,-0.012811061,0.0113197025,0.07279359,0.018954761,-0.100304276,0.0058532804,-0.10921916,-0.060225703,-0.023059588,-0.02022709,-0.010143645,0.063192785,0.037091956,0.06961534,-0.03228697,-0.042487066,-0.004902886,0.031243479,0.08428426,0.010989655,0.017449765,0.031154003,-0.025624555,0.07055274,-0.007706159,0.041380636,0.028211024,0.0038851302,-0.01823855,-0.047479775,-0.018030688,-0.011585893,0.09723733,0.040293038,0.057475638,0.12517792,-0.024525315,0.042532567,0.014248768,0.03309782,0.035889752,-0.034331262,0.036151692,0.017662002,-0.058831263,0.025538497,0.069981724,-0.092222214,0.022330103,0.062434837,0.037022453,0.029998533,-0.05651754,-0.025009982,-0.09083223,0.06385523,0.05573973,-0.025369167,-0.033141106,-0.019911902,-0.04414369,-0.06778473,-0.023685988,-0.081208296,-0.07175915,0.014634331,-0.0098330155,-0.039884686,-0.0318854,0.039931398,0.002957549,-0.039471637,0.061307322,0.041900866,0.022174912,0.038417477,-0.036943533,-0.0107876975,-0.029314484,0.00900003,-0.027415957,-0.068889484,-0.0016917773,-0.07685003,-0.05625344,0.011478554,-0.03472925,0.017353086,0.035451137,0.048144575,0.06393496,-0.0758761,0.046263024,-0.011673667,0.026426563,0.08348136,0.07118197,6.524287e-05,0.009620666,-0.01962151,-0.014516982,0.047152024,0.037398845,-0.05428489,-0.046168074,-0.047058616,-0.0128560765,0.019017974,-0.008689132,-0.042367317,0.040964656,-0.021797746,0.033457883,-0.022072464,-0.0010339608,0.037779212,0.02655604,-0.06220829,0.06925795,-0.056647606,-0.06351799,0.05269166,0.00018601073,-0.031735484,0.043349285,0.019683853,0.022134887,-0.1007411,-0.012546003,-0.07708652,0.01483391,-0.0142411785,-0.056963474,0.048382588,0.09680952,-0.008499043,0.09924589,0.017524406,0.027775513,0.05162849,-0.022533646,-0.036370255,0.089158304,0.022246066,0.006590995,-0.049098264,-0.052202135,0.008042919,0.035653375,-0.075904325,-0.029916609,-0.014245231,0.03783593,-0.067907415,-0.02238243,0.06568437,-0.010049,-0.005395664,0.064945534,-0.050038468,0.01933347,-0.06855732,-0.04365629,-0.003197275,-0.024820253,0.0004778169,0.08328947,-0.049663275,0.0101239225,-0.04868825,-0.065699205,0.009017079,0.051854912,-0.035477813,-0.041324697,-0.11731191,0.0075806356,0.1030107,0.045660835,-0.057273224,0.029620443,-0.010451256,-0.06579803,-0.016679902,0.10249403,-0.08725295,0.051897027,0.037347674,-0.023097036,0.062266707,0.07959537,-0.12693852,0.035982102,-0.01702165,0.0056836857,0.06753093,-0.025349593,0.024979692,-0.041482933,-0.05258189,0.05348315,0.024461316,-4.794076e-05,0.013341057,0.08179543,0.09103783,-0.062479787,0.07554743,0.024222452,-0.045050684,0.08746348,-0.050449274,0.036378894,0.033193197,-0.022840513,0.055559356,-0.0116160605,-0.009247124,0.07990561,0.012276398,0.03109385,-0.031372145,-0.037406117,0.025291054,0.027831964,0.03557854,-0.013009575,-0.06582873,-0.0026380229,-0.083294734,-0.015105414,0.06128235,0.086062044,0.007984215,-0.009667357,-0.04708481,0.010967624,-0.0027128435,-0.01657522,-0.05986356,-0.031714566,-0.06705057,0.106739804,-0.06580507,0.062375598,0.019445121,0.024078816,0.03658453,-0.111756824,0.018500607,-0.1038369,-0.0007423721,0.04986795,-0.005015806,-0.10544215,-0.0039108796,0.06763512,0.013098243,-0.026290264,-0.09335737,-0.019237492,-0.017928367,0.0027292878,-0.0044959094,0.03076797,0.0933703,-0.01285274,0.06276978,0.03382132,-0.04526839,-0.004939421,0.053951114,0.018023279,0.011183075,0.05429456,-0.02094822,0.05340009,-0.079375416,0.07070507,0.011165258,-0.018660955,-0.10612826,-0.22227056,-0.09950961,-0.018386912,-0.041169442,-0.007871091,0.0453528,-0.037106883,0.04890304,-0.027994849,0.017018713,0.005854817,-0.017148659,-0.050477147,0.035891306,-0.01127979,0.10640131,-0.035151795,-0.02434399,-0.10668277,-0.008424313,-0.051044945,0.03087879,-0.04375943,-0.09564644,-0.017399365,0.097904585,0.04678096,-0.048630185,-0.09103725,0.07239825,0.0313158,0.0877251,0.0092231305,0.06740445,-0.040088154,0.044615537,0.024342293,0.06057967,-0.03551823,0.008944514,-0.087996505,0.019206936,-0.0037875916,-0.018943008,-0.043486644,-0.023330245,-0.039642587,-0.04106758,0.06243314,0.020979261,-0.08362648,0.0012453656,-0.001555549,0.048274197,0.10657849,0.104189076,-0.036135502,-0.04571163,0.06446109,-0.018968383,0.087310344,-0.06695043,0.038371697,-0.06502788,-0.095970504,-0.039404042,-0.009250256,-0.02781267,0.022080034,-0.02423367,-0.0070122723,0.055552788,0.048414804,-0.054927196,0.005505204,-0.064217836,0.022699889,0.08474353,0.09125112,-0.038627107,-0.026836071,-0.06930952,-0.085468955,0.008754918,0.026268858,-0.045862757,0.040874686,0.024833553,0.06822486,0.006501576,0.058689598,0.12438622,-0.006340281,-0.04441277,0.014253411,0.054101504,-0.018837972,-0.0062076747,0.030575747,-9.9665485e-05,-0.070580155,-0.014140079,0.058478735,-0.023408288,0.007048301,0.123227715,0.009826135,0.012780673,-0.017000476,-0.026149556,0.07728642,-0.028329816,-0.012260225,-0.013247073,-0.0127618555,-0.098789304,0.13777004,-0.019365706,-0.0053842952,-0.05109532,0.00071473094,0.067605995,-0.048518986,-0.016730007,0.039792635,-0.015938994,-0.005085055,0.024607493,-0.10634285,-0.019019369,0.016739279,-0.02780664,0.03866814,0.004687502,0.05368008,-0.0061467853,-0.028231772,-0.14951752,-0.07206389,-0.0108631635,-0.012827102,-0.013307536,0.088888966
I6,-0.029678905,-0.0466093,0.14806898,-0.1486406,0.03271039,-0.03132132,-0.09263741,-0.106572546,-0.039597135,0.10640829,-0.07232892,0.076667376,0.08165964,-0.035200153,0.060635656,0.02340285,-0.07251895,0.11870551,0.01786918,-0.0135045005,0.031101562,-0.0036636454,0.057953883,0.1468973,0.026940254,-0.02525119,0.06539704,-0.053435955,0.021882141,-0.0068374597,0.044833403,-0.20041776,-0.050104525,-0.12494868,-0.056066927,0.06744426,0.046589773,0.030856336,0.06894417,0.12861119,-0.025331527,-0.007343138,-0.037853412,-0.059556853,0.02912321,0.067229785,-0.11077529,-0.10443049,0.05584575,0.120360695,-0.036626276,0.073106,-0.047159776,0.17219003,0.10500454,-0.07051023,-0.16326618,0.08903414,-0.02682204,-0.05666034,0.024067268,-0.012649812,-0.01805773,-0.06296168,-0.037693974,-0.014752656,0.012473325,0.06856396,0.0029199962,-0.025033755,-0.037825324,-0.056131452,-0.022078454,0.048637997,0.114848934,-0.027729407,-0.009998667,-0.028050648,0.10146987,0.013254847,-0.04659717,-0.19374944,0.00475048,-0.02166739,0.03761804,0.00805405,0.018319163,-0.015341931,0.0015830895,-0.027634775,0.042484373,-0.0066173337,0.101645105,0.029505143,0.021949181,-0.05231518,-0.07655463,0.013447086,0.0036256213,0.044832278,-0.0042097704,0.06570023,0.06745926,-0.011102796,-0.11679587,-0.073153,-0.006583885,0.072906785,0.065500736,0.03661583,0.14534669,0.13830997,0.046018492,0.03987843,-0.030233743,0.009555477,0.058822583,-0.038859684,0.0043695928,-0.029943308,0.04713658,-0.001988388,-0.13363272,-0.07857375,-0.13495603,0.09192661,-0.004632149,0.06271761,-0.055456284,-0.06825463,0.02420588,0.048205405,-0.094889976,-0.05054229,-0.11604128,-0.0070898146,-0.103463136,-0.13204849,-0.049629692,-0.04608767,0.0055125523,0.0725442,0.0063778087,-0.096557714,-0.07689299,-0.04239348,-0.11054573,0.20481837,0.037617326,0.08907633,0.022135356,-0.00799781,-0.017762607,-0.00571397,-0.0077277063,-0.049810532,-0.040887654,-0.028983893,-0.111570574,0.08099096,0.022554025,-0.08010607,0.07918761,0.049434215,-0.0057969973,0.03044106,-0.033945844,0.1097141,-0.04754277,0.048272982,0.058798507,0.055484667,0.032959964,0.058753848,-0.026563996,-0.06281768,0.008315663,0.060485546,-0.04259293,0.027650049,-0.04846011,-0.10932317,-0.083603896,0.036136534,-0.055792402,-0.048684906,-0.025868198,0.023720736,0.023417497,-0.045657683,0.068919145,-0.021239368,-0.06460101,0.012417019,-0.057285115,-0.019611051,0.015775044,-0.06468008,-0.06919886,-0.13024995,0.02887628,-0.100747675,-0.12954868,0.00892298,-0.028972484,0.11879053,-0.04452837,-0.07763804,0.06907337,0.09067297,-0.016369095,0.10756805,0.013318125,-0.116108984,0.048693668,0.021199277,-0.07645883,-0.0074893,0.08915045,-0.06447091,-0.053055197,-0.02124166,0.071884684,-0.018770177,-0.010479331,-0.0056709754,-0.048832342,0.03411709,-0.02255366,-0.04908943,0.09567192,0.046838973,-0.029242918,0.061091512,-0.11152003,0.09025547,-0.08061112,-0.17215586,0.05653675,-0.055890083,0.11263309,0.15319143,-0.011318236,0.04444887,0.035002418,-0.10227286,0.08339373,0.018690264,-0.027131282,-0.0835439,-0.14731157,0.009397387,0.15017891,-0.046697106,-0.09203264,0.08701032,0.06945813,-0.008467254,0.06911203,0.016627677,0.020063655,0.09199991,-0.026243934,0.06927916,0.07805579,0.09282487,-0.088431954,0.13087974,-0.0769888,-0.062253166,-0.0453043,-0.01134096,0.043368056,0.0033075179,0.0048269364,-0.03576729,0.0137206875,-0.06674994,0.029714635,0.08662924,0.066321634,-0.00728298,0.100257255,0.028939186,-0.05071721,0.09293407,0.035643235,0.016690737,-0.030441375,0.004663281,0.020448824,0.020347219,0.02977136,0.16827022,0.05622324,-0.02194228,-0.13967307,-0.042105332,0.04183795,0.009460182,0.11137109,0.0043869787,-0.104191564,0.03783996,-0.09355063,-0.02695424,0.03248862,0.16107194,-0.03448808,0.0136707015,-0.1463075,0.12882033,-0.06842057,0.038798314,-0.039280795,-0.06946248,-0.00030501126,0.110901035,-0.004805375,0.21177763,-0.20596795,0.0058865384,-0.059908975,-0.13823761,-0.027252892,-0.004497455,0.0051642465,0.09084066,0.051888864,-0.014780187,0.019946704,0.07154909,0.03202817,-0.007100342,-0.06106101,-0.030446313,0.12619251,0.1121021,0.03338559,-0.033123866,0.0812144,0.094732516,0.0039660325,0.0074510784,0.049229857,0.032036588,0.04062793,0.031907905,-0.057283413,-0.0048681227,-0.05683328,0.07668105,-0.04887261,0.058837656,0.043685332,0.07956471,-0.02277077,-0.15821877,-0.011899988,0.011604791,0.056423057,0.0068152244,-0.025913803,0.016262755,0.05578712,-0.06979042,0.11626438,0.041872624,-0.067909956,-0.08517393,-0.15293752,0.0045947037,0.1123994,-0.006230702,-0.008218705,0.05016689,0.0015461555,-0.0372655,0.02650846,-0.13597204,-0.21505938,0.09324648,-0.052635808,-0.038398,0.012932607,-0.081905894,0.086159356,0.23171876,-0.11172608,0.026554815,0.060494695,-0.014543529,0.046255853,0.062471032,0.008568977,-0.025105847,0.02810368,0.0022858467,-0.05408257,0.07312193,0.06539723,-0.03976272,-0.034107845,-0.0016952868,0.04785664,-0.017281724,0.0131235905,-0.112772524,-0.033883203,-0.0052518896,0.10158797,0.13904689,0.13236415,-0.07290128,-0.05868188,-0.0889313,0.102021076,0.016305827,-0.04254972,0.026502728,-0.09539508,-0.023333004,-0.07035431,-0.018210242,-0.058077753,-0.06950613,-0.072493754,0.016735924,0.10325513,0.14794527,-0.11781973,0.01171409,-0.08376644,-0.0070975884,0.047463726,0.11476284,-0.0027992036,-0.036825147,-0.07787803,-0.122490264,0.012210839,0.012301393,-0.09382067,0.039782252,0.088264525,0.08721974,-0.0093676485,0.018631916,0.2086467,0.10139114,0.033387553,0.04903509,0.075751595,-0.029746212,0.07561557,0.08688075,-0.05082151,-0.031875156,-0.04718854,0.028434655,-0.008476564,0.052466754,0.102064066,-0.0039665936,0.010797168,-0.0078567,-0.020736715,0.09875765,-0.059096634,0.0142973075,-0.008140205,0.017118068,-0.1357014,0.18053222,0.08181187,-0.022844443,0.05363764,0.022076866,0.04369646,-0.043340612,0.024411134,0.085387625,0.0030384117,-0.09760246,-0.032753665,-0.06338575,-0.07495368,-0.08022747,0.0039791698,0.037458,0.025920713,-0.0737099,-0.038773265,-0.0813349,-0.10219961,0.04521398,0.106033236,-0.020157224,0.15719688,0.18108065
I7,-0.026886301,-0.046678357,0.072703384,-0.04202135,-0.03479037,-0.020698035,-0.09085497,-0.02054868,-0.046887167,0.078064084,-0.034325615,0.028676061,-0.01137256,0.02303813,0.012802855,-0.04740524,-0.071581185,0.088711366,0.02912364,-0.04919545,0.039911114,-0.0019944187,0.08795152,0.07805543,0.082775965,-0.03905803,-0.0044570426,-0.029140968,0.022164792,-0.025206074,-0.0014162611,-0.13970502,-0.08684625,-0.07991375,-0.04422502,0.07926715,0.06613161,-0.01927696,0.07301552,0.043816153,-0.07099286,-0.010622983,-0.09314634,0.010288944,0.0003358638,-0.0039541135,-0.032238483,-0.06779316,0.081170045,-0.005889088,0.05913404,0.05338086,0.049664803,0.071439624,-0.011993752,-0.006690713,-0.040464293,0.11549675,0.006915868,-0.027773969,-0.021194037,-0.09019011,-0.009358827,0.031606816,-0.00031132577,-0.08415473,-0.018802354,0.09590365,-0.014738483,-0.009598114,-0.034205385,-0.012501245,-0.047365922,0.029757634,0.1308734,-0.036267657,0.020848256,0.03453304,0.009670036,-0.11057518,-0.08228258,-0.18043739,-0.037159223,0.059709515,0.02950583,0.04599944,0.046104208,0.060207553,0.011613793,0.010975577,-0.0342406,0.0031876196,0.05764011,0.06413435,0.052063923,-0.0755702,-0.044348475,0.020738257,-0.0002236035,0.05632484,0.020105075,0.045319904,0.03315618,-0.028034173,-0.014041244,-0.060652353,-0.045523215,0.08938151,0.04427888,0.078767516,0.12490467,0.050203238,0.026090743,-0.021537181,0.04409692,-0.009607438,0.0077034007,-0.009723536,0.016270008,0.002620127,0.050186466,0.0064468337,-0.09213461,-0.016026461,-0.0006608642,-0.004517796,0.009550955,0.021980992,-0.03679769,-0.05603737,0.033695072,0.07023297,-0.07118028,-0.12701926,-0.06792966,-0.005501073,-0.08088856,-0.18387334,-0.037974212,-0.045501254,0.03975396,0.018533275,-0.040453114,0.002942082,0.00026603884,-0.100484826,-0.068592295,0.089744896,0.02460083,0.11627245,-0.01567445,-0.07697383,0.005974312,-0.07828411,0.038130037,0.015493403,-0.06343366,-0.03339241,-0.04658253,-0.0055228635,-0.040493578,-0.011684639,-0.005892216,0.06330887,0.06716269,0.09582603,-0.028996414,0.052593354,0.0060900003,0.028417004,0.028809518,0.09029784,-0.017035363,0.053225756,-0.018128421,-0.07029774,0.019614257,0.007030594,0.0060870294,-0.043107234,0.059537306,-0.07136636,-0.025048453,-0.0027822475,-0.008176345,-0.0095229065,-0.017646492,-0.008455996,0.042979524,-0.047664218,-0.0040085674,-0.020860504,-0.058608077,0.0587936,0.007055697,0.005611501,0.0518821,-0.031231048,-0.0063699307,-0.071372986,-0.034781534,-0.028419178,-0.1304554,0.0016148376,-0.060270518,0.024738025,-0.07817665,-0.06793191,0.053626936,0.16847713,-0.012808485,0.13739929,0.12630202,0.01856788,-0.007899656,0.024442788,-0.020146603,0.00011518753,0.06283443,-0.0625855,-0.04298821,-0.033254877,0.04004027,-0.041514784,0.019352935,0.0001946324,-0.02667891,0.065805845,-0.06349656,-0.044564735,0.14404869,-0.035699334,-0.013409295,0.07588573,-0.06392029,0.09687534,-0.0680265,-0.13268171,0.0057676537,-0.031243676,0.0040663444,0.10154697,-0.035507612,0.0550768,0.016938495,-0.053738907,0.027440317,-0.023491463,-0.029574022,-0.066573545,-0.10839771,-0.09647954,0.060090728,0.019681063,-0.07604004,0.08006774,0.019250093,-0.040670574,0.023121655,0.057604887,-0.06746539,0.023465317,-0.010412672,0.037257034,0.0065263147,-0.021725267,-0.16498724,0.04465277,-0.02228821,-0.0056454465,0.006995125,-0.04970065,-0.0011931731,0.008093248,0.041268766,-0.0401018,0.043879915,-0.046904597,0.04371951,0.07487385,0.05599715,0.052052956,0.06582905,0.018503053,-0.05590917,0.04555072,-0.035633124,-0.05438475,-0.029124497,-0.07835923,0.00084831804,0.00090144604,-0.0051019997,0.08808879,0.09518066,-0.02045396,-0.1151397,-0.037526686,0.036529794,-0.012321173,0.049022496,-0.015241165,-0.047528278,-0.04522826,-0.10231307,-0.06762871,0.008581083,0.10327406,0.020153783,0.006296526,-0.062725015,0.043170728,-0.033157844,0.16384123,0.001914541,-0.029935626,-0.004700612,0.048440274,-0.032087807,0.10971065,-0.030217517,-0.018684652,-0.04244113,-0.12863232,0.049608555,0.009127331,-0.024732701,-0.051141422,-0.026486494,-0.03894915,0.102563255,0.010016386,0.0048362045,0.039985716,-0.020758681,-0.062155444,0.075456776,0.03733509,0.0063794833,-0.040879194,0.042282224,0.07072786,0.03454155,0.025232267,0.012773926,0.05218426,0.051433764,0.061445087,0.017447948,-0.0053679207,-0.06393153,0.068160035,0.010179709,0.036817946,0.04773538,-0.08736188,-0.026011154,-0.08019626,0.0028000718,0.031734116,-0.014366814,0.0035728237,0.010058496,0.0069289333,0.07300401,-0.021475777,0.02513457,0.051436666,-0.105017446,-0.10320791,-0.12720823,0.003878584,0.022081282,-0.036348354,0.07200941,0.09038406,0.0015223498,-0.043689106,0.021998996,-0.079265974,-0.110140085,0.091312915,0.070975825,0.038229477,-0.040782258,-0.103281625,0.0015258165,0.16359812,-0.034071855,0.049805854,0.038756054,-0.00018186131,0.012327645,0.07364623,0.07749855,-0.014632335,0.03897201,-0.06737281,0.025578456,0.057269424,-0.0009800665,0.009873954,0.016165828,0.040535867,0.015215685,-0.05476052,-0.0068777204,-0.051176038,-0.10301301,-0.06403331,0.044450328,0.07107995,0.13861467,-0.04121335,0.011831235,-0.030792406,0.10844837,0.04024421,-0.09483145,0.001184451,-0.07637038,-0.09361546,-0.0671703,0.015703885,0.008138857,-0.049323425,-0.027744386,0.047712017,0.093703136,0.038270157,-0.06656746,0.04267003,-0.10130409,-0.023589268,0.06585725,0.11437891,0.031330332,-0.087179594,-0.06470945,-0.1600206,0.040415615,0.010570704,-0.036840275,0.03909629,0.00074955204,0.067150734,0.10147746,0.004322886,0.16726243,0.045489706,0.026710927,0.015249674,0.0068851057,0.004425747,0.011631768,0.074104115,-0.015603934,-0.083657056,0.0015850168,0.034422137,-0.07027029,-0.02315676,0.03873504,-0.023873763,0.053441808,9.424134e-05,0.016524877,0.110693865,-0.036538165,-0.017445255,-0.063310094,0.048866894,-0.0224618,0.11381199,0.033919647,-0.040014397,-0.07261689,0.046699498,0.02467405,-0.01421855,0.051175606,0.0548837,0.013189149,-0.14156301,0.0021150892,-0.1005795,0.009402151,-0.07936448,-0.026402527,0.03791975,-0.0005322252,-0.0012379764,0.0043657506,-0.091526,-0.12172559,-0.05429903,0.010213513,0.017365446,0.042298913,0.08629969
I8,-0.033818953,-0.020409718,0.119057335,-0.18419851,0.048545327,-0.09272043,-0.022475911,-0.067137726,-0.0374184,0.1777955,-0.091815,0.09065347,-0.014613769,-0.075811446,0.06264487,0.06875433,-0.027439995,0.11582923,0.07489074,-0.04291152,0.08645381,-0.018449266,0.06486507,0.12389827,0.085038744,-0.0029879364,0.0084972195,-0.05857303,0.03248948,-0.0578601,0.1842188,-0.20181777,-0.007062423,-0.20326287,-0.009238082,0.042261183,0.06182954,0.02641908,0.014790344,0.035229377,-0.093879774,-0.019876903,-0.06699079,0.032861214,0.032709744,0.06708261,-0.09830146,-0.17322889,0.12692103,-0.0053315815,0.016043222,0.13473025,-0.017104106,0.17236751,0.0669389,-0.01857877,-0.06788173,0.045824397,-0.018813899,0.022196446,-0.038999982,-0.13842237,-0.035870228,0.011978599,-0.006462062,-0.06227745,-0.11120007,0.1118024,0.032469068,0.03246525,-0.019118581,-0.09170817,-0.08829278,0.004172865,0.16696662,-0.11709652,0.0057682097,-0.08792743,0.07544469,0.028175993,-0.17348544,-0.17739959,0.108299725,-0.04754084,0.14519201,0.08746074,-0.025856992,0.04252436,-0.050300762,-0.0709894,-0.028295115,0.055973813,0.122559465,-0.017023327,0.09592219,-0.14617965,-0.07680736,0.09491721,-0.080497384,0.120881125,-0.035155807,0.11604175,0.08433775,0.07682153,-0.038834482,-0.16064356,-0.15136471,-0.05823184,0.060697407,0.043326113,0.06826649,0.23007008,-0.016722972,0.086505964,0.015739428,-0.017706204,0.006273299,-0.07171623,0.03958253,0.023086429,0.08768591,0.042877268,-0.15899001,-0.007174546,-0.13970271,0.06756565,0.069913045,0.10269476,-0.03219154,-0.0008500668,-0.023124123,-0.008466708,-0.12383244,-0.05202806,-0.14050616,0.0043448373,-0.13668987,-0.23740986,-0.038641647,-0.0004824334,0.011468902,0.18024804,0.031977963,-0.070052154,-0.06495328,-0.138058,0.0010854839,0.1947461,-0.018889701,0.13482736,-0.04116324,-0.058945257,-0.060584474,-0.14387481,0.072740145,-0.011769826,-0.112713,-0.048116915,-0.014906767,0.039763995,-0.007311108,-0.11781195,0.028617704,0.10939832,-0.036133844,-0.02551239,-0.080960125,0.020542525,0.07305232,0.045635857,0.06192704,0.049498614,-0.01012985,0.0725964,0.0014317654,-0.12257269,-0.04649791,0.044316366,-0.028808404,0.011608367,0.04294136,-0.1117001,-0.008169014,0.115761094,-0.04673298,-0.13901927,0.041685212,0.049696103,0.10464187,-0.17470442,-0.009331382,-0.06764203,-0.08154927,-0.015486086,0.022397442,0.15193105,-0.04620431,-0.034161825,-0.12409674,-0.15807736,-0.0749706,-0.08877417,-0.14852653,-0.026474932,-0.032033224,0.12430956,-0.031307906,-0.02166682,0.122127645,0.14803147,0.0047680307,0.07003401,0.18224101,-0.08022951,0.017470205,0.033758927,-0.009709639,-0.023500517,0.0722965,-0.09980118,-0.005079478,-0.012599998,0.08228651,-0.041212954,0.034819715,-0.009863093,0.019369474,0.09639773,-0.00044612383,-0.04102218,0.27179554,0.057669226,-0.0259604,0.02379115,-0.036551006,0.09580183,-0.0048590014,-0.15227666,-0.038216718,-0.09223898,-0.03578578,0.121605754,-0.027213808,-0.014023836,0.07945246,-0.026069438,0.045873668,-0.001405376,-0.03595677,-0.059583172,-0.039678648,-0.052983835,0.055868737,-0.05646304,-0.09691576,0.11384425,-0.017333036,0.010281002,-0.05703336,-0.06176003,-0.0021103981,0.02918681,-0.055592302,0.07903586,0.039682906,0.042771645,-0.18312238,0.17774667,-0.004478927,-0.097985044,0.016755037,-0.0034002822,-0.029822681,0.017887577,0.10049084,-0.07849279,0.09313616,-0.07305662,0.040627286,0.13694187,0.09342276,0.07709081,0.052179,-0.0041360767,-0.13600013,-0.019356383,0.0115046585,0.0620414,-0.007987431,-0.06342264,-0.051937003,0.080873005,-0.018603284,0.23897748,0.08307911,0.02937545,-0.14273135,-0.051354878,0.03295776,0.030658852,0.11090829,0.06183495,-0.10602134,-0.001885381,0.036218494,-0.1226348,-0.05984143,0.07100747,-0.028757365,0.002496451,-0.08732926,0.1470595,-0.081724875,0.21430261,-0.022700071,-0.05163567,-0.047225107,-0.050114714,0.066299856,0.15514077,-0.03688826,-0.00512493,-0.04332501,-0.14263092,-0.0517739,-0.016715245,-0.11034905,-0.024522208,0.01954135,-0.018538289,0.050253175,0.042752508,-0.034349736,0.054277003,0.062973425,-0.10643366,0.09819677,0.06977909,-0.012907652,-0.035477478,-0.042137746,0.08552152,-0.012574004,0.010584602,0.10393502,0.05242466,-0.041023124,0.15878247,-0.03311373,0.0331098,-0.08765817,0.06381712,-0.010502882,-0.0437025,0.17453599,-0.0029085765,0.01729758,-0.074698925,0.1562796,0.039148353,-0.009434403,-0.00025065985,-0.07523524,0.10011493,0.05524848,-0.0011964719,0.12387039,0.09397492,-0.15571102,-0.13334985,-0.13811877,0.07604644,0.05813327,-0.028754044,0.09993864,0.053906497,0.06145663,-0.06685162,0.037800986,-0.2134161,-0.22455072,0.10440731,0.027183961,-0.020590495,0.010110784,-0.07846774,0.10706105,0.2736891,-0.16747312,0.027668856,0.07428551,0.07586489,-0.020529293,0.15947174,0.027997518,-0.04526212,0.14479859,-0.080471836,-0.013773634,0.19272149,0.0820844,-0.04246575,-0.058022223,0.031571526,0.011199984,-0.1474808,-0.018410318,-0.119313896,-0.08883535,-0.11364689,0.17795293,0.08189191,0.1874691,-0.03694698,-0.008394764,-0.1692677,0.103921466,-0.036742438,-0.083350055,-0.08544107,-0.0038435848,-0.03773372,-0.050000127,0.002416366,-0.054857373,-0.1611248,-0.10041022,-0.026501253,0.008508239,0.0975288,-0.07170673,0.07103459,-0.08738982,-0.06111918,-0.084851496,0.15172014,0.012096684,-0.07875902,-0.10940492,-0.08654564,0.03833996,0.050267447,-0.09005198,0.041825276,0.023248516,0.027400373,0.037684552,-0.10664323,0.12879513,0.04465553,0.022438576,-0.018359689,-0.010392751,-0.12098741,0.09321414,0.113396555,0.012797676,0.010115461,0.03567274,0.04522884,-0.13984174,0.031647418,0.05984532,-0.07134294,0.018401997,-0.008607347,-0.02634075,0.14949387,-0.061286665,-0.03984031,-0.10916501,-0.09111332,-0.080019765,0.023986684,0.14658208,-0.01737345,-0.06800998,0.038436905,0.002722207,-0.004762991,0.12287707,0.10845794,0.04092764,-0.18731254,-0.13163665,-0.00916191,-0.080644414,-0.06296833,0.0115664145,0.016167976,0.019139698,-0.031282563,0.019378202,-0.09973953,-0.06526535,-0.029157393,0.0031680232,0.018402841,0.18714051,0.09580386
