question-id,0,1,2,3,4,5,6,7,8,9,10,11,12,13,14,15,16,17,18,19,20,21,22,23,24,25,26,27,28,29,30,31,32,33,34,35,36,37,38,39,40,41,42,43,44,45,46,47,48,49,50,51,52,53,54,55,56,57,58,59,60,61,62,63,64,65,66,67,68,69,70,71,72,73,74,75,76,77,78,79,80,81,82,83,84,85,86,87,88,89,90,91,92,93,94,95,96,97,98,99,100,101,102,103,104,105,106,107,108,109,110,111,112,113,114,115,116,117,118,119,120,121,122,123,124,125,126,127,128,129,130,131,132,133,134,135,136,137,138,139,140,141,142,143,144,145,146,147,148,149,150,151,152,153,154,155,156,157,158,159,160,161,162,163,164,165,166,167,168,169,170,171,172,173,174,175,176,177,178,179,180,181,182,183,184,185,186,187,188,189,190,191,192,193,194,195,196,197,198,199,200,201,202,203,204,205,206,207,208,209,210,211,212,213,214,215,216,217,218,219,220,221,222,223,224,225,226,227,228,229,230,231,232,233,234,235,236,237,238,239,240,241,242,243,244,245,246,247,248,249,250,251,252,253,254,255,256,257,258,259,260,261,262,263,264,265,266,267,268,269,270,271,272,273,274,275,276,277,278,279,280,281,282,283,284,285,286,287,288,289,290,291,292,293,294,295,296,297,298,299,300,301,302,303,304,305,306,307,308,309,310,311,312,313,314,315,316,317,318,319,320,321,322,323,324,325,326,327,328,329,330,331,332,333,334,335,336,337,338,339,340,341,342,343,344,345,346,347,348,349,350,351,352,353,354,355,356,357,358,359,360,361,362,363,364,365,366,367,368,369,370,371,372,373,374,375,376,377,378,379,380,381,382,383,384,385,386,387,388,389,390,391,392,393,394,395,396,397,398,399,400,401,402,403,404,405,406,407,408,409,410,411,412,413,414,415,416,417,418,419,420,421,422,423,424,425,426,427,428,429,430,431,432,433,434,435,436,437,438,439,440,441,442,443,444,445,446,447,448,449,450,451,452,453,454,455,456,457,458,459,460,461,462,463,464,465,466,467,468,469,470,471,472,473,474,475,476,477,478,479,480,481,482,483,484,485,486,487,488,489,490,491,492,493,494,495,496,497,498,499,500,501,502,503,504,505,506,507,508,509,510,511,512,513,514,515,516,517,518,519,520,521,522,523,524,525,526,527,528,529,530,531,532,533,534,535,536,537,538,539,540,541,542,543,544,545,546,547,548,549,550,551,552,553,554,555,556,557,558,559,560,561,562,563,564,565,566,567,568,569,570,571,572,573,574,575,576,577,578,579,580,581,582,583,584,585,586,587,588,589,590,591,592,593,594,595,596,597,598,599,600,601,602,603,604,605,606,607,608,609,610,611,612,613,614,615,616,617,618,619,620,621,622,623,624,625,626,627,628,629,630,631,632,633,634,635,636,637,638,639,640,641,642,643,644,645,646,647,648,649,650,651,652,653,654,655,656,657,658,659,660,661,662,663,664,665,666,667,668,669,670,671,672,673,674,675,676,677,678,679,680,681,682,683,684,685,686,687,688,689,690,691,692,693,694,695,696,697,698,699,700,701,702,703,704,705,706,707,708,709,710,711,712,713,714,715,716,717,718,719,720,721,722,723,724,725,726,727,728,729,730,731,732,733,734,735,736,737,738,739,740,741,742,743,744,745,746,747,748,749,750,751,752,753,754,755,756,757,758,759,760,761,762,763,764,765,766,767,768,769,770,771,772,773,774,775,776,777,778,779,780,781,782,783,784,785,786,787,788,789,790,791,792,793,794,795,796,797,798,799,800,801,802,803,804,805,806,807,808,809,810,811,812,813,814,815,816,817,818,819,820,821,822,823,824,825,826,827,828,829,830,831,832,833,834,835,836,837,838,839,840,841,842,843,844,845,846,847,848,849,850,851,852,853,854,855,856,857,858,859,860,861,862,863,864,865,866,867,868,869,870,871,872,873,874,875,876,877,878,879,880,881,882,883,884,885,886,887,888,889,890,891,892,893,894,895,896,897,898,899,900,901,902,903,904,905,906,907,908,909,910,911,912,913,914,915,916,917,918,919,920,921,922,923,924,925,926,927,928,929,930,931,932,933,934,935,936,937,938,939,940,941,942,943,944,945,946,947,948,949,950,951,952,953,954,955,956,957,958,959,960,961,962,963,964,965,966,967,968,969,970,971,972,973,974,975,976,977,978,979,980,981,982,983,984,985,986,987,988,989,990,991,992,993,994,995,996,997,998,999,1000,1001,1002,1003,1004,1005,1006,1007,1008,1009,1010,1011,1012,1013,1014,1015,1016,1017,1018,1019,1020,1021,1022,1023
R1,-0.8897506,0.38828105,-0.31344578,-0.094252035,1.1527499,-1.3428798,0.37842765,0.13850749,-1.5879886,0.18824989,0.03788805,0.04074859,-0.23206608,0.87906677,-0.4873995,-1.894685,-1.0496826,1.5326048,-2.2109785,-0.6369071,0.19593433,-0.46584386,-0.61630577,-1.8614233,0.24523075,-1.3830425,-1.1750208,0.23217237,-0.16140544,-0.6838194,0.42490703,0.49486604,-0.058895208,1.2685624,-0.70500696,0.78977805,1.0123253,-0.36386126,-0.42077103,-0.6323974,1.0406412,0.24652748,1.131621,0.20428662,-0.14516707,0.8825811,0.93336743,-0.56244713,-0.09950273,-1.2675092,-0.44044656,-2.2164798,-0.7280952,-0.27748513,-0.11239759,0.36759472,0.784408,0.76198447,-1.0483823,-0.2859413,-0.8417514,1.4671357,-0.52271605,-0.15951452,0.25817975,1.041858,0.25526083,0.61853415,-0.3281014,1.663974,-1.3076488,-0.30631906,0.6196145,-1.3081238,1.1212289,-0.394885,0.74780667,-0.43769994,-0.98587734,0.5027468,0.087348476,-1.4385456,-1.0255483,-0.21419731,-0.48980847,-0.207724,-1.6046839,0.6232964,-1.5729842,-1.653601,0.23622254,1.2671465,-1.1724918,-0.34526637,0.43579274,0.17350116,-1.080413,1.6283916,1.5557654,-0.639233,-1.3941038,0.62434185,-0.61266315,-0.005594185,0.6039346,0.10286496,0.79369813,-2.2685747,-0.33282036,1.9316618,-0.17475423,-0.84772074,-0.5797587,-0.61466396,-0.7986367,-0.63662213,-1.0567286,0.41809887,1.1810386,-1.6120608,-0.27167982,0.084539376,0.30942798,-0.2604754,0.08765569,-1.1702359,0.7113096,-0.63049614,0.23005876,-1.1893961,0.1951761,-0.2373384,-0.87278444,0.083935715,-0.20593898,-0.30316544,0.094044864,-1.9117607,-0.6379609,-0.5820218,-1.2883675,-0.50392854,-0.10478673,0.06645492,1.0943624,-0.29389122,0.88116014,0.64049995,-0.858555,-2.1251929,0.43330377,-2.2232547,-0.68238014,-0.17292668,0.3657028,-0.57212716,-0.7371971,-0.46723986,0.11377956,1.7010412,0.7396299,-0.68515885,-0.4850214,0.4015718,0.096123815,0.082492664,-0.0030755699,0.1865807,-0.3114589,-1.0775638,0.9652314,0.9427668,-0.004053912,1.0236453,-0.20158319,-1.1527655,-2.1114733,-0.73663664,-0.2903408,0.1133527,-1.1555831,-1.4798326,0.15556148,0.6654403,0.7085394,0.496278,2.374724,-0.113098696,-0.23369256,-0.70405203,-0.59980845,-0.2055815,1.1560701,1.4466989,-0.99853915,-0.8313301,0.83710605,-0.85093105,-0.5844316,-0.99617356,0.3433353,-0.9573263,-1.1258744,1.8400886,1.2294186,-0.22328308,0.20351727,-0.4173661,-0.3080201,-1.0775263,0.24601209,0.83166677,1.7287328,-0.8787982,-0.2015501,1.259243,1.028393,-1.0617712,-0.13750935,-0.11637403,-0.028510693,-0.46478137,-0.31981727,0.76532435,0.076260746,1.0034153,-1.855204,-1.4403038,1.3139218,0.07479538,0.102756955,-1.8090674,0.24124566,-1.3935947,0.03210368,0.8357956,1.0435853,0.24074607,-0.77653515,0.44016156,-0.03733083,0.31623268,-0.0030157552,-0.4328123,-1.7097414,-1.0733838,0.00302428,1.8605216,-1.0194288,0.41162935,0.6348196,-1.6754373,0.113178626,0.8083435,-1.4743503,-0.8694375,-0.45844236,-0.16868576,-0.8193002,0.19217308,0.4431954,-0.36105904,0.35611492,0.31711763,-1.8359048,0.9360405,-0.08025869,0.33569878,-0.69476813,0.29608467,-0.29336542,-1.7539656,0.3153383,-0.07874093,0.25790283,-1.2992436,1.1545463,-1.6803452,-0.524531,0.08706084,1.6976458,-1.0061281,1.2475694,-0.0150851635,-0.54827917,-0.044834577,0.86702716,0.367957,1.0455539,-1.362026,-0.89570343,-0.16917895,-2.094134,-0.30800602,1.5993091,0.83108205,-0.3598427,0.48454303,1.8240496,0.63176066,1.1179559,-2.1256213,0.5048509,-0.619302,-0.48962975,0.54499716,-0.8992721,-1.4350362,1.3986875,-0.28648633,-0.91638625,-0.651958,0.80129355,-0.04939285,0.54572904,-0.44820437,1.2187793,-0.39963612,0.46891603,0.1335679,-0.40025887,0.36049634,0.025139134,-0.04869764,0.53120327,0.8510049,-0.35102132,-0.086548895,-0.6749762,-0.6523487,-0.16678928,-1.8853964,2.2765172,-0.4836917,0.2734842,0.6408201,-1.3439002,0.4789342,-0.09752718,-0.76506805,-0.37165445,-0.38908857,1.8962953,-0.8535558,-0.8488878,0.2316257,-0.42601594,0.32207605,-1.1228867,-1.2646178,1.6842737,0.18422249,-0.18913352,0.2856431,-0.22703406,0.055615086,0.27956468,-0.2199307,-0.35386738,-0.41405162,1.371371,0.5268372,-2.1786158,-2.494526,-0.2579474,-0.5576838,-0.78438425,-0.86333096,-0.18097302,0.49933338,-0.13518059,0.8851634,0.5610713,0.6671091,0.4885529,-1.5936271,1.1664878,-0.37483168,0.27502775,0.19163162,0.15222159,-0.419171,-0.06956974,-0.71706903,0.881549,0.95803833,-0.12688005,-1.2254827,1.3776317,0.6328289,0.96166706,0.3926622,0.05067415,-0.534083,-1.2351849,-0.24208505,1.3435142,-1.8879468,-0.41328043,-0.31147987,0.28568497,1.5221586,-0.55667543,-1.0747623,1.3030663,-0.3373735,-0.063735045,-0.2585687,-0.94133157,-0.92529714,-0.42971063,-0.25941396,0.43469214,-1.2627575,-0.37795845,0.36910415,-0.31360707,-0.34351963,-1.1271197,-0.74330574,0.85028267,0.9786291,-0.82537365,0.09744577,-0.88536805,1.0113809,0.88033485,0.4318388,-0.42032933,0.6685405,-0.5014752,0.5472518,-0.8610693,-0.5669333,0.30910802,1.954628,0.59426075,0.040159825,0.62363887,0.5429204,-0.8603078,-0.7225985,-0.6956327,0.6768266,-1.0462916,0.7254544,-1.285732,-0.4037009,-0.4455486,0.6572703,0.23160616,0.035056926,-0.37208372,-0.0119860545,1.2645118,-0.458174,-0.58294386,0.48812133,1.645808,0.52719945,0.15505847,-0.457501,0.61061645,-0.840016,1.2597616,-0.026402954,-0.34703726,0.7275809,-0.45961517,-0.010074625,0.04638212,0.5534481,1.0453316,-0.08524033,1.0613472,-0.0242124,-0.41358924,-1.2302296,-1.0103208,0.8134076,-0.4408938,1.4426938,1.028154,0.99227905,0.5330316,0.105637036,-0.66726345,-0.5582762,-0.90316486,-0.64307773,-0.17473772,0.14141925,1.5259006,1.0247996,0.55972624,-1.1739994,-0.765771,1.8159059,0.73842895,-1.3099039,-0.103396356,1.8731711,-0.55423385,0.14515407,0.5883484,-0.14716758,-0.28090504,1.9040692,-2.6126816,0.5695213,0.24693826,-0.5069889,-1.1403964,0.04029856,-0.33830577,-0.20903818,0.30451244,-1.017134,-1.9621204,0.99043596,0.43591586,0.9798934,-0.6023848,0.31163934,-1.0399485,-2.2345893,-0.47078347,-0.17067337,-0.5074913,-0.082540676,-0.061236095,0.15498133,0.7228031,1.1353619,-0.8076928,-1.2953857,0.7076887,-0.25001198,-0.5799652,-0.21610978,0.8573654,0.8277935,0.11598047,-0.23788702,0.54427516,-0.7576175,1.291654,0.74926114,-2.341001,0.21902749,1.1705233,0.084188305,0.69563997,-0.16264321,-0.68981886,-0.33470318,0.48228368,0.3381497,0.20390777,0.4079195,-0.41981426,-0.45581117,-0.6811531,-0.8874232,1.5372775,0.5777366,-1.9866806,1.2680813,0.12014987,0.8008887,0.31984514,-0.49048534,-0.16962303,-0.051192164,0.8307289,-0.10608888,0.6517521,-0.2960331,0.38706416,-0.50158805,0.24911508,1.1923555,0.103511736,0.2837681,0.09638139,2.9751391,-0.31033146,-0.4197232,-0.21574605,0.22869031,-0.86347073,-0.60638285,-0.048817977,-0.83795214,-1.054899,1.3561172,0.15181997,2.159232,-0.5836278,-0.1489785,-0.92650586,0.9549133,-0.7767812,0.7774577,-0.32932088,-1.2126969,0.7073777,0.34650955,0.5878994,0.77347624,0.15479138,1.0148656,1.3659166,-1.4348748,-1.671632,0.6514527,-0.98313797,0.25446883,-0.60111487,0.101773046,-0.34006003,-0.8315133,0.34373623,-0.07208719,0.06350101,0.11109644,-0.7071978,-1.5672631,-1.1181961,1.1668048,0.62659466,2.209636,1.5967103,-0.05379965,0.50821227,1.003259,-0.5710067,1.0510216,0.342434,0.35952204,-0.2009449,0.19807163,-0.055789918,-1.2684963,-0.051868808,1.0453022,-0.17469093,0.21474746,-1.0444121,-1.1381242,-0.5893224,1.4863384,-1.0226729,-1.0883493,-0.44346723,-1.0312011,1.8399432,0.18601173,-1.0763304,-0.11788368,0.1536431,0.7299601,-1.2523531,0.27845973,-0.13420895,0.59048045,-0.5467531,0.019175554,-0.39484394,0.3745305,0.6936978,-0.14209753,0.23153622,-0.45162845,0.75401103,-0.2500297,-0.5594455,0.10767225,-0.4606976,0.4231825,0.3038263,-1.0457163,-0.22904253,0.087069854,1.1914895,-0.27027434,-0.3147602,-0.3702039,0.6656887,0.4898892,0.016484968,-0.75112903,-0.64268017,0.15642226,-0.83068067,1.0131962,-0.9050058,-0.3097338,-0.35656416,0.13906887,0.50760907,0.44902796,0.56397116,-1.4981191,-0.30683154,0.20414451,-0.70985115,1.1721979,-1.0639826,-0.49142113,-0.16186038,0.7233261,1.2669659,0.026280895,0.8948782,0.2250522,-1.5352142,1.0546414,-0.4861172,0.16905956,0.58334833,-2.100552,1.0416138,1.484019,0.14004108,0.799556,-0.31506437,1.9224218,0.49981564,-1.1271089,0.8249849,-0.2887977,1.2430407,-0.65943116,0.3633281,-0.8778723,0.23816061,-0.24942604,0.9041417,0.11110078,0.18998323,0.84423494,0.4014402,1.2166908,0.66320765,-2.2631445,0.85628635,-0.27966443,0.32954067,0.80380785,-1.9352642,0.9553525,0.44596034,-0.4174418,-0.18407147,0.4844872,-0.680864,-1.2246994,0.4039875,0.07320944,-0.6707355,0.78775847,1.8136095,-1.2360454,0.5592798,0.5585195,0.9644502,-1.0289803,1.3458433,1.2142063,-0.23030047,-1.8015016,0.019183462,0.3343577,-0.73715615,-0.078454636,0.057459883,1.0411521,-1.0547317,-0.6766413,0.7503809,-1.543472,0.5186702,0.4464075,0.7094513,-0.074971065,-0.47010487,0.88740265,-0.89662457,-1.9726179,0.1567805,-1.0615151,-1.0166311,0.14832708,-1.9180355,0.06269841,-1.0661162,-0.40992013,0.4607142,0.2845694,0.82069385,-0.54052377,0.6152411,-0.30525723,0.7040561,-1.066814,0.10429354,0.6891774,-1.3887972,1.1118133,-1.3278568,0.5469421,0.7470828,-0.32359737,-0.24631245,-0.79477626,0.13838887,-0.32489777,0.5519194,-0.26085165,-0.71837926,-0.3891309,0.3835308,-0.6927963,-0.6366526,-0.12206656,-0.04118579,1.5190245,0.4020763,-1.2862527,1.7646062,1.1640441,0.26183087,-0.30071998,1.114135,-0.6972665,0.119172856,-0.26750955,0.8763868,-0.59661657,1.14652,-0.13658175,-0.65564036,0.62120044,0.40308842,0.50511307,-0.29167375,0.57385254,0.53133345,-0.102092765,0.6197657,1.2991005,-0.11097182,-0.58048594,1.0886338,0.17021473,0.2806981,-0.17337936,-1.5940051,-0.8480093,0.55833685,-0.25192404,-0.4133764,0.7559246,-0.70703703,-2.4780767,0.61772853,-0.063280955,0.22698435,0.9862941,0.27375,-0.083485685,1.5396845,0.31445342,-1.0180905,1.3013332,0.45852956,-0.9420396,0.32564855,-1.7799017,0.5551644,-1.8363087,1.0985969,2.0200634,0.48283228,-0.89972544,0.31679553,-2.5354176,1.9493859,-0.2481263,0.12395718,0.35453066,0.27852783,1.521998,-0.8254522,-1.0116637,-0.624818,1.1021961,-0.6071597,0.8149994,0.7786283,-0.50421464,-0.40320095,-0.8036394,-0.96896905,-1.7133471,-0.09257042,0.65570575,-0.27822554,1.8400948,-0.6062624,0.12970796,0.6267571,0.9284481,1.3496017,-0.64260644,-0.017002136,1.1517104,-1.238612,1.3485968,-0.011631226,2.6959944,-0.33349767,1.3200268,0.034869913,-0.5061954,-0.039925054,-0.49163222,0.27658257,1.0268409,0.50504667,-0.83980733,-0.049349625,0.3823597,-1.8211687,-0.48518062,-0.6942668,-0.5269042,1.9802372,0.95340824,1.0906984,0.13814446,0.070873775,-0.3308927,-0.26086265,-0.029003471,-1.9638191,0.6800648,-0.16867432,-0.060089268,1.297237,1.3366431,0.33119345,-0.10508195,1.4419601,0.8089522,-0.095218584,0.6482337,0.21921082,-0.6849505,1.8012164,-0.55122745,0.051505454,-0.5809778,0.74024904,-0.36732072,-0.19096614,-0.24025905,1.3727267,-0.6786422,-0.4519596,-0.038784035,1.0765299,-1.3495215,-0.77256334,-0.48199987,-0.6493442,-0.07617881,4.5378507e-05,-0.61547256,-0.7077074,-0.02702653,0.14338206,0.9733242,-1.1139517,2.1203246,-0.2736218,-0.9359339,-1.3839654,0.72297144,-0.33617592,1.2489064,2.3555257,-0.65100706,1.7679123,-0.47010702,-1.4068481,0.2771867,-0.41459194,-0.20769367,0.53535134,-0.2760554,-2.0638933,-0.11164904,-0.2288135,-1.0460416,1.1819159,-0.16927114,1.2429049,-0.5718492,0.07013482,-0.16917442,-1.0166521,0.93758327,0.8910244,-1.5977209,-0.33393413,-0.28868008,1.8189958,0.028490573,-0.47006693,1.4355851,-1.9751192,-1.0225432
R2,1.4618353,0.44629648,0.29552814,0.6990048,0.18882997,-1.311879,-0.15287372,0.21862091,-0.94089496,-0.12291094,1.7257442,0.6856884,0.3333846,1.5424708,1.1675308,-1.0507982,-0.71478945,-0.41283724,-1.8054734,-0.5167617,0.24537332,0.9329471,0.74602157,0.9836172,1.0434358,-0.024977608,0.61769956,-0.3179737,-0.8623238,-0.31564856,-0.55218965,1.7801698,0.5699088,0.78249645,-0.65377223,0.805796,0.77774733,-0.18437062,0.42749482,0.346333,0.65796363,0.71923155,-1.1986736,-0.62279016,-0.096311875,0.6450897,0.06699065,-0.2894747,-0.68957144,0.47939593,-0.0579136,-1.2216455,-0.92952013,-0.48986435,0.2955902,0.2717828,-0.15688117,-0.43941036,-0.60878956,0.047280338,-0.17763157,0.20446768,-0.5721599,0.24634981,-0.40180588,-0.15872367,-0.20674454,1.0623478,-0.12802435,-0.5502213,-0.03904369,0.8290474,0.6246521,-0.42809114,0.5598773,-0.576922,-0.039626833,-2.4970849,-0.611884,0.173687,0.28911114,-1.5394839,1.0767252,-0.2931142,-0.20005019,-0.2141588,0.7937069,0.43683878,-0.5512715,0.37973142,-0.4951634,0.3547257,1.3012483,0.35184667,0.3082667,-0.25471637,-0.031188292,0.7312004,-0.0060179383,-1.5785313,-1.1885034,0.66126066,-0.82353127,-0.010494096,-0.33780357,0.13422365,0.19538172,-0.95885783,0.00053369254,0.26619104,-1.3260733,-1.0551097,-0.37284234,-0.38814712,-0.5194313,-0.5848137,-1.4901628,0.3551355,1.2309206,1.4914305,0.5255912,-1.9988053,0.5294917,0.45353848,0.67091304,0.29154167,1.1733018,0.16467035,0.2416378,-1.1726053,-0.05658191,-1.560173,-0.17149976,-0.3879473,0.26788905,-1.4065768,-0.34638366,-0.04256394,0.079099074,1.5363861,0.39597577,0.2638558,-0.43466613,-1.8860117,1.0993828,-0.37979692,1.1690226,0.5207787,-1.0568601,-1.8690444,1.1872572,0.4644836,-0.850454,0.7508422,1.0737562,-1.0782386,0.1783265,0.383424,-1.1479002,-0.27290854,0.6095103,0.96117747,0.77834445,-1.1047182,-1.2361552,-1.0054207,-1.106851,0.16775452,-0.84293306,-0.16342853,1.0028279,-0.8509702,0.087107144,-0.7462457,0.14519082,-0.58253133,-0.19881137,-0.4638757,-0.28855935,-0.4109241,-0.32256427,0.52618885,-0.06524819,-0.43349198,-0.57988757,-0.5371653,-0.4084842,0.2648066,-1.3175997,-1.0831549,-0.55345905,-1.6243556,0.81782484,-0.6669878,-1.8093699,-1.295674,0.9741495,0.09922654,-0.7036423,-0.04067899,-0.32452962,0.8351281,-0.74390453,0.28059313,-0.41283718,0.101765,0.0016225235,0.7151373,-0.824738,-0.83780915,0.14649339,1.9423418,-1.2459525,-0.1906178,-0.551782,0.777692,0.40998045,-0.475915,0.6862403,-0.18235373,0.7091112,0.67435986,0.51175225,0.9236603,1.2420197,-0.86855847,-2.3659227,-0.869754,-0.68063706,-0.36105326,-0.9483705,-0.7708809,0.29267263,-0.70589477,-0.1966377,-0.24646787,0.4018257,1.1639316,-0.3604576,1.7067083,-0.5211183,0.5294806,-1.2285755,0.023175055,-0.24972495,0.15508866,0.7487312,0.2732164,-0.39344624,-1.051495,0.40420097,-0.0056568426,0.25916082,1.3972737,-1.3626184,-0.5202213,0.21927373,-0.5385295,-0.002498863,-0.9941291,-0.54428375,-0.5836581,0.39163113,-1.3041195,-0.7740248,0.53386396,0.2662142,-0.569384,-0.19638856,0.21128038,1.0008161,-0.99750775,-0.08949323,-0.82086617,0.14480115,-0.65643275,-0.25833392,-0.14346911,-0.22272302,1.4054693,0.8670909,0.16955256,0.21797967,0.6459347,-0.31885433,-2.0935833,1.3997138,0.49153575,0.11121429,-1.1777122,-0.95224184,-0.5471424,0.6891622,-0.49801302,0.6661024,0.88474613,0.3898347,0.31562346,-0.1288507,0.292816,0.73325115,-0.865655,-0.4329386,-0.29789373,-0.19508669,0.22389841,-0.35198122,-0.041625,2.101548,-0.15619628,-0.7732118,-2.754658,-0.64724547,-0.5111116,-0.24437766,-1.2338334,0.44252652,-0.8796759,0.41196194,-0.83099544,0.7182375,-0.71016866,-1.1342567,-0.9346639,-0.46104518,-1.684539,0.7813949,0.37727684,0.23408386,0.44574875,0.20368902,-1.8804802,1.4936961,1.0036057,-1.5433886,0.46766216,0.6169995,-1.6654052,-0.2344403,0.22473332,1.4566443,0.18963802,-0.50951105,0.63438386,-1.7202898,-0.6547276,-0.07498483,-0.26297405,-1.8585691,0.2118658,1.5865176,-0.64005846,1.1731814,1.4270641,1.121013,-0.69432944,-0.9826879,-0.15712091,0.42526048,-1.8846682,-0.89424556,-0.49193493,-1.1242727,-0.6319824,-1.5125456,-1.0038388,1.80713,-0.76073784,0.90722436,1.5394733,0.22067137,0.10530508,0.4272542,0.7254859,-0.69930995,-2.2636707,1.0408005,-0.44051972,1.5022783,-1.1232736,-0.56809753,0.10031294,-0.71499765,0.026696911,1.386757,-0.20990087,1.4534603,-0.1710968,0.002927235,0.11304539,-0.5053198,0.23352587,0.23719268,0.058774743,-0.9568836,1.8190929,0.8720832,-1.7253765,0.8108881,-0.8644032,-0.32881212,0.7138359,-0.41801074,1.0996162,0.33042172,-0.020410294,-0.54585075,-1.7006056,-0.55370724,-0.030899538,0.32025328,1.6157662,-0.39170894,-1.0653747,-0.7460667,-0.29148838,0.50080293,-0.8387086,-1.1254947,-0.20681725,0.9571145,0.5526821,-0.6556129,-1.0901827,0.07321216,1.0610479,1.2685635,-0.64489216,0.12544176,-0.56637114,-0.08361804,1.0752107,-1.1357268,-0.2010512,0.42036042,0.9069715,-0.06899892,-0.43346,-0.13742037,-0.765583,0.7346562,0.29117674,0.05158154,-0.05306666,0.09151002,0.12234401,-0.35980114,1.1107476,1.5547522,1.1929038,1.378137,0.96963584,0.919341,-0.058603555,-0.16010228,0.5889708,-1.5809,0.22168562,2.0213168,0.005915391,-0.957833,-0.39676836,1.8698293,0.44829658,0.7704833,-0.3549582,-1.3452593,-0.0774016,0.37018973,0.9261733,-0.48004478,-1.0401083,0.74913687,-1.0655539,0.945497,-0.6798992,-0.35477588,-0.5481975,0.17936817,0.90902823,0.12032234,0.9224297,-0.9802661,0.25178483,0.32356673,0.3530264,0.07169736,0.6047097,-0.6740187,-0.60943496,-0.22693478,-2.0419261,-1.4856653,0.37936726,0.45567253,-0.52341795,-0.29255772,0.5600869,0.46065277,1.884534,0.3025451,0.38491926,-0.2780004,-1.1592923,-0.04236431,-0.83934265,-0.63925046,-1.0972743,-1.1451029,1.0563084,-1.8755848,-1.9503442,0.6408822,-1.1077373,0.21246953,-0.45181197,1.1161379,-0.5254384,-1.0349077,0.47823143,-0.4026268,0.3442013,-0.15889165,-0.7554995,-0.35626307,-0.7293272,-0.025806734,0.90487754,1.4058342,-0.026443405,0.44236216,0.14886284,-0.3177856,0.17611173,0.21727762,-0.52065074,-0.49603558,1.0931871,0.9742109,-0.20960918,0.9904583,1.3527752,0.09069177,-0.6318057,0.054874446,-0.85411346,0.23483063,0.3566664,-0.5899316,-0.47107953,0.06069725,-0.23635772,0.8047994,-0.5110098,-0.17456791,-1.2070042,-1.0975283,1.6378676,0.3283306,-0.3342364,-1.1006608,-1.1110831,0.46954536,-0.86770946,1.1587967,-0.23238239,-0.8895835,1.0498102,-0.75506556,-0.031199392,-0.56309515,-0.32725736,0.51252544,-0.7724905,-0.5084116,0.26591104,-0.6882774,0.3696961,-0.00013946315,-0.32342377,-0.23046306,1.3185886,-0.05281398,1.4944302,0.4138601,1.037566,-0.13468637,0.42790866,1.9432497,0.27468342,1.0387579,-0.47899643,-1.2845966,-1.0624328,-0.06911542,-0.340693,0.10379623,-1.2557758,-0.26546797,-0.68170726,-0.88643026,1.1557732,0.20047005,-0.0031836426,-0.5449711,-1.1370065,-1.0093501,-0.07160229,0.4183154,0.46094987,-2.4567153,-1.0878899,0.070180975,0.7945836,-0.14190201,1.2571903,-0.30103827,0.63112205,-0.2570568,0.898862,-0.31313092,-0.5869805,-0.27503788,0.4585033,1.4787978,1.0580163,-0.06581726,-1.3800286,-1.1220956,0.21746637,-0.30337963,-2.770338,0.37607417,-0.37174198,1.5358715,-0.3535191,0.5611354,0.17761664,-0.10615887,0.5578355,-1.1791365,-0.20350413,-1.2826469,0.5503376,-1.151172,0.6172871,0.4586838,-0.5019533,-0.7742601,0.04915985,1.894971,0.77494806,-0.19026305,-1.4057056,-0.36546594,0.12901454,0.6301182,0.39264888,1.0978297,1.4729971,-0.38491058,-2.3713644,-0.41510966,0.84142834,-0.29940325,0.23593657,-0.025685268,-0.10859222,1.2288511,-0.3016977,0.23978606,0.65284497,-0.4750257,-1.141269,0.027353207,0.16378614,0.27841598,0.24350785,0.43427756,-0.09183483,0.423465,0.32036883,0.26257572,-0.5113,0.34675783,1.1307515,0.28905615,0.615534,0.51712835,0.54028666,1.4314919,0.08665178,1.3443125,0.3915488,-0.51495856,1.4623641,-0.6455699,0.24168812,-1.6327426,0.73815906,-0.91063726,0.30609465,-0.13758312,-1.3868049,-0.86714315,-0.9008626,0.9867156,-0.0018827516,-0.33904013,-0.7214636,-0.4107652,1.0409657,0.058385644,-1.4063295,0.56178725,-0.44334885,0.055048633,0.05390036,-0.32399917,0.26306015,-0.07560636,-1.0261981,-0.42214552,0.67140687,0.45083588,1.1313204,0.37171263,0.8588544,0.13916452,-1.6928604,0.7999149,-0.22995377,1.5586853,0.75509304,-0.63536865,-0.30235124,1.274546,-0.6476366,0.052073356,-0.8882492,-1.2231789,1.3344604,0.24217117,0.626372,-0.32284746,-0.16640373,-0.5432576,0.6328996,-0.9477935,-1.130448,-0.68806654,1.8409765,0.29417613,0.7868372,-0.900373,0.03500393,0.35369724,-1.7139661,0.273622,0.5262227,-0.64825904,0.8685358,0.4632246,0.35263887,0.8243248,0.73213196,-0.22934128,-1.8973501,-0.16522816,1.2675879,-0.002677331,-1.9236653,0.21398702,0.28797248,0.16809763,0.7177128,0.6750365,-1.0395254,-2.0010035,0.14473641,-0.20276438,-0.021291852,0.6265488,1.2490675,0.6978268,-2.0691435,1.3070362,-0.14825508,-0.5314941,-0.5586072,-0.1857623,-0.089712165,-1.5646763,0.3650523,-1.2411813,-0.74309534,-0.086469315,0.19258018,0.039636347,-0.23570932,0.19835763,-0.031212542,0.6441884,0.56235206,0.4475061,-0.38039032,0.6374707,0.9219788,-1.3540627,0.30382022,-0.58476406,0.22588243,0.6142923,-0.9810731,-0.9195365,-1.1073245,-0.25160462,-1.1750116,0.897873,0.51443416,0.71876675,-1.3384656,-2.356105,-0.21329823,0.29348016,0.796672,-0.0013613573,1.0598732,0.8161179,-1.9070386,-1.0364207,-0.2980928,0.33527493,0.11536147,1.9584798,-1.320139,0.9454462,0.5371252,0.5548368,0.7650861,1.5676206,0.9996177,0.06896614,1.3251294,-0.0005095984,-0.1656924,-1.3127714,-0.5768719,-0.5736305,0.23597859,-0.09244305,0.072080374,-0.8622764,-0.85661703,0.6246873,1.0555359,-0.9696565,0.09022302,0.2287251,-0.32496265,1.5783471,0.37064976,-1.2686174,1.5435201,0.5985352,-1.3950094,0.7077119,-0.42196146,1.7076683,0.42887837,-0.6509883,0.6123992,0.7019468,-0.37174508,0.21043298,1.2825947,-0.4394093,-0.19436741,1.4645042,-0.78312397,0.19377847,0.82961327,1.3608519,0.2923039,0.38015535,-0.03574152,-0.76406765,-1.6740316,0.7256589,-0.61697567,-1.0097942,0.62697893,1.3167766,0.20126154,-1.5079178,-0.015875358,-0.5490976,0.63558155,0.13608037,0.32473448,0.6554217,0.47144026,0.08625843,0.8910894,-0.54672086,-0.80024487,0.14225177,-1.0890858,-0.28789562,0.5029123,-0.11332382,-0.10036451,0.72350305,-1.3827288,1.1039054,-0.06944632,-0.1494252,0.47777086,-0.061380614,0.4066682,0.46089616,-0.43577418,-0.57365084,-0.06766077,-0.42149082,-0.8962636,0.23469679,0.5186298,0.61909103,-0.3190556,-0.0007850613,-0.40104648,0.7022502,1.0720607,-1.460226,0.24760318,-0.35232148,-0.22966544,2.1061082,2.0294657,1.3048674,-0.074110806,0.6816186,-0.34733343,0.007915633,1.1195471,-0.661313,-0.49445763,1.425959,0.033177268,0.7202962,-0.4541785,1.4537623,-0.43617317,-0.33428147,0.27406734,-0.7760108,-0.19207302,0.5037779,-0.6207312,-0.066294625,-0.9861046,0.87481165,-0.5563804,1.4587137,0.7307273,0.48821464,-0.33231023,0.46698007,-1.4981991,-1.1445386,-0.7829277,-0.2554444,-1.1347045,-0.2945736,0.80413216,-0.93714666,-0.5700655,-0.14076507,0.9024566,-1.2152293,0.9713904,0.17166063,0.7886818,-0.81271493,0.5477833,0.75396407,0.07229155,-1.1508623,0.21188095,-1.2395093,0.9263436,0.44658658,-1.9603618,0.15621875,-0.4718051,2.0944834,-0.114194386,-0.57886785,-0.97968227,1.7116184,-1.4449718,-1.5012319,0.44026464,-0.31833676,0.47548,0.15086493,1.433925,0.6070017,0.6614772,-0.3289074,-0.5941548,-0.089387275,1.1806545,1.8719238,0.32618505,-0.4576232,0.030998075,0.7164605,0.64767,-0.4293702,-0.39313358,-0.76129854,-1.5507128
R3,-0.8124254,0.61461514,-0.30089977,-0.55608714,1.3165988,-1.0249995,0.83977157,0.4169511,-0.91676944,0.6796165,-0.14478372,0.52276206,-2.002984,0.18508942,-0.41242138,-0.86519,-0.45570552,1.0648113,-1.6181377,-2.8972218,0.074152894,-0.58059496,-1.5475715,0.025333881,-0.08069401,-0.05565348,-0.5949481,0.19531323,0.18724944,-1.1714823,0.0035685983,0.44585156,-1.564216,0.67655224,-1.2497135,0.6707439,1.9534411,-0.2648112,0.5584212,0.7103804,-1.4366516,-1.7343712,0.12917332,-0.15210384,-0.24590032,-0.9456994,0.9329086,-1.6648884,0.9028368,1.3633847,-0.0009923615,-1.3287605,0.011419318,-0.7898149,0.5107567,-1.0039495,-0.23650013,-0.3726387,-0.72532266,-0.08133372,-0.5348242,0.011709175,0.15923046,-1.0040531,-0.90442395,1.4841013,-1.0744644,-0.32214734,0.10801506,0.8138415,-1.0867082,-0.14875655,-0.15988879,-0.38344327,-0.54681796,-0.84188104,1.2033283,-0.5943039,-1.9980344,-0.006692048,0.7960308,-0.86761165,-0.035583355,-0.0071723363,0.2966332,0.5852452,0.86522245,-0.08271928,0.467996,-0.97036403,-0.5528819,0.44015774,-0.99956816,-0.0039760047,-0.10974913,1.4365745,-1.116059,0.69197863,-0.0077331853,-2.1572974,-1.2631122,-0.90016776,-0.29444817,-0.25327498,0.6117261,-1.057884,0.15992902,-2.417217,1.3283564,-0.4380492,-0.14788465,-0.8970409,-1.3073002,-1.5549151,0.42272174,0.28885928,0.2528966,0.24644785,0.3826709,-0.6484564,0.9639258,1.1899887,0.4269196,-0.6203701,0.7845299,-0.033996858,-0.007949431,-1.6173855,0.58345675,-0.57357895,-0.06951321,0.3515809,0.1323892,0.19864853,-0.7073777,-0.41788062,-0.9184694,-0.88644737,-0.33850157,0.2551622,-0.6181455,-0.046008516,0.44820896,-0.7697981,0.35417947,0.25596783,1.4523687,-0.62708086,1.6580635,0.66866237,0.50204957,-0.55022025,0.53787845,1.2079667,-0.036546234,-0.093425445,0.15726593,0.9782713,0.11348706,0.88627344,-0.38778308,-1.0116417,0.49906155,-0.21501751,-1.139971,1.1518224,0.3184882,0.31328002,1.4214292,0.74706334,1.1559718,1.1645929,-0.5325983,-0.092458226,1.5240823,-0.39470872,-1.1904213,1.0321432,-1.175115,1.2743536,-0.49362984,0.1950872,0.16780548,0.7590754,0.10796111,0.061792836,1.7974625,0.16823684,-0.75647336,-0.40375268,0.58621264,-0.800633,-0.13235117,0.26419333,-2.011408,-0.50175774,0.087179065,-0.9492379,0.41643986,1.3028646,-0.4412696,-0.49638203,-0.2442364,-0.12189918,0.28790537,0.29076824,0.558454,-2.08723,0.38508496,-1.4888525,1.2901603,0.9084263,-0.47939834,1.578951,-1.198717,0.09533668,-1.5006828,0.32465804,0.054238345,-1.5180367,-1.1024935,-0.580877,1.0867854,0.37954202,0.57887316,0.49000812,-1.6827359,-0.5697282,1.3897597,1.3020482,-1.505724,-0.9102633,-1.1175567,-0.3699366,-0.83574533,0.87284964,0.26020488,-0.06781928,-0.1680811,1.2101796,-1.0945269,-0.29613885,0.873602,-2.0326173,2.0355573,-0.3350499,0.13458484,-1.7200193,-0.27611238,1.8273768,0.23378843,-2.2289693,-0.03066683,-1.0018655,-1.330395,-0.14903559,-0.55840796,1.0674368,-1.5598174,-0.22548811,-0.32108167,1.2007492,1.0683519,0.6199438,-1.209745,-0.26534435,-0.07977014,0.42260775,0.29824343,-0.60939676,0.9134175,-1.7320086,-0.2021516,-0.12466598,-0.7706201,0.4383771,1.7233964,0.19548489,0.84897786,0.7775765,0.7597347,-1.6263657,-0.45126987,-0.5550897,-0.8426068,-0.36193442,-0.73942953,-0.17613173,-1.1605288,-0.66161907,2.0243936,-2.6449401,-1.1509634,0.09332035,0.34101197,0.69850093,0.29164574,-0.79769,-0.5193277,0.11469912,-0.90481997,0.08461399,1.7182837,0.78053254,-1.2215686,-0.55734265,-0.3873581,-2.1535358,-0.04917106,-0.14534564,-0.46087876,1.3201948,-0.081085674,0.34000888,-0.6560153,0.39554667,-0.50571364,0.5135793,0.8809073,1.7436771,0.034943618,2.9510262,1.1353425,-0.24796863,-0.42410693,0.27976927,-0.5547225,-0.5922144,-0.25497708,1.2822,2.2981777,0.30102405,1.1085323,-0.5824869,0.11877062,0.6670285,0.37284258,-0.28473857,0.14496891,0.22686721,1.479478,0.95344657,0.4526765,0.19185758,-1.9696217,0.13635305,-0.9720194,-0.36241636,-1.6130203,0.14102142,0.4301716,0.5254828,0.71897703,0.1947575,0.15373395,1.2555715,-0.43771756,-0.6029414,-0.56055814,-0.7707493,-0.45356476,0.5927505,-0.30452964,0.3904786,0.33758208,0.15565285,-2.5554411,0.5297863,-1.0067936,2.250478,-0.7015237,0.64280134,0.8685983,0.19698341,0.5510247,-1.0652133,0.83839107,0.72471315,0.70997334,-1.0204521,0.57075113,0.45313215,0.011227809,0.34855303,0.9142055,0.21538484,0.58488196,0.24464214,0.5845353,0.43142894,0.4945352,-0.46767798,0.6749137,-0.47644767,-1.7306933,-1.15261,0.44169,-0.0073856674,-1.063803,-0.40054205,0.22383235,2.2185588,0.29030362,-0.8075897,0.6407269,-0.1351748,-0.34054184,0.08979916,1.091839,0.41621694,-0.006682453,-0.40539297,-1.5146445,0.17294471,-0.6110308,-0.52489346,0.6294605,-0.2827082,0.9666703,-0.6054762,0.118006565,0.23814748,1.0501848,-1.3887788,0.5379537,-1.10173,0.4519415,-0.041175734,-1.1015295,0.5585483,0.33886984,1.3800887,0.5226957,1.1699579,-0.23608838,1.6698111,1.9335281,0.45157203,-1.3088442,0.070935376,-1.4996141,-0.1063297,0.77664375,0.56580406,-1.8061514,1.0895237,-0.033244055,0.1962909,1.3770069,-0.98681974,1.4001123,-0.34582034,-0.49815786,0.46502662,-1.3153006,0.022349125,-0.28535295,2.8347502,-0.48718616,0.6011304,-0.3108057,0.44533607,0.39556357,-2.3085716,0.9550249,0.45733497,0.15552436,-0.7123749,-0.21589315,0.2559928,1.2753059,-1.7390038,-0.41956607,0.4713947,0.044666547,-0.37868547,-0.6577245,1.043832,-0.13085578,-0.37926534,0.61948496,0.36313665,-1.3896888,1.0380266,0.8950276,-0.187572,-0.4897885,-1.0479313,-0.16547643,-0.0046869987,-0.34462115,2.024776,-0.5481526,0.584331,-0.3274581,-1.1260885,-0.6109982,-0.40470302,0.3028458,-0.0012042826,-2.1715515,0.15938102,0.6643708,-0.5887075,0.6556252,-1.4738132,-0.6723332,-0.38028625,-0.7525294,0.42111012,-1.4738455,-1.953736,-1.5739421,-1.6760135,-0.25570115,-0.32835105,1.8547592,-1.3514773,0.058344793,-0.02164414,-0.2885897,-0.43769833,-0.11360436,-0.2129669,-2.0093825,0.3159872,-0.36387885,-0.9621641,1.6408796,1.1031233,0.2492436,-0.83466846,0.38300648,-0.073660426,0.15609501,-0.8275271,0.41940543,-0.9839019,-0.25758824,-0.35355031,0.27468255,0.6203972,-0.83224463,0.38553897,0.15886882,-1.1717802,1.10556,0.5623625,-1.41677,-1.339776,1.6845535,0.5347553,-0.476797,0.8379662,0.9799216,0.15377015,-0.3759018,0.6104836,0.16405867,-1.0710295,-0.84819144,-0.76333004,0.07635544,-0.76729256,0.21898098,0.68483895,-0.80541366,0.85404414,-0.2363164,-0.09176016,0.9312106,0.351395,-0.4729884,0.35775545,1.1391202,0.36155665,-0.18951567,0.5874149,0.059180032,-0.026443625,0.6064406,0.51965874,-1.40494,2.3293014,-0.3058994,1.7983927,-1.1288427,-1.7803421,-0.14361118,-0.38856745,0.3566159,0.54043096,-0.65321654,0.4523803,0.048282396,0.6213894,0.30275646,-0.1319208,-0.17401451,-1.5251912,1.1825973,1.9425851,1.3878964,-0.37306175,0.13292077,-0.9597709,-0.6974046,-0.7780208,-0.6357091,-0.14920975,-0.12686346,-0.12375566,1.0822175,0.057778332,-1.3630146,1.2179171,-0.43367696,-0.57653666,-0.036958683,-1.2084485,-0.19091795,-1.1627731,0.5067533,-0.3532345,0.8773377,1.2843829,1.0343748,1.168767,-0.720499,0.8859837,0.76582956,0.65866995,0.71944046,-0.66219294,-0.46994686,0.6190899,0.81360406,1.0284142,-1.0122852,0.6215131,0.66949105,0.5687424,-0.1691205,-1.0591713,0.16291988,-0.6418366,0.50837594,0.6357452,0.19614732,-1.6319197,0.40487364,-2.1009877,-0.4467397,-0.22147153,0.65877753,-0.19158839,0.60921663,-0.03786758,-1.903523,0.042328257,-0.92925566,1.8285351,-0.4551437,0.5312633,0.25440827,0.4399245,-0.12542184,-0.61315244,0.0949853,-1.3536083,1.6562384,-0.5096743,0.05081701,-0.62335527,1.0179759,-0.98692113,0.50461453,0.1665257,0.36488858,1.2061231,0.15184279,-0.47193572,-0.09791414,0.85574,-0.46279123,0.48165837,-0.44215357,-1.0761312,0.31103414,-0.17517604,-0.65419143,-0.49046996,-1.6829458,-1.6718181,0.5889961,-0.61279315,0.6523214,0.23221129,-0.7921513,-0.08356991,0.51945263,-0.028618358,-0.71404225,0.48514095,-0.09474488,0.18338437,-0.6750238,1.5870818,-0.26619843,-0.83591133,-0.68197995,-1.308889,0.18764253,-1.3359452,0.24412489,-0.86857253,-0.6479585,0.39600566,1.1002606,0.03235398,-0.041250665,-1.5400585,1.5041023,-0.7656586,-0.24942708,1.6699201,0.38323402,1.675764,1.2521306,-1.4437429,-0.020511342,-0.3946357,1.1525222,-0.59887576,0.26707646,0.23094225,0.093117245,0.28964207,-1.5396501,0.60932297,-1.0074483,1.9432358,-0.5458337,1.8655297,0.043621857,0.20484261,0.36778435,0.56908536,-0.17620897,0.092909075,0.5309951,2.036779,0.9326005,-0.6299997,-0.06290949,-0.35194325,0.96688086,-1.637453,-0.7501522,0.32680127,0.5151751,1.3526584,0.074633606,-0.67112523,0.77755743,-0.04395498,-0.45998466,-2.770877,0.8813525,0.28018296,-1.6769549,-0.61524814,-0.81342286,0.68523103,-0.4401965,-0.9728456,0.62544805,-0.15395497,-0.6603665,-0.90937114,0.7967469,-0.43420425,-0.96249014,1.7033428,1.1655718,0.26792035,0.31755915,0.205637,-0.7871681,-0.017168546,0.47311506,-0.80361015,1.8061085,-0.6829366,-0.83831865,0.32692587,-0.6098514,1.1026323,-0.25213924,0.8870196,-1.3370396,0.42148182,0.10269347,0.13977043,-0.048891127,-0.44430974,1.5887022,-1.0178969,-0.23364641,1.3340802,0.70634717,1.40899,0.63158363,-0.16613461,-0.097286396,0.35177848,0.6867201,-0.2560235,-0.19624788,0.22840405,0.5716488,-0.15182061,0.7417326,-0.072923906,0.60345495,0.21126479,-0.49169472,-0.34895495,-1.0635628,-1.7841029,1.3679471,0.49762395,-0.27206454,0.8649853,0.9726565,-0.95886683,0.75359863,0.3467734,-0.026076728,0.2852079,0.7744431,0.54174376,0.082662605,1.6718626,0.08783371,0.13521577,1.0725703,0.7208097,-0.5811093,-0.19611347,-1.039384,0.47035745,-1.083512,-1.5558773,0.07043394,-0.53812665,-0.07279473,-0.6687328,0.8223062,-1.1423862,1.5765435,0.085855074,0.57329804,-0.030996323,0.5554763,-1.8204813,1.3115969,0.03679698,-0.17479469,0.23785658,-0.6842275,-0.20734327,-0.17531294,0.93939114,1.1624595,0.2138887,0.70199394,-0.240016,-0.56092423,0.2550635,-0.61816937,-0.65790087,0.0018231738,1.2476696,0.7635161,1.6153361,-0.4762583,-1.0174779,2.1064925,-0.8614249,0.3717419,0.96749896,2.3144042,0.9259054,-1.1759007,-0.5441404,-2.0857122,0.3776389,-0.6483795,-0.59563476,0.99051833,1.3265563,-0.60321254,0.49672222,0.12707253,-0.8385529,-1.3376207,-1.4843913,0.55679137,0.32369825,-0.083595686,0.83291215,0.2904454,-0.7481713,0.22283913,1.2607917,-1.6912595,0.94342995,0.49713162,2.323169,-1.2209771,0.67076564,-1.0662059,1.055396,-0.047222674,0.94038135,0.08303512,0.27673087,-1.3174053,0.26339912,0.5865663,-1.347803,-0.11744181,0.12830435,-0.6984043,0.34937775,-0.18834549,-0.39063835,-0.20947379,-1.5418464,0.59775084,-0.79359573,-0.75805277,1.1142832,1.0253805,0.49533346,-0.377095,0.008642624,0.44438258,0.31265774,-0.0177799,-0.826798,0.118924476,0.49693945,2.2399695,-0.038998295,-0.43720174,-0.8346121,-2.0630858,-0.102433406,0.55488676,-0.46511874,-0.12402716,0.7031296,-1.9763994,-0.5170657,0.21989541,-0.9548159,-0.46689317,-2.2833526,0.19726354,-1.75814,0.88921756,0.25324476,-0.13472067,-2.1136572,-0.23463418,0.53037226,0.8386294,0.22956418,-0.9428255,-0.65221834,0.26390818,0.32620123,0.2663317,0.6206154,-1.0291567,0.3887091,-0.5494519,0.68834877,-0.4131101,-0.8101395,0.57215136,-1.0641834,0.77902883,-0.91225725,-0.28682765,0.26069102,0.33912912,-0.7524865,0.44060025,-0.41050217,-0.30845162,-0.97492474,-0.56782955,-0.4682859,1.155997,0.93637913,-0.28917846,0.3714176,0.22535543,-0.97391266,-0.8406961,1.1061774,-0.7315003,-0.52118915,-1.4073172,0.47433034,1.0725695,-0.1072044,-0.45483088,-1.0934576,-0.55466884,-0.66919523
R4,-0.07881821,0.3044698,0.21879993,-0.47555134,0.35524347,-0.9797376,-0.04864,0.693306,-1.0218495,-0.55605227,-0.22245483,-0.4428809,-0.3007437,0.8681641,-0.9896774,-1.0208406,-0.6641988,-1.0303158,-0.9113059,0.07977015,0.581596,-1.1732756,1.168681,-0.4186977,-1.3300867,-0.15601039,-0.8518668,-0.8619384,-0.8982968,-0.34127405,0.075442635,0.6328408,0.9270191,-0.5407339,0.33460805,1.6669154,1.2748885,0.059021875,-1.1226406,0.17796904,0.37934574,-0.09823587,2.0728195,-0.46291497,0.05721921,0.25045106,0.17715144,-1.4550678,-0.386523,0.10770706,-0.15854876,-1.6235567,-0.810119,-0.017598746,0.4662818,0.35357377,0.23598726,-0.10682467,-0.29906866,0.29044986,-0.10430258,0.9010454,-0.15141007,0.19460027,-0.43456832,0.8236826,-0.6578162,1.4696718,-0.034327928,-0.2914391,-0.12700494,-0.29255393,-0.45447755,-1.1349251,0.18176174,-0.2032631,0.45260596,-0.9005473,-0.17107986,-0.25713977,-0.4360725,-0.6656299,-1.0872399,-0.2775257,-1.102395,0.20892316,-0.2780274,0.6912794,-0.06618485,-0.90446967,-1.1042603,0.63800454,0.10893258,-0.97467095,0.055286285,0.7649169,-1.4279839,0.6512134,-0.526588,-0.027217373,-1.0016513,0.75462604,-0.30202928,-0.17877847,1.165115,-0.086729966,-0.05482926,-1.4978544,-0.4359618,0.06998475,0.077373296,0.09985027,-1.0413455,-0.29033035,-0.39400557,-0.72389156,-1.2647451,-0.6396046,1.0775999,-1.0891693,-0.9206657,0.45256123,0.23414564,-0.5508179,-0.017105585,-1.1744577,0.108248115,-0.8811864,0.6329605,-1.8237628,-0.6297297,0.28585467,-1.0376151,-0.13172643,-0.28813413,-0.15940668,-0.55800533,-1.2442366,-0.26966426,-0.7746599,-1.0574793,0.55028325,-0.60602784,-0.7484226,1.8567872,0.042755783,0.76496726,0.016571498,-0.67774415,-2.0695827,1.277535,-1.4524018,-0.44069043,-0.16061354,0.6284916,-1.2453917,-0.17645495,-0.38473883,-0.06648807,0.49752066,-0.68718505,-0.6134065,-0.9375613,0.42904505,-0.69274515,0.3645941,0.21079992,0.08082327,0.04592596,-0.070610754,0.813493,1.2714235,0.70535564,1.1017653,-1.1878277,-1.2225031,-1.7477483,-0.82103395,-0.8929381,-0.16776125,0.2795095,-1.2257842,0.37338772,1.2852085,0.55192155,0.47745267,1.5990419,0.8586634,0.81740594,-1.7818676,0.5855935,0.2602776,0.7172,0.71053404,-1.3203743,-1.0346048,0.17213267,1.0590653,-0.08455699,-0.22047321,-0.8994779,0.056120235,-1.8334242,1.5138677,1.1276046,-0.058792695,-0.46514785,-0.16057397,0.18399803,-1.2518084,0.74920577,1.4716386,0.7192521,-1.1798998,0.2250344,0.92170906,0.26525688,-1.1948037,-0.29612467,-1.0032953,0.009809325,0.16336922,0.6448998,1.1133662,0.39565828,0.19117908,-0.73163074,-1.1106468,0.48359635,-0.7891588,1.086599,-1.3534595,-0.41948178,-0.83939457,0.9942513,2.1831844,-0.28542066,0.43548426,-0.50439024,1.4035206,0.19642751,0.7631827,0.108883955,-0.32972017,-0.91921586,0.59334534,1.0792643,1.1160635,-1.2748493,0.40827549,0.9700412,-1.0874852,-0.82695484,-0.11532653,-1.4619209,-0.2272015,-0.034751672,0.6062179,-0.4219887,-1.2090927,0.11699676,-0.5733022,0.4795082,0.4598247,-0.79222184,0.0431294,0.2558225,-0.4228827,0.54832345,0.14248835,0.717199,-0.27748632,-0.99709016,0.06032126,-0.27797854,-0.0038131524,0.09611759,-1.6342554,-0.5638968,0.8299568,-0.033171944,-1.0024981,1.2954996,0.26694235,-0.9101146,-2.1709995,1.2669642,1.1929406,-0.17970836,-0.6014788,-0.18487155,0.7131884,-0.7525552,-0.5998615,1.8219305,0.8005014,-0.14022744,-0.5446033,1.0323442,0.43856296,-0.22262597,-1.4629725,-0.25976303,-0.5238743,-0.09865618,-0.5602632,0.040222194,-0.9533674,0.98156667,-0.6358219,-0.45339525,-1.0242703,-0.00018766771,-0.06812199,0.24459845,-1.187499,1.2039694,-0.25749218,-0.562572,-1.3511547,-0.22452049,0.0066743493,0.9659021,-1.15264,-0.7297895,-0.9383068,-0.7789722,0.8312488,-0.7034223,1.1390408,-0.3413937,-1.652603,1.6486057,0.15217343,0.6831997,-0.10912158,-0.5287254,-0.1712854,1.0368205,-0.62500083,0.8434279,-1.0784541,0.5937426,-0.7839696,0.023448585,0.077150024,0.9453745,0.07939077,-1.7536454,-0.5688137,0.9271958,-0.11746933,-0.49924552,-0.17476863,-0.41674152,0.8216672,0.10803627,-1.6857339,-0.5496611,-0.73659253,-0.22108825,0.50442034,-0.5869226,-1.5827605,-1.5237023,0.13630007,0.685728,-1.7885207,-0.104651,0.38492844,0.66991085,-0.4094615,0.49885365,0.7113504,-0.20948778,-1.0235846,1.5199801,0.3446488,1.408379,-0.71920055,0.3480487,-0.08310321,-0.91354114,0.98016816,1.423419,0.08811275,1.2616965,-0.36791322,1.3486952,-0.8914075,0.36306274,-0.03769208,0.12819684,-0.2800479,-0.6580562,0.51807606,0.7026372,-0.5414949,-1.5284923,-0.81222767,-0.41707793,1.0037031,-0.20482254,-0.45638755,-0.9920587,-0.15366383,-0.5657326,-1.6365618,-0.61260796,-1.5583905,0.40616596,0.9860749,1.4190365,-1.9854199,0.16292669,0.005303418,0.19891196,0.5478931,-2.1430237,-0.6630799,1.1116594,0.853316,-0.6418946,-0.15555218,0.0838595,1.1806204,0.634614,-0.35216737,-0.15682304,-0.08512315,-0.8215532,0.094004594,-0.9056116,0.2478105,-0.15014364,1.1679735,-0.004829623,0.41164696,1.3900595,0.767813,-0.2050987,-0.3623366,0.4600986,0.6062173,-1.0471176,1.2519677,-0.41881785,0.597191,0.7236211,0.03161447,1.0028691,0.25436065,-0.28064075,0.034581006,0.73742336,0.20940928,-0.3133413,0.6791747,2.861767,-0.5260382,1.5193415,-0.985132,0.61076415,0.2085528,1.2895397,-0.19622688,-0.16938202,0.14994319,-0.39908734,-0.41839218,0.008879988,0.5824059,-0.19416417,-0.39508405,-0.6170327,0.034228746,-0.409844,0.18322985,-1.4418612,0.08579268,-0.3482944,-0.12201657,-1.0230474,2.6751568,1.700576,0.8141419,-1.0589362,-0.19016784,-0.7074146,-0.33126763,0.20739336,0.60558873,-0.51274335,0.42327872,0.34408888,-0.51585704,-0.51342255,0.7424273,-0.548487,0.75899976,-0.71618944,1.8188578,-0.28965145,-0.23640776,-0.5379968,0.5616828,-0.25935972,1.1979697,-2.2363012,0.1886244,0.37803742,-1.5898156,1.0739636,-1.9710902,0.114572346,-0.6997595,0.4331851,-0.2492994,-0.8240592,1.214818,1.3583082,1.728457,-0.19435865,-0.5553765,-0.85539204,0.15779911,-0.785295,-0.5715961,0.32231316,0.7355073,0.31677902,0.89561015,0.5378917,1.5613672,0.40047565,-0.28292742,0.18097453,1.7013868,-0.36058018,0.39988235,1.0359118,1.8381613,0.4133205,0.88738984,-0.12083527,-0.9907591,0.7882338,0.54646707,-0.6138305,-0.6585118,-0.45683095,0.10685713,0.7268191,0.26968873,0.16311795,-0.0037910168,0.10790149,0.051521137,0.2354418,-0.15562712,-0.76575017,-1.0911463,-0.3253444,-0.70022494,1.1455257,-0.5223184,-0.87553245,1.604392,0.109724134,-0.0922152,-0.11590212,-1.1440715,0.28643194,-1.517748,0.36952925,0.47643626,0.7328608,0.038182586,0.4332119,-1.2185407,0.08697224,0.20284508,-0.29830778,-0.56798846,-0.7220137,1.1678859,0.17415272,0.44054326,-0.124958724,-0.9923373,-0.0136533035,0.7812104,-0.6761455,-1.7365485,-1.1842077,0.59500325,0.3097175,0.35609245,0.72788495,-1.4315542,-1.0565795,0.3687012,0.51510334,1.0477417,-0.47409186,-0.6747294,0.48510912,-0.58200055,1.2540857,-0.38373324,-0.7482601,0.22361629,0.7714508,-0.50529265,-1.7135001,1.0080014,0.055091154,0.48351133,-0.51210016,-0.13205864,-0.8394489,-1.1758868,-0.16502613,0.64068943,-0.17267765,-0.0030291416,-0.56445205,-2.773208,0.37672457,0.6261274,0.74552995,-1.7136831,1.7893604,0.29087847,-0.23704551,-0.3030711,-0.22863197,-0.21126576,-0.40271148,0.9945626,0.099479854,0.430981,0.0765458,0.22742431,-0.3475188,0.56287724,0.119389035,1.0888652,-1.02701,0.2298954,0.5132771,0.22655497,-0.9346264,-0.22754139,-0.8182705,-0.5124597,0.9014334,1.2467874,-0.19120331,1.7931703,-1.3540739,0.15940545,-0.5367648,-1.5096811,0.2396235,0.35440353,-0.22308254,0.07604842,-0.122376524,-0.10084771,-0.07773941,0.08114915,0.43711057,0.17934829,0.60387003,-0.38493887,-1.2464343,0.30640662,-0.9298625,-0.9841342,1.3843246,-0.06125127,-0.25314295,0.28063276,0.7256248,0.44712064,-0.11480265,0.050483406,0.75398034,0.22909611,0.84806615,-0.5617636,-0.26957843,0.33882022,-0.61199576,1.8386245,-1.8783945,-0.57680434,-1.5147871,0.0067079826,1.00694,-1.1181115,0.5429458,0.5946356,-1.3097273,-0.31233743,1.7346401,0.6870861,0.53953904,0.07490956,0.29165223,0.42414165,0.2473898,0.3988874,-0.11575291,1.5702094,0.7873325,0.6917003,0.09416146,0.5552788,0.7184699,-0.59426415,1.6248932,-0.58209056,0.1412478,0.7280793,-0.2677758,2.3852859,-0.02466116,-0.98296064,0.8838484,0.30552557,-0.2403992,-0.985672,-0.13791256,-2.0729191,0.43319452,-1.1928086,0.6504946,-0.11663697,-0.25411612,0.67213637,0.71284455,1.6981282,0.80055076,-1.4630429,-0.04477997,0.52942353,0.6345575,-0.6440716,0.020092929,1.0864991,1.0329319,0.15935291,0.0803865,0.8831435,-0.45604753,-0.75218624,-0.2462263,0.5407627,-0.738879,-0.19495052,0.38653073,-1.0686905,-0.037402432,0.23308308,0.26130393,-1.1382686,0.031117043,1.0490209,-0.39412224,-0.5945984,0.30242503,1.4262209,0.55276465,0.9032647,-0.0035450682,-0.87761545,0.11906124,-0.24310349,0.6983776,-0.79805416,0.9906349,0.4616957,0.32555768,-2.1862612,1.4774238,0.22616251,-0.680438,-1.3695813,0.5766154,-1.1249017,0.99906516,-0.07804373,-1.7725315,0.6762746,-0.87435466,-0.23858231,-0.24351847,-0.024568366,0.44379985,-0.33885956,0.40360644,-0.7217662,1.6323246,-1.0882009,0.20584458,1.248422,-0.833157,0.91896534,-0.94888026,-0.43518528,-0.33112663,-0.19830294,-0.92824787,-0.9422586,-1.0117296,0.56459326,0.71179,-0.45177603,1.1655082,-1.3566632,0.042864483,-0.5895396,-0.72379,-0.56548995,0.026804902,0.91918784,0.5979185,-1.6591243,0.10908713,-0.35930392,-0.74178314,-0.23171978,0.6924996,-1.7392694,0.18483758,-0.21217138,-0.5239318,0.37830845,0.072320126,0.11756241,-0.03244086,0.4180112,1.2536833,0.33890137,-0.590007,-0.323697,-0.4552777,-0.29457188,-0.3317613,0.37096068,-0.056170493,-0.88003844,-0.04648583,0.5621305,-0.52261466,-0.31640378,-0.8808787,-0.4733909,0.9092114,0.33219326,0.39836407,1.7270794,0.24155623,0.14305939,0.8776955,0.19008501,0.48600435,0.78512627,-0.30209658,0.3838534,0.9914934,-0.11146537,-0.49601734,1.79279,0.30937675,-0.18507886,0.9331267,0.31851554,1.3468541,-0.90317005,0.6329667,0.59023046,-0.93412185,-0.6475466,-0.068342716,-1.3082563,0.8663339,-0.978308,-0.115309924,0.5285093,-0.2750108,-0.07137611,-0.98311234,-0.15314277,-1.2872268,0.39360687,0.45043668,-0.11687129,0.8341773,0.5244755,-0.80478257,-0.99143314,-0.37971425,-0.9569466,-0.9369578,0.4499779,-0.47583,1.5834398,-0.5145804,-0.6111422,0.77099234,0.5369516,0.9750176,-0.005453279,-0.07428046,0.14537823,-0.7233731,1.6996241,-0.22069675,1.5944017,0.26653332,1.0949208,0.11697823,-0.65035105,0.27392176,-1.062648,0.53000265,0.3279166,0.3152536,-0.5259821,-0.3197874,-0.31659305,-0.46454358,0.3230753,0.9144139,0.51152104,-1.6094793,0.41897142,0.3174715,-0.086098254,0.24355526,-0.5440388,-1.2952883,0.42623553,-0.44574055,0.3010254,-0.44194508,0.47090077,1.1134549,0.11834476,1.3172375,-0.55624646,-0.05184113,1.3029112,0.3237147,-0.7147228,0.28141654,-0.135108,-0.9120679,-0.5254522,0.24661154,0.78453475,1.3144729,-0.44125178,0.3787481,-0.6198955,1.5471972,-1.7368544,-1.5897945,0.14302082,-0.28275874,-0.98619825,-0.8155167,-0.58797187,-0.9621947,0.013111856,0.3230704,-0.4234923,-1.0807691,-1.5133647,0.1782357,0.95984715,-0.28278902,1.4226899,0.7334966,-0.018679196,0.048202947,0.5920729,-0.5392794,0.52282524,0.35466492,-1.0565283,0.5420695,0.22410905,0.7750409,1.6419531,-0.042483013,-0.8023904,0.45487383,-0.48506594,-1.8599677,-0.52274483,-0.38296688,-0.4858741,1.7076607,1.4564328,-0.028763274,-1.4021301,-1.2293395,-0.28092626,-0.41086492,0.6466313,0.96102524,-0.106381774,-0.40734553,0.87393886,1.1885995,1.7757179,0.35343656,-0.031669334,-1.8347396,0.5508851
R5,0.11621022,0.66761684,-0.463036,1.2333447,-0.16557813,-0.018815279,0.49946147,0.40242824,-0.10285257,-0.37111366,-0.60275126,0.09355325,-0.8771083,0.76974386,-2.4426103,0.69924027,0.18072894,-0.8077773,-0.6912493,-0.80970967,0.8454076,0.026892453,0.54749143,0.07160809,-1.5871089,-1.1926234,-0.5267099,-0.4448293,0.04831743,-1.5473922,-0.3214447,1.3680716,-0.7763945,0.04627121,-1.2616062,0.030375402,0.931777,-1.2496717,1.6272042,-0.71726257,-1.0386717,1.9660078,-0.15343864,-0.36512405,-0.8072696,-0.97345924,0.6117148,-1.0179241,-0.14248273,0.79660827,0.16426273,-1.8650421,-1.2285632,-0.26795083,-0.7727161,0.86495066,-0.29515392,-0.748102,0.5438216,1.699189,2.2065828,0.15824588,-1.8613224,0.009842536,-0.5102113,0.054989003,-0.14353347,-1.4142725,-1.0413884,0.9117112,-0.07048777,-0.7194421,-0.77578086,0.3034696,-0.051692594,0.6406502,1.3525048,0.2587668,0.10927455,-0.58689904,-0.48663682,-0.6868545,-1.1527013,0.2893582,-0.29182386,-0.3756035,0.9914734,-0.43772095,-0.6048786,-0.65439856,-0.3940255,-0.47496566,-0.84944856,-0.9698738,0.95272505,0.51349527,-0.6131824,0.46486586,-1.6838019,-2.269176,-0.6881881,0.30765873,-2.4759817,-0.08616261,0.23108396,-0.614342,0.08962752,0.7085422,-0.19189484,2.2408242,-0.73349565,-0.75161207,-0.89002,-0.68828493,-0.7842431,0.35187528,-1.1425763,0.35335046,0.6233233,-0.30229747,-0.539281,-1.3300987,0.079483114,1.0231167,-0.3216282,-0.52963936,0.27278572,-1.4344252,-0.5152685,-0.98470604,0.8325199,0.13532911,0.8225438,-0.002634786,-0.9586962,-0.2861455,-0.7579288,-1.1560994,1.6934662,-0.017186258,-0.66999584,0.22509038,1.4299366,-0.5699135,1.660289,-0.48054424,1.4000124,-0.3799565,1.4858482,-1.0272499,0.17284112,-1.2989972,0.14172715,0.18980595,-0.3441693,0.45150632,-0.62157696,0.27312335,0.6464196,0.033246584,0.571435,-1.9608418,-0.56395215,2.0638661,-0.7361301,-0.009978788,-0.37334943,-0.99693507,1.4255593,-0.8556444,0.7318355,0.2286875,1.1419915,0.59765494,0.46606684,-0.69721234,-0.8008059,-1.802322,-0.45494685,1.3306204,-0.9536581,-0.8116868,-0.68307143,-0.47019324,0.68568206,2.160564,0.42051688,0.17115788,-0.22539079,-0.39226788,-1.4423542,-0.53919864,-0.1737393,0.7078147,-0.9565698,-0.38783747,1.3074491,-0.5935068,-0.7233134,-0.21540639,-0.1997275,-1.8560638,-0.44807553,0.9421238,-0.06429172,0.20078854,1.1123616,0.64853776,-0.0022853762,0.087532856,1.2535322,1.7647753,0.5806538,0.35461286,0.18053679,-0.05678047,-0.58857954,-0.203119,-0.037567984,-1.7868793,-0.40332955,-0.9085034,0.8984745,-0.70175296,0.16821638,0.3659912,-1.7183018,-0.86752987,1.1803092,-1.0861061,-0.30333984,-0.48858243,1.0337169,-1.0848167,-0.89709175,2.1639082,2.0681958,-0.93755037,-0.3422955,0.8717991,0.42322665,-0.33848614,0.112596616,1.5167627,0.5811776,0.46329457,1.0045391,-0.37356523,-1.5106828,-1.5219932,0.3528343,-1.4487017,-0.4023241,1.9225925,-0.14405535,-1.3046978,-0.41923898,0.24966106,-0.21583357,0.06369194,0.117736556,0.11511979,0.46319085,0.30517283,-0.9371438,-0.39593318,0.04165629,1.0728352,0.13906798,-1.0867068,-1.3519462,-0.98772544,-1.1710434,1.0874951,-0.2648858,-1.1921088,-0.17506841,-0.7833584,-0.09360193,1.5641502,-0.06804395,-0.7582731,-0.1553466,0.79675066,0.3498591,0.31944406,-0.39896357,-0.28023505,-0.50434947,-0.3419113,1.8883101,0.03234861,-0.6747265,-0.6385132,-0.42497462,1.0646635,-1.4224254,-0.06284231,-0.42854637,-0.23837633,-1.5246928,-0.7125742,1.7614762,-0.19729033,0.39214203,0.7506763,0.25727415,-1.1396226,1.3019308,0.51449287,0.44025937,-0.85407513,1.4153478,1.3869979,-0.22149272,0.07038225,-0.15554857,-0.57608044,-0.63033783,0.48713064,0.6449689,-0.23238146,0.28730705,-0.73280436,1.8693771,-0.5737168,-2.4757164,-1.2334521,0.44678193,1.2972364,1.2405571,-1.0388201,0.97853565,-0.10389674,-1.1863034,1.374954,1.2801236,-0.5325867,-0.12220802,-0.5790133,1.699527,-0.0012887896,0.56260955,-2.3439107,-0.6155649,-0.61386716,-1.317641,0.0918628,-0.51123756,0.99989617,1.5408576,-0.81922877,0.41162562,-1.3738258,-0.3890131,0.5263905,0.88070375,0.025323844,0.80300635,-0.102619626,0.14366184,0.3944612,-2.3554318,-0.83772165,0.6780974,-0.33028004,-0.866519,0.2127651,1.5282638,-0.24220455,-0.0442168,0.868433,0.675393,0.096613705,0.14641583,-0.011027755,0.42028093,-1.3225623,-0.17454615,-0.55171925,1.8490387,0.23587856,-0.6625904,-0.59663075,0.85901296,0.27992338,2.8028216,-0.3551013,2.3369365,0.82216597,0.07764752,-0.3108756,1.0366278,-0.8170711,-1.080646,-0.20005219,0.09302371,-0.3701988,-1.9746847,-0.15049115,0.69424474,2.6761713,0.43466124,1.1951246,0.6364956,0.5715138,0.5600632,0.81305826,-0.9584961,-1.4588994,-1.052526,0.14222169,1.5928388,-1.0686073,-1.284256,3.4805095,-0.16716845,0.025967475,-0.90940666,0.37418598,1.380434,0.39819595,-0.06912897,-1.2895329,-0.19291489,-0.13236442,0.2876022,-1.4263041,0.112163946,0.4589258,-0.4549091,1.6995118,-0.8622452,-0.85250723,0.7610581,0.8992612,-0.0011255487,1.2526505,1.5833968,-0.168989,1.6281197,-0.45309076,0.29556006,0.30798146,-1.9456373,0.73096794,0.77198744,-0.36572856,1.6850193,0.67234886,1.7566311,0.5706555,0.02958185,-0.19559708,0.26244944,-1.3494995,-0.34434968,1.435824,-0.40097994,0.3705751,1.4324869,0.6987793,0.14956637,-0.60899395,0.53975594,-0.91238797,-0.23495078,0.10198516,-0.4736778,1.5346276,0.5111567,-0.826043,-0.81242543,-0.91688097,0.2719867,-1.0262,-0.42886156,0.053677626,-1.8487008,1.3042233,-0.7762095,0.8866987,-0.9436752,0.38205224,1.9156189,-0.46728858,0.06809594,0.89013976,0.3215986,0.6744424,-0.21649575,0.2617815,-0.7097694,-0.35656124,-0.569936,-1.0038121,0.6507634,-0.6601551,-1.5784986,0.96210897,-0.9284937,1.1603405,-1.2465527,0.6222876,1.4384993,-0.35102713,-0.9422232,-0.036160033,-0.978083,-1.178893,-0.33573717,-1.8601291,0.2072582,0.3070337,-0.67781657,0.3264969,0.8926573,-0.8690057,1.3405993,-0.23369563,0.17971402,-0.4243374,0.3806029,-0.36989418,-3.1640716,-1.2020715,-0.003973165,-0.37015763,0.748547,0.15752512,-0.28252417,0.36387408,0.56771076,1.5303671,-0.5372032,0.6604136,0.9106469,0.39305875,-1.1297052,0.08186285,0.30409393,-0.2776199,0.39307594,0.3265584,-0.84578264,-1.8642313,1.2963722,0.00010860711,-1.3376992,-0.5259127,0.047074426,-1.5134326,1.0395434,1.0167428,-0.46700984,0.34264284,0.5797943,-0.7481341,-0.09706657,-0.8671404,0.3786896,-0.9637426,-0.3219551,-0.7908989,1.2230997,-0.43866724,0.21451147,0.601093,0.09860836,-0.5450508,1.1471268,0.7761711,-0.77110267,0.03389481,0.2698519,0.5734628,0.018190186,-0.2741528,0.9834474,1.0137641,0.27588922,-0.07057376,0.028354561,-0.4732924,0.5492636,1.7224327,-0.20702362,-0.15728316,-0.16215517,0.3704564,0.82624274,-0.896077,-0.44819012,-1.7770822,0.31489182,-0.15234318,0.41701403,0.33467993,-0.074973896,-1.178076,0.90598744,-0.14076662,1.1385401,-0.06547568,1.4591336,-2.1135192,0.17556359,-0.115652576,0.18855134,-0.09358869,-0.22088918,0.83419096,1.8320984,0.22409225,-0.8737868,1.0394747,-0.4346196,0.028979708,-0.50621,-0.6041684,-2.110929,-0.61888593,0.9239392,-0.18495683,-0.14302108,0.8621274,-0.64394367,-0.6237302,0.0039724587,1.4642546,-0.9026536,-1.5106709,3.129413,0.6411387,2.0384257,0.31044674,-1.5087738,2.0085027,-0.6351082,0.8584073,-0.19160782,-0.43501663,0.8576725,-0.37706584,-0.68902075,-0.60154045,-0.0057260403,-0.16933243,-0.895806,0.35907716,-0.069886014,-1.3729973,-1.039759,-0.3250358,0.35199687,1.3877752,-1.2182163,0.10372963,-1.558665,-1.3598876,-0.25888285,-1.2004726,-0.32670826,-0.97529,-0.06716921,0.767446,0.0517941,0.029252708,0.3663991,-1.0084716,-0.30086163,1.9515213,1.1801353,-0.9128159,0.4213911,-0.80849373,0.9995821,-0.33174497,0.05606711,-1.1372284,-0.16646394,-0.33529854,-0.35924774,-0.6444908,0.45187512,0.85514987,-0.35069713,1.0616862,-0.13464734,1.126364,-0.9157773,-0.5332962,-0.15720615,-1.1523141,-0.8432094,0.08772032,-0.83591956,-1.6828045,-2.5396261,-0.37682498,-0.48854604,0.30776304,2.0859356,-0.46962008,-0.60461855,0.77333874,-0.5297816,0.68426156,-0.33008873,-0.56248254,-1.4355514,0.25769845,0.24260548,-1.1201029,1.0925375,-0.96766317,0.8005389,-0.035315935,0.0551246,0.02528463,0.56849116,-1.6754143,0.25493616,-0.5541043,0.6308134,1.3033394,0.22355556,1.87975,1.3083541,-0.70032305,0.53945297,-0.49538,0.48513904,-1.1627263,-0.6442419,-1.2641205,0.41010943,-0.26400816,-1.764692,0.27071157,-0.8256648,0.902346,-0.11585679,-0.5217102,0.1502543,-1.2329338,0.41599756,0.049168833,-0.08146809,0.9070404,-1.8803635,-0.74297076,-0.49612546,-0.59968877,0.5666517,-0.0691665,0.906028,0.5557219,-0.500958,0.24250531,0.15112707,0.6043108,-0.727301,0.37951183,-0.25594455,1.475488,-0.24953976,-1.1483742,-1.1680906,1.4216448,0.4810287,0.48686638,1.094913,0.5969523,-1.4248728,1.8337752,0.34262225,0.20175882,-1.8710566,1.119489,1.439053,-0.09012243,0.30271515,-0.6828872,-0.2611521,-1.5050728,-0.41374707,0.45484623,0.7632021,-1.2679665,0.31938824,0.20226832,0.76983804,0.7417139,-1.1967205,1.4322104,0.9040864,0.19442114,0.62416804,-1.5532925,-0.20619544,0.38643917,0.62557936,0.07195451,0.90436363,-0.83313465,-1.2722331,0.5315448,-0.6906767,-0.96410096,-0.84974015,-0.7485099,0.5444542,0.91097534,-1.9379673,-0.24503402,0.4827385,0.7990869,0.49930114,0.18781164,1.1724685,-0.021837339,0.25808907,-0.56545246,-0.7853297,0.21224923,-0.7425505,0.20624769,0.62040687,-0.6643942,1.0338818,1.3221376,0.55018437,-0.5142115,0.8487484,-0.44520134,0.35134134,1.0848397,-0.9121431,0.4536932,0.56753623,1.5893239,0.1410307,1.0329002,-0.84031326,0.7592956,0.8282973,0.35243118,-0.43417293,-0.19022469,-0.24873838,0.658882,-0.0071064187,-1.1646115,-0.7217209,-0.8947226,0.08714942,0.3290817,1.7620786,-1.0167161,0.78065664,0.6674728,0.99358654,0.6920556,0.19536,0.48786736,-0.51750755,-0.5588438,-1.3149536,0.8634443,-1.0741944,-1.5415286,0.31444868,-0.3570818,1.0275158,-0.2343452,0.14267467,-0.7929026,-0.783744,-1.3149009,-0.9800518,-0.65174675,-1.0357616,0.4713873,-0.18047968,-0.059884995,0.039710388,-0.48506433,0.6580695,0.58826923,-1.1813583,0.15144274,0.7762371,-0.63513666,-0.5085221,-0.0472976,-0.82257825,-0.18555413,-0.17222252,0.47189426,-0.3436264,2.429879,-0.29557347,0.29199934,-0.73543996,-0.31519943,0.2655298,0.49735823,0.12889428,0.67301947,-0.7883605,-0.6720057,-0.1963573,-0.76400554,0.07064842,0.2542691,-0.7256228,2.3525527,-0.13964227,0.67854005,-0.32344383,1.226648,-0.48157462,0.1952441,-0.8531588,-0.86503077,-1.4981339,0.63177526,-0.50886214,0.097402535,1.7387562,-0.46685392,-0.50472283,0.9140711,0.07836618,-0.69391525,0.9180735,1.1265814,1.4935333,0.8387352,1.1897278,1.5010579,1.6096156,0.72476786,0.014779881,-1.3772737,-0.17847107,1.2326945,-0.33597943,0.5538136,1.4175932,0.15671265,0.8001913,1.617487,-0.17130445,0.1134357,0.42795134,0.26373607,-0.56244576,-0.48878622,-1.2375342,0.5107021,-0.41252536,-0.34389058,-0.22278957,0.560089,-0.3098525,-0.8058902,1.7237842,-1.1317085,-0.6412312,-0.9023777,-0.0027299165,1.0745096,-1.6068405,-2.0545669,-0.47912246,-0.87771285,-0.4999155,-0.9676029,0.41189757,-1.014085,-0.1472044,-1.0937133,0.4403417,0.6104619,0.15535516,-1.4515029,-0.56148225,-0.00896246,-0.39941472,-0.01082305,1.0384672,-0.27911806,-0.21451318,-0.19717938,-0.37176818,0.1457514,-0.0062170057,0.4154191,0.48705024,0.68435043,-1.0723588,-1.33986,0.41212353,-0.3277768,0.10133787,-0.4431252,0.3386101,-1.0546249,0.46126717,-1.3508106,-0.93530256,-1.0858275,0.98998356,-0.5468356,-0.1264689,0.9233643,1.554446,1.7189388,-0.20157523,-0.6485561,0.43931335,-0.4708519
R6,0.96656555,0.60481,0.07302677,-0.66140115,0.4931461,-1.2945266,0.25336674,0.34102103,-0.6591432,0.34540483,-0.15239233,0.96803623,-0.7560937,-0.080552734,0.098201916,-1.6661671,-0.31592798,-0.66806585,-0.72790813,-0.7941978,1.1685807,-1.0787305,-0.41471204,0.042883303,0.58471006,-0.22695006,-0.1917087,-1.1571852,0.34347823,-2.3987048,-0.4337901,-0.5686914,-0.16917321,0.16595352,-0.0990617,2.1164162,0.20477693,0.027302243,-0.092993334,-0.8345502,0.6702422,0.6611884,2.272376,-0.41249764,0.4749309,1.0245817,0.11315414,-1.2369462,0.39857134,-0.5031985,0.19559138,-0.94801384,-0.27241814,-1.9848943,0.24226522,-0.75218505,-0.6269567,-1.0693871,0.27215073,0.75615406,-0.553622,1.3726459,1.1134442,-0.79129416,-0.9468445,0.8062993,-1.0852897,-0.76871455,0.39582503,-0.2569691,-0.3069498,0.24973454,0.54704136,0.90383965,-1.5541158,1.147603,0.16665238,0.88349575,-2.0804055,1.0895708,1.0838811,-0.8515298,-0.16442557,-0.6391728,-0.5155665,0.37912834,0.8154977,0.88832927,0.20791095,-0.7950067,-0.6749826,0.843129,-0.28879303,0.024244236,0.38762748,0.47074816,0.009197603,0.96430707,-0.12556723,-1.3877835,-0.53699315,1.4727292,-0.9213867,1.0774243,-0.015611891,-0.40130547,-0.6919651,-2.0843725,0.2930146,-0.63496757,-0.10623433,0.91729903,-1.1839823,-0.70003384,0.21701464,0.3769165,0.31781062,-0.7618239,-0.09817886,0.10172274,0.060583744,1.7069058,-0.23710506,-0.33541724,1.0427569,1.825865,-0.6971776,-1.2341915,0.82094324,-0.79299486,-1.5210948,-1.1992478,0.05375552,-0.6210256,-0.3606598,-0.3129902,-1.1631052,0.09308806,-1.2920027,-0.46690306,-0.68682873,0.11937017,-1.1544485,0.09462686,-0.555773,-0.3304295,0.97479725,-0.15490872,-0.7331525,-0.89850056,0.6435159,-1.3565924,-0.6416131,0.044719867,-0.69538623,0.9381768,-0.51698005,-2.7229834,0.6783695,0.51122093,0.26494136,0.021055356,-0.101461016,-0.47110525,-0.07065282,1.5614295,-0.5905111,0.38090473,2.3457513,0.22320086,1.3771052,1.2826217,1.1853981,0.5433543,-0.10735763,-0.8888005,-1.3373333,1.1899086,0.26730597,0.30760822,-0.75634587,0.81000686,0.07087007,-0.48350656,1.5453761,-0.05569397,-0.3678264,1.6775678,-0.26181638,-0.35969537,-0.9976745,-0.4281077,-1.0041686,-0.19742668,-0.73891246,0.5171449,0.3895641,-0.7718078,0.5135465,1.3237165,-0.03621109,-0.28642046,-0.9984348,0.4596939,0.15921076,-0.015141513,0.68894523,-0.20174882,0.8806026,0.1685384,0.26061234,2.3525045,-1.8699205,-1.4839339,1.532221,-0.49026012,-1.1903701,-0.3934549,1.6974134,-0.066227704,0.03873806,0.8854448,1.3603686,1.3213416,-0.6737675,0.19882628,-0.08229169,-0.41534597,0.9153057,0.21932922,0.13111573,-0.6357449,-0.092936106,-0.2737262,0.21034306,1.4601526,-0.104044326,0.45648634,-0.727456,0.31888375,-1.35217,0.42174762,1.0654185,-0.741759,1.5780244,-0.93095577,0.78409624,0.6160362,0.97317576,0.55302805,0.2176206,-0.58289766,0.43473536,-0.28571638,-0.96754867,1.142801,-0.6006192,1.1979632,-0.22596359,0.23411329,0.28921607,0.03709387,0.3757991,-0.020150041,-0.768431,0.7187911,0.15289477,1.003703,0.32225117,0.0035939084,0.25460565,-0.3616214,-1.6028147,0.12424987,-0.43080127,-0.83832043,1.030136,-0.7238944,-1.1250887,0.57949525,0.66395915,0.43940914,0.39290348,-0.32976568,-0.3106227,-1.8345885,1.322314,-0.6743983,0.36297566,-0.7624016,-0.16438845,-0.052930318,-0.45939717,0.4855671,0.49693653,-0.33976972,-0.1539332,-0.4921837,0.03932884,1.4581771,0.5877963,-1.6043303,0.6683074,-0.48736244,-0.11443223,0.64107764,-1.0655708,-2.0553265,-0.7415979,1.2199543,1.7374085,-1.293754,1.336534,-0.011296322,-1.0094799,0.2293126,-0.14575535,-0.15117168,1.0855677,0.5836916,0.42704466,0.63212717,0.49953425,-0.64774776,-2.1409442,0.8558558,-1.2533342,0.7288048,0.97729397,0.2948846,-0.2119963,-0.72362685,0.5768977,0.1254185,-0.15048018,0.9245453,0.3053674,-0.0035466882,0.3064516,-0.6108682,1.6111459,-0.79779226,0.44825262,-0.8686981,-1.2520902,-0.8808625,-0.8489702,0.673091,-0.5215919,-0.43521556,-0.058515575,-1.616932,0.11649524,-1.1763121,-0.5684993,2.5637627,-0.4845865,-0.75136685,-0.24995065,1.0141625,-0.24526101,0.2270298,-1.1853886,0.49984387,-0.20469908,1.8262128,-0.92633355,-1.054879,-0.56818134,0.35993508,-0.9170821,0.15713745,-0.97916996,0.47457865,-0.78948116,-2.1830566,0.50162894,-0.92554706,0.5470051,1.2440985,0.2735125,-0.568305,0.56723243,0.8652413,0.3259624,0.7562016,1.3646452,0.11477457,-0.37123966,-0.69576347,0.2594044,-0.11348665,0.68904716,-0.2970755,0.6002998,-0.34329605,0.33844456,0.0538297,-1.271888,-0.12145528,-0.47846398,0.372959,-0.72140735,0.26198933,0.57797444,0.5907766,-1.8029546,-0.84852743,-0.71283054,-0.77306634,1.4499084,0.12884894,-0.055056855,-0.16101578,-0.5425166,-1.1654117,0.2513127,-1.083034,-1.0811737,-1.6452425,-0.70432115,-0.42407164,-1.0637884,0.6254279,0.6494447,0.30890936,0.5561814,1.4721217,-0.4076524,0.6999002,-0.11356306,-0.93382657,-0.24263419,2.418696,0.5970671,2.2348344,1.5632428,0.48003468,0.38507867,-0.58995473,0.21117665,-0.48064137,0.094444074,0.19179936,-1.1456152,3.101005,-1.4821205,0.48457643,0.6560066,0.30869547,3.1527338,1.3743938,0.006683736,-0.8194776,0.1384934,0.631138,-1.9800805,1.0385095,0.8689976,0.37838167,-1.4224277,-1.892458,-0.16074574,0.32987916,1.0621572,-0.1264814,-0.65733117,-0.89867467,1.2278211,1.7681212,-0.07060967,-0.16571268,-0.5678737,-1.243784,1.1861982,0.11892144,0.6359902,1.2033079,-1.271716,-1.2312981,-0.4430889,0.071034946,0.7940161,-0.13237211,1.5939298,0.9133556,-1.0355923,0.48170015,-1.7583398,0.6163932,1.4632807,-0.73456573,0.1680864,0.48200798,-1.758534,-0.26242325,-0.4341071,0.9174208,-0.0070526036,1.1037415,-1.0107646,0.059572738,0.33987272,0.21801995,-0.123823285,-0.41229022,-1.2607672,0.32350308,-1.8209673,0.2678671,-1.159787,-0.77645844,-0.702574,0.31277725,1.1597855,1.2090327,0.8736932,-0.95780987,0.52593064,0.8636867,-0.065534465,-0.42531145,-0.3004616,-0.32555813,-1.6980987,0.26650244,-1.0237516,1.7295216,0.48567617,-0.9551021,-1.5640712,0.51401323,0.6791564,1.321124,0.30089,-0.25724185,0.91364884,-0.46290338,-1.0210209,0.39278728,-0.005398201,0.95588946,0.11048108,-0.74039227,-0.90986675,-0.591264,0.79053617,0.46306372,-1.64397,-0.48221207,0.88870287,-0.15592256,0.18026678,1.1670504,0.9382054,0.036470253,-1.4474113,-0.9292277,0.2642709,0.32041806,0.9225385,-0.15329602,-1.7126516,1.173306,-0.08010128,0.39867058,-0.8935834,-0.23808593,-0.36126256,-0.9722235,-0.11172107,-0.6303332,-1.1363385,-1.4167647,-0.18328671,1.328566,-0.22573543,-0.99610496,-0.62635076,-1.5980953,0.6594924,-0.5363476,-0.28684527,1.5850184,-1.5386578,1.9659383,0.10612502,0.050261464,0.59854484,-1.8042349,1.8199942,0.6762139,-1.2096546,-0.50037336,1.0020194,-0.33265656,-0.044036195,1.3703803,-0.55859673,-1.0928872,0.99694467,1.5906625,-0.29777542,-0.41061527,0.298801,-0.6175818,0.51159644,-0.7003021,0.974219,0.25731277,-0.12612638,-0.5982514,0.8901684,1.3440061,-1.7472695,0.7142537,-0.22034448,-0.553238,-0.34425223,0.4036856,0.3048501,-0.685677,-0.5847578,-0.24773413,0.050825495,1.3008223,1.1395586,0.68681806,1.2259508,0.5625386,0.30620784,-2.2102566,0.70109206,-0.61690307,-0.09845673,0.38383937,-0.22979471,0.50962365,-1.2576332,-0.9278611,0.22950146,1.0005012,-0.53909135,0.59805524,-0.29983267,1.2708284,-0.5242889,-0.48602548,0.78069943,-0.13349207,0.54465216,-2.2526417,0.5222914,-1.2095404,-0.6624001,0.31442404,-0.14064556,-0.13702871,-1.3426707,0.6634551,-0.90311974,-0.37370342,-0.110752575,0.73236656,0.75664777,0.7305458,0.64275527,-0.16540909,0.723458,-0.9455292,0.49418205,-0.29334444,-0.7816949,-0.19439496,1.8916469,-0.7274853,-1.3742058,0.5322845,1.3903414,0.8559946,0.045775045,0.3352759,-0.9361568,0.14739423,-1.0873088,0.17569941,-7.3359242e-06,-0.11476806,-0.13024153,-0.07382092,1.1984831,-0.032917842,-0.6929539,-0.8365991,0.9457601,-0.07732129,0.21669121,-0.48174587,-1.0665745,-0.800477,0.3016261,-1.632831,0.7080448,-0.29858008,-0.7662927,0.55129385,0.37257385,-0.028384605,-0.4059045,0.35216594,1.4202352,0.9668397,0.4280136,1.9024876,0.07203715,0.91022766,0.88557094,-0.10605823,-0.18450122,0.66724557,-0.7364683,-1.7952173,1.2881296,-1.0160267,0.9120953,-0.22778988,0.11496331,0.9405324,0.57252556,-0.095880456,0.92312217,0.6364869,1.4515605,-0.2102083,1.5188042,-0.602821,-0.13034743,-1.4461516,-0.5164834,0.49971402,-1.5023375,-0.07077372,-0.1619168,0.040604502,-0.46178448,1.3264202,-0.075247794,1.1699654,-0.42538944,-0.26009816,-0.7894386,-0.06854515,0.30109584,0.23474926,1.0663571,0.9196723,-0.3314666,-0.037372585,-0.44675004,-1.8319681,-0.109061584,-0.5126977,0.14806384,0.9570495,0.9578103,0.2813009,0.11277197,-1.0984998,0.9161346,0.6160259,-2.4260836,0.7520678,-0.6831135,-0.38373375,-0.6193762,-0.59258384,0.820964,0.016181208,-0.6436872,-0.4350255,0.029807713,0.30911726,-0.03092087,-0.54919374,1.4279554,0.69171023,0.82922816,-0.053623524,-0.6677052,-0.8470155,-0.24757873,0.010703987,0.94419926,0.97425914,-1.2510995,-0.67176944,-0.8675568,0.34507048,-1.2188824,0.1724859,-0.43598604,0.16159803,-0.43410328,-0.28142077,0.252827,0.17494968,-0.033177517,0.1067408,0.7471053,2.3394737,-2.284778,0.7303283,1.0603439,-0.8803532,0.07431262,0.9368985,-0.9421403,1.147225,0.18421116,-0.016359657,-0.38462985,0.8639211,-0.8020612,0.14368628,1.043791,-0.42447644,-0.49821377,0.08347985,0.6789788,-1.130278,1.1713144,-0.9290496,-0.57386327,-0.10699848,1.4399259,-0.447765,-0.83208084,0.3703563,0.6848465,0.22258742,0.98083377,0.7969725,0.9275446,2.35729,-0.4101156,0.25701806,-1.872745,0.5923804,-1.0272026,-0.7831691,-1.5944514,-0.07826074,0.5324835,-1.4071332,-0.0022839904,-0.4474129,-0.78129375,-1.0796033,-0.8293003,-0.31631052,0.50627804,-0.68674076,0.12157852,-0.77222085,-0.7984715,-0.88490677,0.6112092,0.38125095,-0.27349418,0.16891547,-0.23655751,-1.1093224,0.4346001,-1.0701238,0.2930585,-0.35715008,0.6954332,-0.13572659,0.81030124,-0.8566497,0.30177033,-0.5925131,-0.060630307,0.6180313,-0.40205696,-0.6206136,0.14188534,-0.93301594,1.1071445,-1.7904241,0.8174937,-0.6669904,0.65228945,-0.7465353,-1.4229339,1.1660895,-2.6531146,0.34625852,1.7766266,0.11660201,-0.108978495,1.6759572,-0.09163324,-0.7374606,0.7699279,-0.17367518,-0.6404896,-1.0860248,1.7178825,1.538429,-0.50286126,-1.9633662,-1.2828761,0.40679103,0.19743933,0.32375926,-0.1234411,-0.5038054,-0.15256977,1.8654897,0.3870112,0.29283246,-1.812545,-0.7911878,0.85428476,-0.45015055,-0.48680508,-0.522226,0.44622585,0.76113313,-0.7134338,-0.7044448,-0.21353385,1.8626592,-1.5900391,-0.51554745,-0.2402464,-0.52170366,-1.9567511,0.78493965,0.08407185,-0.6138733,-0.01574495,-0.07551677,0.6429872,1.6570225,-0.67645717,1.2299705,-0.8597098,-0.68599916,1.496604,0.22505106,1.5633361,-2.451311,-0.14137547,0.12397279,0.47187245,-0.6968323,0.5233354,-1.0999436,1.2133853,-1.1688116,-1.06167,1.3367033,1.1234303,-0.47458893,0.071682245,-1.1835709,-0.28984925,-1.3292768,-1.3327787,-0.00047022104,-0.520709,-0.35703048,-0.8676261,-1.0580966,-0.17972516,-0.3767833,0.23874897,-2.365468,-0.9311018,-0.39281923,0.323392,0.75230765,-1.0683728,0.8066703,0.76505893,-0.77171016,0.017818239,0.5433581,0.37304756,-0.1645847,-0.75157475,-0.9788722,0.04615084,-0.056086857,0.84397274,0.7140329,0.3865588,-0.34075248,-0.32863548,-0.7545572,-1.6122768,1.5531062,0.23761243,-2.0045154,1.1814227,0.016950186,0.84561944,0.2181975,1.1938659,1.7221074,-0.5611652,0.055424597,0.15641604,-1.7752124,-1.894983,-0.2045921,0.59484464,0.39364466,-0.21092707,-0.031467658,-1.9852529,-0.57331413
R7,-0.38032532,0.54766494,0.06907064,0.7380036,-0.4555061,-0.08232217,-0.05216312,-0.98844093,-0.4102266,-0.45251483,-1.1222396,-0.96352607,-0.47676966,0.6590593,-1.7671181,-0.9523819,-0.25436357,-0.5115206,-1.0019554,-0.545987,0.43970907,-0.6462314,1.1118059,-0.34653684,-0.98610055,-0.9792158,-1.6592274,0.5128698,-0.82166654,-0.50017864,-0.2113145,0.24878521,0.51701283,0.8197738,-0.23233652,1.0519584,1.5254099,0.4512038,0.8202995,-0.38178992,-0.28199863,-0.020360071,1.0166162,-0.93192637,-0.17669919,0.5843292,0.08922709,-0.9430285,0.23679945,1.009942,-0.026703447,-1.955649,-0.811168,-0.2383631,-0.13991109,-0.27780125,0.0139871165,-0.16706292,-0.6991905,0.5846276,0.41537875,0.8481382,-1.0234684,-0.649813,-0.60288954,1.1781304,0.34617695,-0.91376424,-1.1739533,-0.49683943,-0.058572054,-1.309726,-0.8492438,-1.3005326,-0.60819626,0.124147564,-0.066672094,-1.2964594,-0.30724984,-0.57773876,-0.68800145,-0.4570291,-1.0617715,0.1744636,-1.2939855,1.4930377,0.33080316,0.4879518,-0.49181214,-0.2571189,-1.183945,1.1749097,0.2764816,-0.048003096,0.49845105,0.27084392,-1.5302432,1.2192135,-0.59273076,-0.93115294,-0.031646058,2.0731232,-1.6000929,0.45041192,0.7790103,-0.43939203,1.5253819,-1.319811,-1.4817857,0.85939896,-0.51034206,0.110052995,-0.6174114,0.11003142,-1.303807,-0.821589,-0.5396868,0.6322689,0.029083218,-1.5561332,-1.0299377,1.8716068,0.27367347,1.5145955,-0.019908516,-0.7582716,0.6801313,-1.8039181,0.09555673,-1.2129425,-0.38078412,0.69023126,0.1583615,0.0029888488,-0.5562988,0.20059997,0.07743889,-0.88070035,0.33380517,-0.57109725,-1.1034198,0.8503379,0.45016447,0.8483493,1.7861809,0.24117045,1.5634313,-0.8352005,-0.4180231,-2.0622811,0.88210285,-1.7158588,-0.49664572,0.3757308,0.31308046,0.021620888,0.43866473,-1.1008308,-0.11378111,0.8755787,0.8073319,-0.82886034,-1.5950267,1.0213362,-1.1762418,-0.08001838,-0.030884244,-1.0330303,-0.04870086,-0.66910815,0.37552404,0.6981127,0.6094122,1.070027,0.058266297,-0.90194154,-1.5742022,-1.9860839,-0.96332973,0.2010296,-0.14591593,-1.189938,0.48706108,0.38519597,0.23948605,0.7933736,1.6179876,0.018734515,0.23000325,-1.7088168,-0.93561447,-0.38850385,-0.54182136,-0.024864012,-1.06873,-1.2271278,1.0001931,0.059539087,-0.40455422,-0.42497647,0.60181105,-0.62083596,-1.6282898,1.5522207,0.9035233,0.057998788,-0.3684624,-0.67885035,-0.025833191,-0.51111805,0.63271934,2.9783669,0.7919424,-0.05905984,-0.4474433,0.85777456,-0.054754734,0.017152674,-0.30271745,-0.66104573,-0.778663,-0.18341616,1.365344,0.6736723,0.33443177,0.382182,-1.2098253,-1.5174915,0.809897,-0.5783648,-0.3113949,-1.5774517,0.7624802,-0.58285,0.05641653,3.0738947,-0.09341165,-0.15477182,-1.0289829,0.21002196,-0.13696077,-0.16823623,-0.24408159,1.176025,0.58578664,0.07658293,0.288539,1.0519958,-1.9730592,-0.19058949,0.04599263,-2.2167718,-1.6353508,-0.056644917,-0.53078586,-0.35311526,0.036437217,0.0879085,0.116984524,0.6401292,-0.49247822,0.4445617,1.1479604,0.153689,-1.5275218,-0.6702094,0.01661037,0.5445869,0.2733974,-0.72217596,-0.0474593,0.23028427,-0.90407073,-0.014258778,-0.17078605,-1.7407241,-0.9820185,-1.809073,-1.256899,0.88334906,0.3309918,-0.40229133,0.28572375,0.13922909,-0.1984458,-0.7545874,0.9810023,0.5405233,0.12170634,-1.0175736,0.38902497,1.2546422,-0.04306852,0.76284045,0.085942775,0.51242715,-0.5718982,-0.13887297,0.9139403,-0.0021432973,-0.008010473,-1.2511562,0.6166355,-1.086537,-0.582757,0.28626373,-0.6097181,-1.0853796,1.708514,-0.7412428,-2.40143,-0.879302,0.027829807,1.1822699,0.0068649566,-0.5813195,-0.24272354,-1.173466,-0.29677993,-1.3930093,0.90821785,0.11670745,1.8078766,0.0881785,-0.18519586,0.90342593,-0.0135765,0.50730824,-0.16638236,0.2638098,-1.0984284,-0.032220952,1.9758205,0.0873812,-0.06783813,0.17256196,0.19725683,-1.0949596,1.276203,0.027164765,0.061418056,-1.9055926,1.0104711,-0.9380863,-0.31302416,-0.16620529,0.16582523,-1.5159864,-1.3161827,0.42826167,1.6821012,-0.55481976,-0.0080522355,-0.1806513,-0.886989,0.060678102,-0.5398438,-1.3639004,0.23758307,0.13829857,0.33695936,-0.50004184,-1.553572,-1.972605,0.71193933,-0.9195068,0.66014314,-1.0690054,0.34816122,-0.35647482,0.2009955,0.04250464,0.698816,-0.10037487,-0.024335418,-0.7530465,1.5456263,-0.68587196,0.71926475,-1.268816,0.042218808,0.6618622,-0.9053629,1.0159109,1.5855246,0.4269694,0.86144114,-0.3129254,1.3096931,0.27090403,0.460555,-0.36464205,0.38213494,0.17536147,-1.1065456,0.13193658,0.06586543,-1.1433039,-2.6293037,-0.30877224,0.39926723,2.4888208,-0.6604081,-0.45508823,-0.0022781044,0.5110362,-0.47270447,-0.40783465,-0.16054778,-1.5274142,-0.17192775,0.26096404,0.5213502,-1.8516581,-0.5081301,0.5169138,-1.6288091,-0.27148014,-1.5814208,-1.0092628,1.1945658,1.3891253,-0.60201275,0.033671282,-0.18442628,1.0707687,0.5305032,-1.3906987,-0.11122433,0.30886137,-0.1742823,0.8201374,-0.32776514,-0.2438984,0.40772182,0.19008829,0.047112975,1.1842513,1.367005,0.62546545,0.102161005,0.7927781,0.49436602,0.94719934,-1.3551439,0.5922771,-0.553399,0.54812974,1.3264203,0.5813507,0.28906447,-0.26257733,-0.27780458,0.4712397,0.047064953,-0.9134021,-0.30588424,1.4113531,1.0004052,-0.470981,1.1259036,-0.49441707,0.056988705,-0.70369667,1.8648814,-0.7075818,0.18111049,0.08445136,-0.8635975,-0.24451701,0.8509884,0.7121248,-0.15470324,-0.52672774,-0.30691057,0.1960975,0.17835632,-0.98643565,-1.7960712,0.8314808,-0.8444634,1.5589166,-1.9547665,2.411743,1.9902676,-0.044735394,-0.45965242,1.1051191,0.23010209,-0.29443103,0.60812956,0.61165273,-0.060335398,-0.09971297,-0.4898466,-0.10228327,0.28155488,0.7218076,-1.1304972,0.51406074,-0.56047916,1.3470814,-0.17607513,0.2544039,1.6934558,-0.115696065,-0.6227462,0.8979559,-1.8761691,-0.33013502,-0.026770972,-1.7911911,0.51016873,-1.3890383,-0.4153037,-0.33511648,0.42232722,-0.9557433,0.5765132,-0.2565802,-0.25651184,1.2593298,-0.2598948,-0.69389296,-1.2709666,-0.56974137,-1.2746497,-1.1745204,0.97170466,0.9123354,-0.3083241,1.4524196,0.87839943,1.9694766,0.11086397,-0.7782562,0.294356,0.5885802,-0.3827488,0.1260773,0.509872,1.5766314,0.3982568,0.7058458,-0.5932475,-0.4822141,1.3446393,0.90628594,-0.9482914,0.6400417,0.38560197,-1.6238239,2.1206489,0.49346057,-1.0153217,-0.15659828,0.90690106,-0.85027367,-0.012917019,-0.3619936,-0.6516383,-0.49339354,-0.56002593,-0.3663719,-0.22965753,-0.9651141,-0.017001793,1.0777323,0.67528737,-0.56489426,0.432138,0.2632519,0.84130365,-0.64929146,0.4791416,0.3636142,1.1632503,-1.0128131,1.0798895,0.15407653,0.2801302,-0.056645926,0.26682192,-0.2907595,-1.042747,1.8700128,-0.22123398,0.28342044,-0.1598684,-1.8170273,0.21364982,-0.040336363,-2.2040985,-2.756924,-0.29271564,0.4674724,0.26568326,1.2212458,-0.96954334,-0.8862649,-0.44692042,-0.09497374,0.48933014,0.29829255,-0.6138739,-0.084288,-0.99754864,-0.72305954,1.4047,-0.042853966,-1.0764302,-0.27372056,0.88194776,-1.0405192,-1.3668025,0.19798124,-0.24986887,0.9211231,-0.7446321,-0.0007873308,-0.5993822,-1.5774833,-0.42856422,-0.6569153,0.2786269,0.2643375,-0.22243932,-1.4710605,-0.94780046,1.2011074,0.6316067,-3.9386442,2.1073925,0.27017933,2.0506175,1.0493109,-1.4588064,1.0731844,0.5755594,0.3357451,0.9388257,0.40104872,0.2911295,0.4334199,-0.4595259,0.1949756,0.8235931,0.36899263,-0.369929,-0.8121784,-0.21590987,0.57741016,-0.598399,-0.033833694,0.817219,-0.28122383,0.125039,0.15512742,-0.8587445,-0.24332602,-0.50405145,0.041877843,-0.4119233,-1.7744075,-0.21147531,-0.2753857,0.58162004,0.030405845,-0.3972257,-1.2552794,-0.5433443,0.9599053,0.6396738,-0.33780065,1.2172182,-0.69117475,-0.17814113,0.070977114,-0.8338819,-0.6718269,1.195914,0.527564,-0.4302697,-0.21673529,1.3003988,0.41118085,-0.39310566,-0.6373156,1.1509261,-0.16442433,0.0036095507,0.09146267,-0.120735824,0.3086392,-0.7444488,0.49788052,-0.87439513,-1.892412,-0.9707688,-0.6744797,0.34432065,-0.79202414,1.7443814,0.60134256,-0.13604116,0.7930954,2.1561122,1.7589997,0.19087553,-0.025107397,0.15699145,0.17321508,0.39819533,0.4036426,0.616433,-0.76734966,0.98758835,0.5909813,-0.273519,0.6766172,0.009644469,-1.8220253,1.7126042,0.030862119,0.19983412,1.9258542,-0.11545624,2.0199516,0.31468856,-0.45061055,1.1441009,-0.26655528,-0.25116092,-0.77519405,-0.2622431,-1.1752855,0.6570405,-0.9431064,0.13538706,-0.29463884,-0.69382846,0.50478894,0.6045937,0.9709689,0.6473493,-2.2749352,0.65629375,-0.45611292,0.68761015,0.22880572,-0.71551305,2.2311122,0.37808365,-0.57709414,0.432675,0.47798258,0.0122632645,-1.0352631,0.5638496,0.06980919,-0.7160015,-0.053941004,0.13499886,0.12261695,-0.64469886,1.4886512,-0.7482227,-2.1307545,0.10422721,1.3389791,0.28924155,-0.22766611,0.8207973,0.63238996,-0.045048326,1.2858882,-0.38311502,0.3994087,-1.5365647,0.5382357,0.98195696,-0.53891397,0.7689058,1.0018176,-0.19413726,-2.0004003,1.0141876,-0.29877755,-1.2255087,-1.3149334,0.45947784,-1.2686905,0.09051743,0.16890174,-1.7829952,0.70766455,-0.7670265,-0.025949694,-1.0645207,-0.93802863,0.5024398,-1.8585877,0.12255106,-0.1362415,1.2190005,0.28104204,-0.6366555,0.8346826,-1.3896399,0.18699923,-1.560141,0.089321405,0.3295063,0.2935496,-0.34427667,-0.2468099,-0.49798292,1.1076952,0.62464833,-1.4136378,-0.63834,-0.21872215,0.036287475,-0.9741224,-0.57703024,-0.45767272,0.080997705,0.7690861,-0.32961252,-0.3170516,0.796,0.18615468,-0.047786187,-0.9099904,1.1924758,-0.7326808,0.30667752,0.47317958,-1.1087893,0.9026641,0.6225964,0.20618328,0.36799258,1.7839448,0.09394082,0.6199526,-0.42911685,0.4389615,-0.066684894,0.08199163,0.69069314,0.1339787,0.21661694,-0.6823021,0.19834477,-0.84475493,-0.70924795,1.0790229,-0.03743102,-0.5456227,0.49189782,0.011704592,1.0099715,1.1696813,0.3605944,0.116510935,1.0368491,0.2099665,0.48627397,0.12415181,-0.377473,-1.1579037,0.957474,0.5615029,-0.53020144,0.5310353,0.16240394,-0.7255714,0.48437718,-0.6310139,0.19768476,-1.1506613,0.5701467,0.88232684,-0.31076905,-1.3285358,-0.01443981,-0.08755421,0.9952568,-0.07425758,0.12081462,-0.89473504,1.2459369,0.670582,-0.7262183,-0.050376944,-1.7020822,-0.2526522,-0.63911027,0.026477758,1.3802981,0.5871347,-0.15335229,-0.37124822,-0.08204255,-1.2633927,1.446525,0.24413778,0.08781353,1.337089,-1.432774,0.3320921,1.0696685,0.5124898,0.8638419,0.29989022,-0.23488665,1.3923522,-0.837859,0.65611494,0.018040478,2.3106947,0.006830957,1.7142727,0.7055503,-1.5407846,-1.2346328,0.42650485,-0.20614928,1.3327568,0.50023896,-0.24798386,-0.7430907,0.39324167,-0.74870527,-0.3208671,0.80187756,0.11732274,0.088156074,0.9125501,1.3311462,-0.114876695,0.4747355,-0.30691183,0.14184883,-0.18131012,-0.4552099,0.5743416,-0.6483054,0.7994149,1.2156354,-0.28493017,-0.039923627,-0.28417954,-0.42921546,0.45900756,-0.3168142,0.7579936,-0.08536217,-0.7768055,-0.29089922,-0.036680732,-0.38537002,-0.24480668,1.2018499,0.0023722854,0.6334137,-0.4049909,0.9620647,-0.7094392,-0.5432396,0.027329544,0.75142664,-0.45576096,-1.2048458,-0.49961135,-0.62180334,-0.087204635,0.48358166,-0.8027728,0.266714,-1.3154999,0.40583488,0.8559034,-0.73408043,2.3010635,0.25292754,-0.10004564,-0.60682607,0.32362905,0.18444283,0.350261,1.2745614,-0.50712204,0.46305898,-0.05723474,-0.2849126,-0.3168788,0.18015327,0.100403026,-0.22218736,0.2943905,-0.9857273,-0.50498235,-0.23582312,-0.62423295,2.0187018,0.18992236,-0.14796399,-0.4653128,-1.1547852,-0.17518044,-0.125244,1.1074829,-0.01575466,-0.5359173,0.36571336,0.9270651,1.6207991,0.994135,1.3540802,0.29009065,-1.6659019,-0.25470883
R8,0.21732998,0.46987587,-0.15258047,0.59801453,0.17539307,-1.106829,0.14288302,0.48848704,-0.67248774,-0.9606089,0.6227902,0.12172951,-0.4448489,0.6063195,-1.3557796,0.023517834,-0.86752653,-0.16625243,-1.5966731,0.021881785,-0.17637368,-1.2000785,0.2950492,0.19055319,-0.12592676,-0.07247475,-1.6750973,-0.07208106,-0.37852266,-0.7662127,-0.92979836,0.7113675,0.33583722,0.09375749,-1.3549131,1.0091277,0.5572556,0.39829072,-0.69987553,0.2804209,-0.16123638,0.46393353,0.6297479,-0.012778126,0.42509702,0.3452793,-0.37682286,-1.7351304,0.2143924,0.7707976,0.58891755,-1.4503734,-0.571135,-1.183397,-0.16297679,-0.21105444,-1.3952953,-0.874801,-1.128746,1.4751537,0.6724921,0.5654808,-0.3771945,0.025041107,-0.58076257,1.7400378,0.08418747,-0.21480143,0.3724447,-0.09140518,-0.31820476,0.12922576,-1.6941884,-0.15804796,-0.56946665,-0.31690422,0.8914909,-1.0025442,-1.3340912,0.5417518,-1.1489854,-0.40961787,-0.11887873,-1.0622838,-0.917035,0.5121724,0.82111233,-0.3666518,-0.7810397,-0.63101184,-0.47369513,0.34919322,-0.09919646,-0.50510746,-0.52554184,-0.2074968,0.15241426,1.5317547,-1.5722013,-1.0948355,-0.777956,-0.13490301,-1.339558,0.121068254,1.1246219,-0.015907649,-0.052957013,-0.98390836,0.5986643,1.5751495,-1.145225,-0.086481944,-0.035514373,-0.661024,0.3293708,-0.9024259,0.11024217,-0.87585497,1.4795114,-1.5456718,-0.45738116,-0.7038156,0.2692446,0.5825956,0.7968116,-0.8064537,-0.11637496,-1.9563942,0.21611333,-1.5513383,0.4074426,-0.18782002,-0.38271207,0.4457955,0.7965696,-1.1481133,-0.9865507,-1.0858834,0.07882031,0.38630208,-1.5963308,0.14525115,-0.44698793,-0.78953284,1.6687536,0.301128,1.4869491,-1.2980374,-0.7554156,-1.8188367,1.6242948,-0.037922837,0.22424397,1.4940493,0.31840092,-1.0110341,0.5129246,-1.2324921,0.013305835,0.58317494,0.034019016,0.7869792,-1.1015148,0.60910064,-0.9682386,0.22240472,-1.2993742,-0.017563477,-0.3118706,0.4033868,2.0907223,1.1439452,-0.05241227,-0.58545065,0.6204621,-0.5442673,-0.848799,-1.7337997,-0.3568779,0.11611793,-0.48825678,-1.144819,0.642548,0.41513833,-0.6656962,-1.0436071,-0.0742671,0.42688012,-0.8422091,-3.0190303,-1.6187553,-0.85002583,1.2951434,0.228329,-2.3096561,-0.14869262,1.5071363,0.10882851,-0.7725754,0.25581834,-0.011876654,0.2786006,-1.02703,0.5254371,0.58391625,0.5633717,-0.13207082,0.58953226,-0.21227667,0.22281994,-0.25230727,3.045662,0.06510511,-0.45592648,-0.012494467,0.85983336,-0.2378279,-0.9220815,0.54026085,-1.1174982,-0.04273313,-0.033924617,0.1863559,1.3344778,0.34196234,0.29910254,-2.9082482,-1.491173,-0.1276738,-0.04392712,-0.6241405,-0.7675379,-0.15459825,-0.30956692,0.28537765,2.0329993,0.2541181,0.8363755,-0.17182389,0.105352916,-0.68019694,0.058907516,-0.64487123,0.24106693,0.6649754,0.54599017,0.6895847,0.6414679,-1.4430126,0.28371155,0.23118283,0.061039276,0.11378966,-0.8363683,-2.05817,0.20311373,-0.64597356,0.28100884,-0.4132885,0.20617636,-1.2659104,0.3349707,1.1672816,-0.4334959,-0.80328345,-0.5770731,0.32123882,-0.2272711,0.15557261,-0.26817462,0.23891786,-1.279859,-1.453001,0.11303707,0.061832964,-1.0823374,-0.28175586,-0.2139853,-1.5296015,2.2266324,0.25673816,0.8778851,0.319976,0.6796945,-0.16451243,-1.3041302,2.2877283,0.21049865,1.2611226,-0.83017,0.83306056,-0.07909493,-0.85111564,-0.50671697,0.8738865,1.1894748,0.48376942,0.37618518,-0.59067947,0.77810323,1.0962528,-0.88647616,0.4760745,-0.4723434,-0.7061477,0.95250195,-0.076043904,-1.6225677,3.2607534,-0.8356141,0.5749588,-3.3251462,-0.39568323,-0.3569777,0.45050013,-1.2415253,0.2464068,-0.61611295,-0.6843537,-1.6849616,0.24205971,1.2392215,-0.10239791,0.18906079,-0.5935689,0.09027521,0.13185304,1.5408742,0.09371726,0.9593086,-0.74517643,-1.7881148,1.7530667,0.66065466,0.14212187,1.0986689,-0.20219389,-0.6670444,0.9466878,-0.7235946,0.4162652,-1.0360898,0.11338372,-2.081228,-1.6504396,-0.34952024,-1.283411,0.14852792,-2.40947,0.65390724,1.765578,-1.0099697,0.3235122,0.40454033,0.12921289,-0.032903742,-0.30602154,-0.6601009,-0.7005104,-0.6095419,0.9171324,-0.0728494,-2.954326,-0.22769234,0.18098456,-0.4094665,0.7778589,0.3616662,0.31873736,1.0408632,0.45936385,-0.5860667,0.7219798,0.99546796,-0.16152717,-1.0424414,1.060489,-1.1480312,1.3247974,-1.1427066,-0.3984437,-0.055490542,-1.0938728,0.26108533,0.9574695,0.10027268,1.9994814,-0.66903794,-0.5640096,-2.7130609,1.1064395,-0.04639063,1.0999056,0.9590719,-1.3840405,-0.26886863,0.44002727,-2.0452192,-1.2384323,-0.53320444,0.4388976,1.1970558,-0.7910994,-0.34048802,-0.5403243,-1.246102,-0.7328588,-0.9829896,0.37633088,-0.79037505,0.9138571,0.59500015,-0.09922102,0.04833089,-0.4311115,0.03322553,-0.55445904,-0.72972226,-1.1870484,0.012398496,1.5946344,0.4965215,-0.49871343,0.7908136,-0.06852755,0.8027174,0.8246573,-1.5960482,-0.4912902,-0.35108536,-0.17929721,0.28580993,-0.4098222,0.55921125,1.4490181,1.0704331,0.019175552,0.4219178,-0.060084112,0.1858653,0.28831547,0.7356674,0.3878708,0.27651355,-1.054017,0.72590184,-0.14340544,0.18873395,1.7533824,0.18116175,1.3542564,0.77597046,0.48634702,-0.6050944,0.34597886,-0.74942464,-2.0583065,1.9357575,0.86418134,-0.15413639,-1.618672,-0.35189474,0.5099109,0.7805943,1.3575281,-0.6936682,-0.3236157,0.48963034,-1.5452806,0.7035889,0.5738204,0.029236685,0.22626895,-0.42004022,0.36331442,0.30004516,-0.1307997,-0.7337543,-1.3858097,0.8600147,-0.69201016,1.392885,-0.6081211,1.1986488,1.3039837,0.08403721,-1.2146742,-0.66882145,-1.7026521,-0.023274392,0.08404585,-0.58325344,-0.27203214,-0.11615187,0.5487545,-1.2323955,0.23531103,-0.04951687,-0.5913796,1.500349,-0.22463693,1.310409,-0.34752667,-0.20132348,0.92627114,-0.13594913,-0.57183063,0.8000937,-1.2606293,-0.926698,-1.1056174,-1.679841,-0.21343741,-1.7188162,-0.07834445,-0.58688337,1.4136112,-0.30682668,0.20839746,0.8569815,-0.10126576,1.1899861,-0.105955146,-0.13722159,-0.799336,-1.0736029,-1.2434782,-0.9652822,1.1321499,0.8804227,-0.3948,1.2350466,0.22181483,0.80357337,0.08623377,-0.4263974,-0.61416626,0.22022912,0.1372337,-0.041801017,0.2157463,0.36344212,-0.2623428,0.46293223,0.01198139,-0.73226595,0.62677443,0.70852524,-0.7154627,0.39420998,0.5738117,-0.335411,0.76696604,-0.15681356,1.2767208,-0.97522146,0.032905385,0.14319286,-0.2265512,-0.5789112,-0.5863931,-0.929952,-0.8360208,-0.04152964,1.3170719,0.22844422,-1.9499599,0.085299104,-0.51303196,-0.33918586,-0.28274164,0.5795078,-0.13254383,-0.7681085,0.5952766,1.3179951,-0.58773685,0.025050305,-0.29068828,-0.91983426,0.098622926,1.0889934,0.3416936,0.5984325,0.6363807,2.3481076,-1.0478272,-0.12921514,0.82006294,-0.753764,1.150428,-0.95605594,-1.7312555,-2.2974825,0.3854549,-0.3278736,0.68668115,-0.038698412,-1.3274224,-0.4261126,0.9772277,0.43687373,-0.34197062,-1.0145591,-0.6141414,0.07551748,-1.7182367,0.80016035,0.7267851,0.108969636,-2.9850295,-0.0880005,0.20057398,0.47408354,-1.1099088,1.231466,-0.6905064,1.0076114,-0.08877555,0.9797021,-0.27573025,-1.6285692,-0.320187,0.43511933,-0.108694956,0.32768974,0.45117486,-1.8271997,-1.0484952,1.6198093,-0.0031605754,0.35292172,2.5524693,0.1957481,1.2532034,0.7997235,-0.4104368,-0.37764493,0.08536351,0.6979995,0.9379564,-0.39101303,-0.0014877007,-0.51304173,-0.61713856,0.6134855,-0.13061315,-0.43580598,-0.44839647,-0.95825386,0.85252964,0.49153438,0.36374146,0.8760488,0.036855735,-0.34690043,0.85115695,1.1281855,0.8445513,1.2286012,0.12658729,-1.8020589,-0.31377605,-0.44516778,0.39413944,0.018330984,-0.28015658,0.283759,0.8791153,0.0694378,-0.45977682,0.64789766,0.65786684,-0.75793016,0.6803692,-0.45413062,-0.5389186,-0.18675572,0.3427052,-0.20315172,0.20712656,-0.31384537,-0.98533714,-0.21584454,-0.23539983,1.0736578,0.03752834,1.3162014,-0.81770945,-0.24281727,1.6124394,-1.3009125,0.40573272,0.15247792,0.44448915,0.1444638,-1.3118258,-0.61890644,-1.5120075,-0.124097794,0.079889774,-1.18472,-0.1009528,0.33608142,-0.43769842,0.1620794,0.9460668,0.71976376,0.38254556,-0.8092084,-0.85106635,0.962979,1.1593258,-0.99105394,0.5625455,-0.96981424,1.3765208,0.74868786,-0.92320305,0.09584087,-0.56334573,-0.30448568,1.071041,-0.1925425,1.0428153,0.3477369,0.13461879,1.5794289,1.135393,-0.91435385,1.0105456,-0.0458456,1.4682894,-1.1024911,0.07674843,-0.25504193,1.8676608,-0.44992408,-0.2739001,-0.96065193,-0.380321,0.45724934,-0.60629874,0.8250656,0.4202467,-0.5399493,0.3296676,0.74077815,0.0014168127,-0.49167737,-2.0963497,1.1754177,-0.18484724,0.39466363,1.6785105,0.27604687,-0.123285055,-1.5224347,-0.39541668,-0.47993138,1.0556546,-0.011320218,1.4750742,-0.020546388,0.43028805,1.3407228,-0.59041274,-1.731842,-0.48168328,3.3763804,0.62480533,-0.48066518,0.49778003,-0.28849342,-0.9380511,0.18719023,0.92082983,-1.0971135,-0.5077252,0.76876307,1.030163,-0.8042326,1.195825,1.2182004,1.1225777,-0.42279083,0.1259526,0.11539043,0.8629129,-0.73493403,0.57093257,-0.97370267,-0.21161003,0.55374867,-1.4734442,0.33143222,0.81371754,0.25334218,-0.23177265,-0.47962075,-0.29647774,-0.3633378,0.114043385,0.53695047,0.12221303,0.075733565,-0.26924783,1.5883064,-1.4003386,-0.26282266,-2.1442156,1.0861086,0.55032104,0.17575757,-0.75028986,-0.43058476,-0.4390964,0.21641327,0.19961731,-0.709463,0.5380321,-0.7077842,-0.9511108,0.26309934,-0.70951813,-0.30333713,0.07062108,0.4395317,0.4801477,-1.0737872,0.5833329,0.6321478,0.34923282,0.055685133,1.5676231,-1.6640798,0.2421144,1.2202051,-0.45878422,1.7619,1.6336709,0.86296403,-0.0042066453,0.16973549,1.1581554,0.8775515,-0.08675466,0.13063669,0.21802072,-0.29068318,-0.8054385,0.12663719,-0.4014889,-1.0040988,1.0292133,0.14591502,-0.8582604,0.4387822,0.4185782,-0.19326459,1.40228,1.1298245,0.48522192,1.4294631,0.9405284,0.33638892,-0.11528403,0.2330046,-1.0438542,-0.10368697,-0.1593986,0.7790768,0.43763047,1.0271707,-0.29797,0.5155905,0.91857135,-0.9407736,0.77014905,-1.1201212,0.77358115,-1.9442686,0.9880409,0.7990878,-0.19903892,0.74837524,-1.6326157,-1.1369011,1.8717158,-0.3998809,0.4187061,-0.42045203,1.8097811,0.80213046,-0.65860033,-0.13312559,-1.7315081,0.79330957,-0.13543044,-0.1961219,-0.02777344,-0.42293817,-0.8524403,0.16818124,-1.1238952,-0.75953746,1.3760427,-0.52045834,0.37342498,1.7582111,-0.4816149,-0.75712574,-0.09394935,-0.2062007,0.7999331,0.06951177,-0.7010708,1.1472917,0.20903818,0.30571088,-0.13633837,2.8079932,-0.32119456,0.79763734,0.54636157,-0.6465981,-0.5230044,0.10879355,0.6854591,-0.50279164,-0.5854825,-0.17830883,-0.15616709,1.1459215,-1.7485791,-1.3952085,-0.0039792145,0.017876897,0.92990303,1.7024046,1.6883194,-0.6285305,0.25637805,-0.6100226,1.2755635,0.30739132,-0.65302885,1.0069562,0.14768395,0.3957883,0.33960164,0.44092044,0.6843178,-0.5518691,0.20409524,-0.2070606,-0.27142897,0.69949144,0.3462649,0.20308681,-0.55916756,-0.4220388,-0.3052079,0.42939135,1.5332546,0.3009888,0.45518985,-0.3444853,-0.13549523,-0.95001745,-2.0309517,1.0115142,-0.23096313,-0.28371754,-0.31319672,-0.6514738,0.39797127,-0.73598605,0.8883122,-0.28736362,-0.7521563,-1.0604287,-0.80240303,1.4274447,-1.0461975,0.5267595,0.20720759,-0.4958437,-0.72854763,-0.30890474,-0.5090706,0.0709098,0.37055013,-1.5068117,0.075951636,-1.2551329,0.99213254,-0.41806036,-0.07425031,-0.24730442,0.6513715,-0.19302584,-2.44707,-0.78648317,-0.40176472,-0.07141058,0.11095168,0.6607662,0.16917384,-0.143599,-0.68829834,-0.07685932,-0.78578615,0.16239072,1.1377074,-0.50544274,-0.46271637,1.3147511,1.7735257,0.30519304,-0.19301564,0.64459145,-1.5125046,0.15602578
