question-id,0,1,2,3,4,5,6,7,8,9,10,11,12,13,14,15,16,17,18,19,20,21,22,23,24,25,26,27,28,29,30,31,32,33,34,35,36,37,38,39,40,41,42,43,44,45,46,47,48,49,50,51,52,53,54,55,56,57,58,59,60,61,62,63,64,65,66,67,68,69,70,71,72,73,74,75,76,77,78,79,80,81,82,83,84,85,86,87,88,89,90,91,92,93,94,95,96,97,98,99,100,101,102,103,104,105,106,107,108,109,110,111,112,113,114,115,116,117,118,119,120,121,122,123,124,125,126,127,128,129,130,131,132,133,134,135,136,137,138,139,140,141,142,143,144,145,146,147,148,149,150,151,152,153,154,155,156,157,158,159,160,161,162,163,164,165,166,167,168,169,170,171,172,173,174,175,176,177,178,179,180,181,182,183,184,185,186,187,188,189,190,191,192,193,194,195,196,197,198,199,200,201,202,203,204,205,206,207,208,209,210,211,212,213,214,215,216,217,218,219,220,221,222,223,224,225,226,227,228,229,230,231,232,233,234,235,236,237,238,239,240,241,242,243,244,245,246,247,248,249,250,251,252,253,254,255,256,257,258,259,260,261,262,263,264,265,266,267,268,269,270,271,272,273,274,275,276,277,278,279,280,281,282,283,284,285,286,287,288,289,290,291,292,293,294,295,296,297,298,299,300,301,302,303,304,305,306,307,308,309,310,311,312,313,314,315,316,317,318,319,320,321,322,323,324,325,326,327,328,329,330,331,332,333,334,335,336,337,338,339,340,341,342,343,344,345,346,347,348,349,350,351,352,353,354,355,356,357,358,359,360,361,362,363,364,365,366,367,368,369,370,371,372,373,374,375,376,377,378,379,380,381,382,383,384,385,386,387,388,389,390,391,392,393,394,395,396,397,398,399,400,401,402,403,404,405,406,407,408,409,410,411,412,413,414,415,416,417,418,419,420,421,422,423,424,425,426,427,428,429,430,431,432,433,434,435,436,437,438,439,440,441,442,443,444,445,446,447,448,449,450,451,452,453,454,455,456,457,458,459,460,461,462,463,464,465,466,467,468,469,470,471,472,473,474,475,476,477,478,479,480,481,482,483,484,485,486,487,488,489,490,491,492,493,494,495,496,497,498,499,500,501,502,503,504,505,506,507,508,509,510,511,512,513,514,515,516,517,518,519,520,521,522,523,524,525,526,527,528,529,530,531,532,533,534,535,536,537,538,539,540,541,542,543,544,545,546,547,548,549,550,551,552,553,554,555,556,557,558,559,560,561,562,563,564,565,566,567,568,569,570,571,572,573,574,575,576,577,578,579,580,581,582,583,584,585,586,587,588,589,590,591,592,593,594,595,596,597,598,599,600,601,602,603,604,605,606,607,608,609,610,611,612,613,614,615,616,617,618,619,620,621,622,623,624,625,626,627,628,629,630,631,632,633,634,635,636,637,638,639,640,641,642,643,644,645,646,647,648,649,650,651,652,653,654,655,656,657,658,659,660,661,662,663,664,665,666,667,668,669,670,671,672,673,674,675,676,677,678,679,680,681,682,683,684,685,686,687,688,689,690,691,692,693,694,695,696,697,698,699,700,701,702,703,704,705,706,707,708,709,710,711,712,713,714,715,716,717,718,719,720,721,722,723,724,725,726,727,728,729,730,731,732,733,734,735,736,737,738,739,740,741,742,743,744,745,746,747,748,749,750,751,752,753,754,755,756,757,758,759,760,761,762,763,764,765,766,767,768,769,770,771,772,773,774,775,776,777,778,779,780,781,782,783,784,785,786,787,788,789,790,791,792,793,794,795,796,797,798,799,800,801,802,803,804,805,806,807,808,809,810,811,812,813,814,815,816,817,818,819,820,821,822,823,824,825,826,827,828,829,830,831,832,833,834,835,836,837,838,839,840,841,842,843,844,845,846,847,848,849,850,851,852,853,854,855,856,857,858,859,860,861,862,863,864,865,866,867,868,869,870,871,872,873,874,875,876,877,878,879,880,881,882,883,884,885,886,887,888,889,890,891,892,893,894,895,896,897,898,899,900,901,902,903,904,905,906,907,908,909,910,911,912,913,914,915,916,917,918,919,920,921,922,923,924,925,926,927,928,929,930,931,932,933,934,935,936,937,938,939,940,941,942,943,944,945,946,947,948,949,950,951,952,953,954,955,956,957,958,959,960,961,962,963,964,965,966,967,968,969,970,971,972,973,974,975,976,977,978,979,980,981,982,983,984,985,986,987,988,989,990,991,992,993,994,995,996,997,998,999,1000,1001,1002,1003,1004,1005,1006,1007,1008,1009,1010,1011,1012,1013,1014,1015,1016,1017,1018,1019,1020,1021,1022,1023,1024,1025,1026,1027,1028,1029,1030,1031,1032,1033,1034,1035,1036,1037,1038,1039,1040,1041,1042,1043,1044,1045,1046,1047,1048,1049,1050,1051,1052,1053,1054,1055,1056,1057,1058,1059,1060,1061,1062,1063,1064,1065,1066,1067,1068,1069,1070,1071,1072,1073,1074,1075,1076,1077,1078,1079,1080,1081,1082,1083,1084,1085,1086,1087,1088,1089,1090,1091,1092,1093,1094,1095,1096,1097,1098,1099,1100,1101,1102,1103,1104,1105,1106,1107,1108,1109,1110,1111,1112,1113,1114,1115,1116,1117,1118,1119,1120,1121,1122,1123,1124,1125,1126,1127,1128,1129,1130,1131,1132,1133,1134,1135,1136,1137,1138,1139,1140,1141,1142,1143,1144,1145,1146,1147,1148,1149,1150,1151,1152,1153,1154,1155,1156,1157,1158,1159,1160,1161,1162,1163,1164,1165,1166,1167,1168,1169,1170,1171,1172,1173,1174,1175,1176,1177,1178,1179,1180,1181,1182,1183,1184,1185,1186,1187,1188,1189,1190,1191,1192,1193,1194,1195,1196,1197,1198,1199,1200,1201,1202,1203,1204,1205,1206,1207,1208,1209,1210,1211,1212,1213,1214,1215,1216,1217,1218,1219,1220,1221,1222,1223,1224,1225,1226,1227,1228,1229,1230,1231,1232,1233,1234,1235,1236,1237,1238,1239,1240,1241,1242,1243,1244,1245,1246,1247,1248,1249,1250,1251,1252,1253,1254,1255,1256,1257,1258,1259,1260,1261,1262,1263,1264,1265,1266,1267,1268,1269,1270,1271,1272,1273,1274,1275,1276,1277,1278,1279,1280,1281,1282,1283,1284,1285,1286,1287,1288,1289,1290,1291,1292,1293,1294,1295,1296,1297,1298,1299,1300,1301,1302,1303,1304,1305,1306,1307,1308,1309,1310,1311,1312,1313,1314,1315,1316,1317,1318,1319,1320,1321,1322,1323,1324,1325,1326,1327,1328,1329,1330,1331,1332,1333,1334,1335,1336,1337,1338,1339,1340,1341,1342,1343,1344,1345,1346,1347,1348,1349,1350,1351,1352,1353,1354,1355,1356,1357,1358,1359,1360,1361,1362,1363,1364,1365,1366,1367,1368,1369,1370,1371,1372,1373,1374,1375,1376,1377,1378,1379,1380,1381,1382,1383,1384,1385,1386,1387,1388,1389,1390,1391,1392,1393,1394,1395,1396,1397,1398,1399,1400,1401,1402,1403,1404,1405,1406,1407,1408,1409,1410,1411,1412,1413,1414,1415,1416,1417,1418,1419,1420,1421,1422,1423,1424,1425,1426,1427,1428,1429,1430,1431,1432,1433,1434,1435,1436,1437,1438,1439,1440,1441,1442,1443,1444,1445,1446,1447,1448,1449,1450,1451,1452,1453,1454,1455,1456,1457,1458,1459,1460,1461,1462,1463,1464,1465,1466,1467,1468,1469,1470,1471,1472,1473,1474,1475,1476,1477,1478,1479,1480,1481,1482,1483,1484,1485,1486,1487,1488,1489,1490,1491,1492,1493,1494,1495,1496,1497,1498,1499,1500,1501,1502,1503,1504,1505,1506,1507,1508,1509,1510,1511,1512,1513,1514,1515,1516,1517,1518,1519,1520,1521,1522,1523,1524,1525,1526,1527,1528,1529,1530,1531,1532,1533,1534,1535,1536,1537,1538,1539,1540,1541,1542,1543,1544,1545,1546,1547,1548,1549,1550,1551,1552,1553,1554,1555,1556,1557,1558,1559,1560,1561,1562,1563,1564,1565,1566,1567,1568,1569,1570,1571,1572,1573,1574,1575,1576,1577,1578,1579,1580,1581,1582,1583,1584,1585,1586,1587,1588,1589,1590,1591,1592,1593,1594,1595,1596,1597,1598,1599,1600,1601,1602,1603,1604,1605,1606,1607,1608,1609,1610,1611,1612,1613,1614,1615,1616,1617,1618,1619,1620,1621,1622,1623,1624,1625,1626,1627,1628,1629,1630,1631,1632,1633,1634,1635,1636,1637,1638,1639,1640,1641,1642,1643,1644,1645,1646,1647,1648,1649,1650,1651,1652,1653,1654,1655,1656,1657,1658,1659,1660,1661,1662,1663,1664,1665,1666,1667,1668,1669,1670,1671,1672,1673,1674,1675,1676,1677,1678,1679,1680,1681,1682,1683,1684,1685,1686,1687,1688,1689,1690,1691,1692,1693,1694,1695,1696,1697,1698,1699,1700,1701,1702,1703,1704,1705,1706,1707,1708,1709,1710,1711,1712,1713,1714,1715,1716,1717,1718,1719,1720,1721,1722,1723,1724,1725,1726,1727,1728,1729,1730,1731,1732,1733,1734,1735,1736,1737,1738,1739,1740,1741,1742,1743,1744,1745,1746,1747,1748,1749,1750,1751,1752,1753,1754,1755,1756,1757,1758,1759,1760,1761,1762,1763,1764,1765,1766,1767,1768,1769,1770,1771,1772,1773,1774,1775,1776,1777,1778,1779,1780,1781,1782,1783,1784,1785,1786,1787,1788,1789,1790,1791,1792,1793,1794,1795,1796,1797,1798,1799,1800,1801,1802,1803,1804,1805,1806,1807,1808,1809,1810,1811,1812,1813,1814,1815,1816,1817,1818,1819,1820,1821,1822,1823,1824,1825,1826,1827,1828,1829,1830,1831,1832,1833,1834,1835,1836,1837,1838,1839,1840,1841,1842,1843,1844,1845,1846,1847,1848,1849,1850,1851,1852,1853,1854,1855,1856,1857,1858,1859,1860,1861,1862,1863,1864,1865,1866,1867,1868,1869,1870,1871,1872,1873,1874,1875,1876,1877,1878,1879,1880,1881,1882,1883,1884,1885,1886,1887,1888,1889,1890,1891,1892,1893,1894,1895,1896,1897,1898,1899,1900,1901,1902,1903,1904,1905,1906,1907,1908,1909,1910,1911,1912,1913,1914,1915,1916,1917,1918,1919,1920,1921,1922,1923,1924,1925,1926,1927,1928,1929,1930,1931,1932,1933,1934,1935,1936,1937,1938,1939,1940,1941,1942,1943,1944,1945,1946,1947,1948,1949,1950,1951,1952,1953,1954,1955,1956,1957,1958,1959,1960,1961,1962,1963,1964,1965,1966,1967,1968,1969,1970,1971,1972,1973,1974,1975,1976,1977,1978,1979,1980,1981,1982,1983,1984,1985,1986,1987,1988,1989,1990,1991,1992,1993,1994,1995,1996,1997,1998,1999,2000,2001,2002,2003,2004,2005,2006,2007,2008,2009,2010,2011,2012,2013,2014,2015,2016,2017,2018,2019,2020,2021,2022,2023,2024,2025,2026,2027,2028,2029,2030,2031,2032,2033,2034,2035,2036,2037,2038,2039,2040,2041,2042,2043,2044,2045,2046,2047,2048,2049,2050,2051,2052,2053,2054,2055,2056,2057,2058,2059,2060,2061,2062,2063,2064,2065,2066,2067,2068,2069,2070,2071,2072,2073,2074,2075,2076,2077,2078,2079,2080,2081,2082,2083,2084,2085,2086,2087,2088,2089,2090,2091,2092,2093,2094,2095,2096,2097,2098,2099,2100,2101,2102,2103,2104,2105,2106,2107,2108,2109,2110,2111,2112,2113,2114,2115,2116,2117,2118,2119,2120,2121,2122,2123,2124,2125,2126,2127,2128,2129,2130,2131,2132,2133,2134,2135,2136,2137,2138,2139,2140,2141,2142,2143,2144,2145,2146,2147,2148,2149,2150,2151,2152,2153,2154,2155,2156,2157,2158,2159,2160,2161,2162,2163,2164,2165,2166,2167,2168,2169,2170,2171,2172,2173,2174,2175,2176,2177,2178,2179,2180,2181,2182,2183,2184,2185,2186,2187,2188,2189,2190,2191,2192,2193,2194,2195,2196,2197,2198,2199,2200,2201,2202,2203,2204,2205,2206,2207,2208,2209,2210,2211,2212,2213,2214,2215,2216,2217,2218,2219,2220,2221,2222,2223,2224,2225,2226,2227,2228,2229,2230,2231,2232,2233,2234,2235,2236,2237,2238,2239,2240,2241,2242,2243,2244,2245,2246,2247,2248,2249,2250,2251,2252,2253,2254,2255,2256,2257,2258,2259,2260,2261,2262,2263,2264,2265,2266,2267,2268,2269,2270,2271,2272,2273,2274,2275,2276,2277,2278,2279,2280,2281,2282,2283,2284,2285,2286,2287,2288,2289,2290,2291,2292,2293,2294,2295,2296,2297,2298,2299,2300,2301,2302,2303,2304,2305,2306,2307,2308,2309,2310,2311,2312,2313,2314,2315,2316,2317,2318,2319,2320,2321,2322,2323,2324,2325,2326,2327,2328,2329,2330,2331,2332,2333,2334,2335,2336,2337,2338,2339,2340,2341,2342,2343,2344,2345,2346,2347,2348,2349,2350,2351,2352,2353,2354,2355,2356,2357,2358,2359,2360,2361,2362,2363,2364,2365,2366,2367,2368,2369,2370,2371,2372,2373,2374,2375,2376,2377,2378,2379,2380,2381,2382,2383,2384,2385,2386,2387,2388,2389,2390,2391,2392,2393,2394,2395,2396,2397,2398,2399,2400,2401,2402,2403,2404,2405,2406,2407,2408,2409,2410,2411,2412,2413,2414,2415,2416,2417,2418,2419,2420,2421,2422,2423,2424,2425,2426,2427,2428,2429,2430,2431,2432,2433,2434,2435,2436,2437,2438,2439,2440,2441,2442,2443,2444,2445,2446,2447,2448,2449,2450,2451,2452,2453,2454,2455,2456,2457,2458,2459,2460,2461,2462,2463,2464,2465,2466,2467,2468,2469,2470,2471,2472,2473,2474,2475,2476,2477,2478,2479,2480,2481,2482,2483,2484,2485,2486,2487,2488,2489,2490,2491,2492,2493,2494,2495,2496,2497,2498,2499,2500,2501,2502,2503,2504,2505,2506,2507,2508,2509,2510,2511,2512,2513,2514,2515,2516,2517,2518,2519,2520,2521,2522,2523,2524,2525,2526,2527,2528,2529,2530,2531,2532,2533,2534,2535,2536,2537,2538,2539,2540,2541,2542,2543,2544,2545,2546,2547,2548,2549,2550,2551,2552,2553,2554,2555,2556,2557,2558,2559,2560,2561,2562,2563,2564,2565,2566,2567,2568,2569,2570,2571,2572,2573,2574,2575,2576,2577,2578,2579,2580,2581,2582,2583,2584,2585,2586,2587,2588,2589,2590,2591,2592,2593,2594,2595,2596,2597,2598,2599,2600,2601,2602,2603,2604,2605,2606,2607,2608,2609,2610,2611,2612,2613,2614,2615,2616,2617,2618,2619,2620,2621,2622,2623,2624,2625,2626,2627,2628,2629,2630,2631,2632,2633,2634,2635,2636,2637,2638,2639,2640,2641,2642,2643,2644,2645,2646,2647,2648,2649,2650,2651,2652,2653,2654,2655,2656,2657,2658,2659,2660,2661,2662,2663,2664,2665,2666,2667,2668,2669,2670,2671,2672,2673,2674,2675,2676,2677,2678,2679,2680,2681,2682,2683,2684,2685,2686,2687,2688,2689,2690,2691,2692,2693,2694,2695,2696,2697,2698,2699,2700,2701,2702,2703,2704,2705,2706,2707,2708,2709,2710,2711,2712,2713,2714,2715,2716,2717,2718,2719,2720,2721,2722,2723,2724,2725,2726,2727,2728,2729,2730,2731,2732,2733,2734,2735,2736,2737,2738,2739,2740,2741,2742,2743,2744,2745,2746,2747,2748,2749,2750,2751,2752,2753,2754,2755,2756,2757,2758,2759,2760,2761,2762,2763,2764,2765,2766,2767,2768,2769,2770,2771,2772,2773,2774,2775,2776,2777,2778,2779,2780,2781,2782,2783,2784,2785,2786,2787,2788,2789,2790,2791,2792,2793,2794,2795,2796,2797,2798,2799,2800,2801,2802,2803,2804,2805,2806,2807,2808,2809,2810,2811,2812,2813,2814,2815,2816,2817,2818,2819,2820,2821,2822,2823,2824,2825,2826,2827,2828,2829,2830,2831,2832,2833,2834,2835,2836,2837,2838,2839,2840,2841,2842,2843,2844,2845,2846,2847,2848,2849,2850,2851,2852,2853,2854,2855,2856,2857,2858,2859,2860,2861,2862,2863,2864,2865,2866,2867,2868,2869,2870,2871,2872,2873,2874,2875,2876,2877,2878,2879,2880,2881,2882,2883,2884,2885,2886,2887,2888,2889,2890,2891,2892,2893,2894,2895,2896,2897,2898,2899,2900,2901,2902,2903,2904,2905,2906,2907,2908,2909,2910,2911,2912,2913,2914,2915,2916,2917,2918,2919,2920,2921,2922,2923,2924,2925,2926,2927,2928,2929,2930,2931,2932,2933,2934,2935,2936,2937,2938,2939,2940,2941,2942,2943,2944,2945,2946,2947,2948,2949,2950,2951,2952,2953,2954,2955,2956,2957,2958,2959,2960,2961,2962,2963,2964,2965,2966,2967,2968,2969,2970,2971,2972,2973,2974,2975,2976,2977,2978,2979,2980,2981,2982,2983,2984,2985,2986,2987,2988,2989,2990,2991,2992,2993,2994,2995,2996,2997,2998,2999,3000,3001,3002,3003,3004,3005,3006,3007,3008,3009,3010,3011,3012,3013,3014,3015,3016,3017,3018,3019,3020,3021,3022,3023,3024,3025,3026,3027,3028,3029,3030,3031,3032,3033,3034,3035,3036,3037,3038,3039,3040,3041,3042,3043,3044,3045,3046,3047,3048,3049,3050,3051,3052,3053,3054,3055,3056,3057,3058,3059,3060,3061,3062,3063,3064,3065,3066,3067,3068,3069,3070,3071,3072,3073,3074,3075,3076,3077,3078,3079,3080,3081,3082,3083,3084,3085,3086,3087,3088,3089,3090,3091,3092,3093,3094,3095,3096,3097,3098,3099,3100,3101,3102,3103,3104,3105,3106,3107,3108,3109,3110,3111,3112,3113,3114,3115,3116,3117,3118,3119,3120,3121,3122,3123,3124,3125,3126,3127,3128,3129,3130,3131,3132,3133,3134,3135,3136,3137,3138,3139,3140,3141,3142,3143,3144,3145,3146,3147,3148,3149,3150,3151,3152,3153,3154,3155,3156,3157,3158,3159,3160,3161,3162,3163,3164,3165,3166,3167,3168,3169,3170,3171,3172,3173,3174,3175,3176,3177,3178,3179,3180,3181,3182,3183,3184,3185,3186,3187,3188,3189,3190,3191,3192,3193,3194,3195,3196,3197,3198,3199,3200,3201,3202,3203,3204,3205,3206,3207,3208,3209,3210,3211,3212,3213,3214,3215,3216,3217,3218,3219,3220,3221,3222,3223,3224,3225,3226,3227,3228,3229,3230,3231,3232,3233,3234,3235,3236,3237,3238,3239,3240,3241,3242,3243,3244,3245,3246,3247,3248,3249,3250,3251,3252,3253,3254,3255,3256,3257,3258,3259,3260,3261,3262,3263,3264,3265,3266,3267,3268,3269,3270,3271,3272,3273,3274,3275,3276,3277,3278,3279,3280,3281,3282,3283,3284,3285,3286,3287,3288,3289,3290,3291,3292,3293,3294,3295,3296,3297,3298,3299,3300,3301,3302,3303,3304,3305,3306,3307,3308,3309,3310,3311,3312,3313,3314,3315,3316,3317,3318,3319,3320,3321,3322,3323,3324,3325,3326,3327,3328,3329,3330,3331,3332,3333,3334,3335,3336,3337,3338,3339,3340,3341,3342,3343,3344,3345,3346,3347,3348,3349,3350,3351,3352,3353,3354,3355,3356,3357,3358,3359,3360,3361,3362,3363,3364,3365,3366,3367,3368,3369,3370,3371,3372,3373,3374,3375,3376,3377,3378,3379,3380,3381,3382,3383,3384,3385,3386,3387,3388,3389,3390,3391,3392,3393,3394,3395,3396,3397,3398,3399,3400,3401,3402,3403,3404,3405,3406,3407,3408,3409,3410,3411,3412,3413,3414,3415,3416,3417,3418,3419,3420,3421,3422,3423,3424,3425,3426,3427,3428,3429,3430,3431,3432,3433,3434,3435,3436,3437,3438,3439,3440,3441,3442,3443,3444,3445,3446,3447,3448,3449,3450,3451,3452,3453,3454,3455,3456,3457,3458,3459,3460,3461,3462,3463,3464,3465,3466,3467,3468,3469,3470,3471,3472,3473,3474,3475,3476,3477,3478,3479,3480,3481,3482,3483,3484,3485,3486,3487,3488,3489,3490,3491,3492,3493,3494,3495,3496,3497,3498,3499,3500,3501,3502,3503,3504,3505,3506,3507,3508,3509,3510,3511,3512,3513,3514,3515,3516,3517,3518,3519,3520,3521,3522,3523,3524,3525,3526,3527,3528,3529,3530,3531,3532,3533,3534,3535,3536,3537,3538,3539,3540,3541,3542,3543,3544,3545,3546,3547,3548,3549,3550,3551,3552,3553,3554,3555,3556,3557,3558,3559,3560,3561,3562,3563,3564,3565,3566,3567,3568,3569,3570,3571,3572,3573,3574,3575,3576,3577,3578,3579,3580,3581,3582,3583,3584,3585,3586,3587,3588,3589,3590,3591,3592,3593,3594,3595,3596,3597,3598,3599,3600,3601,3602,3603,3604,3605,3606,3607,3608,3609,3610,3611,3612,3613,3614,3615,3616,3617,3618,3619,3620,3621,3622,3623,3624,3625,3626,3627,3628,3629,3630,3631,3632,3633,3634,3635,3636,3637,3638,3639,3640,3641,3642,3643,3644,3645,3646,3647,3648,3649,3650,3651,3652,3653,3654,3655,3656,3657,3658,3659,3660,3661,3662,3663,3664,3665,3666,3667,3668,3669,3670,3671,3672,3673,3674,3675,3676,3677,3678,3679,3680,3681,3682,3683,3684,3685,3686,3687,3688,3689,3690,3691,3692,3693,3694,3695,3696,3697,3698,3699,3700,3701,3702,3703,3704,3705,3706,3707,3708,3709,3710,3711,3712,3713,3714,3715,3716,3717,3718,3719,3720,3721,3722,3723,3724,3725,3726,3727,3728,3729,3730,3731,3732,3733,3734,3735,3736,3737,3738,3739,3740,3741,3742,3743,3744,3745,3746,3747,3748,3749,3750,3751,3752,3753,3754,3755,3756,3757,3758,3759,3760,3761,3762,3763,3764,3765,3766,3767,3768,3769,3770,3771,3772,3773,3774,3775,3776,3777,3778,3779,3780,3781,3782,3783,3784,3785,3786,3787,3788,3789,3790,3791,3792,3793,3794,3795,3796,3797,3798,3799,3800,3801,3802,3803,3804,3805,3806,3807,3808,3809,3810,3811,3812,3813,3814,3815,3816,3817,3818,3819,3820,3821,3822,3823,3824,3825,3826,3827,3828,3829,3830,3831,3832,3833,3834,3835,3836,3837,3838,3839,3840,3841,3842,3843,3844,3845,3846,3847,3848,3849,3850,3851,3852,3853,3854,3855,3856,3857,3858,3859,3860,3861,3862,3863,3864,3865,3866,3867,3868,3869,3870,3871,3872,3873,3874,3875,3876,3877,3878,3879,3880,3881,3882,3883,3884,3885,3886,3887,3888,3889,3890,3891,3892,3893,3894,3895,3896,3897,3898,3899,3900,3901,3902,3903,3904,3905,3906,3907,3908,3909,3910,3911,3912,3913,3914,3915,3916,3917,3918,3919,3920,3921,3922,3923,3924,3925,3926,3927,3928,3929,3930,3931,3932,3933,3934,3935,3936,3937,3938,3939,3940,3941,3942,3943,3944,3945,3946,3947,3948,3949,3950,3951,3952,3953,3954,3955,3956,3957,3958,3959,3960,3961,3962,3963,3964,3965,3966,3967,3968,3969,3970,3971,3972,3973,3974,3975,3976,3977,3978,3979,3980,3981,3982,3983,3984,3985,3986,3987,3988,3989,3990,3991,3992,3993,3994,3995,3996,3997,3998,3999,4000,4001,4002,4003,4004,4005,4006,4007,4008,4009,4010,4011,4012,4013,4014,4015,4016,4017,4018,4019,4020,4021,4022,4023,4024,4025,4026,4027,4028,4029,4030,4031,4032,4033,4034,4035,4036,4037,4038,4039,4040,4041,4042,4043,4044,4045,4046,4047,4048,4049,4050,4051,4052,4053,4054,4055,4056,4057,4058,4059,4060,4061,4062,4063,4064,4065,4066,4067,4068,4069,4070,4071,4072,4073,4074,4075,4076,4077,4078,4079,4080,4081,4082,4083,4084,4085,4086,4087,4088,4089,4090,4091,4092,4093,4094,4095
Q1,-0.39779213070869446,0.07878713309764862,-0.3830200433731079,-0.1995442658662796,0.11216895282268524,-0.4065465033054352,0.2629094421863556,0.13997608423233032,-0.025546466931700706,0.46250101923942566,-0.03846330940723419,-0.2088131159543991,-0.5274873375892639,-0.7729026675224304,0.35189515352249146,-0.40089741349220276,-0.47819870710372925,-0.27804630994796753,0.17878781259059906,-0.4954420030117035,-0.13873839378356934,-0.15269431471824646,-0.26742011308670044,-0.2521090805530548,-0.23711305856704712,0.5584696531295776,0.5454998016357422,-0.2591271996498108,0.587172269821167,0.1439100205898285,-0.05653803423047066,0.11336953192949295,0.009687405079603195,-0.686045229434967,-0.18728987872600555,-0.06600329279899597,0.3983425796031952,-0.019542299211025238,-0.13707086443901062,0.2024572491645813,0.3154105544090271,0.11627467721700668,0.22211867570877075,-0.5936276912689209,-0.12796729803085327,0.5833747982978821,-0.213989719748497,-0.09023132920265198,0.02729117125272751,0.00422715675085783,0.05216968059539795,-0.12301476299762726,-0.42778629064559937,-0.003475586185231805,0.031150005757808685,-0.2808504104614258,0.1861480176448822,0.12145249545574188,0.01613549515604973,0.1491539180278778,0.09218382090330124,-0.17259253561496735,-0.1074286550283432,-0.25709787011146545,0.21967318654060364,0.4464902877807617,-0.4183548390865326,0.1838042438030243,0.2599429190158844,0.02920445241034031,0.16272597014904022,0.33338746428489685,0.4382065236568451,-0.37815147638320923,0.3039672076702118,-0.0482526496052742,0.08622854202985764,0.12185697257518768,-0.09039410948753357,-0.18676641583442688,0.23566535115242004,0.3031361401081085,-0.01952618733048439,0.019614407792687416,-0.4123862683773041,-0.3017219305038452,0.11441227793693542,0.14695808291435242,-0.2909678518772125,-0.21251420676708221,0.15394996106624603,0.3954600691795349,-0.23116722702980042,-0.039797067642211914,0.7516462802886963,0.2684529721736908,-0.03501870483160019,0.5595194101333618,0.5796144008636475,0.10519421845674515,0.2942540943622589,-0.213397815823555,-0.012696616351604462,0.1860789805650711,-0.3326396346092224,-0.01876083016395569,-0.24321573972702026,-0.03608839958906174,-0.021316882222890854,-0.15725892782211304,-0.040706634521484375,-0.13468679785728455,-0.35025832056999207,0.02908933535218239,-0.1580367386341095,0.48415276408195496,0.0745687484741211,0.6001574397087097,-0.004409779794514179,-0.5214446187019348,0.023761145770549774,-0.3399702310562134,0.04067721590399742,0.14510396122932434,0.008563930168747902,0.12429589778184891,-0.18797360360622406,0.6795490384101868,-0.4923032820224762,0.002601918764412403,0.14641349017620087,-0.07852615416049957,-0.015000729821622372,0.4835420548915863,0.17000296711921692,0.3831433355808258,0.2053922712802887,0.31445688009262085,-0.17300589382648468,-0.4989064335823059,0.22323787212371826,0.015366910956799984,-0.2714214622974396,0.5746893882751465,0.19578836858272552,0.27654051780700684,0.24930135905742645,0.04541961848735809,0.45801326632499695,0.1886022835969925,-0.24896134436130524,0.14343413710594177,-0.08072129637002945,-0.39374083280563354,0.01128741167485714,-0.5737292170524597,-0.3523677587509155,0.47366994619369507,-0.20781691372394562,-0.11231724172830582,0.3714218735694885,-0.16580934822559357,-0.1154838353395462,0.21680106222629547,0.09595578908920288,0.10442029684782028,-0.0891939103603363,-0.3921753466129303,-0.09108460694551468,-0.43914923071861267,-0.3785841166973114,-0.21119123697280884,0.5257261395454407,0.5412157773971558,0.15082870423793793,0.12667374312877655,0.21065562963485718,0.23972809314727783,0.34871745109558105,0.3145923614501953,-0.5267040133476257,-0.020780880004167557,-0.5421193838119507,0.19389504194259644,0.059653375297784805,0.09196550399065018,0.41208264231681824,0.0855274349451065,-0.15664631128311157,-0.03358762711286545,-0.1682928502559662,0.2637135982513428,-0.14286573231220245,0.3147805631160736,0.8782634735107422,0.12431130558252335,0.1524420827627182,0.06829296052455902,-0.21207408607006073,-0.2137029618024826,-0.16373826563358307,0.2109069526195526,-0.42128655314445496,0.06431900709867477,0.563393771648407,0.09377457946538925,0.17193128168582916,0.4342305362224579,-0.25653114914894104,0.13432061672210693,0.23789429664611816,0.36186128854751587,-0.12535405158996582,0.0450979545712471,-0.3032005727291107,0.4115396738052368,-0.12239929288625717,0.23127982020378113,-0.330763041973114,-0.4915899932384491,0.08682294189929962,-0.19973665475845337,0.27640730142593384,0.28088536858558655,-0.3848961293697357,0.21096110343933105,0.36807242035865784,0.23431845009326935,-0.09167171269655228,0.01526196300983429,0.011540999636054039,0.15605969727039337,-0.19024693965911865,0.09117486327886581,0.27940890192985535,-0.03542317450046539,-0.11287175118923187,0.3278108835220337,-0.0341707281768322,0.01423587091267109,-0.7722286581993103,0.012897743843495846,0.14865560829639435,0.32488036155700684,-0.0289651770144701,-0.18435050547122955,-0.372039794921875,0.3235730528831482,0.3252570331096649,0.2954975962638855,0.2522551119327545,0.32037854194641113,-0.15995727479457855,0.2233121544122696,0.1520533412694931,-0.05923889949917793,-0.010325802490115166,0.47848811745643616,-0.08165661245584488,0.247054323554039,-0.20026515424251556,0.21949249505996704,-0.07777442783117294,0.1540047526359558,0.30566802620887756,0.026112306863069534,-0.09075845032930374,-0.12555038928985596,0.2661811411380768,0.062226392328739166,-0.2692115604877472,-0.4992810785770416,-0.2134031057357788,-0.5080306529998779,-0.23166093230247498,-0.04989074915647507,0.0335368849337101,-0.30551135540008545,-0.24189022183418274,-0.11740240454673767,0.12186616659164429,-0.0809878557920456,0.11089126765727997,0.30444228649139404,0.26911163330078125,0.47175490856170654,-0.08110112696886063,0.7137451767921448,0.2312059998512268,-0.12215350568294525,-0.0746595710515976,-0.04112032800912857,-0.11711792647838593,-0.13792374730110168,0.6241915225982666,-0.21469175815582275,-0.0436004176735878,0.042119383811950684,-0.33445462584495544,-0.2741212546825409,-0.14945748448371887,0.46144649386405945,-0.10725734382867813,0.4725862145423889,-0.2426956593990326,0.1180078461766243,0.44933006167411804,0.24294278025627136,0.14671480655670166,0.6562376618385315,-0.3213614821434021,0.41649889945983887,0.33826249837875366,0.12603148818016052,-0.4033188819885254,-0.6174149513244629,-0.164555162191391,-0.013736504130065441,-0.4393887221813202,-0.3734927773475647,-0.279354453086853,-0.029727276414632797,0.0769028514623642,0.17244693636894226,0.004940560087561607,0.4200190603733063,0.05836106836795807,-0.9179707169532776,0.11234421283006668,-0.10626842081546783,-0.07318476587533951,0.08337976038455963,-0.2867621183395386,0.4072777330875397,0.41879820823669434,0.01655898056924343,-0.029020190238952637,-0.2781868875026703,0.33373430371284485,0.29442358016967773,0.5671843886375427,0.1419893354177475,0.3512762784957886,0.31010350584983826,0.1119605079293251,0.059443503618240356,-0.08727271854877472,-0.13893961906433105,0.04510653391480446,0.37170353531837463,0.04518086835741997,0.0645742416381836,0.5145335793495178,-0.1505402773618698,-0.38729768991470337,0.7083917260169983,-0.422448992729187,-0.4475555121898651,0.22800415754318237,-0.23891334235668182,-0.1806676983833313,-0.07082543522119522,-0.1512734740972519,-0.07259085774421692,0.1753837764263153,-0.3481499254703522,0.2953891158103943,-0.4541522264480591,0.4060972034931183,0.2805761396884918,-0.06611374765634537,-0.02713499777019024,-0.10407750308513641,0.3696579933166504,-0.7150425910949707,0.05683957785367966,0.28540417551994324,-0.037520408630371094,0.07398328185081482,0.023072876036167145,-0.005892142653465271,0.13745740056037903,-0.060170549899339676,0.054223526269197464,0.22141121327877045,0.4337942600250244,-0.5299634337425232,-0.14241036772727966,-0.12746602296829224,0.1468200385570526,0.4503559172153473,0.12052938342094421,-0.011236450634896755,-0.05295763164758682,-0.03292255103588104,0.02834225259721279,-0.015291765332221985,0.2306421995162964,0.18885008990764618,0.012521214783191681,0.18093490600585938,0.04848582297563553,-0.22847051918506622,0.42028000950813293,0.11157876998186111,-0.01486255880445242,-0.30543825030326843,0.7273086905479431,-0.09014778584241867,0.03519757464528084,-0.07555931061506271,0.05332138389348984,-0.333394318819046,0.15771345794200897,0.18017058074474335,-0.23449376225471497,-0.15695294737815857,0.41548338532447815,-0.04525833949446678,-0.0019249329343438148,-0.17980432510375977,0.016847431659698486,-0.006895923987030983,0.005973450839519501,-0.1809544414281845,-0.4735579788684845,0.31698769330978394,0.3278406858444214,0.22708353400230408,0.359496146440506,0.38128507137298584,-0.8779894709587097,-0.17299039661884308,0.3672541081905365,0.36438316106796265,0.03306001052260399,0.3513798713684082,-0.052974894642829895,0.5779709815979004,-0.09586873650550842,0.09592816978693008,0.027435462921857834,-0.06501470506191254,-0.12028777599334717,0.08966611325740814,0.446807324886322,-0.3736671507358551,0.5787304043769836,-0.3196259140968323,-0.10858414322137833,-0.1418762058019638,-0.08228723704814911,-0.4456738531589508,0.34286394715309143,-0.021099930629134178,-0.1564149409532547,0.09947116672992706,-0.06215611845254898,0.3291066288948059,-0.18329617381095886,0.5076690316200256,-0.11605353653430939,0.17189179360866547,-0.40655139088630676,-0.18430811166763306,0.1407199203968048,-0.18508605659008026,-0.4563402533531189,-0.02945444919168949,0.744018018245697,-0.09150867164134979,0.3148980736732483,0.028161026537418365,-0.38046059012413025,0.47154489159584045,-0.41522809863090515,0.24717174470424652,-0.12235377728939056,0.03441108390688896,-0.042135100811719894,-0.5342172980308533,-0.012990822084248066,0.33240893483161926,-0.14749248325824738,-0.13206526637077332,-0.5349083542823792,-0.34087687730789185,-0.10954363644123077,0.3157519996166229,-0.20066437125205994,-0.19404564797878265,0.0661284476518631,-0.18477758765220642,0.0709652379155159,-0.054528214037418365,0.5708491206169128,-0.008810536935925484,0.02451186254620552,0.025088712573051453,0.022092606872320175,-0.15991564095020294,-0.1866876780986786,-0.21564380824565887,-0.5562891960144043,0.02607012167572975,-0.806402325630188,-0.273758202791214,0.3494826555252075,-0.18536321818828583,-0.30417850613594055,-0.6023145914077759,0.2898028492927551,-0.5460137724876404,-0.08243069052696228,0.19497685134410858,-0.06878934055566788,-0.11869694292545319,-0.07712584733963013,-0.3491140902042389,0.07337212562561035,0.2847452461719513,-0.16659541428089142,0.07894103974103928,0.15016211569309235,-0.40430164337158203,0.26903629302978516,0.03880085051059723,0.05731528252363205,-0.2113686501979828,-0.26442450284957886,-0.07175051420927048,-0.17752297222614288,-0.2643744647502899,-0.26009613275527954,0.16699060797691345,-0.20242752134799957,0.4354560971260071,0.02606448344886303,-0.5252124071121216,0.08426295965909958,-0.12067379057407379,0.012983140535652637,-0.31635427474975586,-0.29174575209617615,0.028100481256842613,0.2943696975708008,-0.2825692892074585,0.18352332711219788,0.5022112727165222,0.6730585098266602,0.2609311044216156,0.15069171786308289,0.2569912075996399,-0.0478811152279377,-0.17828187346458435,0.23035961389541626,-0.1414766162633896,-0.176706463098526,0.008295292034745216,0.272896409034729,-0.3338433802127838,0.19603797793388367,-0.38192540407180786,-0.020803071558475494,-0.1456962376832962,0.0832047164440155,-0.526928722858429,0.445976197719574,0.42555856704711914,-0.19681444764137268,0.23821291327476501,-0.35124751925468445,-0.06558290123939514,0.039699360728263855,0.10016372054815292,-0.1643914133310318,-0.16029170155525208,-0.27694573998451233,-0.05273056775331497,0.13644571602344513,-0.6701567769050598,-0.525973379611969,-0.4186241030693054,0.3079947829246521,0.12656481564044952,0.07003629207611084,0.06820758432149887,0.3264908790588379,-0.5130544900894165,0.1708487868309021,-0.03522295877337456,0.603142261505127,0.7368660569190979,0.014429583214223385,0.092041015625,-0.2610306739807129,-0.14694583415985107,-0.10520227998495102,0.08286768198013306,-0.015871962532401085,-0.34192538261413574,-0.3844503164291382,0.6479184031486511,-0.12914706766605377,0.16885346174240112,0.6447820663452148,-0.00900726206600666,-0.4291403591632843,-0.03300456330180168,-0.6046668291091919,0.46133509278297424,-0.0076095350086688995,-0.17436686158180237,0.2272917628288269,0.03356149047613144,0.1787664294242859,-0.11772654205560684,-0.04573636129498482,0.4791634678840637,0.16239291429519653,-0.18802697956562042,-0.12906794250011444,0.7893286347389221,-0.28371986746788025,0.004454415291547775,0.0928642526268959,0.158955916762352,0.20931021869182587,-0.5199294090270996,-0.07578103989362717,-0.281978964805603,0.13299685716629028,0.4762521982192993,-0.0608678013086319,-0.36023595929145813,0.25629061460494995,0.23194220662117004,-0.013344284147024155,-0.4148613214492798,0.14474362134933472,-0.10325822234153748,0.3476036489009857,-0.1633508801460266,-0.2831617593765259,0.037718456238508224,0.3448323607444763,-0.23990611732006073,0.27916041016578674,-0.11789242178201675,0.27843087911605835,0.43150418996810913,-0.11993160843849182,-0.5916265249252319,0.5175921320915222,0.1270017921924591,-0.04847737401723862,-0.5528571009635925,-0.2359677255153656,-0.27505776286125183,0.3459559977054596,0.009308751672506332,0.07536764442920685,-0.11337262392044067,-0.02785082533955574,0.12570567429065704,-0.15325936675071716,-0.1048046126961708,-0.32544979453086853,0.033289797604084015,-0.5183148980140686,-0.3090105354785919,-0.12443069368600845,0.17577555775642395,-0.22229640185832977,0.03844228386878967,0.46160122752189636,-0.09784452617168427,-0.1232849732041359,-0.27594467997550964,-0.49152135848999023,0.37436795234680176,-1.082968831062317,-0.19260893762111664,-0.500393807888031,-0.3034048080444336,-0.3105703890323639,0.014255011454224586,0.2027052938938141,0.0002315826714038849,0.13047419488430023,0.8178430795669556,0.09528777748346329,0.3199620246887207,0.3897322714328766,0.05634354054927826,0.006260834168642759,-0.3923279047012329,-0.23191602528095245,0.02904699370265007,0.03824187070131302,0.37262919545173645,-0.22099104523658752,-0.067555733025074,0.43982186913490295,-0.03882117569446564,0.014729738235473633,0.03707156330347061,0.05319982394576073,-0.1691954880952835,0.006718321703374386,-0.14259713888168335,0.14504864811897278,-0.33451491594314575,-0.25909101963043213,0.15015502274036407,-0.18297132849693298,0.11312815546989441,0.06650315225124359,-0.20739638805389404,-0.15700660645961761,0.12836167216300964,0.09029759466648102,-0.024603303521871567,-0.15851522982120514,-0.028262725099921227,-0.26192939281463623,-0.11153921484947205,0.06306706368923187,0.024365507066249847,-0.018371354788541794,0.3062221109867096,-0.10585877299308777,-0.2595662772655487,-0.15707747638225555,0.03582315891981125,-0.29568201303482056,-0.26702821254730225,-0.34107574820518494,-0.12130054831504822,-0.12079514563083649,0.09269816428422928,-0.309082567691803,-0.1882936954498291,0.30354151129722595,-0.32111647725105286,-0.05196250230073929,0.2972097098827362,-0.6727299690246582,-0.18631498515605927,0.2806249260902405,-0.3587845265865326,-0.05409570038318634,-0.40424346923828125,-0.20984038710594177,-0.18974383175373077,-0.24587348103523254,-0.3142571747303009,-0.08606887608766556,-0.18307627737522125,0.2868957221508026,-0.18827222287654877,-0.14929474890232086,0.20011566579341888,0.228696808218956,-0.014478919096291065,0.06330502033233643,-0.4538736343383789,-0.3234647810459137,-0.1573152095079422,-0.04451470822095871,-0.3711926341056824,-0.3881179392337799,0.47588905692100525,0.2390773594379425,-0.20447278022766113,0.0009486462222412229,-0.24268588423728943,0.21983228623867035,-0.00320354662835598,-0.03743467479944229,0.012641461566090584,-0.2465931922197342,0.3451603651046753,-0.08763140439987183,0.21413540840148926,-0.09570164978504181,0.5257721543312073,0.17161129415035248,-0.05923639237880707,0.2821600139141083,0.3105660676956177,0.14234787225723267,-0.03839585930109024,-0.08070175349712372,-0.14301754534244537,-0.08149217069149017,-0.01254650205373764,0.06761565059423447,-0.15153253078460693,-0.0568760484457016,0.22388426959514618,-0.060765255242586136,-0.10824163258075714,0.25266626477241516,0.15025898814201355,-0.04633086174726486,-0.2586798667907715,-0.00814119353890419,0.21897080540657043,-0.18186110258102417,-0.51241135597229,-0.36415600776672363,-0.2017434686422348,-0.3185794949531555,-0.046282120048999786,-0.24131828546524048,0.06974641978740692,0.2564232349395752,0.026346348226070404,0.029881685972213745,-0.0430493988096714,0.23027236759662628,0.14065708220005035,-0.08436644077301025,-0.30572426319122314,-0.010672375559806824,0.1725299060344696,-0.46955788135528564,0.6875143051147461,0.14823171496391296,0.107338085770607,-0.4195477068424225,0.02161828987300396,-0.01520457398146391,-0.2259095311164856,-0.7095339894294739,0.6797342300415039,-0.32044047117233276,0.2745789885520935,-0.3270277976989746,0.1596614569425583,0.057879846543073654,-0.4841100871562958,-0.1969786286354065,-0.2834824025630951,-0.031440626829862595,-0.6022974848747253,-0.2979837656021118,0.10766048729419708,0.07824333012104034,-0.4790865182876587,0.3221519887447357,0.04373641312122345,0.14277836680412292,-0.13080672919750214,0.023280257359147072,0.3839418292045593,0.11866198480129242,-0.22385942935943604,-0.00967184267938137,-0.03355950489640236,0.7031148076057434,0.009159035980701447,-0.5164315104484558,-0.018516089767217636,-0.3000337481498718,0.3488510847091675,0.07130502164363861,0.1799517720937729,-0.2787765562534332,0.4374578893184662,-0.2376537024974823,-0.5412909984588623,0.23297056555747986,0.0895632654428482,-0.33236873149871826,-0.04666578769683838,-0.11398698389530182,0.04799594730138779,-0.10291699320077896,-0.02405952289700508,-0.33600324392318726,-0.3855886459350586,-0.08070250600576401,-0.037340905517339706,-0.09989332407712936,-0.21242676675319672,-0.14365306496620178,-0.1749839335680008,0.18389666080474854,-0.20441055297851562,-0.09019245952367783,-0.3205816149711609,-0.2051481008529663,-0.026677219197154045,0.3749292492866516,0.11442022770643234,-0.24186347424983978,-0.2824784517288208,-0.07117439806461334,0.13332462310791016,0.6322625279426575,-0.030468672513961792,0.21079087257385254,0.31325477361679077,-0.2079448252916336,0.09594222903251648,0.17123471200466156,0.16508345305919647,0.10802358388900757,-0.026890050619840622,-0.3136650621891022,0.42733076214790344,0.14111201465129852,-0.2707461714744568,-0.1583530604839325,0.21196284890174866,0.1161133348941803,0.014794498682022095,-0.5048215985298157,-0.6827457547187805,-0.5549400448799133,0.4194064438343048,-0.24044498801231384,0.17235806584358215,0.18305744230747223,-0.4545110762119293,0.24286723136901855,-0.46353837847709656,4.482244491577148,-0.09599052369594574,0.07588432729244232,-0.12050623446702957,0.2729063630104065,0.0726647824048996,-0.39171215891838074,-0.08130393177270889,0.30200034379959106,-0.3134271502494812,0.5506371855735779,-0.2864518165588379,0.24064099788665771,0.13450384140014648,0.0830278992652893,0.45894378423690796,-0.17050257325172424,0.05232686921954155,-0.15573516488075256,0.0922635868191719,-0.709287703037262,0.491290807723999,0.14393414556980133,-0.04413789510726929,-0.1771795004606247,-0.17096960544586182,-0.04053761810064316,-0.11064096540212631,0.005312442779541016,0.40975260734558105,0.0321476012468338,-0.1796606183052063,0.1239280253648758,0.34225329756736755,-0.11640843749046326,0.41723519563674927,-0.34386229515075684,-0.07637903094291687,0.07864049077033997,0.0560714453458786,-0.10781460255384445,-0.12910577654838562,0.6661750674247742,-0.7773596048355103,0.49247869849205017,0.10378030687570572,-0.1283828616142273,-0.0450768917798996,-0.14990271627902985,-0.2874656021595001,0.47766557335853577,-0.5260602831840515,-0.0792444497346878,0.1897575855255127,-0.3349006175994873,0.16092674434185028,-0.06638418138027191,-0.33623215556144714,-0.02970382571220398,0.19350498914718628,-0.10308080166578293,0.04461997374892235,0.07709522545337677,-0.34852075576782227,-0.2011524885892868,-0.46147245168685913,0.11213988065719604,0.19825296103954315,0.407816618680954,0.09125901758670807,0.1270173192024231,-0.12150509655475616,0.00527458731085062,0.08389599621295929,-0.1023520678281784,0.11225065588951111,-0.38764381408691406,0.3329331576824188,-0.0004986245185136795,-0.33019888401031494,-0.26839181780815125,-0.30629947781562805,-0.3880428969860077,-0.44217267632484436,-0.08534684032201767,0.045922260731458664,1.9544735550880432e-05,-0.2316085398197174,-0.07545412331819534,0.2042531967163086,0.35981449484825134,-0.11583457142114639,-0.14679668843746185,0.012618796899914742,0.0870167687535286,-0.33337974548339844,-0.01153862476348877,-0.3293558955192566,-0.25616881251335144,0.2284364551305771,-0.7124751806259155,0.1304408311843872,0.13630308210849762,-0.08700130134820938,0.5081405639648438,-0.4381569027900696,-0.4064634144306183,-0.4309494197368622,-0.6964384317398071,0.22562769055366516,-0.23338308930397034,-0.6620783805847168,-0.4033328890800476,-0.1444493532180786,-0.31332722306251526,-0.0013214927166700363,0.08847000449895859,-0.01688327267765999,-0.05137632042169571,-0.45316386222839355,0.5017282366752625,0.48836609721183777,-0.010536969639360905,0.3137374222278595,0.011057998985052109,-0.03684757277369499,0.8045096397399902,0.003818187862634659,-0.24913224577903748,-0.2769952416419983,0.2244836539030075,0.2684108018875122,0.12509998679161072,-0.08252807706594467,0.15755048394203186,-0.03180355578660965,0.11746933311223984,0.19255103170871735,-0.5552852749824524,-0.03168046101927757,0.4743640422821045,-0.3331860899925232,0.13172723352909088,0.07927475869655609,-0.06157137081027031,-0.12761250138282776,-0.10239967703819275,-0.5956354141235352,0.09228135645389557,0.12501132488250732,-0.20447495579719543,0.27507418394088745,0.3153781592845917,0.15663562715053558,0.10635564476251602,0.14532801508903503,0.021859770640730858,-0.016866985708475113,-0.2890540361404419,0.10064995288848877,0.5562648773193359,-0.3624231517314911,0.40215209126472473,0.29838651418685913,0.20728105306625366,0.37752652168273926,0.20330654084682465,0.37877264618873596,-0.17663359642028809,0.265766441822052,-0.09449503570795059,0.025868695229291916,0.15172430872917175,-0.049359194934368134,-0.15677103400230408,0.2522631287574768,0.04051610454916954,-0.15505185723304749,-0.21347370743751526,-0.34065723419189453,-0.1535848081111908,0.25205370783805847,0.18725283443927765,-0.025982029736042023,-0.269946813583374,-0.022260859608650208,0.26966214179992676,-0.28496143221855164,-0.10351638495922089,0.4988100528717041,0.2854951024055481,0.15160974860191345,0.251177579164505,0.4955953359603882,0.11856289207935333,0.2704547047615051,-0.4098190665245056,-0.041659269481897354,0.0972856730222702,-0.3069457411766052,-0.10435964167118073,-0.28026729822158813,-0.22533465921878815,0.15308132767677307,0.1711113303899765,-0.17507697641849518,-0.060697637498378754,-0.4537523090839386,-0.1787877231836319,-0.16635049879550934,0.23796291649341583,-0.0780518651008606,0.29100218415260315,0.14598675072193146,-0.5296225547790527,-0.11553841829299927,-0.4124777913093567,-0.027076900005340576,0.23688125610351562,0.08477133512496948,0.15134933590888977,0.08385194838047028,0.4223632514476776,-0.3792763352394104,0.2502779960632324,0.1912248581647873,-0.04812013357877731,0.05990323796868324,0.509631335735321,0.2634051442146301,0.23332352936267853,0.2235301434993744,0.09467773884534836,-0.21622389554977417,-0.3617996573448181,0.007511043921113014,-0.004435986280441284,-0.25663596391677856,0.32720834016799927,0.25613662600517273,0.21205566823482513,-0.10121610015630722,-0.11062613874673843,0.5027009844779968,0.25032973289489746,-0.19690483808517456,0.23006823658943176,-0.016079111024737358,-0.4325152635574341,-0.08957387506961823,-0.6593749523162842,-0.12876485288143158,0.5638576149940491,-0.1307898312807083,-0.19878989458084106,0.45316919684410095,-0.003639691509306431,-0.20115378499031067,0.18358510732650757,-0.04393582046031952,0.1591162234544754,0.04973134770989418,-0.5369272828102112,-0.1408071219921112,-0.5275976657867432,-0.4707872271537781,-0.3181062340736389,0.7656267881393433,0.4691844582557678,0.03623967245221138,0.023705601692199707,0.04958217963576317,-0.3259919583797455,0.18646395206451416,0.08646360039710999,-0.1539468616247177,-0.12791390717029572,-0.3917731046676636,0.08186572790145874,-0.14175504446029663,0.3252989947795868,0.13990852236747742,0.2448996901512146,-0.10738510638475418,-0.04255189001560211,-0.26294344663619995,0.344612181186676,-0.13650493323802948,0.008104818873107433,0.6950386762619019,-0.1308855563402176,0.4248853325843811,-0.20389986038208008,-0.42980241775512695,-0.10942123085260391,0.2293875366449356,-0.04351463168859482,-0.25894996523857117,0.07311303168535233,0.47961777448654175,-0.0373271144926548,0.04983024671673775,0.14964884519577026,-0.34304019808769226,-0.022568479180336,-0.10388453304767609,-0.08382134139537811,-0.14174716174602509,-0.03557790815830231,-0.4030698537826538,0.4427345395088196,-0.11479901522397995,-0.10011754930019379,-0.3531004786491394,-0.3505100905895233,0.2563703954219818,-0.23204101622104645,0.17884936928749084,0.047942809760570526,-0.29373762011528015,0.1596813201904297,0.39077016711235046,-0.062415145337581635,0.09933296591043472,-0.08828447759151459,0.10754255205392838,-0.04339323937892914,-0.25012946128845215,0.044893428683280945,0.31127727031707764,-0.2179257720708847,-0.18173758685588837,0.0745038390159607,0.20479623973369598,-0.20370562374591827,-0.5537473559379578,-0.0060240477323532104,0.20265085995197296,0.4249153435230255,-0.21807906031608582,-0.17357872426509857,-0.39128151535987854,0.3779447078704834,0.37007415294647217,0.4872325658798218,0.4614083170890808,0.16849374771118164,-0.44253993034362793,0.028644917532801628,0.4556318521499634,0.22769957780838013,0.10717090219259262,0.03660247474908829,-0.026220466941595078,0.31693369150161743,-0.29404526948928833,0.11939048022031784,-0.1390562653541565,-0.08970972895622253,0.1407337784767151,-0.023148268461227417,-0.11190951615571976,-0.06817498803138733,0.4354497194290161,-0.01894431747496128,-0.11000274121761322,-0.39225471019744873,-0.29977092146873474,-0.41201356053352356,0.17936158180236816,-0.20275206863880157,-0.05289222672581673,-0.32709428668022156,-0.164712592959404,0.14893871545791626,0.23658858239650726,0.11351446807384491,0.413494348526001,0.2609357535839081,0.006741155870258808,0.3556201756000519,-0.2748056650161743,0.7228630185127258,0.3528631329536438,-0.4695358872413635,-0.08646450936794281,0.15832237899303436,-0.1752193719148636,-0.2305145114660263,0.5168386101722717,-0.2158409208059311,0.2899320423603058,-0.05984710156917572,-0.4291961193084717,0.028524987399578094,-0.3244988024234772,0.231209397315979,-0.13929222524166107,0.23576414585113525,-0.3016296625137329,-0.04845709353685379,0.6213098168373108,0.4307170510292053,0.018342608585953712,0.5087824463844299,-0.30402258038520813,0.19351622462272644,0.15481805801391602,0.06759173423051834,-0.2738012671470642,-0.8436028957366943,-0.22084656357765198,-0.12720105051994324,-0.23677700757980347,-0.13861456513404846,0.0011510811746120453,-0.41763678193092346,-0.20698682963848114,0.27660658955574036,0.18685707449913025,0.47913092374801636,0.26125964522361755,-1.0136791467666626,-0.22672617435455322,-0.1675233393907547,0.0822715163230896,0.02459755167365074,0.054067522287368774,-0.07253792881965637,0.07269774377346039,0.12170983850955963,-0.3773607313632965,-0.3726644814014435,0.3539641499519348,0.02262570708990097,0.48550695180892944,0.27796632051467896,0.3919609785079956,0.04896828904747963,0.0416201651096344,-0.08220257610082626,-0.14700685441493988,0.11316616088151932,0.21207775175571442,0.25487020611763,0.03253600373864174,0.19037729501724243,0.3649589419364929,-0.14500989019870758,-0.22882458567619324,0.4730275869369507,-0.33843785524368286,-0.18172329664230347,0.2965581715106964,-0.28362104296684265,-0.16887323558330536,-0.07092052698135376,0.013907606713473797,-0.15018147230148315,0.0927639976143837,-0.02969805896282196,-0.0028828701470047235,-0.6638471484184265,0.06400399655103683,0.3987078070640564,-0.45156949758529663,-0.04574878513813019,0.0442354679107666,0.04152090102434158,-0.6390553116798401,-0.10637282580137253,0.13423079252243042,-0.00988227128982544,0.12120591849088669,-0.14990629255771637,-0.22350803017616272,0.2644241750240326,-0.015556961297988892,-0.15273799002170563,0.2890493869781494,0.18649081885814667,-0.062283411622047424,-0.2528185248374939,-0.25923463702201843,0.2629881501197815,0.6198291182518005,0.3268021047115326,-0.13906361162662506,-0.20201091468334198,0.15795768797397614,0.242700457572937,0.17555435001850128,0.031983647495508194,0.001069920603185892,-0.11246702075004578,-0.09576783329248428,0.0750746950507164,-0.2227020263671875,0.14883644878864288,-0.21690241992473602,0.06996066123247147,-0.25315335392951965,0.3849608600139618,0.12359851598739624,-0.037960514426231384,-0.10438016057014465,0.38300299644470215,-0.39884859323501587,0.0043251244351267815,0.4304344952106476,-0.28660401701927185,-0.033340491354465485,0.3365271985530853,0.07980450987815857,-0.04411424696445465,-0.31892716884613037,0.09971898794174194,0.026610389351844788,-0.079243503510952,0.14323022961616516,-0.3751635253429413,0.32117998600006104,0.2955204248428345,0.05379992723464966,0.15587645769119263,0.3416171073913574,-0.7347672581672668,-0.017740655690431595,0.45616415143013,0.45986077189445496,0.1980074942111969,0.3953309655189514,-0.05443029850721359,0.3801816999912262,-0.06031114608049393,0.08855962753295898,-0.23829549551010132,-0.13678959012031555,-0.24653370678424835,-0.15898212790489197,0.2179236114025116,-0.05882536247372627,0.35300374031066895,-0.3440294563770294,0.08726482093334198,0.03271381929516792,-0.3942584693431854,-0.2515888810157776,0.3887883126735687,-0.016751380637288094,0.041213423013687134,0.023176299408078194,-0.2795327305793762,0.10745565593242645,-0.11541326344013214,0.49411824345588684,-0.09754687547683716,0.02005280926823616,-0.08316994458436966,-0.17786386609077454,0.018866945058107376,-0.1533297300338745,-0.11366196721792221,-0.08910281956195831,0.537224292755127,0.01520242728292942,0.38247138261795044,0.09655088186264038,-0.3089989125728607,0.48828622698783875,-0.290315181016922,-0.14432835578918457,-0.061226263642311096,0.05860698223114014,-0.06150835007429123,-0.1037445068359375,-0.2094276249408722,0.42416495084762573,-0.21799838542938232,-0.18154990673065186,-0.7282770276069641,-0.11196079105138779,-0.4061591327190399,0.019364478066563606,-0.3604310154914856,-0.155741885304451,0.08279941976070404,-0.0018134219571948051,0.07637704163789749,-0.22287802398204803,0.42758068442344666,0.09284588694572449,-0.1344822496175766,-0.2815333902835846,-0.0553039126098156,0.042193979024887085,-0.1589328497648239,0.13988696038722992,-0.6433506608009338,0.1433396190404892,-0.5547135472297668,-0.04260654002428055,0.4056796133518219,-0.11128600686788559,-0.23888640105724335,-0.6790503263473511,0.18658719956874847,-0.42107099294662476,0.04332505166530609,-0.006571450270712376,-0.12156007438898087,-0.014523858204483986,-0.04541344568133354,-0.15702305734157562,-0.011914588510990143,0.07165546715259552,-0.1704142689704895,0.29381734132766724,0.4922582805156708,-0.5422125458717346,0.1578337401151657,0.13201230764389038,0.18959194421768188,0.05473250895738602,-0.30903851985931396,0.07457911223173141,-0.09816651046276093,-0.36458906531333923,-0.07371380180120468,0.1917821168899536,-0.08441591262817383,0.6410038471221924,-0.15214231610298157,-0.5010989308357239,0.2646152079105377,-0.043568044900894165,0.025041501969099045,-0.27045848965644836,-0.6083777546882629,0.37304872274398804,0.3599613308906555,-0.3086720407009125,-0.0752730667591095,0.5666918158531189,0.42810460925102234,0.4973267912864685,0.08865292370319366,0.11809151619672775,-0.023819414898753166,0.02042590081691742,0.29528599977493286,-0.20822615921497345,-0.01905055157840252,0.15374000370502472,0.12210451811552048,-0.16376438736915588,-0.02454877831041813,-0.34522923827171326,-0.18322978913784027,-0.18881063163280487,-0.21136075258255005,-0.29287171363830566,0.4598119556903839,0.19901952147483826,-0.2943075895309448,0.20511998236179352,-0.4720170199871063,-0.11010516434907913,0.04212597385048866,0.30136406421661377,0.0028586681000888348,0.22585399448871613,-0.21385030448436737,0.29212048649787903,0.01656038872897625,-0.5518936514854431,-0.18910464644432068,-0.17230603098869324,0.27945783734321594,0.11022670567035675,0.09541428089141846,-0.01054722722619772,-0.08248231559991837,-0.5508677363395691,0.1442890614271164,0.04451797902584076,0.612197756767273,1.0355620384216309,-0.3451201915740967,-0.16265660524368286,-0.41594359278678894,0.06366022676229477,-0.46808797121047974,0.25113868713378906,-0.06613412499427795,-0.2516636550426483,-0.20593562722206116,0.35510972142219543,-0.1650291234254837,-0.238613560795784,0.5673946142196655,-0.024761859327554703,-0.20664073526859283,-0.016997061669826508,-0.8369860649108887,0.4903545677661896,-0.04945012554526329,-0.0485980361700058,0.34155702590942383,-0.17285333573818207,-0.011405356228351593,-0.11691011488437653,0.004889309406280518,0.06325987726449966,0.15185421705245972,0.019288070499897003,-0.27807387709617615,0.7594031095504761,0.0029787335079163313,0.1409328281879425,0.19002126157283783,0.33892446756362915,0.28827351331710815,-0.2103661745786667,-0.1682508885860443,-0.512740969657898,0.2627294957637787,0.2670108675956726,-0.18387502431869507,-0.27046775817871094,-0.21490664780139923,-0.06471655517816544,0.10657261312007904,-0.4261046051979065,-0.011919539421796799,0.19160498678684235,0.3188626766204834,0.17153629660606384,-0.41699275374412537,-0.23036500811576843,0.05781562626361847,-0.007564747706055641,0.2702893912792206,-0.09580835700035095,0.15503162145614624,0.015100395306944847,-0.0538114495575428,-0.6067224740982056,0.6377663612365723,0.2772917151451111,-0.17728191614151,-0.7539041042327881,0.1569978892803192,-0.2691642940044403,0.2926572561264038,-0.14383822679519653,-0.010501186363399029,-0.08827058970928192,-0.1517978459596634,-0.18120843172073364,0.1105874627828598,-0.0005290447734296322,-0.2528814971446991,0.185016930103302,-0.5423216819763184,-0.17732800543308258,-0.07783827930688858,0.17861104011535645,-0.08545219153165817,0.11628387123346329,0.36395275592803955,-0.12855567038059235,-0.21301014721393585,-0.3320026397705078,-0.250931978225708,0.2715504765510559,-0.6742701530456543,-0.1789819598197937,-0.3704833388328552,0.019946452230215073,-0.4343915581703186,-0.24376240372657776,0.12863823771476746,0.12957808375358582,0.1335129737854004,0.5725213289260864,0.09254073351621628,0.2986903786659241,0.08568232506513596,-0.043253615498542786,0.06124607473611832,-0.3279440999031067,-0.1640116423368454,0.011837640777230263,-0.1599569469690323,0.24036695063114166,-0.02439199760556221,-0.00854174792766571,0.4057917296886444,-0.17829838395118713,0.2650197446346283,-0.026098961010575294,0.07822822034358978,-0.17974840104579926,-0.10660123080015182,-0.08530128747224808,0.2497449517250061,-0.27795159816741943,0.16716550290584564,0.12415812909603119,-0.09797060489654541,0.21674326062202454,-0.2247423678636551,0.25581929087638855,-0.22601914405822754,-0.2921161949634552,-0.014634797349572182,-0.22621729969978333,-0.26472973823547363,-0.1502131223678589,-0.17095200717449188,-0.14443032443523407,-0.0427749827504158,-0.2547837793827057,-0.2539181709289551,0.2898430824279785,-0.00014198198914527893,-0.5095902681350708,0.005872863344848156,0.08851447701454163,0.013733318075537682,-0.20580661296844482,-0.3957843780517578,-0.0503302700817585,-0.19612202048301697,0.029753059148788452,-0.6648575067520142,-0.5106534361839294,0.21371708810329437,-0.2595657408237457,0.1500108540058136,0.2155018001794815,-0.4191195070743561,0.044755227863788605,0.4552648365497589,-0.3121111989021301,0.06274666637182236,-0.6985653042793274,0.017159268260002136,-0.18612292408943176,-0.11956549435853958,-0.34278926253318787,-0.1695592999458313,-0.2791305482387543,0.5862754583358765,-0.4751978814601898,-0.293891966342926,-0.03726127743721008,0.19251972436904907,-0.27482831478118896,0.07061156630516052,-0.28577032685279846,-0.3686026334762573,-0.005777740851044655,0.018362710252404213,-0.4132620394229889,-0.5047467350959778,-0.010860893875360489,0.3308311998844147,-0.13661548495292664,-0.028338462114334106,-0.23496627807617188,0.3123762905597687,0.17342326045036316,0.03474695608019829,0.1141582578420639,-0.30531591176986694,0.15143251419067383,-0.013915112242102623,0.2678495943546295,0.17813362181186676,0.4310669004917145,0.18586048483848572,0.19179697334766388,0.3827633261680603,0.20104005932807922,0.0013075340539216995,-0.1464834064245224,-0.2120932936668396,0.015605732798576355,-0.3629468083381653,-0.34057167172431946,0.22631146013736725,-0.020091254264116287,-0.15145032107830048,0.03098657727241516,0.0003430582582950592,-0.3152190148830414,0.3704468905925751,-0.1218080073595047,-0.2193450927734375,-0.14473146200180054,0.05113782733678818,0.42654338479042053,-0.30810269713401794,-0.5406702160835266,-0.48486560583114624,0.1462090015411377,-0.3315046429634094,0.3002554774284363,-0.4190157651901245,-0.04508759826421738,0.4427157938480377,0.1799946278333664,0.14216750860214233,-0.20732487738132477,0.10352399945259094,-0.09570401906967163,-0.08964546024799347,-0.3978862762451172,0.132015660405159,-0.03059600107371807,-0.3069051504135132,0.6821309328079224,-0.13645684719085693,-0.138198122382164,-0.5177066326141357,0.1611766666173935,0.14088183641433716,-0.08108605444431305,-0.8106623291969299,0.37990888953208923,-0.014341963455080986,0.36816632747650146,-0.17204657196998596,0.016954455524683,-0.11272289603948593,-0.23499810695648193,-0.1553041934967041,-0.2930009663105011,0.03960750997066498,-0.5181425213813782,-0.24103578925132751,0.04907034710049629,0.19368769228458405,-0.6786510348320007,0.28731396794319153,0.044197097420692444,-0.08244404196739197,-0.2115441858768463,-0.38587188720703125,0.2942844033241272,-0.0013737115077674389,-0.404568076133728,-0.03815101832151413,0.03310631215572357,0.47612881660461426,0.04380428418517113,-0.3489212095737457,0.1438116729259491,-0.1800314038991928,0.3069472908973694,0.09211154282093048,0.5111144781112671,-0.40557873249053955,-0.010804069228470325,-0.0019480586051940918,-0.5913639664649963,0.14811061322689056,-0.2780064344406128,-0.1605111062526703,-0.142868772149086,-0.16183923184871674,0.09060352295637131,0.013889512047171593,0.03417782485485077,-0.47908738255500793,-0.07315986603498459,0.012904928997159004,0.2562348544597626,-0.42133834958076477,-0.5167809724807739,-0.15450266003608704,-0.11099240928888321,0.31051772832870483,0.030119189992547035,-0.10702746361494064,-0.11430825293064117,-0.026240862905979156,-0.1572476476430893,0.16974575817584991,0.33465614914894104,-0.04999294877052307,-0.3778340518474579,-0.21214881539344788,0.13531310856342316,0.31405359506607056,-0.12373372912406921,0.41366085410118103,0.2295304834842682,-0.1907402127981186,0.07759740948677063,0.40989023447036743,0.08717779815196991,-0.010425802320241928,0.09371326863765717,-0.00250142440199852,0.3705053925514221,0.20536549389362335,-0.1580578088760376,-0.21207810938358307,0.22953367233276367,0.11613461375236511,-0.05766904354095459,-0.3135010302066803,-0.29350531101226807,-0.29888713359832764,0.3307361304759979,-0.26186078786849976,0.12852692604064941,0.04536396265029907,-0.328904926776886,0.2795450687408447,-0.44880688190460205,17.072690963745117,-0.204788476228714,0.20655256509780884,-0.01688171923160553,0.25013670325279236,-0.4060630202293396,-0.7293568253517151,-0.17004625499248505,0.28894439339637756,-0.1658911257982254,0.4546668231487274,-0.22042402625083923,-0.061456143856048584,0.26644089818000793,0.2705523371696472,0.6794953942298889,0.07231718301773071,-0.06928237527608871,-0.15067298710346222,0.04313685745000839,-0.6529921293258667,0.2845892906188965,0.21177425980567932,-0.07197646796703339,0.15747658908367157,-0.37870773673057556,-0.11430839449167252,-0.16195781528949738,0.12350428104400635,0.35859259963035583,0.22954481840133667,-0.10508072376251221,-0.14369019865989685,0.29040807485580444,-0.02704961597919464,0.39647728204727173,-0.5763958096504211,-0.11547382920980453,-0.06166847422719002,0.15492555499076843,0.019970890134572983,-0.13474567234516144,0.5012746453285217,-0.4828575551509857,0.13010115921497345,0.3146516680717468,0.12547998130321503,0.011481108143925667,-0.18062743544578552,-0.16394726932048798,0.4867859184741974,-0.5079326033592224,-0.08835478127002716,0.1718403846025467,-0.44940897822380066,-0.02156534418463707,0.00342395156621933,0.04050323739647865,0.3991794288158417,0.07142877578735352,-0.31187114119529724,0.08334337174892426,-0.05065961927175522,0.08511948585510254,-0.1775932013988495,-0.4078162908554077,0.10975539684295654,-0.0287795253098011,0.25228577852249146,0.1462276577949524,0.11154386401176453,-0.2000197470188141,0.00952909141778946,0.13709482550621033,-0.012142149731516838,0.26806843280792236,-0.06632150709629059,0.06828734278678894,-0.13296091556549072,-0.0317300483584404,-0.43681246042251587,-0.1752263605594635,-0.32243090867996216,-0.6899567246437073,0.02680034562945366,0.1287178248167038,-0.0482901893556118,-0.023275576531887054,-0.23733782768249512,0.23545870184898376,0.26462990045547485,-0.3033413290977478,0.03082420863211155,0.18647246062755585,-0.06215576082468033,-0.4458402991294861,0.06672458350658417,-0.3755040764808655,-0.33562925457954407,0.188203364610672,-0.7220847606658936,0.3220534920692444,0.020799240097403526,-0.04270043969154358,0.665799617767334,-0.5784207582473755,-0.375800222158432,-0.3422602117061615,-0.47469475865364075,0.04679775610566139,-0.18395425379276276,-0.5600551962852478,-0.28868481516838074,-0.6882371306419373,-0.3064110279083252,0.035681650042533875,0.27173006534576416,-0.025717880576848984,-0.12775957584381104,-0.40420621633529663,0.5686026215553284,0.492414653301239,0.06519713252782822,0.38440996408462524,-0.20830290019512177,-0.004572901874780655,0.7357571125030518,0.02116243541240692,-0.180267333984375,-0.415380597114563,-0.061591509729623795,0.2493346482515335,0.20153149962425232,-0.06603341549634933,0.15668532252311707,-0.08779952675104141,0.11704655736684799,0.2914053499698639,-0.7235618829727173,-0.08717430382966995,0.33775386214256287,-0.3175988495349884,0.028161546215415,0.21922221779823303,-0.041940636932849884,-0.16022492945194244,-0.07685782760381699,-0.5591011643409729,0.16482757031917572,-0.001423107460141182,-0.3614893853664398,0.2193131148815155,0.338941365480423,0.12521077692508698,0.38471904397010803,0.16837772727012634,-0.04549974575638771,0.03808337450027466,-0.44446131587028503,0.2209608256816864,0.4674138128757477,-0.3636578321456909,0.5332480669021606,0.11481016874313354,0.343106210231781,0.3426816761493683,0.25738248229026794,0.1740260124206543,-0.07936368882656097,0.07122743129730225,0.023983092978596687,0.05449027195572853,0.27961400151252747,0.06539679318666458,-0.008199162781238556,0.19747419655323029,0.0003583169309422374,-0.14184145629405975,-0.04556768015027046,-0.3354291617870331,-0.324298620223999,0.39454013109207153,0.3385859727859497,-0.04873800650238991,-0.40874066948890686,-0.005539079196751118,0.4462898373603821,-0.2744092643260956,-0.0844062864780426,0.5318917632102966,0.2460777312517166,0.17512109875679016,0.10433894395828247,0.4168289303779602,0.08121111989021301,0.47301939129829407,-0.25780153274536133,0.03812176734209061,-0.07812753319740295,-0.3783835172653198,-0.019780553877353668,-0.2102797031402588,-0.34334737062454224,0.1375957429409027,0.24910463392734528,-0.12515820562839508,-0.01757829636335373,-0.440682053565979,-0.08353433758020401,-0.18530389666557312,0.3044036626815796,-0.024318533018231392,0.38231709599494934,-0.0004085758700966835,-0.5733408331871033,-0.07143057137727737,-0.49578380584716797,-0.15803250670433044,0.23707471787929535,0.09777004271745682,0.17561165988445282,0.1465504914522171,0.2576746940612793,-0.3781101107597351,0.24471305310726166,0.1328488290309906,-0.06688429415225983,0.13782687485218048,0.34096792340278625,0.2833448350429535,0.27963986992836,0.01710929349064827,0.004108207765966654,-0.11541670560836792,-0.5154680609703064,0.07529713213443756,0.035019513219594955,-0.21205376088619232,0.42930978536605835,0.19329434633255005,0.23429176211357117,-0.2022971361875534,-0.1429925560951233,0.4687521755695343,0.24546217918395996,-0.3791181743144989,0.1468128263950348,-0.0069798934273421764,-0.4023476839065552,-0.1717415750026703,-0.5805103182792664,-0.10132567584514618,0.5487601161003113,-0.16723516583442688,-0.3293527662754059,0.6305409073829651,0.088543601334095,-0.34439942240715027,0.3369096517562866,-0.262434720993042,0.13362151384353638,0.09187936037778854,-0.5593368411064148,0.005264706909656525,-0.5920726656913757,-0.42413073778152466,-0.3031262755393982,0.6850288510322571,0.4065867066383362,-0.07281103730201721,0.06714817136526108,0.03621857613325119,-0.3424835503101349,0.10939596593379974,-0.04053797200322151,-0.17710015177726746,0.004520609974861145,-0.43131202459335327,0.024536848068237305,-0.22327427566051483,0.3393487334251404,0.08881142735481262,0.23978108167648315,-0.16632653772830963,0.09850166738033295,-0.233001708984375,0.2441798448562622,-0.05618322640657425,-0.10609766095876694,0.5848513841629028,-0.012819879688322544,0.23017960786819458,-0.01942131482064724,-0.4712855815887451,-0.08412771672010422,0.2665609121322632,-0.09946262091398239,-0.25550615787506104,0.09610341489315033,0.3285008370876312,-0.04441295564174652,-0.1421177238225937,0.22594089806079865,-0.36782127618789673,-0.05532151833176613,-0.07121048867702484,-0.2314346432685852,-0.3033551275730133,-0.020389404147863388,-0.3704877495765686,0.20682595670223236,-0.03722764179110527,-0.09320443868637085,-0.5745587348937988,-0.32842013239860535,0.09008296579122543,-0.16035668551921844,0.09884949028491974,0.05853716656565666,-0.25574013590812683,0.030647501349449158,0.32467639446258545,-0.18683022260665894,0.21387498080730438,-0.04628458246588707,-0.048515770584344864,0.14922624826431274,-0.24166399240493774,0.19836297631263733,0.3005523979663849,-0.20375292003154755,-0.15750032663345337,0.06773494184017181,0.26500919461250305,-0.23956692218780518,-0.45390963554382324,-0.03268222510814667,0.24123628437519073,0.3712535500526428,-0.18827708065509796,-0.05181814730167389,-0.295685350894928,0.42456144094467163,0.40596678853034973,0.6315464973449707,0.39157092571258545,0.16699957847595215,-0.38721323013305664,0.13500669598579407,0.3537673354148865,0.1755182445049286,0.038668401539325714,-0.07182205468416214,-0.16165971755981445,0.18532036244869232,-0.12472936511039734,0.09978611022233963,-0.15007643401622772,-0.14325185120105743,-0.09478708356618881,0.03672175109386444,-0.1402321457862854,-0.05425846576690674,0.3401232361793518,-0.08666667342185974,-0.05161824822425842,-0.3329647183418274,-0.38172274827957153,-0.5436004996299744,0.2612959146499634,-0.2384626418352127,-0.1981123834848404,-0.24589207768440247,-0.11336707323789597,0.13071870803833008,0.19265228509902954,0.10623623430728912,0.39708656072616577,0.26299530267715454,-0.10876301676034927,0.2768823206424713,-0.24071836471557617,0.6996533870697021,0.4165477752685547,-0.5435398817062378,-0.0747823491692543,0.07279454916715622,-0.15093529224395752,-0.1651405245065689,0.5470855832099915,-0.2383948117494583,0.4924314618110657,0.11656200140714645,-0.45986542105674744,-0.0995640978217125,-0.3721443712711334,0.17063260078430176,-0.11068998277187347,0.35547155141830444,-0.2478192150592804,0.05666590481996536,0.5484533905982971,0.3373095691204071,-0.17146651446819305,0.41371166706085205,-0.22744645178318024,0.20227931439876556,0.21574276685714722,0.07150278985500336,-0.654800295829773,-0.8113231658935547,-0.05069249868392944,-0.16224458813667297,-0.18229275941848755,-0.10108011215925217,0.11641941219568253,-0.5552396774291992,-0.12511925399303436,0.3575035333633423,0.021607045084238052,0.4812595546245575,0.24812914431095123,-0.9228515028953552,-0.18316622078418732,-0.2071424275636673,0.16565319895744324,0.13149701058864594,0.03461745008826256,-0.11139574646949768,0.05747950077056885,0.06040756776928902,-0.4719497859477997,-0.3667805790901184,0.3393150568008423,-0.005769938230514526,0.5091930627822876,0.23442921042442322,0.3108588457107544,0.008987048640847206,-0.08921270817518234,-0.1405409276485443,-0.16048546135425568,0.027004364877939224,0.26405254006385803,0.36712247133255005,0.09900985658168793,0.0681411623954773,0.14881889522075653,-0.08401256054639816,-0.18625223636627197,0.5578575134277344,-0.3853338062763214,-0.03153255581855774,0.3867947459220886,-0.3718980550765991,0.014338046312332153,-0.06616712361574173,-0.014718122780323029,-0.19006110727787018,0.07448127120733261,-0.007567211985588074,-0.049981679767370224,-0.6291495561599731,0.011926636099815369,0.2413218766450882,-0.30716729164123535,-0.1543697565793991,0.12488995492458344,-0.008930068463087082,-0.7526203393936157,-0.2540629506111145,0.1930694282054901,0.17025145888328552,0.28782615065574646,-0.1846906691789627,-0.24535895884037018,0.21232819557189941,-0.02901935949921608,0.055189162492752075,0.33976906538009644,0.11273779720067978,-0.27986156940460205,-0.32142242789268494,-0.3497568964958191,0.1809970587491989,0.5957379937171936,0.3854779601097107,-0.12937654554843903,-0.037495147436857224,0.15677054226398468,0.3036799728870392,0.26859235763549805,0.010048364289104939,-0.07820798456668854,-0.1511673480272293,-0.008163396269083023,-0.010936692357063293,-0.08551876246929169,0.14972560107707977,-0.14835242927074432,0.12494303286075592,-0.1908872127532959,0.3422871530056,0.035643335431814194,-0.06326581537723541,-0.007644161581993103,0.2599709630012512,-0.25035637617111206,0.02085653319954872,0.4700853228569031,-0.2907106578350067,0.0007915765745565295,0.3381449580192566,0.04093645513057709,0.07080461829900742,-0.40073785185813904,-0.11073073744773865,0.07719287276268005,0.03468984365463257,0.05320189893245697,-0.45754703879356384,0.467899352312088,0.2588491141796112,0.04869819059967995,-0.01810174249112606,0.31810078024864197,-0.6180945038795471,-0.12198518961668015,0.4641110301017761,0.37400516867637634,0.1994294673204422,0.29903513193130493,-0.03364097699522972,0.28024283051490784,0.09624738991260529,0.06533905863761902,-0.353785902261734,-0.04853671044111252,-0.09521735459566116,-0.2544304430484772,0.13251975178718567,0.1630091667175293,0.3483911156654358,-0.5591328740119934,0.18079397082328796,-0.000853037228807807,-0.32698529958724976,-0.2399209886789322,0.3634451925754547,-0.009084961377084255,0.3677104711532593,0.1415233463048935,-0.37049561738967896,0.004638191778212786,0.024318698793649673,0.48898938298225403,-0.021534429863095284,0.030008558183908463,-0.14449132978916168,-0.13270068168640137,-0.0754857063293457,-0.03762856125831604,-0.14731675386428833,-0.05296822637319565,0.5784912109375,0.004862925037741661,0.46255117654800415,0.18506115674972534,-0.23987123370170593,0.4355076253414154,-0.3314487636089325,-0.18352994322776794,0.05347071588039398,0.09296028316020966,-0.13469453155994415,0.021029451861977577,-0.15527747571468353,0.39534279704093933,-0.4052749574184418,-0.07270614802837372,-0.6614972949028015,-0.2111853063106537,-0.5414578318595886,0.13074159622192383,-0.22058087587356567,0.059129100292921066,-0.05257672816514969,0.2602055072784424,0.007676988840103149,-0.08916886895895004,0.2984648644924164,-0.18927881121635437,-0.33437207341194153,-0.24438224732875824,-0.2011995166540146,0.22469040751457214,-0.19646354019641876,0.145955890417099,-0.6058688759803772,0.23034188151359558,-0.428001344203949,-0.1355186402797699,0.5009958744049072,-0.002785230055451393,-0.2662643790245056,-0.6658029556274414,0.10946989059448242,-0.15570908784866333,0.07218441367149353,0.059892017394304276,-0.012608207762241364,0.016662495210766792,-0.10490897297859192,-0.23606956005096436,0.0927710086107254,-0.0668821930885315,-0.23642395436763763,0.32711896300315857,0.5590346455574036,-0.6466118693351746,0.3804466426372528,0.15535521507263184,0.11773714423179626,0.12402088940143585,-0.352508544921875,0.08791393041610718,-0.07935857027769089,-0.2554387152194977,-0.15300022065639496,0.31007763743400574,-0.10442554950714111,0.49705609679222107,-0.14903658628463745,-0.48976588249206543,0.3022197484970093,-0.12363187223672867,0.1352759301662445,-0.2502354383468628,-0.5345743298530579,0.22616687417030334,0.10381729900836945,-0.41394805908203125,0.02897059917449951,0.5220674872398376,0.5201683640480042,0.4055935740470886,0.10217499732971191,0.3193301558494568,-0.07599806785583496,0.014822404831647873,0.19356359541416168,-0.41687101125717163,0.17844204604625702,0.09319938719272614,0.08023424446582794,-0.026039475575089455,0.06207704916596413,-0.38051271438598633,-0.19633327424526215,-0.06264569610357285,-0.26717475056648254,-0.2589220702648163,0.5771821737289429,0.35736432671546936,-0.14383381605148315,0.16347627341747284,-0.6470952033996582,-0.11185480654239655,-0.07476150989532471,0.2978062629699707,-0.05444441735744476,0.25236520171165466,-0.08073446154594421,0.15173490345478058,0.05553479865193367,-0.6464568376541138,-0.151652991771698,-0.22538414597511292,0.26832327246665955,0.09987737238407135,0.12214819341897964,-0.05840825289487839,-0.09781750291585922,-0.5879396200180054,0.23835605382919312,0.031986482441425323,0.662889838218689,0.9335823655128479,-0.2503906488418579,-0.2361600697040558,-0.14932450652122498,0.06590171158313751,-0.4289015233516693,0.32671689987182617,-0.2539755702018738,-0.36262261867523193,-0.1066523939371109,0.18422816693782806,-0.08859231323003769,-0.3260548710823059,0.5052096843719482,0.004515988286584616,-0.2556752562522888,-0.138601154088974,-0.7919273376464844,0.4048592448234558,-0.12962724268436432,-0.05068662017583847,0.21729443967342377,-0.2077462077140808,0.20627188682556152,-0.2491692304611206,0.008018463850021362,-0.07412195205688477,-0.10868573933839798,-0.0020033419132232666,-0.10386721789836884,0.7127034664154053,-0.10049957782030106,0.30979031324386597,0.10799160599708557,0.20859912037849426,0.24968937039375305,-0.012529950588941574,-0.2108931839466095,-0.5987857580184937,0.3365843892097473,0.1875087022781372,-0.34081587195396423,-0.1903989017009735,-0.1996358335018158,-0.11580260097980499,0.17700563371181488,-0.46068912744522095,0.08256255835294724,0.2164856642484665,0.11137616634368896,0.1952396184206009,-0.5206799507141113,-0.19317716360092163,-0.06280680000782013,-0.11644461750984192,0.13188087940216064,-0.13580867648124695,0.19756388664245605,-0.005679093301296234,0.18853183090686798,-0.5990918874740601,0.45267385244369507,0.13138802349567413,-0.09972356259822845,-0.9105669260025024,0.06078031659126282,-0.302364706993103,0.32496508955955505,0.06382118910551071,-0.08928777277469635,-0.12023814767599106,-0.317027747631073,-0.12872548401355743,0.07656633853912354,0.1482718139886856,-0.4607478976249695,0.2844826579093933,-0.709613025188446,-0.09749645739793777,-0.3051998019218445,0.11532196402549744,-0.04872341826558113,0.1575356423854828,0.3981025815010071,-0.07067468017339706,-0.14346013963222504,-0.35027962923049927,-0.36681807041168213,0.22117730975151062,-0.6431237459182739,-0.09719416499137878,-0.44796469807624817,0.017601897940039635,-0.3730078637599945,-0.2388039529323578,-0.04087696596980095,-0.03297901526093483,0.06520577520132065,0.39504027366638184,0.16525360941886902,0.3535412847995758,0.05387610197067261,-0.24533535540103912,0.110331229865551,-0.4262348413467407,-0.15264958143234253,0.21539531648159027,-0.13437682390213013,0.3703312873840332,0.12441809475421906,0.17786413431167603,0.15998704731464386,-0.06409506499767303,0.1793091893196106,-0.12440533936023712,0.11982943117618561,-0.08362997323274612,-0.03543146699666977,-0.1752319037914276,0.015975281596183777,-0.22427542507648468,0.2645133435726166,0.18977151811122894,-0.08385900408029556,0.2214978039264679,-0.19623373448848724,0.4099677503108978,-0.10416093468666077,-0.3860398530960083,-0.04382133483886719,-0.32945123314857483,-0.28855228424072266,-0.2613084018230438,-0.34828823804855347,-0.18482878804206848,-0.18199843168258667,-0.2406238317489624,-0.1854429394006729,0.29394611716270447,0.013813337311148643,-0.36227738857269287,-0.020259391516447067,0.1802700161933899,0.034384507685899734,-0.19464121758937836,-0.4620535373687744,0.11519001424312592,-0.037726324051618576,0.11049632728099823,-0.6024340391159058,-0.47454094886779785,0.2659185230731964,-0.33991947770118713,0.10123158991336823,0.03448702394962311,-0.591766893863678,0.1330399513244629,0.4853832423686981,-0.360788494348526,0.11512336879968643,-0.7906150221824646,-0.0718410462141037,-0.0010449429973959923,-0.1064300388097763,-0.30143222212791443,-0.04019895941019058,-0.3781265318393707,0.4579032063484192,-0.5361989140510559,-0.41347384452819824,0.006433840841054916,0.23528100550174713,-0.33189162611961365,0.08195486664772034,-0.37128591537475586,-0.3422033488750458,0.2090417593717575,-0.004747303202748299,-0.24653229117393494,-0.4460308849811554,-0.18794311583042145,0.39411529898643494,-0.20866891741752625,-0.08344902843236923,-0.15587450563907623,0.0103325629606843,0.284341961145401,-0.1681744009256363,0.042620815336704254,-0.10248448699712753,0.25416621565818787,0.1560477763414383,0.240653395652771,0.40159347653388977,0.47994348406791687,0.11118711531162262,0.24639499187469482,0.40601086616516113,0.27160394191741943,-0.11448607593774796,-0.10609257221221924,-0.2714075744152069,0.0418701134622097,-0.4665233790874481,-0.24865426123142242,0.2843691110610962,0.16292458772659302,-0.0028106013778597116,-0.2831924855709076,-0.05795624479651451,-0.26721489429473877,0.4837901294231415,-0.23112958669662476,-0.32506099343299866,-0.025457631796598434,0.007981164380908012,0.5941382646560669,-0.42036810517311096,-0.7232365608215332,-0.453361451625824,0.0472630150616169,-0.3527660667896271,0.33846166729927063,-0.47575926780700684,0.10352721810340881,0.42129355669021606,0.2711852490901947,0.15458069741725922,-0.1857435405254364,0.054621435701847076,0.08074197173118591,-0.22330041229724884,-0.3548464775085449,0.24502325057983398,0.1150842234492302,-0.1790897399187088,0.6144695281982422,-0.24146109819412231,-0.08904656767845154,-0.5693659782409668,0.15430960059165955,0.19891507923603058,0.07362068444490433,-0.816640317440033,0.30282971262931824,-0.11789708584547043,0.5080360770225525,-0.008775018155574799,-0.015361903235316277,-0.24189338088035583,-0.18006834387779236,-0.222886860370636,-0.13377198576927185,0.0467725545167923,-0.4353211522102356,-0.17456063628196716,0.00798005424439907,0.07404346019029617,-0.6574943661689758,0.4026964008808136,0.046721652150154114,-0.08743378520011902,-0.1347324401140213,-0.44520020484924316,0.14453211426734924,0.01947365142405033,-0.24824175238609314,-0.2902641296386719,-0.022432656958699226,0.32871195673942566,0.14863727986812592,-0.4560571014881134,0.14598298072814941,-0.1365155428647995,0.31332460045814514,0.06864273548126221,0.5398141741752625,-0.4088650345802307,-0.12403061240911484,0.0762789323925972,-0.46614760160446167,0.1942203938961029,-0.23707208037376404,-0.1481097936630249,-0.24389192461967468,-0.19783861935138702,0.2036668360233307,0.07533758878707886,0.14641429483890533,-0.41753387451171875,-0.031685970723629,0.19900360703468323,0.17476814985275269,-0.4522947669029236,-0.3619064390659332,-0.35002651810646057,-0.014979210682213306,0.3480277359485626,0.03496240824460983,-0.049551475793123245,-0.19449745118618011,-0.1452011615037918,-0.20908325910568237,0.02908243238925934,0.42071425914764404,-0.032507166266441345,-0.4579153060913086,-0.37623080611228943,0.20098230242729187,0.5326459407806396,-0.18352998793125153,0.48235630989074707,0.05280568450689316,-0.13716207444667816,-0.025103021413087845,0.43710315227508545,0.09614335000514984,-0.07055866718292236,-0.01845313422381878,0.019124357029795647,0.37952449917793274,0.09564223885536194,-0.11022784560918808,-0.27905410528182983,0.17807041108608246,0.05432315170764923,-0.023880334571003914,-0.19888973236083984,-0.18199767172336578,-0.47632601857185364,0.33456093072891235,-0.38557493686676025,0.15892088413238525,0.01632227748632431,-0.3383011519908905,0.19990715384483337,-0.3463760018348694,12.533954620361328,-0.17960423231124878,0.3083570599555969,0.02692679688334465,0.23519158363342285,-0.4352235198020935,-0.7612696290016174,-0.19471228122711182,0.10336246341466904,-0.0682118758559227,0.3363476097583771,-0.10689067840576172,-0.0888243168592453,0.11733819544315338,0.18875652551651,0.8192919492721558,0.03589121252298355,-0.1593535840511322,-0.06039896607398987,0.031163860112428665,-0.65132075548172,0.42312219738960266,0.2731258273124695,0.017393115907907486,0.21271826326847076,-0.40788599848747253,-0.04354880750179291,-0.09788206219673157,-0.12746891379356384,0.3449421226978302,0.3843902349472046,0.06372945010662079,-0.15386313199996948,-0.007950888015329838,-0.15395407378673553,0.36666858196258545,-0.38437342643737793,-0.027537452057003975,-0.06266558170318604,0.2709798514842987,0.04979502037167549,-0.15583103895187378,0.38638836145401,-0.5610048174858093,0.06511027365922928,0.40942221879959106,0.15154999494552612,-0.006449401378631592,-0.05456266552209854,-0.2992233633995056,0.48004814982414246,-0.5498815178871155,0.05148199200630188,0.13647761940956116,-0.543301522731781,-0.09343495965003967,0.0832548663020134,0.2000165432691574,0.4246189594268799,0.04863031953573227,-0.36645233631134033,0.00792771391570568,-0.17315180599689484,0.11783207207918167,-0.07803944498300552,-0.2647828757762909,0.11116679012775421,-0.0856260359287262,-0.007245976477861404,0.11418662220239639,-0.10179197788238525,-0.1688120812177658,-0.056820325553417206,0.06921912729740143,0.1616785228252411,0.1753399521112442,0.0064190770499408245,0.051635079085826874,-0.0859636515378952,0.11037752032279968,-0.36170291900634766,-0.14614605903625488,-0.3421502113342285,-0.6679083108901978,0.15759767591953278,0.1926898956298828,0.011939246207475662,0.058927662670612335,-0.20664872229099274,0.3809319734573364,0.20209504663944244,-0.06489822268486023,0.0017334949225187302,0.13698835670948029,-0.08216074109077454,-0.6074856519699097,-0.10810205340385437,-0.4080711007118225,-0.27521947026252747,0.11635097861289978,-0.4291486442089081,0.2682727873325348,-0.07528306543827057,-0.08034716546535492,0.6171330213546753,-0.4954366385936737,-0.348805695772171,-0.31141743063926697,-0.1963733434677124,0.06851043552160263,-0.17622284591197968,-0.5944210290908813,-0.25948938727378845,-1.2463667392730713,-0.31776881217956543,-0.08405271172523499,0.3781791031360626,-0.16148249804973602,-0.25394392013549805,-0.3332076072692871,0.4157728850841522,0.6100892424583435,0.09308694303035736,0.33691906929016113,-0.11799059808254242,-0.0868752971291542,0.6740526556968689,0.1534053236246109,-0.14550848305225372,-0.5139326453208923,-0.11373903602361679,0.29893794655799866,0.10413557291030884,-0.1335749328136444,0.19994845986366272,-0.17685002088546753,0.16222324967384338,0.1857922226190567,-0.820929229259491,-0.06352593004703522,0.38469719886779785,-0.20075178146362305,0.05307290703058243,0.03932969272136688,-0.03901959955692291,-0.16683568060398102,-0.031403474509716034,-0.4341440498828888,0.1925947517156601,0.09577953815460205,-0.29312863945961,0.10564585030078888,0.3502318263053894,0.24948321282863617,0.4162624180316925,0.1615699827671051,-0.10494831204414368,0.12621405720710754,-0.47648531198501587,0.1962253451347351,0.42768293619155884,-0.3020703196525574,0.5799592733383179,0.19907139241695404,0.41992637515068054,0.32848045229911804,0.30660971999168396,0.2981300950050354,0.12781153619289398,-0.051027581095695496,0.0945073589682579,-0.0292903333902359,0.32468342781066895,-0.05488196760416031,-0.15546393394470215,0.14720658957958221,-0.15776947140693665,0.08777447789907455,0.025885559618473053,-0.3516106605529785,-0.35214105248451233,0.179683119058609,0.40364494919776917,0.010453934781253338,-0.39154645800590515,-0.06678777933120728,0.20379480719566345,-0.1971370130777359,-0.14687678217887878,0.5006330609321594,0.12631283700466156,0.2780485451221466,-0.07391505688428879,0.3924349844455719,0.10026920586824417,0.5596186518669128,-0.3563491702079773,0.03808596730232239,-0.13717393577098846,-0.1749395728111267,-0.010595148429274559,-0.1989498883485794,-0.221202552318573,0.22919753193855286,0.20025786757469177,-0.2520665228366852,-0.09973904490470886,-0.36849674582481384,-0.07213092595338821,-0.19600644707679749,0.25959599018096924,0.032596949487924576,0.4224993586540222,-0.11598639190196991,-0.5625511407852173,-0.030118361115455627,-0.36716049909591675,-0.3051862120628357,0.24986031651496887,0.12352033704519272,0.0959668681025505,0.019250739365816116,0.08558981865644455,-0.214805006980896,0.2964428663253784,-0.00898757204413414,-0.07576002180576324,0.03616873174905777,0.37229061126708984,0.2377898246049881,0.14057107269763947,-0.05880856513977051,0.06745555251836777,-0.1284438520669937,-0.39348602294921875,-0.11416147649288177,0.0704239085316658,-0.2795937657356262,0.2294348180294037,0.18172377347946167,0.13149045407772064,-0.15969383716583252,-0.33533233404159546,0.3729490637779236,0.3112071752548218,-0.3697679042816162,0.11157812178134918,0.05320057272911072,-0.24267974495887756,-0.027554919943213463,-0.6212669610977173,-0.04934563487768173,0.5782180428504944,-0.1392272710800171,-0.2662507891654968,0.6681003570556641,0.08518804609775543,-0.2075924575328827,0.3257066607475281,-0.42323848605155945,0.1773410439491272,-0.016056343913078308,-0.37727755308151245,0.12338020652532578,-0.5631642937660217,-0.24946339428424835,-0.29417848587036133,0.716598391532898,0.39073503017425537,-0.09537114948034286,0.03725346550345421,-0.04478507488965988,-0.26413801312446594,-0.13907772302627563,-0.3146437108516693,-0.1397581845521927,0.02881602942943573,-0.4169084131717682,0.13348543643951416,-0.18274439871311188,0.23559653759002686,0.1483391523361206,0.13327759504318237,-0.3562310039997101,0.021943610161542892,-0.21720555424690247,0.2045549750328064,0.024079201743006706,-0.08568861335515976,0.4629111588001251,0.1472700983285904,0.06954247504472733,-0.12466610968112946,-0.3647955060005188,0.0014094244688749313,0.35248416662216187,-0.16086019575595856,-0.22672846913337708,0.11713861674070358,0.13276158273220062,0.018653452396392822,-0.08157467097043991,0.23559638857841492,-0.21463643014431,-0.09181754291057587,0.011801686137914658,-0.2488006055355072,-0.24182355403900146,0.10229892283678055,-0.4141770899295807,0.12658604979515076,-0.01611422374844551,-0.07621602714061737,-0.5985356569290161,-0.37571248412132263,0.015829753130674362,-0.167149618268013,0.13707861304283142,0.13675375282764435,-0.2730245292186737,-0.09946811944246292,0.5955533385276794,-0.2855541706085205,0.2446635216474533,-0.006602532230317593,-0.2079996019601822,0.12021517008543015,-0.22621925175189972,0.23535850644111633,0.3325802683830261,-0.25639766454696655,-0.31927886605262756,0.06231360137462616,0.23417766392230988,-0.3863566219806671,-0.30527374148368835,0.14892955124378204,0.14206406474113464,0.44844698905944824,-0.24597641825675964,-0.22646568715572357,-0.2606281340122223,0.5596227049827576,0.4816972315311432,0.6790339350700378,0.27172884345054626,-0.030358891934156418,-0.5237551927566528,0.17931263148784637,0.06936074048280716,0.07864847779273987,-0.07555143535137177,-0.1029701828956604,-0.1787724792957306,0.13024300336837769,-0.012817300856113434,0.09654989838600159,-0.023835424333810806,-0.196724995970726,-0.20063114166259766,0.00017263693735003471,-0.00849851779639721,-0.11232026666402817,0.47925108671188354,-0.16531501710414886,-0.04857280105352402,-0.3645908534526825,-0.455828994512558,-0.5687192678451538,0.34252288937568665,-0.1274052858352661,-0.12675940990447998,-0.26881399750709534,-0.10085047781467438,0.19769109785556793,0.20776495337486267,0.2547718584537506,0.3587173521518707,0.25451159477233887,-0.07018590718507767,0.46222516894340515,-0.20231348276138306,0.6687251329421997,0.3848459720611572,-0.6231324672698975,-0.07888258993625641,-0.034687913954257965,-0.04636141285300255,-0.1982908397912979,0.5348889231681824,-0.19185227155685425,0.8144969940185547,-0.049436695873737335,-0.43739038705825806,-0.2234044224023819,-0.08814556151628494,0.2774837017059326,-0.0378158837556839,0.42280128598213196,-0.32526695728302,-0.05373292416334152,0.4383254051208496,0.24263304471969604,-0.1897563487291336,0.41215530037879944,-0.23203302919864655,0.033136770129203796,0.25339922308921814,0.1767289936542511,-0.3780335485935211,-0.5536032319068909,-0.03420363739132881,-0.15004979074001312,-0.1423596292734146,-0.03841757774353027,0.13238738477230072,-0.5697024464607239,-0.11366885155439377,0.5018302798271179,0.026713743805885315,0.3901451528072357,0.2520267367362976,-0.8273107409477234,-0.28566280007362366,-0.19023250043392181,0.22434711456298828,0.0723387598991394,0.03176392614841461,-0.22529146075248718,0.041632041335105896,-0.08263032883405685,-0.4037149250507355,-0.24562257528305054,0.12209853529930115,-0.08173367381095886,0.4905826151371002,0.3644118309020996,0.355655312538147,-0.02169809676706791,-0.10400427132844925,-0.27214235067367554,0.004394420422613621,0.06414959579706192,0.25057080388069153,0.5049344301223755,0.10808249562978745,0.00851493887603283,0.17165787518024445,-0.07865627855062485,-0.10415524244308472,0.7882464528083801,-0.27747559547424316,-0.07760724425315857,0.45277225971221924,-0.43965068459510803,-0.041886672377586365,-0.15353214740753174,0.1314673125743866,-0.07562586665153503,0.0683707520365715,-0.0018378198146820068,-0.12932449579238892,-0.5607977509498596,0.19899418950080872,0.2708355188369751,-0.3372702896595001,-0.24916353821754456,0.17393608391284943,-0.08158078789710999,-0.7464263439178467,-0.16254696249961853,0.3311263620853424,0.250069797039032,0.452017217874527,-0.11298290640115738,-0.3025217354297638,0.17203687131404877,0.20815734565258026,0.014813859015703201,0.38084760308265686,0.16862882673740387,-0.3066173195838928,-0.34971800446510315,-0.3751130700111389,0.129601389169693,0.5627914071083069,0.3708839416503906,-0.20336943864822388,-0.031688835471868515,-0.02826152741909027,0.39860427379608154,0.2135569006204605,-0.10098548233509064,-0.03365149721503258,-0.03220001608133316,0.09296959638595581,-0.02189994975924492,0.058692969381809235,0.08240373432636261,-0.20322507619857788,0.1568407416343689,-0.17978915572166443,0.2834470570087433,0.1427379548549652,-0.10652673244476318,0.1562095731496811,0.34133732318878174,-0.36719638109207153,-0.20267616212368011,0.47018083930015564,-0.27082377672195435,-0.03989347070455551,0.5857645273208618,0.03655249625444412,0.1582326591014862,-0.3850347697734833,-0.27399834990501404,-0.030969344079494476,0.008042445406317711,0.2067696899175644,-0.40652430057525635,0.5534497499465942,0.5506396293640137,-0.06358170509338379,-0.10260277986526489,0.39497458934783936,-0.641362190246582,-0.12382292747497559,0.43176528811454773,0.3008180260658264,0.24821585416793823,0.4830600917339325,-0.08413901925086975,0.2336539924144745,0.29504144191741943,-0.012541379779577255,-0.16673661768436432,0.009543037042021751,-0.09451410919427872,-0.30014827847480774,0.33631205558776855,0.009518709033727646,0.4078640341758728,-0.6547990441322327,0.26578590273857117,-0.0592062845826149,-0.3887345492839813,-0.11339995265007019,0.3610299229621887,-0.028940536081790924,0.18226377665996552,0.16490116715431213,-0.39895230531692505,0.13367675244808197,0.08001373708248138,0.5429673790931702,0.0263654887676239,-0.018181130290031433,-0.04766877368092537,-0.07457087934017181,-0.030460070818662643,-0.2709943652153015,-0.09071056544780731,0.0883241668343544,0.6480268239974976,-0.07248589396476746,0.23910747468471527,0.1846749633550644,-0.2511160373687744,0.4334392845630646,-0.4337112605571747,-0.16100558638572693,0.10781414806842804,0.026404092088341713,-0.2271871566772461,-0.04596792161464691,-0.2564273178577423,0.3910660147666931,-0.40195509791374207,-0.11156058311462402,-0.6491128206253052,-0.3740905523300171,-0.43462565541267395,0.02040034718811512,-0.14368806779384613,0.1889711171388626,0.0499357245862484,0.2763114869594574,0.04328100383281708,-0.06201130896806717,0.13975834846496582,-0.1514376699924469,-0.3711864948272705,-0.3263387978076935,-0.11701680719852448,0.1988554149866104,-0.11988828331232071,0.11451384425163269,-0.47964781522750854,0.18755842745304108,-0.2957938015460968,0.05106021463871002,0.5912142992019653,0.17635270953178406,-0.22141583263874054,-0.6095843315124512,0.14354713261127472,-0.006661748513579369,0.24668318033218384,0.04894541949033737,0.05563496798276901,-0.06123453378677368,-0.0337534099817276,-0.111497662961483,-0.07840844243764877,-0.17730022966861725,-0.17585137486457825,0.36429017782211304,0.4888630509376526,-0.8472253084182739,0.366321325302124,0.15751875936985016,0.0034974063746631145,0.1606236696243286,-0.4062899947166443,0.06328210234642029,0.024184750393033028,-0.1779109388589859,-0.1513873040676117,0.14708960056304932,-0.021621868014335632,0.4597463607788086,-0.0038033723831176758,-0.5654193162918091,0.387463241815567,-0.17219674587249756,0.2654343545436859,-0.21107754111289978,-0.4903205335140228,0.16903719305992126,0.17576438188552856,-0.3174395263195038,0.1324903517961502,0.6026435494422913,0.52286696434021,0.46551257371902466,0.14528682827949524,0.25419044494628906,-0.10370232164859772,0.09632471948862076,0.13066783547401428,-0.3507213890552521,0.12726692855358124,0.23308420181274414,0.02411133050918579,-0.11690299957990646,0.08583254367113113,-0.4135112166404724,-0.21349649131298065,-0.01938251033425331,-0.05979723110795021,-0.05548558756709099,0.4720860719680786,0.42447227239608765,-0.020906228572130203,0.18663552403450012,-0.665134608745575,-0.22335056960582733,-0.028467103838920593,0.4701100289821625,-0.053676072508096695,0.2300947904586792,-0.07718756049871445,0.07200469076633453,0.025716010481119156,-0.39618682861328125,-0.0786275565624237,-0.21187317371368408,0.2754277288913727,0.02278931811451912,0.160919189453125,-0.2152225524187088,-0.19012370705604553,-0.5073872804641724,0.42426419258117676,0.06499838829040527,0.5666656494140625,0.9641997814178467,-0.2113502025604248,-0.42863526940345764,-0.31951454281806946,-0.046390727162361145,-0.4247741997241974,0.24688133597373962,-0.44173482060432434,-0.28764867782592773,-0.2001337707042694,0.15693910419940948,-0.16890820860862732,-0.33949869871139526,0.4614863693714142,-0.09836675971746445,-0.1441929042339325,-0.060675665736198425,-0.6987190246582031,0.3818887770175934,-0.33091065287590027,-0.04452480748295784,0.07184357196092606,-0.28559261560440063,-0.014466524124145508,-0.16521935164928436,-0.028913546353578568,-0.21578510105609894,-0.010873060673475266,0.17969585955142975,-0.022290099412202835,0.6041455268859863,-0.2878696322441101,0.5844452977180481,0.2700662910938263,0.24636298418045044,0.1259496957063675,-0.12645526230335236,-0.25993987917900085,-0.6576027870178223,0.2602473497390747,-0.042509011924266815,-0.435464471578598,-0.18456056714057922,-0.24548839032649994,-0.13788221776485443,0.18386518955230713,-0.5312661528587341,0.19067248702049255,0.02666199579834938,-0.0019483165815472603,0.05486466363072395,-0.4334276020526886,-0.04286476597189903,-0.15903955698013306,0.11069060117006302,0.21548797190189362,-0.12152723968029022,0.24827568233013153,-0.015377333387732506,0.3474482595920563,-0.5472103953361511,0.4150460362434387,0.1558111160993576,-0.21988117694854736,-1.1505323648452759,0.2329595535993576,-0.30493029952049255,0.23250915110111237,0.17659689486026764,-0.0914439707994461,-0.19719715416431427,-0.31669551134109497,-0.2492799013853073,-0.02128358744084835,0.12356767803430557,-0.4707223176956177,0.24601298570632935,-0.693415641784668,0.03701045736670494,-0.4387679696083069,0.06881870329380035,-0.02884678915143013,0.25148412585258484,0.10388748347759247,-0.18389944732189178,-0.12300488352775574,-0.3776450455188751,-0.510810136795044,0.060150012373924255,-0.6261504888534546,-0.14383552968502045,-0.2886212468147278,0.0343191921710968,-0.2932130992412567,-0.16872146725654602,0.05221647396683693,0.0010855458676815033,-0.1400347650051117,0.31395670771598816,0.12813447415828705,0.3188234567642212,-0.06592390686273575,-0.46175798773765564,0.2084130197763443,-0.4000721573829651,0.02320997044444084,0.16259732842445374,-0.06636460870504379,0.20564378798007965,0.04467301443219185,0.13490788638591766,-0.09395627677440643,-0.08739547431468964,0.11954867094755173,-0.11608125269412994,0.20593330264091492,0.02758672833442688,-0.11932487040758133,-0.11321349442005157,0.05695337802171707,-0.3196951448917389,0.35102784633636475,0.0743708610534668,-0.002459813840687275,0.30381619930267334,-0.19307595491409302,0.3574247360229492,-0.22939960658550262,-0.5228782892227173,0.05101494491100311,-0.4962410032749176,-0.4215776026248932,-0.24040386080741882,-0.35134750604629517,-0.018570780754089355,-0.12053554505109787,-0.2266594022512436,-0.3082670271396637,0.33922410011291504,0.09561723470687866,-0.34669265151023865,-0.025500480085611343,-0.010028809309005737,0.10201152414083481,-0.314130574464798,-0.3007425367832184,0.11614634841680527,-0.21100620925426483,0.11295083165168762,-0.7579018473625183,-0.3887495994567871,0.11188245564699173,-0.2867690324783325,0.13776347041130066,-0.034650109708309174,-0.5738859176635742,0.08339796960353851,0.3356035351753235,-0.360039621591568,0.10369226336479187,-0.7441257238388062,-0.14278334379196167,-0.10459936410188675,-0.0635748952627182,-0.3769705593585968,0.020781423896551132,-0.40798696875572205,0.29713118076324463,-0.48987069725990295,-0.5189409255981445,0.012618456035852432,0.13669133186340332,-0.2750318646430969,-0.04015839844942093,-0.48064133524894714,-0.29628869891166687,0.23433628678321838,-0.07954433560371399,-0.22508569061756134,-0.33104753494262695,-0.12698078155517578,0.22875536978244781,-0.20563842356204987,-0.1503804326057434,-0.20842760801315308,0.043688081204891205,0.2343028485774994,-0.021481074392795563,0.16268178820610046,-0.15377262234687805,0.3473165035247803,0.05931727588176727,0.30373436212539673,0.6860817670822144,0.5993191003799438,0.13605977594852448,0.10437853634357452,0.3625582158565521,0.22142615914344788,-0.11825811117887497,-0.2908318042755127,-0.2579239010810852,-0.022958960384130478,-0.5907115936279297,-0.13856512308120728,0.24059751629829407,0.17891256511211395,0.012900392524898052,-0.16054464876651764,-0.023996762931346893,-0.2163049578666687,0.6270715594291687,-0.280447393655777,-0.27272915840148926,-0.05328615754842758,-0.186332106590271,0.633164644241333,-0.4914363622665405,-0.7573977112770081,-0.5977944135665894,0.1083708181977272,-0.34157228469848633,0.31037279963493347,-0.6041814088821411,0.12866085767745972,0.3209262788295746,0.32670357823371887,-0.03132042661309242,-0.02408379316329956,0.11281958222389221,0.08469156920909882,-0.16724783182144165,-0.4281409978866577,0.24239112436771393,0.2060546725988388,-0.05684453248977661,0.623549222946167,-0.30043265223503113,-0.05066009610891342,-0.42454320192337036,0.0975259393453598,0.08852644264698029,-0.003607567399740219,-0.8061143755912781,0.22039225697517395,-0.21964797377586365,0.5627440810203552,-0.14538797736167908,-0.04595186561346054,-0.3505556583404541,-0.21851089596748352,-0.14092513918876648,-0.15540187060832977,0.05180767551064491,-0.5321364402770996,-0.21316051483154297,0.09131981432437897,0.20901291072368622,-0.7276924252510071,0.5614613890647888,0.04241648316383362,-0.18987642228603363,0.0965372771024704,-0.46709153056144714,0.011627115309238434,-0.04271052032709122,-0.17535383999347687,-0.34242114424705505,-0.007154499180614948,0.06039007753133774,0.12642259895801544,-0.4405425786972046,0.22516463696956635,0.009007882326841354,0.42918309569358826,0.056701645255088806,0.6570571660995483,-0.4102340042591095,-0.045444849878549576,0.051858872175216675,-0.310691773891449,0.14588600397109985,-0.2713150084018707,-0.043606746941804886,-0.20477455854415894,-0.16336597502231598,0.19914081692695618,0.2676858603954315,0.2785910367965698,-0.4292409121990204,0.03071686252951622,0.29265791177749634,0.050793569535017014,-0.40077486634254456,-0.29320159554481506,-0.38819774985313416,-0.030316315591335297,0.292712926864624,-0.15623638033866882,-0.22162799537181854,-0.22912105917930603,-0.18871013820171356,-0.006060093641281128,-0.03513834625482559,0.564234733581543,-0.025799624621868134,-0.5791976451873779,-0.4039824903011322,0.30822640657424927,0.6324387788772583,-0.2811935842037201,0.4840989410877228,0.08789719641208649,-0.1598992496728897,-0.06952641904354095,0.3819662928581238,0.23439322412014008,-0.07747139781713486,-0.06794317811727524,