question-id,0,1,2,3,4,5,6,7,8,9,10,11,12,13,14,15,16,17,18,19,20,21,22,23,24,25,26,27,28,29,30,31,32,33,34,35,36,37,38,39,40,41,42,43,44,45,46,47,48,49,50,51,52,53,54,55,56,57,58,59,60,61,62,63,64,65,66,67,68,69,70,71,72,73,74,75,76,77,78,79,80,81,82,83,84,85,86,87,88,89,90,91,92,93,94,95,96,97,98,99,100,101,102,103,104,105,106,107,108,109,110,111,112,113,114,115,116,117,118,119,120,121,122,123,124,125,126,127,128,129,130,131,132,133,134,135,136,137,138,139,140,141,142,143,144,145,146,147,148,149,150,151,152,153,154,155,156,157,158,159,160,161,162,163,164,165,166,167,168,169,170,171,172,173,174,175,176,177,178,179,180,181,182,183,184,185,186,187,188,189,190,191,192,193,194,195,196,197,198,199,200,201,202,203,204,205,206,207,208,209,210,211,212,213,214,215,216,217,218,219,220,221,222,223,224,225,226,227,228,229,230,231,232,233,234,235,236,237,238,239,240,241,242,243,244,245,246,247,248,249,250,251,252,253,254,255,256,257,258,259,260,261,262,263,264,265,266,267,268,269,270,271,272,273,274,275,276,277,278,279,280,281,282,283,284,285,286,287,288,289,290,291,292,293,294,295,296,297,298,299,300,301,302,303,304,305,306,307,308,309,310,311,312,313,314,315,316,317,318,319,320,321,322,323,324,325,326,327,328,329,330,331,332,333,334,335,336,337,338,339,340,341,342,343,344,345,346,347,348,349,350,351,352,353,354,355,356,357,358,359,360,361,362,363,364,365,366,367,368,369,370,371,372,373,374,375,376,377,378,379,380,381,382,383,384,385,386,387,388,389,390,391,392,393,394,395,396,397,398,399,400,401,402,403,404,405,406,407,408,409,410,411,412,413,414,415,416,417,418,419,420,421,422,423,424,425,426,427,428,429,430,431,432,433,434,435,436,437,438,439,440,441,442,443,444,445,446,447,448,449,450,451,452,453,454,455,456,457,458,459,460,461,462,463,464,465,466,467,468,469,470,471,472,473,474,475,476,477,478,479,480,481,482,483,484,485,486,487,488,489,490,491,492,493,494,495,496,497,498,499,500,501,502,503,504,505,506,507,508,509,510,511,512,513,514,515,516,517,518,519,520,521,522,523,524,525,526,527,528,529,530,531,532,533,534,535,536,537,538,539,540,541,542,543,544,545,546,547,548,549,550,551,552,553,554,555,556,557,558,559,560,561,562,563,564,565,566,567,568,569,570,571,572,573,574,575,576,577,578,579,580,581,582,583,584,585,586,587,588,589,590,591,592,593,594,595,596,597,598,599,600,601,602,603,604,605,606,607,608,609,610,611,612,613,614,615,616,617,618,619,620,621,622,623,624,625,626,627,628,629,630,631,632,633,634,635,636,637,638,639,640,641,642,643,644,645,646,647,648,649,650,651,652,653,654,655,656,657,658,659,660,661,662,663,664,665,666,667,668,669,670,671,672,673,674,675,676,677,678,679,680,681,682,683,684,685,686,687,688,689,690,691,692,693,694,695,696,697,698,699,700,701,702,703,704,705,706,707,708,709,710,711,712,713,714,715,716,717,718,719,720,721,722,723,724,725,726,727,728,729,730,731,732,733,734,735,736,737,738,739,740,741,742,743,744,745,746,747,748,749,750,751,752,753,754,755,756,757,758,759,760,761,762,763,764,765,766,767,768,769,770,771,772,773,774,775,776,777,778,779,780,781,782,783,784,785,786,787,788,789,790,791,792,793,794,795,796,797,798,799,800,801,802,803,804,805,806,807,808,809,810,811,812,813,814,815,816,817,818,819,820,821,822,823,824,825,826,827,828,829,830,831,832,833,834,835,836,837,838,839,840,841,842,843,844,845,846,847,848,849,850,851,852,853,854,855,856,857,858,859,860,861,862,863,864,865,866,867,868,869,870,871,872,873,874,875,876,877,878,879,880,881,882,883,884,885,886,887,888,889,890,891,892,893,894,895,896,897,898,899,900,901,902,903,904,905,906,907,908,909,910,911,912,913,914,915,916,917,918,919,920,921,922,923,924,925,926,927,928,929,930,931,932,933,934,935,936,937,938,939,940,941,942,943,944,945,946,947,948,949,950,951,952,953,954,955,956,957,958,959,960,961,962,963,964,965,966,967,968,969,970,971,972,973,974,975,976,977,978,979,980,981,982,983,984,985,986,987,988,989,990,991,992,993,994,995,996,997,998,999,1000,1001,1002,1003,1004,1005,1006,1007,1008,1009,1010,1011,1012,1013,1014,1015,1016,1017,1018,1019,1020,1021,1022,1023
A1,-0.38023582,0.1432266,-0.99384826,-1.0171796,0.5906369,-1.4475925,-1.0194762,-0.38619533,-1.2612238,-1.3075634,-0.8551623,0.79660785,-1.4285687,0.51332444,-0.32457912,-0.4735146,-0.5327237,-0.32535604,-0.39271262,1.023244,-0.92938375,-1.6654732,-1.2260519,0.26076126,-1.4625641,0.36309242,0.14549616,0.18034935,0.33380875,-1.8463036,-0.99919146,-0.29304603,1.1973364,0.804767,-0.23949443,-0.6794319,0.21327722,0.31664848,-1.7173097,-0.6269065,-0.4687381,0.2963067,1.9087498,-1.0765889,0.36577561,-1.3463205,-1.6213974,0.8340466,0.40901062,-0.56458956,-0.6286749,-0.7223648,0.071260214,-1.2683866,1.6683192,-0.9498801,0.82033205,0.68481046,-0.6071923,1.2147331,0.6453234,0.9923235,-0.48209837,0.19969553,0.38335982,-0.08063005,-2.3230124,0.6359155,-0.6238394,0.042236365,0.4571941,-0.20436779,0.5348664,-2.3006124,0.8830493,0.22325486,1.0411282,-0.10690077,-0.42215958,0.13561428,0.82674414,-0.061239943,-1.320605,0.15627731,-0.5610627,-1.2034205,-0.6301938,-0.14629649,-1.1543983,-1.2204705,1.0544882,-0.4705271,-0.6244133,-1.0373898,0.2988971,0.49350947,0.28458273,-0.04466553,-0.8518073,-0.63588655,-0.53714764,-0.37923717,0.8207973,-1.0583081,0.06725584,-0.16599065,-1.2507671,-0.95037067,1.4051205,-0.19966006,1.36467,0.27825105,0.109253265,1.1341338,0.12723453,0.11774794,-0.57284856,-1.9522712,2.0013402,0.2719199,-0.07121946,0.052395426,-0.21685232,1.3804622,0.4628715,-0.8954135,0.09645587,0.63929975,1.3002577,-0.88411397,-0.1362795,-0.43890142,-0.43844995,0.3807482,-0.7317682,-0.40654358,0.23831598,-0.9554503,-0.055359747,-0.659996,-0.9080839,-0.7672155,-0.10147441,1.5497181,0.16203615,0.34378916,1.0877538,0.3364006,-0.81374204,0.5412882,-0.5512076,-0.14317119,-1.3485488,-0.05251746,-1.2198682,0.18788747,-0.53581387,-0.7747581,1.5201348,0.6682019,-0.38553077,-0.24332201,-0.7804308,1.010805,-0.6891734,0.054154254,1.1725786,-1.283464,0.27023363,0.42144448,1.5557104,0.30417025,0.4546146,0.47039518,-0.51289564,-1.0571909,-0.5804714,-0.20153642,0.6027475,0.3055441,0.19340889,-0.6113357,1.3459532,-0.22407216,-0.123981446,-0.08158059,0.9715681,1.4828615,-1.358903,-0.73950225,-0.0010897983,0.06648064,-0.094498396,0.8633933,1.3738576,0.5845322,-0.035857663,1.7455882,0.5268914,0.40025592,1.2654928,-0.18965691,-1.4308717,-0.17887653,-0.10659465,1.2490184,-0.6932699,-0.46191654,-0.611498,-2.201323,2.496353,-0.94648886,-0.59277445,0.7317167,-0.024497258,-0.1695039,0.42536032,0.07139058,0.017480213,0.7217686,-0.17564088,0.040350117,-0.027158212,0.6994306,-0.7763482,1.4490223,-0.51133835,-0.97628707,-0.5284372,-1.0990882,0.08914929,-1.5545344,-2.3043742,-1.652847,1.0249974,-1.2234762,0.44884047,0.78691435,-0.9079173,-0.5283166,-0.27160946,0.86885,-0.34742552,-0.18426009,-1.2634915,2.1481645,0.07949932,0.69866043,0.22328885,0.6325473,-0.7711822,-1.8724957,-0.0654004,0.3928226,-0.023400381,-0.0026793927,1.1214519,0.7979009,0.009217799,0.020615032,0.7146182,0.14454721,-0.2387999,0.25120008,0.48556688,1.7541759,-1.114918,0.7913641,-0.2533578,0.9554695,0.24640149,-0.95075345,1.0309113,-1.4545966,-0.58462006,-0.56462276,0.15210916,-1.0836922,-1.1071577,0.4198841,0.76881284,-0.77500474,-0.5991188,0.0028425343,-0.598038,-0.21471155,1.703196,0.47293174,-0.5317035,-0.59031624,1.5333629,0.38759667,-0.20262736,-0.4988887,1.1368976,1.0415658,-0.3942211,0.5816509,0.8670302,1.1740364,-0.13746679,-0.4530272,0.021768874,-2.2697072,0.019744486,-0.59282726,0.61241347,0.2544707,-0.62462807,0.45834482,-0.27986547,-0.83025926,1.5059862,0.38462812,-0.5513735,-2.011625,0.13114825,0.44417682,-0.044468965,-1.9816359,-0.26155606,1.4092414,-0.23922758,0.5048471,-0.015307434,0.6006958,-0.2601618,-0.07041132,-0.9138297,0.96615183,-0.4049334,-0.13602933,0.28985432,0.9275238,0.571985,-0.8574078,-0.31819576,0.10302449,0.9631469,-0.7760509,1.1413219,-1.2732897,1.8705742,-0.74899256,-1.0672377,-1.0928025,0.62586755,0.365785,1.3836285,0.44915572,2.519085,0.17973958,0.3895211,1.3528879,-0.71095854,0.45720834,-0.732447,0.15685712,-1.0289701,-1.0135492,-0.08772813,0.3618078,-0.9775954,-1.1767243,2.0062873,-0.37021577,1.8952552,-1.156679,-0.42443424,-0.34665382,0.73142457,0.4727633,0.7378916,0.031787544,0.55969524,-0.4178971,1.5897762,-1.0047398,0.45702383,-0.026218982,0.18695441,0.37034848,-0.5408374,-0.40888935,-0.27748877,2.3411644,0.31087106,0.63142526,-1.6459082,-0.8067117,1.088619,-0.6223978,1.3027608,1.298846,-0.18938081,-0.04186838,1.011518,-0.98830175,-0.3869422,-0.19558239,0.45772964,-0.6560275,-0.1674055,0.06258695,0.069325015,-0.3872275,0.1348711,-2.215365,-1.0067791,0.3762303,1.0206513,0.120760955,-0.104211256,-0.35126463,0.64051026,-0.5339439,0.23548223,-0.50250995,-2.1666844,0.11655557,-0.56458974,0.94057137,-0.9221578,-0.2425952,-1.4313147,0.20129628,1.9189502,-0.7578579,0.47485235,1.4231224,-0.35947528,-0.36914372,-1.3992503,-0.1683543,-0.5953327,0.937518,1.0567192,0.092026465,0.9978306,-0.55934715,0.26863453,-1.6290574,0.038436092,-0.1870578,-0.28106046,0.3020658,0.8907075,0.23869963,-0.6803723,0.06345312,0.39441302,0.26832372,-1.4246817,-1.1451783,-1.0181451,-0.09928086,-0.38677892,0.21265583,1.3194487,-0.4334957,0.02803345,-1.1249897,-0.21953724,0.62639993,1.5137364,-1.1799709,-0.30931646,0.58354896,0.5527542,-1.8930937,0.5486214,-0.43281206,-0.20581079,-1.1235539,0.4831124,-0.70562243,0.76871926,0.42210585,-0.99996316,-1.8414074,0.30146676,-0.056294568,0.93848073,0.8990223,0.1953602,1.361425,-0.08417429,0.6984119,0.625749,-1.6577909,-0.6598311,-0.5114903,0.54064053,-0.7063198,-0.12820145,1.127804,0.43261653,-0.3311282,-0.18611352,0.8901515,0.06574306,0.9820578,0.8581784,0.23836522,-1.0029535,0.2978296,0.2294625,1.5145447,-2.6211298,0.40680197,-0.17882237,0.93869585,-0.3161227,-0.770815,-0.7629108,-0.2277562,0.9031767,1.4137392,-1.3896385,-0.6172555,-0.53625965,0.21982794,-0.47260782,-1.8931617,-0.24989623,-1.0101244,-0.98591816,0.4222124,-1.0381837,0.45774937,0.263906,0.80320877,-0.13626188,0.22155257,-0.033192076,0.1855865,-0.68887234,0.38858533,-0.35139915,-0.021736976,0.11516608,0.9822874,0.36834782,0.98201007,0.23513873,-0.08257589,1.579956,0.71125406,-1.625652,-1.8310665,0.6817586,-0.13504475,-1.2206287,0.06702806,0.6121738,-0.015441158,-0.23140839,-1.2007219,0.7503419,0.43125692,-1.6679404,-1.3253472,-1.3237973,-0.30451825,0.5378084,0.031646468,-2.0628302,0.5421987,0.92534524,0.22290382,-0.16043071,-1.7451307,-0.41600943,-1.5772451,-0.4642009,0.09375729,-0.4738585,-0.28151387,0.705558,-1.2910419,0.16632856,-0.9351287,-0.5481856,1.3271729,-1.2871691,0.4100953,0.1450845,0.34427112,-0.7657036,-0.48716494,0.06844884,1.1720704,-0.5072525,0.44031665,0.33741468,-0.09076422,0.11402264,0.94160545,-1.9734752,0.46434796,-0.56934214,1.0365845,-0.32624677,1.5181197,1.4682523,-0.8784005,1.0063777,0.23050037,-0.6142081,1.1623875,-0.4809213,-0.018584164,-1.0740815,-0.00848796,-0.8092155,0.5169924,-0.08496847,-0.55553114,0.10100591,0.6544521,0.19875012,-2.087714,-0.88075393,1.0055674,-0.16022491,1.0858785,-0.05986739,-1.0593807,-0.0065651424,-0.637321,0.80553067,2.6987052,-0.092584535,0.4847953,1.5593832,-0.1499181,1.2336309,0.46441796,1.3926933,-0.27710927,-0.76412404,-0.041350447,0.03573307,-1.0063787,0.35597712,0.35206556,-0.56375706,-0.10004369,-1.1270077,-1.5258498,0.8712377,0.008052178,-1.0864583,-0.6402758,0.33823165,0.064165816,0.14542253,0.9380901,-1.7971375,1.7208127,-0.5427142,0.833617,-0.49057424,0.6109588,-0.09801551,0.169491,-1.5727775,0.7281693,-0.9530859,0.4404257,0.7636908,-0.3411763,-0.4349339,0.31422147,-0.27757895,0.18320969,0.10031674,0.8512804,-1.0030271,-0.0768162,-1.2836623,0.14851986,0.028215453,-0.790851,-0.62842166,0.07260375,0.6677519,-0.006880449,-0.7408928,-0.4333974,-0.12583987,-1.5485278,-1.0178483,-2.1166549,0.310949,0.35765654,-1.601742,-0.69765586,1.3221684,0.94557965,3.0789516,0.27197486,-0.56921434,-2.8800855,-0.06242651,0.115865275,0.14789568,-1.0938014,-1.7848909,-1.135378,1.6921055,1.4714837,0.4434994,-0.6214478,-0.15647994,0.27233723,0.7222161,0.5382294,-0.893521,0.743456,0.95083445,0.0498849,0.4882047,1.1035961,-0.25807795,-0.9896594,1.2549403,1.4639919,-0.34677193,1.6163862,1.1845912,0.20953622,-0.4598179,-1.3501116,0.07326018,0.7343026,-0.3036826,-0.07390524,0.23478153,-0.86034805,0.7539243,1.0282428,0.014817542,-0.21400122,0.9734707,0.9363852,0.39768443,-0.82287467,-0.6960134,0.08130834,-0.8362878,-0.67840093,0.9250901,-0.7518229,-0.7084359,0.3055321,-0.09567721,-1.0716765,0.72066426,-0.48843905,0.38257182,-0.05777185,-0.5481309,-1.3220876,-1.1006728,-0.8677956,0.027649917,-1.904321,0.44881192,0.10935599,-1.3675443,0.42178026,-0.7116252,-0.91855425,-1.0578349,1.0269637,-0.21020524,0.0455598,-0.34722856,1.3951119,-1.0622784,0.7551153,1.2036747,0.005692553,0.615854,-0.089278705,1.3361126,0.023391437,-1.5467772,-0.099426374,0.1721277,-0.8623051,1.423496,1.343744,0.11948551,-1.0915166,-0.115340665,-1.0285536,0.08117563,1.6128443,-0.17217794,-0.54535556,0.79401183,0.30467597,-0.15088491,0.23718458,0.03580896,-1.0087045,-0.61663175,1.2675201,-0.7475487,0.70178777,0.79870504,-0.94854754,1.2481749,0.9115376,-2.3798409,0.8355823,0.5933927,1.2792916,0.55083174,0.7933797,-0.48863506,1.7986554,-1.3965101,1.0136862,-0.38176093,1.1528533,-1.2522615,-0.80133367,1.0197958,-0.07514069,-0.56625336,0.11858017,-0.40927556,-1.3529887,-0.830769,0.6168829,1.0783477,-0.024460021,1.0254066,-1.233185,0.3102144,0.84762436,0.6105511,1.0875854,-1.2095306,1.0746284,0.7141208,-0.11550759,-1.3702652,-0.09644981,-0.16583148,0.6936414,-0.018646006,0.33657718,-0.7179968,-0.10610323,-0.7705867,0.64708,0.67041177,-0.37315887,-0.7556044,0.0109785795,0.57278365,-0.31528506,0.33410963,-0.29753608,-0.4751409,1.6685593,0.27454674,-0.10677665,-0.45269936,-0.43286565,-0.43717027,-0.029996496,0.5666125,-0.25976697,1.0108287,-1.6812165,0.13528638,0.07618084,1.9032122,1.2240494,-0.11224846,0.76564026,0.13526972,-1.4728934,-0.16647069,-0.2727686,-0.5246942,1.1887295,-0.22046775,0.32509768,-1.1652135,0.6944383,0.13254528,0.31510115,-0.728284,1.2308898,-0.39245605,-0.5314467,-1.0690465,-0.031282984,-0.85587037,-1.6202356,-1.3940147,-0.61213756,1.6137551,0.8874556,-0.7518876,-0.72962743,0.8409795,-0.16013375,0.25259858,-0.72844625,0.979118,2.012734,0.23896319,0.5867302,-0.6359001,0.4640913,-0.27631694,-0.2668964,0.8148821,0.792382,2.0335302,0.2098923,2.2113106,-0.10941492,-0.03537489,-1.1288627,0.07383294,0.39437217,-0.112184376,-1.0035944,-0.68138766,0.16098942,-0.6257112,0.5217643,0.6475502,-0.21818003,0.096135244,-2.1431918,-0.7052599,-0.01433135,-1.6892065,0.31424522,0.14963928,-0.6172313,1.0800066,0.012212567,0.5861347,-0.50622666,0.22385928,1.1967936,0.06771502,0.6404402,-0.5760674,-0.24518365,0.61435527,0.012465414,1.4831241,1.2041671,-0.005628668,-1.4082271,-0.5528021,-0.12493757,0.684738,-0.14834584,0.045619432,-0.2137307,-1.1911476,-0.04628731,-1.6608703,0.6480138,2.9776144,-2.331522,-0.2569214,1.0078762,-0.77816075,-1.0498543,-0.051033728,0.82680595,1.2196544,1.0875717,0.38713083,0.041150585,-1.4399112,0.712944,-0.105865896,-0.6264799,-0.76313686,-0.33350727,0.3979096,0.13626231,-0.5900393,0.83749837,0.7577521,-0.3700389,-0.40479258,-0.09206043,-1.6667273,-0.6647786,1.2300942,-0.18967308,2.5319543,-0.5949689,1.2823722,-0.8076886,0.12708041,-0.51253104,-0.18221676,0.7059057,0.05943003,0.07374067,-0.72703594,0.80552274,-0.89569604,0.57109153,-1.018846,0.80634826,0.4880513,0.7391287
A2,-0.79947007,1.2335727,-0.5413273,-0.43392944,0.34775072,0.20820539,-1.0990083,1.12199,0.11941116,-0.27310494,-0.7000357,-0.41994053,1.226348,0.6860204,-1.0234091,-0.85564464,-0.7672413,0.093635604,0.90296346,-0.36481795,0.8734612,-1.0699929,0.07306986,0.83584654,-0.25571933,0.21259378,-0.4198859,-0.8334633,-0.14763938,-0.22779141,-1.3235605,0.65770817,0.088656805,1.1349148,0.13483989,-1.4248161,-0.8945418,0.60731345,-0.700307,0.8185181,-1.1228772,-0.48634666,1.2593833,0.43059164,-0.40540951,-0.07150472,-0.7510389,-0.49375203,-0.020219127,-0.42821518,-0.117484026,-0.77918875,0.22317946,-1.208515,0.102612145,0.19642375,0.6135287,-0.8691433,0.069158256,-0.5115819,-0.4544554,-0.14203048,0.20496602,-0.98385686,0.58170336,0.3133298,-1.1316214,-0.28699717,-0.41029596,-0.33382198,0.21300054,0.9702106,1.1157333,-0.29549724,-0.173566,-0.88199145,0.24509172,0.31063268,-0.898702,-1.1785938,0.73934644,0.43460995,-1.0133208,-0.14087856,0.35961673,0.521491,-0.41571766,-1.4037269,-1.1897513e-05,-1.3401939,0.90583736,0.2753013,-1.1478631,-1.5800866,0.05749909,-0.089653544,-0.7694169,-1.5457503,0.63116187,-2.054757,-0.9279093,0.872345,0.7928938,-0.41035193,1.9771404,-0.8018225,-0.5458854,-1.8157406,-0.06261096,-0.007187426,0.9913081,-0.33903632,0.2941084,0.1395699,0.9881585,0.12013912,-0.057016604,-1.4080322,1.4692488,-0.10039236,0.43316406,0.5825096,0.81133354,0.6441403,0.64695317,-0.31417224,0.68212074,-0.19733159,1.2576572,-0.30063567,-0.0115585495,-0.7708559,0.55095845,0.41009027,-1.6150213,-0.6934749,0.77473557,0.41009706,-0.95060647,-1.375886,-0.11588012,0.68849295,0.6979957,1.8111011,0.8354294,0.9809795,1.2990291,-0.976201,0.101083174,0.6552388,-0.01799114,-0.053938676,-0.958662,0.39142114,-1.1155053,0.24393956,-0.99611396,-1.0128537,0.447222,0.21759717,-0.55705416,-0.6141308,-0.597743,0.5178134,-0.71337074,0.6375013,1.1041085,-0.4378802,0.21382275,0.08397342,0.41368002,1.7671529,-0.14969958,-0.34376028,-0.7030366,-0.33178872,0.47390774,-0.9214336,-0.3076432,-0.2685704,1.0135744,-0.2769743,0.18223159,0.74941725,-0.16925992,-0.639484,1.4317636,0.36290553,0.5728227,-1.1239828,-0.26168054,-1.3591766,0.30152717,1.6867627,-0.50541204,0.40802455,0.53226984,1.3450581,0.8912818,-1.5304663,0.18191934,0.30702457,0.18677601,-0.038112022,-0.32270193,2.0351589,0.7083906,-0.5343595,-0.15008135,-0.3764189,2.3621175,0.70010704,-1.0960038,1.873612,-0.70842564,0.3664375,0.56601334,-0.2945182,-0.38841864,-0.10385927,0.3761153,0.53412485,0.5229919,-0.06293486,0.22544612,2.0136542,-0.4732042,-0.53779286,0.30866912,-0.18105604,0.46288058,-0.95786506,-0.9045616,-1.0162187,-0.95047534,0.0042837346,0.4848905,0.97158164,-0.14561138,-0.021676105,0.20402893,-0.36966538,-1.8355893,-0.66486114,-0.90843815,1.2799962,-0.6955032,0.62346065,-0.27387568,-1.4002607,-0.5566521,-1.7313194,0.21009038,1.1068188,0.9524476,-0.060908165,1.125422,-0.45383173,0.0944522,-0.95730925,0.2480021,0.96592283,-0.07325602,-0.86579233,1.631903,1.4378775,-0.7401987,-1.4539,-0.14195745,0.0709537,1.0311477,-0.5289665,-2.1195314,-1.8922112,-0.6648535,-0.6976204,1.2517027,0.48656464,-0.115867846,0.41422224,0.42203864,0.9702824,-1.7848338,-0.09752346,-0.8490404,-0.08898754,-0.6549466,1.6044861,-0.70636326,0.115377106,-0.20052607,-0.14195497,-0.33739612,-1.5170904,0.3530631,0.3442278,-1.8131402,0.45064312,1.5476246,1.0170357,0.9668372,-0.80267924,-0.39809814,-1.6969081,-1.0591933,0.5155803,0.22284076,-0.08594717,-0.6458974,1.1642276,-0.8853377,-0.3192432,-1.0467229,0.4492295,0.25362796,-0.99434245,0.24460424,0.89994544,-0.19114886,-0.79556865,-1.0530258,0.15998614,1.4090261,0.26631412,-0.5370261,-1.1588167,-0.43516633,0.6411122,-0.58516324,1.0612701,0.2925282,-0.86984825,-0.26591456,-0.98822296,1.5451847,-0.06566705,-1.1739317,-1.6694106,0.14872566,-0.77794653,0.31164247,-0.0802794,2.7008896,-0.18677971,-0.21191601,-1.2942569,1.270307,-0.08494932,1.4294635,0.28096986,0.6657419,-0.05958607,-1.2472948,0.40162164,-0.98362786,-1.2001283,-1.2456211,-1.331115,-0.032162756,-0.47798246,0.48991436,-0.13639261,-1.1345289,-0.5318779,1.5616981,0.15680006,-0.02234633,-2.6499133,-1.1340942,0.98131025,0.028277252,-1.0818707,-0.55543995,-0.14341354,0.46763548,0.018876862,0.36013094,-0.7127971,-0.7687723,-0.1704875,-0.68219334,-0.08356686,-0.44066748,0.109422974,-0.33709672,2.3800445,-0.8371442,-1.1801875,-0.9792599,-0.6289573,-0.0271422,0.1187018,1.7213695,0.71309674,-1.4836699,0.43990657,0.5672392,-0.59782904,-0.8292904,0.12911233,1.7047913,0.5739082,0.9382096,0.5577596,0.4237907,-0.3373742,-0.53560597,-0.040919524,-1.0025411,-0.3201364,-0.73259115,-0.0692478,0.48000365,-1.0419319,1.7362878,0.5073412,-0.23745981,0.30951396,-0.26449463,0.5204771,1.6902493,0.2932543,-0.14935268,-0.24632289,0.43069583,-0.7804249,1.7558975,1.9744828,-0.53137434,-0.42918763,-1.0488017,0.6034856,-1.3064326,0.20557895,-1.1182439,0.6570631,-0.48951238,0.8811241,0.033822823,0.39188313,-0.2851198,-0.2402943,0.32757816,-1.0381893,0.22507285,0.110581495,0.6200573,-0.73310536,-1.5451746,-0.63104916,0.67280674,-0.74921197,-1.2736374,-1.2771276,-0.3781391,-0.010483687,-1.4652263,0.80484325,-0.5539352,-0.92243195,0.5426442,0.8145912,0.08208494,-0.0009590217,1.8183755,0.33459547,1.4003459,-0.8057452,1.0664414,-0.5533655,0.9798318,-0.19985917,0.4434853,1.0947144,-0.8360278,-0.76396173,1.1829227,0.76250136,0.915686,0.16903056,1.2896932,-0.28486004,0.9417056,0.14712751,-0.034852494,0.7074707,-0.40558642,1.8321207,0.21124053,-0.8157345,0.4314261,-0.10379309,-1.1689794,0.607252,1.7295326,0.54192525,-0.28266025,-0.5679242,0.12879102,1.0529263,0.25512567,-0.7306389,0.4767552,0.17162429,0.4078513,0.8326955,-0.40077427,0.657457,-0.59854966,1.2000525,-1.4316924,1.2025902,0.31370804,0.18615782,-0.6449696,0.41507164,1.0624162,0.42564008,-1.2481302,0.15715803,0.41637614,0.7624301,1.6021874,-1.0894256,-0.30326056,-0.3151455,-1.664065,-1.1263617,-0.9243657,1.286702,-0.23820898,0.6483273,-0.07750023,0.055179663,0.27757603,-0.44054058,1.3915297,0.8386865,-0.5057672,0.82950115,-0.24671726,0.94373995,-1.4668713,-0.92365086,-0.22093268,0.32406878,0.93182564,1.3706013,0.9807901,-1.0250757,0.051284503,0.3213806,0.7464432,1.2232335,0.6346954,-0.45982796,-0.4806537,-0.7440754,1.257805,0.4791235,0.41329822,-0.44804087,-0.33482066,-0.16374652,-0.36120802,-0.61541843,-1.150242,0.22788969,0.03689422,0.38519174,-0.45033258,-1.3562227,0.17917088,-0.31322315,0.11567377,0.43708032,-0.16323757,-0.7646071,0.77771294,-0.89642906,-1.5339969,-0.27156892,1.0264225,0.3585947,-1.0417658,-0.4098547,0.8073087,-0.42466992,0.62310874,-1.3856679,-1.8475411,1.3513288,-0.7022785,-0.99308765,-0.25007415,0.51008373,-0.6821345,0.69560945,0.35335922,0.24997595,1.1953576,1.008807,1.6525576,-1.1499426,0.8617605,0.14119314,1.8629134,0.271194,-0.52218586,0.80171365,-0.8441604,-0.7539953,-1.307041,-0.578249,-0.88372904,-0.4963885,-0.023026792,0.34850958,0.38930672,0.32801598,0.33874354,-0.15025811,-1.6027025,0.9189692,-0.22084048,-0.85652286,-0.27264467,-0.5292779,-0.16792235,-0.101000436,0.9945025,6.1171923,0.16990297,0.74508876,0.9204315,-0.44862604,-0.2657179,0.3779332,2.332708,0.61670655,0.13700278,0.27889964,-0.52842754,0.35522756,-0.2202097,0.042498536,0.4213893,1.3903793,-1.8318475,0.043518893,0.11784774,0.7269735,-0.87866086,-1.123454,-0.3491366,-0.16261332,0.4278511,0.2875798,1.0295347,1.1835115,-0.95957977,0.38923976,-0.80098194,-1.3943394,-0.64314574,-0.22268787,-1.0796039,0.9280085,-0.583768,-0.2003266,0.35676986,0.24112532,0.4630219,0.3304872,0.0031453478,0.09689375,-0.2677594,-0.21025099,-1.1969728,-0.2673889,0.083759286,0.6298879,0.10800224,-0.16116166,0.1760193,-0.21483447,-0.064886644,-0.7955284,-0.12069362,-1.198436,-0.9426342,-0.33983427,0.52858895,0.32482958,-0.5720046,-1.3991787,-1.828693,0.035087746,0.17016228,0.97981465,1.8348805,-1.4070585,-1.2563953,-0.65061855,0.08288235,0.75172806,0.9145876,-0.8503188,-0.3657244,-0.7469761,-0.20776579,0.93083906,-0.14562531,0.034177113,-0.46081892,-0.10205134,1.716402,1.4348592,0.0827653,0.1135415,-0.6283623,-0.46422067,0.09660577,0.20051248,0.5705245,1.0396827,0.46043512,1.3444601,-0.38562265,0.24801846,0.83614695,-0.94684327,-1.9532806,-0.83870757,1.0373474,-0.23125374,-0.6236944,-0.9092289,-0.32930735,-0.7036184,-0.02736467,0.45012861,-0.17958607,0.741762,-0.040767573,-1.2656165,0.08627463,-1.1342304,-0.53707224,0.7375035,0.446999,-0.6482608,0.5514586,-0.3124394,-1.7516851,1.4760143,0.27652362,-1.4103947,-0.21520665,1.047655,-0.27621886,-0.9587728,1.1288364,-1.5228611,-1.4844449,-0.974323,-0.79481643,-1.7781208,-0.9452963,-0.8934475,1.2824475,-1.3459165,-0.85562176,0.5174375,0.002346886,0.63260597,-0.64805394,-1.3509092,0.49025616,0.17453058,-0.44940045,0.0091110235,0.47681537,0.36606723,0.1645796,-1.1214738,0.626202,-1.4775698,-0.24947207,0.29180664,0.55427974,-2.3579803,0.8203517,1.056979,-0.86449724,-0.25340772,-0.117965065,-1.5332104,-0.5148605,0.10530504,0.6899357,-0.49661615,0.6636364,-0.06593786,-0.14342149,-1.5262758,2.1769469,0.3326525,-0.4284412,-0.12881182,0.70406646,-1.0643685,0.4171897,-0.4814853,1.8292638,0.3079417,0.5429853,0.6575979,0.4778951,0.3186317,-0.41536966,-0.8701401,-0.6594049,1.1059417,-0.09927356,-0.14175652,-0.21997023,0.8543253,-0.64038193,-1.1193553,-0.4428166,-0.18243752,0.2029191,-1.0828098,-0.36656913,-1.1990079,-1.692772,-0.67120683,0.038406942,0.22841497,0.85737866,-1.3040259,0.5041575,-0.8986339,-0.09253766,1.2457331,-1.0603976,0.2501466,-0.30066842,0.2999943,-0.22738959,0.37827298,0.25653288,0.10175683,-0.23580061,1.3153012,0.24893676,-0.52998054,-1.107507,-0.13417321,-0.42831036,-0.5072708,0.24965216,1.5724729,-0.41406855,-1.6606814,1.0460542,-0.12113391,-0.39160067,0.068177864,0.42507935,-0.5303564,0.840013,-0.6880225,-1.5661956,-0.28483212,0.7605591,-0.73875463,-0.3134862,-1.1283262,-0.14342763,-0.6496638,0.06695697,1.2012749,-0.05629793,-0.21563211,0.709335,-0.26740345,0.3919491,0.21543244,0.021196494,-1.1897733,-0.2644684,0.15586117,-0.049115445,0.63463104,-0.6954222,0.09378875,0.0069119413,1.2946469,1.1916621,-0.21059714,-0.6327981,-0.7827273,0.8586054,-0.89379257,-1.7867823,1.186021,0.31677118,1.0949601,0.16938317,0.18063729,0.40323338,0.7239342,0.50122315,-0.44502133,-0.23165996,1.3241942,0.08324359,2.2684734,-0.7052898,-0.11377623,0.27801365,0.9446928,0.023605531,-0.7883207,1.0572098,0.35750216,1.2634144,1.4615616,0.8779482,-1.0779608,0.14826986,-1.0846931,-1.3110268,-0.41250882,-0.92530876,0.009403437,0.45742053,0.54355353,0.52954394,1.4358175,0.9195251,-1.4714419,0.0029609203,0.95039845,-2.1752317,-0.64990056,0.40989366,-0.0524363,0.6041809,0.79856646,1.0149094,-1.0093645,0.73897135,-0.10830023,-0.17128086,0.98510903,-1.3196335,-0.38906622,0.8676318,-0.9203478,1.3293704,1.3143362,-0.5775201,-0.47154546,-0.21395549,-0.07866299,0.68907917,0.61066157,1.5570791,-0.18870635,-1.0030733,-0.66350937,-1.2141545,0.75792396,-0.1318952,0.0057507115,-0.22226521,0.4386132,0.0094721615,-1.7101157,-0.12451058,0.4064133,0.23149648,-0.15750338,0.14837755,-1.2320328,0.12923966,0.11607223,-0.4247755,-1.6678553,0.7016204,-0.34238085,1.4561588,0.78175265,-0.77692544,-0.5116323,-0.16289698,-0.07798355,-1.0153205,-1.0912637,-1.0289606,-0.29018113,0.49064153,1.5147139,-0.9637219,-0.5193152,0.15627931,-0.06976493,0.82080567,-1.4715626,0.22543761,0.5924267,-0.619192,1.3395398,0.121968046,1.1069592,-1.5525715,0.8043355,0.049978457,0.42255244,-2.9326477,1.3082658
A3,-1.3171173,1.0973507,0.069814265,-0.72974354,-0.12397044,-1.7411994,-1.2915276,-0.48570248,-0.109349355,0.03256052,-1.4276396,0.25123248,-0.059390903,0.20241885,-1.2772729,-0.42321426,-0.17848818,-0.9914375,-1.0132136,1.4948677,-1.0048898,-0.33683172,-0.10602503,-0.37094232,-0.01689309,0.7369922,-0.3985663,-0.49935243,-0.023449147,-1.2007053,-0.8524861,-0.7452269,-0.5122649,0.49381128,-0.86179817,-1.2852558,0.31021634,0.064512536,-1.7810824,0.3439397,-1.0102648,0.70957035,0.60016966,-2.8313503,-0.29466206,-0.0905154,-1.3676894,-0.049820296,-0.26245508,-0.74768794,-1.2786502,0.11265379,0.3145108,-0.23340985,0.39738443,0.3127002,1.4110996,0.895957,0.2904438,1.3137418,1.5274146,-0.39857608,-0.82290983,0.40160018,-0.8341462,-0.77599657,-1.1333482,-0.2676244,-0.06306773,0.31888896,1.0556338,-0.2791845,0.26847005,-0.6647782,1.3350275,0.59978646,-0.16472828,-0.21578099,-0.24956048,0.09025014,0.9228538,0.10341616,-1.5167106,0.63035434,-0.32920948,-0.8538186,-1.4623606,1.3777372,-0.31319728,-0.79073554,0.8140073,-0.3565566,0.06618239,-0.39923906,0.05161511,-2.1968968,0.9225637,-0.31537795,-0.87702686,0.35851568,-0.71251583,0.23576698,0.66853344,0.21607041,0.757999,0.21082343,-0.8767069,-0.5570711,1.6941164,-0.4903737,1.1451006,0.55070347,0.85684425,1.2806491,-0.8678998,0.977117,-0.32737747,-1.241333,2.0824082,-0.32150942,-0.17016782,-0.8396007,-0.043787513,2.6958287,0.31378946,-0.50579226,-0.26225206,-0.5819378,0.5480365,-1.388156,-0.09578919,-1.1214298,0.25530574,0.50149226,0.087847345,-0.9584225,0.99053127,0.21949694,0.8535485,-0.19751643,-0.6112494,0.025385154,-0.06932397,0.8885005,-0.4571689,0.30904844,1.5073074,-0.0069399327,-0.58743656,0.5119504,-0.56369436,-0.32273516,0.054768793,0.7520361,-1.253907,1.2270445,-1.5098614,0.1761881,1.2789737,0.2523086,-1.1305772,0.8664652,-0.5369089,1.673198,-1.1446868,-0.7018968,0.4471851,-0.61839294,-0.24827066,0.04336178,0.20881163,0.0070666927,0.75778633,-0.75164706,-0.050674863,-0.044738825,0.96018153,0.3562966,0.44297537,0.0026168057,0.23758937,0.3186985,1.333102,-0.6350962,0.9412727,-0.6703142,0.7745704,0.09658863,-0.6644813,-0.12854467,-0.051517468,-0.6930378,0.030831505,0.93978363,1.299596,0.7843958,0.08922279,1.328924,0.32267973,0.5398685,-0.8349109,-1.4547093,-1.44387,0.7022828,-0.037722297,2.1040854,0.43650702,0.67070943,-0.4203925,-1.3777702,0.6619816,1.486903,-0.35636523,0.7217202,0.51053673,0.07624229,0.7269592,-0.12955819,-1.3847437,-1.3357283,-0.20470275,-0.46459505,0.09131471,0.26581472,-0.49179956,1.5018854,-0.2620339,-1.2351377,-1.314168,-1.3530025,0.24128222,-1.7517109,-1.1975056,-1.2419506,1.6664206,-1.2285767,0.60891813,1.1660204,-0.2497672,1.0585307,0.4666118,-0.11904997,-0.34733278,0.55487317,-0.87244266,0.72290057,-1.0453901,0.47865677,0.73561573,0.074081965,-0.8423861,-1.4453243,0.1617568,0.40008777,-0.9399819,0.00675981,0.34169152,0.20112263,0.5423817,-0.35573673,-0.3011699,-0.17483367,-0.9036642,0.42358083,-0.36959141,0.975286,-0.865457,0.5338469,0.5826,-0.067687996,0.29715443,-0.49269012,0.24369617,-1.1825237,0.73265857,1.1644593,2.0445352,-0.728871,0.2236623,1.3822097,0.9341022,-0.6590372,-1.1238186,-0.089537874,0.67492086,0.04090333,0.35530064,-0.0809788,0.46161914,-1.0615801,1.2314128,0.24558797,-0.7040034,-0.664246,0.38496107,1.1243473,-1.3201221,-0.10118674,1.1140299,1.5020956,0.06250161,1.0000848,-0.36280757,-2.0115917,0.20480143,-0.9399162,0.30284205,-0.93510014,-0.15663289,1.2908068,-0.5101528,-0.7196609,0.67184335,1.4062748,-1.0728173,-0.1438805,-0.72311145,-0.46497396,-0.107306734,-1.9191018,0.031867832,0.35910845,0.5215493,-0.6111663,-0.020366412,-0.29640362,-0.25213078,0.52638406,-0.9248799,0.9530302,-0.71431464,-0.38376984,-0.5636667,0.43920428,-0.0058283955,-0.085506104,-0.38047418,0.51820195,-0.0034522903,-0.07577268,1.5514482,-0.5007395,1.1202785,-0.6062459,-1.3990793,0.35017592,1.174949,0.8720813,0.9452831,0.9139715,1.91518,0.08476859,0.5184259,0.8101478,-0.10495187,0.31414196,-0.948544,-0.20324957,-0.32089153,-1.5770396,0.38441405,-0.26115522,-0.29902464,-0.24834251,0.9110841,0.48741215,1.9171495,-0.12585545,-1.3434286,-0.26133385,1.5004898,-0.11535035,0.682316,0.26127225,1.025287,-0.3215107,1.5637035,-1.2309281,0.25174794,-0.21726112,0.97070926,-0.6652055,-0.52725095,-0.49005476,-0.7153478,0.7008158,1.0615171,1.1075317,-1.0737439,-1.2876617,0.1659102,1.5120213,0.9759738,0.6198508,-0.8264201,-0.44154838,1.7668478,-1.2835146,-0.8663045,-0.2778604,0.75081676,-1.2625654,-1.2179222,0.5219655,1.3017228,-0.34554267,0.60403675,-1.4909195,-1.4413289,-0.6052101,-0.525346,0.28602353,-0.95891696,-0.8864461,0.63284594,-0.34381172,0.013764514,-0.5978808,-1.7769457,0.150172,-0.9967394,1.6130486,-1.2115457,0.13533206,-0.7588068,-0.22066712,1.9506799,-0.36703476,-0.3470034,0.45075056,-0.09728127,-1.0834485,-0.59001404,-1.1317704,-0.5110449,-0.14188959,1.1183589,0.81693566,0.04022898,-2.33406,1.0567626,-1.0474085,0.20678882,-0.7776613,-0.8014695,0.08337646,1.4507139,0.062411156,-0.7615846,0.7820683,-0.091951616,0.82442206,-1.2280391,-0.24742341,-0.42312917,0.74957097,-0.838606,-0.18248963,2.5719357,-0.40471157,-0.42383954,0.12473541,-0.9354483,-0.11570706,1.0242541,-0.6609297,-0.0005646854,0.5801578,0.2056326,-1.4086555,0.5230154,-0.25926068,-0.27304393,1.5029622,-0.30021,-0.13877322,-0.32030478,-0.16728505,0.050396927,-1.9817735,0.31907728,-0.9231776,0.41798958,0.60989726,-0.342396,0.77654445,-0.20652856,-0.44757032,0.3976397,-0.84850866,-0.9417662,1.1794239,0.48835102,0.05406072,0.17986162,1.0176604,-0.8243928,-0.7787887,-0.6734568,1.9447973,-0.41938916,0.2718323,1.3851795,-0.13779359,-1.2250682,-0.35440332,0.087200746,1.7050112,-1.3376148,-0.6373895,-1.2136267,0.44485003,0.14980184,-1.5028961,-0.06437035,-0.6469777,0.13012096,1.1713995,-0.44801956,0.58883685,-0.80197257,0.3180419,0.42265698,-1.7861682,-0.09561119,-0.9635486,-0.03141423,-0.31240794,-0.9998012,0.09880042,0.048345275,0.26648194,-0.8109656,1.3547059,-1.2083038,-1.0872049,0.32297713,0.55538493,-0.14777657,0.4073145,-0.6838175,2.26374,0.54622895,0.8743792,0.65323406,-0.19345234,1.5285952,0.6749765,-0.23962356,-1.2694737,0.15790343,-0.44724473,-0.25185046,-0.52885044,0.61820686,-1.024708,0.5930037,-0.48721528,0.9693156,1.4959183,-1.0347875,-2.0951684,-0.40780714,0.22510502,1.4723728,-0.97778034,-1.2020077,1.0797191,1.2062558,-0.1996206,0.32612634,-1.1181544,-0.15359321,-1.2602327,0.45744053,0.5212166,-0.64136344,0.005181306,1.1546981,-0.8448534,0.06924917,-0.5785885,-0.9221959,-0.5699596,-1.9662095,-0.05545494,-0.43201897,-1.2490695,0.6389194,-0.92843086,1.8712877,0.6689469,-0.47024244,-0.39852613,0.4841381,-0.7948381,-0.053534996,0.21936974,-0.5736806,-0.9560962,-0.48565745,-0.061652604,1.9165252,0.1914549,2.1179588,-0.35538414,0.5732118,-0.85585445,-0.7378739,0.90176314,-0.19023502,-1.5008558,-1.0044135,0.27973074,-0.38860837,1.4793147,0.49862888,-0.3076227,-0.4697764,0.06830885,-0.5841362,-0.73706824,-0.9470234,1.0493478,-0.22285649,0.418129,0.2215433,-1.3065623,-0.96222913,-1.1976143,0.6784922,2.8733876,-0.9331336,0.5122992,0.20379074,-1.3215544,-0.36121893,0.35004982,1.7077667,-0.061679583,0.27039215,0.7751259,0.9778639,-0.6359392,1.1699202,1.1045562,-0.9814197,0.38381082,-0.13363448,-2.2531006,1.79832,-1.3671843,-1.0829893,-1.4581554,-0.7739319,0.08132101,-0.44006982,0.5512196,-1.4058381,-0.05785965,0.28521684,-0.13613729,-0.44722414,-0.5011927,-0.08611088,-0.13406436,-1.560557,0.6424812,-0.3076646,1.0785547,1.1363575,-0.61612177,0.94513446,0.29628614,0.97087324,-0.5709381,-0.7563949,0.20172404,-0.82770336,-0.5886188,-0.14506175,1.1860087,0.2849719,0.11626954,0.1840642,0.6798727,-0.9607231,-1.0609847,-0.20077905,-1.5610641,-0.6417474,-0.6537849,-0.594783,-0.52604616,1.0118865,0.055787284,-0.5626884,0.31687587,-3.5294466e-05,1.6217139,1.7480574,-0.08729182,-0.57535315,-2.5287983,-0.49466208,-1.0889868,-0.60789245,-0.33960915,-0.9708485,-1.8802083,0.79969454,1.213731,-0.16208084,0.9254542,-0.66106015,0.5888246,1.0358152,0.8674666,-0.3641202,0.44021407,0.21917234,0.9757791,0.8250284,1.4233838,-2.0256414,0.60925233,0.24414274,0.29002538,-0.42398995,-0.11398967,1.2233479,1.0017761,-0.68094355,-0.77321196,0.047726326,0.3240939,-0.35304263,0.4069683,0.2001373,-0.37048462,2.0237083,0.3077453,0.060779445,-0.9198127,1.6062595,-0.10989107,-0.7452144,-0.4496645,-0.63348776,-0.612482,-0.5373674,-0.69892627,1.0135981,-0.4694797,-0.9501185,-0.67642343,0.5429805,-2.224813,1.4608074,-0.3449702,1.0375303,0.039215226,-1.625646,-1.0606242,0.57749003,-0.776626,-0.6410216,-2.1376796,0.26459745,-0.17202333,-1.4878457,0.46695742,-0.1986789,-0.7546602,0.12110249,0.33606568,-1.4845015,0.12676404,-1.5992447,1.1596953,-0.47751307,0.40075126,-0.3064864,-0.5132945,0.560028,-0.6719101,0.4949186,-0.18714118,-2.065259,-0.45195103,0.38631377,-0.83701456,2.006346,0.7377267,0.3108625,-0.70808876,0.5492867,-0.9932446,0.17089763,-0.11050647,-1.0299011,-0.29250687,0.68956596,0.7933321,0.018476175,0.25485307,0.12593552,-0.18620934,-0.89318043,0.17065628,1.4288226,0.75001544,0.58098716,-1.5017688,0.6377416,-0.13294117,-1.9075205,1.2990294,1.5074837,1.6460403,-0.87699527,-0.37345928,0.5550069,0.2941088,-0.3691437,0.60872954,0.122840025,1.0072696,-0.1288129,-2.6253464,0.936473,-0.5755478,-1.9389066,-0.52734566,-0.72345877,-1.2609079,1.1899345,0.85449165,2.370033,0.06579535,1.3691981,-0.43042046,0.9911994,1.1200702,-0.26131156,1.032199,0.17907545,-0.76354843,-0.19085766,-0.87851673,-0.7865018,-0.4183359,0.65299803,-0.038696945,0.019924453,-0.4525589,-0.15651141,-0.34017667,-1.7368275,-0.063951515,0.40513787,0.9474222,-0.4038395,-0.26786903,0.69939864,-0.09597855,0.1955788,-1.5191437,-0.52601427,0.70277995,-0.20943837,-0.22388522,0.38969082,-0.32880622,0.20113997,0.1971287,0.3788282,-0.500356,0.39962393,0.34751335,-0.7637378,-0.6171397,1.2284534,-0.59447193,0.5753921,1.6584644,-0.35093704,-0.8960509,-0.072821036,-0.22776301,0.3277073,1.5921112,0.31211376,0.6565833,-0.115865625,1.3472137,-0.12687586,-0.008683871,2.1296837,0.17593019,-0.30284923,0.32544342,-0.38771915,-0.08820983,-1.3391651,-0.868581,-1.5019807,-0.9046797,0.45816746,-0.28143623,0.034022357,-1.7206136,0.18680835,-0.50998974,0.5413099,-0.84099776,0.008109272,3.2054932,0.4697204,1.050097,-1.1479962,-0.31115475,-0.3136749,0.8227609,-0.029191086,0.17683311,0.7656857,-0.5924727,1.9773117,0.9949977,-0.14213462,0.7474353,-0.18731378,-0.08077406,-1.4875458,-0.457904,-0.98920965,0.5749155,-0.6969344,0.71070135,0.13328719,-1.1232766,0.54541034,-1.6974205,-1.1504003,0.49437994,-1.3226346,-0.50012624,0.69454426,0.58644235,0.26773903,-1.2172356,0.9694257,-0.7283832,-0.16161594,1.5450144,0.2250407,0.30991477,0.07713189,0.89326483,1.0102967,0.61334497,1.0896722,-0.4404637,0.59891826,-1.2099501,-1.1236045,0.68291473,1.0544181,-0.38501793,1.3456256,0.48506263,-0.4666771,0.602555,-1.6722766,0.23912886,0.81534475,-1.4576119,-0.08290374,0.39678532,-1.1676246,-1.0437398,-0.030294644,0.96147686,1.3206816,0.39446813,0.7176359,0.3521617,-1.829242,0.09235622,-1.2946063,-0.6941256,-0.37259737,-0.47016388,0.66349083,6.996135e-05,0.25692922,0.19123106,1.2279164,-0.7637126,0.91980344,-0.4657418,-1.304121,-1.1217196,-0.020967757,0.72102803,2.101855,0.45643324,2.2406955,-0.807515,-0.05521163,-0.5090372,0.37654805,0.96437305,0.24608675,0.58586067,0.18168041,0.5364646,-0.61728954,0.31094772,-0.27475485,0.5582064,0.091409914,0.5947469
A4,0.32516214,0.062465027,-0.3837965,-1.3772985,0.19543932,-1.5391103,-1.0638461,0.8046101,-0.8256027,-0.1019291,-0.35053813,1.1146071,0.1784764,0.5971602,-0.5034594,-1.1226181,-0.18877268,-1.0199504,-0.7131177,0.25772431,-0.30787566,-1.6510926,-0.8445645,-0.07407649,0.072906874,1.1788925,0.020645464,-0.26480958,-0.2427349,-1.0568134,-1.0482268,0.27299216,-0.7613405,0.1411676,-1.0798233,-2.0076594,0.91703457,1.1986095,-1.4143242,0.14219688,-1.3267803,0.6969889,1.2528157,-0.7844931,-0.01291993,-1.7189637,-1.1539439,-1.0649054,-0.77017874,0.8358764,-0.4991373,-0.62718886,1.5665913,-0.53560793,0.056819722,0.8336109,0.9963716,-0.832083,-0.46534166,-0.5254058,0.079692215,-0.31062782,-0.60324186,0.2946544,-0.10277632,0.2439922,-1.2210822,-0.023557251,0.024050517,0.24785362,0.33976474,1.061839,0.55378956,-0.18104841,-0.35481995,-0.0938868,-0.32524487,0.7794136,-0.69765145,-0.7595188,-0.16138399,-0.2019085,-1.2417786,-0.10645552,-0.019943623,-0.03378403,-1.7851746,-0.6590605,-0.27211168,-0.83749485,0.678515,-0.23265101,-0.28680524,-1.1370989,0.08323121,-0.39134568,-0.14673696,-0.6891973,-0.8662605,0.49298283,-1.4062294,0.808102,-0.72861576,-1.0360904,0.83126026,-0.36333176,-1.1894656,-2.213088,1.4498513,-0.26494405,-0.45557937,0.13931197,0.1228663,0.67745024,-0.74854416,-0.5848771,-1.4765415,-0.7725794,1.6495309,-0.34191322,-0.06522662,0.5300551,-0.01811616,1.4708575,-0.036015853,-1.345991,-0.44925344,0.034592774,0.77936465,-0.67751616,-0.8371589,-1.5080135,-1.2597356,1.5395614,0.96837336,-0.25704163,0.853116,0.66131437,-0.21814789,-0.7812067,-0.7215709,0.0062077423,-0.89816326,0.74280554,0.9469107,1.2670712,0.83665484,-0.7473944,-0.022109946,-0.4064067,0.13074465,-0.060576513,-0.2934942,1.1784416,-0.89200383,0.8334827,-1.0310044,-0.6320824,0.71944815,-0.40240335,0.08882361,-0.09500111,-0.05879146,0.6691258,-1.5575881,-0.17619179,0.17601858,-0.9891891,-0.11907096,0.8789547,1.1130116,2.0591874,0.7745381,-0.6532977,0.110675074,-0.9845962,0.6988991,-0.8045168,0.3826681,0.3072955,0.10605168,-0.57838565,-0.3720644,-1.1081343,1.3132123,-0.19689673,0.11402169,0.18775526,-0.6896068,-0.92014366,-0.2749143,0.28490022,0.55067325,0.29844245,0.75632364,0.49753806,0.013820888,1.218769,1.1253426,-0.11789358,-0.16499671,-0.3580045,-1.365141,0.2092204,-0.060778715,1.0674152,-0.18701124,-0.31514728,-0.1343015,-0.88463557,2.364031,0.73832,-1.0100775,0.60912514,-0.51483953,0.46558258,-1.0189686,0.5317452,-1.1199377,-0.9021172,0.27350822,-0.6496003,0.027205614,0.207262,0.32509473,1.0638055,0.44334668,-1.8081497,0.31300116,-0.9551664,0.94511837,-2.3365672,0.88652533,-1.6442233,-0.7201729,-0.10468826,0.7640743,1.3893769,-0.6016706,-0.61799467,-0.19016357,-0.45185527,-1.1523273,1.1736256,-0.7238292,1.1053971,-0.89690816,1.0168538,0.30078137,1.0156624,-0.2723991,-1.9176514,0.44407523,1.7006322,0.4123541,-0.15697671,0.712284,0.4837309,-0.9157717,-1.6197414,0.6917354,-0.9003907,0.2938876,-0.20707788,-0.47351873,2.5264108,-1.6900619,-0.73837274,0.25326926,-0.32120228,-0.023620985,-0.63432115,0.076688714,-0.8002256,0.06465428,0.7715519,0.43522003,0.27100098,-0.20167685,1.6437691,1.1878514,0.016968459,-2.3523245,0.30877855,-0.30026734,-0.30154583,1.1165525,-0.25447562,-0.1130153,-0.5432063,1.1974369,1.6218873,-0.42928028,-1.0193064,-0.6197857,1.3078244,-1.6415943,-0.5035935,1.5409065,1.8463454,0.45527536,0.689815,0.48041973,-1.9790772,0.46039292,-0.046698224,0.8507548,0.0047164937,-0.4037035,1.8516834,-1.6870183,-1.0730596,0.18109936,1.0317805,-0.29304844,-0.3314624,-0.6922047,-0.5138561,1.2776688,-0.9145435,0.106031135,-0.5309627,-0.88222766,-0.112200476,-0.30785993,0.14850251,-0.8864567,0.1956594,-0.11833596,1.3808173,0.6399804,-0.19577874,-0.48912695,-0.05392952,1.1356115,0.42985728,-0.47494116,-0.24924137,-0.7618168,0.29848856,-0.05465822,0.25767943,1.6450595,0.060446143,-1.4073592,-0.051876947,0.117507264,0.5615182,0.89995176,0.68704915,1.4470582,-0.26158878,-0.35687298,0.52874684,-0.847106,0.005928278,-0.6321903,-0.8397802,-0.6175431,-2.4419906,0.3518718,0.18303765,-1.5631268,0.069738366,1.6960838,0.082440466,0.03903471,-0.40409535,0.9983787,0.08391374,0.09818788,0.024688272,1.3042434,0.6151931,0.5665715,-0.8068526,1.7505809,0.17180787,0.096334845,-0.075368546,0.18796735,0.108246535,0.065404184,-0.08047843,-1.2280184,1.7711533,0.25724268,0.589291,-0.9667543,-0.10818433,0.8672375,0.6280851,0.65419525,1.6226852,-1.0579116,-1.3915862,0.09828925,0.46612918,-2.4271924,-0.3448266,2.0298767,-0.38843554,0.7543148,0.80565363,1.2799348,1.4809296,-0.32625508,-1.5528712,-1.2965188,-0.7330618,-0.09389637,-0.29354626,-0.29614002,-1.5846474,0.89532334,-0.85465777,-0.59162974,-0.027216233,-0.6068456,-1.8221446,0.31230953,1.7593427,-0.60137695,1.1411463,-0.24153928,-0.025531644,1.4740455,1.194954,0.26765785,0.3147721,-1.1943064,-0.72258216,-0.38429067,0.5441814,-1.5436463,0.75935996,0.82271296,1.0584115,0.38334858,-1.5472316,-0.60945165,-0.1562587,-0.023046099,-1.5167202,-1.4657799,-0.02360215,1.4100221,0.17106868,-0.24867205,0.38333848,-0.48974228,-0.48204014,-1.4267912,-0.307495,-0.72028524,1.9336998,-1.1698979,0.15579614,0.85603315,0.3020495,0.29700854,0.069306925,-1.5855145,-0.061660897,0.8948286,0.09189275,1.1045796,-0.8419981,-0.37554738,-0.16347311,1.3177978,-0.9731343,0.22286344,0.004591403,-1.0175649,-0.8631275,0.390621,0.6089694,0.05554008,-0.9817285,0.48671567,0.24319844,0.5056312,1.8871597,-0.9948446,-0.35458875,-0.90485096,0.8581043,0.45719898,-1.2104278,-0.46701953,1.5447792,-0.29293862,0.63837934,1.5885955,0.38421252,-0.4447401,0.7465697,-0.8547507,0.85330683,-0.40708205,-0.30432528,0.7161357,-0.006171705,-0.25135228,-0.24485779,-0.34828252,1.697447,-2.2873228,-0.14605027,-0.33213532,0.2671211,0.16451284,-1.2032169,-0.74849623,-0.80252355,0.4949012,1.0701705,-0.2090034,-0.17050615,-0.70950437,0.014571767,0.86792254,-1.995207,-0.07047034,-0.7262094,-0.7584248,-0.21837269,-0.93010044,1.3189553,0.23879376,0.17653471,-0.26853776,0.8439612,-0.47842792,-0.4959692,0.6120073,0.08464653,-1.0649803,0.47408602,-0.1243093,1.3728856,-0.5847685,-0.4458792,-0.09602565,0.030875677,1.0585957,1.8952216,0.31194055,-1.3891522,-0.28441545,1.5391158,0.017683452,-0.29423472,-0.24973486,-0.8306399,-0.37684995,-0.9763904,0.67223006,1.0434922,0.7234037,-0.04639659,0.3376841,0.55653346,0.7054856,-0.42318535,-1.8985896,0.63528967,0.1693811,-0.044901464,-0.57430184,-0.09084673,0.8158476,-0.5870753,0.043825924,0.36613667,-0.8293979,-0.66747993,1.7287918,-0.7650543,0.676969,-0.20946197,0.34790286,0.099260524,-0.81768626,0.67084986,-0.01195373,-0.8888811,0.41319865,-2.3579762,-0.96562254,0.9797474,-0.3731205,-0.2924469,-0.3689618,-0.09707286,-0.8630485,0.5213332,0.6122828,0.65430665,-0.27365133,0.8572989,3.4041085,-0.16650707,1.3574239,-0.6256374,0.07149167,-0.70459867,1.4470447,1.6874938,-1.137148,-0.057668876,-0.32356447,-0.53265613,-0.9244127,0.23791337,0.18513674,-0.6932694,-0.55012625,0.0062744278,-0.0064536245,-1.7975265,-0.78957003,1.155798,-0.21007074,-0.36908302,0.08012503,-1.3213735,1.5766838,-0.826454,0.37326482,5.0448833,0.47861224,0.26473063,0.56265646,-0.46991318,-1.0855252,1.1953429,2.6517065,-0.446017,1.194038,0.4914776,0.62143195,0.4154786,0.59932137,0.9512766,-0.20300525,0.6112182,0.48544165,-0.63933116,0.59958166,0.18113379,-0.5100085,-0.4060147,0.21487989,0.6259989,-0.022466484,-0.17741366,-0.06805884,1.3030597,-0.027570432,1.0244814,0.3007464,0.09552689,-0.37463796,-1.2027156,-1.2408509,1.1809891,-1.2033888,-0.16296874,0.7967848,0.26170108,-0.1634006,0.059473515,0.18066917,-0.021674644,-0.7941242,1.061481,-1.270265,-0.56659144,-0.9835491,0.19509874,-0.39392215,0.5072242,-0.37145817,0.859185,0.00682207,-1.1773158,-0.60630435,-1.3298452,-0.5157274,-1.0286676,-1.0536145,-0.7628127,0.06172603,-1.1501952,-0.08410625,0.24802789,0.74940205,1.8133888,1.9123031,-0.6607966,-2.3163092,-1.4167243,-0.121413164,-1.2409248,-0.25706437,-0.9747673,-0.76317173,-1.64725,0.088564634,1.6280735,0.47201326,-0.52694416,0.032776322,-0.14343907,0.9847193,0.30353272,0.63106006,-0.55150735,0.09658494,-0.5464143,0.7427633,1.8314347,-0.21411113,1.7901535,0.8965781,0.8966499,0.7952822,-0.15730876,0.68807894,0.57320076,-0.7135425,-0.42417267,0.5304331,-0.27752998,-0.12987399,-0.17820394,-0.19041833,-0.7190636,1.2253534,0.040597975,-0.36689094,0.49761122,0.08988747,0.051815465,-0.5595435,-0.56730646,-0.86384773,-0.5873099,-0.26426065,0.3948099,1.5979843,-0.4660715,-0.67238647,0.3147559,1.4522372,-2.505154,0.2765344,-1.190685,-0.3529968,-0.3216616,0.038543914,-0.038324766,-0.05363177,-0.18282138,-0.22870253,-3.1919794,0.29196775,-0.19607453,-0.6263531,-0.32649124,-0.079420514,-0.557087,-0.3740052,-0.28893068,0.2956202,-0.61439884,-0.43185157,-0.24367556,-0.26504442,1.1149335,0.13909167,0.24879092,0.10914934,0.25542104,-0.23967236,-0.82877827,-1.9117473,-0.18606453,-0.02964881,-1.7245464,1.8275658,0.8619309,-0.20297033,0.8212509,0.21296178,-1.1031679,-0.28952408,0.49647018,-1.4256225,-0.5301029,0.39537466,0.8462126,-0.09032278,-0.44936007,0.6549267,-0.073073216,-0.9884926,0.5702622,0.5445142,0.639141,-0.021837011,-1.6467351,0.96713597,0.95877594,0.079595126,0.6878335,1.0993998,0.5553227,-0.3428118,-0.36101863,-0.066240534,0.7021164,0.5457983,-0.85206085,0.13747312,0.36775666,-0.7106296,-1.5724925,0.6100661,-0.23323272,-0.7911545,-0.19020452,-0.76962906,-0.61391926,0.2775106,-0.6961538,1.5521544,0.23428327,0.940397,-1.5093948,0.48634368,0.20366068,0.1776885,1.1268224,0.6511832,-0.011328941,-0.5451629,-1.5434338,-1.0509435,0.13623494,-0.4026245,0.5533718,-0.75625587,0.6889641,-1.0541453,-0.16325223,-0.51702255,-0.09567718,0.2776222,0.3754811,0.31312445,0.24590062,1.0734396,-0.91273344,0.5684584,-1.4266512,0.46923816,-0.53417647,0.7820364,0.80486274,-0.22905406,0.15414566,0.6037645,-0.6353973,-0.19542426,-1.1864676,0.4820445,-0.52127624,-0.29052633,-1.906892,0.19748598,-0.17519335,-0.03993752,1.3847318,0.017758133,-0.30213222,0.9694403,0.0053194496,-0.29587796,0.09869517,0.40090674,0.6698474,-0.4210063,0.44958922,-1.3678819,0.3792083,1.856012,-0.21084379,0.943554,0.48516455,-0.313959,-0.57225907,0.066683374,-0.9249658,-1.6341714,-0.3334196,1.6058186,1.0827897,-0.084950574,-0.5984438,-0.53995854,-0.16022266,1.4171504,-0.25044644,-0.27791578,3.930026,-0.3465035,1.5613557,-2.006634,0.44024885,-0.1414954,1.7976624,0.28499708,-0.2737241,-0.33471137,0.32475695,0.51228845,-0.44451225,1.3777388,-1.1286584,0.7318363,-0.14600402,-0.7403684,0.5052978,-2.3376217,-0.4932404,-1.1432799,-0.4447794,0.586751,0.021216946,0.9559143,-1.9214733,-0.28500703,0.6358997,-0.93054944,-0.48428634,-0.14571737,1.3886716,0.42611426,-0.52336097,1.4486284,-2.2422495,0.111949034,1.0258338,0.24042444,-0.10535707,-0.8208788,0.7983498,1.3814136,0.8087811,1.7756367,1.2983459,0.2877824,-0.9245334,-0.33464333,-0.15494184,0.2452212,0.14320189,1.6535414,0.04969119,-0.37268335,0.15853444,-1.301211,-1.0653142,0.029151596,-1.6273332,0.081046894,-0.24266763,-0.6285328,-1.381566,0.11012585,0.7790317,0.35927486,0.18049215,-0.914331,1.0524721,0.34647557,0.11133527,-0.5563821,-0.84135795,0.8693209,-0.61219317,1.0128528,-0.2845883,0.13224521,0.41285497,0.37526903,-0.6851289,2.0327177,-0.43593338,-1.4323077,-0.72248346,-0.24764127,0.930497,0.4346261,-0.42028514,1.6830441,-0.899509,-1.0288233,-1.7001277,0.35337773,0.8372503,0.64739376,-1.1060243,-0.14425045,1.4035088,-0.50155824,1.1028595,-0.9417916,0.36433294,-0.95494807,0.26118764
A5,-0.27288,0.18220462,-0.2779668,0.47559336,-0.35183743,-0.23977512,-0.4474322,0.29333463,1.16278,-0.41058874,-1.4202176,0.41176355,0.99446225,-0.28813002,-0.6619485,-0.2530768,-1.0095721,0.5011526,-0.05631396,-0.421223,1.1735895,-0.24366765,1.2602326,0.50107783,0.5231994,1.2280717,-0.6281945,-0.49908006,0.27895796,-0.9076044,-1.0805553,0.54660076,-0.14652239,0.6226492,-1.0412388,0.123840936,-0.08257631,0.20500286,-0.8820893,0.6685076,-0.042829856,0.9023528,1.6260554,0.31638673,-0.90244037,-0.7434595,0.029952168,0.63484937,0.81705755,-1.4896387,0.593666,0.019124838,-0.8116205,-1.0247746,0.18331514,0.13295007,1.1785532,-0.9090244,0.11512404,-0.4061644,-0.67950034,0.6816401,-0.57531303,-0.18955325,0.30896673,2.3755512,-0.83478355,0.7250572,-0.12453099,0.19440235,0.040203106,0.42665613,0.10449874,0.2712929,0.011030634,-0.9485667,0.30592123,-1.0449759,-0.24741371,-0.48190928,0.110548735,1.3313371,-0.9311791,-0.63694835,0.058447033,-0.83950096,1.1952517,-1.2784966,0.17338763,-0.35702208,0.29957938,0.024657628,0.06890352,-0.8480332,0.06087916,0.1393633,-0.60652715,-0.24252231,0.6959595,-0.29960558,-1.2658243,1.0694505,0.07335963,-0.10270798,-0.06800268,-0.7211465,-0.47350356,-0.11428487,0.65385336,-0.08230806,1.2346457,-0.46379295,0.12077096,-0.7374325,0.25314063,-1.1093291,0.3516812,-0.8207257,0.85282797,-0.15121411,-0.6836726,0.672189,-0.3163086,0.85013443,1.4681388,-0.58411247,-0.4023346,0.33301178,-0.212439,-0.6942339,-0.52641153,-1.1169281,0.47613096,-0.5586937,-0.1683973,-0.5525723,-0.76168066,-0.7639534,0.51864594,-1.3781195,-0.743848,2.136806,0.14711764,2.3384607,1.0600368,0.9176636,1.1580757,-0.6255308,0.10803479,-0.4140738,-0.022568537,-0.4148215,-0.9567497,-0.18492027,-0.7569442,0.22477806,-0.52053434,-1.3503208,1.6487304,1.7259759,-0.26269868,-0.94018507,-2.0360882,1.1333022,0.17346598,0.8321292,-0.029429069,-0.037921082,0.4457661,-0.050992247,0.13682736,-0.22428896,1.1471571,0.12142978,-0.8229723,0.3607556,0.8814285,0.5314645,-0.16411652,-0.22805063,9.513398e-05,-2.1219769,0.1535767,0.36269012,0.7478295,-2.2760286,0.24304222,1.0733455,-0.77179813,-1.5921016,-0.010300684,-0.6741774,-1.1210264,1.2038952,0.56920147,-0.004817523,0.7306792,0.3888699,-0.28763995,0.29960087,-0.07541861,1.0964781,-1.256711,0.29347613,0.07678821,0.9320685,0.69672847,-1.070938,0.09994299,-1.0844688,1.616922,-0.026583353,-0.6394818,1.3508291,0.08056436,0.5972795,1.0029163,-0.21559644,0.5085881,0.6379606,0.4228215,0.55998194,-0.99354917,-0.1131486,-0.16474165,0.41218472,-0.92254585,-1.407657,0.18170168,-0.55225784,0.8241759,-0.83773106,-0.8245213,-0.9272618,-0.92358,0.6650395,-1.2147117,0.9061237,-0.004476875,0.15316908,-0.0155076785,-0.45648023,-0.46843183,0.3561125,-0.71869534,0.7220376,-0.06522581,0.6192887,-0.7451126,-1.3255216,0.0031424065,-1.1594613,-0.100016914,0.3891388,-0.4962207,1.1576977,0.85464495,-0.6014915,-0.6051805,-1.0614498,-0.16377045,0.8505853,0.6722958,-0.40563247,1.0484258,2.3797176,-0.40960523,-0.73827904,-0.3038487,0.621,0.44616818,-0.19688134,-1.3584656,-1.3831681,-0.909388,0.36634958,-1.3122286,-0.40746784,0.7571656,1.2066256,1.4591793,0.44511974,-1.1225723,0.2598824,-1.2527503,-0.93167114,-0.48942685,1.3896667,-0.61493415,-0.221532,0.08758382,0.39786354,0.11542064,0.14227606,0.5046045,0.23042308,-0.1351857,-0.054171983,0.17938685,-0.21676028,0.02492336,0.015414889,-0.94886607,-0.66454285,-0.7223254,-0.46723947,-0.10296062,0.06212161,0.17259173,2.0275385,-0.1947021,-0.9052858,-1.1643527,-0.36078036,-0.26802373,-1.1416931,-0.14503841,1.136525,-0.395836,-0.90106153,-1.1375495,-0.84945506,0.6443486,0.18625636,-0.93174714,0.5175703,-0.2236061,0.55923325,-0.005021023,1.3227993,-0.84677917,-0.09116117,-0.37800226,-0.2623937,0.24130988,-0.883188,-0.5541113,-0.98616123,0.28824714,-0.7011144,1.3057292,0.49864838,1.0138875,0.10267093,-0.39935517,-0.6800349,1.3099481,-0.21251462,1.205819,1.0325252,0.4744115,1.0731308,-0.89435077,0.5281061,0.0502079,-1.5500846,-0.6230261,-0.83617115,-0.14006752,-0.4773598,-0.12779003,-0.39354214,-1.4746857,0.61968505,0.51952684,-0.02117076,0.07610019,-1.246647,-0.18564166,-0.47239587,0.6143915,-1.2292618,-0.2830759,0.25135562,0.2211839,-0.06898508,0.84924936,-1.1327347,0.33359048,0.07209745,-1.408864,-0.16255352,-0.47395864,0.8864422,-1.0577692,1.8660642,-0.7760652,-1.2275763,-1.9439311,-0.41712466,0.6293569,-1.6895976,1.3946368,1.1673639,-0.7109236,0.67426616,0.3777925,-0.8143277,0.44061384,-0.48323774,1.1850177,-1.2026759,0.8473875,0.7841044,0.13576216,1.3468229,0.21283048,-1.3459501,-1.5277499,-0.1609894,-0.65634066,0.12044928,1.1706117,-0.7241657,1.4341134,-0.5095263,-0.43575063,0.43563867,-0.30651873,0.44901276,0.69200975,-0.50041825,-0.905082,0.16673398,-0.24882138,0.52379614,-0.12737896,1.7010341,-0.3071985,0.16809648,-1.3864441,1.2659509,-0.8056295,1.0979387,0.35878596,0.6099351,0.5082448,-0.031899046,1.403206,-0.38769457,-0.13833399,-0.057093304,1.4927307,-0.17567478,0.586112,-0.0007366178,1.4056853,0.22271353,-0.71848327,-0.58850247,-0.14773943,-0.62875766,-1.4986197,-1.8014799,-1.1038948,-0.013798311,-0.102110624,0.15040492,0.47513863,0.6658255,0.28494808,0.31815216,-0.24155307,0.8737793,0.39658415,-0.17563452,-0.47879484,0.14589311,0.5192969,-0.6853344,-0.5957946,0.32451507,-0.67252785,0.3195203,-0.3753805,-0.98735756,0.34053513,0.23793507,0.15635914,-0.7264442,0.3889829,0.53844345,0.19006442,0.037983526,0.17661405,-0.37955675,-0.62207294,1.5566086,-0.29259574,0.5590957,-0.4263605,-0.91819715,-2.887717,0.4336238,1.0327318,0.8894084,-1.4167662,-0.513431,0.50993705,1.4731393,1.109617,0.6225721,0.032285288,-0.6766639,-0.19384855,0.13777627,-0.79554963,-0.19799715,-1.1962657,1.3439484,-1.6236261,0.19239771,0.6957056,0.4675634,0.47894803,-0.8131102,-0.012950177,-0.16133079,-1.7733421,-0.86033696,-0.02489639,0.53319454,-0.63319886,-2.164365,-0.21024656,0.13986649,-0.82032174,0.29695824,-0.7265458,0.36463332,-0.12345087,1.358374,-0.31620726,-0.12375826,0.19352983,-0.6221698,-0.013741944,0.07789574,0.70103353,0.7969658,-0.81789255,-0.3885155,-1.3844541,-0.68464893,0.6989612,0.84810096,1.1808189,0.88634485,1.0312046,-1.8207468,0.4063237,0.66986895,1.902318,1.3688027,0.36250818,-0.99633044,-0.8128162,-0.54984343,0.4006889,0.30123684,-0.31554043,-1.8607756,-0.078160755,-0.6772813,-1.0635144,0.25738844,-0.634369,-0.13665329,0.485557,0.22565126,0.85269815,-0.44063556,0.23384146,0.780363,-0.39862955,0.94288737,-0.89460903,-0.23188382,0.108872436,-0.9839062,-1.3997205,-0.10560217,0.18317759,0.3075437,0.39158222,0.75171167,1.3586297,-0.17731227,0.89752483,-0.86431664,-0.22008187,0.72232133,-0.19239734,-0.9626339,-0.7472954,0.29884586,-0.5723092,0.56882924,-1.4138573,-0.1161202,-0.48837987,0.5576747,-0.19781692,0.1116058,0.6995416,0.22363907,1.358142,-0.17391576,0.404788,0.39648125,-0.9303797,-0.123003066,-0.1946373,-0.7825613,1.0088897,0.95095116,0.8291158,0.43931118,0.19341497,0.666955,1.1582963,1.1040684,-1.1339036,0.98446125,0.2395014,-1.2995389,0.0078712,-1.4958295,0.07139521,-0.06985074,1.4869145,10.339528,0.30983666,0.67826766,0.59526914,0.08037866,-0.116003096,0.09617934,1.5523553,-0.23708777,-0.46255353,-0.14531565,-1.089537,1.088401,-0.35418954,-0.11679759,-0.44649172,1.0621934,-1.4440807,-0.3642138,1.8385806,1.8910338,-0.59823364,0.2615778,-0.81688017,-0.4743342,0.28529495,0.14761534,0.73016876,1.739389,-0.8902648,-0.6005005,-0.13961916,-0.4760231,0.516644,-0.38914454,-0.548622,1.0263013,-0.77830386,-0.64810395,-0.01894247,0.37712577,-0.5819008,-0.03470783,-0.2240585,-0.20384455,-0.078902625,0.47773805,-0.98534304,-0.6195703,-1.1081069,0.5596975,-0.47047913,-1.7535939,0.33016455,-0.87320036,0.4421141,0.06170991,0.5510331,0.8938908,1.4504622,-1.4008946,-0.90498537,0.036557507,-0.2021571,-1.0078579,-1.0481544,0.24530967,-0.06816771,0.51430625,1.3838801,-1.3973151,-1.4735965,-0.20874667,-0.36268973,0.981916,0.74274135,-1.4392716,-1.1615316,-0.5595595,0.38585493,0.5611709,0.23833488,0.26453462,-1.3627485,-0.35311487,1.3748727,0.63439304,-0.8759416,-0.8560436,-0.3524042,0.41181406,-0.271373,0.01946953,0.92338943,0.13524272,0.53658813,0.24326794,1.1955374,-0.8157441,1.2552533,-0.80393547,-1.3407394,-0.9652397,0.95111424,-0.7351988,-0.85733134,-0.046031784,0.21723688,-0.37812352,-0.19269581,-0.47363082,-0.83837336,-0.19127683,0.9359832,0.16595866,-1.3011535,-0.8856798,0.19901425,-0.029527105,1.324002,0.034349237,1.6187977,-0.5964074,-0.84022665,1.6799984,-0.24637757,-0.54549205,-0.38261464,0.40875518,-0.21281905,-0.13612442,2.0884519,-0.75179297,-1.5707797,-0.26098186,0.5385049,-0.63807315,-1.0247971,-0.6481065,1.1362759,-1.6358132,0.6314373,0.3689687,-0.7351095,1.0685685,-0.18358506,-0.8299897,1.0165408,-0.7583861,-0.55588967,-0.5163928,1.5939046,-0.5526769,0.49498406,-1.2305208,0.7309541,-1.3642076,1.2350936,-0.2273475,-0.42040315,-0.9319865,-0.11604991,0.03595527,-0.14293157,-0.7296373,0.19163649,-1.1285294,-0.43806183,0.52440196,0.1774928,-0.8866585,0.40916216,0.4263033,0.3039911,-0.481853,1.7522434,-0.065523915,1.0521837,0.5900188,-0.4232298,-1.2437311,0.27621987,0.46929798,0.5414592,0.368417,-0.6889627,0.65725833,0.5885972,-0.20886946,-0.69113904,-0.14505774,-1.1579887,0.27088627,0.20756947,0.2203136,-0.256054,0.32357696,-0.44543922,0.58510345,-0.79698735,0.35097536,-0.47685912,0.4926113,0.38390598,-0.57808846,-1.0389283,-1.302003,0.9965064,0.38803387,0.34276798,-1.1412774,0.3877277,0.026718738,1.0312535,0.32628965,-0.76477796,-0.13260044,-0.54070264,-0.058459897,-1.3441339,-0.024512464,-0.40803492,0.76057965,0.41303575,0.74906236,-0.45883474,-0.2052796,-0.19796713,-0.61970454,0.08933403,-0.91274333,0.6996088,0.67037845,-0.9664681,-0.68761945,-0.18613409,-0.7061084,-0.21533413,0.4239236,-0.53278327,-0.9605787,0.28188118,-0.37592232,-1.081141,0.14301533,1.0160979,-0.7529498,-0.032120492,-0.14682646,-0.127801,0.16662303,0.34531584,-0.033209573,-0.2770939,0.25903395,1.0978932,-0.11483886,-0.2542391,-0.093153514,0.5776052,-2.2497365,-0.74526334,-0.96506405,-0.7084501,0.86055547,-0.5676628,0.46413803,-0.14382437,1.0842701,-0.20204921,0.5061395,-0.33004686,-1.561297,1.3389697,-0.78358436,0.38785395,-0.10228885,-0.22060907,0.68491316,-0.74824864,1.2051831,0.4467068,-0.54349667,0.6326349,0.45649526,0.8744145,0.7932868,0.019950638,0.97250557,-1.2143952,-0.6521513,0.13735904,0.989065,0.32060573,-0.8605044,1.1271467,-0.04780243,1.6381308,0.88997775,-0.07623228,-1.7338849,0.746479,0.18207873,-0.786124,-0.48701978,0.00014679693,0.8114312,-0.11499976,0.8078045,0.41402483,0.62533075,0.36170474,-2.1684873,0.07378615,0.346097,-1.2573928,0.97895384,0.73113376,-1.3984457,0.89130026,-0.5805686,1.3200755,-1.091568,-0.11946858,1.4476525,-0.44284943,0.60579723,-0.7887872,0.6090067,0.3363888,-0.3508592,1.0678724,0.8071802,-0.58161473,-1.016513,-0.5185686,-0.6244435,-0.1623695,-0.16717523,-0.026279723,-0.80804324,-0.1365248,-0.6272006,-0.62531406,-0.32838646,-0.1561596,-1.0789078,0.2402835,1.3228606,0.27749863,-1.0139073,-0.16940074,0.7941478,-0.33725154,-0.21670967,-0.26524353,0.54584426,0.38350293,0.38533357,-0.7176139,-1.933613,-0.18128361,-0.41686276,0.63869554,-0.3655695,-1.1227297,-0.32302848,0.2831619,0.22787417,-0.17378175,-1.1309319,-1.7743745,1.1625563,-0.37200847,-0.23840182,-1.5472375,0.44128075,-0.04236536,-0.8276324,0.6324037,-0.8005436,-0.19479491,0.38604856,-0.99311256,1.6477145,0.5593372,1.229787,-0.6098655,0.369822,0.5590178,0.27644613,-0.9020446,-0.18695755
A6,-0.43451,0.21029556,-0.6384808,-0.3250544,0.24066909,-0.9995619,-1.600297,0.7054208,-1.2459857,-0.25664642,-0.8002572,0.26488563,0.7553632,0.6368426,-0.2963238,0.089995645,-0.4904226,-0.52267563,-0.23549575,0.6297005,0.22696216,-0.22628474,-1.753173,-0.8862417,0.35751805,0.01492634,-0.34433442,-0.47828305,0.21574774,-1.0414575,-0.32932612,-0.047136612,0.33310065,0.2772589,-0.37300345,-1.0705894,-0.34178048,0.975386,-1.1292433,1.8140453,0.37982887,0.14233367,2.6203942,0.48502675,0.510204,-0.32710207,-0.46978718,0.68028,0.7429351,-1.149779,-0.588451,0.14823598,0.56694317,-0.52111655,1.0539376,-1.2701359,1.9488969,0.09646191,-0.01976619,0.35527933,-0.36689502,1.2830156,0.35007095,-0.66244715,1.1196003,0.53195286,-1.6741487,0.2742171,-0.90342456,0.26461998,0.26957732,0.67522275,0.7609325,-1.3120729,0.075449094,-0.38799638,0.50158036,-0.27301347,-0.7146729,0.44358656,0.8490103,0.64032495,-1.4829944,-0.17496668,-0.040138926,-1.2141093,0.10345036,-0.5172846,-0.46443382,-1.1337239,1.3107965,-0.04721139,-0.98639154,-0.7224624,0.72042066,1.4512467,0.23097439,-0.49636567,-0.27175596,-1.0633552,-0.000455413,-1.0520964,0.88007915,-0.608123,0.38983163,-1.1600459,-0.16190875,-1.6868811,0.6200429,-0.18884471,1.0125687,-0.88013077,0.91121477,1.3859354,0.4016951,-0.89039993,-0.69835794,-2.10894,2.772838,0.8487758,0.27710772,0.8359074,-0.164535,-0.32484573,0.7940918,-0.8377408,0.5058599,0.96824175,1.2499225,-0.85661036,-0.5949681,-0.42722374,0.21324733,-0.08579372,-0.55770814,-0.16043156,1.0094982,-0.103407726,-0.44076154,-1.3793029,-0.339255,0.11455021,0.60628676,2.5225306,0.48836416,0.06074184,1.1044989,0.123178005,0.9372351,-0.6115774,-0.7407567,-0.5516963,-1.432328,-0.11586088,-1.4833833,-0.5686706,-0.9519857,-0.67082405,2.0887046,0.69064695,-1.3392085,-0.5979037,-1.2900255,0.89706075,-0.734392,0.85976124,1.347371,-1.5422534,1.0669544,-0.57042503,1.4586697,1.3520455,0.70131314,0.57328737,-0.6048899,-0.76316285,0.72773397,0.013734836,0.69381064,-0.27688658,0.1968493,-1.1924818,0.031327035,-0.25292978,0.26892182,-0.567421,0.7648441,1.4911393,-0.8111495,-0.9678879,-0.063578784,-0.020013614,-0.16927962,2.016233,0.5493958,0.7123208,0.16799799,0.83731437,-0.15074986,0.36188975,0.23127674,0.2812263,-1.1700656,0.13601138,0.09558443,0.7530856,0.44915396,-0.944506,-1.3491459,-1.0848321,2.3124964,-0.8265009,0.1195272,0.85742414,-0.41796225,-0.00500282,-0.036989246,0.5173278,0.13314722,0.60181767,0.2344207,0.67571735,-0.81245244,-0.6937926,-0.9730078,1.9931129,-0.34700468,-0.3474332,0.32791227,-0.64943314,1.0876389,-0.9525537,-1.2010183,-1.0420784,0.5015694,-0.5310621,-0.102743685,-0.24483298,0.44774097,-0.03740054,0.93474627,0.17895856,-0.27889857,-0.69560355,-0.90105766,1.93197,-0.50175077,0.36760527,-0.5233474,0.24645235,-1.1537554,-2.2263925,-0.0031431615,0.99465597,0.5746316,-0.3714424,0.38994062,0.85699534,-0.020333294,-0.20116515,1.5305574,0.44989288,0.16272761,0.7990888,0.60114545,2.1544547,-1.0016952,0.6543361,-0.45312962,0.58362234,1.0514488,-0.60050577,-0.153106,-0.6651247,-0.49914697,0.0051463023,-0.3916412,-0.90323234,0.02778351,0.18122523,0.47308195,-0.1356223,-0.94842494,-0.14121927,-1.5996394,-1.2495598,0.5410394,1.4701447,0.123501696,-0.4622265,0.6845846,0.26491535,-0.26672608,-0.15631443,0.22968856,0.96911263,0.363489,1.6244681,0.6245839,0.2666324,-0.1584139,-0.35150495,-0.6803058,-1.7187896,-0.73655343,-0.11815281,0.6929616,0.26678175,-0.46701562,0.28396228,0.2990721,-0.88795114,-0.08276055,0.148847,0.4887578,-2.0438645,-0.017331244,0.49247634,-0.8350337,-1.4348495,-0.7871328,0.43117172,-0.6072052,-0.35428846,-0.87570983,-0.3467938,-0.92086756,0.06810862,-0.5631449,0.99501354,0.22611746,0.15557072,-0.015251305,0.25158477,0.8999858,-0.74317986,-0.28254393,-1.3705516,0.1677576,-0.34245577,0.90663964,-0.010051355,1.8802539,0.6108674,-0.19850695,-0.9687962,1.1557938,-0.39730415,1.9981036,-0.7357689,1.7085629,1.2429508,-0.76652473,-0.23214027,-0.72373563,-0.76717335,-0.7155729,-0.30578002,-0.69401103,-1.0388623,0.0077649206,-0.017800324,-1.2993753,-0.5354513,1.3966637,-0.9470508,1.1413069,-1.2763062,-0.9607551,-0.5280194,0.054468013,-0.38650805,0.8066821,0.384624,2.0523887,-0.7454741,0.3953929,-1.6706226,-0.31480968,0.6977327,-0.4122922,-0.57091737,-0.25481513,0.026494458,-1.0592082,3.0073664,-0.42430073,-0.2719395,-1.6794319,-1.0503699,1.5237073,-1.1362387,1.7986919,1.1429653,-0.4864946,0.7484045,-0.2030869,-0.08959898,-0.6945984,-0.23978987,1.7277594,-1.1434605,0.43489012,0.059331678,-1.1777197,-0.039800897,0.047937796,-1.6384124,-1.1244358,0.060953937,0.6549401,0.07834897,0.6803279,-0.84081745,0.46688238,0.46685174,0.25776324,0.3613027,-0.71756124,-0.26671454,-0.14817111,-0.33458972,-1.4626456,0.7277258,-0.07795056,0.20319566,0.8683671,0.45375177,0.009487777,-0.15272573,-0.8700887,-0.24111201,-0.67208654,0.09472916,-1.1999003,0.912205,0.30653852,0.33226925,0.6640418,-1.6243362,0.5176369,-1.1521022,1.0204799,0.5336484,0.07319197,0.2912147,1.7186087,-0.030732362,-2.0531116,0.84029984,0.56637967,-0.225647,-1.5076389,-0.83215964,0.1058372,0.63593304,-1.0996963,0.05724622,0.48743424,-0.69814867,1.5785452,-0.52868974,-0.52934223,0.12877658,0.62134665,-0.51176536,-0.10102662,1.2193495,0.21653251,-1.9019042,0.76702976,-0.07081875,-0.4772968,0.28022438,0.119497895,-1.1780535,0.4571764,0.6323497,-0.52904457,-2.0765138,0.364139,0.354354,0.6398389,0.44750938,-0.17066053,0.73928374,-0.15887412,0.681403,0.30746603,-0.8190645,-0.4214003,-0.12503627,0.42241254,0.05582383,0.5542601,0.6565622,0.11272243,-0.6948873,-0.22391129,1.1009471,0.498209,1.1069236,0.46653655,0.30234116,0.2603638,-0.3734495,-0.74561733,1.45849,-2.110996,-0.73231643,0.023563415,0.9754873,0.4843425,1.381033,-0.31476462,0.004052706,0.5696272,0.43116653,-1.2389218,0.43841928,-0.20329554,0.42063287,-0.31373173,-1.7206117,-0.089844376,0.014512327,-1.0824264,-0.46013469,-1.7743629,1.106681,-0.42030498,1.3140357,0.6175397,0.63405544,0.0063479096,-0.8051705,-0.6279224,0.1077261,-0.5039215,0.66601676,-1.6554031,0.7916646,-0.4224591,-0.07983297,0.29989365,0.59680384,0.96084404,0.9407619,-1.4995687,-1.6644379,0.668619,-0.17925592,-0.077196285,0.5479937,0.43791223,0.4568475,-0.67527604,-1.1017721,0.25813252,-0.3612442,-0.8886542,-1.6145777,-0.0987949,-0.509648,-0.2464823,0.36819386,-1.7326224,0.6878779,0.90876937,0.34047222,-0.7049206,-2.2427897,-0.33612373,-0.2976489,-0.7237302,-0.05093684,-0.53170645,-1.0041047,0.43229413,-1.3327447,-0.13808769,-0.89020157,0.3165539,0.23558137,-0.26987728,0.55216014,1.3909436,-0.07523085,-0.49562356,-0.82130766,-0.29068035,0.8634368,0.16042104,0.52721274,-0.548728,0.32280427,-0.4365662,1.1317077,-1.7617183,-0.2671701,0.17541926,1.0283096,-0.50512475,1.4828733,0.92107177,-0.8533617,0.653861,0.95994925,-0.2064941,0.7541768,0.07940739,0.11693051,-0.58934104,-1.41659,-0.0027466454,0.51828915,0.62604296,-0.6522555,0.41186607,0.88878244,-0.13054563,-1.198549,-0.72965544,1.0290868,-0.22569267,-1.4407835,-0.2807047,-0.94153774,1.3353312,-0.36204582,0.51892155,3.1323893,-0.5537286,1.237239,0.50985587,-0.38781637,0.6877223,0.014511958,1.9773906,-0.7190822,-0.25448102,0.632983,0.046777695,0.07671873,0.47891915,-0.80620944,-0.68138975,0.44150725,-1.5470096,-0.32522547,0.9882382,1.0307848,-1.1635935,-0.39247823,-0.55040824,-0.6664687,-0.5038868,1.2905561,-0.24441704,2.2450032,-0.578728,0.027974393,-0.58502144,-1.0441967,-1.2905797,0.013983922,-1.6284461,1.6877252,-1.612435,-0.444618,0.41314775,0.11558229,0.09171807,0.35049137,-0.5188613,-0.4602315,-0.21865663,-0.09342026,-0.57976395,-0.6556346,-1.3824165,0.31563205,0.4445701,-1.2363168,-0.6222074,-0.027508363,-0.2275851,-0.7508875,-0.30524516,0.029141746,-0.08371588,-1.7904804,0.2070455,-1.0706146,0.46310666,-0.87108344,-1.1463678,-0.6909632,0.79997563,0.7250944,2.2368934,-0.4155657,-1.5471121,-2.2171392,-0.22814722,0.97601575,-0.05428763,-1.6231356,-1.174414,-1.5652266,0.5140442,1.4424319,0.6473899,0.2295811,-0.41466162,0.36806667,1.3919226,-0.15644413,-0.7672197,-0.5350876,0.0029944126,0.8183479,-0.064206704,0.58395886,0.77201706,-0.80314875,1.3883365,1.5247986,-0.40834135,0.29122385,0.52477676,-0.32086435,-0.56560534,-1.565721,0.3184825,0.061396863,-0.40589485,-0.15227935,-0.0038932767,-0.009627938,0.30352017,-0.552811,-0.2619731,-0.0376392,0.35830626,-0.4814648,-0.52313864,-1.0773681,-1.6191108,-0.2507339,0.0881369,0.27835983,0.10474964,-1.5398464,-0.07425098,0.7974286,-0.18311399,-1.5755224,0.06518762,-1.0391014,0.23186673,0.74649,0.60722613,-1.3035245,-1.8629606,-0.75142264,0.7219739,-1.5013722,-0.23104487,-1.0306118,-0.25531065,-0.29034728,-0.37612045,-0.27444243,-2.048983,0.597327,-0.49478614,0.28977233,0.74008447,-0.43439978,-0.5653626,-0.94299984,1.2460696,0.39850932,0.066519946,0.2665886,0.23564802,-0.29691043,-0.42835084,-0.8212853,-0.34985125,-0.3241151,1.3828621,1.2828681,0.51413715,-1.0949804,0.7496183,-1.9670311,0.11766828,1.17982,0.25163502,-0.96204805,0.43577638,0.37244838,-0.004789956,0.3668562,0.6205724,-0.324606,0.3709714,1.3203864,0.7076627,0.12361456,-0.14837247,-0.5830169,1.7621644,1.3302414,-1.3942907,0.5312629,0.44618303,1.1825315,1.5446297,0.7829702,-1.0532105,1.5341581,-1.098364,-0.05282239,-0.20997135,1.2087381,-2.1648753,0.40597034,-0.31486687,0.42967862,0.20941673,0.17181176,-0.8741936,-0.016968984,-1.7561846,-0.062033948,0.14811943,-0.2164537,0.60566777,-1.0365238,0.16039804,0.102067105,1.4248341,1.0863893,-1.3706084,0.88179046,0.037355363,-0.12926555,-0.9620009,0.950949,0.5369875,0.4963759,1.0612065,0.80394924,-0.8212141,0.27274904,-0.38836414,0.6424466,1.169271,-0.5563401,-0.062736645,0.6492844,0.13547397,-0.8031966,-0.73120904,-0.0395051,0.5287446,1.6057037,0.2835968,-0.8963452,0.40327343,-0.9809098,-0.15147872,-0.25298294,0.35402077,-0.046455503,0.17059124,-0.7412431,0.088493995,0.35096383,0.22809693,1.0544436,0.07300887,0.61608225,1.2228785,-0.5792902,-0.91361815,-0.3880475,-0.53564954,0.16844754,-1.3500755,-1.3016993,-0.4203025,1.368322,-0.09956382,-0.6514867,-0.054330878,0.8679724,-1.3357608,-1.1140074,-1.5041423,-1.8577988,0.4466634,-1.0679027,-2.2609427,0.47461885,0.68217546,1.4170992,0.5661686,0.606226,1.0389189,0.20589826,0.67051697,-0.693985,0.3980478,0.7217248,-0.77482176,1.0544183,-0.91857094,-0.17964925,-0.2771805,0.48358148,1.4197302,0.9624474,1.590223,0.14193203,1.1175715,1.3369772,-0.5290489,-0.7593479,0.6596165,0.739475,-0.19849163,-0.5892598,0.15844342,0.76114297,-1.2015052,0.808797,0.43192542,-0.13635735,0.86174196,-2.5980568,-0.08536642,-0.25666395,-1.794437,-0.25868884,0.65068233,-1.3253256,1.3105118,0.43842846,0.950851,-1.049213,-0.42835683,1.4291182,-0.20395538,-0.5920241,-0.38824156,-0.44098598,-0.15289639,-0.8837481,1.1574817,1.0172786,-0.7645926,-1.3408005,-1.120029,0.48933116,0.052518386,-0.1782417,-0.27074838,-0.79798883,-0.8848958,-0.026127633,-1.3684225,0.8168628,2.1890237,-0.48074555,0.16104297,1.2248942,-0.5412107,-1.1425637,0.4791462,-0.10687533,0.22560927,-0.95406854,-0.029287633,-0.23897244,-0.29610065,1.536459,-0.030100493,-1.0889558,-1.1020273,-0.15391748,0.94677895,0.840881,-0.7261859,0.72898465,-0.09817156,-0.587307,-0.36068994,-0.048962317,0.023045555,-0.058534592,0.9897135,1.1420513,-0.7939004,0.34375358,-0.01871079,-0.82771254,0.8203866,-0.30708104,0.487703,1.0904183,-0.86822635,1.1233538,-0.28398275,0.5778681,-0.024075154,0.86699444,0.35615027,0.5683303,-0.43931735,1.0072274
A7,-0.4544685,0.16315675,-0.16339704,-0.08054141,0.6151726,-1.3307521,-0.6924973,0.2107697,-0.38841656,-0.6600283,-1.2599685,0.01661424,-0.09782502,0.76460123,0.5808245,-0.6571444,0.20533152,0.08780261,-0.8550814,-0.33007452,-0.03420899,0.5082711,-1.5743645,-0.16029641,-0.4803229,0.43316182,-1.0349144,-0.104046285,0.8465793,0.09757381,-0.99903256,-0.19808833,0.37992924,0.87181,0.30243766,-0.7285966,0.1694557,0.38456112,-0.80059963,0.9011322,0.4925244,1.3482713,1.4264538,-0.7179703,0.41861027,-1.4876072,0.0495908,-0.038995896,0.4852347,-2.0955484,-0.8275913,0.31896248,0.21202156,0.028060028,1.1310103,-0.5946556,0.7428517,0.675795,0.11560471,0.33867782,-0.73480076,1.092414,0.35662746,1.1797237,0.22475609,-0.67538536,-1.1612904,-0.07435599,0.02675686,1.2804797,0.13129506,-0.3908244,-0.565509,-1.0292242,0.9836544,-0.23561469,1.3193473,-0.2564116,-1.219009,-0.9648273,0.9314686,0.05454594,-0.37520415,-0.2993348,-0.040748592,-0.12927562,-0.0121310875,0.40384012,-1.1323602,-1.5894483,-0.2306774,0.15703808,-0.91541195,-1.0072675,0.64388555,0.8230156,0.77559304,-0.11776787,-0.38818073,-0.5101699,-0.32501078,-0.49040955,0.4722475,0.54645276,-0.12505126,-0.82078403,0.31141394,-1.5238628,0.6709552,0.5912687,-0.008146713,0.32801747,-0.17883483,0.6018748,-0.09908224,0.43304357,0.5721818,-1.1849604,0.682579,0.009032957,0.14301883,-1.1423578,0.008669078,-0.5880726,0.3918474,-0.32249928,0.47400618,1.4397123,-0.32541925,-0.40348902,-0.7577551,-0.18211505,-0.5949002,0.10195381,-0.8598243,-0.05697997,0.33817467,0.5753145,0.19658695,-0.41015115,-0.64633846,0.030421361,0.6471042,-0.20030607,-0.6001338,0.1612449,0.3557706,-0.04762719,0.26280096,0.12963113,0.4498238,-0.4552936,-1.2373569,0.5685545,-0.15495165,0.546857,-0.32473665,0.85492796,1.6245745,0.2054017,-1.663142,-0.11874066,-0.35175675,1.075849,-0.02141872,0.3868913,0.9690763,-1.010402,1.0758793,0.0848318,1.870432,0.6312629,0.38225836,-0.58154875,-0.708062,-0.5540896,1.7642529,-0.84083766,0.584992,1.2261535,1.1782591,-0.20370749,0.4538109,-1.0037887,0.3887779,-0.10321817,-0.3963532,1.9247725,-0.82758164,-0.6781436,0.91174114,-0.012010679,-0.28808764,0.62459666,1.075668,-1.3400606,-0.665246,-0.067828,0.7391979,0.48289707,-0.5862546,-0.06682834,-1.4547911,0.16489863,1.0254416,0.23720665,0.425319,-0.7418498,-0.85572475,-1.1571648,1.0005248,-0.31279376,-0.9962245,-0.20128,-0.81828946,0.023242565,-0.98018867,-0.20620969,-1.2087684,-0.108248815,0.14095283,-0.8359684,-0.86394185,-0.4714357,-0.39788154,2.4354327,0.6360451,-0.58511853,0.3345552,-0.5114919,1.6420504,-1.6063805,-1.003245,-1.6372508,1.3234425,-1.3193327,0.55797595,-0.67433405,0.33704346,-0.052487046,0.20423214,-0.09866963,-0.14447413,0.013163075,-1.8822218,2.1615677,-0.30190578,0.51447165,0.36212322,0.26800418,-0.33738747,-0.86093843,0.90317965,0.56504303,-0.1423223,-0.4439751,0.46265534,0.4075727,0.72184795,-1.2173257,0.6675703,-0.9170965,-0.76637965,0.3382954,0.31123662,0.73473835,-0.3093006,-0.071868405,0.55166316,-0.7256366,0.34328157,-0.08779527,1.5108728,-0.9541507,-0.49210548,0.5448102,-0.32469672,-0.38947552,1.0757197,1.1275468,1.581333,0.6591262,0.087220415,0.36526164,-0.47137392,-1.8640052,0.74814576,-0.895086,0.09187876,-1.7828836,0.9699421,1.0828564,0.14497331,-0.9869856,-0.5231409,0.56593496,-0.7429981,0.46145934,0.4440561,0.10284827,0.3110215,-0.8469116,-1.5643041,-0.8038642,-0.24623334,-0.40014982,0.2179677,0.7158658,-1.5242541,-0.4150145,0.54248005,-1.5124271,1.215313,1.151231,0.077877454,-1.7594156,-0.13051617,0.98817,0.16371894,-1.1951909,-0.4767378,0.44365743,-0.10236957,-0.108133905,-0.3574004,0.0014629872,-0.04725544,-1.2686343,-0.4538966,0.76853853,0.050250135,0.59067184,-0.2777471,0.0073406566,0.45873687,-0.13024224,-0.13478343,0.004783813,0.13013703,0.16067326,0.6468206,-0.005038215,0.06874831,-0.27886513,-0.19749336,0.040174432,0.5540465,0.4207558,0.2943472,0.66743326,1.8890319,2.0463436,-0.7233163,-0.096999645,-0.37039945,-1.279683,-0.4903926,1.0440233,-0.4289917,-0.93989176,0.5315731,0.93595624,-2.5811098,0.045073852,1.6278284,-0.15406246,0.99633026,-0.1414291,-1.7027609,0.24312845,0.37945545,0.81976604,0.7617301,0.18652943,1.1721684,-1.7456379,1.1255939,-1.3268901,0.6954241,-1.1693945,-0.48451236,-1.2449186,-0.9394321,-0.25559172,-0.60606575,2.8712642,0.258615,0.46829045,-1.8795819,-0.92499197,0.5805029,-0.110475734,0.75478375,0.7181993,-0.37408,1.2266943,0.81495243,0.32603252,-0.1398463,-0.40003532,0.5704631,-1.0252199,0.2781431,0.99606895,-0.28159726,-0.7980198,-0.33798656,-1.919894,-0.62277186,0.31014782,-0.6253374,-0.28736874,-1.0544547,-1.2549272,0.61570895,0.96540815,1.5380402,1.1736455,-0.55056894,0.07007034,-0.7080384,0.6978382,-0.86835694,-0.7029765,-0.5345681,-0.11618805,0.86256504,0.36165726,0.2585406,0.678567,-0.99653715,-0.4196993,0.24693292,-0.4554044,-1.0051309,0.23774466,0.2732337,-0.30582327,0.49957716,-2.5282288,-0.7704116,-1.8359306,1.0228418,-0.09311654,-0.39369634,0.39007226,1.2189958,0.77945364,-0.9900201,0.37683964,-0.004993532,2.1565838,-2.2208533,-1.160048,-0.2536787,0.98586595,-0.24783874,-1.5337076,0.53513104,-1.0391386,2.3188906,-0.6199479,-1.8220097,1.0991514,-0.429993,0.16775823,-0.024903432,0.30182913,-0.4384067,-0.30558246,0.15577826,-1.1335701,0.6428025,0.3890039,-0.28869638,-0.3714721,0.72736514,1.0097059,-0.9980171,-0.8909775,0.32823256,-0.50616086,0.47449553,0.16248666,-0.35345182,-0.44297773,0.16287541,-0.38378718,0.27983183,-0.47838518,-0.95346284,-0.21999948,1.0027292,-0.27485436,0.8451104,0.761139,-0.8845358,0.099361554,0.024988364,0.78555226,0.2054437,0.76911545,0.3302442,-0.17208734,-0.70051455,-0.8888943,-1.4150183,2.2209775,-2.053029,-0.17412832,-0.634974,0.4588722,-0.6205072,0.7124108,-1.8982941,-0.87680835,0.79053515,0.65917987,-2.8168046,1.3071359,0.20467624,0.53188694,0.420842,-2.5826545,-0.54575175,-0.661162,-0.44222993,-0.354486,-0.42099676,1.2242175,-1.2476243,0.9112601,-0.79505235,0.96523625,-0.1788012,-0.35917497,-1.0664947,0.9013841,-1.3542627,0.0745024,-0.84681666,0.43727195,-0.78623885,0.13524155,-0.24123377,0.46658245,1.1277086,0.64619863,-0.97758263,-1.7816797,-0.27900347,0.6957011,-0.38013434,-0.14128596,1.1468754,-0.0071124136,0.38670748,-1.1865654,-0.5131313,-0.5139653,-0.37783268,-0.8320616,0.3348899,-0.6926365,0.118470445,0.7903463,-1.194579,1.659992,0.74878025,0.80802065,-0.045507304,0.4083262,0.66708857,-0.6091714,0.14871536,-1.2159635,-0.8166003,-1.0103422,0.82887244,-0.13063589,-0.67072916,-1.4397984,0.61624026,-0.85781467,-1.4160513,-0.5084019,0.87316966,-0.2566726,-1.7279558,-0.87575793,-0.121131524,1.3788588,-0.5884958,1.3438644,-0.6516348,0.29937807,0.9993817,1.286794,-1.2219573,0.830336,0.2932135,0.40129748,0.6461174,0.21074247,1.1784534,-1.0162325,-0.48348677,0.1732776,1.3739581,0.5617201,3.194902e-05,-0.70142335,0.9653835,-0.60818875,-0.16966583,0.3561427,0.18584572,-0.6971759,-0.27209672,0.4522332,-0.05673602,-0.58552015,-1.3080602,1.0297751,0.94097364,-0.19847256,0.111531444,-1.1154839,0.38512352,-0.6614711,0.4535097,-0.44342852,-0.8345227,0.83120996,0.22489282,-0.97676253,0.41022086,1.4583515,0.8914325,-0.28317246,1.0056297,0.09096767,-1.0097325,-0.30415344,0.43038824,-0.13842651,-0.718888,0.40505463,-0.36460286,0.34082848,1.6762109,-0.3187586,-0.39962807,0.02041661,0.41577014,-0.010120984,-0.1628961,1.6446881,-0.25068578,2.1317217,-0.18036178,0.07140572,-0.402828,-1.2788508,-0.42761377,0.8498268,-1.5505402,0.5453478,-1.209096,1.1287186,0.9304885,-0.1577924,-0.37326613,-0.3379725,0.23103334,-0.5479319,-0.48812428,0.4500874,-0.70144296,-0.4479787,-1.7336186,0.39830253,1.3611984,-0.08652574,0.5701474,0.5761884,0.9469644,0.58978033,0.036042273,0.6407189,-0.17353055,-0.9438858,-0.8910676,-0.05576368,1.5579314,-0.22682951,-0.7026586,0.855089,1.2459006,1.4161547,0.89096856,-0.28647912,-1.0504735,-1.4721477,-0.884779,-0.37089217,-1.1871228,-1.9437503,0.3200541,-0.88855505,0.39174065,1.1865356,-1.0517931,-0.25010297,1.731705,1.101477,1.7522154,-0.11766975,-0.31958133,-0.0023488328,-0.05161769,0.48846528,0.5228647,-0.6681961,-0.17506573,0.30653238,0.35397944,0.50343025,1.0069356,0.29245734,1.4154723,0.5624622,0.7868353,-0.7360943,-0.57775784,-0.11349384,-0.93968403,0.024838055,0.44859517,-0.6644026,0.253038,-0.15921368,-0.80063933,0.6294217,-0.5772348,0.41373134,-0.37637538,-0.41896972,-1.9903774,-1.5330931,-0.73136735,-0.15318558,0.7833394,-0.5498355,-1.3705962,-0.8837183,0.7541805,-0.8262644,0.71619296,-0.9249226,-0.16003492,0.1286291,-1.0100837,-0.87218183,-1.3073273,-0.8720671,0.18294054,-1.2275273,0.40600848,-0.9129733,-0.32775334,-0.6612544,0.40347186,-0.22868116,-0.9995218,-0.9658814,-0.61054903,0.33550364,0.62405837,-1.6371223,-0.1532955,-0.86947703,0.5757579,0.6036072,1.1788872,-0.49154523,-0.44777554,-0.17543659,0.42534047,0.32191497,-0.40539205,-0.3594859,0.95120716,0.25691772,0.50495386,0.5127212,1.4329242,-1.3992068,-0.06616996,2.4714458,-0.3324067,1.1069411,0.6257735,0.09485641,0.23229735,-1.0010124,0.25694993,-1.0664928,-0.5451045,1.558444,0.3595056,0.55729115,-0.062369954,-1.4443916,0.3852836,-0.316732,-0.5006155,-0.1783791,1.2481673,1.4810821,0.75778776,-0.40056065,-0.65861547,0.361016,-0.9442145,-0.47156563,0.36158177,0.74599004,-1.3283231,-0.5666517,0.04138947,0.7554281,-0.35699204,0.4942971,0.48066807,-0.80412084,0.26818323,0.077730775,1.3960855,0.44090742,1.7246628,-1.6083922,0.14178059,-0.158836,0.636895,1.489267,-0.48487642,0.44353524,0.44993412,-1.1677899,-1.6116093,-0.09946503,0.114088066,-0.89640343,1.0950432,1.4012975,0.021094123,-0.26139697,-0.2286985,-0.013599459,0.9557529,0.13555197,-0.106214724,-0.4808653,1.1054808,-0.011787567,0.16896197,-0.31768155,0.80262524,0.4643256,0.67801464,0.06677364,-0.38023594,-0.2374377,0.6178117,0.27156988,-0.9281498,0.14045197,-0.3116463,-0.64357805,0.30960074,-0.93620795,0.010503197,0.48721072,0.23016828,0.012204848,-0.5921509,-0.46650743,0.38295552,0.8622846,-1.209549,0.8617554,-0.31819716,-1.1062895,-0.5714455,0.15626559,-0.028003003,-0.7047461,-0.5529152,1.399039,-1.8528463,1.0807837,-1.4557328,-0.60947174,-0.44625038,-0.33764547,-1.3816155,-0.55311435,0.01637382,0.9596384,0.91445225,0.080024116,0.43564242,-0.7665954,1.370257,-1.2695887,0.075934485,1.4995154,-0.72372437,0.25312686,-0.18694869,-0.02019415,-0.52165014,0.64793944,-0.38451165,-0.24002323,1.1709126,-0.10728528,0.20525508,-0.10823105,1.1135187,1.096212,0.4701533,1.2704134,0.64132047,-0.85249984,-0.5797535,1.0448859,-1.275552,0.11891358,-0.64553016,-0.16090254,-0.23876467,-2.0804305,1.3848207,0.09411519,-0.4661614,-0.068260275,0.95593655,-1.2195129,1.719189,-0.0059083262,0.15114701,-0.18731137,0.40523237,-0.04477746,0.96770376,0.06199509,-0.19650629,0.02191942,-0.70365983,0.11631672,1.117644,1.3584337,-0.6155529,-0.37483886,-0.8692135,0.3813671,-0.7417202,-1.0267527,-0.010159116,-1.294736,-1.0471781,-0.29019883,-1.5877533,0.5837609,0.25513726,-0.87065333,-0.4729779,0.97251123,-1.2179258,-2.406624,-1.1553795,-1.110843,0.80486166,-0.42871028,-0.48340794,-0.28337583,0.6139834,1.21608,-0.64656353,1.2139156,-0.91419685,0.18021274,0.89331365,1.5166718,-0.19786046,0.9722353,0.16004758,-0.563444,1.3750314,-1.1454493,-1.0497227,0.3438852,0.6266174,0.72402716,-0.9145972,0.8830825,0.5393558,-0.909648,0.44056302,0.19301423,-0.20142798,1.2905508,0.24686846,0.27056655,0.021943305,-0.3343667,0.6281323,1.8707876,0.16821763,0.20412758,-0.082961515,0.4490334
A8,-1.0744898,-0.60823715,-0.5257706,-0.53478694,-0.19736573,0.34433037,-2.0348985,0.61291665,-1.5910195,-0.8921455,-0.02741619,0.64961874,-0.5810863,0.51854193,1.1475908,0.15758927,0.54429764,0.42905903,-0.08693402,0.65920866,0.09602564,-0.15282293,-1.1750728,-1.3303243,1.0786504,-0.46998444,0.2791656,0.08433715,-0.44353518,-1.1800563,0.36369208,-1.2224194,-1.285125,0.8088674,0.07804866,-2.9856193,-0.51155335,0.8446517,-1.2806104,1.612233,-1.352896,-0.92949164,-0.09651158,0.13092454,1.9632002,-0.44600058,-0.028065372,-0.77224416,-0.59173244,-0.03583151,-0.12538515,0.34163374,1.5380238,0.64975303,1.036651,-0.18016805,1.9569826,0.7906403,0.24262528,0.8512574,0.6261865,0.1457888,0.29475036,0.16130562,2.2350335,-0.54909855,-1.3006037,-0.52508914,0.49857432,-0.18525255,0.12677643,0.57592326,-0.7098207,0.059306353,-1.6432505,-0.33130333,1.3678778,-0.28458205,-0.66196185,-0.37446982,-0.06260092,0.31056738,-0.41765282,0.62181854,-1.9218245,0.20163727,-1.9875268,-0.6943111,-0.70068187,-1.1058066,1.1140926,0.6415761,-2.3808467,-0.029699141,1.5079982,1.3833369,0.19059706,-1.3135278,-0.79343355,-1.6172206,0.071475446,-0.7080944,0.41792366,0.6078542,0.06993333,-0.304925,0.033727825,-2.046247,-0.05916554,-0.439593,-0.15979229,0.91210216,1.9254032,2.1537032,-1.5158414,0.49858183,-1.1022164,-0.47769406,1.4961994,0.60963154,0.953195,-1.8964413,-0.77526474,-0.072318785,0.25154114,0.11471691,0.4473861,0.7153323,1.1539319,-0.09997567,-0.3692453,-0.9968885,-0.23717451,-0.19381502,0.08852755,-0.19471438,1.4007751,0.9813193,-0.8905779,-0.5325785,-0.7079077,-0.37619385,0.11136369,0.89499897,-0.9513655,0.33651742,0.97452545,0.039659057,0.58991283,0.4253369,0.30910698,-0.16148493,-1.4783099,0.3437354,-1.5947508,-0.4314913,-1.6861012,0.31075335,0.31112963,-1.0040872,-0.5458347,-0.064404674,-0.051192466,1.2599429,-1.5806925,0.7610856,-0.13538416,-2.0358498,-1.6379963,-0.28054872,0.59038883,0.6866964,0.8692889,1.0574496,0.43493325,-0.15429851,0.26781377,0.13124795,1.8694898,0.27816364,-0.11434279,-0.2452858,-0.9680186,-0.99031025,0.011595843,0.74666184,-0.41051647,0.21310608,0.14606097,-0.50356114,-0.5941037,1.1402693,0.62177426,0.19539413,0.86151725,1.5646502,-0.5548635,-0.35531238,1.6500176,0.40958053,0.5489951,-0.28533405,-0.41087753,-0.30286002,0.533651,0.1819177,0.7101169,-0.23946294,-0.046433397,-0.74920523,0.99682236,0.81594867,0.34786958,-1.3681885,-0.56155497,-0.3110607,-1.2445824,0.87381804,-0.15379214,0.6473158,0.9044909,0.18354325,-0.020733967,-0.024557138,-1.3184677,0.42369032,0.60928315,-0.29012328,0.27866533,0.030352091,0.5798761,-1.5426441,0.77932274,-1.2762622,-0.21761517,0.41268083,0.42327544,-0.12837325,-0.069022074,-1.6838043,1.1266832,0.2650141,-0.46165618,1.1946784,-0.6094185,0.0588687,-1.1071589,0.42051408,0.0040215254,1.3658016,-1.0653455,-1.0088817,0.22156997,-0.66225904,-0.25092623,-0.028778795,0.74413306,1.5727899,-0.37073633,-0.62735164,1.5029103,0.13864854,-0.44781235,0.41408986,-0.33098704,1.9569807,-1.5770912,0.69170463,0.64515764,0.06291144,0.26563928,-1.365406,0.87694985,0.6957983,0.8200552,-0.08151759,-1.3197247,2.222081,0.4554464,0.33649418,1.8811514,1.4451187,-1.0409398,-0.98498106,0.057892952,-2.402039,0.33766273,-0.090238854,-0.42301792,-1.7884022,1.2620891,0.06402656,-0.27281463,0.40479842,-1.3129886,0.4990516,-0.74099785,-0.31660584,1.5532948,0.9043992,0.4046605,0.29439333,-1.0634617,-0.5189033,0.8672886,-0.44194612,-0.80434865,0.44181138,-1.0220755,1.2696419,-0.80171764,-1.018721,0.013110204,0.032729793,-1.229549,0.09879438,-0.5656592,0.273023,0.6562421,-0.6001048,0.19027114,0.5955414,-2.0227578,-0.7299825,0.5161092,-0.88719255,-0.15330362,-0.8619693,-1.0387961,1.0971482,1.3154013,-0.40475684,-0.2520111,-0.8505543,-0.6472805,-1.0644596,0.33541328,-1.135247,0.4165619,1.394076,-0.281707,-1.2519064,0.555141,0.6823816,0.3201231,-0.43608442,-0.16163902,0.8719096,0.89237696,-0.91644675,0.40583208,-0.47014847,1.277477,-0.16322403,-0.99496174,0.0948687,0.6351605,1.2434636,-0.3033494,-0.045438457,0.13035677,-0.4042406,-2.538699,1.5830424,2.4355583,-0.049421437,1.5060024,-0.6671191,-0.5272375,-0.759908,-0.2371849,0.8684944,0.6103129,-0.09196401,1.1293551,-0.3362119,0.23537321,-0.82322425,0.29761901,-0.11498666,0.13415502,-0.73835886,0.7207146,-0.881206,-0.997032,1.5110935,-0.91118896,-0.038413566,0.24025771,0.30970478,0.57730895,0.10954029,1.2366868,1.7551258,-0.23517573,0.3050499,0.28631005,0.5042506,-1.1358795,-0.25658727,1.2025889,0.54406655,0.56969297,0.0608509,-0.50546396,-0.7457037,-0.4827241,-0.41370672,-1.1442469,0.90479153,-0.10064156,-0.42819384,-0.33587298,-0.9729185,-0.1752077,0.5893456,-0.09248556,-0.8542291,0.30545005,0.012585031,-0.74002415,0.104208864,-0.68404686,-0.49207237,0.881579,-0.9127096,0.90850085,-0.5432649,0.36429286,0.7173615,-0.92172134,-0.09268463,0.4530599,-0.27999133,-1.2250004,-0.015022083,0.75995404,-1.0859051,-0.50720125,-1.1098664,0.081435144,0.2735698,0.070491,0.09448027,-1.3727846,0.12189353,1.0130435,0.18446943,-1.7976271,0.7298272,0.3757875,0.9745507,-1.8035108,-0.9413852,-0.34909323,0.14902115,-1.2115872,-1.537594,-0.09814803,0.27690485,0.53029865,-0.5903662,-1.7839262,-0.45405987,0.012060159,-0.16889873,0.26885965,-0.072277844,0.40759072,-1.7784637,1.2608565,-2.0983856,-0.41112533,0.2639985,-0.45583934,-1.4674442,0.4345736,-0.15290506,0.4682114,-0.39089724,0.07478951,0.16921635,1.068659,0.77269906,-1.3271453,-0.066205196,-0.4202991,0.8163752,-0.33963895,-1.5150025,-0.8676689,0.4491519,1.3204335,0.22094785,1.2335488,-0.15954474,0.456758,0.4401448,-0.6152893,1.7997848,-0.14008157,-1.0439918,0.6755425,0.020262932,-0.14072843,0.17967781,0.35417143,1.3400856,-1.1794044,-0.4533001,0.33028236,1.860666,-0.7538327,-0.74544775,-2.6220944,0.40082023,0.98448175,0.1830665,0.22234568,-0.23473366,-0.6528584,0.33905554,0.124473,-0.7644246,1.6415691,-0.3677083,-0.4245564,0.14011706,-1.0907159,-0.4399465,-0.7371188,-0.6599334,0.05838993,0.10259693,-0.31318036,-1.2095531,-0.69245136,0.19875118,-1.708711,0.45715123,0.4837597,1.0198032,-0.5665721,0.19028625,-0.1665169,0.12032611,-0.47631183,1.2981033,-2.5294187,-0.10448762,-0.3407879,0.7976891,-1.7378222,-0.6642224,0.13195354,0.67474264,-0.11579033,-1.1753734,0.6149295,-0.102169804,-0.21248133,0.09888865,0.08017503,0.31123105,0.33396524,0.9582445,-1.1670305,0.16892745,1.2135965,-0.19723447,-1.2207286,0.10717782,0.06698688,0.08340073,-0.39187235,-0.05242435,-0.41532564,0.4125958,-0.3027935,1.2404203,0.3080388,0.5030587,-0.23110949,-0.3786823,0.48914886,-0.35631058,0.9501624,-0.557753,-0.085026994,-0.68164223,0.3199551,1.2274722,-0.2884681,1.3869724,-0.32013276,0.8404127,0.7057174,0.8864956,-0.2633818,0.43137482,0.66062254,2.4062257,1.0293232,0.209927,0.0091777425,0.13975807,0.25426453,1.1782478,2.0510972,2.035403,-0.8786106,0.09181715,-0.22998978,-1.3376116,-0.57162106,-0.07555161,0.5772436,-1.2721924,0.5339468,0.8069678,1.0475665,-2.1629157,-0.86763257,0.76929015,-0.6007514,-0.35679746,0.89830935,1.4740509,0.5958613,-0.23758116,-0.47067443,1.2616147,-1.4159058,0.04764867,-0.95652246,-0.60146946,-1.0408303,1.3430051,2.7430968,-0.42310688,-0.06136719,-0.34860852,-0.38588014,0.5567662,0.3870634,-0.9508027,-0.4559612,-0.74888605,1.6387997,-0.29304248,-0.17627761,0.15611844,-0.34944078,-0.38955352,1.3556026,0.8091524,-1.4116175,-0.6384297,-0.64887905,-0.7011398,0.34227985,-0.8919573,0.35659176,-1.7646068,-0.8435985,0.51473516,0.37309927,1.2418305,-0.4948146,-0.41262147,-0.5193471,0.4114654,-0.0838478,0.59513885,0.021099722,-0.3398882,0.061863896,-0.4097361,-0.34095955,1.0014055,-0.5382238,-0.030009875,0.44982675,0.1256112,-1.5915474,-0.6387224,1.1351962,-0.75861967,-0.28765363,-0.26061192,-1.2459106,-0.54927707,-0.29808092,-0.014356775,-1.013598,0.007598504,-0.8301696,0.13722824,1.2781239,1.5934209,0.60045254,0.13847664,0.16838786,-0.4554122,0.7367705,0.7240402,-0.8642265,-1.9002224,-0.87224275,-1.1648661,-0.0836118,1.3660995,1.2646484,-0.0067453617,0.5390802,-0.06572551,-0.4107572,0.12483452,0.3532984,0.94556725,0.05665759,-0.40707713,-1.1090004,1.13439,-0.9389405,0.07240354,0.56834066,0.050350748,0.50265336,0.9284262,0.57499665,0.20287482,0.24070393,-0.2383281,0.3081086,0.13836049,0.22595613,0.24441457,-0.83038443,0.5113792,0.73935145,-0.05250405,-0.5146421,0.2879531,-0.5234028,-0.5144119,-0.5786224,-1.9426945,-2.0670116,0.27617142,-1.6618427,0.1344424,0.7611248,-0.98874986,-1.4327507,-0.39863014,0.7023819,-1.019754,-0.42604575,-1.0743078,0.18707204,0.29536375,-1.9430043,0.35932097,-1.5538739,-0.3064103,0.26302463,-3.3690612,-0.5628169,-1.4731077,-1.0439293,1.5373709,-0.15535794,-0.9807669,-0.8785782,-1.1021777,-1.0464134,-0.11242725,0.41905022,-1.106989,1.1467171,0.2685147,0.028209388,1.7314222,0.6791336,1.4209961,-2.359837,-0.20049405,-1.4655122,-0.14236139,0.05461135,-0.31449458,0.39514136,0.28554502,2.293736,0.5179459,0.009824746,-0.6436097,-0.17876521,0.3847355,-0.17346664,0.7332184,-0.46195254,0.8973438,0.51713973,-0.6043496,0.5987691,-0.49107704,-1.304242,0.6573289,0.4118239,1.6532675,-0.09653489,-0.35084572,0.7028346,1.4031622,-0.08808811,-1.3754113,-0.3122582,2.827744,-0.15089764,0.26773447,-1.2972771,-0.7108058,0.6168084,0.10696828,0.22752622,1.6439762,-0.2046795,0.73586756,-0.403809,0.36234316,0.02963656,-0.5489483,-0.057677932,-0.059737794,-0.46863228,-0.25348923,1.4349134,-1.5911071,0.88063794,-1.5455065,-0.33278322,-0.7877326,-1.0148554,1.6651222,-0.17473154,0.009071053,1.12577,-1.1447061,0.4989554,1.7193636,0.65349704,-0.17504072,-0.7157605,1.8636366,-0.7765648,-0.46949673,-0.93255424,0.87015975,0.7541126,-0.19930024,-1.3047601,-0.08486577,-0.124535374,0.4640858,0.24076541,0.12530304,0.71905905,-0.3045096,0.4862574,0.009727508,-1.3939135,-1.1215657,1.3662624,-0.18658577,-0.4168976,-0.59061015,0.12644187,-0.61677676,0.055100203,-0.7781223,-0.034379907,1.1441828,0.57502174,0.5838602,-1.2024366,0.6915938,0.6796756,0.2040418,-0.37526056,1.928407,0.5297943,1.2143878,-2.3731532,0.48186043,-0.3160767,-1.6242535,-1.2508037,-0.14216486,0.7476364,-1.8678371,-0.5975369,-0.6798499,-1.6370119,0.47927424,-1.5197505,-0.3536344,1.4279051,1.13575,1.0787677,0.8031868,-0.25520447,-0.61251336,0.9620549,-1.5176888,-0.13729502,2.4556925,-0.75699025,1.4630553,-0.040590346,-2.3923938,-0.520805,0.38033557,-0.43650323,1.2017742,0.3981741,0.42554548,-0.41877842,-1.2957466,-0.28772074,1.4458886,1.0106446,0.9864631,1.5218774,-2.0232196,-2.414824,-0.68714774,-1.8886374,0.8049382,-0.57227606,1.3375753,0.8319732,-0.96439505,0.51412976,-0.20023063,-1.370754,-0.44910687,0.29091698,-0.37034848,0.5584244,-1.4093908,-0.13919063,-1.1784791,-0.8324694,0.4129909,-0.48530057,-0.32032913,0.64885414,-0.75238353,0.35196048,-0.41775703,1.0485198,1.38013,1.13849,-1.3283037,0.2139508,0.23702203,-0.7730314,0.5728658,0.8196824,0.9404078,-0.12684944,0.42746848,-0.79851717,0.6411558,1.5642337,1.3477,0.27449486,-0.22706948,-0.7657532,-0.9133724,0.18289237,-0.32547018,-0.55233836,-1.0165774,-0.9705372,0.23306803,-0.93460566,0.8029104,-0.15843509,-0.9919995,0.560025,0.6758147,0.44497037,0.098967396,0.197907,0.44562703,0.5543937,-0.13045706,1.5244526,-0.76385355,0.57952833,-0.5609497,0.70802796,0.34993953,-0.24093957,-1.0112066,2.1327283,-0.34108958,-0.7048451,-1.0404125,0.27475086,1.8488505,0.6435959,-0.38425857,0.7880702,0.3407962,-0.30765003,1.4960022,-0.22697207,-0.5595147,1.0162858,0.9102932
