question-id,0,1,2,3,4,5,6,7,8,9,10,11,12,13,14,15,16,17,18,19,20,21,22,23,24,25,26,27,28,29,30,31,32,33,34,35,36,37,38,39,40,41,42,43,44,45,46,47,48,49,50,51,52,53,54,55,56,57,58,59,60,61,62,63,64,65,66,67,68,69,70,71,72,73,74,75,76,77,78,79,80,81,82,83,84,85,86,87,88,89,90,91,92,93,94,95,96,97,98,99,100,101,102,103,104,105,106,107,108,109,110,111,112,113,114,115,116,117,118,119,120,121,122,123,124,125,126,127,128,129,130,131,132,133,134,135,136,137,138,139,140,141,142,143,144,145,146,147,148,149,150,151,152,153,154,155,156,157,158,159,160,161,162,163,164,165,166,167,168,169,170,171,172,173,174,175,176,177,178,179,180,181,182,183,184,185,186,187,188,189,190,191,192,193,194,195,196,197,198,199,200,201,202,203,204,205,206,207,208,209,210,211,212,213,214,215,216,217,218,219,220,221,222,223,224,225,226,227,228,229,230,231,232,233,234,235,236,237,238,239,240,241,242,243,244,245,246,247,248,249,250,251,252,253,254,255,256,257,258,259,260,261,262,263,264,265,266,267,268,269,270,271,272,273,274,275,276,277,278,279,280,281,282,283,284,285,286,287,288,289,290,291,292,293,294,295,296,297,298,299,300,301,302,303,304,305,306,307,308,309,310,311,312,313,314,315,316,317,318,319,320,321,322,323,324,325,326,327,328,329,330,331,332,333,334,335,336,337,338,339,340,341,342,343,344,345,346,347,348,349,350,351,352,353,354,355,356,357,358,359,360,361,362,363,364,365,366,367,368,369,370,371,372,373,374,375,376,377,378,379,380,381,382,383,384,385,386,387,388,389,390,391,392,393,394,395,396,397,398,399,400,401,402,403,404,405,406,407,408,409,410,411,412,413,414,415,416,417,418,419,420,421,422,423,424,425,426,427,428,429,430,431,432,433,434,435,436,437,438,439,440,441,442,443,444,445,446,447,448,449,450,451,452,453,454,455,456,457,458,459,460,461,462,463,464,465,466,467,468,469,470,471,472,473,474,475,476,477,478,479,480,481,482,483,484,485,486,487,488,489,490,491,492,493,494,495,496,497,498,499
A1,-0.07115518,-0.02092286,0.128368,0.032047894,-0.00812198,0.00474605,-0.15644538,-0.11323895,-0.04052694,0.104649656,-0.014775113,0.049449474,0.017126463,0.0031702714,0.034477558,0.04064621,-0.06046058,0.14179175,-0.045871682,-0.030149521,-0.005104656,-0.04725573,0.07377509,0.030040255,0.041535594,-0.051617507,0.017441453,-0.024339223,-0.08354092,0.036718015,0.14969248,-0.031195408,-0.0034398746,-0.12720193,-0.04265509,0.07396276,-0.002223099,0.072963886,-0.005209655,0.17849499,-0.018637113,-0.057374272,-0.009875904,0.060083795,-0.03863152,0.07253675,-0.19154756,0.00907433,0.0007931316,-0.028504597,-0.02480096,0.0045311125,-0.060647994,0.13560623,0.0118483715,-0.03663089,-0.040819257,0.14927459,0.037201524,-0.031476215,0.010297423,-0.035706177,-0.025232622,-0.020004155,0.0410916,-0.04015171,-0.03575692,0.07625233,-0.016732048,0.015216273,0.036345474,-0.06856004,-0.03291222,-0.06034226,0.07919806,-0.044102527,-0.05371509,-0.050501272,0.049801197,-0.04432228,0.024873437,-0.09365078,-0.018822402,-0.032817915,0.03908758,0.086781174,-0.068934046,-0.03141393,0.009979269,-0.10079132,-0.049768187,0.019175887,-0.054043185,-0.009558003,0.043838046,-0.020886019,-0.11594367,0.020445738,0.05992339,-0.027753782,-0.015248985,0.038176447,-0.020710863,-0.044923797,-0.02472627,-0.09153502,-0.048525367,0.05828364,0.02936646,0.052509867,0.061959505,0.22597405,0.06960229,0.13674022,0.04216011,-0.031820126,0.051238775,-0.051121395,0.09841254,0.014634147,0.07922953,-0.06202106,-0.08201976,-0.01962328,0.079215184,0.06390726,-0.0081018545,0.09821834,0.0055574835,0.075663395,-0.021600647,-0.010357617,-0.162931,0.0026086639,0.0051221442,0.015887331,-0.13142502,-0.094600126,-0.09679583,-0.14437592,0.06977952,0.13121206,-0.074634686,-0.21451364,-0.012845164,-0.18233274,-0.05724704,0.09735009,0.05644268,0.10421134,0.072356515,0.0019977,-0.12505504,-0.02814935,-0.04011547,0.026591055,-0.11238985,-0.047223885,-0.07402139,0.005195642,-0.017872766,-0.015021269,-0.020402715,-0.06065944,0.022731295,-0.029682169,0.0013790802,0.08386287,0.046495847,-0.065155104,0.07591131,0.06279654,-0.040826328,0.021204881,-0.013270721,-0.045978673,0.08398876,0.05911899,0.0049388628,-0.017829515,0.023360427,-0.007956216,0.063697174,0.017156154,0.049013704,-0.06550669,-0.035309847,0.06041583,-0.11063995,-0.0826806,-0.02423126,0.04166346,0.026382908,-0.08507907,-0.063911036,-0.0052484144,-0.12535872,-0.083602086,-0.038843066,-0.11930747,-0.07089808,-0.037279278,-0.12356341,0.011287878,-0.085191704,0.07203728,-0.011242124,0.0052892347,0.006477644,0.081864685,0.033231515,0.13679487,0.093133874,-0.036170654,0.14847995,0.060522236,-0.07443116,0.04525657,0.0012603304,0.0023169136,0.0070240395,-0.06895766,0.03629588,-0.026556194,0.0022185033,0.020669011,-0.07677893,0.059023723,-0.04468172,-0.061021466,0.11336303,0.028263891,0.027967758,0.05223676,-0.007911287,0.03748217,-0.12289536,-0.09816045,0.0045202933,-0.03235003,0.051642638,0.14829855,-0.07433122,0.08483186,0.0032284558,-0.10326342,0.018874723,-0.012069137,-0.03830044,-0.12074962,-0.0005866273,-0.03698523,0.072553776,0.040009912,-0.14184582,0.058984425,0.05319355,0.096331924,0.03094589,0.0796457,-0.07844789,-0.03920454,0.057703137,0.024703912,0.07721313,0.13751853,-0.13065784,0.17536363,-0.045678023,-0.008133174,0.0077041863,-0.091799624,0.087496355,0.0221664,0.028766505,0.07502828,0.08757052,-0.06912766,0.11401514,0.08391196,0.024390602,0.0038459536,0.11843189,-0.040130187,-0.09761403,0.02756457,-0.0038970127,-0.013264842,-0.0025351676,0.030179325,-0.047598764,0.051871244,0.06382641,0.18123586,0.0021530306,0.081703104,-0.09154383,-0.08805145,0.025155589,-0.031859145,0.0026080746,-0.024529044,-0.10780151,-0.041274596,0.022000879,0.07065639,-0.05289764,0.093799695,-0.11569528,-0.013255126,-0.053583276,0.0023184146,0.03788902,-0.044451185,-0.059449535,-0.070612736,-0.051227264,0.0031112311,-0.044386897,0.124328844,-0.08757418,0.072694115,0.040913805,0.009314727,-0.05599891,0.056232776,-0.022812331,0.0576792,0.046663888,-0.020901008,-0.049670443,0.08082087,0.0006090544,0.038416203,0.07269514,0.014805884,-0.0042383564,-0.0043489034,-0.025636738,-0.054398682,-0.025409706,-0.008568407,0.022172075,0.06711902,-0.032566752,0.009811648,-0.001165985,-0.079621896,0.028851837,0.059942536,0.0057375794,0.05809535,-0.05470527,0.06543661,0.027440887,-0.005397151,0.008071352,-0.08260381,0.09392716,-0.020824062,0.085648015,-0.033613604,0.009081477,0.08532779,-0.0077955257,0.006013824,0.12746036,0.03937658,-0.1455963,-0.11751632,-0.20795853,-0.03085819,0.18576202,0.06789151,0.05389869,-0.024855621,0.02747226,-0.051482573,-0.06052721,-0.06848831,-0.12668042,0.01746771,0.064392924,-0.05736475,-0.009540372,-0.09232311,0.123033404,0.1271422,-0.07918155,0.102725305,-0.02384139,-0.0203491,0.041140847,0.02212626,0.22317982,0.045001473,0.0821105,-0.11186439,-0.16603236,-0.013510659,-0.034917403,0.0050375806,-0.007388745,-0.02313778,-0.05674229,-0.060467076,0.025445873,-0.059232403,-0.041200746,0.013216116,0.028391048,0.100358926,0.09977555,0.03220294,-0.055003792,0.006671285,0.07167133,0.035593946,-0.07921884,0.10654156,-0.04074161,-0.07083167,-0.055312343,-0.025664894,0.056401644,-0.124281175,0.058509737,-0.010835341,-0.0016361157,0.024200696,0.04561802,0.028555853,-0.03926461,-0.01219772,0.023994068,0.06848889,-0.08040307,-0.043765828,-0.061915863,-0.06317245,0.04662592,0.07060396,-0.06369421,0.030447494,0.04505428,0.13025953,0.04988305,0.000115771916,0.13144268,0.020372652,0.085457645,0.06042769,0.017107211,0.09617379,0.100178696,0.011944763,0.03771793,0.02133716,-0.07674612,0.024706697,-0.06444247,0.06539042,-0.08465782,0.00040401318,-0.016948188,0.03554779,0.036198627,0.1606007,-0.08026098,-0.029030582,-0.016072104,-0.04405143,0.07206642,0.042816006,0.16902041,0.0063049663,-0.02220342,0.009037118,0.14504613,0.006288117,0.13524742,0.057592805,-0.061381936,-0.015861256,-0.041386604,-0.1215005,-0.028637005,-0.034409225,-0.022130398,0.05702473,-0.10754251,-0.1172896,0.016388383,-0.064670734,-0.068392195,-0.016380157,-0.044377286,0.026384333,0.14739272,0.06793286
A2,-0.018917086,-0.05254569,0.13673761,0.062488563,0.0087551335,0.066023886,-0.058292095,-0.10054229,0.011117776,0.04993204,-0.023032516,0.00088558043,-0.020464502,0.004611439,0.10620622,0.043996353,-0.03272183,0.10613329,-0.044482913,0.019746667,0.09979219,0.039093424,0.050128672,0.07432954,0.0074844547,-0.059886564,0.027468525,0.0075208507,-0.045249306,-0.014727255,0.15798679,-0.035088457,-0.04098318,-0.1248953,-0.021771155,0.041087758,-0.06678377,0.10020704,0.038976263,0.09939885,-0.06755301,-0.06156385,-0.007404752,0.03683282,0.014219749,0.029721944,-0.11066024,0.062147453,0.014533443,0.044019554,0.029888442,0.0033852197,-0.03405167,0.07428606,0.019728394,0.015245544,-0.02728263,0.08866639,0.06368859,-0.0056004073,-0.044231515,-0.07550991,-0.048482623,0.03671758,-0.029744096,-0.0130225,0.011232716,0.11522175,0.026068991,0.013153738,-0.0041144304,-0.0851831,-0.04267948,-0.035092708,0.046486937,-0.01895306,-0.027114974,-0.04849579,-0.017174985,-0.11855123,0.024770034,-0.033037692,0.016397862,0.002624727,0.097027734,0.06616188,-0.011010486,-0.07898884,-0.016126264,-0.049957234,0.0055335574,-0.017520072,-0.015892264,-0.011733994,0.008242526,-0.028569786,-0.034247033,0.020021558,0.037615743,0.06135533,-0.03976519,0.048878312,0.012104091,-0.038629897,-0.059372865,-0.09378805,-0.08440798,0.05011469,0.018793559,-0.0015843519,0.031436585,0.2295715,0.030624283,0.056789316,0.004180315,-0.032452054,-0.018203411,-0.013973744,0.05143573,0.03116601,0.07793183,-0.055564,-0.08604567,-0.037733283,-0.037282288,0.047086347,-0.0035552657,0.13850754,-0.0021512269,0.0022136914,-0.01407852,0.0025404308,-0.12481675,0.0108975945,-0.076447465,-0.03314734,-0.107063055,-0.0652009,-0.033984542,-0.044813275,0.020156825,0.11707054,-0.068381734,-0.15727402,0.0056764763,-0.10874591,-0.080590256,0.116781406,0.007864215,0.04433115,0.08673044,0.05710675,-0.14889799,-0.049685173,0.021122506,0.00333241,-0.092113994,0.044436656,0.034062944,0.007958957,-0.045060646,0.0011933823,0.023979886,-0.055284165,-0.024128009,-0.0418942,0.022844797,0.046108935,0.0982245,-0.046258066,0.013285542,0.055577856,-0.010366132,-0.007457946,-0.059614226,-0.08516247,0.0041328073,-0.008871124,0.047596425,0.0026657032,0.00047770565,-0.011571304,-0.03674777,0.11193854,0.033675358,-0.053926863,0.020716365,0.09561614,-0.048930548,-0.08721127,-0.018330257,-0.016384546,0.061459128,-0.07875551,-0.015610116,0.0150203435,-0.1349387,-0.091393456,-0.093952745,-0.09929871,-0.023487648,0.015066242,-0.10915154,-0.058244433,-0.008994151,0.13667703,-0.035316072,-0.025427826,0.0145607805,0.08130423,-0.0008482131,0.08026614,0.0948067,-0.04553809,0.013826507,0.055610124,-0.046165776,0.041582678,0.057129066,-0.091698304,-0.0028521416,-0.052428488,0.042358514,-0.054438315,0.047927767,0.002116599,-0.0076620225,0.01531521,-0.01643637,-0.037553504,0.0820104,0.045800675,0.018589363,0.05305122,-0.02275253,0.022788644,-0.050822593,-0.13524456,-0.016712507,-0.05970661,-0.034177188,0.12330397,-0.0149216,0.0576332,0.010662804,-0.08043122,0.034843355,0.0016384515,-0.0040788823,-0.08508249,-0.008292642,0.017050961,0.05040572,-0.05839996,-0.07719521,0.09887838,0.05462097,0.06588103,0.001874393,-0.018811254,-0.05879942,-0.00981024,0.05972766,0.09376806,0.058948528,0.10149429,-0.098205544,0.116726026,-0.032174315,-0.028286919,-0.0072516818,-0.04832825,0.020334544,0.022381224,-0.017648524,-0.013620689,0.051020917,-0.10497687,0.09896333,0.05496432,0.035228457,-0.032196872,0.089087576,-0.009509948,-0.11521166,0.020632297,-0.009166785,-0.02911616,-0.002724619,0.013060501,-0.013532578,0.028496329,0.011911047,0.19023539,0.0136298565,0.09603018,-0.09681294,-0.036800604,0.08502217,-0.05306149,0.025474576,-0.014108214,-0.10341739,-0.026792701,0.05819376,0.029114544,-0.0040840204,0.04833656,-0.060650054,-0.009570371,-0.044384245,-0.0106354505,-0.006337605,0.02140862,-0.047044482,-0.07537495,-0.038815945,0.05689742,-0.0005757881,0.06973409,-0.09020312,0.020401333,-0.025557376,-0.05788787,-0.0301706,0.051045302,-0.09122913,0.05233504,-0.023579894,0.015729962,-0.017949803,0.055652853,0.0063094734,0.102030344,0.015956102,0.048223626,-0.0020603028,0.01374165,-0.04382511,0.0031750936,-0.016205832,-0.006420231,0.027185058,0.049011074,0.029202161,0.06852064,-0.00615157,-0.033267155,0.0018923333,0.008033609,0.042531252,0.010728037,-0.019740695,0.004771088,0.032533098,0.11636732,0.04592422,-0.13040493,0.070777185,0.0703183,0.077405944,-0.057775836,0.007997872,0.0816278,-0.033490796,0.05683999,0.08626769,0.059194796,-0.06457057,-0.08588087,-0.21575038,0.029043399,0.057905365,0.12192888,0.04262586,-0.03240868,0.0771141,-0.028665857,0.029544694,-0.030999653,-0.19343461,0.001759723,0.035461918,-0.008161786,0.03221415,-0.06754512,0.065319404,0.07280261,-0.112647116,0.103600256,-0.07829549,-0.020756379,-0.058078993,0.096293084,0.057313234,0.03884301,0.09235674,-0.028083889,-0.11197169,-0.0005496669,-0.05085501,-0.00049251266,0.012625477,-0.022304688,-0.032025825,-0.08389442,-0.0035114274,-0.118544556,-0.03299494,-0.05767737,0.07482689,0.08044029,0.07136534,-0.0104461545,-0.05096086,-0.049915187,0.046269897,-0.013983893,-0.03156434,0.09263513,-0.014043992,-0.10523836,-0.061225228,-0.04719918,-0.009224256,-0.090576336,-0.026597446,0.03460059,-0.014328547,0.060156383,0.055954043,0.051719632,0.023005331,0.002743091,-0.04189209,0.039474014,-0.044557538,-0.08744887,-0.014603228,-0.01035648,0.0661504,-0.015957616,-0.007281633,0.06112881,0.01777406,0.055787966,0.029905168,-0.05213425,0.086708575,0.049686905,-0.023046188,0.052892327,-0.00090176857,0.038766816,0.11441803,-0.008012568,0.04614674,0.085678644,-0.07339318,0.012920192,-0.03231357,0.043248244,0.039632168,-0.009293139,-0.02188319,0.08302038,0.00032580056,0.07649326,-0.035560247,-0.016857518,0.0044130925,-0.014238256,0.12158201,0.039971087,0.128323,0.003228638,-0.06941987,0.010628132,-0.015024333,0.0031939012,0.108361796,0.0455719,-0.046728905,-0.023277732,0.04059759,-0.08039604,-0.08287794,-0.04054077,-0.0017725378,0.06213244,-0.039846085,-0.11268094,-0.038482208,-0.05666909,-0.052216638,-0.0064267223,0.02195875,-0.029110732,0.05898771,0.09464239
A3,-0.012823705,-0.0233852,-0.007818671,0.066453226,0.019659594,-0.006813826,-0.06823772,-0.0664919,-0.041247874,0.0816538,0.014216949,0.01816865,0.031268496,0.06705515,0.012448499,0.019429736,0.006885061,0.09542389,-0.04410123,-0.02983906,0.07246639,-0.040701617,0.0065858057,0.07825653,0.03723896,-0.05632854,-0.0460255,0.023421157,-0.055940285,-0.005312051,0.047993567,-0.0008021019,0.033129957,-0.04064374,-0.024972703,0.0176768,-0.04145008,0.037576012,0.01504793,0.039910346,0.017502287,-0.026082357,0.02213508,0.04955939,-0.033887118,-0.017046733,-0.11493762,-0.012464359,-0.015205003,-0.01822684,-0.0043051066,-0.0339807,-0.06613542,0.030608602,-0.07978115,0.011575828,-0.040216602,0.12685296,0.084023535,-0.02374428,-0.017253462,-0.0515792,0.024957236,0.036566228,-0.01267953,0.04185185,0.03781169,0.07486117,0.023064759,0.002463491,-0.03007952,-0.09487249,-0.0029953406,-0.009700097,-0.023493994,0.015733752,-0.052564308,-0.037232373,0.014648794,-0.0752673,-0.049847733,-0.017773872,-0.048879743,-0.008561231,0.0023068222,0.04258745,-0.021875847,-0.024787243,-0.009825461,-0.120350495,-0.03292931,-0.015246207,-0.042557802,0.09732266,0.009632705,-0.008789548,-0.10833615,0.036161277,0.012040578,-0.027606905,0.009410398,0.008073885,-0.015781924,-0.03617522,0.012520817,-0.013198642,-0.014802144,0.036841743,0.011593791,0.05392032,-0.0117138075,0.09969425,0.027380968,0.115822874,0.022334998,-0.02347094,0.03831113,-0.056064136,0.03667786,0.005976441,0.06673048,0.014875824,-0.034582492,-0.05720725,0.038736716,0.031397995,-0.012549516,0.036519162,0.0011848537,0.06653813,0.0034465287,-0.0077753584,-0.09974784,0.05044157,0.0056774355,0.0015798137,-0.061732203,-0.011493178,-0.046917014,-0.11879888,0.009749071,0.058378994,-0.061185427,-0.057606846,0.014837396,-0.00087178685,-0.05281847,0.020516101,0.019340202,0.039586537,0.020042256,-0.050656337,-0.013540299,-0.002987349,-0.03094563,0.051188,-0.012536209,-0.030401904,0.01476104,-0.02852911,-0.0048748422,0.022573685,-0.070412606,-0.078599766,-0.00029373541,-0.005775808,0.02967813,0.041234806,-0.0034528924,-0.035122328,-0.003204105,-0.0021046284,-0.020825123,-0.015859937,-0.0008142551,-0.042954683,0.059675466,-0.0007018293,0.044682212,0.009992182,0.014909719,0.003483288,0.048916645,-0.04112616,-0.0012452202,-0.062499546,-0.024726352,0.066286474,-0.09752031,-0.0082597975,0.008788905,-0.033442352,-0.01653544,-0.006937784,0.02500866,-0.0044317483,-0.04740917,-0.047381073,-0.053136237,0.003152065,-0.019582918,-0.043544676,-0.021649357,-0.036965765,-0.05050507,0.047384128,-0.014934462,-0.026382105,0.008591404,0.025903959,-0.006803411,0.07027905,0.08815126,0.0043002474,0.029020725,0.05201116,-0.069439024,0.029587794,0.010435217,0.054999582,0.023565186,-0.084077984,0.028470324,-0.018702487,0.027959906,0.0149370255,0.028059699,-0.001381943,-0.08367372,-0.0077825175,0.041611224,-0.02378153,-0.007247383,-0.003222682,0.016417915,-0.040244132,-0.060183495,-0.04268865,-0.00071378273,0.067339964,0.008791145,0.107044235,-0.03863689,0.041755885,-0.030420095,-0.041340843,-0.02817275,0.005235335,-0.04529668,-0.026563635,0.010110807,-0.040657926,-0.011306073,0.093888626,-0.07544625,0.049169235,0.026343536,0.021207068,0.015245247,0.088838704,-0.07438713,-0.050191734,0.057931297,0.03873987,0.021823656,0.09505417,-0.020651273,0.11286874,-0.00041198684,0.012303643,-0.005274155,-0.0069870446,0.038436227,0.04414071,0.048889272,0.07821557,0.016493112,-0.014930074,0.06647487,0.043338947,0.018669523,0.008936241,0.024217559,-0.04063223,-0.056092635,0.039904594,-0.03908547,-0.008662543,0.03288177,0.024419658,0.016590796,0.018450994,0.019041395,0.018047294,0.0048187263,0.09354064,-0.030924262,-0.02421195,0.03506934,0.00028410787,-0.07933326,-0.032941718,-0.06257506,0.015881423,0.008921271,0.036154248,-0.060031936,0.082333565,-0.07556637,-0.025784604,-0.038686357,-0.018516473,0.039259333,-0.057176106,-0.010064261,-0.054695897,-0.0108064925,0.0067436686,-0.054370936,0.051799834,0.05624402,0.056199804,0.022195783,-0.021540128,-0.055376217,0.05316779,-0.049420908,0.009958474,-0.00065268483,0.0065418305,-0.0329585,0.016316405,0.025702085,0.0048591737,0.036346853,0.027743714,-0.058939777,0.029234895,-0.03454821,-0.059698846,0.034792796,-0.021566786,0.047812693,0.019559156,-0.026088942,-0.009503845,0.02540814,-0.07010329,0.007019611,0.072366074,0.017444564,-0.0090766195,-0.017368834,0.04662224,-0.010495893,-0.012196645,-0.020005248,-0.0030765245,-0.0040102312,-0.021588013,0.026293274,-0.016924089,0.020179046,0.027762678,0.00010100193,0.038781814,0.09155329,-0.0030176633,-0.026916279,-0.03974381,-0.07123164,0.006405151,0.08952736,-0.023780975,0.027235389,-0.029227212,0.017250806,-0.0010439404,-0.03014011,-0.042512745,0.029155618,0.05787076,0.022279222,-0.02372019,-0.031161938,-0.053501613,0.086348474,0.011655826,-0.0014835543,0.058084838,-0.05917666,0.028835014,-0.03276931,-0.017999401,0.11391796,0.0030463878,0.04053635,-0.039190374,-0.07161923,0.009768046,-0.041136883,0.032162998,-0.033570502,-0.004669376,0.00027577858,-0.01998802,0.024694962,-0.044277266,-0.0023394749,-0.045088958,0.015534615,0.04911545,0.06173983,0.092073575,-0.054082215,0.009667624,0.04114563,-0.0027997755,-0.0016327584,0.07460917,-0.029749114,-0.06771645,-0.10854086,0.008147824,-0.020184577,-0.04419022,0.050035,-0.028823933,0.011089094,-0.015853047,0.056706145,0.027142018,0.011690881,0.047453854,0.033646837,0.01368051,-0.061275557,0.022355981,-0.033978242,0.0045758486,0.050057035,-0.0094661275,-0.013903718,-0.0017409138,-0.016391113,0.0068814196,0.052225232,0.039295852,0.053318925,0.045229383,0.052672323,0.028262043,-0.008048123,0.07111216,0.03044399,0.015537639,0.0030189557,0.03657783,-0.06004121,0.009608364,0.042450577,0.011824576,-0.03283117,0.012939236,0.036480434,-0.00073159765,-0.0086299265,0.0990425,-0.04920709,0.049527783,-0.0038782763,0.00036496297,0.026528127,-0.034903184,0.05036854,-0.0130926045,-0.003849261,0.0229199,0.12120986,0.001308579,0.047503997,0.00034193322,-0.026665814,-0.0046917023,-0.024105044,-0.122144,-0.0001379922,0.025648344,0.004665135,0.062059794,-0.0631783,-0.018789787,0.046648867,-0.052978978,-0.027932152,-0.061204,0.0069027375,0.0019686213,0.06604962,0.04432971
A4,-0.07009697,-0.092628635,0.11292223,-0.07698751,-0.018957274,0.0015241607,-0.1293376,-0.072046444,-0.05681176,0.100915186,-0.05223177,0.08585977,0.06609779,0.0029590821,0.07520999,0.013620829,-0.102249995,0.1291796,0.03560874,-0.017491648,0.08738446,-0.027365599,0.058613982,0.10404094,0.072014995,-0.10288366,0.077195935,-0.010345681,-0.047567647,-0.003423953,0.13354927,-0.13950814,-0.011707001,-0.15896152,-0.008193807,0.037742265,0.0026742015,0.08969196,0.07800486,0.13817461,-0.07746626,-0.056951717,-0.054977387,0.053045467,0.040055696,0.059529107,-0.14927317,-0.07183761,0.09712618,0.045343235,0.015792198,0.053835247,-0.05635823,0.116741166,-0.012766703,0.017358933,-0.02942437,0.14437193,0.021491362,-0.030147431,-0.057835396,-0.0590632,-0.02860424,0.016673302,-0.04072911,-0.06387151,-0.013678618,0.13055941,-0.03818025,0.005463525,-0.0052586794,-0.039021324,-0.08252523,-0.057924233,0.13005544,-0.031415783,-0.027790742,-0.041313626,0.11833939,-0.07372451,-0.03568131,-0.11913412,0.0014265642,-0.020923695,0.081927694,0.06246349,-0.0048112846,-0.06555762,-0.017771646,-0.07128062,-0.040620953,-0.007970258,0.025060328,-0.008880041,0.028472394,-0.039310645,-0.055379212,-0.04364484,-0.0015787353,0.039031126,-0.054365836,0.08117231,0.028633837,-0.00794504,-0.06916653,-0.0870514,-0.100361176,0.03959911,0.06912872,0.012688458,0.09648981,0.23728731,0.043274947,0.07853309,0.01190386,-0.015819775,-0.014407638,-0.0017009112,0.0025115465,-0.018784361,0.07629297,-0.0224593,-0.10065505,-0.03585583,-0.050710738,0.055500668,0.0047980295,0.073402785,-0.0010495919,0.029449971,-0.021562869,-0.023637928,-0.19231918,0.0009848467,-0.06074441,-0.022095239,-0.14490807,-0.15256633,-0.055342574,-0.09603529,0.045390192,0.15049672,-0.047991596,-0.15972193,-0.020995876,-0.113777734,-0.04113873,0.19047527,0.018711941,0.1312555,0.07835505,0.009925304,-0.13017543,-0.0043126172,0.028298166,0.010490468,-0.121850155,-0.040954426,-0.060359634,0.05413842,0.0064757764,0.0036273613,0.008848224,0.022689534,0.013355042,-0.03299561,-0.0105749685,0.054423098,0.037880275,0.0458022,0.05653707,0.072677396,-0.025224093,0.08000195,-0.08592997,-0.09783693,0.029486747,0.019359875,0.05154262,-0.0057750978,0.004489878,0.0015190209,-0.02014076,0.10784731,0.029652884,-0.016366376,-0.06277552,0.043239005,-0.022190893,-0.16204627,-0.000805936,-0.01787934,-0.05765897,-0.018743478,-0.006763463,0.020081267,-0.111893825,-0.05742015,-0.094604716,-0.15868984,-0.03914466,-0.036246326,-0.18270124,-0.04137942,-0.039364308,0.12557298,-0.061782375,-0.00036970427,0.049608305,0.12423687,0.030982375,0.1323332,0.09004259,-0.091328874,0.055191416,0.060126483,-0.05277158,0.007944364,0.09158173,-0.090750575,-0.04432633,-0.06081347,0.025935272,-0.05645168,0.03701631,0.005607766,-0.01783726,0.04342617,0.035277512,-0.07171176,0.17622839,0.006798392,0.020535836,0.01733361,-0.03628803,0.09115726,-0.09036417,-0.19616543,0.017372513,-0.03659458,-0.051406268,0.19137393,0.019394623,0.08577436,0.004728362,-0.11279967,0.060605336,0.038994327,-0.008651005,-0.06859682,-0.08039456,-0.021938132,0.08743691,-0.0031561435,-0.09000194,0.08884296,0.019246964,0.02637814,-0.045267407,0.009774501,-0.05398081,0.008736589,0.009917248,0.0644892,0.08295751,0.12582628,-0.1682762,0.1574247,-0.025185406,-0.09374159,-0.032642495,-0.08225467,-0.012701511,0.031416424,0.014368298,-0.03090012,0.12073626,-0.09771948,0.091760285,0.09196633,0.06140841,0.03482751,0.092710584,-0.005693619,-0.13972287,0.054324128,-0.0019465575,0.008568826,0.012775163,-0.07024331,-0.0053698374,0.07109115,0.053028077,0.24553205,0.0669043,0.072941676,-0.12735166,-0.024010198,0.013691228,-0.05234894,0.06460894,-0.032893848,-0.10731037,-0.0304003,-0.042484708,0.014818234,-0.014601971,0.0876002,-0.04773882,-0.004047272,-0.08803449,0.065896206,0.010658386,0.087686196,-0.025978541,-0.046554588,-0.04931842,0.04693649,-0.017404154,0.16911566,-0.109639496,0.048025694,-0.021679608,-0.10550841,0.036868174,0.04648642,-0.050543044,0.10242651,-0.00716588,-0.025289526,-0.01776287,0.06356016,0.050615836,0.09096794,-0.021191701,-0.017200852,0.06788994,0.03664258,-0.07125985,-0.016835917,0.045160692,0.041466564,0.028283391,0.07853762,0.069466345,0.05706894,0.041294303,0.026231978,0.01289551,0.02708032,-0.0063481885,0.077742994,-0.0071121776,0.020247472,0.07666865,0.014370844,0.04651516,-0.15509745,0.07454583,0.045176085,0.057659555,-0.016224923,-0.02998584,0.06696158,0.008421977,0.02060039,0.08772869,0.06790726,-0.12647033,-0.14562662,-0.23851041,0.019684283,0.076003134,0.040522985,0.08529501,-0.027184937,0.046945136,-0.041647255,0.014068745,-0.100415446,-0.2832583,0.014514879,0.035196103,-0.011379877,0.0071590855,-0.09919582,0.013742754,0.16837788,-0.1485157,0.100380056,-0.054207314,0.0058454163,-0.00269883,0.12702133,0.11936813,-0.030535603,0.08136494,-0.032800835,-0.08709089,0.03638241,-0.033030838,0.019815367,0.016350955,-0.0058690384,-0.026784586,-0.10163126,0.011711784,-0.11315228,-0.049170054,0.017245913,0.046659775,0.13507448,0.14206922,-0.074633546,-0.0072636288,-0.05804919,0.10539803,0.019530777,-0.05358265,0.051017825,-0.03470539,-0.093709275,-0.0607193,-0.05348483,0.004216108,-0.12507713,-0.017047733,-0.008133477,0.017365884,0.013371889,-0.03028113,0.05096165,-0.01721069,-0.049435083,-0.0410677,0.07675792,-0.016496338,-0.01985163,-0.091058165,-0.112093635,0.04393215,0.010137824,-0.06621219,0.07535028,0.068429016,0.14065789,0.07017548,-0.00016175829,0.11586081,0.073262535,0.04276922,0.03684801,-0.021163996,0.004375781,0.12662086,0.051065613,0.03047218,-0.07595116,-0.031043394,-0.013698298,-0.110390894,0.0012980123,0.024991496,-0.03277725,-0.0004425989,0.034984518,0.014424637,0.119657494,-0.08136813,-0.00855597,-0.04093404,-0.015131823,0.08879832,0.09880703,0.17394583,0.0070789275,-0.0589572,0.02483934,0.08697824,-0.02549163,0.09194312,0.08320397,-0.024143638,-0.10162176,-0.047429156,-0.0718586,-0.05960378,-0.08264016,-0.026125228,0.023576858,-0.037890222,-0.08063117,-0.030789541,-0.033817057,-0.09035959,-0.0034478928,0.051257744,-0.009534933,0.14970481,0.09299811
A5,-0.032997526,0.018168896,0.053481143,0.00955896,0.01606219,0.037600163,-0.04890479,-0.08454194,-0.003987862,0.038908675,0.047934443,0.012964959,-0.035110846,0.016528998,0.045328595,0.050389078,0.024917148,0.022819934,-0.069447026,-0.024342887,0.07762047,0.012768392,0.06907127,0.063819416,0.00866409,-0.06443837,0.01029675,-0.026782807,0.004534917,0.030856246,0.12511835,-0.025748003,-0.045222238,-0.07270065,-0.06195789,0.056189463,0.023165863,0.05224088,0.010412747,0.048600152,-0.042622544,-0.042427346,-0.023430053,0.0163146,0.02212308,0.017760312,-0.06294468,0.05231199,-0.021067318,-0.026435904,-0.019639272,-0.023293788,-0.013230081,0.078616925,-0.037046645,0.06715758,-0.003233431,0.055208415,0.07593196,0.005908772,-0.06729326,-0.045910995,-0.025954297,0.041276366,-0.04037982,-0.00924301,0.05826087,0.0751479,0.022471147,-0.03434433,-0.043359667,-0.04411028,0.0020898562,-0.019413471,0.036421496,-0.028195065,-0.009525299,-0.0083810715,-0.006129952,-0.069929175,-0.019694708,-0.00902993,0.0055527594,-0.0528391,0.08830011,0.057100646,-0.040029235,-0.06981357,-0.04347931,-0.052820295,0.008969168,0.020595908,-0.01893527,-0.00061472785,0.026889693,-0.01610589,-0.068973914,0.018173184,0.008088941,0.0054590185,-0.019428499,0.008062853,0.040907476,-0.02801425,-0.021477297,-0.07122296,-0.085968435,0.004301388,0.06053342,0.012257003,0.020114694,0.107379854,0.0084343795,0.074379295,0.019065287,-0.0025163237,-0.04057403,-0.023169037,0.034038067,0.013926052,0.111920245,-0.057331435,-0.078400284,-0.011362059,-0.019932248,0.025844771,0.039405383,0.07598459,0.040426493,0.025249556,-0.05291824,0.0027214466,-0.10104869,0.010772478,-0.019489057,0.013531811,-0.06119624,-0.043589834,-0.05252469,-0.020620147,0.020092987,0.13463071,-0.053400803,-0.029617745,0.0026110082,-0.04160601,-0.08901094,0.08270255,-0.0014398843,0.03986825,0.047647648,0.037939653,-0.11294626,-0.037447542,0.04772801,-0.00371793,-0.026285818,-0.0014923755,0.02896496,-0.030515427,-0.066170946,-0.014148193,-0.043672808,-0.108221754,-0.08407074,-0.02474895,-0.0036579398,0.05784427,0.05793861,-0.03227146,0.03464021,0.012379367,-0.031049047,-0.030863,0.0042016148,-0.123732366,0.0018546232,-0.021796387,-0.006148195,0.021265022,0.019840654,0.0046568513,-0.026292559,0.07795197,0.03566536,-0.08347306,0.042209756,0.026349308,-0.07465048,-0.08042976,-0.0017927447,-0.044632882,0.08002166,-0.057559956,-0.02770591,0.03156227,-0.107511036,-0.04455906,-0.096029356,-0.07990774,-0.021771908,0.017232811,-0.075588554,-0.08093485,-0.037873168,0.09045763,-0.004887417,-0.08763987,0.0333624,-0.0013413127,0.022799637,0.10415268,0.042291712,-0.0037427954,-0.019304996,0.093162194,-0.001513584,0.0022686122,0.0057570115,-0.05687023,0.03811048,-0.08734136,0.013085303,0.011905321,0.04850401,0.01958308,0.023584062,0.035204247,0.0026942547,-0.019479802,0.070234425,0.009652942,0.04820152,0.068128996,-0.010520825,0.0024249814,0.00700339,-0.073818244,-0.026600964,-0.037857886,-0.045310922,0.107516795,-0.000994646,0.0037391651,0.0061427895,-0.08380525,0.010758005,-5.615875e-05,-0.018497907,-0.03661459,0.042624,-0.0146626625,-0.010237158,-0.009973919,-0.027981484,0.022254841,0.10976587,0.054057457,-0.045572884,0.00028390437,0.008407336,-0.009632681,0.046965033,0.08750862,0.025663272,0.014070813,-0.06264596,0.09445072,-0.025884513,-0.037747335,0.006110432,-0.05230113,0.042953193,0.04392109,0.011231516,-0.03478435,0.0019373074,-0.08291134,0.06548481,0.06920025,0.018818628,-0.022148816,0.002284702,-0.03835258,-0.12951824,-0.0020721722,0.007147611,-0.013023494,-0.0040348237,0.06882539,-0.027187608,0.034550942,-0.02538318,0.16305612,-0.0068501155,0.03853763,-0.0971884,-0.05003552,0.07189454,-0.05941716,0.031719033,0.0040851478,-0.059179403,-0.031011298,-0.012656944,0.008775203,-0.033427287,0.09561068,-0.053928092,-0.028663348,-0.016896766,-0.034223188,-0.015738,0.037752092,0.007280917,-0.05590996,-0.029305682,-0.00025547855,0.034038793,0.0680595,-0.0148978215,0.026523994,0.02279165,-0.016008329,-0.019469919,0.05224301,-0.07461946,-0.00022717915,-0.03519865,-0.0032137875,0.044608466,0.054492988,-0.024765767,0.0755647,0.012671142,0.04129933,-0.008345412,0.0005916804,-0.0068778805,-0.010550841,-0.048669964,0.039147668,0.03954486,0.036306597,-0.008401081,0.060303766,-0.036506325,-0.027503075,0.021209238,0.007075282,0.084220104,0.0028570918,-0.00547057,-0.013721697,0.015833799,0.054314382,0.07269038,-0.026026107,0.06267963,0.02801308,0.10152593,-0.024080576,-0.03149686,0.04150638,0.00945871,0.07064368,0.071221314,0.055168442,-0.04251108,-0.04105455,-0.11425555,0.015930913,0.05569376,0.048700295,0.011829605,-0.030754361,0.06906005,-0.024430959,-0.014902807,-0.01981502,-0.10870235,0.011819169,0.020698633,0.014561416,0.05730559,-0.023141684,0.053546663,0.09524894,-0.104729295,0.033771366,-0.09982436,0.06611884,-0.014121983,0.047495067,-0.018628081,0.009911653,0.050755925,-0.052434936,-0.08332802,0.018864354,-0.02738607,0.021115096,0.021413669,-0.036643405,-0.020752233,-0.07488643,0.0051442906,-0.077873066,-0.035398304,-0.07262282,0.07799514,0.09040061,0.0190616,0.03323612,0.0022868253,-0.056968525,-0.014368215,0.004450394,-0.031077549,-0.024123747,0.05838131,-0.061912093,-0.062012155,-0.0033812616,0.040479116,-0.08049154,0.011599017,-0.026355976,-0.05533415,0.049490154,0.02695879,0.06377242,0.006169303,0.008334318,-0.029049823,-0.022683136,-0.06764409,-0.03971438,0.013477525,-0.027288768,0.05912244,0.019273931,0.007624071,0.027875587,0.018612612,-0.010592144,0.052867144,-0.046396792,0.03302861,0.019297797,0.032449663,-0.0015187333,-0.007642338,0.044013493,0.094658166,-0.047940657,0.048992734,0.06693199,-0.008683274,-0.047371395,-0.059048958,0.018490948,-0.059472505,-0.020599099,-0.013150771,0.030641947,0.020250132,0.059148394,-0.06349587,-0.029993601,0.0024269316,0.035622343,0.09585149,0.008410622,0.09916295,0.016969644,-0.06801814,0.005129886,-0.052318864,-0.023406552,0.057603166,0.009485414,-0.04148393,-0.060240366,0.055618227,-0.015992962,-0.06284372,-0.0047003943,-0.058187164,0.04124655,-0.082200535,-0.06966314,-0.0077414955,-0.0445819,-0.04646746,-0.053643674,0.00652885,0.026537072,0.04178489,0.013660286
A6,-0.0016484101,-0.024913983,0.11403933,-0.0062772436,0.0062185572,0.009171786,-0.08956466,-0.14855807,-0.009846396,0.09758985,0.008486592,0.036775332,-0.013090173,0.0074471096,0.07824432,0.04470964,-0.04184177,0.11568228,-0.0018169591,-0.019617064,0.06518632,0.019736394,0.09186067,0.04262876,0.060332537,-0.042484995,0.018950813,0.029041326,-0.072973296,-0.017384835,0.16104533,-0.07447701,-0.03268468,-0.17138778,-0.04755011,0.04482867,0.00943349,0.052069873,0.013537873,0.10144818,-0.027187873,-0.063209414,0.0032258027,0.070554204,0.028065799,0.056469973,-0.11153735,0.011611833,0.060154505,0.004017742,-0.018446883,0.023527225,-0.01829054,0.1439906,-0.031814754,-0.0007738602,-0.020443462,0.13302405,0.0708487,0.0029792043,-0.09170029,-0.08858692,-0.034416784,0.05546327,0.00063311186,-0.015083998,-0.010888588,0.12472135,0.029939048,0.005956116,-0.0062440536,-0.022810943,-0.0379875,-0.067907855,0.042061098,-0.015570028,-0.04748968,-0.07693387,-0.011726286,-0.08520262,-0.037228875,-0.06616845,0.026675774,0.007636492,0.09336113,0.07895338,-0.034808505,-0.04773921,-0.012195226,-0.06264462,-0.02967349,0.029515086,-0.013319733,-0.008459222,0.03360051,-0.07430159,-0.11780202,0.00808218,0.062345058,0.0057375426,-0.01632104,0.05027205,0.018827083,-0.025325222,-0.0628461,-0.07108275,-0.068085484,0.0494497,0.06826784,0.03899391,0.036922846,0.19773778,0.03421877,0.10795203,0.029287258,-0.03680159,0.056711413,-0.0020729396,0.072427414,0.036023594,0.081723735,-0.058359955,-0.047159426,-0.015401133,-0.023500416,0.03046514,0.024100218,0.1165114,-0.008573684,0.08332012,-0.02694476,-0.014568566,-0.10551252,0.032395653,-0.06488103,-0.00093833904,-0.10833562,-0.083095714,-0.05089698,-0.08947574,0.02877233,0.16379833,-0.040133838,-0.10986385,-0.024819382,-0.14523593,-0.005434483,0.16941127,-0.0038693896,0.10693847,0.0724875,0.0019266728,-0.09195862,-0.06775257,-0.0038776654,0.014948515,-0.1041936,-0.03394988,0.03290094,-0.0039005883,-0.015723528,-0.020480456,-0.07797451,-0.051718105,-0.008457679,-0.034136795,-0.010313175,0.042003717,0.07537536,-0.014734812,0.051602155,0.01898156,-0.036739163,0.05759377,-0.047119785,-0.09534258,0.024162997,-0.015168538,0.033459097,0.012749861,0.029617064,0.04360848,0.024426816,0.11590913,0.0103203505,-0.10558035,0.037737276,0.07986777,-0.080995776,-0.07189174,-0.010933832,0.0149078965,0.023493806,-0.07966631,0.016281852,0.054426678,-0.14552234,-0.06763021,-0.08042037,-0.15663695,-0.03036175,-0.035121083,-0.09748721,-0.08681787,-0.0048567643,0.1054098,-0.05825454,0.011213675,0.030988187,0.037945427,0.01742854,0.08550476,0.1154,-0.033752143,0.06760051,0.08368801,-0.08123777,0.010820164,0.0154276695,-0.07774781,-0.0017638376,-0.056661878,0.08154754,-0.031397823,0.050453264,-0.025057716,0.016022382,-0.010153876,-0.024365872,-0.077732265,0.09888094,0.019503629,0.07334608,0.017434036,0.007144522,0.041477874,-0.06094087,-0.10784203,0.03275134,-0.06936031,-0.05174368,0.09908621,0.03615217,0.038882773,0.04360224,-0.061098427,-0.011367685,0.017473811,-0.030856673,-0.053204473,0.0050037303,-0.042369127,0.015960813,-0.012289646,-0.12808025,0.1421037,0.017616926,0.06137421,0.021920878,0.011702788,-0.056290403,-0.029318815,0.048001137,0.07873273,0.033577014,0.07866568,-0.07581805,0.13858938,-0.04998832,-0.04926826,-0.0558022,-0.0474464,0.073768884,0.018958298,0.020293012,0.003092806,0.06051801,-0.06985647,0.096605964,0.06510811,-0.0033717523,-0.015406703,0.12968293,0.01387024,-0.10594244,0.060996976,0.00058766414,0.037906766,0.05402973,0.016021179,-0.03119672,0.04881233,0.029821627,0.16215621,0.010788592,0.0885597,-0.109469905,-0.03849762,0.038940374,-0.07032252,0.0056850007,-0.0023369743,-0.084729,-0.05818813,0.02587331,0.006940235,-0.03535288,0.059178367,-0.0183578,-0.020274322,-0.03351902,-0.0051919073,0.034089983,0.028762871,0.02126032,-0.063397214,-0.05136838,0.0061782748,0.028856998,0.103957355,-0.052206304,0.0508525,-0.029834365,-0.03077938,-0.03723134,0.035057757,-0.07491507,0.044897392,0.012614623,-0.009183969,-0.011790959,0.065646745,-0.00800268,0.06113878,0.06695634,-0.0008720622,-0.03629477,0.04916085,-0.024114234,-0.0018129274,0.006970416,-0.004608015,0.021118974,0.047396827,0.015884662,0.05222511,0.012757882,-0.006077566,0.032975145,0.076730944,0.02949806,-0.017225875,-0.020403828,-0.019466378,0.086956225,0.034063846,-0.019412505,-0.067848325,0.12618873,0.029888712,0.10197228,-0.08927247,-0.013821325,0.08628003,-0.0062649683,-0.005947045,0.07163301,0.068171725,-0.11832722,-0.08676302,-0.18251283,0.043428943,0.074491054,0.03631525,0.013518801,0.0015535248,0.022505911,-0.08272569,-0.04986877,-0.049553663,-0.16924222,0.011574016,0.03207448,-0.0049989605,0.049030647,-0.061087836,0.050819553,0.18975428,-0.092433736,0.067720965,-0.1004623,0.037718236,-0.013460586,0.065366045,0.1037415,0.014151508,0.11556331,-0.08941449,-0.09038046,0.011906253,-0.07290998,-0.03245417,-0.032726396,0.0026668536,-0.045478553,-0.09094564,0.021865271,-0.07688031,-0.05683203,-0.05027825,0.060338512,0.08780303,0.11616127,0.05441317,-0.058588214,-0.005791323,0.07748426,-0.0075176936,-0.07306202,0.061388258,0.004304176,-0.07022766,-0.05335014,-0.0098351315,-0.03939284,-0.14117844,-0.004036929,-0.0019774942,-0.017813964,-0.018678093,-0.00022112759,0.08452823,-0.032674454,-0.00075827574,-0.029789757,0.083831206,-0.038054902,-0.081616424,-0.029655846,-0.042857956,0.037922386,0.008175911,-0.026383497,0.04405177,0.002433729,0.1025218,0.036218747,-0.05221327,0.10146112,0.040709164,0.030761192,0.020061491,-0.031819213,-0.033726018,0.1465312,0.04987005,0.030964395,-0.0022902691,-0.029067555,0.031080667,-0.052998483,0.060496174,-0.003907153,-0.0044680415,-0.024916867,0.014312702,0.02084529,0.13055825,-0.07687325,0.0021124287,-0.014430017,-0.029948657,0.060487013,-0.012843391,0.10686307,-0.046366062,-0.076991946,0.032681033,0.027651146,-0.019885158,0.10116591,0.042030554,-0.030343538,-0.026117504,-0.012224366,-0.063183144,-0.049285587,-0.032471392,-0.023236299,0.04401812,-0.09286491,-0.103433676,0.02057048,-0.028574383,-0.04842392,0.022441307,0.0018771462,0.0047817337,0.13073716,0.026954617
A7,-0.029791215,0.04400032,0.11135935,-0.065023944,0.041196126,-0.027139544,-0.13054574,-0.0494764,-0.025653215,0.09740679,-0.079393014,0.0023116316,-0.008561183,-0.0027926578,0.048340492,-0.020320218,-0.05896452,0.12242343,0.030379001,0.011478982,0.02930695,0.000614883,0.050746374,0.048315264,0.06790405,-0.042043965,0.06910368,-0.0535797,-0.091424644,0.0429934,0.17026225,-0.04744702,-0.058100384,-0.15671487,-0.0106630055,0.037420247,0.026718505,0.08693598,0.0848676,0.1718051,-0.106401086,0.0430288,-0.041514125,0.07261382,-0.0066316365,0.11895166,-0.22057702,0.016405087,0.05457271,-0.020996239,-0.008844872,0.005840142,0.06967513,0.15384309,0.009108034,-0.07669578,-0.0050499556,0.12129237,-0.014148153,0.011922693,-6.0605606e-05,-0.07048622,-0.10444023,0.008152696,-0.019669786,-0.0905961,-0.09598954,0.096442185,0.0001176456,0.03509536,0.015669951,-0.024958042,0.009584433,-0.10776663,0.08893938,-0.0987708,-0.044683203,-0.02547961,0.08490421,-0.01956637,-0.075186364,-0.110705145,0.047328245,-0.042735897,0.12765118,0.08281763,-0.07652596,-0.020421918,-0.024443757,-0.0828016,-0.0057989643,0.030728184,0.038308002,-0.009664681,0.025179021,-0.027679056,-0.06072004,0.013509152,0.031408083,0.042399663,-0.034848668,0.11680904,0.02924394,-0.029448688,-0.033113997,-0.10119037,-0.109908685,0.0403409,0.07394933,0.00875633,0.033075746,0.2606131,0.04133949,0.0686226,0.0784429,-0.01997892,0.001353981,-0.033543162,0.05602502,0.021152807,0.07189706,-0.1254619,-0.058750484,-0.012099124,0.03724446,0.036486432,0.017633354,0.13474298,0.021125477,0.066652425,-0.047179163,-3.6935202e-05,-0.17702162,0.03424716,-0.033952955,0.03804977,-0.12415599,-0.15451415,-0.10579888,-0.020644024,0.049230617,0.1982592,-0.007308018,-0.19410355,-0.024044406,-0.20504993,-0.015201847,0.16592675,0.00013535657,0.15252888,0.07542372,0.025006525,-0.17157286,-0.037411176,0.0092840735,-0.005221818,-0.16966707,-0.0031736966,-0.03367975,0.025575856,-0.052523494,-0.007316566,0.018579379,0.010085254,-0.018224396,-0.07161445,-0.002284197,0.07583202,0.08399669,-0.0036132315,0.02158101,0.07840462,-0.024944566,0.08851558,-0.052758772,-0.1293199,0.019961607,0.019654702,0.003989578,-0.043840367,0.10659691,0.04309272,0.024339097,0.13528602,0.03191522,-0.009153705,-0.029804116,0.042167153,-0.032868356,-0.15795645,-0.010866172,0.019747987,-0.0022422327,-0.03344686,-0.039860435,0.065910146,-0.12989071,-0.048013043,-0.041440114,-0.19058548,-0.041349627,0.025223436,-0.1528508,0.016778776,-0.032940906,0.07431393,-0.030087732,0.026254306,0.023247898,0.082045406,0.047014423,0.10304462,0.10267385,-0.03858017,0.10826497,0.08237898,-0.035162486,-0.019997723,0.019347062,-0.08238346,-0.03271256,-0.057450697,0.023332654,-0.03568888,0.0043740636,-0.024232874,-0.029004052,0.054358054,0.021070572,-0.09379869,0.16571496,-0.014845474,0.009639705,0.031741995,-0.030468052,0.0862484,-0.045810558,-0.14438353,0.058145333,-0.111255735,-0.100158915,0.13297795,-0.053874575,0.024823455,0.052170213,-0.10190259,0.0870071,0.029083809,0.02483291,-0.06690292,-0.028894132,-0.058549155,0.108939774,0.005349096,-0.10791734,0.09813293,0.01634074,0.0015212243,0.05423513,0.02209378,-0.10245846,-0.06033418,0.09234616,-0.003214123,0.07107158,0.057605397,-0.18619795,0.08180216,-0.07051353,-0.05036444,-0.03876755,-0.09952763,-0.022504319,0.009533428,0.009369828,-0.006135032,0.12268478,-0.105532,0.13199681,0.05399096,0.03821118,0.0689356,0.104726344,-0.009219012,-0.1346539,0.017824324,-0.048970826,0.018552972,0.020017283,-0.05088337,-0.051097922,0.04471959,0.118523054,0.26471457,0.027497547,0.0312838,-0.14016317,-0.045221977,-0.06465627,-0.08055558,0.06671131,0.027970523,-0.061218336,-0.09492901,-0.005971593,0.011021542,-0.052609097,0.04568885,-0.0022376624,-0.02117631,-0.016854908,0.033806175,0.022268437,0.13386613,-0.033668958,-0.020659054,-0.041782793,-0.02498351,0.069146775,0.16074553,-0.046381652,0.021781834,-0.005185071,-0.04607116,-0.027858537,0.08298621,-0.09757766,0.008075864,-0.01850293,0.023352394,-0.0041069593,0.058214646,0.025968032,0.13150913,0.055372268,-0.06251069,0.04027611,0.01625952,-0.051813148,-0.0295842,-0.08463608,0.02932047,-0.024959045,0.11415017,0.048227903,0.05032797,0.0060793995,0.009971396,0.032611795,0.021749375,-0.005489629,0.040322203,0.031916656,0.006997522,0.043893874,-0.030580144,0.040626835,-0.06853839,0.11041958,0.030626005,0.070213154,-0.049628824,-0.054999914,0.08418642,0.03787803,0.0078559425,0.08955783,0.012094557,-0.14499053,-0.14516689,-0.22509257,0.024952348,0.043202523,0.08839336,0.052635517,0.011321026,0.072545245,-0.02306708,-0.07444767,-0.02355005,-0.21093644,0.026062652,0.09693984,-0.0403908,0.059107296,-0.08073228,0.048858978,0.15453808,-0.17368075,0.036481112,0.007976652,-0.050377153,0.006745129,0.08532268,0.13344572,-1.1033909e-05,0.13891675,-0.117528096,-0.09401322,-0.015688006,-0.008824582,0.007893956,0.048635796,0.010104792,-0.03872773,-0.091245264,0.02505338,-0.06269921,-0.124234624,-0.009870849,0.029076505,0.12094447,0.110853724,-0.06024827,0.022082098,-0.031541564,0.08352099,0.024758369,-0.07746182,0.054112174,-0.008994134,-0.07210251,-0.07301194,-0.017817441,0.023053749,-0.15028813,0.027404752,-0.04047965,0.027569361,-0.024558112,0.031592224,0.10513321,-0.088551134,-0.06099377,-0.0033484993,0.036581066,-0.025990698,-0.053425238,-0.061624926,-0.115462035,0.044746593,0.052753665,-0.07412617,0.04647036,0.028480234,0.10511038,0.040857717,-0.10009622,0.09084794,0.026384959,0.016850764,0.048608903,0.034956913,0.031295855,0.1595193,0.06343276,0.036469854,-0.030058097,-0.0015656109,-0.015513574,-0.19037147,0.030608466,-0.097928755,-0.01852148,0.028610293,0.052173864,0.033484086,0.12897184,-0.07368196,-0.03619026,-0.02788855,-0.034391504,0.08510357,0.12916656,0.13706996,-0.021405501,-0.11088285,0.0022078578,0.022017349,0.034456287,0.12586641,0.050414927,-0.0283352,-0.058207896,-0.040318172,-0.08259716,-0.08430248,-0.106633335,-0.007892185,0.0388285,-0.024762176,-0.100738816,0.010860596,-0.034159034,-0.037359387,-0.014678258,-0.013562866,0.0014520914,0.06764148,0.08897091
A8,-0.06772398,-0.029771466,0.11827817,-0.14577341,0.03679333,-0.002700766,-0.124983415,-0.09041355,-0.039197534,0.076932035,-0.068076774,0.078461915,-0.005558254,-0.025807995,0.025935898,0.020427395,-0.06527464,0.12112602,0.06336654,-0.021891603,0.04580195,-0.04115841,0.07974514,0.04888809,0.053635802,-0.102594994,0.09191005,0.019398645,-0.026435297,-0.00650621,0.15843044,-0.19862701,-0.03890008,-0.17428598,-0.036084466,0.030887183,0.008176351,0.11181792,0.10965234,0.1524195,-0.030675191,-0.049657125,-0.035870854,0.016371675,-0.0049277847,0.10567419,-0.15794057,-0.030227672,0.059054624,-0.009275988,0.02877559,0.013224149,-0.023804383,0.18063569,-0.0208847,-0.04469806,-0.08131301,0.14718875,-0.014274607,-0.057222888,-0.0659473,-0.027224632,-0.05694718,-0.025286851,-0.0070629297,-0.07868415,-0.009103264,0.1308201,-0.013650173,0.022831742,0.024633126,-0.014392779,-0.03590505,-0.01110341,0.10828372,-0.11059563,-0.06924328,-0.0055117393,0.09187025,-0.05465457,-0.045396525,-0.13244897,-0.004544634,-0.016922455,0.13045117,0.06293181,-0.066016175,-0.06716813,-0.027318906,-0.029568937,2.0977363e-05,0.01006513,0.029765101,0.009905236,0.00040083172,-0.07762514,-0.07682325,0.015449101,-0.0035347245,0.010448087,-0.023349661,0.096725866,0.019338364,-0.018332891,-0.047368687,-0.092971206,-0.06908703,0.054603055,0.0621653,0.0011197826,0.08566686,0.20307653,0.0809973,0.12848371,0.04263083,-0.05239051,-0.004443125,-0.03519116,0.051209334,-0.012285678,0.041453898,-0.07450698,-0.07462224,-0.030097691,-0.031713467,0.083756216,-0.003608957,0.06743448,-0.010775847,0.033794664,0.017347217,-0.031608142,-0.1384246,-0.003693562,-0.04821137,0.009932093,-0.15685001,-0.14929894,-0.11114687,-0.07069355,0.04908145,0.19580905,-0.06946448,-0.25750205,-0.047949247,-0.15516531,-0.0032036263,0.2257679,0.024709776,0.15077046,0.042155143,0.03928816,-0.15518473,-0.038714796,0.019903868,0.010856565,-0.13541746,-0.026783407,-0.04960045,0.010501258,-0.004350682,-0.012295351,0.03316915,-0.0012952859,0.013216014,-0.025286011,-0.039263137,0.08234424,0.017926166,-0.019042416,0.089772224,0.052645802,-0.028401544,0.08374732,-0.065241076,-0.13430889,0.0044298116,0.051391084,0.015852926,-0.01057992,0.012576087,0.033991426,-0.025508316,0.10977099,0.009176482,-0.07961697,-0.032713957,0.114598945,-0.07313366,-0.104708195,-0.0040732436,0.035864964,-0.054235265,-0.05692567,-0.0068780095,0.020296346,-0.13485453,-0.09664717,-0.09317227,-0.21767122,0.001061803,-0.05271083,-0.17751095,-0.04401854,-0.007865582,0.16047217,-0.024548916,0.03678936,0.02074756,0.09685649,0.016618209,0.12623364,0.06946407,-0.023777435,0.110920355,0.05258257,-0.094592325,-0.00905057,0.038460936,-0.072422445,-0.0215888,-0.05818822,0.022382826,-0.0238866,-0.020078313,-0.011215529,-0.04252709,0.013796098,-0.011563544,-0.07840672,0.121746086,-0.019006418,0.06727037,0.045338698,-0.046464454,0.12011255,-0.106339544,-0.12911522,0.058770504,-0.10360869,-0.0336047,0.13949001,-0.00480495,0.055982724,0.008177074,-0.1385525,0.052450035,0.028967304,-0.0202659,-0.08315387,-0.0659465,-0.028280327,0.13561803,-0.049746856,-0.10906588,0.0892043,0.030385323,0.036820173,0.0009248876,0.033458203,-0.089006215,-0.0017572095,0.067644574,0.07823234,0.09155888,0.09753055,-0.16216412,0.14579247,-0.032334503,-0.09231541,0.015605708,-0.05334113,0.046277788,0.034907106,-0.010857792,-0.0015270936,0.14863877,-0.09855394,0.14754258,0.076544,0.029254377,0.058874663,0.10823757,0.030180711,-0.16909806,0.03691835,0.008946894,0.011604224,0.0365546,-0.0022861639,-0.004955791,0.06264105,0.048798505,0.2659574,0.016833393,0.061038475,-0.11016785,-0.010971492,0.06686585,-0.006679073,0.08092585,0.026336024,-0.11472814,-0.0787081,-0.0036076335,0.024803462,-0.01579242,0.12578055,-0.04184411,-0.012786517,-0.062348235,0.024367739,-0.0066970373,0.050101988,-0.048389435,-0.049158715,-0.064830504,0.06903943,-0.0024042646,0.17044313,-0.09693635,0.053485863,-0.02665683,-0.047366466,0.018254329,0.03192491,-0.041700512,0.08797998,0.0043151933,0.0033045805,-0.013353079,0.07449795,0.032314725,0.04677545,-0.00091481715,-0.049485516,0.021988502,-0.0038645067,0.0002638704,0.0032312754,0.026094083,0.082586035,0.022991987,0.075347126,0.039875183,0.0034474323,0.029245986,0.0064036646,0.0065779425,0.07020394,-0.004635898,0.07077839,-0.021271048,0.0027979692,0.074526936,0.038708597,0.0078040063,-0.14209083,0.14014475,0.038666695,0.064606875,-0.049933147,-0.044909872,0.06311626,-0.036641814,-0.05022776,0.100427814,0.03711311,-0.15306617,-0.13437986,-0.2586164,0.04077286,0.102751516,0.02894113,0.05235715,-0.05116701,0.02723047,-0.10731753,-0.05428532,-0.095731966,-0.22678988,0.01598443,0.053968105,-0.018600104,0.011719316,-0.11033073,0.020299358,0.19559456,-0.114240915,0.022221796,-0.020141067,-0.008476154,0.020090135,0.07835663,0.13103735,-0.00063219765,0.09490607,-0.08550997,-0.10830548,0.019508922,-0.016023323,-0.013678976,0.046262342,-0.0028628728,-0.095292635,-0.057706494,0.029175581,-0.04407366,-0.060573906,0.04172986,0.040379524,0.147566,0.16260388,-0.028569678,-0.07007008,-0.037773944,0.08660727,0.0009625884,-0.07998894,0.09203072,-0.0077251876,-0.06494217,-0.06721223,-0.044943508,0.027666992,-0.1530866,-0.0052426346,-0.033028938,0.029924843,0.044666097,-0.054262917,0.09398074,-0.07377418,-0.02622716,-0.011764145,0.08081799,-0.036366593,-0.03487716,-0.062502846,-0.15803677,0.022295177,0.012006705,-0.10089241,0.011409348,0.060576566,0.1790177,0.033525255,-0.009748625,0.126206,0.054975484,0.021601006,0.03993859,0.017421752,-0.014627195,0.1606252,0.044356678,0.0042433785,-0.041858807,-0.049350057,-0.0070525487,-0.12490633,-0.0061894134,-0.0011098341,-0.04835686,-0.016120119,0.02774164,0.049512725,0.13465366,-0.09441123,-0.007159709,-0.028832113,0.004968308,0.07785725,0.1134811,0.17831759,-0.015775362,-0.062012926,0.0069864583,0.059033163,-0.020210646,0.11723055,0.042228784,-0.037571505,-0.043158267,-0.047249675,-0.085216075,-0.08585832,-0.05509726,-0.041549332,0.06634146,-0.023100624,-0.088778116,0.031472344,-0.006014467,-0.07938453,-0.030987106,0.040750276,-0.030373335,0.10304303,0.062802754
A9,-0.060788725,0.0076550683,0.07666145,-0.025574168,-0.023517953,0.051324498,-0.1554133,-0.09948721,-0.0144046955,0.06880925,-0.048628982,0.061155953,0.076723106,-0.030661304,0.09353736,0.020012809,-0.09899384,0.18523271,-0.03206219,-0.014782252,0.05588738,0.004594065,0.033279143,0.060275074,0.057038892,-0.08814851,0.0029156734,0.0101790875,-0.06256737,0.035119362,0.11446606,-0.051730134,-0.010704012,-0.07593998,-0.07276018,0.05641691,-0.0017476971,0.0568846,0.042044245,0.10598692,-0.03199529,-0.039923653,-0.03288211,0.0747417,-0.042623017,0.06547345,-0.15539265,-0.025369715,0.041957542,0.0070082177,-0.0021651266,0.041640677,0.03468942,0.10857159,0.022951756,-0.05264584,-0.050325446,0.10759341,0.016961318,-0.06921261,-0.029922396,-0.034693267,-0.008637798,0.01043472,0.017663563,-0.037868146,-0.037342414,0.13602841,-0.0053294585,0.030652523,-0.0034756204,-0.014832575,-0.046826027,-0.066103816,0.110207185,-0.04883908,-0.0006079018,-0.058588438,0.032581758,-0.073357254,-0.03619005,-0.087694265,-0.03314604,0.000851268,0.058656655,0.07524484,-0.09146892,-0.06639607,0.0014682078,-0.116930775,0.007866933,-0.010427135,-0.045788486,-0.011148529,0.048028864,-0.03379485,-0.12042583,-0.034449067,0.0022097018,0.012546305,0.021639857,0.049926784,0.015266154,0.011910541,0.0049780062,-0.108651176,-0.088272825,0.006666851,0.024310168,0.061655167,0.027859705,0.1952675,0.041484766,0.0786594,0.0026198346,-0.027787343,0.055252414,-0.012897252,0.06312166,0.01666747,0.05174673,-0.051078234,-0.0697608,0.02756139,0.023677366,0.07185709,-0.018619137,0.11528416,-0.028810088,0.09833677,0.033783842,-0.033282727,-0.15654671,0.02580951,-0.043776017,-0.029234065,-0.09890714,-0.07624635,-0.049178254,-0.15241213,0.08067268,0.14173079,-0.020700878,-0.1272898,-0.024768855,-0.18784067,-0.048974123,0.21280698,0.0009776638,0.11713506,0.06341607,-0.024009477,-0.09764841,-0.0027108737,-0.0043553472,0.054294225,-0.10258452,-0.038119536,-0.047549114,0.016009588,-0.04271264,0.02365917,-0.010083835,-0.05387368,0.00040206048,0.01593637,-0.029582256,0.10329199,0.045351863,-0.06742705,0.0533891,0.063418746,-0.01513564,0.050708566,-0.043187894,-0.06467913,0.01904595,-0.003865987,0.037477873,-0.003522207,0.06416682,-0.020366186,-0.010748382,0.09710251,0.05216189,0.031651843,-0.05310893,0.053321484,-0.044259045,-0.12188321,0.019856492,0.028621836,-0.017640237,-0.04995478,-0.059110038,0.028037999,-0.056151345,-0.10224205,-0.0656759,-0.08491943,-0.03845191,-0.037007622,-0.15071581,-0.025972364,-0.053781617,0.0867258,-0.08723716,0.0073540686,0.04960965,0.15555283,0.0034597307,0.12893371,0.16342595,-0.012787489,0.07832583,0.10669517,-0.03440591,0.010630482,0.06764593,-0.015514351,-0.035666246,-0.08186737,-0.012922084,-0.023776613,0.05828147,-0.021410301,-0.035707578,0.044939067,0.032114953,-0.059952237,0.08485757,0.035306253,0.04074043,0.022728968,0.01841834,0.05202668,-0.11151092,-0.13316284,0.05303859,-0.016042318,-0.046027176,0.11093963,-0.029056251,0.077193856,0.047659907,-0.08862032,0.055248857,-0.016215542,-0.061661735,-0.09232789,-0.016784672,-0.053102117,0.10015764,0.050795197,-0.14296313,0.096958324,0.08035567,-0.007703096,-1.4003536e-05,0.06985191,-0.03728973,-0.009014509,0.016733855,0.042817455,0.05569415,0.07537711,-0.13916102,0.13635993,-0.026018823,-0.0882592,-0.026798192,-0.10096227,0.03184087,0.02029782,0.013742542,0.041023232,0.083248496,-0.06383009,0.106094845,0.07369183,0.031528275,0.07246528,0.06032342,0.0011873649,-0.14814684,0.07217386,0.006105244,-0.0030971393,0.00046646682,-0.028036568,-0.043381184,-0.0008826484,0.05385886,0.14874877,0.020671641,0.07236022,-0.123787485,-0.051735107,-0.009352637,-0.07122719,0.035971414,-0.028068317,-0.10735193,-0.08499355,-0.031046188,0.04834948,-0.025946353,0.07963983,-0.018822964,-0.05761654,-0.057950106,0.023811186,0.026018666,0.0052954266,-0.01861797,-0.057352543,-0.04716183,0.034732655,-0.048875876,0.13923287,0.011304908,0.018615097,0.045106135,-0.033554412,-0.057584222,0.072422035,-0.039708447,0.0719472,-0.014425334,-0.005453189,-0.041302208,0.045872636,0.0071269493,0.048235174,0.0261253,0.013716186,0.07959872,0.006980678,-0.03284854,-0.021591425,-0.049306106,0.027820952,0.023900406,0.07861037,-0.0051704743,0.0058630425,0.023715083,-0.023152666,0.0055296207,0.04525639,-0.06978986,0.06930941,0.019230263,0.06857995,0.057943303,-0.035051,0.028778875,-0.06896603,0.11482453,-0.015909158,0.09904741,-0.024041178,-0.0369445,0.044166155,-0.011816011,-0.0052114935,0.09247123,0.087045506,-0.115879014,-0.099874265,-0.2171494,-0.0066035273,0.14809704,0.08464943,0.02898672,0.036767144,0.056655172,-0.07797557,-0.059718195,-0.07325458,-0.17589621,0.03681394,0.106204875,-0.05188443,-0.019872576,-0.08330829,0.0018578942,0.1608745,-0.08272041,0.061488878,-0.01998951,0.0010710245,-0.038498893,0.07781348,0.15248588,-0.015881084,0.14076474,-0.075619794,-0.097630955,-0.0039254157,-0.044600785,-0.018941736,-0.015840305,-0.0010201387,-0.02979875,-0.107165866,0.021685096,-0.033966213,-0.11138777,0.011545466,-0.020534733,0.11518152,0.04078198,-0.010938723,-0.08884436,-0.000908629,0.07614714,0.059595887,-0.07458437,0.065206155,-0.062308975,-0.10579463,-0.048408303,-0.01728515,-0.015426531,-0.12670958,0.040136825,0.023353256,0.06030577,0.066017196,0.028039845,0.043875266,-0.09302607,-0.013391642,0.026377302,0.08880719,-0.03902632,-0.08147872,-0.08065032,-0.11998795,-0.00095044525,0.014836192,-0.02984314,0.048612896,-0.0015954133,0.14262317,0.054524064,0.013634082,0.078420356,0.022986133,0.08674779,0.039379947,0.035709236,0.06405868,0.08074163,0.046969783,0.005141246,-0.044805214,-0.0003739749,0.038713794,-0.10884864,-0.002672867,-0.041434348,-0.010003196,0.03054653,0.016338233,0.07014208,0.1214784,-0.038597763,-0.04289493,-0.00058911444,-0.04752485,0.12911521,0.11164461,0.1856499,0.027591953,-0.03098454,0.0051379697,0.10604029,-0.039308578,0.07007446,0.0824659,0.046324577,-0.055453725,-0.004053026,-0.10083532,0.014747184,-0.13654082,-0.03798787,-0.0159818,-0.0548206,-0.12793893,0.019762002,-0.045431815,-0.108918,0.021556675,-0.0033749698,0.019438205,0.050829954,0.10573999
A10,-0.08784405,0.0174958,0.15096436,-0.07444399,-0.021785967,-0.0013346135,-0.09369058,-0.11647448,-0.04634812,0.12610343,-0.05328165,0.09313536,0.0006865248,-0.047279578,0.049799714,0.057381365,-0.04006769,0.14638266,0.032868322,0.00021734998,0.06698396,-0.034344386,0.06476719,0.03745802,0.05135423,-0.052836433,0.040127438,-0.008138923,-0.06193687,-0.016352518,0.17565808,-0.07171709,0.002714066,-0.16950606,-0.06529501,0.025326882,0.048662815,0.075309835,0.0036210571,0.16467059,-0.07187631,-0.03744532,-0.06694167,0.028794127,-0.0070183887,0.08125647,-0.15449357,-0.009364934,0.080591,-0.008333656,0.007771383,0.03373429,-0.022083648,0.18171616,0.019035673,-0.028384222,0.0030963314,0.10340607,0.0439886,-0.0041712,-0.052260846,-0.06445983,-0.030977728,0.051213697,-0.0037599178,-0.0713686,-0.0391202,0.05053139,0.008753223,0.0030948082,0.052485988,-0.06655489,-0.026650917,-0.0660551,0.070696265,-0.08271376,-0.030379623,-0.06578558,0.082933135,-0.061737385,-0.07388895,-0.09578025,0.046766408,-0.041233797,0.08756164,0.100293644,-0.07400003,-0.034038085,-0.0017657672,-0.10270735,-0.04969063,0.010019478,0.03596671,-0.047778036,0.08776733,-0.06733775,-0.08844483,-0.022085948,0.03244503,-0.022876926,-0.03125809,0.08671613,0.015680062,-0.007261067,-0.029017104,-0.13879833,-0.11506254,0.022520984,0.07028745,0.019797884,0.008307127,0.25665528,0.022231905,0.09758039,0.031833854,-0.045864407,0.012464974,-0.004086777,0.07722531,0.032060638,0.08462045,-0.02840922,-0.09176733,0.018278843,0.012056248,0.03317638,0.022105468,0.10724398,-0.00020780241,0.055216018,-0.01809096,-0.039569918,-0.14692506,-0.019982757,-0.025812358,-0.03719764,-0.11864173,-0.12163978,-0.10216592,-0.09947144,0.060900636,0.21461229,-0.039323024,-0.18583578,-0.030832283,-0.1529344,-0.008980175,0.22292224,0.007373953,0.14517716,0.065614544,-0.006110261,-0.11056887,-0.047228273,0.032816518,-0.006836917,-0.15920433,-0.019585682,0.004865214,-0.022604508,-0.014100391,-0.046669934,-0.04428125,-0.06841344,0.023705458,-0.056519408,-0.07620919,0.07646655,0.09437689,-0.04460806,0.067955315,0.07721267,-0.041990533,0.06731751,-0.08835872,-0.075077444,0.05268165,0.0066801384,-0.011483542,-0.008422993,0.04246797,0.015433262,0.035154223,0.10383406,0.060164668,-0.072871126,-0.00017055744,0.04231025,-0.094383426,-0.16385469,-0.0052864365,0.03744529,-0.0026084238,-0.12450767,-0.020567367,0.087794624,-0.13992958,-0.07719296,-0.11374519,-0.111335814,-0.05102379,-0.046366524,-0.11596772,-0.012272075,-0.04605994,0.17444691,-0.008616631,-0.008448055,0.06749373,0.09244329,0.049592998,0.092215545,0.1287001,-0.00917575,0.098344184,0.0726324,-0.056540083,0.042441323,0.029376859,-0.04513714,-0.0154661555,-0.0649722,0.056948848,-0.05576924,0.0044010044,-0.015255165,-0.005922143,0.09527,-0.034559432,-0.057385664,0.15360773,0.01995113,0.02452017,0.06632537,0.031338308,0.054089908,-0.063467756,-0.09110867,-0.009076547,-0.1359914,-0.034829304,0.09313698,-0.0423734,0.008605763,0.011374961,-0.09520594,0.052947618,0.018749958,-0.033018358,-0.085969545,0.041177098,-0.07802235,0.05427796,0.010868866,-0.15423381,0.08577559,0.03477215,0.10021188,-0.03773161,0.009831983,-0.030640386,-0.055087924,0.015432962,0.071626276,0.08618374,0.15202267,-0.15899342,0.16648905,-0.034906633,-0.054553144,0.03204748,-0.080183506,0.08115941,0.0099802315,0.04464054,0.04068573,0.13186918,-0.08445447,0.053492337,0.1031447,0.026440218,0.048634373,0.09866771,-0.04454293,-0.18022336,0.000116205614,-0.017842723,0.048049036,0.020063402,-0.0078956,-0.0251259,0.08978276,0.024001038,0.2570092,-0.0128633315,0.10904551,-0.11877115,-0.03666344,0.002825409,-0.04471706,0.063559815,-0.0012291473,-0.08407384,-0.05942012,0.036828,0.037500538,-0.0458922,0.09110015,-0.07405638,-0.042196188,-0.039972268,-0.0050394065,0.017613051,0.025331877,-0.0048409817,-0.057954337,-0.091504656,0.0028807851,-0.016280383,0.10217192,-0.012921145,0.050522145,0.025708983,-0.039011043,-0.05878116,0.031174023,-0.097564794,0.036155853,0.01581093,-0.07438481,-0.022112997,0.08678473,-0.037678517,0.039886996,0.075812295,0.0053634224,0.0230234,0.016728193,-0.04255447,-0.04341145,-0.06501787,0.023274904,0.019000782,0.09904011,0.0061536855,0.010982373,-0.010936568,0.016370066,-0.005251767,0.09463357,0.003921245,0.042678174,-0.012125293,-0.019081617,0.058021966,0.001176721,-0.011105087,-0.10394365,0.15717378,0.0018249853,0.09354022,-0.020156076,-0.06761687,0.101548806,-0.04863764,-0.05721186,0.11194819,0.09345656,-0.17240249,-0.18902676,-0.18362023,0.0049407706,0.15515848,0.04873894,0.03759878,-0.05847604,0.041141666,-0.046124794,-0.05623576,-0.08018698,-0.2561428,-0.003042581,0.08567842,-0.0076739704,-0.024195805,-0.091918066,0.039887957,0.14373007,-0.16361016,0.12097328,-0.023140917,0.006156733,0.04106497,0.10268023,0.12301383,0.016251469,0.186434,-0.1425491,-0.16895424,-0.0028423518,-0.053499144,-0.017052222,-0.041661993,-0.04336079,-0.086989075,-0.10792369,0.042865504,-0.057111584,-0.059000347,-0.010187117,0.07412241,0.09945911,0.11078496,0.045311823,-0.051173583,-0.06447077,0.07092074,0.037139215,-0.09337047,0.053054992,0.018269198,-0.110852085,-0.010703526,-0.032326836,0.008824511,-0.13527426,0.018344337,0.00051765534,-0.0016141585,0.05081112,-0.02437106,0.051270552,-0.080093935,-0.055168223,-0.06919273,0.09932838,-0.08925786,-0.12214116,-0.08869393,-0.079780445,-0.0376516,0.063473694,-0.055372167,0.045414433,0.039481316,0.14128575,0.060787145,-0.03746837,0.1099655,-0.0044713304,0.04135463,0.005505224,0.0094446475,0.0053381356,0.14840282,0.051905457,0.036579657,0.027222354,0.001649596,0.017151969,-0.14754957,0.035034563,-0.10489264,-0.05363966,0.0023627167,0.017772462,0.033148773,0.15519816,-0.1017778,-0.060357176,-0.030523878,-0.025921792,0.124033965,0.029115133,0.22746871,0.029218603,-0.055948645,0.016023455,0.073728874,0.024147447,0.15130126,0.07097184,-0.049618844,-0.05733765,-0.024837404,-0.048230562,-0.048861768,-0.07925583,-0.042122126,0.026001303,-0.072800584,-0.074183,0.014982001,-0.05502756,-0.07505188,0.0047595147,-0.013010047,0.056289505,0.12470228,0.034937598
B1,0.027588695,0.015549566,0.042286027,0.01472913,-0.011680303,0.0021894346,-0.07522573,-0.087379724,-0.02844662,0.108740896,0.0036551924,0.03531353,0.040380746,0.042156912,-0.020570578,-0.022339517,-0.026351988,0.08492323,-0.050422378,-0.07554067,0.041817397,-0.03705422,0.026457304,0.051395558,0.045555115,-0.06469725,-0.040953476,-0.009641689,-0.0834863,0.0120671615,0.04381732,0.041543625,-0.0136197,-0.10785925,-0.056049984,0.08018349,-0.03890365,0.03250102,-0.0104271285,0.09233557,-0.038161807,-0.011850288,0.020736907,0.011584756,-0.02754148,0.04125639,-0.09849027,-0.018798213,0.04762591,-0.01293695,-0.034195665,-0.0093154395,-0.026338251,0.077380046,-0.054011445,-0.010795502,-0.0021178368,0.0884036,0.07477843,-0.024364527,0.040849745,0.0020533614,-0.027119242,0.05731989,0.014533893,0.007544233,0.054008983,-0.0010267124,-0.010185353,-0.033259887,0.016173158,-0.03964966,-0.015382206,-0.034474295,-0.01278375,-0.008413465,-0.0062488103,-0.063886866,0.00360222,-0.033655718,-0.016482644,-0.024673961,-0.07900628,-0.07679848,0.018017136,0.07331729,-0.04663149,-0.011429403,-0.032050334,-0.067285135,-0.050761543,-0.013516124,-0.056077316,0.04328432,-0.017173028,0.02844151,-0.12393288,0.027334342,-0.021724328,0.0037743663,0.0763129,0.03289574,0.007959261,-0.02610741,0.015756339,-0.051231563,-0.09062002,0.056231398,-0.010874927,0.032274865,0.016638655,0.14115313,0.07139653,0.07195045,0.01414136,-0.03968159,0.032463077,-0.038252715,0.064629406,-0.040536404,0.07496111,-0.016179094,-0.09142738,-0.023577824,0.073773324,-0.016336456,-0.009547938,0.0414678,-0.054615624,0.048834417,-0.017220868,-0.06152948,-0.16620515,-0.00017270632,-0.027096214,0.03659036,-0.030714879,-0.0157674,-0.044506837,-0.13024059,0.03276873,0.07226637,-0.037524734,-0.055504575,0.04852526,-0.04126104,-0.002069449,0.06810868,0.026704216,0.10312932,0.00572316,-0.043273866,-0.026136119,-0.03715056,0.01121752,0.024352988,-0.03750434,0.01601266,-0.0023665493,0.0145122735,-0.03717918,-0.02125562,-0.048271902,-0.010369452,0.027327048,0.02068295,0.013667058,0.041447476,0.0152785275,-0.07756286,-0.005988339,0.013097462,-0.02195937,-0.023376057,-0.029055731,-0.029126678,0.07065989,0.040310074,0.037320867,-0.030016363,0.074334726,-0.013753314,0.090887696,-0.019290809,0.07770884,0.048744358,-0.04127702,0.043910816,-0.04367726,-0.036562614,-0.014314947,-0.008676884,-0.01042386,-0.019820368,-0.0004749247,0.038351595,0.0006377874,-0.072675705,-0.0043629487,-0.017853322,0.021833692,-0.03172622,-0.06690345,-0.035896525,-0.10477556,0.06022532,0.03034086,0.009270984,0.046393514,0.099508256,-0.008859394,0.075196534,0.08686112,-0.016069997,0.08335678,0.08522775,-0.069269374,0.055811197,0.028720811,0.013404639,0.026977375,-0.07061179,0.035569254,-0.056769036,0.03605783,-0.0013958653,-0.02043026,0.0336877,-0.054472424,-0.009185362,0.06322509,-0.02725622,0.0031882655,0.007684683,0.07098177,0.046663128,-0.045406938,-0.09534897,-0.06877175,0.06164127,0.0120254755,0.046963606,-0.023389706,0.029123204,-0.0010188539,-0.062376827,0.0061527584,-0.028859744,-0.069044605,-0.031970114,0.0322977,-0.072306655,0.04729312,0.10317749,-0.07553186,0.057405204,0.030954374,0.030238042,0.032934766,0.047191717,0.04935095,-0.06648179,0.13988315,0.056084327,0.012258919,0.100955606,-0.06234905,0.13469009,0.050843418,0.0187858,0.06608318,-0.020400446,0.039866004,0.029727897,0.05816052,0.06621938,0.05250743,-0.02830367,0.11086781,0.050418794,0.0016205851,-0.036293004,0.10566303,-0.014037505,-0.09567188,-0.0032949112,-0.040000245,-0.01941419,-0.020253815,0.013565224,-0.001335559,-0.060768567,0.053436585,0.08901678,-0.00859764,0.10439515,-0.06913749,0.008347767,-0.08869643,-0.017303878,-0.021282138,0.014512027,-0.08906757,-0.02023051,0.053220227,0.027122539,-0.06756772,0.060930304,-0.088993646,-0.044715673,-0.035186402,0.013856552,0.04405027,-0.036208082,0.00037951116,-0.06610894,-0.03253339,0.0019071684,-0.058398426,0.074517325,0.028655726,0.041207425,0.06573117,-0.08203095,-0.0753375,0.04309587,-0.10660815,-0.022615012,0.013279927,-0.03316712,-0.056038506,0.008788101,0.04921118,-0.040410556,0.08088893,-0.0032902732,-0.039819364,-0.00762482,-0.07797072,-0.03112972,-0.014713735,-0.058263153,0.061876178,0.022323832,-0.062229138,-0.0087520555,0.030403838,-0.04459345,-0.013347555,0.07810964,0.05912908,-0.0015395787,-0.031051252,0.022622604,0.027582206,-0.025650175,-0.02363639,-0.06951441,0.033387925,0.026058,0.035319973,-0.021751815,0.0011610854,0.033719257,-0.029661061,0.02198047,0.052583855,0.073036015,-0.045933854,-0.10926953,-0.112314925,0.024839584,0.10975875,0.038427677,-0.0075892434,0.01882755,0.025110152,-0.0011115663,-0.030859562,0.015501073,-0.07119462,0.00820539,0.13115321,-0.057183944,-0.047378775,-0.024572248,0.07400411,0.045209315,-0.012002621,0.08853019,-0.0386104,-0.021743977,-0.02819454,0.038158827,0.16677079,0.02376733,0.074847125,-0.12070429,-0.11953968,0.023001626,-0.03339368,0.0523676,-0.04288806,-0.0069893,-0.048661944,-0.07078664,0.026766792,-0.08499052,-0.072001316,0.0179162,0.0390366,0.076523334,0.05769649,0.011920388,-0.07509585,-0.029845508,0.054213382,0.04345031,-0.020649388,0.041586325,-0.030999795,-0.07940036,-0.052292787,0.0005501057,-0.025137339,-0.078232765,0.051615372,0.017852426,-0.01680724,-0.0011877129,0.03987819,0.08636834,0.016229197,-0.009308143,-0.026079206,0.07136166,-0.04584876,-0.045754563,-0.08919771,-0.049001027,0.021626508,0.022924678,-0.09139505,0.0341546,0.026910935,0.07715892,0.059035055,-0.020420391,0.08161404,0.0036682533,0.04817944,0.03144723,-0.0013142601,0.054968636,0.08699196,0.0354698,0.009371046,-0.034510978,-0.024470283,-0.04600993,-0.007842777,0.008361302,-0.09548974,0.018330969,0.037897203,0.034704052,0.05330692,0.1435647,-0.07396831,-0.044363126,-0.0003623024,-0.023456007,0.043622117,0.00288775,0.08961509,0.013636759,0.002329167,0.032986395,0.1566582,0.005834873,-0.02237514,0.0884914,-0.010279557,-0.023003202,0.026957525,-0.0773666,0.016094487,0.021717386,0.01585776,0.07307183,-0.06505352,-0.029148318,0.05833666,-0.03610789,-0.06304165,-0.07846977,-0.012429559,-0.03096061,0.050991878,0.077369526
B2,-0.030710308,0.019225026,0.08904252,-0.057180144,-0.0071395226,-0.030758634,-0.11768393,-0.0967539,-0.041951682,0.13845505,-0.02456503,0.07433256,0.0024643245,-0.050663795,0.0052577136,0.0626533,-0.04234471,0.13764998,-0.016256707,-0.024274275,0.02068372,-0.024761036,0.08424647,0.041848496,0.0636367,-0.0048902086,0.034717616,-0.0448341,-0.03699289,0.011804133,0.16904688,-0.044161793,0.0101088835,-0.09380064,-0.108492985,0.08494501,-0.0025153446,0.024607329,0.035941757,0.12414269,-0.048096202,-0.03449728,-0.102111466,0.013830411,-0.023304408,0.083740525,-0.15603998,-0.04528731,0.08770368,0.025716979,0.0010302002,0.009894581,-0.026979748,0.15776011,0.029095223,-0.03526576,-0.036337003,0.09828499,-0.0151101295,-0.05644071,-0.028836269,-0.018056542,-0.06896176,-0.021002205,0.050838135,-0.067428485,-0.010720855,0.0017576575,-0.034562208,-0.001977465,0.048293076,-0.08832552,-0.056026097,-0.010105911,0.07156223,-0.11713339,-0.00026693172,-0.06874488,0.048832014,-0.017703857,-0.0022250141,-0.0928276,0.013379758,-0.0669902,0.05821699,0.07651689,-0.070349544,0.010313408,-0.0033902344,-0.10105337,0.012938857,0.024397736,-0.04397252,0.041372657,0.029465303,-0.019840045,-0.07544259,-0.0034528994,0.049072504,0.051102046,-0.018702118,0.06610671,0.054065414,0.007285448,0.005251531,-0.13356283,-0.14489533,0.026625125,0.01347749,0.014278714,0.062479008,0.21995914,0.06377861,0.09835526,-0.0015882127,-0.010995823,-0.021052344,-0.076451965,0.09439677,-0.036559563,0.10069022,-0.017722314,-0.12570392,0.028305972,0.027937477,0.0433435,-0.017861856,0.04802175,-0.05326884,0.03729791,-0.014401786,-0.045693398,-0.18293962,0.0023155648,0.013061744,-0.0036889226,-0.121151954,-0.095134996,-0.09183562,-0.12366788,0.037470154,0.1260429,-0.066401444,-0.14978933,0.0077607506,-0.12832744,-0.047949158,0.14954492,0.05428739,0.15752906,0.0019178379,0.015431623,-0.117738545,-0.027999943,0.011375505,0.010648032,-0.10496664,-0.058212843,-0.060503952,0.015213821,0.0030335865,-0.053808406,-0.0030581304,-0.04938088,0.051129617,-0.022499356,-0.01956682,0.12325085,0.044845197,-0.07871075,0.037188757,0.050942816,-0.02589911,0.039991133,-0.02517241,-0.023777334,0.07596563,0.0779804,-0.037457332,-0.030962765,0.011363174,-0.032236435,0.062133923,0.05295109,0.05557951,-0.04172515,-0.028700493,0.030676145,-0.041307114,-0.12299892,-0.019644925,0.013495457,-0.05446099,-0.08549583,-0.06207152,0.059149813,-0.09155302,-0.1190786,-0.06325198,-0.09356964,-0.09194691,-0.14541517,-0.13775013,0.039836116,-0.11235047,0.07659282,0.052840427,-0.014887259,0.06349707,0.15328676,0.039853957,0.14461985,0.113034494,-0.04783184,0.16732562,0.086061105,-0.07092702,0.03104772,0.04936373,-0.043985263,0.036025573,-0.08335939,0.009600246,-0.031156274,-0.023442341,0.005107638,-0.05752088,0.029823272,-0.057996288,-0.053707495,0.10938288,0.0076480303,0.0126706,0.081562154,0.003198379,0.052574392,-0.11540429,-0.10486059,-0.03408506,-0.036224578,-0.0035741585,0.13661978,-0.08447677,0.048018526,0.04876374,-0.08733174,0.045574687,0.02237089,-0.07303822,-0.079848215,-0.015517124,-0.09623613,0.127117,0.040866807,-0.1352808,0.062555775,0.07291702,0.06750143,-0.004461206,0.060782224,0.020640396,-0.0154484995,0.069464654,0.07003413,0.025736602,0.11162434,-0.14903797,0.15461457,-0.0006312623,-0.038524833,0.03992281,-0.09313022,0.032664485,0.02754416,0.06172469,0.06542515,0.10907577,-0.0324882,0.08321652,0.08930069,0.014885407,0.027462259,0.066019975,0.011442064,-0.14854512,-0.027109664,-0.010026614,0.044737116,-0.017003577,-0.005193666,0.018280726,0.031393483,0.07144778,0.20960656,-0.0035349254,0.11678589,-0.097554855,-0.058646377,-0.041609358,-0.02610758,0.043628946,-0.033763286,-0.06780269,-0.08706927,-0.020488502,0.022559535,-0.07552668,0.12573965,-0.121821545,-0.03456433,-0.021443872,0.05401076,-0.030731868,-0.032568227,-0.057402395,-0.08523276,-0.086967595,-0.021191705,-0.04434505,0.12985459,-0.07684773,0.020607017,0.033595704,-0.08525756,-0.026273815,0.07862997,-0.03677464,0.06984084,0.04059718,-0.018384349,-0.06274541,0.05960702,0.027698558,0.030921433,0.09527943,-0.008175791,0.033815783,-0.005123112,-0.039709583,-0.03801107,-0.024666298,0.040542442,0.057674855,0.050878104,0.046021163,0.024113847,-0.010209092,-0.016525006,0.036255218,0.04133694,0.029156612,0.11317605,-0.026587782,0.015610085,0.06305765,0.02863191,-0.0050317957,-0.11746893,0.07104897,0.028733311,0.10349675,0.036018323,-0.060853075,0.101430446,-0.022144672,-0.0012293234,0.094529174,0.083418526,-0.109937936,-0.17609642,-0.17390548,-0.015935533,0.13490014,0.062099874,0.058252104,-0.009836043,0.019502528,-0.07374229,-0.053504784,-0.09310703,-0.16152115,0.007956036,0.11533649,-0.051697046,-0.048575066,-0.10398453,0.07429273,0.15166567,-0.11337186,0.10814368,0.04343003,-0.018765805,0.025216954,0.073674075,0.18866149,0.0041666403,0.12045539,-0.16879615,-0.11462211,0.05186511,-0.013390842,-0.0015249198,-0.016833588,-0.031234717,-0.06535175,-0.08197878,0.046720713,-0.01744424,-0.08839226,0.047164254,0.053619392,0.083913766,0.10434212,-0.05054472,-0.0754408,-0.03274609,0.0762871,0.04134966,-0.091195546,0.028085897,-0.0045545185,-0.0991976,-0.024646522,-0.022577202,0.038568728,-0.16321668,0.04520703,-0.04832458,-0.0054066945,0.08828375,0.021751517,0.036365334,-0.058499444,-0.021861358,0.015206758,0.1073942,-0.051151793,-0.06498312,-0.12774593,-0.10652427,0.0059832977,0.0427013,-0.06579633,0.05697663,0.06859999,0.11367543,0.03944998,-0.016975172,0.109348334,-0.012171074,0.060141172,0.029377617,0.023715926,0.0027482007,0.12394916,0.012939364,0.032477494,-0.024869645,-0.017054113,-0.008375747,-0.122807905,0.044857405,-0.07637268,-0.026874946,-0.013966932,-0.00080218015,0.056404047,0.1628978,-0.076438546,-0.048315763,-0.04442615,0.00019006751,0.05856641,0.090725906,0.16656333,0.044612132,-0.06763272,0.030793272,0.077072136,0.014247038,0.1064881,0.05142582,-0.0857511,-0.023363795,-0.026844172,-0.07113035,-0.050407607,-0.07924062,0.0052319034,0.033944715,-0.07536847,-0.073884755,0.035541087,-0.021803709,-0.11887741,-0.037452437,-0.014500717,-0.020951994,0.1024106,0.08127648
B3,-0.0013269593,-0.03550241,0.10456144,-0.0362933,0.045135904,-0.01572139,-0.08044778,-0.09610315,-0.051131558,0.11326595,0.011400172,0.08285294,-0.024972714,-0.025710367,-0.019396445,0.08937095,-0.043147393,0.110883996,0.042519666,-0.030622564,0.015027123,-0.03368111,0.047520403,0.051800165,0.04618296,-0.01951477,-0.045762137,0.019612176,-0.056955036,-0.0015197156,0.08417972,-0.10941272,-0.045186497,-0.14202505,-0.017449565,0.06086837,0.03981756,0.057186157,0.012133369,0.13693224,0.0055472124,-0.04091394,-0.014172818,0.030756291,-0.0070459708,0.08415239,-0.0988731,-0.0064390115,0.038131278,0.04424471,0.004758451,-0.0349868,-0.058788598,0.1182636,-6.3309686e-05,-0.079609625,-0.05787635,0.15664774,0.020455094,-0.032333143,0.014232405,-0.052978475,-0.03472668,0.010869725,0.0041824756,0.00023356795,0.019306606,0.03850259,0.021914976,-0.010350463,0.044224493,-0.05027281,-0.021806683,0.09364022,0.05059206,-0.05172969,-0.049713805,-0.03449066,-0.0023031328,-0.04553003,-0.021693936,-0.047679134,-0.018470453,0.034455307,0.058415346,0.012570831,-0.08626693,0.006939228,0.0038330113,-0.06930397,-0.021027254,0.03520176,-0.02670456,0.023825763,0.03808402,-0.039927457,-0.13706487,-0.0035598918,0.015343123,-0.0019517132,-0.013342988,0.035046797,-0.00041146795,-0.02417247,-0.042621955,-0.061011016,-0.009197987,0.023680726,0.034765843,0.022858253,0.08439834,0.15454955,0.07013282,0.07649821,0.03499362,-0.042659156,0.011625736,-0.00013053446,0.07377264,-0.00078029465,0.0730537,0.032084886,-0.08373594,-0.012268852,0.008833711,0.054332808,0.008691989,0.004176128,-0.013077718,0.047089975,0.01424146,-0.042748462,-0.081024,0.009006958,-0.01968073,-0.0125993565,-0.089939274,-0.05394251,-0.0845152,-0.08498967,0.03389459,0.13417913,-0.044847634,-0.18321355,0.0033434096,-0.080232896,-0.05237002,0.12205914,0.029512804,0.09173156,-0.027856663,-0.0004537019,-0.029079927,-0.0014311561,-0.009293198,-0.0006645826,-0.061934166,-0.04888626,-0.025601447,-0.06064535,0.027859991,-0.05306203,-0.006247545,-0.012469843,0.023381628,-0.020097284,-0.04457446,0.07931303,0.015456314,-0.01390614,0.041778754,0.025979567,-0.032385025,0.005898453,-0.015718574,-0.024496451,0.046375588,0.012342881,-0.013819903,-0.016121857,-0.07490502,-0.025053905,0.005041254,-0.017632673,0.030331988,-0.06793731,-0.029767446,0.080493614,-0.07181209,-0.059387863,0.031138655,0.03589211,-0.020478752,-0.037717413,-0.005514794,-0.010528796,-0.07157081,-0.049513016,-0.063692994,-0.07203402,0.008811517,-0.07627776,-0.11521351,0.007829895,-0.05754514,0.1296129,0.0046514813,-0.009206009,0.02806015,0.075783074,-0.027230388,0.13349283,0.10293712,-0.001073649,0.13856366,0.0335483,-0.11302035,0.053117167,-0.035771485,0.015087518,0.0054176645,-0.09944963,0.08261647,-0.01391635,-0.068160735,-0.028059673,0.011959088,0.03135316,-0.10424353,-0.07279485,0.08191299,0.0034377335,0.018627819,0.03586079,0.0011999218,0.07716714,-0.06739946,-0.021546794,0.018284148,-0.03302284,0.03852916,0.122406155,-0.03765124,0.009413305,0.041320562,-0.08255175,-0.0027954937,-0.022819057,-0.040403698,-0.066511,-0.0024359648,-0.024993552,0.119815156,0.00738575,-0.121521324,0.038271006,-0.022900226,0.026855025,0.049561135,0.0746647,-0.038226932,-0.01996899,0.08439595,0.08019038,0.055545736,0.11874729,-0.08142205,0.0981582,-0.039030988,0.012885647,0.03315347,0.00418446,0.094308406,0.003058719,0.05368927,0.07877956,0.037144326,-0.029756013,0.065093294,0.08800314,0.0075241886,0.018024214,0.123549126,0.014591345,-0.07614072,0.08077834,-0.009643812,0.05879309,0.039360613,0.027669806,0.038846828,0.030278731,0.028154414,0.17659274,-0.04777566,0.029678306,-0.055552013,-0.04820949,0.043875445,-0.015256729,0.026163885,0.04992045,-0.06911676,-0.056505162,-0.034790486,0.074957736,-0.03819731,0.12949331,-0.10028285,-0.05722385,-0.07627814,0.021330932,-0.05596067,-0.067520574,-0.04327421,-0.03702835,-0.057227775,0.03254143,-0.04924129,0.09252493,-0.024884986,0.025391988,-0.00042137483,-0.038611576,-0.024848364,-0.013304153,-0.05306145,0.035876513,0.028003752,-0.07274203,-0.011298933,0.105526805,0.006702559,-0.018025102,0.013757815,-0.030690737,0.020586623,0.049663786,-0.04472338,0.004788755,0.01920713,-0.009010525,0.029438814,0.03971726,-0.03960479,0.013799206,0.019292526,-0.01580443,0.011295131,0.10180956,0.002223007,0.073142014,-0.031253103,0.012211214,0.017488616,0.05381647,-0.052769143,-0.14157876,0.03847529,0.0035506475,0.047719553,-0.03210567,-0.03342531,0.018186783,-0.018947832,-0.041408107,0.088803805,0.034420364,-0.119077995,-0.09873236,-0.114543,0.042770155,0.13731548,0.0032586236,-0.021547137,-0.047464438,-0.017007178,-0.073739365,-0.07029078,-0.0776822,-0.107692175,0.0028232692,0.0536761,-0.0027665729,-0.015719717,-0.10134639,0.07932604,0.12923093,-0.008623706,0.005099694,-0.04413581,-0.036115784,0.0369993,-0.0020951799,0.14040916,0.030753482,0.09677209,-0.06287782,-0.026665827,0.05453089,-0.037948985,-0.013587439,-0.04368243,-0.037528794,-0.084987506,-0.0031720398,0.06667064,-0.034829758,-0.033974785,0.01589882,0.06973081,0.038125448,0.14937505,0.07588134,-0.071912885,-0.0049844286,0.05369173,-0.019062595,-0.043284837,0.080054894,-0.028288065,-0.09145045,-0.07594932,-0.024126897,-0.022438841,-0.11714849,0.006953399,-0.00027625056,0.013657964,0.021483833,-0.016497789,0.049156312,-0.05112787,0.0088827945,0.018335244,0.05284413,-0.079347536,-0.053940248,-0.09660653,-0.074734956,0.038348924,0.029341044,-0.0682999,0.021026444,0.060236227,0.060962167,0.0049208007,0.009548553,0.10030237,-0.010763482,0.035873137,-0.0005812301,0.034292586,0.0051431684,0.10786188,0.020652957,-0.03452176,0.049401544,-0.038641166,0.040328287,-0.020751825,0.06952592,-0.011900901,0.009346273,-0.02257536,0.012385973,0.007107098,0.13014267,-0.07058784,-0.053192213,0.0097101275,0.01657832,-0.035690613,0.039182913,0.0869903,-0.022560243,-0.042712953,0.05738618,0.0636801,-0.009233253,0.065382175,0.023073247,-0.06821165,0.0057368074,-0.0368722,-0.09781907,-0.053336557,-0.04056536,0.006565683,0.05329011,-0.015533816,-0.06977463,0.051231578,-0.03865065,-0.11866489,-0.01885427,0.0024474913,-0.030634996,0.11372291,0.045354955
B4,-0.0188194,-0.004011195,0.06534622,-0.02937631,0.032070816,0.018057045,-0.08784703,-0.07191057,-0.011236205,0.048903175,0.05044916,0.03584511,0.020482276,0.04237299,0.027983768,0.030159254,-0.018761687,0.11611846,-0.022493603,-0.014842932,0.021270568,-0.05294743,0.014302113,0.058952786,0.045405548,-0.05900795,-0.029294321,0.021811878,0.024505775,-0.0132494485,0.051155962,-0.12458247,-0.020729888,-0.070822984,-0.038991123,0.035045017,0.002794221,-0.01121412,0.027465278,0.06421296,0.020757506,0.020572895,-0.008137291,0.01717811,-0.029558893,0.054576088,-0.1218988,0.009167135,-0.039286755,0.007765265,-0.018444885,-0.043443486,0.012178704,0.07466815,-0.06680323,-0.0068296324,-0.026450714,0.13812585,0.078084305,-0.037485506,-0.012246262,0.02110695,0.012022773,-0.0017231917,0.008196997,-0.0031847116,0.046134006,-0.0012203545,0.009875013,0.053386517,-0.029348472,-0.056845605,0.035591736,0.08749265,0.032381985,-0.0076162587,-0.03505132,0.018346634,0.007175058,-0.059451498,-0.011521738,-0.051280018,-0.064268544,0.004288458,-0.052319627,0.0343957,-0.10211703,0.0024922248,0.048563465,-0.10097122,-0.004769559,0.030567722,-0.00644058,0.09861958,0.05680258,-0.005456241,-0.08547507,0.09758116,0.038708687,-0.026324306,0.009279225,-0.011800654,-0.0113320835,-0.05317018,0.011756977,-0.06277541,-0.044439662,0.055289224,0.02049059,0.060277406,0.067195706,0.025140684,0.029501172,0.08651952,0.057126246,0.011837799,0.028681595,-0.055879742,0.04172845,0.005509281,0.07191623,0.0026403482,-0.037007205,-0.007530976,0.047041357,0.09002851,0.041927192,-0.031633258,0.011310298,0.026138559,0.026085265,0.025184646,-0.036082253,0.008352285,-0.009292752,0.017187925,-0.036385432,-0.038447347,-0.04850889,-0.11395006,0.052135013,0.048637785,-0.011166599,-0.06722717,0.024198737,-0.0720708,-0.11413937,0.07045191,0.027839446,0.07332912,-0.023093592,-0.04360734,0.022309365,0.015734527,-0.007872504,0.036016468,-0.024333823,-0.0011196639,-0.057141192,-0.049978964,-0.01750879,-0.021650426,0.008761949,-0.007120669,0.02218177,0.00235351,-0.025823176,0.075656384,-0.0036683264,-0.054629117,0.03206233,-0.06096824,-0.036197577,0.045159467,-0.0065370593,-0.0462989,-0.002220436,-0.035363138,0.008339082,0.0043491414,-0.0061189197,-0.032382313,-0.026050111,-0.017587578,-0.022443904,-0.05408155,-0.01973777,0.03990744,-0.05261076,-0.0334206,-0.0011224714,0.01196623,-0.011929892,-0.0021895254,0.0071702152,-0.01885266,-0.03929767,-0.05334518,-0.0148220705,-0.039628956,-0.04052939,-0.024356792,-0.073508404,-0.039991036,-0.04322385,0.05119248,-0.02226537,-0.01194364,-0.005309251,0.060878523,-0.045037456,0.08690706,0.12685202,-0.0029506385,0.037355937,-0.017098375,-0.10671908,0.08534862,-0.011532475,0.049677495,-0.035338886,-0.07422147,0.08638475,0.01650203,-0.0049424525,-0.014282662,0.0016277689,0.020475678,-0.08014461,-0.010799939,0.045698162,0.00659302,-0.01357526,0.032134883,-0.029962651,-0.013333703,-0.08840483,-0.05584079,0.0054998733,0.033170573,0.057964783,0.09075214,-0.046056893,0.03167025,-0.028829258,-0.05663152,-0.034220763,-0.029626552,-0.07519444,-0.06565526,-0.015429188,-0.041763056,0.121383056,0.06760333,-0.091885746,0.043106988,0.017477635,0.035583615,0.040491197,0.089020416,-0.061755884,-0.008519152,0.0059889425,0.05455877,0.0148025,0.04105218,-0.07176147,0.108875684,-0.0250686,0.00804982,0.005271621,-0.034455623,0.055555724,0.048067108,0.059743244,0.037682287,0.006295232,-0.069107205,0.05286815,0.04315117,0.02389632,0.024271177,0.08868733,-0.005267066,-0.026051836,0.032719675,-0.036498465,0.028086126,0.06267045,0.07694384,-0.019087724,0.006399554,0.015203714,0.057822425,-0.022227965,0.007650527,-0.031628087,-0.013683043,0.026532428,-0.004342897,-0.032805372,0.05565629,0.0045591854,-0.05768659,-0.024240967,0.056777522,-0.046182066,0.06861804,-0.059683178,-0.05659128,-0.034923553,-0.018377066,-0.014795039,-0.059500463,0.02277954,-0.0704767,-0.024500601,0.04731785,-0.056443818,0.044330887,0.044805616,-0.0063402522,0.051552,0.035190083,-0.014524367,0.026308399,-0.062403888,0.0007361658,-0.0037211254,-0.031782284,-0.010871214,0.056995,-0.016103365,0.0067058317,0.038976546,-0.00956398,-0.064460084,0.012506871,0.011737606,-0.02189872,0.0492286,0.027947053,0.05840487,0.006156735,0.0066014957,-0.0046372823,0.006738309,-0.029460464,0.02676962,0.042979777,-0.026165081,0.029881526,-0.03969276,0.02102885,-0.008494145,-0.062023673,-0.057358894,-0.02929294,-0.024728036,0.0053507085,0.09162364,0.004450583,0.025490534,-0.016304333,0.00016391836,0.0041479003,0.08138562,0.014086094,-0.090195686,-0.03188914,-0.009518204,0.0073918095,0.10476309,-0.0034730844,0.010075797,0.016733317,-0.022607166,-0.05379279,-0.022382118,-0.04326544,0.0073078433,0.032834295,0.020196877,-0.041581098,-0.036603007,-0.0736962,0.07307438,0.100988604,0.019590396,0.023891129,-0.02362853,-0.0040041395,-0.0055370666,0.008361785,0.16461319,0.030559825,0.02448015,-0.051919017,-0.071074225,0.04997143,-0.025725938,-0.03922185,-0.0067793275,0.014779193,-0.012394348,0.0013476405,0.03320284,0.02639726,0.03222058,-0.07293615,0.025938485,0.031119958,0.081443794,0.058243584,-0.041423973,0.0028697592,0.037291076,0.054733694,-0.048160397,0.03987987,-0.083348125,-0.07773018,-0.0921763,0.04769841,-0.030890176,-0.04011161,0.027007647,-0.015213059,0.018691767,0.03000895,0.00077737495,0.06276724,-0.042241015,0.050910987,0.041559964,0.0384133,-0.05469508,-0.044529848,-0.07489627,-0.08602734,-0.006287379,0.014694605,-0.014929006,0.0243032,0.031590097,-0.03965391,0.017816542,-0.0069621536,0.046268158,0.042294994,0.10667782,0.014058079,-0.0042113997,-0.014659844,0.057947364,0.045050114,0.034172893,0.014467649,-0.006174272,0.028755903,0.02877813,0.017349865,0.0134471655,0.047304448,-0.024096558,-0.048192203,-0.031768806,0.12441389,-0.020490797,0.035751753,0.032072295,-0.0023509474,-0.031908028,0.025217565,0.039064612,-0.044023708,-0.025072118,-0.015580232,0.07051783,-0.023751946,0.04629121,0.029498411,-0.021952668,0.022048302,-0.027819823,-0.122287765,-0.00064936094,0.0040068068,-0.041654177,0.020823354,-0.023299586,-0.05033718,0.0327678,-0.03297762,-0.08746992,-0.04942359,-0.015040871,0.03570008,0.08774361,0.0031798966
B5,-0.0057854513,0.012259586,0.025272429,0.011510733,-0.010327598,0.0029317155,-0.073220186,-0.045350388,-0.07267088,0.06927188,-0.039878953,0.01984616,-0.06951313,0.005211862,-0.028727224,0.0037688164,0.018423008,0.06543369,-0.063440345,-0.006867172,0.03742942,0.010909786,0.038375404,0.020033197,0.007914436,-0.038607106,0.021861544,-0.0045036664,-0.042486824,0.0545509,0.062397525,-0.06868648,0.004114542,-0.04646187,-0.008362473,-0.011816918,-0.049380966,0.093961015,-0.0036862963,0.100478806,-0.043448567,-0.020575332,-0.025632763,0.05153881,-0.012344442,0.05036254,-0.11723554,0.042635918,0.0044137267,-0.05699039,0.03418397,-0.06479628,0.019066863,0.10062998,-0.05232797,-0.02927173,-0.01255603,0.04003724,0.050369985,-0.007496571,-0.0032847526,-0.028076991,-0.02625952,0.0120402705,0.022965452,-0.03348798,0.03933775,0.05841491,-0.04551755,-0.019612262,0.028362257,-0.027093414,0.019304633,0.052652296,0.0044409554,-0.03242247,-0.028347732,-0.014813812,0.029915966,-0.008529739,-0.0038362225,-0.048897818,0.029720353,-0.0046462663,0.048761968,0.06756223,-0.05443569,0.012779452,0.0031672434,-0.033617456,-0.036615916,0.0010630575,-0.02380898,0.005817313,0.032631837,-0.024961213,-0.018514114,0.016944839,0.046137236,-0.02631151,-0.040077467,0.063779995,-0.019460922,-0.046558544,-0.0026974175,-0.06942543,-0.06408695,0.014123439,0.023524811,0.017585924,0.05436654,0.1201046,0.027903626,0.074087575,0.03672748,0.026200349,-0.010680339,-0.024877043,0.054890785,-0.0008284302,0.079971775,0.00056265073,-0.030693933,-0.02238188,0.007885518,0.018197387,0.017412227,0.06381757,0.0087402435,0.061013915,0.016832534,-0.0072541595,-0.06987495,0.008024811,0.00455418,-0.020009143,-0.082426555,-0.05450573,-0.0719271,-0.08864489,0.04045343,0.061846,-0.041940432,-0.08637571,0.034247402,-0.12248878,-0.04164039,0.016278513,-0.0035630325,0.050015736,0.05938424,0.019432561,-0.105295606,-0.0197599,0.0076823244,-0.013825062,-0.026397292,-0.01325781,-0.032436557,-0.014780455,-0.019359248,-0.06590635,0.018615672,-0.048635688,-0.0020175986,-0.013996226,0.057310052,0.051928494,0.058022935,-0.067676954,-0.027194476,0.018014682,-0.02746268,0.0342464,0.0013536533,-0.056366842,0.0342168,-0.0150486315,0.0066825836,-0.027690636,-0.005879583,0.04861245,0.02280357,0.006606873,0.035419058,-0.035836723,-0.009581216,0.030044124,-0.043387476,-0.07179577,-0.013457692,0.031641982,0.027204668,-0.0418119,-0.012559227,0.010766334,-0.056701437,-0.018849583,0.0065911035,-0.053834505,-0.047848392,0.008974519,-0.06643547,0.011134222,-0.10536111,0.029326694,0.005388704,0.016827933,-0.0017419297,0.07487296,0.021463744,0.107320815,0.069507636,-0.02058009,0.059987344,0.020150373,-0.01788879,0.06575781,-0.0377371,-0.018219395,0.0216578,-0.07950248,0.015285635,-0.024570772,0.017934967,0.00010919813,-0.046377815,0.021139888,-0.081440106,-0.01660524,0.035593256,-0.013791341,-0.00984756,0.024299543,0.033489134,0.013820768,-0.02444819,-0.06167546,-0.022780476,0.00059929816,-0.0074658436,0.11751949,-0.040067095,0.057427,0.023951301,-0.06724187,0.029423805,-0.07764516,-0.022941666,-0.09111946,0.050392743,-0.033001278,0.071111836,0.026129792,-0.11476383,0.010025807,0.029079897,0.008025004,0.030361688,0.04946197,-0.05995851,-0.0076132948,0.09462151,0.03460476,0.018514615,0.024666257,-0.097505644,0.063486144,-0.043269638,0.020292988,0.03294556,-0.021768453,0.010131134,-0.0029045113,0.036208853,-0.018091882,-0.02017056,-0.0446453,0.07878228,0.035868715,0.020984448,-0.036870044,0.05298467,-0.015926307,-0.039028198,0.043595105,-0.023086958,-0.011733572,0.0600301,0.0031946714,0.010648733,0.016753903,0.019213248,0.1469081,-0.0025621606,0.05211092,-0.024064772,-0.033938657,0.04671601,-0.043400887,0.013352537,-0.025002657,-0.04425062,-0.009598284,0.034917977,0.058432207,-0.019844271,0.063003264,-0.02792824,-0.015496006,-0.02963538,-0.03951751,-0.0179605,-0.0005882721,-0.020231467,-0.04876955,-0.026111305,-0.0053706015,0.005063833,0.05572238,0.012015226,0.0044926223,-0.0032284071,-0.001190546,-0.0009703043,0.029797418,-0.07782689,0.0044193403,-0.006456327,-0.03293004,-0.0041408925,0.06610019,0.04579034,0.062213387,0.013941368,-0.024077008,-0.077649884,-0.002555743,-0.0378046,-0.0008754654,-0.04413242,0.03486077,0.047269374,0.047323495,-0.03631926,0.01273426,-0.0007696768,-0.039504007,0.03241905,0.043202396,0.004930331,0.030162675,-0.008407787,0.013713824,0.0074447915,0.046091028,-0.03972443,-0.038358215,-0.013009838,-0.0047835945,0.015550191,-0.049762823,0.006289547,0.031334728,-0.06839288,0.030557675,0.1056669,-0.002731816,-0.10307915,-0.04762652,-0.13581164,-0.005857784,0.00826049,0.038877256,0.031718522,-0.036082584,0.053100143,-0.022634514,-0.046340264,-0.01610485,-0.088560924,0.021633916,0.06985927,-0.05345228,0.007907286,-0.03918329,0.06398594,0.10386582,-0.04835256,0.030209994,-0.065465346,0.028010953,0.027810019,0.034510348,0.08342293,0.03255044,0.090387516,-0.06735446,-0.05395467,0.034993473,-0.010262408,0.02457947,0.026364397,-0.003951951,-0.06265786,-0.049024202,0.042496882,-0.017775135,-0.052508026,-0.0262072,0.031552352,0.04091405,0.0642046,0.05619198,0.0002127558,0.045782596,0.020274831,0.047911055,-0.04986571,0.059521314,-0.05770667,-0.07292611,-0.04380537,0.013720895,0.024270058,-0.09341763,0.05842414,-0.03677926,-0.025403569,-0.010532788,0.062019274,0.054645102,-0.05821408,-0.018615566,0.028884588,0.03833836,-0.051045556,-0.03489815,-0.037994724,-0.039540958,0.035961375,0.027876984,-0.050437957,-0.012522957,0.007093419,0.032312516,0.022127558,0.011002105,0.08888623,0.053091142,0.05911791,0.05416372,-0.0063616997,0.052164786,0.066656396,-0.025236284,0.042090133,0.04068808,-0.013237218,-0.012247045,-0.0461175,0.006038423,-0.0156084895,0.025289467,-0.06326493,0.05367394,0.009885407,0.093810834,-0.098537534,-0.009943771,-0.064535424,-0.026698653,0.024994696,0.05183017,0.08123012,-0.039088137,-0.07491967,0.011654362,0.024141809,0.0066427076,0.07468324,0.019261943,-0.023687074,-0.018996814,-0.007165713,-0.06216639,-0.038757972,-0.0036802648,0.00037429252,-0.0077420752,-0.030111967,-0.0672253,0.0257919,-0.005500069,-0.080416754,-0.07189683,-0.02254111,-0.019763695,0.048266686,0.047132876
B6,-0.021240141,-0.00060134614,0.003600116,-0.06549377,0.029933486,-0.03556241,-0.05881391,-0.012264881,-0.08443696,0.06082109,-0.06341954,2.0514242e-05,0.004006434,-0.0028983783,-0.056260362,-0.0107606305,0.02959012,0.07325934,0.024282113,-0.020360192,0.015857652,-0.016887339,-0.01648853,0.05268243,0.059578277,-0.01606544,-0.0017101159,-0.027244676,-0.056156136,-0.0019443565,0.061100446,-0.08187553,0.009060041,-0.008781808,-0.024443466,0.04994589,0.025813797,0.019053612,0.008895595,0.072120816,-0.043720327,0.010215491,-0.028312253,0.0081373025,-0.05938449,0.036441997,-0.08459428,-0.0013332521,0.041427188,0.012739496,0.012095958,-0.046229873,-0.030128656,0.056856934,-0.03660719,-0.017414844,-0.0065586492,0.05022826,0.0105481185,0.041498806,0.057058606,0.031860348,0.0028520408,0.0023166128,0.039609544,0.018895732,0.023830764,-0.049415566,-0.017856278,0.016583534,0.004661726,-0.029031329,-0.05679698,0.08928534,-0.011090706,-0.07222394,0.032969452,-0.019602235,-0.0095155705,-0.0589434,-0.0942962,-0.06428541,-0.042458687,-0.05000794,0.040529616,0.08642053,-0.02593821,0.061734498,-0.019470965,-0.094714366,-0.03892029,-0.002770109,0.01733831,0.04773,-0.02876513,0.020318331,-0.043204766,-0.032533176,-0.017346896,0.013581376,0.017746441,0.065426394,-0.0077298563,0.018921645,0.018758625,-0.048364714,-0.05943211,-0.0013644341,0.016563173,0.027612634,0.039052457,0.12139297,0.06408499,0.030150048,0.03962917,0.0124686835,-0.04040079,-0.0031305142,0.07585265,-0.015325237,0.057816852,0.049156666,-0.079062365,0.008016705,0.060037464,0.036392927,-0.003911268,-0.009069139,-0.02399975,-0.0050610527,-0.00711916,-0.038102258,-0.051760986,0.020135082,0.029153839,-0.015372426,-0.041514996,-0.03698755,-0.022968624,-0.035896093,0.019604336,0.026458336,0.009667896,-0.113503486,0.03523838,-0.01813832,-0.02660696,0.047673266,-0.00090823136,0.07720035,-0.051227234,0.017298939,-0.01765213,0.0045914897,0.028103556,-0.0026885404,-0.048141025,0.055259425,-0.03660295,-0.024834562,-0.018837385,-0.020539979,0.009090611,0.005359603,0.010597909,-0.02293051,-0.017637178,0.049833044,0.017377999,0.007570476,0.01974833,0.015503928,-0.007047436,0.0063534025,0.0016430605,0.019642126,0.052180722,0.02157209,-0.031433355,-0.036438614,-0.03173191,-0.041471906,0.0071045915,0.0072276853,-0.023362514,0.063202664,-0.005981032,0.03496376,0.0030893136,-0.035199057,-0.008660913,0.0019035966,-0.039039858,0.00040835794,-0.00036256202,0.014078358,-0.02464998,-0.07917393,-0.023457315,0.039559856,-0.06414144,-0.003382761,-0.028440129,0.0011418518,-0.094724074,0.019910539,0.032632366,0.021253448,0.021336203,0.06579987,-0.0091875885,0.038945988,0.091217026,0.04315523,0.08855153,0.041372646,-0.055091016,0.054579407,-0.04505733,0.011600573,0.03651179,-0.10359752,-0.02439851,-0.02070951,0.005881496,0.008060451,-0.01870868,0.086902946,-0.06769115,-0.027990997,0.073605776,0.023255717,0.043088913,0.014633113,-0.0040309895,0.01778463,-0.026190469,-0.06390849,0.03429811,0.0276801,-0.016658232,0.072740175,-0.07291101,-0.030976024,0.025739115,-0.03172329,0.04363643,-0.00936138,-0.020113658,-0.0348424,0.017768089,-0.0062853796,0.053436086,0.04025383,-0.00011701882,0.019854397,-0.0153737925,-0.056685347,0.02097485,0.025265984,0.016399167,-0.037054136,0.05545914,0.026793236,0.0037952957,0.030540258,-0.12682998,0.0508781,-0.04949694,0.0036753528,0.05604696,0.017574864,-0.05744052,0.023870293,0.041165233,0.035680182,-0.04972289,-0.026924925,0.043056052,0.03552998,-0.015192666,-0.012196689,0.028420977,-0.040966354,-0.03772851,-0.08808016,-0.061969556,0.035568267,0.034497827,-0.04827196,0.062317733,-0.06744592,0.0020126924,0.085566744,-0.04306274,0.05084569,-0.047006346,-0.009252075,-0.054310214,0.023808092,0.033385348,0.07490814,-0.023006935,-0.041900374,0.06440088,0.034843475,-0.019720446,0.05679184,-0.008010447,-0.016454391,-0.015528102,-0.01949789,0.0023264335,-0.04006821,0.02802677,-0.04267426,-0.06942728,-0.043259315,-0.030380014,0.009459227,0.025034502,-0.0453045,0.053198285,-0.024528153,-0.07837768,-0.05354216,-0.105023384,-0.008937549,-0.034456782,-0.015352373,-0.01522102,0.029965509,0.046114236,0.019687295,-0.012698986,-0.051186714,-0.0547586,-0.022269756,-0.018789439,0.0020993068,0.0025928665,-0.042732187,0.02549727,0.055780172,-0.05072601,0.010689937,-0.02147289,-0.03467727,-0.01073897,0.07959263,0.06785207,0.06499021,-0.039882462,-0.0068127094,0.022838218,-0.0024023708,0.0090721585,-0.042741656,0.015538279,-0.018647883,-0.024036258,0.004019838,-0.013452016,-0.037198644,0.0031273663,-0.015845893,0.059601806,0.04762311,-0.056533672,-0.027391471,0.10722539,0.018011352,0.071272776,0.004498251,-0.038104832,-0.13385464,0.03060576,-0.028985055,-0.02319584,-0.1059862,-0.028300844,0.025259085,0.1300464,-0.06588595,-0.07370603,-0.04643386,0.06578403,0.012477753,0.023902986,0.044058748,0.10928382,-0.031847455,-0.0042874636,0.014368081,0.08341557,0.015388492,0.055988975,-0.105751015,-0.02115215,0.114788204,-0.0077853277,0.013958651,0.020064816,-0.013936558,-0.031864196,-0.016630594,0.033587858,-0.033357546,-0.03324388,0.04252933,0.0109385215,0.071075,0.08703147,0.058636717,-0.054631427,-0.005057311,-0.016009413,0.036691204,-0.013411285,0.05492792,0.016171321,-0.10299553,-0.018728577,-0.01040996,-0.009734925,-0.0499768,-0.032782737,-0.03462396,0.0078249555,0.045516595,0.039645433,0.035259023,-0.03125193,-0.0026520686,-0.04438505,0.046711463,-0.049382657,-0.020766212,-0.09221253,-0.06163704,0.061432973,0.029896159,-0.043258667,0.02100925,0.05345396,0.022684991,0.03178212,0.017546793,0.044523206,-0.032993443,0.033592965,0.01556741,0.035504,-0.049327455,0.09022467,0.016298868,0.025740873,-0.014509723,0.011395201,-0.030122688,-0.018069,0.009164926,0.055562627,0.056850225,-0.014484711,0.030991774,0.0055558905,0.09408587,-0.06890145,-0.041142955,-0.01019863,-0.043444242,-0.084579095,0.053681664,0.049758263,-0.03030769,-0.0076668616,0.027896905,0.034158237,-0.020647867,-0.035080303,0.054351818,0.010637997,-0.02551823,-0.06364896,-0.06563544,0.03572067,0.013137026,-0.0024463776,0.031446468,0.01106395,0.0007118215,0.04380946,0.002555537,-0.092919186,-0.073538736,-0.029899772,-0.086861655,0.012349919,-0.01327642
