question-id,0,1,2,3,4,5,6,7,8,9,10,11,12,13,14,15,16,17,18,19,20,21,22,23,24,25,26,27,28,29,30,31,32,33,34,35,36,37,38,39,40,41,42,43,44,45,46,47,48,49,50,51,52,53,54,55,56,57,58,59,60,61,62,63,64,65,66,67,68,69,70,71,72,73,74,75,76,77,78,79,80,81,82,83,84,85,86,87,88,89,90,91,92,93,94,95,96,97,98,99,100,101,102,103,104,105,106,107,108,109,110,111,112,113,114,115,116,117,118,119,120,121,122,123,124,125,126,127,128,129,130,131,132,133,134,135,136,137,138,139,140,141,142,143,144,145,146,147,148,149,150,151,152,153,154,155,156,157,158,159,160,161,162,163,164,165,166,167,168,169,170,171,172,173,174,175,176,177,178,179,180,181,182,183,184,185,186,187,188,189,190,191,192,193,194,195,196,197,198,199,200,201,202,203,204,205,206,207,208,209,210,211,212,213,214,215,216,217,218,219,220,221,222,223,224,225,226,227,228,229,230,231,232,233,234,235,236,237,238,239,240,241,242,243,244,245,246,247,248,249,250,251,252,253,254,255,256,257,258,259,260,261,262,263,264,265,266,267,268,269,270,271,272,273,274,275,276,277,278,279,280,281,282,283,284,285,286,287,288,289,290,291,292,293,294,295,296,297,298,299,300,301,302,303,304,305,306,307,308,309,310,311,312,313,314,315,316,317,318,319,320,321,322,323,324,325,326,327,328,329,330,331,332,333,334,335,336,337,338,339,340,341,342,343,344,345,346,347,348,349,350,351,352,353,354,355,356,357,358,359,360,361,362,363,364,365,366,367,368,369,370,371,372,373,374,375,376,377,378,379,380,381,382,383,384,385,386,387,388,389,390,391,392,393,394,395,396,397,398,399,400,401,402,403,404,405,406,407,408,409,410,411,412,413,414,415,416,417,418,419,420,421,422,423,424,425,426,427,428,429,430,431,432,433,434,435,436,437,438,439,440,441,442,443,444,445,446,447,448,449,450,451,452,453,454,455,456,457,458,459,460,461,462,463,464,465,466,467,468,469,470,471,472,473,474,475,476,477,478,479,480,481,482,483,484,485,486,487,488,489,490,491,492,493,494,495,496,497,498,499
q1,-0.032768354,-0.047934696,0.017432014,-0.027381541,0.041977264,0.013020895,-0.059958823,-0.08735855,-0.027468955,0.101256415,-0.023593964,0.05025204,0.05445357,0.021720557,-0.009995819,0.022169294,-0.02048335,0.06954994,0.005621007,-0.042892274,0.10860459,-0.023695614,0.0025473863,0.09092425,0.042465843,-0.047312487,-0.04079104,0.010192887,-0.046062626,-0.0029439942,0.08142589,-0.043160833,0.04776943,-0.11022824,-0.04481737,0.057581246,-0.012595348,0.03594635,0.02363416,0.069588035,-0.031730317,-0.045168336,-0.03265066,0.049134225,-0.016666936,0.008071689,-0.10811569,-0.06916867,0.064602844,0.012532231,-0.03500205,0.05908729,-0.016731229,0.07722204,-0.038947184,0.01762286,-0.08207438,0.15020706,0.027923059,-0.055241678,0.0002620452,-0.0230939,0.0033229138,0.05132357,-0.013535159,0.011207768,-0.0003220504,0.07841751,0.03985807,0.010357428,-0.0019822905,-0.055798873,-0.04213,-0.054915026,0.08374388,0.003911206,-0.022567652,-0.06525266,0.019227093,-0.00868184,-0.025361123,-0.09577601,-0.06870531,0.020380467,0.027056398,0.08481892,-0.02758917,-0.034423802,-0.014587807,-0.082318164,-0.028836904,-0.035573434,-0.034423813,0.075409494,0.07014728,-0.021567682,-0.13135676,0.006532218,-0.009869671,0.04105791,0.02934458,0.048662413,0.024811594,-0.023460146,-0.024322238,-0.005427796,-0.048221577,0.0408869,0.0095160045,0.018014658,0.057149485,0.20107757,0.041752182,0.10206187,0.022533786,-0.0339249,0.026510336,-0.08786433,0.018093066,-0.0030555003,0.043772627,-0.012789766,-0.09402131,-0.023434028,-0.007502843,0.02217823,-0.0010806745,0.07142348,-0.04601214,0.046520047,-0.0015507069,-0.01974679,-0.116746165,0.023042891,-0.0866566,0.06366017,-0.036186595,-0.0694053,-0.007122642,-0.13116993,0.024016364,0.098354295,-0.013322069,-0.0630105,0.054774057,-0.06535959,-0.07601119,0.12705925,-0.0006004056,0.11855046,-0.02118154,-0.06988534,0.032926675,-0.027594516,0.031549152,-0.004040218,-0.0418304,-0.030969022,-0.026199741,0.042265777,0.04889401,-0.00012283005,-0.0051313913,0.013806492,0.030812465,0.019469641,0.02189768,0.06894246,0.017116176,-0.0321197,0.0015199021,-0.028505906,-0.016613727,0.045255695,-0.005528885,-0.09521298,0.0029030999,0.0015721162,0.033285856,0.020543166,0.053860147,-0.036383323,0.012898077,-0.025052413,0.018697217,-0.015002517,-0.027717337,0.06031666,-0.008312543,-0.05790377,0.018741235,-0.036661662,-0.04190632,0.026309771,-0.01582219,0.028278602,-0.017709017,-0.0744491,-0.067071445,-0.050620016,-0.001021676,-0.07738852,-0.079565234,-0.006223334,-0.08866358,0.056327067,-0.007217622,-0.01815235,0.0458855,0.09238513,-0.020929016,0.10026776,0.1652741,-0.085293084,0.04890189,0.013925712,-0.06154798,0.061120998,0.07213171,-0.04811752,0.040500503,-0.027610239,0.03639002,-0.031109529,0.057699572,-0.022766307,0.0034802963,0.003691216,-0.075483724,-0.03447249,0.09801228,0.006551405,-0.06495971,-0.009042744,-0.0068776747,0.0364909,-0.062749475,-0.15951097,-0.0025119663,0.07121975,0.098802365,0.110011764,-0.013585812,0.062313095,-0.026197894,-0.0563488,0.021812623,0.012948739,-0.044418264,-0.03233601,-0.0165251,-0.07825033,0.034256533,0.05399113,-0.03219951,0.0682922,0.020341998,0.0036383816,0.005452443,0.009537076,0.008818737,-0.03663711,0.05265443,0.07359423,-0.03183251,0.0847902,-0.06988999,0.14442337,0.044166062,-0.040061153,-0.04626494,-0.009949203,0.012875157,0.03170945,0.09519608,0.07162952,0.007957426,-0.049242396,0.070614114,0.09936639,0.041931164,0.0259743,0.0428465,-0.0019886873,-0.08700474,0.0650884,0.0074750525,-0.026880188,-0.026592342,0.0056767585,-0.043083735,0.040622387,0.028312245,0.08767926,0.04119726,0.06992538,-0.09326715,0.007271309,-1.0976861e-05,0.02943965,-0.028988624,-0.03427691,-0.08930737,0.05091933,-0.0021007895,0.00771899,-0.026968876,0.12799704,-0.07824218,-0.0076106815,-0.098297745,0.060658485,0.008232408,0.016334347,0.020743689,-0.08094892,-0.018070217,0.009467354,-0.036474995,0.119947165,-0.034852546,0.013310777,0.005888287,-0.085792124,-0.07162848,0.05115456,-0.09124973,-0.008502699,0.021633726,0.0046006544,-0.0006480642,0.0058175675,0.009581913,-0.026971549,0.026584985,-0.011168789,0.016123535,0.07051417,-0.044339176,-0.042424727,0.036173508,0.026771285,0.027014947,0.013854931,0.006486368,-0.022936389,0.007382198,0.019716922,-0.042341784,0.071661755,0.022558566,0.052800853,-0.008520094,0.051960576,0.08935553,-0.028833233,0.006548429,-0.019213261,0.025847116,0.06779871,0.03647453,0.0018587013,0.018607328,-0.0024182063,-0.017057162,0.03562173,0.09125781,0.035118204,-0.045371152,-0.08983125,-0.12257468,0.011250831,0.11689116,-0.044270612,0.10597244,0.11364694,0.023888025,-0.031568326,0.0011499799,-0.07816156,-0.16390733,0.08828203,0.074232854,0.0029251245,-0.063526906,-0.007264407,0.11692556,0.118200734,-0.07255857,0.05112169,0.014454787,0.018187199,-0.05102524,0.072237484,0.11514085,0.021369098,0.0429109,-0.045904856,-0.1324437,0.10036404,0.0042629135,0.061334353,-0.060721118,0.04566696,0.024135772,-0.07860289,0.019586483,-0.075899914,-0.069355786,-0.012382248,0.035953816,0.07492784,0.10826582,0.06999926,-0.0463809,-0.10649705,0.10098235,0.0125094205,-0.07786441,0.0007471929,-0.055434354,-0.042819344,-0.05349833,-0.02398886,-0.04236349,-0.12772536,0.023079138,0.05214739,0.048794538,0.012421796,-0.04183017,0.024511822,-0.015639154,0.043551445,-0.041444648,0.10180093,-0.0006462466,-0.02665872,-0.16872722,-0.014030918,0.01964634,0.006482687,-0.04904451,0.02904798,0.016413476,0.09378951,0.021800686,-0.014182435,0.09206211,0.04207138,0.06284972,-0.010543694,-0.017121408,-0.0033627253,0.07057222,0.018177312,0.031358406,0.008596006,-0.030303525,0.06408309,0.025728518,-0.019789105,-0.016780684,0.012159803,0.070594,-0.015153304,0.02948202,0.14107743,-0.06293466,-0.003818328,-0.037966132,-0.03694699,-0.030440977,0.008282876,0.058432892,-0.022724228,-0.031138701,0.03843614,0.10751422,0.00971507,-0.0023845849,0.08531334,0.034568258,-0.08336357,-0.014368256,-0.055545058,-0.040963333,-0.05969027,0.023090873,0.05504522,-0.04893615,-0.070472896,0.044445526,-0.1496618,-0.018786216,0.012850678,0.03671868,-0.016158352,0.16487834,0.088168405
q2,-0.039732434,-0.009547886,0.059280667,-0.047723595,-0.02039369,-0.010946013,-0.04624121,-0.023344826,-0.038138296,0.032352466,-0.04638175,0.010039344,-0.016090684,-0.028777063,0.0038142558,-0.039921425,0.0039498685,0.10840704,-0.011167994,-0.039385486,0.08565707,-0.038243495,0.055173084,0.054766484,0.04561163,-0.021533389,0.0459857,-0.01995003,-0.0648888,0.0032339673,0.13104191,-0.06147663,-0.011760324,-0.12106283,-0.013526058,-0.015291337,0.005724121,0.036870506,-0.004944906,0.08102146,-0.10237299,0.009371091,-0.06716705,0.0034286836,0.017356671,0.01059211,-0.13780613,-0.039760098,0.0043510552,-0.011294537,-0.0019617504,0.011423728,-0.009421472,0.06492703,-0.01294036,0.035607614,0.056790132,0.0014835317,0.040527225,0.06548614,0.015328518,-0.035459224,-0.019526513,0.029221842,-0.0035665138,-0.02942015,-0.046596963,0.027913988,-0.04358011,0.022154724,-0.02900877,0.00078311004,-0.011437263,0.02262947,0.066807926,-0.0978736,0.026598483,-0.03429428,0.056098476,-0.035617717,-0.10518779,-0.082537144,0.012127385,-0.052777976,0.06892347,0.11106057,-0.04256153,0.0022897944,-0.04029444,-0.0340582,0.03362805,-0.028282475,0.036843516,-0.05849686,0.061697032,-0.0080229305,-0.008310929,0.0037118495,-0.090378344,0.018125148,-0.044323683,0.13302362,-0.050274868,-0.026522543,-0.02297406,-0.07802422,-0.12679473,0.018886978,0.050849587,0.031276926,0.016021695,0.13920453,-0.017790768,0.052073687,0.04410542,0.018893523,0.01847582,-0.04573214,0.035110794,-0.008550761,0.10863541,0.0028337836,-0.08192415,0.011053724,0.035034053,0.08799611,0.032706812,0.05972887,-0.01996326,0.027143523,-0.03713999,-0.03710182,-0.044690616,0.01430648,0.021609763,-0.0026479918,-0.059075758,-0.1147078,-0.049554862,-0.04218792,0.019788433,0.16191591,0.0059240446,-0.10884327,0.009119031,-0.10677691,-0.021972958,0.09103721,-0.025123041,0.065786876,0.016358208,-0.0150938565,-0.1541118,-0.03753447,0.053747144,0.00012441946,-0.07262031,0.011987702,-0.031161672,0.027628515,-0.05431022,-0.0611092,-0.02778647,0.0057492256,-0.0858903,-0.07525924,0.0031771008,0.041810337,0.0837038,-0.016812477,0.013723915,-0.0040045013,-0.012560831,0.06420937,-0.042700574,-0.09598178,0.05594065,0.008461041,-0.010482044,-0.03568151,-0.026240828,0.0031738058,0.018616766,0.08305826,0.0034555364,-0.03828112,-0.036458388,0.013584861,0.03074781,-0.1068501,0.027271375,-0.027497496,-0.013478374,-0.0029906754,-0.009039635,0.041414723,-0.06575356,-0.023512648,-0.09012053,-0.029695798,-0.053338453,0.017125297,-0.13061419,-0.022814345,-0.04335712,0.04932431,0.019017199,0.004662049,-0.014410501,0.03015716,0.029590786,0.07278228,0.11502556,0.0026937183,-0.0022414515,-0.00924929,0.010195949,-0.008622996,0.021365913,-0.021431861,-0.017072236,-0.03332899,-0.0049002497,-0.028380636,-0.019593745,-0.017498465,0.016104855,0.075837225,-0.03905831,-0.0020433366,0.17263488,0.035298754,-0.00013812259,-0.03169445,0.004707964,0.01713685,0.011425353,-0.10938225,-0.033434547,-0.022615116,-0.039615743,0.043101855,-0.00979759,0.07164621,0.02635813,0.0021737788,0.05796566,-0.03871911,-0.013790799,-0.06031732,0.048547342,-0.050427873,0.025828,0.05692126,-0.015367031,0.011816619,-0.0010792373,-0.02775215,0.014918968,0.0030481885,-0.003544161,-0.036099933,0.022119835,0.0076846667,0.03220629,0.059110686,-0.14498748,0.05554691,-0.0013536587,0.0011869837,0.003021303,-0.032071285,-0.045699537,0.04067401,0.08144208,0.001561801,0.031938568,-0.059001323,0.072639585,0.04987919,0.009290505,-0.004415754,0.004105499,-0.09162294,-0.13014019,-0.018367082,-0.03339221,-0.004361991,0.0093091745,-0.061121516,-0.04355289,0.06586949,-0.027832555,0.11677717,0.01314978,0.029597765,-0.062884204,-0.08039699,-0.010942806,-0.010363173,0.038417265,0.03267401,-0.011912109,-0.02093792,0.045365006,0.0020036437,-0.10361244,0.06447138,0.023194298,-0.02694754,-0.021928128,-0.0059751365,-0.08859527,0.09339516,-0.0020991967,-0.016029429,-0.039480302,-0.04900001,0.023950918,0.06487971,0.024339281,0.03111447,0.04740831,-0.040568408,-0.079098105,0.06369034,-0.10682976,-0.035102516,-0.0193843,-0.054397747,0.018635478,0.00827661,0.039045416,0.09025258,0.02275274,-0.059032045,-0.071127534,-0.01392327,-0.00665208,-0.078653164,-0.05395566,0.037097983,0.008991726,0.02707274,0.016198343,0.068069845,-0.007971566,0.04973938,0.00619987,0.056752525,0.02674463,0.06882329,0.017570501,-0.05333717,0.060930748,-0.046115052,0.032653242,-0.027419463,0.048478477,0.018616555,0.057153616,-0.012389578,0.0071848636,0.048715144,0.011004692,-0.0069220066,0.076960854,-0.023314655,-0.077669576,-0.08890657,-0.058289,0.02995185,0.052810967,0.058274686,0.049150683,-0.046756145,0.06527501,-0.0056158565,-0.043584853,-0.09792158,-0.10247858,0.046886068,0.080977954,-0.01869466,0.0025487337,-0.063668214,0.10221985,0.12481385,-0.08671227,0.057711538,0.04765167,0.058603555,0.0079411995,0.11682621,0.050984956,-0.009476382,0.068167366,-0.09794708,-0.06304567,0.09815511,-0.02122041,0.05777111,0.0072306674,0.005025072,-0.03783119,-0.11129851,0.0013560373,-0.04570452,-0.019840129,-0.048587173,0.012741106,0.08760312,0.07599,0.0062691886,-0.022023248,-0.06667248,-0.016028559,0.010092312,-0.004240459,0.009501765,-0.027944203,-0.07835031,-0.07383649,0.0021456922,0.018005542,-0.06809633,0.05513213,-0.009135589,-0.008094036,0.04792069,0.033657108,0.08598192,-0.032576114,-0.0659017,-0.020183457,0.05031712,-0.037409816,-0.05384463,-0.036324617,-0.04639726,0.007520415,0.058391143,-0.042201366,0.014014085,0.063838355,0.036154,0.07313697,-0.031244507,0.06230097,0.064283505,0.042241834,0.052503083,0.01928794,0.011496697,0.11801162,0.067144096,0.015544215,0.013276041,0.024992315,-0.040511608,-0.06562686,-0.06453352,-0.059081484,-0.0114365015,0.0046665054,0.0141231995,0.004140727,0.12376764,-0.08506546,-0.009359287,-0.07163842,-0.023517566,0.05784288,0.046594083,0.06931754,0.001946127,-0.0691416,0.017291404,0.025919259,0.021613589,0.07866302,0.0727963,0.026638616,-0.078658536,-0.025505293,-0.05191429,-0.045752294,-0.05176927,-2.0652544e-05,-0.011184029,-0.0076900665,-0.005250348,0.004178267,-0.02460675,-0.015146494,-0.07103758,-0.038230464,-0.024522278,0.042038564,0.026659861
q3,-0.071919926,-5.4283377e-05,0.096995555,-0.107794575,0.011558621,-0.02959899,-0.12773864,-0.11434782,-0.057460893,0.14919549,-0.101018436,0.095790416,0.06631429,-0.034232784,0.013668746,0.031205619,-0.08319459,0.18502212,0.08193411,-0.008684997,0.05560933,-0.0701903,0.07711429,0.04155678,0.09841425,-0.051529605,0.055452242,0.00041870153,-0.07877234,-0.049362924,0.2219792,-0.14051415,-0.009445532,-0.15811671,-0.106099285,0.02665469,0.0680694,0.047341812,0.027925486,0.1399646,-0.07775498,-0.04677825,-0.09561789,0.047779407,-0.009875877,0.08121971,-0.15345927,-0.0814826,0.09118741,0.012008634,0.007480363,0.06184985,-0.007718487,0.17143047,-0.019607374,-0.019122431,-0.06875687,0.06395226,0.0020535935,0.014391894,-0.026456282,-0.050173838,-0.035298843,0.030993743,0.0030071486,-0.05651327,-0.062139675,0.06510097,-0.0063364953,0.040387258,0.0048395707,-0.07568316,-0.06746789,-0.03522611,0.11974595,-0.12679473,-0.032450274,-0.031722564,0.08338922,-0.01794906,-0.086724065,-0.19337882,0.03603432,-0.016973823,0.10140192,0.07773457,-0.045836385,-0.045580134,0.008438299,-0.11102689,-0.0013753747,0.019312412,0.019241087,0.011538747,0.08244983,-0.051025897,-0.09218366,-0.0004453802,-0.00294354,0.06103511,0.0103279045,0.14699818,0.004053945,0.023192242,-0.01842231,-0.13025855,-0.11977091,0.0015590029,0.06051972,0.06304184,0.05200382,0.21888691,-0.002186857,0.12808926,0.024265187,-0.055884242,0.013528213,-0.030353755,0.06628141,0.009848651,0.04596222,-0.027515406,-0.11794847,0.02746804,-0.037779402,0.10579866,0.017612563,0.1164678,-0.05123295,0.0343304,-0.026522866,-0.03715299,-0.12969953,0.03570578,-0.0905704,0.0024779465,-0.12852055,-0.16122039,-0.06555837,-0.04174156,0.043594424,0.16931748,-0.031666655,-0.16728492,-0.042410046,-0.1791804,0.008810665,0.25402194,0.005166163,0.16240923,0.05188862,-0.025195016,-0.100404166,-0.05490614,0.047404736,-0.0019234009,-0.13086979,-0.024185792,-0.0051489193,0.03133909,-0.011347492,-0.050780226,-0.02330721,-0.009415252,0.036462996,-0.029230176,-0.07570047,0.108486526,0.049416464,-0.060894594,0.071481735,0.035647865,-0.0033751514,0.12690876,-0.049281906,-0.1157924,-0.030258758,0.034381736,-0.024138348,0.016321396,0.028883265,0.016334293,-0.008658053,0.097621,0.0035678297,-0.061876234,-0.027540796,0.03382742,-0.0019182871,-0.17412423,0.0035022164,0.0457097,-0.054292064,-0.03163745,0.0031247127,0.10215766,-0.102457225,-0.10922288,-0.16689497,-0.15421009,-0.08744359,-0.06442143,-0.17450689,-0.017688395,-0.08038665,0.12295743,-0.029726302,0.022357889,0.039822776,0.1325399,0.006854225,0.0912497,0.16992436,-0.03679646,0.05837251,0.020076925,-0.07348152,0.026106715,0.027767101,-0.08408464,0.007880638,-0.048430886,0.026179492,-0.01675888,0.027035637,-0.015288691,0.012081393,0.054187212,0.018285792,-0.076604925,0.21879573,0.059960682,-0.015218727,0.049631525,0.03586373,0.0851382,-0.06403365,-0.1180047,0.0017895624,-0.0499057,-0.08265775,0.080100305,-0.049697325,0.03200667,0.02115246,-0.042442832,0.07135248,0.044834346,0.018835733,-0.05275111,-0.0045531807,-0.054148376,0.10602022,0.018840937,-0.14039959,0.06860826,0.0077015837,0.017868172,-0.030772408,-0.02173896,-0.029447503,-0.026862808,-0.0026187822,0.094092615,0.05616599,0.14075609,-0.16354717,0.1506518,-0.019008476,-0.11026528,-0.037644107,-0.076033086,-0.012213208,0.030173652,0.02382346,0.003077712,0.13484812,-0.11941334,0.073257856,0.07942305,0.042719737,0.060183063,0.059562504,-0.013728258,-0.16673149,0.033306558,-0.030691579,0.06142849,-0.0008882138,-0.036252305,-0.024822643,0.091286145,0.01276992,0.21325076,0.0683302,0.104276784,-0.12581047,-0.013106477,0.024389068,-0.018011453,0.06466382,-0.020015525,-0.11890805,-0.044390973,0.05822746,-0.0009846153,-0.05120328,0.107999705,-0.04105597,0.007538916,-0.032263815,0.05393413,-0.026411898,0.04682113,-0.032668423,-0.045196068,-0.046423066,-0.014298607,-0.023992449,0.14655535,-0.05273499,0.036224835,-0.008622528,-0.06773758,-0.0131906755,0.04104812,-0.07410938,0.07098506,-0.012775117,-0.015526167,-0.0025553715,0.054991633,-0.0025652254,0.05616674,0.046900433,-0.0230474,0.09026509,0.0055640414,-0.03383586,-0.008587395,0.0014177505,0.0459196,0.0051833466,0.0153839765,0.05586806,-0.0046231262,-0.012976016,0.063262396,-0.009919305,0.09416481,-0.028750524,0.06768102,-0.024128338,-0.00656297,0.13271405,0.028152838,0.016673781,-0.07945018,0.14663742,-0.0077795293,0.045996364,-0.032344524,-0.046912808,0.07467475,0.0030189056,-0.062481165,0.10715685,0.06994538,-0.19051044,-0.2113834,-0.25377318,0.04007675,0.11592606,0.04369938,0.050045177,-0.044771075,0.045214366,-0.11343011,-0.047909945,-0.15107636,-0.25234804,0.053862866,0.089367546,-0.033834644,-0.0256098,-0.07003129,0.08038048,0.22818147,-0.1593802,0.06673196,0.048880387,0.0045325845,-0.020063126,0.10423536,0.12796435,-0.026789555,0.1483463,-0.1323775,-0.10626197,0.060946938,-0.016577905,-0.0030486956,-0.06279818,0.012645003,-0.035890277,-0.09125402,0.02845593,-0.09176464,-0.08764995,-0.013104349,0.039764542,0.114761025,0.13542128,0.014559654,-0.02642616,-0.057488028,0.13258664,0.035945594,-0.108635314,0.05295636,-0.032764435,-0.058433797,-0.008812339,-0.051967755,-0.008122795,-0.15689553,-0.021940008,-0.0022838358,0.048586812,0.08056768,-0.016961511,0.045556072,-0.10232365,-0.03661907,-0.087748416,0.13998108,-0.0031330194,-0.06707256,-0.11763329,-0.109249555,-0.006656639,0.028171293,-0.046383765,0.055266887,0.013245172,0.14614235,0.032942615,-0.05159818,0.14787935,0.060030293,0.06274211,0.021247223,0.016193757,-0.06470351,0.1647763,0.0921647,-0.0043840264,0.006074257,-0.005625429,0.035329998,-0.12867722,0.015913067,0.011069338,-0.03146702,0.025771873,0.025637144,0.034948476,0.14191452,-0.09867484,-0.013551577,-0.06287945,-0.024737453,0.06860075,0.122003965,0.17413898,-0.018040063,-0.05084831,0.017194474,0.08065642,0.03385489,0.06762978,0.062110167,0.008589947,-0.081425555,-0.06538946,-0.08561201,-0.04480234,-0.11590424,0.018100554,0.004405152,-0.030957973,-0.06556533,0.02476841,-0.07169318,-0.036383465,-0.024106426,0.021981662,-0.009102141,0.15286578,0.07511464
q4,-0.05648112,-0.047820672,0.07697493,-0.06319965,0.053825952,0.03915596,-0.1522279,-0.09890746,0.018599275,0.09169275,-0.026141006,0.069094494,0.048162192,-0.019673215,0.037175406,0.055410556,-0.10256083,0.118210785,-0.023057146,-0.047630813,0.031695176,-0.0606201,0.014511517,0.083470404,0.037974752,-0.0819235,-0.012809505,-0.0054496294,-0.025858257,-0.00030995937,0.11423188,-0.045681402,-0.036710814,-0.11764947,-0.06591508,0.04504554,0.027719907,0.034926947,-0.0025016763,0.11037221,-0.025816437,-0.0054907994,-0.004685593,0.025317842,-0.034471232,0.027043069,-0.13793682,0.005586091,0.00458899,-0.072247684,-0.016211502,0.027971474,-0.021601625,0.06712749,0.03338102,-0.04071298,-0.10246092,0.14402127,0.029577682,-0.07607451,0.021041377,0.0063141617,0.014205158,0.01320876,-0.0021611708,0.010449828,0.040216524,0.051111892,0.078906566,0.02639149,0.025162447,-0.08130355,0.0077519943,0.06536831,0.014450115,-0.04958992,0.0058149016,-0.03453925,0.03056533,-0.020942485,-0.050640974,-0.091359936,-0.09891223,0.020926304,0.03508123,0.044155058,-0.11570762,-0.04553331,-0.00044772972,-0.06673246,0.0014628917,-0.0004876983,-0.03966823,-0.011260456,0.06823906,-0.019487163,-0.14235517,0.026523763,-0.018541016,0.0009600844,0.01624223,0.06784687,-0.037591845,-0.025610792,-0.017313516,-0.07489027,-0.057253744,0.053323902,-0.021973811,0.029014934,0.08836332,0.14745432,0.037489705,0.09500954,0.008547826,-0.024715932,0.02610874,-0.036992006,0.09851128,-0.026175765,0.03128413,-0.03356697,-0.122258,-0.01942876,0.037334744,0.09972934,-0.0052391747,0.07711915,-0.0018685649,0.094784185,0.022672778,-0.050822485,-0.09973632,0.015883025,-0.024557164,0.035254832,-0.055657666,-0.13703647,-0.028049963,-0.09552947,0.058076937,0.103248425,-0.04034857,-0.12984507,-0.003986886,-0.09958755,-0.052182693,0.17666316,0.056820426,0.11848342,-0.016273757,-0.029333247,-0.10068001,0.013040737,-0.041506775,0.021307418,-0.03358181,-0.010085541,-0.07024113,0.019682374,0.0018331545,-0.008982651,0.026583863,0.024211964,0.007451337,0.016432548,0.008540335,0.10883428,0.04381701,-0.09895643,0.01471985,-0.016782258,-0.017326022,0.009720046,-0.04921362,-0.04585422,0.010033751,0.016494837,0.031774033,0.05052861,-0.007814041,-0.048721485,0.0014061602,-0.021643521,0.025117459,-0.036144387,-0.066021584,0.058873203,-0.07692431,-0.050697125,0.058660597,0.024112847,0.024483856,-0.023018649,-0.017933927,0.0069995825,-0.052440304,-0.07851287,-0.07887877,-0.11688835,-0.038477466,-0.05606964,-0.10779143,-0.009328148,-0.103129596,0.12804028,-0.0042771026,0.0033197042,-0.019470742,0.08132252,-0.005829657,0.12625897,0.105475426,-0.048140388,0.03502244,0.055215392,-0.073219545,0.037427768,-0.012220502,-0.027013559,-0.0038113059,-0.06917926,0.041527078,-0.0061774403,0.02504741,-0.027379075,-0.0033782795,-0.0009926247,-0.09783182,-0.016249435,0.070553616,0.020204036,0.04302524,-0.018380433,0.032303397,0.05146236,-0.067258894,-0.12018684,-0.0025706054,0.08191726,0.052670065,0.06771323,-0.037608184,0.072150655,0.009040998,-0.06474306,0.09190837,-0.046158865,-0.036515497,-0.07029091,-0.017210456,0.009667642,0.12277057,0.10448257,-0.08761369,0.036047213,0.066216,-0.0051153195,-0.040173896,0.06607632,0.024639186,-0.06075733,0.046120357,0.07221992,0.051594887,0.06135787,-0.07709286,0.125932,-0.008822217,-0.065525584,-0.022661347,-0.059669483,0.024533244,0.041064933,0.066143624,0.12951073,0.067371465,-0.11242952,0.14234272,0.06846405,0.00915226,-0.00804439,0.023152051,0.011507132,-0.10290293,0.09382157,-0.005340716,0.014536594,-0.028004095,0.068719566,-0.03767653,0.027569702,-0.016321314,0.1390794,-0.0052278577,0.054837525,-0.07600763,-0.05412518,0.03148178,-0.0073738173,0.028937764,-0.026372166,-0.060750898,-0.013512286,-0.01333491,0.05699093,-0.09098449,0.14186119,-0.090747565,-0.0685577,-0.07473983,0.015491721,-0.040805455,-0.066710606,-0.037984252,-0.04732298,0.0030019812,0.0075393165,-0.073448524,0.14366016,-0.08172463,0.04067638,0.03759962,-0.030682104,-0.03790248,0.059872176,-0.057510708,0.035316072,-0.028778378,0.020205004,-0.0080981385,0.05801728,0.05915256,-0.023667218,0.010579929,-0.06853039,0.03244056,0.0540212,0.007892244,-0.034316044,0.015618493,0.07679187,0.000973579,0.0512115,-0.0107209915,0.005803456,0.009542664,-0.0026013914,-0.026047735,0.057183538,-0.017871369,0.11150538,0.014296262,-0.00079651317,0.04406593,0.07339649,-0.015103099,-0.05828518,0.040297247,0.011795178,0.052288443,-0.0012203354,-0.0050583687,-0.029440084,-0.026493438,-0.019561557,0.09239287,0.051888406,-0.05447654,-0.084730856,-0.14212091,0.038793366,0.19144307,0.029018901,0.021224612,0.041389156,-0.024625795,-0.013208642,-0.10393066,-0.11558055,-0.13597493,0.08214098,0.025736528,-0.021611355,-0.10547057,-0.04425767,0.05405515,0.17504962,-0.07966114,0.07735336,-0.034621134,-0.011299559,0.037321728,0.0046795756,0.12330536,0.06847168,0.11040081,-0.037669916,-0.124404624,0.040794265,-0.040789437,-0.018252483,-0.040429894,-0.028141646,-0.024174547,-0.050375827,0.059306204,-0.014856569,-0.057283454,-0.002894744,-0.04930279,0.07027598,0.1271217,0.040233083,-0.08292188,-0.05453953,0.0634845,0.019185208,-0.067068845,0.07175025,-0.056018647,-0.10294617,-0.07458225,-0.06076512,0.03958474,-0.10641837,0.08256327,0.016211651,0.032936238,0.062165327,0.034082502,0.045693908,-0.045360316,0.049057413,0.041918665,0.10124473,-0.07680239,-0.035815496,-0.08644502,-0.09652584,-0.0031750011,0.033701677,-0.04890592,0.053113453,0.0019337,0.07321367,0.008312598,0.033220097,0.07801035,0.05979219,0.14469625,-0.012596567,0.01738688,0.07938548,0.124704994,-0.03296662,-0.018701516,0.017256116,0.025508832,0.02100643,-9.275624e-05,0.03364879,-0.06442693,0.014199645,0.011900034,-0.035341177,0.0025677532,0.10751732,-0.077959634,-0.020549733,0.013983032,0.0009730567,0.024876593,0.057273857,0.12813449,-0.008155129,-0.018487513,0.009503922,0.06461195,0.0074895085,0.027177202,0.06868563,0.007532003,-0.035091694,0.020604568,-0.08828009,0.0011814393,-0.068404615,-0.03580958,0.054178473,-0.0040042014,-0.10017765,0.06436325,-0.078777365,-0.0880836,-0.012926565,0.032429967,-0.004831982,0.0750861,0.112031855
q5,0.025636554,-0.016049625,0.053956136,-0.117843,0.049092256,-0.078966305,-0.031213384,-0.007909052,-0.10814313,0.104806736,-0.058794085,-0.0035381492,-0.081735216,0.02008539,-0.0548158,-0.0033929646,-0.0015633998,0.07336792,0.0022600978,-0.037352912,0.0068404884,0.03570408,-0.009643581,0.02032416,0.10973019,-0.0024731117,-0.050615586,-0.026091145,-0.010340039,-0.00849918,0.025415163,-0.12971193,0.022530243,-0.110219136,-0.020128818,-0.035350524,0.008819085,0.08081369,0.14473344,0.052654535,-0.07698834,0.0391695,-0.03597536,0.00659749,0.0005236203,0.030718606,-0.14158523,0.0073181167,0.07377683,0.035561316,0.0077578975,-0.049333636,0.08453348,0.115012154,-0.07225127,-0.08150431,-0.009861695,0.09905136,0.040563796,0.04775431,0.018467467,-0.002768577,-0.08772667,-0.03132771,-0.0037666564,-0.008730043,0.012882467,0.037223473,-0.007788103,0.02431449,-0.007343346,0.030772252,0.030583963,0.09398213,0.04574521,-0.063546516,-0.0506213,0.037926264,0.06429524,-0.055565774,-0.07722793,-0.12830721,0.008586485,0.008528229,0.05632158,0.08389839,-0.056095377,0.07083417,0.06785834,-0.074263394,0.043723553,0.05117108,0.031594258,0.06387342,0.03935473,-0.04288743,-0.024983902,0.04893095,0.06634882,-0.025575195,-0.04145346,0.0776616,-0.0018251028,-0.08049782,0.044499706,-0.03944865,-0.07840194,0.023345431,0.04013813,0.0049006063,0.064750165,0.12285987,0.015330436,0.049766734,0.04012819,0.055724584,0.029545302,-0.07185193,0.06109352,0.0040156725,0.061581075,0.0024831481,-0.080348805,0.034378882,-0.0056777056,0.036314264,-0.0046136063,-0.032206587,-0.021955097,-0.0029301508,-0.00019040424,0.032992058,-0.047394037,0.02938441,-0.02617069,0.0074454034,-0.04859133,-0.1572616,-0.15090317,0.030159483,0.05130364,0.04011912,-0.045072824,-0.11494689,0.019350134,-0.11970757,-0.02530219,0.008954495,-0.008159151,0.10945146,-0.010845961,0.01863636,-0.05283255,-0.0692629,0.00018307823,-0.05700374,-0.0644213,0.009919168,0.006337507,0.015154721,-0.020592734,-0.066335715,0.042090848,-0.007640602,0.03918414,-0.02667762,-0.011583443,0.050959185,-0.014006903,0.001685637,-0.076166585,-0.012750825,0.007852181,0.0883452,0.03606408,-0.09553358,-0.02604841,-0.029140538,-0.056917768,-0.05907485,0.0017841862,-0.01708265,0.009187525,0.032187663,0.0057730433,-0.010683796,0.0051711416,0.030426057,-0.012653271,-0.027390102,-0.012041608,0.015585249,-0.036572907,-4.7451816e-05,0.030648377,0.04290937,-0.05324568,-0.041995972,-0.023604326,-0.08851397,-0.017573364,0.05008942,-0.108155996,0.019835744,-0.021178883,0.06161613,-0.03706778,0.040514678,0.030352766,0.05036398,0.013732918,0.084232934,0.1116558,-0.007222444,0.07869232,0.022400312,-0.042999376,0.046062537,-0.043141343,-0.04102905,-0.090546824,-0.02886151,0.0027660406,-0.005473855,-0.05966601,-0.033493523,0.0024575042,0.023231182,-0.069359496,-0.04575236,0.07487312,0.041949462,0.004196661,-0.018713819,-0.02373007,0.039655976,-0.030058794,-0.11639008,0.0034802891,-0.048291944,-0.038881384,0.09174059,0.008196387,-0.022013346,0.04932879,-0.036045946,0.0606165,-0.00034374,0.022699533,-0.11841203,-0.037734114,-0.074220866,0.119535886,-0.010888452,-0.06013003,0.052110888,-0.0016399114,-0.039984725,0.034050286,0.05457339,-0.09373181,-0.03815858,0.113789424,-0.015225619,0.040944606,0.058208946,-0.09472538,0.0064397734,-0.002945425,-0.039849617,-0.0060106963,-0.032241873,0.02997604,0.0032596122,0.06407334,0.009803865,-0.0005049333,-0.0113185225,0.10307148,0.051731177,0.046465546,-0.0073403865,0.061128475,0.013367177,-0.00760361,0.01668475,-0.093171716,0.0723002,0.074659795,-0.059763532,0.017170744,0.02794584,0.026888859,0.13059539,0.007536444,0.011298305,0.0045261555,0.013907118,-0.053651668,0.020221988,0.021637946,0.05359914,-0.03212525,-0.071154855,0.045503058,0.0016327333,0.0049807765,0.032311868,-0.0066195,-0.0006696731,0.0585913,0.0037832223,-0.008179568,0.11489894,0.023843907,-0.027918894,-0.051986374,-0.0504978,0.0039637852,0.069768645,0.042912498,0.009355763,-0.02374911,-0.06983775,-0.010123165,-0.016828299,-0.11196652,0.012897044,-0.028898045,-0.040274184,0.08119557,-0.012372326,0.020338055,0.039809562,0.02727241,-0.08695487,-0.074457094,0.008404433,-0.09247571,0.062112585,0.009190108,0.080808476,-0.010540234,0.04408295,0.04381703,0.06436112,0.011353316,0.048374426,-0.02039461,-0.015240429,-0.018158501,0.04012897,-0.02258721,-0.050999377,0.025464969,0.048450574,-0.036933452,-0.037545603,-0.021630706,0.06028331,0.021559378,-0.0055641048,-0.015362779,0.030170662,-0.049097106,0.002530517,0.06977369,-0.021815663,-0.10836273,-0.058118522,-0.016721793,-0.0019070697,0.032088023,0.001752655,0.0043145884,-0.070200086,0.01626439,-0.046208106,-0.052594528,-0.07967001,-0.13277772,0.011693601,0.074779816,-0.03409306,0.019806108,-0.07908436,0.09642754,0.15839669,-0.06442374,0.008849958,0.054041397,-0.042240314,0.045878537,0.00263011,0.08219264,-0.0129826795,0.052254293,-0.11526454,-0.03331906,0.068471655,-0.061278235,0.026530163,0.02546085,0.0037546798,-0.069935046,-0.0436555,0.050011396,-0.07753054,-0.068371,0.021492435,0.045152433,0.08588229,0.10006231,0.009572433,0.019136865,0.031039873,0.022157386,-0.004189073,-0.023708465,0.082676835,0.011921805,-0.09510307,-0.06422144,0.012735318,0.016174234,-0.10067165,0.0017403718,0.0092878705,0.018392637,0.01567674,0.06067005,0.07694793,-0.14558704,-0.010596284,0.06406038,0.074456826,-0.0049909577,-0.06301355,-0.058483373,-0.04967591,0.05160332,0.0076622893,-0.0143383695,0.07426316,0.043708626,-0.0025057942,0.0007292116,0.018701322,0.08300536,-0.004433066,0.02368946,0.013711328,0.058127694,-0.047946155,0.07634261,0.06295062,0.03357537,-0.036129657,0.051181074,0.029049272,-0.087352395,-0.0011836458,0.056580648,0.013182714,-0.002093298,0.032274585,-0.01108318,0.064100504,-0.093846194,-0.03157455,-0.048862137,-0.050846785,-0.12171528,0.103976,0.02820104,-0.07472998,-0.08071557,0.0069935196,-0.028609645,-0.0017691255,0.082196355,-0.009475612,-0.017633777,-0.005178435,-0.047511242,-0.09447612,-0.06743046,-0.0029380815,0.0031449965,-0.013399032,-0.03713142,-0.04087264,0.057375904,-0.022802878,-0.087379485,0.013154436,-0.056527235,-0.005922538,0.040395528,0.066805765
q6,-0.11764032,0.024569158,0.10361335,-0.026923824,-0.002507994,0.016402336,-0.18866289,-0.14056043,-0.028410932,0.09605771,0.0029345981,0.0941102,0.08079357,-0.028993582,0.026215576,0.0703615,-0.090602115,0.18942592,0.021982681,-0.029830385,0.04868332,-0.014708153,0.058658738,0.03554098,0.04124048,-0.09866332,0.015407372,0.008656701,-0.123995885,0.019813549,0.1695265,-0.027329559,0.021593772,-0.17290407,-0.08387652,0.0611781,0.008621253,0.05790292,-0.010758659,0.20962794,0.003309822,-0.061645176,-0.06535367,0.07410201,-0.04638266,0.09202244,-0.1714814,-0.059457157,0.06105384,0.06961275,-0.044386968,0.038440637,0.0058163754,0.14436117,0.018001776,-0.09516703,-0.069824085,0.11395723,0.010648401,-0.012205726,0.030177373,0.008042305,-0.04099406,0.004825278,0.045712855,-0.0076051624,-0.021168236,0.05143966,-0.01744272,-0.000687965,0.041370843,-0.07678106,-0.06284968,-0.056261707,0.090694025,-0.09412737,-0.03625646,-0.054360908,0.11624963,-0.005076385,0.037483186,-0.082438886,-0.031993687,-0.04499175,0.06749919,0.08716335,-0.096013546,-0.09882074,0.037604343,-0.1460984,-0.050483357,-0.03647063,-0.06732036,-0.020776313,0.038076524,-0.009158016,-0.10335131,-0.05744228,0.060208537,0.016635424,0.02159997,0.08650586,-0.053149655,-0.040231287,-0.06471692,-0.11302919,-0.064448886,0.06027954,0.024141356,0.06222673,0.056370705,0.26012912,0.09472241,0.11370013,0.045549158,-0.0663651,0.0059066694,-0.05515324,0.030111548,-0.01893715,0.030921606,-0.12177426,-0.10434066,0.018656434,0.050141644,0.11056466,-0.021948112,0.071083464,-0.024842242,0.10683552,-0.01474135,-0.07117207,-0.19987576,0.013047922,-0.07184102,-0.006204752,-0.1169341,-0.103682615,-0.14222461,-0.18012507,0.055020902,0.1563142,-0.045877554,-0.24003752,-0.03057835,-0.15497918,0.007009241,0.22249438,0.05406225,0.14291106,0.068878934,-0.007303992,-0.15351593,-0.031521577,-0.008759289,0.0041013677,-0.13639407,-0.015498272,-0.10380542,0.020093797,0.012824185,-0.040252432,0.007940872,-0.09705577,0.026628165,-0.04785464,-0.02618766,0.11992833,0.07760785,-0.11321151,0.10874466,0.07264185,0.002290731,0.071046755,-0.09750937,-0.08870387,0.064553834,0.05898395,-0.025484964,0.0036426687,0.038646847,-0.012038645,0.05295053,0.039977994,0.064955495,-0.013012714,-0.09510608,0.087762155,-0.11040841,-0.11110445,0.017454317,0.086351216,0.0069706305,-0.05771129,-0.0324866,0.021472057,-0.084629394,-0.08109774,-0.05012327,-0.08251349,-0.041748136,-0.06449734,-0.14033434,0.04845542,-0.1114673,0.122825615,0.018058658,0.034545664,0.008694212,0.09473575,0.04981289,0.06096379,0.1460302,-0.089445636,0.14843103,0.048650663,-0.052124668,0.049190346,0.009167801,0.022089599,0.0075559537,-0.037837118,-0.0012774329,-0.022714179,-0.021675466,-0.033831056,-0.060838025,0.07672387,0.008558378,-0.07063957,0.09216966,0.0876125,-0.035052735,0.05008746,0.057387188,0.07998184,-0.11971144,-0.12050116,0.009731135,-0.014679575,0.017964829,0.11797556,-0.006227111,0.072192684,0.016007155,-0.07685006,0.10878816,0.010221144,0.005966888,-0.114877015,0.016254324,-0.055085033,0.13740407,0.09006549,-0.14882039,0.04398298,0.0052378536,0.015562792,0.025663821,0.050500683,-0.056568664,-0.076025695,0.07495875,0.060317934,0.075396486,0.16962136,-0.17300403,0.19155447,-0.015144559,-0.07999857,0.00807692,-0.08020831,0.06554733,0.017276391,0.056266,0.1166867,0.16116476,-0.08000489,0.098649465,0.0830639,0.01532074,0.015477899,0.10410379,-0.028803581,-0.1680815,0.08544708,0.0015456269,0.03632708,0.027997928,0.035658687,-0.01954885,0.053526748,0.038050726,0.21273571,0.0053624106,0.084982455,-0.14167972,-0.027024254,-0.00083358533,0.0018499143,0.024716148,-0.019516125,-0.08825429,-0.06606359,5.3243148e-05,0.10247629,-0.036089774,0.12726483,-0.082224056,-0.061373927,-0.10186457,0.048824877,0.029314702,-0.10936557,-0.06111462,-0.058579583,-0.05212308,0.026609339,-0.043759793,0.16550346,-0.057145435,0.086201645,0.053216457,-0.041448586,-0.03580749,0.036206618,-0.034338895,0.09728424,0.055692546,-0.022711249,-0.07001006,0.079772845,-0.012385208,0.0054228213,0.009384378,0.0005194171,0.021916684,0.002367767,-0.03636715,-0.03308908,0.006878408,0.0076118805,0.026925292,0.083218485,-0.012735076,-0.014598475,-0.008404489,-0.043632623,-0.01367581,0.07400408,0.009862812,0.10487696,-0.03573454,0.0684087,0.10044846,0.021814402,-0.02739033,-0.13704377,0.10549048,-0.024486411,0.08894938,-0.01889559,-0.031683862,0.008300403,-0.011203216,-0.004535862,0.1281598,0.041874994,-0.13042073,-0.17760427,-0.23848799,-0.035642873,0.21608458,0.06117064,0.022169594,-0.055564772,0.014156856,-0.06655517,-0.09707624,-0.112018436,-0.21157905,0.051569737,0.11324747,-0.059413508,-0.013788238,-0.07336795,0.105391964,0.18657607,-0.116994224,0.05503241,0.047388826,-0.07989187,0.031658504,0.04695543,0.2104928,0.012643582,0.1348155,-0.1024385,-0.18179716,-0.00035287562,-0.04021377,0.028289523,-0.05059551,-0.030229732,-0.09652028,-0.041256987,0.02068732,-0.089894526,-0.072123684,0.07749259,0.013945717,0.12993222,0.0866848,0.0665689,-0.07583906,-0.019846806,0.049812946,0.05184198,-0.120948486,0.1330164,-0.04328912,-0.054873083,-0.038496546,-0.053246662,0.035865538,-0.1445354,0.071445584,-0.0005581787,0.048075594,0.03179122,-0.02472123,0.01684526,-0.07130431,-0.030543683,-0.03226309,0.114755936,-0.05121615,-0.038998608,-0.09461342,-0.08521917,0.014880637,0.07125576,-0.09515372,0.07711098,0.05294921,0.25600624,-0.0060546687,-0.021736061,0.09616737,-0.0027125839,0.09381807,0.06641404,0.018865783,0.09196469,0.16848099,0.06121801,0.016593397,-0.008066419,-0.078781955,0.028540693,-0.05041802,0.020724863,-0.07733184,0.013890517,0.062125593,0.025740366,0.057325736,0.16429771,-0.100403026,-0.020506578,-0.04400857,-0.04915681,0.08129042,0.09266014,0.18283501,0.0065887966,0.04036796,0.014912023,0.15967403,-0.018008826,0.08485529,0.10763171,-0.032813497,-0.029329374,-0.02205388,-0.13416474,0.010891262,-0.07822939,-0.0059446213,0.05004376,-0.03503035,-0.14501029,0.0122443065,-0.042970624,-0.09441846,0.009976664,0.0005583448,0.016939929,0.18237239,0.08623239
q7,0.023416257,0.023803335,0.060662393,-0.033080664,0.031037308,-0.0017632097,-0.063300006,-0.014000634,-0.045602478,0.06893786,-0.070638806,0.06268769,0.019188255,-0.027595397,-0.09084588,0.03174807,-0.03115222,0.08027735,-0.000109980814,0.025050694,0.01314689,-0.024306195,-0.030633247,0.072641,0.04921875,-0.021649435,0.035002656,-0.0049603423,-0.087739356,-0.01251741,0.015794018,-0.0667774,-0.012924113,-0.031321056,-0.04104205,0.02558481,0.0063117165,0.011241777,0.023877475,0.1296848,-0.087667465,-0.065468565,0.001535547,0.036049157,-0.017781721,-0.021569962,-0.07741772,-0.025357395,0.034458697,0.010758692,0.031158486,-0.061333198,-0.043280676,0.071047366,-0.022854522,-0.034752123,-0.043491006,0.10055528,0.0016778484,0.04296495,0.10166534,-0.011114087,-0.07265176,0.016267236,-0.030777607,0.005667709,0.014386797,-0.047475517,-0.06839679,-0.008778062,-0.0020078332,-0.05247606,-0.06637712,0.018089663,-0.006628299,-0.03360676,0.059970655,-0.019880695,-0.056181386,-0.052146394,-0.08719219,-0.07481593,-0.061170857,-0.030250093,0.025310159,0.05556606,-0.006359203,-0.0028332248,-0.043418244,-0.119588904,-0.017495258,-0.05396521,-0.048009053,0.06356387,-0.024473961,0.019317545,-0.09579208,-0.048948057,-0.031499296,0.033960536,-0.009857142,0.061747212,-0.021539852,0.040868796,0.010236975,-0.0068101957,-0.06041001,0.020193554,0.020966763,0.008480399,0.06878958,0.1331261,0.05825013,0.095242396,0.020072093,-0.0008367952,-0.013061021,0.010642568,0.07311977,0.0007190467,0.036417335,0.032114547,-0.11605074,0.016460836,0.0809101,0.018064283,-0.039913267,0.029611021,-0.076532744,0.0046435706,0.05619943,-0.04072541,-0.08244937,0.03906402,0.04943694,-0.010875637,-0.09655669,0.0165081,-0.040611964,-0.13098896,0.016019348,0.05553813,-0.00028294418,-0.12049175,0.043071188,-0.028256077,-0.012304816,0.087005794,0.034546204,0.085360155,0.003600629,0.028600572,-0.041442405,0.0009976448,0.012413961,0.006157574,-0.083984576,0.020447452,0.015205567,0.006093764,0.04109748,0.0065945266,0.020085383,-0.015532675,0.04145459,-0.0136449635,0.007788699,0.01897293,0.00350238,-0.020294312,0.01683763,-0.00397985,-0.013607053,0.013267413,-0.011514638,0.051362943,0.06654062,0.029545955,-0.005664127,-0.07265696,-0.00060909055,0.002047724,0.0096143205,0.0365184,-0.011970723,0.058094464,-0.018643918,0.025442898,-0.0026446423,-0.05647151,-0.0024051368,-0.04614555,-0.022094838,-0.027154667,-0.01101535,-0.045379333,-0.067287974,-0.07583509,-0.04672885,-0.042988636,-0.028659519,-0.0502777,-0.069424346,-0.0108266715,-0.05756267,0.045051422,-0.011471288,0.029929299,-0.00017893082,0.114123575,-0.019714791,0.053007267,0.052705135,0.039748106,0.1304744,0.045169532,-0.06721655,0.054898966,0.041342285,-0.032673646,0.06108063,-0.094730064,-0.008487789,-0.031454295,-0.018930998,-0.009168564,-0.06048194,0.07440694,-0.055492744,-0.03859919,0.0523418,-0.018871991,0.057678074,0.027939333,0.03136421,0.07994427,-0.11908879,-0.0610778,-0.006890146,0.050287973,-0.02161631,0.10988604,-0.05802598,0.021139663,0.022310931,-0.020796545,0.024748774,0.01769953,-0.06702398,-0.017722696,-0.009555284,-0.0352403,0.100387305,0.06666158,-0.012157148,0.03999346,0.004179662,-0.0302011,-0.006010334,0.07062145,0.03455448,-0.014541504,0.08006351,0.032622,0.025090853,0.05572641,-0.13490146,0.014559275,-0.026169455,-0.0068752766,0.06897197,0.03415053,-0.053889584,0.011733601,0.019581169,0.04787241,0.030062664,-0.049759366,0.061444648,0.03364696,0.021451933,-0.036065564,0.05861239,0.031061681,-0.09559767,-0.09028058,-0.021038834,0.07967838,0.047172725,-0.06555094,0.05308239,-0.04005163,0.016018566,0.096406564,-0.03124545,0.06514787,-0.047558226,-0.006131828,-0.036894232,-0.0089836735,0.015952736,0.015089417,-0.058143727,-0.02140291,0.054948106,0.08023168,0.009343706,0.09242394,-0.07301581,0.019189732,-0.05913253,-0.022116795,-0.028642092,-0.0526732,-0.05043773,-0.044144277,-0.08723,0.006576503,-0.084771566,0.059756026,-0.02037352,-0.002322775,-0.024142122,-0.0794262,-0.027720105,0.01896688,-0.04874876,0.027474154,-0.0146650765,-0.033319175,-0.028183773,-0.0023567807,0.11323652,0.019788085,0.013150466,-0.037624694,-0.03498224,-0.030256875,-0.08357103,0.017539188,0.03312151,-0.016058281,0.06845873,0.06414364,-0.023401577,0.009143639,0.021393977,-0.038121536,0.01285108,0.044623084,0.06928652,0.04001669,-0.061634205,0.03521089,0.016548958,0.044063214,-0.016493829,-0.091991864,0.013329656,0.0020558923,-0.03841985,0.0064985706,0.003552176,-0.004555788,-0.051653843,0.0073727006,0.054197516,0.014143477,-0.08961208,-0.074611634,-0.05865335,-0.01682935,0.06805807,0.054206975,-0.056656428,-0.104925826,0.026646212,-0.036664538,-0.04055857,-0.0515676,-0.06087468,-0.02236383,0.106560856,-0.05023072,-0.10185533,-0.060075015,0.040926695,0.023265328,0.03746376,0.10082505,0.037062284,-0.07075135,-0.0039715935,0.056785487,0.09816779,-0.023659714,0.06621732,-0.08999376,-0.07371149,0.062098134,-0.028359164,0.025016489,0.016836064,-0.04029524,-0.074898124,-0.028790541,0.04952786,-0.02763508,-0.027811881,0.047357984,0.0012153722,0.05206333,0.13749558,-0.022562642,-0.06035862,0.03172028,0.030517757,0.04468998,-0.030455066,0.041226804,-0.043794446,-0.070498705,-0.022684919,-0.06251143,-0.058431167,-0.043279633,0.0032988898,-0.017284371,0.056726232,0.0683527,0.0638205,0.035009705,-0.011815213,0.0064131534,0.014042016,0.0509678,-0.060376186,0.008416076,-0.12556753,-0.05085786,0.02318765,-0.023379337,-0.020589534,0.061284885,0.04968325,0.060474698,0.06320066,0.029235505,0.108920045,-0.0030488782,0.009776307,0.007110428,0.04616967,-0.008719366,0.008474798,0.0037330852,0.04312107,-0.01919724,0.021551287,-0.007976359,0.015659155,0.03345849,0.0549934,0.012868063,-0.026874244,0.02990127,0.004039401,0.06782684,-0.07671159,-0.06633091,0.014355519,-0.008860012,-0.0072011203,0.049493626,0.08861776,-0.0054738484,-0.096977964,0.06567618,0.06948542,0.012158893,-0.02268742,0.02799805,0.0016952688,-0.029486055,-0.025307272,-0.10027902,-0.054678448,-0.011591421,0.043599658,0.0318083,0.055536065,-0.040117927,0.06665264,0.034612834,-0.10385443,-0.06091264,-0.024598273,-0.06652249,5.722139e-05,0.026469288
q8,-0.010875405,0.027253361,0.11160348,-0.101387575,0.063992485,0.03102674,-0.086285606,-0.033779483,-0.060666677,0.11863308,-0.10870125,0.0452179,-0.12564187,-0.04175902,0.00044310905,-0.00437879,-0.0081632715,0.0745173,0.034043055,0.01725844,0.07185783,-0.013570357,0.0739741,0.032454036,0.07439096,-0.045475587,0.05446997,0.005845179,-0.015271261,0.0039027205,0.18393582,-0.12662746,-0.018238615,-0.17694269,0.0045479825,-0.037978966,0.009697894,0.09692793,0.06405407,0.12992962,-0.08132405,-0.032186072,-0.03357195,0.058373466,0.049460344,0.103185676,-0.20631927,0.032454867,0.030058207,-0.065576226,0.043794684,-0.037363302,0.016598914,0.19024347,-0.047079757,-0.004824358,0.010799833,0.06991302,0.0207729,0.010360188,-0.05149075,-0.10697636,-0.07018855,0.051114403,0.011878049,-0.10368642,-0.045732763,0.0732348,0.01959444,0.030579105,0.026499294,0.022565765,-0.0040819794,0.0010373726,0.046079393,-0.12443349,-0.040428136,-0.020025596,0.04606924,-0.084713444,-0.120473,-0.090128355,0.03234102,-0.024429768,0.12571035,0.10141194,-0.11759984,-0.0012712622,-0.012405563,-0.05117158,-0.027660208,0.08782865,0.055485494,-0.03159605,0.054979596,-0.088935286,-0.06910572,0.04692096,0.0042929263,-0.03301211,-0.059591014,0.063980244,-0.01736544,0.0018078537,-0.034893908,-0.10757014,-0.09917503,-0.012106007,0.08817237,0.008916833,0.029183764,0.19863018,0.07686106,0.06379412,0.09300595,-0.04835861,-0.009265905,0.0021239172,0.085831404,0.058759328,0.08719273,-4.574822e-05,-0.041614935,0.013501905,0.012482922,0.018359663,0.03839197,0.10791001,0.055434473,0.095611855,-0.018015813,-0.012448144,-0.09257956,-0.006910269,-0.011169588,-0.01858842,-0.100579835,-0.13515417,-0.114669114,-0.020271769,0.04442702,0.19467807,-0.029492032,-0.16140944,-0.007916224,-0.16219543,0.022780146,0.15715024,-0.039670017,0.10494926,0.03564133,0.062046543,-0.114271425,-0.0956702,0.02993504,0.006749564,-0.13376097,0.019225884,0.033537507,-0.049112644,-0.039647587,-0.09284353,-0.035464782,0.0003839536,-0.0009633828,-0.062761255,-0.028382923,-0.0073105474,0.09003411,0.011397487,0.04543339,0.013684238,-0.038577512,0.10827411,-0.0637407,-0.12702672,0.041200083,0.008930817,0.008431103,-0.050364256,0.056054153,0.08031175,0.032771416,0.10747236,0.009528902,-0.0999414,0.033050805,0.081454575,-0.04278562,-0.12396598,-0.038593236,0.039762907,-0.027847623,-0.08939436,0.04123763,0.047846597,-0.15480606,-0.04840507,-0.08837449,-0.20020801,-0.0371581,0.049776778,-0.12912817,-0.019380147,-0.015645096,0.14873458,-0.041903455,0.02230636,0.03104217,0.07360256,0.00198186,0.07693373,0.15439707,0.017110713,0.1275544,0.062229387,-0.053842496,0.044367887,-0.035797045,-0.09016531,-0.01609425,-0.08741851,0.068980455,-0.046919804,-0.019467015,-0.024139106,-0.03178183,0.045073044,-0.10377751,-0.08218155,0.18117,-0.012112881,0.08344947,0.0134817315,-0.00999641,0.10177705,-0.027534429,-0.09228657,0.018755343,-0.16103332,-0.0853372,0.099372715,-0.012496934,0.007014022,0.0615373,-0.0845319,0.031642374,-0.008322049,-0.017619405,-0.065502316,0.044504285,-0.070571736,0.048026063,-0.080102496,-0.11265454,0.13279504,7.313435e-05,0.03829283,0.035443734,-0.041916925,-0.13539548,-0.07168594,0.053195737,0.0580989,0.08317849,0.023228133,-0.1440444,0.09852348,-0.0833893,0.0057983994,0.051658973,-0.054051705,0.077943586,0.04703971,0.06286283,-0.03351442,0.075484835,-0.040651392,0.107048854,0.095178746,3.9887305e-05,0.05357976,0.07622317,-0.034587536,-0.14021833,-0.065260306,-0.039816547,0.037585266,0.07810845,-0.041884,-0.01080892,0.0666357,0.03337452,0.2606364,-0.014350582,0.046497088,-0.089404665,-0.02936617,0.011682203,-0.06352932,0.028250623,0.08087203,-0.06612989,-0.06815358,0.06551665,0.049095828,-0.06548485,0.018460479,0.0073584244,-0.055569172,0.0054918528,-0.019327033,0.022644434,0.14941078,-0.0014911866,-0.016264316,-0.11527259,-0.040565833,0.04217837,0.059480462,0.014051507,-0.018375827,-0.015555542,0.0019382857,-0.035419427,0.029143529,-0.12424514,-0.030171797,-0.0580495,-0.06855057,0.030919127,0.06219105,0.025412558,0.09721554,0.037409086,-0.06327183,-0.067810886,-0.021087835,-0.03031109,-0.03603822,-0.09650381,0.058208056,-0.006794186,0.08602978,0.009615128,0.02090913,-0.014656132,0.027844042,-0.009998498,0.08309692,-0.025057143,0.00048506263,0.052836873,-0.068775356,0.048932303,0.035244156,0.0073904325,-0.029731108,0.19510038,0.015920445,0.033914723,-0.10078532,-0.036000863,0.1573004,-0.029679216,-0.05224623,0.097666085,0.023236357,-0.23582532,-0.0895976,-0.18069386,0.06734367,0.025097912,0.07850848,0.04343879,-0.040661085,0.052554138,-0.08710157,-0.059066374,-0.05708253,-0.21100837,-0.008271977,0.02555723,-0.003440838,0.065055326,-0.08213423,0.0130332,0.1595402,-0.11417193,0.0023544277,-0.030895827,0.024912095,0.017877642,0.084178895,0.13452986,0.020663947,0.16633381,-0.15749994,-0.027365504,0.034899585,-0.02898458,-0.020158986,0.05197183,-0.01592297,-0.11164276,-0.11179536,0.030667208,-0.030982424,-0.054796096,-0.056480102,0.093787186,0.06209443,0.13427578,0.043551404,-0.0155268265,0.0004094952,0.07098076,-0.010155836,-0.02614706,0.047454454,0.027425682,-0.118906744,-0.057852395,-0.03219947,-0.008324993,-0.18533051,0.018260613,-0.025471931,-0.008777648,-0.006525785,0.029618397,0.110754944,-0.08741392,-0.036591325,-0.032548927,0.06932093,-0.043963782,-0.08913516,-0.048783667,-0.10454853,0.01892774,0.08214133,-0.08557038,0.03362078,0.05425194,0.049075913,0.098453656,-0.09043972,0.07177784,-0.014125814,0.015218292,0.020190138,0.00023646906,-0.07230243,0.13614611,0.049840797,0.034992,0.02858348,0.0634014,0.0073753516,-0.15255214,-0.01961096,-0.049117498,-0.007575081,-0.050844613,0.06988511,0.016276835,0.15057541,-0.112865955,-0.056776933,-0.07450913,-0.019589432,0.089941524,0.036400076,0.13921729,-0.023050062,-0.19955434,0.011124566,0.029283134,0.018449076,0.13282955,0.045896057,-0.019339897,-0.010648808,-0.083622314,-0.068144426,-0.0926231,-0.025574615,-0.03933411,0.021662598,-0.02947421,-0.062287904,0.0595833,0.008106712,-0.04970452,-0.016672892,-0.037089836,0.006507859,0.0905932,-0.011093899
q9,-0.06442841,0.029986216,0.105877206,-0.03187087,0.01220647,0.010618097,-0.09700474,-0.057894096,-0.04030487,0.10145277,-0.09697013,0.004396092,-0.03184833,-0.019769242,0.03379716,0.06799991,-0.02090317,0.08121356,-0.009343572,-0.055753123,0.0027709194,0.0052391863,0.014993791,0.09783057,0.017509934,-0.036534384,0.014869814,0.0026253269,-0.0152111435,-0.039687637,0.08891128,-0.100516476,0.0073162625,-0.14699984,-0.0028127423,0.124180354,-0.01599598,0.07178886,-0.0037069556,0.031047238,-0.021771276,0.016401585,-0.0332717,0.0064379573,-0.02031078,0.070031136,-0.102243125,-0.038443774,0.043055218,-0.07561453,-0.013049529,0.115576126,0.038586963,0.10029,0.005982789,-0.059002113,-0.046645746,0.07710677,-0.06804051,-0.0070482306,-0.009197619,-0.025672799,0.0018690417,0.015337776,-0.034698863,-0.014487793,-0.0765319,0.05674603,-0.046879392,0.018442195,-0.022115292,-0.031519517,0.063892245,-0.079573356,0.040496584,-0.13723315,-0.012999581,-0.016921319,-0.0013108558,0.030270208,-0.049118303,-0.12909336,0.018283213,-0.05751825,0.09319679,0.044420056,-0.065421596,0.02409834,-0.014551974,-0.12491042,0.008161383,0.019521592,-0.023999587,-0.05579607,0.011666177,-0.017687865,-0.07452084,0.07445921,0.035356753,0.04232971,-0.024990955,0.08968456,0.011296518,-0.04455505,-0.045948885,-0.09627211,-0.060740676,0.016086025,0.018458288,0.04001022,0.026884736,0.23676558,0.04351058,0.05894446,0.03887661,-0.00036932333,0.07534083,-0.006331322,0.00070145284,0.04522795,0.029763268,-0.08719303,-0.05184476,-0.011280954,-0.0303577,0.06762788,0.024445388,0.10837273,0.029491924,0.03457598,-0.04798285,-0.03322945,-0.08010686,0.041589417,-0.08639986,0.012747924,-0.07177491,-0.18223925,-0.047730166,0.04129895,0.031366404,0.12176989,-0.019616267,-0.1323138,-0.03270924,-0.15821926,-0.04219071,0.14736885,0.023033172,0.11410268,0.0074104783,-0.00078246626,-0.045257643,0.008331215,-0.010592492,0.0060676355,-0.08287579,0.022574976,-0.046402518,0.040958762,-0.052319143,-0.013096986,0.06593293,0.0056317444,0.02421624,-0.06587018,0.030401919,0.07835447,0.0066369525,-0.026904305,0.027065147,0.041837174,-0.013628199,0.058660343,-0.008776738,-0.0620038,0.03773437,0.0268954,0.027533956,-0.014215149,0.09037011,-0.037894197,-0.0037448432,0.005041191,0.013929577,-0.007673618,-0.019387785,0.054043952,-0.004963778,-0.069697246,0.006013149,0.00257376,0.03156544,-0.087528855,-0.043226946,0.008671452,-0.07235788,-0.046455253,-0.0048250724,-0.16722228,-0.046047606,-0.078575075,-0.09216266,0.012848596,-0.035943653,0.06604043,-0.013787393,0.057923403,-0.00035701058,0.040420294,0.02885839,0.10533319,0.11657263,0.0072173304,0.07713306,0.046916854,-0.070713654,-0.02144461,0.019445073,-0.007744455,-0.004057006,-0.0019292268,0.040431656,-0.024284827,-0.008143945,-0.010874892,0.024626408,0.05527051,-0.034351837,-0.07865559,0.108951874,0.0077989614,-0.026407553,0.0265462,-0.0323509,0.09222377,-0.04492738,-0.115509704,0.07414796,-0.0009996702,-0.010159877,0.10473525,-0.03317114,-0.0027995312,0.041744575,-0.064953156,0.09385887,-0.049378768,0.0072212373,-0.09260326,-0.0035848632,-0.038832933,0.06823719,-0.043359853,-0.035359707,0.053091362,0.053066697,0.043416377,0.049222417,0.007881962,-0.031436123,0.021834856,0.0831091,0.046257492,-0.009212896,0.009515758,-0.08481741,0.12420125,-0.06505793,-0.04149554,-0.05759526,-0.019275025,0.020242363,0.04255914,0.0327894,-0.03609228,0.028074127,-0.04629777,0.11870949,0.06380118,0.016827153,0.058428314,0.120485656,-0.0051630153,-0.09156726,-0.008866169,-0.01828291,-0.018566428,-0.023073528,0.05527664,-0.031114414,0.012610194,0.07134048,0.16073166,0.005161347,0.031875744,-0.04135079,-0.05596578,0.04251591,-0.028011424,0.045946073,0.06848087,-0.079313084,-0.031862378,0.03595098,-0.0018137653,-0.025370795,0.02033135,-0.0687718,-0.014247983,-0.11744855,0.04283012,-0.0059084734,0.051716574,-0.114887804,-0.056246214,-0.013149528,-0.03757708,0.0096097225,0.117661506,-0.068495214,-0.050820682,0.023847774,-0.015581737,-0.039400227,0.04650181,-0.059198067,0.0035325673,-0.01514719,0.0273141,0.063773975,0.06599372,0.020863233,0.032214884,0.06113665,-0.08948627,0.058869552,0.063246705,-0.04725838,-0.016251337,0.00516007,0.05801804,-0.009689004,0.07973985,-0.005519601,0.047133896,0.0065435395,-0.0041978694,-0.0018830141,0.019598119,-0.014918665,0.072983384,0.019554202,-0.022407435,0.061361063,-0.039689258,0.015570587,-0.05580666,0.11642243,0.027270809,0.037931122,-0.030850993,-0.007783914,0.053064696,-0.039839342,-0.024655953,0.06615595,-0.0018442532,-0.09919077,-0.039849803,-0.13695367,-0.0059999875,0.0742087,0.06062979,0.06402432,0.044869967,0.06936933,-0.013138054,-0.059878107,-0.10703246,-0.14270435,0.051065482,0.026323231,-0.05427399,-0.0059071486,-0.0382849,-0.0053597954,0.09269939,-0.083517864,0.03944791,0.0011178683,-0.038154904,0.046374,0.086276405,0.09027309,0.042474333,0.05715038,-0.055067744,-0.07859256,0.040641624,0.004688826,-0.0051410035,0.04938132,-0.00828865,-0.023695808,-0.04332431,0.004746532,-0.08728141,-0.05732735,-0.04896921,0.03357227,0.07415108,0.10952465,-0.016707854,-0.04772326,-0.08234968,0.06728392,0.029379744,-0.069406345,-0.0022938454,0.01639865,-0.090518974,-0.053256843,-0.004874209,-0.0030172784,-0.11106797,0.03151521,0.018887153,0.04771422,0.04177888,0.017592441,0.050701093,-0.0005617537,-0.05461956,0.013262302,0.06740381,0.004166334,-0.072643265,-0.07444579,-0.09483153,0.0271825,0.08256781,-0.060884498,0.029779557,0.04854923,0.038694173,0.0034231711,-0.06337982,0.079049446,0.009687315,0.041716438,0.003980015,0.0069516515,-0.009173146,0.08621743,0.13170876,0.003167301,0.05939948,-0.046556737,-0.0057710353,-0.045478474,0.08134754,-0.08553737,-0.03155694,0.03376064,0.0066513335,0.059849028,0.14067717,-0.029889291,-0.0018344589,-0.05367557,-0.006713102,-0.029051762,0.031035362,0.102651194,-0.052057378,-0.044021286,-0.010576948,0.036187027,-0.036080245,0.11708579,0.06508261,-0.015575578,-0.068756394,-0.071874924,-0.015638214,-0.08238976,-0.032995854,-0.04417147,0.055541597,0.015353628,-0.091005415,0.03502658,-0.06557897,0.004324477,0.012929911,-0.020948978,-0.018106395,0.15011565,0.05027126
q10,-0.0105063785,-0.00062717963,0.06429163,0.018653292,0.016984452,0.014618281,-0.1034335,-0.06331885,-0.033516165,0.08083688,0.013346723,0.03276642,-0.03053809,-0.0012238305,-0.011131894,0.03195701,-0.008824103,0.09370302,-0.0006556697,-0.036666956,0.03819101,-0.036224857,0.08038211,0.028783813,0.047569163,-0.05007335,0.008685542,0.027316807,-0.06740015,0.038732976,0.09814865,-0.03337165,-0.02480453,-0.13734865,0.018416489,0.022992415,-0.011789668,0.08403695,0.0027037412,0.09530631,-0.025619218,-0.0162277,-0.009093545,0.03956875,0.0075837458,0.09754037,-0.11053684,0.016050419,0.036537275,-0.08369644,-0.00048508402,-0.005351832,0.015505554,0.111824185,-0.015084188,-0.061923534,-0.025623692,0.09940906,0.061871402,-0.05052992,0.011674615,-0.042506963,-0.041367598,0.04089114,0.04523094,-0.0071731256,0.013145828,0.09584788,0.008245866,-0.018158328,0.02868789,-0.016308025,0.017651707,0.022162642,0.009685836,-0.05061049,-0.03235833,-0.03745889,0.0140915755,0.006425731,0.0033788385,-0.049417578,-0.0077255014,-0.013746411,0.04693937,0.06034235,-0.08932895,-0.031224068,-0.026675712,0.0039782627,-0.014124649,0.009091329,-0.02201908,-0.07467638,0.021887138,-0.021218421,-0.11308314,0.040949948,0.01853058,-0.0326469,-0.024427664,0.058216173,-0.016065404,-0.04213209,-0.04985001,-0.07582167,-0.07110237,0.02818292,0.013438509,0.018361593,0.021413624,0.17910868,0.06698812,0.07582862,0.035805374,-0.012642078,0.048922922,-0.015451182,0.06447491,0.03043042,0.060030907,-0.02528291,-0.024829913,-0.040676277,0.029753616,0.020942993,0.017829582,0.07482061,0.0049365535,0.09305925,-0.01766042,-0.036487736,-0.07865489,0.013230156,-0.0013452005,0.023427673,-0.066616274,-0.09104033,-0.08219964,-0.091345064,0.02540483,0.15366857,-0.010897509,-0.15487468,-0.0089894235,-0.11600779,-0.028821422,0.092041284,0.032419868,0.08471836,0.015124733,0.0054455376,-0.108219616,-0.009207118,-0.015254752,-0.0038267514,-0.05994618,-0.01165467,-0.03002669,0.020847531,-0.025469499,0.005929116,-0.049587004,-0.013961118,-0.00802709,-0.035076506,0.05938127,0.044086292,0.057304174,-0.046431176,0.013445387,-0.012272019,-0.027924748,0.035578806,-0.0004914664,-0.06897472,0.10672088,0.0127941985,0.044974864,-0.006360624,0.015755007,0.020046197,0.024708293,0.06428665,0.038281295,-0.050884277,-0.018649353,0.05757494,-0.06492898,-0.06467393,-0.01906221,0.0468992,0.03297624,-0.03951028,-0.003881751,0.034141783,-0.09557988,-0.039424464,-0.018127121,-0.09515476,-0.004686527,-0.03942261,-0.08324359,0.02977126,-0.050849184,0.07665692,0.0043903864,0.0026371218,0.0140440855,0.053410746,0.011901558,0.11290148,0.098095834,-0.046970863,0.06348002,0.00620234,-0.06528087,0.03238669,-0.0145988595,-0.024456834,0.023100682,-0.050552707,0.061061233,-0.01681059,-0.009301599,-0.02939905,-0.044012174,0.0046592886,-0.059494466,-0.01587519,0.07931816,-0.019423157,-0.0043779416,-0.00014803279,0.010384446,0.047616813,-0.017300498,-0.053261317,-0.012531561,-0.04478945,-0.010153994,0.08500886,-0.024171684,0.036900718,0.03994591,-0.056784477,0.036586978,-0.08384417,0.016106093,-0.0911943,0.058575988,-0.042989798,0.074333414,0.02597643,-0.09322225,0.012160424,0.03822749,0.050481137,0.054744914,0.04186424,-0.044042133,-0.052298903,0.07687956,0.042851817,0.015720055,0.062476017,-0.083453305,0.10483307,-0.01492767,0.007689288,-0.0033373884,0.002196176,0.033206806,0.010218908,0.06947308,0.044336095,0.05494906,-0.104060546,0.13381937,0.05690352,0.0134841595,-0.058211703,0.105793364,-0.013971768,-0.07866844,0.04912567,0.028120466,-0.015858429,0.05948229,0.048456665,-0.015196211,0.008703776,0.04885066,0.16523784,-0.024732552,0.02320086,-0.060259793,-0.031070199,0.03479596,-0.027964855,0.012480136,0.024629964,-0.053343907,-0.0033528125,0.023724902,0.06403826,-0.068893544,0.065919414,-0.05214727,-0.023415182,-0.036058627,-0.018768689,-0.012855923,-0.003242882,0.004197575,-0.021298844,-0.029693726,0.0002592937,0.004223085,0.12340447,-0.0100190295,0.034683544,0.029046023,-0.012486855,-0.009173604,0.024842523,-0.08305861,-0.033614498,0.021639988,-0.050515864,-0.011855419,0.031204384,0.022759862,0.016167155,0.040494494,-0.05291503,-0.049990322,0.023450116,-0.02153547,-0.04754628,-0.059113767,0.01846453,-0.0034003388,0.032620106,-0.013754146,0.010231819,-0.013234977,-0.01765758,-0.0058371956,0.05238945,0.009042937,0.04536638,-0.011469438,-0.00053752447,0.053345814,0.01114008,-0.028962363,-0.051968362,0.05312848,-0.015367369,0.087149814,-0.05688919,0.010179274,0.04155316,-0.08201431,-0.03155905,0.08823735,-0.008652925,-0.08781759,-0.045726947,-0.17652649,0.012022784,0.07599937,0.051183317,0.035874486,0.01838527,0.05153674,-0.023247447,-0.09700234,-0.018046185,-0.11456093,0.037604228,0.04655679,-0.027697364,0.012911105,-0.017437931,0.047255263,0.16850197,-0.061352134,0.0456515,-0.069175266,0.020911943,0.03558121,0.042133357,0.12527962,0.061778486,0.08654663,-0.060056485,-0.074451305,0.015415534,-0.029167589,0.019708456,-0.012494151,-0.021222718,-0.055959437,-0.06688952,0.037434764,-0.056658484,-0.05804006,-0.044441465,0.038159035,0.03141482,0.07862718,0.058845736,-0.032485165,-0.0154879745,0.011447944,0.011735538,-0.03336472,0.07714405,-0.007220421,-0.053218365,-0.08865635,0.010871811,0.014096461,-0.10851526,0.06409377,0.0062282765,-0.008421417,-0.046584506,0.059383783,0.07560478,-0.02599407,-0.008061576,0.01602853,0.040462956,-0.03434697,-0.04796667,-0.05395675,-0.04925998,0.040993,0.04206648,-0.073790066,0.009263328,0.02954825,0.12842417,0.029905453,-0.029114833,0.048460424,0.051333603,0.040231444,0.019001072,-0.012653364,0.0713767,0.14261068,0.008217622,0.012518925,0.0138877295,-0.025277894,-0.028401412,-0.03147128,0.025109235,-0.10245485,0.0022725416,-0.0006756978,0.024329396,0.03819059,0.15259281,-0.13394374,-0.014316196,-0.03476134,-0.008812186,0.07694089,0.014581127,0.08411704,-0.036819972,-0.0055994703,0.00977697,0.093129046,0.032233384,0.1024663,0.054029405,-0.0335996,-0.018678416,-0.0035395613,-0.0652491,-0.035832915,-0.007980725,-0.023227535,0.021081328,-0.052663077,-0.09805778,0.05514016,-0.030545065,-0.041591156,-0.011862418,-0.0064808875,-0.024857992,0.08276273,0.046567895
q11,0.00736885,0.019975498,0.012062984,0.037867222,0.018823609,0.0693136,-0.13697748,-0.104434565,0.002482598,0.10018752,-0.024543904,0.012111457,0.011444231,0.03771395,0.0546495,0.021380099,-0.03786031,0.13580503,-0.036129184,0.0018898993,0.053123035,-0.025915572,0.047305487,0.0530178,0.024688778,-0.060196288,-0.018955547,0.01282914,-0.05329703,0.022237701,0.14714631,0.004907789,-0.02468155,-0.1251444,0.024107384,0.02905766,-0.013295059,0.058349606,-0.0014039052,0.06069564,-0.003319131,-0.018585945,0.035327267,0.0538432,0.0054989182,0.04529461,-0.21676548,0.05519235,-0.023390457,-0.041304037,-0.0064767757,-0.00019458053,-0.03248607,0.10901523,-0.024612378,-0.017442007,-0.013734539,0.13483651,0.114465095,-0.04546751,-0.017203575,-0.10643196,-0.044882074,0.07095548,0.02262815,0.029027795,0.024904493,0.11547433,0.087476656,0.01786625,-0.00813884,-0.05990669,0.0033717866,-0.10851429,0.023141338,0.0030353095,-0.07478406,-0.0672353,-0.015125591,-0.099932015,-0.0332798,-0.049604777,-0.0095036095,0.0051776203,0.061887093,0.0796331,-0.07917637,-0.07411575,-0.033083465,-0.12082055,0.027450947,0.022874529,-0.04141536,0.006649981,0.043738067,0.006389871,-0.14196038,0.06525538,0.005030921,-0.030931577,0.024124885,0.00076846604,-0.026642062,-0.05726998,-0.026384192,-0.057084825,-0.04042723,0.035910573,0.045489244,0.039826248,-0.022373049,0.15759468,0.023518233,0.10125973,0.050571967,-0.083981864,0.08925151,-0.050678555,0.0958549,0.08521507,0.08929466,-0.053666227,-0.016922172,-0.019263303,0.053564105,0.0010429462,0.02225607,0.16445392,-0.009025195,0.110058755,-0.02654383,0.028702158,-0.13224478,0.041459527,-0.014471621,0.023084456,-0.057277676,-0.05138855,-0.057249006,-0.11102879,0.020005303,0.14184566,-0.04692005,-0.11802023,-0.023079993,-0.08359373,-0.007876617,0.09797301,0.007262539,0.086223826,0.013564629,-0.012026187,-0.064813815,-0.06026007,0.012655035,0.054202568,-0.073450744,-0.012149141,0.070120774,-0.03535718,-0.030436866,0.01669213,-0.08910629,-0.035305828,-0.026157638,-0.053737354,0.030005185,0.027464112,-0.00082019536,-0.056888312,0.061524183,0.011238137,-0.07888932,0.0053106947,0.0039766,-0.06726182,0.054670196,-0.010394389,0.08224214,-0.0033900626,0.08315532,0.0338282,0.028938422,0.07342486,0.038043752,-0.06750823,-0.011253286,0.089078434,-0.09890325,-0.07288812,0.00063089357,0.0057797935,0.02179665,-0.05670114,-0.006625023,0.025059564,-0.099448025,-0.09987804,-0.082142726,-0.12035314,-0.001425545,0.0063441857,-0.06697036,-0.030621499,0.007227497,0.1048903,-0.05667455,-0.022637807,0.031862993,0.06387684,-0.0033313113,0.092822,0.18866204,-0.035878792,0.03799219,0.06480778,-0.0768106,0.039247293,0.017457346,-0.041186124,-0.002295097,-0.06265167,0.052215025,-0.045209434,0.07441351,0.006114131,-0.018795997,0.010973769,-0.0803854,-0.047144815,0.101374224,-0.04658243,0.049665537,0.0139679955,0.01884352,-0.021420762,-0.04058587,-0.10350538,0.0331513,-0.02125473,0.008849879,0.09258859,-0.019294841,0.07335155,0.012504715,-0.048444092,0.004266318,-0.049275476,-0.027705522,-0.05331016,0.022516482,-0.0479609,0.012623371,0.08666331,-0.13492417,0.07903054,0.048106346,0.07993762,0.09698647,0.04052869,-0.08020408,-0.084983446,0.054051142,0.018862456,0.04774375,0.1187278,-0.035197604,0.15253799,-0.03111392,0.03118644,0.017390335,-0.019081352,0.07181075,0.060625363,0.03739067,0.086198315,0.07777855,-0.07684963,0.14569433,0.08242814,-0.014325396,0.04829754,0.10382693,-0.042733278,-0.107781544,0.029744886,-0.02578021,-0.026269369,0.032119624,0.015747035,-0.029655468,0.02993385,0.028017176,0.15836716,0.0068517616,0.0670685,-0.10847658,-0.040917546,0.0181459,-0.026745008,-0.07798577,0.025691066,-0.0880359,-0.017070297,0.028081633,0.05566708,-0.054117184,0.05221145,-0.026213646,-0.029541546,-0.015826542,-0.03464399,0.04373024,-0.0020144645,0.048079308,-0.03688331,-0.04432233,0.014002157,-0.014726371,0.08102244,0.039829902,0.09644709,0.027637854,-0.0052926266,-0.10210703,0.08706697,-0.09928247,-0.0154743055,-0.0014992612,0.017881066,-0.009799974,0.011295142,-0.001251355,0.027701208,0.06791333,0.020942645,-0.020357579,0.0055277376,0.021407716,-0.0769321,-0.07723961,-0.007959713,-0.030125514,0.034799192,0.009223291,-0.026425293,-0.012261398,-0.033111658,-0.012994075,0.06250586,0.010700553,-0.017227877,0.02131943,0.02495124,0.046278022,-0.039013274,0.007497309,0.0065922453,0.1023496,0.012551371,0.10344935,-0.055492938,-0.020944724,0.12338073,-0.042133898,0.015574778,0.09939517,-0.015254698,-0.108817376,-0.027054224,-0.19916153,0.029844852,0.08372375,0.020960897,0.034011517,0.04878197,0.016278373,-0.047923256,-0.07908776,-0.041252628,-0.06133999,0.049632117,0.0067309467,-0.03012682,0.013706133,0.011278941,0.04843804,0.11839163,-0.039669786,0.06035349,-0.06388847,0.020443248,-0.05442238,0.008538069,0.18956009,0.047231983,0.13852417,-0.07361948,-0.12773556,-0.0037242924,-0.05396775,0.012440882,-0.016313177,-0.008388844,-0.020486815,-0.090182014,0.0073664817,-0.03994824,-0.034356833,-0.070244655,0.014042071,0.042526376,0.072279625,0.10549275,-0.09322816,-0.012072874,0.036948256,0.0019899677,-0.037152857,0.10386729,0.014277033,-0.10777126,-0.08953578,0.0300751,-0.0065992195,-0.10199084,0.07956018,0.046199046,0.01373923,-0.0211577,0.086500436,0.06727259,-0.066087276,0.03188432,0.064863674,0.048569486,-0.055942714,-0.050558392,-0.0034708811,-0.03856941,0.057207935,-0.0031072062,-0.011560079,0.036401216,-0.03569851,0.025632583,0.09182015,-0.03229244,0.061797336,0.06362317,0.04622267,0.021231443,-0.039767534,0.029255424,0.09940577,0.026892804,0.027594425,-0.0015482742,-0.01359757,0.025440177,-0.049899876,0.05223458,-0.10047259,0.0006410345,0.029632274,-0.0051289364,0.022367408,0.13363472,-0.012534809,0.0116851535,-0.039985303,-0.06281385,0.11066122,-0.021016322,0.10893449,-0.009539476,-0.037056208,0.026255123,0.13320684,0.040756945,0.121277675,0.08171254,0.014988753,0.0069490927,-0.021353858,-0.121503755,-0.03619747,-0.01356314,-0.031488333,0.048884504,-0.115659975,-0.08472303,0.053793397,-0.08517766,-0.011750329,0.021562595,0.012962267,0.010090893,0.10076701,0.026165579
q12,-0.019572802,0.007890334,-0.011513909,-0.048197452,0.03357293,0.039995342,-0.085507736,-0.07236895,0.02922618,0.038127862,0.027811727,0.023448708,0.004897183,0.021872995,0.021603476,0.10377002,0.0010734615,0.06442381,-0.030608293,-0.064155556,0.044482015,-0.008588402,0.0274194,0.056400985,-0.00999834,-0.09358148,-0.0005644392,0.021037305,-0.016521765,-0.0032054419,0.10469468,-0.04250365,-0.036181167,-0.10824978,0.032575864,0.050632026,-0.016279098,-0.041236706,0.012416968,0.02722583,-0.015704926,-0.019011633,0.021100627,0.017248716,-0.00019430183,0.024112733,-0.05273856,-0.044023678,-0.03003347,-0.014401218,-0.020134788,0.0032322234,-0.053446505,0.08814462,-0.022708617,-0.035356745,-0.084043644,0.11609419,0.017630517,-0.10370737,-0.0058613485,-0.010662053,-0.019620553,0.0051797554,0.039023265,0.0653847,0.045756094,0.08855818,0.04078981,0.013826027,-0.038055673,-0.066898614,0.029797824,0.02042278,0.04033498,0.010126551,-0.06512003,-0.02400925,-0.017578032,-0.0051765796,0.002378771,-0.0358496,-0.03374237,-0.026699737,0.018392237,0.04224629,-0.109629765,-0.026311187,-0.05212955,-0.06295379,0.01025996,0.001063725,0.030611979,0.03542221,0.03661564,0.027223136,-0.10765873,0.07419829,-0.01754216,-0.010651164,0.02774017,0.038737673,-0.036302716,-0.027844887,-0.029430801,0.016062338,0.010267393,0.015066383,0.026185408,0.037677217,0.03274054,0.12938362,0.052743707,0.08662369,0.026430257,-0.018798996,0.0103253815,-0.054048643,0.04118397,-0.004382727,0.0626338,0.000967985,-0.051765434,-0.039155778,-0.011184013,0.052069355,0.030844139,0.080304645,0.036647137,0.039563004,-0.025880318,0.0037641982,-0.08944801,0.017386412,-0.05303978,0.06329076,0.015984438,-0.050562717,-0.023423793,-0.09578392,-0.024632933,0.103104904,-0.014223,-0.07081757,-0.04066366,0.00089766365,-0.05602161,0.09376877,0.016635934,0.058367956,-0.04258122,0.015850218,0.021033093,0.03052831,-0.01911868,0.061801217,-0.005260439,-0.023139698,-0.052471742,0.033188753,0.026485749,0.05506912,-0.010142951,-0.01608216,-0.01829646,-0.037138067,-0.015677191,0.061819162,-0.04988825,-0.052237518,0.032674372,-0.025348078,-0.03379584,-0.03136103,0.016756779,-0.06619655,0.0330543,-0.0052323556,0.0104863085,0.03777815,0.029992485,-0.032090273,-0.0055404343,0.016615808,0.026031155,-0.053110305,0.0032503754,0.0431024,-0.04287739,-0.018415641,0.006027274,-0.008851083,-0.0074983845,-0.00024794787,0.02959811,-0.013966665,-0.036943067,-0.056572407,-0.027659386,-0.1061738,0.008043575,-0.10155895,-0.06876055,-0.007209136,-0.075376704,0.093776844,0.016529541,-0.025492765,-0.0063078655,0.03679473,-0.047656573,0.109686136,0.17192233,-0.0364616,0.06371963,-0.013072887,-0.110755555,0.025931701,0.010074833,-0.025730966,0.015655335,-0.03423723,0.044824883,-0.020609964,-0.043920867,-0.01928773,-0.016082658,0.0041103195,-0.10815422,-0.02769306,0.059993964,-0.00023947447,-0.004311651,-0.0033059507,0.020640263,-0.003968019,0.012704369,-0.043635473,0.008205917,0.03330502,0.07696317,0.066777535,-0.034999467,0.093015835,0.0057210447,-0.049237177,0.0079135215,0.008014187,-0.0043972004,-0.008503629,0.027616551,0.029235374,0.08152094,0.010382995,-0.025175415,-0.0025360044,0.041513525,0.02399565,0.071285024,0.03686893,-0.0041507594,-0.06710518,0.06922609,0.07957565,-0.023173839,0.05724874,-0.018749963,0.11568987,-0.008541387,0.0066185454,-0.024956744,0.033454314,0.06634969,0.050728664,0.07590599,0.1334867,-0.0126618445,-0.077328496,0.117897585,0.061437335,-0.004403563,-0.014502904,0.03794023,-0.017864907,-0.08290653,0.13010958,0.016688813,-0.0071302294,-0.0021962477,0.052410156,0.013447278,-0.01289576,0.016864024,0.07251159,-0.04202503,0.00993339,-0.09309065,-0.06578175,0.07468008,0.027126329,-0.032566518,0.04750505,-0.053807512,0.025062412,0.0010327967,0.039250575,-0.062337544,0.121025674,-0.09668925,-0.031835318,-0.09382744,0.030406836,-0.082964145,-0.025604906,0.024845313,-0.024252992,0.008397985,0.044033736,-0.044765748,0.13065773,-0.02227541,0.05582891,0.033194322,-0.013497727,-0.040296264,-0.0041627735,-0.0716083,-0.028311037,0.02869686,0.019485777,0.011173772,0.04248989,0.030880626,-0.028349563,-0.058823157,-0.04022568,0.0347083,0.07697175,0.03353176,-0.0942834,0.018781327,0.08141643,0.0034131221,0.015972245,-0.012367029,-0.054948196,-0.0064783785,0.0055463035,-0.008010986,0.059039965,0.04131428,0.020007487,-0.011111874,0.014425819,0.08265679,0.03211948,-0.019890338,-0.027467344,0.015820263,0.008515042,0.03691157,0.015059376,-0.011025326,0.0492019,-0.026876919,-0.0152079,0.05854658,-0.010945568,-0.030886233,0.0020327251,-0.09230323,0.03238354,0.1579813,-0.07081166,0.011800527,0.05630105,0.010522887,-0.017059244,-0.10494958,-0.10565941,-0.061967313,0.06561716,-0.004891984,0.0016007898,0.018440004,0.0027126782,0.073715836,0.19789681,0.009425402,-0.033783384,-0.078871205,0.03435825,-0.004080547,-0.03545181,0.07480338,0.04383906,0.015599504,0.005612964,-0.10204958,0.07845014,-0.0008851327,-0.024839437,-0.05420203,-0.03010076,-0.046280697,-0.0036613035,0.009721614,-0.02362227,-0.06849962,-0.03824275,0.0145094525,0.06912143,0.051198125,0.08876225,-0.0467114,-0.043659322,0.043895952,0.015989155,-0.03725886,0.06404182,0.03159514,-0.05038639,-0.08028422,-0.0021845577,-0.0030066825,-0.045498855,0.0685259,-0.00967011,-0.028255502,0.04273498,0.008992443,0.039262462,-0.04090652,0.06662202,0.025596172,0.10673943,-0.012086071,-0.03354947,-0.045838118,-0.07719261,0.018553782,-0.022254538,-0.07390237,-0.017402723,-0.023933776,0.022850787,0.025064202,0.0012957782,0.06374214,0.09243454,0.047676243,-0.0005595628,-0.015377872,0.02129922,0.0759621,-0.045537636,0.016855443,0.02665459,-0.02003368,-0.01990559,0.060879096,0.061042525,-0.024742411,-0.014047228,0.05165112,-0.032926463,-0.0005162596,0.12940422,-0.0581469,0.010093119,-0.006556128,0.02008969,0.004019472,-0.058351032,0.056151092,-0.010867493,0.043430716,0.036016844,0.0646504,-0.01275028,0.00091382256,0.037556328,-0.018250108,-0.008052015,0.011863281,-0.05849202,-0.009579955,-0.05146213,-0.012493776,0.03948843,-0.039827056,-0.09848311,0.07926689,-0.043025497,0.0001273863,-0.019652221,0.058455236,0.009122139,0.13827294,0.051390845
q13,0.013287577,0.0106170075,0.06405773,-0.047573525,0.023094758,0.0038119864,-0.07115741,-0.0894595,-0.04670667,0.10864148,-0.032258123,0.06402254,-0.032493196,-0.02656664,0.012385962,0.047817685,-0.042341933,0.10127844,0.009901306,-0.027631477,0.08452517,0.0003901637,0.038843926,0.016660525,0.08520791,-0.02064842,-0.052059222,-0.021026425,-0.021572953,-0.0033385505,0.09692545,-0.09298647,0.012810515,-0.13300347,-0.058860842,0.0010553563,0.028101569,0.03936422,-0.024276428,0.07562905,-0.06020949,0.01640978,-0.016647136,0.0637147,0.010380503,0.10555681,-0.16610853,-0.018075053,0.06420819,0.00095964794,-0.002041692,-0.014584525,0.031745207,0.13284558,-0.031441126,-0.04129212,0.018352548,0.06636534,0.019816298,-0.033715177,-0.04411872,-0.008411317,-6.253791e-05,0.044668637,0.023624562,-0.017484915,-0.031889334,0.0474038,0.03415325,0.042504545,-0.0016646784,-0.038786512,-0.027438179,0.007778776,0.05936736,-0.072262,-0.010253002,-0.049699545,-0.00781058,-0.083948135,-0.07328341,-0.030534662,-0.010269199,0.009980474,0.047162037,0.09518773,-0.09736145,0.020798117,0.011969057,-0.078459926,0.033122428,0.038316622,0.021170538,-0.034413666,0.062200565,-0.047666784,-0.103935756,0.019694794,-0.021849083,-0.023212612,-0.015456257,0.04085539,0.0016352831,-0.002439248,-0.022886477,-0.12597644,-0.08102428,-0.04260411,0.025402227,0.06294452,0.031503506,0.20435956,0.0362887,0.08461096,0.04589364,-0.004915313,0.036701456,0.04119792,0.118476465,-0.0014830503,0.09442304,0.024127055,-0.06345473,0.0010391871,0.00308434,0.060320985,0.026483092,0.06700596,-0.033125583,0.07017872,-0.045542285,-0.05215762,-0.037067402,0.0032571286,-0.010632711,-0.020925626,-0.06986303,-0.03528152,-0.032850876,-0.08837962,0.058866434,0.1295607,-0.020134104,-0.13197435,0.011896354,-0.15049669,-0.029993013,0.10119276,0.0024821358,0.048994407,-0.013237557,-0.02729044,0.0110623,-0.03789951,0.020662732,0.032018453,-0.09072146,-0.026909517,0.028717177,-0.035441402,-1.9990339e-05,-0.030275213,-0.028606568,-0.046288215,-0.02523707,0.013981545,-0.021810176,0.044628248,0.0768526,-0.013388506,0.018895455,-0.0036270795,-0.007903997,0.021349194,0.0197112,-0.061521556,0.009292083,-0.030711899,0.020086266,-0.0591354,0.023510627,-0.02880203,0.03755065,0.078581244,-0.0018599229,-0.07694358,0.01197823,0.03404784,-0.054795615,-0.08513052,0.0348817,0.015170729,0.004998548,-0.07509475,0.021309363,0.049173135,-0.07537206,-0.030841118,-0.07253672,-0.054939624,-0.06831545,0.026352905,-0.13779105,-0.048526276,-0.012769942,0.1218312,-0.057295453,0.009925203,0.050231718,0.08976146,-0.0011961246,0.07973105,0.20830537,0.027982337,0.12777944,0.10532998,-0.022691946,0.02919324,0.0048511336,-0.035600618,-0.0014364074,-0.08505045,0.026949363,-0.0088921515,0.0049219234,-0.05460741,-0.005079096,0.023473987,-0.06404855,-0.04389589,0.065920316,0.06618147,0.07247987,0.011076892,0.009391449,0.028525766,-0.02161983,-0.09243191,0.0038535516,-0.07397024,-0.06369306,0.084745444,-0.038958125,-0.018197747,0.056045882,-0.074108586,-0.010392996,-0.06606416,-0.06768363,-0.051025037,0.04030313,-0.035347007,0.06360032,0.029260779,-0.10380141,0.07692999,0.019949783,0.04167047,0.010875129,0.018640239,-0.03634007,-0.016966105,0.038868014,0.061924484,0.017587079,0.037865948,-0.07714921,0.107338615,-0.008183796,0.008525859,-0.014156487,-0.017182413,0.02135442,0.009638507,0.057321664,0.029689766,-0.023420878,-0.051742315,0.12036541,0.09198913,0.019274097,-0.017658167,0.07502038,-0.039186217,-0.089302905,0.02554602,-0.044219762,0.10806849,0.046641808,-0.05786034,-0.03698082,-0.026715584,0.017465081,0.14543773,-0.020808132,0.07744542,-0.013534038,-0.0684067,-0.018659035,-0.0722204,0.021310505,0.05019157,-0.025371924,-0.05150655,0.033872757,0.04553832,-0.08865268,0.03645527,-0.03181633,-0.04956509,0.0045173154,4.0912804e-05,0.019356836,0.05438452,0.049859174,-0.050860416,-0.085679054,-0.04841237,-0.047650553,0.028577931,0.032731123,-0.033158306,0.021163946,-0.02389231,-0.10728508,-0.012041866,-0.11751553,0.048300844,-0.012950205,-0.051856592,-0.021642119,0.070290655,0.02973482,0.058069732,0.05766294,-0.051334374,0.0056625362,0.018911345,-0.047648437,0.0067567914,-0.0707251,-0.01103227,0.015742136,0.07550121,-0.018588142,0.004433409,0.003346925,0.056562893,-0.0061347717,0.09715761,-0.007741166,0.024768533,0.0008244372,-0.004284757,0.050396,0.07200717,0.00057145307,-0.08535501,0.050696183,-0.016706035,0.090575166,-0.041020714,0.01181355,0.05510045,-0.07455763,-0.024946878,0.1201565,0.056262027,-0.1641988,-0.026314044,-0.045917705,0.046926055,0.123899944,0.03491474,-0.020036552,-0.01397416,0.040041313,-0.066645734,-0.049821228,-0.10637905,-0.13456456,0.024316574,0.06529851,-0.036763277,0.02839892,-0.08943093,0.05902413,0.18457964,-0.049587052,0.009147322,-0.020875545,0.036503248,-0.00059720845,0.036806434,0.1283552,0.06734591,0.1717035,-0.10409041,-0.0048795664,0.083656676,-0.095500186,-0.02210021,-0.019107223,-0.030543743,-0.07898626,-0.08769565,0.045557804,-0.060506437,-0.079750635,-0.04747708,0.038704578,0.04562501,0.057024457,0.080100566,-0.051409833,0.019056777,0.06264352,-0.00596356,-0.010946307,0.03891395,0.00485178,-0.17221987,-0.0764164,0.0011829552,-0.008436613,-0.119110584,-0.0066781086,0.022419285,-0.04092986,-0.0052718553,0.07835774,0.10517286,-0.07760858,0.030674873,-0.021424143,0.07230779,-0.06782538,-0.12727347,-0.084111854,-0.023191174,0.043437812,0.013124871,-0.016614772,0.037454937,0.014073034,0.009645189,0.00860251,0.008962063,0.052307263,-0.021846669,0.08147284,-0.027541652,0.030963091,-0.03815685,0.13640864,0.02508301,0.027890304,0.018004326,0.07211953,0.03326089,-0.04355441,0.04808455,-0.019840123,0.023555944,-0.021446984,-0.0033097393,0.008163492,0.14669526,-0.13863675,-0.051008575,0.0016358375,-0.056845114,0.025023593,0.004574121,0.11123308,-0.011100711,-0.055781927,0.015385979,0.008319825,-0.042010248,0.079584524,0.049293138,-0.024095042,-0.043099433,-0.0808994,-0.04603012,-0.00481593,-0.075831585,0.028754085,0.01897262,-0.03999949,-0.082434885,0.048104562,0.0062547247,-0.09529369,0.019006772,-0.02798799,0.0030131734,0.049485914,0.10155375
q14,-0.045450658,-0.0023216717,0.06393912,-0.07975333,0.040736545,-0.038935002,-0.06597408,-0.05337927,-0.018345933,0.09585697,-0.10200713,0.012306179,0.0054388694,-0.0054886816,0.06136463,0.06867284,-0.004646333,0.119284324,0.006834127,-0.009522495,0.043877833,-0.011603723,0.068960056,0.0851896,0.014923552,-0.06009015,0.016185576,-0.032295473,-0.03815249,-0.011051751,0.17992504,-0.10290074,-0.015775021,-0.1266503,-0.005122916,0.064137764,0.03128115,0.03309468,0.03692612,0.044236444,-0.058008417,-0.01687588,-0.021270605,0.026087524,0.022747166,0.009056447,-0.057609856,-0.09605768,0.03940323,-0.0055356687,0.04355426,0.05373189,0.0128174545,0.09682463,-0.0063803443,0.029562818,-0.026211532,0.043707248,-0.017893555,0.011458345,0.00012436777,-0.04852971,-0.022368908,0.04073279,-0.0060849134,-0.037585635,-0.03491351,0.09357106,-0.0065600234,0.014223067,-0.020013439,-0.06306716,-0.0037544495,-0.051536776,0.098928474,-0.09826341,-0.045140974,-0.035671733,0.044424117,-0.04179719,-0.091464974,-0.09984046,0.031389393,-0.07364751,0.09380243,0.08681865,-0.043238424,0.030559722,-0.05236371,-0.06515353,-0.023473129,0.021481425,0.025904983,-0.0010867821,0.047244802,-0.047417577,-0.046998877,0.04170241,-0.0073076794,0.035419807,-0.02400617,0.116615675,-0.001000973,0.013458152,-0.044823583,-0.08828092,-0.0818575,-0.033060864,0.07220287,0.02055521,0.050015252,0.22438645,-0.03545263,0.09287178,0.025365723,-0.007825228,-0.0068412623,-0.037763365,0.04101001,0.02590706,0.06855013,0.016724678,-0.06920665,-0.005319196,-0.039299652,0.035729524,0.0616714,0.11613274,0.0009723112,0.044453733,-0.035928022,0.0048686704,-0.08399735,-0.006473003,-0.03738796,0.03172681,-0.12467125,-0.16284354,-0.018938614,-0.01758102,0.012130436,0.14841491,0.013214757,-0.09620669,-0.029375559,-0.114969134,-0.011836483,0.11707518,-0.016855787,0.13638197,-0.021070095,0.00069772097,-0.06300421,-0.045824803,0.020680128,0.04635815,-0.07519621,-0.028414074,0.016180841,0.046455737,0.0115035465,-0.017969053,-0.0016755741,0.0716527,0.02091069,-0.014545644,-0.013741978,0.055423617,0.026959812,-0.0014057879,0.026415585,0.052133653,-0.028688608,0.032237735,-0.027969135,-0.09753897,-0.0047490792,0.019761194,0.028321594,-0.00068298937,0.033800006,-0.0207348,0.0018253534,0.11312508,0.0028089734,-0.040239822,-0.0005786003,0.025769675,0.04450482,-0.12877199,-0.05914324,-0.019118754,-0.030226646,-0.018109795,0.002798001,0.042338174,-0.0653887,-0.045894273,-0.10504013,-0.1381996,-0.07876948,-0.04173873,-0.14543276,-0.014663273,-0.10221633,0.075721994,-0.026631394,-0.020582614,0.06100394,0.13684414,0.02646928,0.081086084,0.15876816,-0.0021470021,0.062304284,0.054218847,-0.03301309,0.004315691,0.047395583,-0.09548562,-0.004222059,-0.03607945,0.021713147,-0.053489856,0.014213171,0.029709414,-0.006031368,0.024167754,-0.013715118,-0.06716862,0.19178413,-0.01952041,0.0016699339,0.02020723,-0.009021487,0.02203734,-0.005558522,-0.13976726,-0.022519454,-0.043116417,-0.042916093,0.12597738,-0.024762148,0.034692626,0.03780425,-0.049098533,0.07803901,0.02107219,0.024801463,-0.038603246,-0.021170327,-0.009254964,0.026472557,-0.021000905,-0.05274075,0.07751126,0.014926842,-0.017416546,-0.029601352,0.009308068,-0.034490976,-0.027796984,0.029351722,0.046397127,0.00060479983,0.023051461,-0.10805185,0.056107122,-0.020137036,-0.05046662,-0.004796771,-0.023720691,-0.024078982,0.035423797,0.04991496,0.01719651,0.03326641,-0.05542045,0.105825044,0.08874854,0.038769357,0.07741598,0.07675021,-0.015293746,-0.11896541,0.015757812,-0.015559663,0.017361915,-0.0019582054,-0.072101966,-0.02299064,0.023394542,0.042863183,0.18291771,0.048661314,0.02073062,-0.118495576,-0.05278325,0.02982275,-0.027410874,0.05701852,0.021695187,-0.07935857,-0.009335625,0.03986266,-0.039695006,-0.05290293,0.06531034,-0.0352018,0.04144313,-0.05395715,0.05254258,-0.03586507,0.13737214,-0.0011283621,-0.048358425,-0.02436893,-0.05495465,0.01902835,0.11282456,-0.033883717,-0.012006977,0.022984058,-0.055481263,-0.016718378,0.02003204,-0.06153681,-0.013743614,-0.0028458778,-0.0040749963,0.057943583,0.0028497237,0.013202045,0.052462567,0.02242899,-0.055748075,0.084405035,0.028506711,-0.016973352,-0.06515841,-0.008543444,0.03752436,-0.0012928164,0.059391357,0.048021298,0.018458791,-0.015141439,0.07694557,-0.010458142,0.05040365,-0.006895058,0.04673411,0.015055214,-0.026011212,0.07861219,-0.0018570691,0.03907131,-0.01815121,0.11821859,0.031774722,0.009087856,0.008243147,-0.012780165,0.06954385,0.0068652304,0.0033288405,0.093367785,-0.0014567558,-0.106413364,-0.11026336,-0.12834434,0.041706417,0.05068132,-0.01813824,0.08114914,0.021967819,0.03749687,-0.02261186,-0.012272391,-0.08583092,-0.18619479,0.06741628,0.05902091,-0.0017068575,0.004532909,-0.043728672,0.04203055,0.16989838,-0.12784643,0.022143198,-0.020029038,0.013457707,0.0057375636,0.060738083,0.037952513,-0.0039902013,0.07897652,-0.082294844,-0.07385618,0.11023263,0.036203384,-0.015567803,0.012141534,-0.0017830832,0.010316879,-0.08607797,0.0044496115,-0.071236566,-0.070473224,-0.030407773,0.043554604,0.07421047,0.1110318,-0.044316646,0.0048825713,-0.075988024,0.07368437,-0.012970085,-0.07321984,-0.038511157,-0.0054964283,-0.053284317,-0.039437495,0.0024276408,-0.017665649,-0.14915873,0.02323945,-0.014257793,-0.021420375,0.020241411,0.005303133,0.04516826,-0.024328016,-0.029090934,-0.003391966,0.13033684,0.0072661876,-0.051919702,-0.056579582,-0.09288748,0.039439578,0.037415106,-0.047233656,0.0014985574,-0.0016449445,0.015222126,0.05169928,-0.06484433,0.04914827,0.038508344,0.018854562,0.06584969,-0.0011553096,-0.042682838,0.0770281,0.09113671,0.03794337,-0.01669381,0.019474935,-0.0020631424,-0.08037241,1.2138479e-05,0.012223883,-0.039084148,0.035119005,0.033112235,-0.005434795,0.12475611,-0.0489337,-0.03535449,-0.097003385,-0.032972284,-0.010514499,0.035506923,0.103473365,-0.0013343976,-0.05514575,0.026938628,-0.008494277,-0.009386003,0.10986927,0.059686277,0.035541847,-0.12468078,-0.08787526,-0.022450423,-0.05239149,-0.046514913,-0.024233954,0.015907427,-0.04116336,-0.04778054,0.041119322,-0.084616594,-0.026959475,-0.02636836,0.019697543,-0.009700996,0.12250548,0.04472638
q15,0.010231876,0.03058991,0.0155701665,-0.055382755,-0.002521637,0.009520773,-0.081937015,-0.07256939,-0.03049166,0.07694271,-0.03140528,0.05022849,0.037094116,-0.017889373,0.078274466,0.022611884,0.00011882745,0.12085031,-0.05818294,0.01247883,0.055222817,0.03474665,0.007300621,0.009401556,0.043544203,-0.05339225,-0.042833902,-0.06092837,-0.054979555,0.0055917483,0.07696593,-0.10221811,-0.0012394713,-0.046373107,-0.038994722,0.012386438,0.013874687,0.009762485,-0.057956524,0.0057838866,-0.011519305,0.0073361984,0.018146139,0.039345536,-0.013625359,0.03708359,-0.14523973,-0.012925552,0.028846378,-0.0039051492,-0.019203374,0.009934133,0.015121818,0.11858556,3.6956742e-05,-0.05834931,0.028643474,0.0594582,0.040964797,-0.07833409,-0.04933138,0.007666789,-0.0003517717,0.030417578,0.012013013,0.040233947,-0.0011414734,0.04611372,-0.009816511,0.030606613,-0.02146769,-0.032214772,-0.024937382,-0.02525388,0.026642857,-0.03260085,0.035212867,-0.01264229,-0.010292178,-0.065182656,-0.07375397,-0.050660938,-0.011671208,-0.039883867,0.059230585,0.10451518,-0.14840636,0.014774216,-0.015724275,-0.13153428,0.05513617,0.015673572,-0.02190867,0.004459977,0.059258793,-0.017783666,-0.09182931,0.012907827,-0.044019114,0.0138369575,0.012140807,0.036763124,0.05059711,-0.014677818,-0.015853282,-0.06777232,-0.07676836,-0.0029111933,-0.0006714086,0.086845756,0.016356952,0.16435418,0.013707754,0.058299664,-0.0038566038,0.0031167758,0.03606102,0.022304539,0.08299596,0.010276016,0.06542762,0.026754934,-0.07369071,0.038481176,0.022579132,0.03870531,0.03447002,0.06715595,-0.005616801,0.06108639,-0.018819556,-0.009740793,-0.069356516,0.0052049644,-0.039233513,-0.06305329,-0.04977324,-0.019903287,-0.035269253,-0.051483124,0.04030001,0.07042217,0.035257135,-0.079904154,-0.010751398,-0.14737612,-0.06564265,0.18576401,-0.013292601,0.07193864,-0.0016436167,0.014574451,-0.031735927,0.0068182023,0.009315766,0.03561426,-0.04047935,0.04280449,0.001491898,0.029064476,-0.024996879,0.018806353,-0.013692567,-0.011443326,-0.049291052,0.038952865,-0.017255962,0.07463819,0.03669843,-0.064211436,0.0032616835,0.015119063,0.01928761,0.0017553568,0.01879653,-0.023258606,-0.024837287,-0.058819704,0.022745628,-0.0020545162,0.024671588,-0.03811925,0.0041220114,0.03240323,-0.0019886885,-0.027203709,0.002998596,0.035710648,-0.025591169,-0.04696139,-0.0050095813,0.007040944,-0.001710262,-0.057679757,-0.03937086,0.016508628,-0.00077216234,-0.08088631,-0.032368258,-0.03200014,-0.06986179,0.030825596,-0.11086613,-0.039282564,-0.045450266,0.03198329,-0.03298591,0.0005503595,0.052252978,0.07458771,0.03394804,0.09289919,0.20199524,0.017943703,0.046641026,0.12952693,-0.05327461,0.043509908,0.014217857,-0.038865764,-0.022547456,-0.06356849,-0.0030965446,-0.016535642,0.03004092,-0.037755977,0.01015186,0.043302923,-0.0146064265,-0.018381938,0.0768663,0.06925985,0.061818086,-0.0009740917,-0.00075715035,0.0075587854,-0.042524196,-0.11811969,0.046961572,0.0051677935,-0.0143415965,0.06272688,-0.0072293,0.038779505,0.06293711,-0.050050296,0.032932013,-0.023595665,-0.08153792,-0.062359348,0.024729336,-0.007953923,0.10433119,0.03766054,-0.092734694,0.027860722,0.081864156,-0.0017153658,0.038023215,0.050638806,0.050243072,-0.039338052,0.023389827,0.036164932,0.012284705,0.010401227,-0.08826891,0.105930425,-0.009576868,-0.042294655,0.026047407,-0.07643779,0.00044060033,0.043208614,0.053894583,0.02571046,0.019713186,-0.026977655,0.12578881,0.047400415,0.027837519,-0.03262253,0.061135262,-0.036694214,-0.10902919,0.03494959,-0.046667054,0.012360392,0.033166736,0.012072071,-0.03911535,-0.028103866,0.0065123057,0.12734413,0.0010289159,0.052206643,-0.0644872,-0.075891726,0.010637583,-0.017260628,0.0013454361,0.024454346,-0.037186995,-0.06529704,0.02123617,0.04039525,-0.0034427121,0.056761134,-0.0049040564,-0.04647433,-0.03765608,0.02193193,-0.0003638398,0.039000183,0.041358717,-0.035193637,-0.035999943,0.011963542,-0.022019824,0.07887486,0.08210611,0.019150607,0.08102711,-0.0157166,-0.12279114,0.021215312,-0.12880531,0.026725722,0.013805365,-0.029182402,-0.0012518624,0.050749406,0.048407435,0.028927749,0.04721022,-0.030072287,-0.008703888,0.02211467,-0.04029999,0.023978624,-0.08074422,-0.0027759485,0.03210937,0.06571854,-0.05834598,0.01754636,0.0007470967,0.008296545,-0.04043533,0.070828944,-0.032433838,0.066522375,0.015596833,0.018224537,0.0066153025,0.02338666,-0.016406728,-0.055251617,0.020050798,-0.008329561,0.09196655,-0.030960068,-0.00041518733,0.028737796,-0.058545336,-0.020849919,0.09058857,0.0816046,-0.085074104,-0.0068067107,-0.05426912,-0.003791661,0.13587418,0.042991348,-0.025451096,-0.020894108,0.06205065,-0.09114228,-0.024053315,-0.098128654,-0.106723875,0.04656814,0.088048704,-0.025493596,-0.02659313,-0.0028060637,0.052029848,0.10679069,0.003153604,0.01167339,-0.053034604,-0.00020665303,-0.008105888,0.027791113,0.09534087,0.035821687,0.11798633,-0.07555601,-0.058002688,0.094571784,-0.048019413,-0.009464674,-0.046741955,-0.031482123,-0.058218967,-0.06624023,0.027765147,-0.05897931,-0.06006373,-0.069772385,-0.009432791,0.096382946,0.003623933,0.04857859,-0.06718543,-0.007121803,0.018532364,0.034898575,-0.03178866,0.016875444,-0.033774104,-0.14319867,-0.047613677,0.017217062,0.01445231,-0.046804503,0.0039991755,0.041166008,-0.024723973,0.094844334,0.09211042,0.07730261,-0.07879402,0.048542842,0.029428866,0.070128426,-0.04034584,-0.13476598,-0.06367704,-0.036325775,0.007636019,0.021163605,0.016914919,0.027506156,-0.01663116,-0.014677815,0.04117253,0.03504642,0.023719253,0.02439408,0.10309635,-0.002489511,0.04746916,-0.0036425926,0.09084289,0.0023355929,0.0035910131,-0.033123028,0.07807736,-0.0020439131,-0.082938865,-0.027139816,0.017621536,0.008628381,-0.02198575,0.008782486,0.025903635,0.120562434,-0.06398585,-0.04165019,0.029958848,-0.026365178,0.02176049,0.044125028,0.09035238,-0.024137406,-0.012724142,-0.0043478864,0.033213772,-0.05537132,0.05282989,0.06941289,0.028823495,-0.015751533,-0.0021405295,-0.075844556,0.00965371,-0.10725959,-0.036768112,-0.010491265,-0.04200338,-0.0829692,0.047426626,-0.052624926,-0.06630716,-0.022509906,-0.05830737,0.027193764,0.012882544,0.11486156
q16,-0.023201877,-0.040192902,0.06438883,0.0073889047,0.042693805,0.0064526424,-0.028315378,-0.091899104,0.0007868047,0.025948897,-0.042002615,3.9938106e-05,0.057077598,0.012983012,0.02540625,0.02738778,-0.013053798,0.050853048,-0.020020034,0.0030795708,0.10688128,-0.02262855,-0.032432616,0.09071604,0.058780134,0.0016548152,0.019587958,-0.012192321,0.005766795,-0.04925843,0.043937553,-0.014719072,-0.05815631,-0.0680842,-0.036422566,0.017513275,-0.038594853,0.028379278,0.028616093,0.07622394,-0.09229028,-0.025936294,0.0004505833,0.021252025,-0.01440387,0.06308724,-0.07204121,-0.0041093947,0.055095088,0.020601481,-0.007024184,0.006857107,-0.004276286,0.04892648,-0.027816743,-0.021041391,-0.11595472,0.04703583,-0.003343974,-0.07267733,0.0115888035,-0.04975255,-0.023928925,0.020478878,-0.004186388,-0.026882652,0.0034644983,0.06648717,0.052095614,0.023298208,-0.020996008,-0.061690386,0.014985477,-0.05126409,0.00021714601,0.034566693,-0.00752731,-0.099326424,-0.0020712896,-0.025966296,-0.010983047,0.020413307,-0.050880697,-0.02847663,0.01088818,0.09916569,0.0023488072,-0.057257168,0.005803168,0.06563821,0.009293137,-0.005469304,0.047369197,-0.05569319,0.043763142,-0.01783014,-0.062037244,-0.0148914475,-0.03290868,0.043184433,0.033307813,0.020671286,-0.00889334,0.010889902,-0.039547063,-0.05213271,-0.0349774,0.013042923,0.042297475,-0.012265732,0.052843224,0.13681713,0.04998134,0.044299133,0.033436045,-0.027914604,-0.0023677915,-0.01522203,-0.008605054,-0.03622389,0.037831873,-0.00532772,-0.072769485,-0.027858108,-0.01773955,-0.026462285,-0.014038268,0.033337634,-0.04990599,0.069543004,0.022641053,-0.01667301,-0.13708755,-0.014479271,0.01107219,0.023950284,-0.043877397,-0.023040753,-0.0044903355,0.013372302,0.032360572,0.08340968,-0.03115156,0.01673571,0.0069934507,-0.024071438,-0.07905195,0.0819703,0.0339255,0.010015645,0.07642919,-0.0065124854,-0.020886203,-0.044205192,0.008974585,-0.0089877695,-0.032827187,-0.017904542,-0.010645915,0.013781008,0.038498007,0.060850915,-0.017771346,-0.01917289,-0.032461736,-0.033899624,0.031710364,0.017867656,0.059604052,0.015610702,0.030586714,-0.02109442,-0.0054683117,0.05708899,-0.00858889,-0.121010765,-0.027292535,0.022981578,0.06463767,0.047627386,0.053353902,-0.0021583291,-0.020622533,0.00079290156,0.015335189,-0.018723283,0.047909733,0.043690987,-0.019822346,-0.041031193,0.022540104,-0.03598566,-0.023259584,0.015840644,-0.050949212,0.03555332,-0.0790995,-0.078593485,-0.06828289,-0.06301227,0.013327144,0.002407648,-0.08388098,-0.002481417,-0.05235014,0.1028287,-0.014950749,-0.063726604,0.05577031,0.03285205,0.005993773,0.02766821,0.07857065,-0.07299147,0.01676217,0.048719253,-0.0059594573,0.018623063,0.078760155,-0.09274445,-0.06674169,-0.03038115,0.018871896,0.012858299,0.061274875,0.018198388,0.033937912,-0.028158506,-0.062485393,-0.038805217,0.07462755,0.014772146,0.040395267,-0.0031466635,0.002346875,0.010502712,-0.0011735922,-0.1586512,-0.015715662,-0.0019670497,0.048625123,0.09958339,-0.01332821,0.024321575,-0.014037938,-0.02733722,0.0384655,-0.053671066,-0.015347718,0.038423106,-0.044385254,0.013013511,0.063320376,0.033734802,-0.03552102,0.04467205,-0.00069478585,-0.012034433,-0.044201925,-0.016941736,0.0300483,-0.05519028,0.014709642,0.08006312,0.028702652,0.059213538,-0.025581734,0.10134698,0.089099325,-0.06889255,-0.059454627,0.004101316,-0.0092390925,0.0059413654,0.017174851,0.0262374,0.040265847,-0.0443295,0.04724543,0.053576432,0.049624085,-0.032279167,-0.018470926,-0.008769675,-0.03447262,0.046324924,0.025302231,0.035619467,-0.02739653,-0.04795903,-0.03947401,0.012747499,0.056622013,0.1411513,0.008625446,0.026654666,-0.049249217,-0.022527343,0.08281561,0.027662763,0.057450283,-0.037496436,-0.08939455,0.08488427,-0.036777478,0.054476425,-0.045975048,0.057159554,-0.026642742,0.0005825545,-0.049624998,0.055610172,-0.040943302,0.024683027,-0.020330595,-0.05513457,-0.044009496,0.037869237,-0.018621914,0.084020086,-0.043588277,0.032076336,0.0031552715,-0.05773047,-0.08838836,0.027431061,-0.04866994,0.04880614,-0.028575378,0.006390345,-0.031565882,0.042328816,0.015549282,0.03491139,-0.007924641,-0.033571582,-0.03680937,0.055564996,-0.021794887,-0.06354354,-0.02190206,0.065398805,0.008245387,-0.004997243,0.04033753,-0.0055603506,0.034220107,-0.031059392,-0.049129706,0.042068414,0.02286013,0.059324972,-0.012220679,-0.023720289,0.027043916,0.076312184,0.007827595,-0.09368572,0.0026943998,0.034246296,0.06077686,0.00087825797,0.028241888,0.045511134,-0.0077261524,0.022743858,0.06862952,0.018260602,-0.046659037,-0.071020395,-0.0691572,0.019325688,0.04735129,0.015790774,0.023580456,0.074366964,0.016247021,0.01423063,0.084892295,-0.036981616,-0.17827521,0.06248426,0.007143808,8.121912e-05,-0.026152516,0.005883217,0.10925364,0.10813056,-0.16449508,0.009695936,-0.04459048,-0.0050759045,-0.053249344,0.072714776,-0.0019390205,-0.0072515993,0.10015851,0.03890765,-0.048511,0.0543875,-0.0271862,0.0010226591,-0.0022549697,-0.034942333,0.0074771265,-0.050043408,-0.016397825,-0.12221474,-0.046441436,-0.072407305,0.04624633,0.078219526,0.05105384,-0.025125412,0.014027119,-0.04454855,0.07094159,-0.048858207,-0.076639265,-0.010789202,-0.03395258,-0.07804017,-0.08609242,-0.01425872,-0.00063260086,-0.025493873,-0.007891096,0.04676329,0.020578565,0.0053816563,0.04102844,0.115519844,0.010789167,-0.02043072,-0.011904114,0.042628113,-0.026477322,-0.06760958,-0.07673235,-0.0141801955,0.045922935,-0.022211166,-0.03857936,0.032532163,-0.020863382,0.0020317829,0.005797702,0.042996094,0.09318126,0.06314693,0.0683291,-0.007108294,-0.021873422,0.040864836,0.018181423,-0.02523396,0.06539962,0.03182203,-0.035790555,-0.016154455,0.0055726185,0.035730194,0.009046517,0.0051988936,0.018412061,0.00466592,-0.041389275,0.031575967,-0.07293157,-0.0048931553,0.0060883914,-0.031525776,0.038475495,0.018288594,0.05910103,-0.018063206,0.019901874,0.019527467,-0.0153521625,-0.012650789,0.014946953,0.065939546,0.047898777,-0.057170015,0.04067458,0.0040658345,-0.040544286,-0.05616543,-0.02759723,0.016003244,-0.03258327,-0.051362403,0.01747226,-0.053562734,-0.071865916,-0.014465483,0.03286188,-0.016763352,0.03919438,0.11024705
