question-id,0,1,2,3,4,5,6,7,8,9,10,11,12,13,14,15,16,17,18,19,20,21,22,23,24,25,26,27,28,29,30,31,32,33,34,35,36,37,38,39,40,41,42,43,44,45,46,47,48,49,50,51,52,53,54,55,56,57,58,59,60,61,62,63,64,65,66,67,68,69,70,71,72,73,74,75,76,77,78,79,80,81,82,83,84,85,86,87,88,89,90,91,92,93,94,95,96,97,98,99,100,101,102,103,104,105,106,107,108,109,110,111,112,113,114,115,116,117,118,119,120,121,122,123,124,125,126,127,128,129,130,131,132,133,134,135,136,137,138,139,140,141,142,143,144,145,146,147,148,149,150,151,152,153,154,155,156,157,158,159,160,161,162,163,164,165,166,167,168,169,170,171,172,173,174,175,176,177,178,179,180,181,182,183,184,185,186,187,188,189,190,191,192,193,194,195,196,197,198,199,200,201,202,203,204,205,206,207,208,209,210,211,212,213,214,215,216,217,218,219,220,221,222,223,224,225,226,227,228,229,230,231,232,233,234,235,236,237,238,239,240,241,242,243,244,245,246,247,248,249,250,251,252,253,254,255,256,257,258,259,260,261,262,263,264,265,266,267,268,269,270,271,272,273,274,275,276,277,278,279,280,281,282,283,284,285,286,287,288,289,290,291,292,293,294,295,296,297,298,299,300,301,302,303,304,305,306,307,308,309,310,311,312,313,314,315,316,317,318,319,320,321,322,323,324,325,326,327,328,329,330,331,332,333,334,335,336,337,338,339,340,341,342,343,344,345,346,347,348,349,350,351,352,353,354,355,356,357,358,359,360,361,362,363,364,365,366,367,368,369,370,371,372,373,374,375,376,377,378,379,380,381,382,383,384,385,386,387,388,389,390,391,392,393,394,395,396,397,398,399,400,401,402,403,404,405,406,407,408,409,410,411,412,413,414,415,416,417,418,419,420,421,422,423,424,425,426,427,428,429,430,431,432,433,434,435,436,437,438,439,440,441,442,443,444,445,446,447,448,449,450,451,452,453,454,455,456,457,458,459,460,461,462,463,464,465,466,467,468,469,470,471,472,473,474,475,476,477,478,479,480,481,482,483,484,485,486,487,488,489,490,491,492,493,494,495,496,497,498,499,500,501,502,503,504,505,506,507,508,509,510,511,512,513,514,515,516,517,518,519,520,521,522,523,524,525,526,527,528,529,530,531,532,533,534,535,536,537,538,539,540,541,542,543,544,545,546,547,548,549,550,551,552,553,554,555,556,557,558,559,560,561,562,563,564,565,566,567,568,569,570,571,572,573,574,575,576,577,578,579,580,581,582,583,584,585,586,587,588,589,590,591,592,593,594,595,596,597,598,599,600,601,602,603,604,605,606,607,608,609,610,611,612,613,614,615,616,617,618,619,620,621,622,623,624,625,626,627,628,629,630,631,632,633,634,635,636,637,638,639,640,641,642,643,644,645,646,647,648,649,650,651,652,653,654,655,656,657,658,659,660,661,662,663,664,665,666,667,668,669,670,671,672,673,674,675,676,677,678,679,680,681,682,683,684,685,686,687,688,689,690,691,692,693,694,695,696,697,698,699,700,701,702,703,704,705,706,707,708,709,710,711,712,713,714,715,716,717,718,719,720,721,722,723,724,725,726,727,728,729,730,731,732,733,734,735,736,737,738,739,740,741,742,743,744,745,746,747,748,749,750,751,752,753,754,755,756,757,758,759,760,761,762,763,764,765,766,767,768,769,770,771,772,773,774,775,776,777,778,779,780,781,782,783,784,785,786,787,788,789,790,791,792,793,794,795,796,797,798,799,800,801,802,803,804,805,806,807,808,809,810,811,812,813,814,815,816,817,818,819,820,821,822,823,824,825,826,827,828,829,830,831,832,833,834,835,836,837,838,839,840,841,842,843,844,845,846,847,848,849,850,851,852,853,854,855,856,857,858,859,860,861,862,863,864,865,866,867,868,869,870,871,872,873,874,875,876,877,878,879,880,881,882,883,884,885,886,887,888,889,890,891,892,893,894,895,896,897,898,899,900,901,902,903,904,905,906,907,908,909,910,911,912,913,914,915,916,917,918,919,920,921,922,923,924,925,926,927,928,929,930,931,932,933,934,935,936,937,938,939,940,941,942,943,944,945,946,947,948,949,950,951,952,953,954,955,956,957,958,959,960,961,962,963,964,965,966,967,968,969,970,971,972,973,974,975,976,977,978,979,980,981,982,983,984,985,986,987,988,989,990,991,992,993,994,995,996,997,998,999,1000,1001,1002,1003,1004,1005,1006,1007,1008,1009,1010,1011,1012,1013,1014,1015,1016,1017,1018,1019,1020,1021,1022,1023
q1,-0.6242762,0.67516136,0.08940322,-0.42881408,0.1642154,-0.84956455,0.46287733,0.61877954,0.2890883,-0.124276854,-0.9136463,0.92608935,0.30573368,0.98368055,-0.7578831,-1.0835973,-0.23240168,0.039618485,-1.1185228,-0.3528799,0.19926289,-0.60001326,-0.17994006,1.2879366,0.47108927,-0.20091546,-0.7964062,-0.3091971,0.515478,-0.7294073,-1.7395717,1.48976,-0.18368609,-0.6069671,-1.4190514,-0.85034615,0.25664213,-0.7525433,0.14629564,1.6258649,-0.04879085,1.5188953,-0.5383191,-1.4463943,-0.91271454,-0.3548715,-0.66865027,0.19763859,-0.37274203,-0.46392912,0.45472163,-1.2312397,-0.6916937,-0.6737593,-1.8999043,0.70420885,-0.89070576,1.580177,-0.9243781,0.38636425,-1.2977247,0.26594132,-0.95216906,0.04856452,-1.309606,0.3459839,-0.35869822,0.28837723,-0.21275188,0.13730691,0.97951823,0.6116108,0.45501885,0.35197857,0.7404669,-1.7126082,0.32422143,-0.33217454,-0.39958873,0.4907109,-0.5229246,-1.2815936,0.59077895,0.4070641,-1.4268799,-1.5669192,-0.77954155,0.844501,0.4178804,-0.552161,0.35977387,-0.50595105,0.28818646,0.023047563,-0.3264856,-0.9539585,0.15067926,-0.85074615,-0.6153901,0.17847817,-0.7165146,0.4974285,-0.876111,0.11345435,0.6994529,-0.11409951,-0.8735582,-1.6955234,0.63268834,0.622096,1.3614672,-1.3817673,0.2875414,0.55945116,0.18347262,-0.38621172,-0.20929025,-0.74794817,-0.18176937,0.96371514,-0.35984635,0.25372577,-0.18338044,-0.39210123,-0.117389835,0.8780276,-0.16113994,-1.3544449,-0.1782122,-2.2094305,-0.26843217,-1.2583485,-0.2173374,0.54416955,0.23910697,-0.035356436,0.69259053,0.35563406,-0.37871566,-0.9513396,-0.5387667,0.39873123,1.4676853,0.9974576,0.5839756,-0.18801497,0.9464362,0.069544084,-0.2257986,-0.7620362,0.43802935,-1.8930649,-0.45741582,0.7089716,-0.12797925,0.65350443,0.6259452,-0.65566874,-0.60391605,-0.4534492,-1.5112816,-0.886992,-0.49786946,1.4453486,-0.2876323,0.33114633,0.424443,0.46324348,0.7587376,1.2170722,1.1143765,1.7166795,-0.48929277,0.7766677,-0.78078824,-1.5349044,0.8176257,0.46125937,-0.95320684,-0.104811646,1.2395926,-1.8071969,1.3504794,-0.14580692,0.46577168,-2.1580179,-0.6354843,0.15884903,-0.62939405,0.45391846,0.5556537,-2.1735635,-0.030279012,0.17396538,-0.07641755,0.3815522,0.09364953,0.411546,0.81287545,-0.92665005,-1.5481478,0.40248653,-1.3871042,1.5980676,0.25311515,-0.115867004,0.9120593,-0.2835308,0.2643213,-0.5046982,0.6253923,0.9086526,-1.182372,-0.05320206,-0.011999084,0.31606054,-1.0801347,0.49397096,-0.5779465,-0.039325718,-0.38621813,0.25940162,-0.041469734,0.08575838,1.2932373,-0.29061317,0.5060734,-2.039473,0.8855306,0.25590667,0.98393965,-0.9476509,0.28969124,-1.948168,1.209541,0.3812501,-0.31266573,0.78199565,1.0889252,0.68235207,-0.12743305,-0.34505662,0.10111981,-0.50153285,0.83277255,1.8461443,-0.8102387,0.16256216,-1.3607057,-0.048419897,0.2557991,0.7806197,-0.40990263,2.1417851,0.0008101293,0.51781183,-0.27365372,-0.11854712,-0.703259,-0.8767491,-0.012048359,-0.29976195,0.9331109,0.488448,0.33232433,0.9804707,-0.16220169,-1.2813358,0.1615939,0.106251374,0.4069355,0.08222978,-1.1435378,-0.114296176,-0.6498657,0.1834959,-1.0221577,-0.50169843,0.2282038,1.491782,1.4771899,0.6692487,-0.30591807,0.5483483,-0.91314846,-1.3385077,-0.7925622,0.19308738,-1.2880338,0.09256916,-1.3963764,-0.51412094,-1.3691729,0.5531301,-0.9791911,-0.037278228,0.03971831,0.159753,0.18284692,0.87409,0.47370952,0.09106153,-0.5725991,-0.28154022,-0.34009075,-0.13381073,0.1456,0.38290402,0.96762425,0.59955734,-0.3637932,-0.44105864,-0.6892544,0.6863159,-0.45229605,-1.5753554,0.7105209,-0.19800237,0.39776036,-1.1257784,-0.8766684,-1.555928,1.0243099,0.40263867,-1.3086554,-0.3432842,-1.0306083,1.5039011,-0.6794561,1.3259754,-0.68976706,-0.78635776,0.30097747,-0.22498451,0.9809162,0.5381568,-0.8415713,-1.2874826,0.276434,-0.90641063,1.4838266,0.71114194,0.3950839,0.06713777,-0.19764838,-0.6229218,0.41252437,-0.2399663,0.11752923,0.45611253,0.850278,0.06510973,-0.0074112415,1.9654446,-0.8780398,-0.07573445,-0.5361327,-1.6521307,-0.30880946,-0.4151807,-0.73786896,0.60853297,-1.7944355,1.2238942,-0.4711439,0.70351404,0.9973955,0.057904053,-0.07625556,1.2200958,0.6409753,-0.2490138,0.21867384,-0.5305353,-1.7874098,-0.4125375,1.3545939,1.2777443,1.502168,1.4673727,-0.63966644,0.07114123,-0.47223255,0.19140318,-0.37548217,1.3116668,0.83058876,1.0052458,-0.36219168,-0.6708574,1.3612489,-0.47552344,0.10712879,0.38275513,-0.98821056,-0.28428024,1.1208904,-1.2843306,-1.3947994,-0.90178436,0.9380149,0.57851017,1.3911359,2.1426654,0.5426001,1.295076,-1.0887855,-1.2829727,-1.6557949,0.971716,-0.5034292,0.34269923,0.3189683,-0.34728283,1.1819239,-0.6180441,-0.50293356,-0.9660106,-1.1926813,-1.521199,0.75475943,-0.3661113,-1.3887732,-0.1267385,1.0575176,0.4625465,-0.4269238,2.574804,-0.70037115,0.3359001,-0.86860436,-0.35530457,0.34079176,-0.17851512,-0.3789579,0.5382003,-0.9519318,0.6776205,1.1206859,-0.5675558,-1.3898532,-0.049820416,1.4926339,1.2127686,-0.43021306,0.6424841,-0.31829277,0.2394731,-0.23264094,-0.88226795,0.7999061,0.298835,-1.7067341,-1.2216628,-0.45829135,-0.16884156,0.5436872,-0.15429616,1.2038175,0.1626915,0.35960642,0.36504263,0.39878187,-0.048559517,1.6644859,-0.49019822,0.23354647,-0.8377654,0.7229895,0.9187973,-0.19297414,0.26533762,0.23805264,0.83668584,-0.7920057,-0.5590781,0.2850749,-1.0119802,0.5949432,-0.55076426,0.4409016,0.5186645,-0.6444565,1.7438968,-0.09457321,1.0448796,-0.6726284,0.14376739,-0.47016904,1.5159057,-0.42396328,-0.44026494,-1.1827899,0.3942378,0.9396237,0.13673173,-0.7466518,-0.026832636,1.2880155,1.2238888,-0.14277562,0.8418037,-0.32745448,-0.0155162485,0.37721997,0.6533435,-2.3168435,0.4166624,-2.33938,0.5576571,-3.1106203,-0.5346368,1.3438492,-1.0179869,-0.24459426,-1.3134997,-0.43806887,-1.2360322,-0.10959261,0.52510417,0.21069841,-0.101726905,-0.88942444,-1.4132358,-0.7675491,-0.7144442,-0.88121974,0.07982103,-1.0873405,0.5823218,-0.5806104,0.47744036,-0.47272116,0.35844308,-0.38111165,0.10301645,0.28546077,0.25293186,-1.4599235,1.0164616,-0.4896402,1.1579207,-0.11483059,1.1029145,1.6829387,-0.15798771,1.7609123,1.025822,-0.004823991,-0.7276658,0.5667849,0.91048706,1.6101735,0.33148828,1.1180526,-1.9039409,-1.9163767,-0.51768,0.24148253,-0.7422222,0.73028725,0.189151,-0.62720627,-0.0744675,-0.08541057,-1.4136554,-0.2650668,0.53959805,0.009849588,0.860616,-0.25663146,0.3268091,1.1256771,0.27252847,-0.44074273,-0.51646644,-0.005921083,-1.2131029,1.7811134,-0.6373225,-1.0848546,-1.2222087,0.09523333,1.0433251,0.044168115,1.1388371,0.7381037,0.7434286,0.50319606,-1.7418251,0.19826508,0.30945167,-0.31738427,0.03212853,0.8646158,-0.73389786,-0.44748822,-0.65034115,0.72071964,-0.2246137,0.42453143,0.46897393,0.51735,0.30159715,0.34983894,-0.04088815,-0.00100731,-0.5760152,0.065229036,0.91843575,-0.39853287,-0.41787472,-0.90800816,-0.819553,-0.8330315,0.6013713,1.1870404,1.1550986,0.5313211,0.2720829,1.133297,0.89799696,-1.8758763,0.7700469,0.5351014,0.5184804,0.5225774,-0.93557346,-0.36594826,0.04408673,0.73178643,0.51158875,0.10707174,-0.7746214,-0.075334124,-0.41682816,-0.16627721,0.6790904,0.3900506,1.3694752,0.77281076,-0.22359781,0.5126655,-0.017481506,-0.09334203,0.0030735475,-1.2964541,-1.1477768,0.047756225,-0.6916589,-0.07038262,0.21613464,-0.062214408,-0.28471342,-1.1494305,-0.24727678,0.48279762,0.396142,0.1534475,1.4236984,0.43762013,0.08010984,0.18786237,-0.5567063,0.4628512,0.4961839,-0.33033887,0.2100391,0.6293394,0.7067823,-0.10116538,0.5863063,-0.31247455,0.116149075,0.70473754,-0.054399338,0.81861466,1.2352588,-1.7062279,-1.1511688,-0.98799527,-0.25550932,-0.13654624,-0.110734284,0.08559786,1.3984367,0.44925353,0.94684595,-0.18516462,0.42900464,-0.035511468,-1.08625,-0.10444023,0.5305946,1.2085782,-0.28953186,-0.861843,0.3231373,-0.8858647,0.08181902,-0.09254796,-1.148525,-0.2989626,0.869607,-0.68339014,0.49868613,-0.08529674,-0.5603048,0.40558973,-0.062077872,0.2709318,0.41378638,0.27556044,0.461263,-1.0834934,1.7346088,1.2793872,-0.75618213,-0.08354939,0.33480495,-0.034865633,-0.1706424,1.280926,0.14201106,0.41996828,1.1136128,-0.6181942,-0.17561693,0.302709,-1.1694592,1.3434309,-0.7736458,-1.7547588,0.069608815,0.5987741,0.1422066,-0.02601692,0.038393266,-0.5606275,-0.40580058,-0.55921924,1.249318,0.07442645,0.85581076,-0.9931401,0.5040004,-0.8827136,0.6861719,-1.3931587,-0.6310927,-0.6584762,0.9158686,0.5345102,0.2172794,0.6555802,-0.2760076,-0.015403599,-1.476243,-0.48985606,-0.80797184,-0.81676346,0.029589513,1.2564924,-0.28491125,0.25006783,-0.4694292,-0.58261335,0.32383457,-0.42445633,1.2669715,0.20626958,-1.4396474,-0.03558505,0.7924457,1.1157653,0.04743601,0.21100743,-0.5523307,0.35936135,-0.5649237,-0.15802284,-0.65254587,0.368033,0.28179708,0.99663454,-1.6059179,0.5680048,-0.880325,-0.7851993,0.92812175,-0.34159225,-1.3816267,0.7445957,-0.10229874,-0.17599604,-0.40226302,-0.8026472,-0.6776803,-0.4324294,-0.92167705,-0.56775826,-0.15499859,-0.9845523,-0.16419528,-0.9961938,-0.20926274,0.039782397,-0.49374717,-0.6865059,-0.9136591,1.3999339,-2.4709756,-0.38493946,-0.059162226,0.222326,-1.1299788,-1.3757101,1.2728738,1.3550504,0.25800154,0.5467934,0.7873974,-0.3299175,-0.67786586,0.37704092,-1.1761645,-0.14048703,-0.99165916,0.22749467,-1.6372974,1.6330029,-0.032541092,-0.15654537,0.1358182,0.7473958,-0.6519372,-0.08352361,-0.5391009,0.15352528,-0.2854236,0.44612035,0.2022637,0.43212816,0.5371968,0.805112,0.52216905,-0.71126235,-0.59579426,-0.21096466,-0.87265205,-0.09822296,0.24323514,-0.8607,-1.7030065,0.08308123,0.87960404,-1.218626,0.58324796,-0.42442784,0.81766826,0.57663864,0.14672026,0.87605387,1.1985162,0.43494907,-1.2225612,-0.29400572,-0.40590456,0.06536468,0.6457151,0.9531829,-0.002121706,0.4031197,0.4348526,0.3826045,1.4973539,0.25263542,-1.2069575,0.18581006,-0.7738013,-0.01588492,-1.0675937,-0.65189475,1.4900216,-0.5640689,0.98566693,1.1758068,0.3017593,0.39339638,-0.17869543,0.18816566,0.6359895,-0.022358151,-0.36354545,-1.7317234,0.63185966,-1.5277375,-0.3066148,1.6251786,-0.25608885,-0.5537924,1.6343535,-0.05589578,-0.35759088,-0.17415415,-1.5296546,0.4541827,0.00709636,-0.67000926,0.09879152,-0.17400815,-0.9128617,0.5125575,0.4771313,1.3937865,-1.0470302,-0.5629266,1.0688322,-1.226911,1.0324618,-1.2326243,-0.6150484,0.66284174,0.24702314,0.36949775,-1.6087962,0.95347613,0.41298208,-0.12442313,1.9123148,0.8798655,-1.5012263,-0.122334056,-0.6864194,-1.1798193,-0.14067693,-0.08801055,0.41942215,-0.7686973,-0.014489159,-0.22388256,-0.7675685,1.3893865,-0.7502306,-1.3280417,1.2684087,-0.6922921,0.09091754,0.3656027,-0.29832396,0.6380075,-0.12403452,1.8553997,-0.83930844,1.137564,0.39657742,0.47793022,-0.008063896,-0.86181587,-0.49133223,-0.37763214,1.3124046,0.42577192,-0.13810778,-1.243158,0.8945635,-0.21884842,-0.32371682,-0.6465455,-0.8273608,-0.17437449,-1.2369499,-1.1141709,-0.47555488,-1.4706957,-1.5602978,-1.4506897,-0.38406673,-0.105377726,0.99492866,-1.1968259,-0.49403325,0.22592856,0.87033045,0.14067166,1.2766483,2.6049488,0.5863509,0.5775445,0.6959434,-0.32599655,-1.0747212,0.69327337,-0.20663813,0.544578,-0.60738087,0.575996,-0.33229688,-0.048291296,0.27577913,0.45956656,-0.6861947,-1.4760071,-0.75819063,0.68507177,0.19264725,-0.6189685,0.23511222,0.43200594,0.41152358,0.7602201,-0.82423586,-0.4931894,1.2797911,0.5544591,0.3085484,0.899438,0.08681073,-0.2723276,0.12391635,0.2946221,-0.17870161,-1.183636,0.74281883
q2,-0.42811903,0.18011925,-0.34861782,0.2356595,0.25641656,-0.641839,-0.588082,0.1532501,-0.9474203,0.08700444,-0.81464005,1.9390532,-1.4255922,-0.08876862,0.1300803,-0.27661917,-0.61400694,-0.5319806,0.07829748,0.13784443,-1.0416318,-0.22274545,-0.823914,-0.092987165,-0.3906631,0.13649495,0.36832193,0.29827768,-0.126661,-1.8586363,-0.13510731,-0.19546239,-0.4556482,-0.09193336,-0.63326514,-0.33479056,-0.3420558,0.28594822,-1.2342275,-0.033568416,-1.0859601,0.5955443,0.14968178,-1.0459517,0.45847812,-0.82809895,-0.34295756,0.60759693,-0.23537645,1.0440547,-0.6292113,-0.9210824,0.21306862,0.091036424,-0.8265305,0.73051864,0.62839633,0.25710726,-0.40843526,1.5767378,-0.76411337,0.7148952,-0.9482388,-0.31587192,1.2032789,-1.3929523,0.26792496,0.21760656,0.50841415,-1.4135085,-0.0037264398,1.0199696,-2.0644424,-0.57952595,1.3134514,0.015152855,-0.4110945,0.49811915,-0.33991522,-0.3161474,-0.878152,-1.4581068,0.02071417,1.2990913,-1.0866972,-1.3718386,-1.013635,0.47527257,0.018528849,-0.4547394,0.9154385,0.4792231,-2.3071263,-0.26238483,0.8447301,-0.17241918,2.2113922,-0.6762915,-0.9445311,0.7747451,-0.118198104,-0.4132338,-1.0432914,-0.53654176,0.010135944,-0.6064765,-1.4871728,0.08280424,-0.907834,-0.12702344,-0.15678993,-0.28641286,-0.0590931,1.008841,0.49248362,-0.87806934,0.38032833,0.084867336,0.88904566,-0.45763335,-0.10434421,-2.249922,-0.9472884,-0.36338657,0.21415438,0.71907574,0.015030963,-1.1552945,0.35265094,-0.4894962,-0.07444954,-1.0994775,0.46013218,0.77432454,0.51219004,-1.9244082,0.050543148,1.3355504,-0.8970951,-1.4830892,-0.7220623,-0.21319784,0.13239199,0.8458315,0.4642727,-0.95558137,2.0375285,0.08631485,-0.86437935,-0.46592996,-0.8656874,0.05445868,-0.86837345,0.21380842,-0.6487654,0.85853595,-1.3213698,0.56261384,0.81158686,0.42960042,-0.5256298,1.7585658,1.71776,0.10926133,-0.15032126,-1.5285969,0.7001499,0.21471033,-0.71053594,-0.60893995,1.2568219,0.23408519,0.92285883,1.8064175,0.26902106,-0.31354505,0.5152198,-1.6850253,0.17754905,0.3298803,-0.33263084,1.1391757,-1.0419005,-0.5485567,-0.08580855,0.5794405,-1.1342039,0.38547134,0.07154966,1.3934937,0.47283962,0.45337614,1.2183324,-0.4663991,0.8173634,-0.7464229,-0.45155424,0.82252586,0.3388516,1.1859357,-0.8391202,0.2205772,-1.3009428,-0.5808978,-0.78467554,1.2569015,0.38350302,0.025807945,0.49928015,-0.124906644,-0.3539641,2.0568328,0.6102592,0.11086627,1.4188168,-0.5720725,0.10860014,0.01861067,0.3397829,-0.09378558,1.5907246,-0.03416597,1.4388374,0.59709215,0.2215214,-0.22301276,0.42973867,-1.2478245,0.10792514,0.1880702,-1.1334333,-1.8237352,-0.40099612,-1.3395427,0.9919204,-1.9299536,1.8033596,-1.0578966,-0.7136715,1.393648,-0.27799657,-0.41415098,-1.172311,-0.3696547,-1.9138662,-0.54822385,-1.6220917,-0.3234022,-0.44840455,0.4051605,-0.37248197,-0.7094684,0.81128883,0.84566784,-0.38390923,-0.4855225,-0.58929306,0.76618844,-0.70446366,-1.0717348,-0.0019146545,-0.7509993,0.059424106,-0.13209005,1.0876232,1.8361986,-0.29298112,1.2771728,-0.28687495,-0.5521329,0.31764317,-0.99572045,0.48994192,0.21599697,-0.87687427,0.49166447,2.0297227,0.739934,1.7878934,1.2843778,1.6913261,0.018658562,-1.4087602,-1.3639114,0.31462008,-1.3935093,0.55220884,-0.83969796,-1.1800296,0.5390344,-0.07781688,0.6434254,-1.55867,0.27440277,-0.83400327,0.04643444,-1.4787015,-0.7264253,0.038112964,2.638467,-0.08956319,0.41922712,0.67656946,-0.92105496,0.59323406,-0.8665015,-0.3742246,-0.84779674,0.5827139,1.5878378,0.43593994,0.5164179,1.5428393,1.143998,-0.4519777,0.034237083,-0.030570354,1.0470413,0.68830746,1.8784459,0.23251967,-0.038010776,-1.0833323,-0.1277308,0.51790553,-0.65869635,-0.35532948,0.030067129,-0.4225158,0.7565426,-0.4560725,-0.5909909,-0.53764075,-0.32057032,-1.0635792,-0.5684691,-0.17142446,-0.42137188,-0.95917946,-0.44051427,-0.11820208,0.26408905,0.5419165,-1.9162538,-1.6262273,-0.8533517,1.1727352,-0.6795777,0.5485078,-0.8982776,0.39907917,-1.2846187,0.49111277,0.7720943,0.58063316,1.1100456,0.9457689,0.3063483,-0.15950559,0.024745638,-0.973107,0.42932716,-1.804797,-0.49817783,-0.5021863,-0.7064379,-0.5001079,-0.30359706,1.1732922,0.5210749,-0.006348529,1.687474,-0.4562657,0.8275653,-1.1431867,-0.04740661,1.2495537,0.8764957,1.3334005,0.4515734,0.9353708,0.4787007,-1.2006094,-0.8497891,0.44608757,1.8292675,1.8156008,0.397295,-0.03776433,0.70072734,-0.16499634,-0.28958267,0.17959763,0.36509424,-0.30552688,0.52117944,0.87850696,0.13971435,-1.3476034,-0.28229043,2.315418,-0.877852,0.23180053,2.132372,0.04321974,-1.3691763,-0.66065234,-1.0715702,-1.1117829,-0.21758835,-1.1362985,0.06059879,0.56550676,-0.8534606,-0.49840266,0.36682087,-0.70501506,-0.8476816,-1.561802,0.072964154,-0.12732314,0.7476578,-1.0610255,-1.6167115,-0.24962397,0.31346035,0.71428144,-0.15796211,0.16639486,1.0865343,0.3052344,-0.11490516,-0.091970876,-1.2702816,0.7732119,0.7890029,-0.2074741,0.5515203,0.032141723,-0.53007954,0.61474913,0.37943664,0.27899012,0.01285275,-1.0189959,0.68908185,-0.48967567,-0.04161587,-0.2959614,-0.5559323,-0.4579906,-0.02442815,-0.65292937,-1.1044018,1.0868303,-0.22318919,-0.6851177,-0.3049483,1.6149441,-0.017797517,0.47037134,-0.31451938,-0.38233542,-0.36468887,0.88107103,-0.5164704,1.039624,0.0984918,2.163433,0.5843416,0.47737235,-0.63632876,-0.82701766,-0.55860794,0.6973448,-0.7408229,0.47622028,0.09731824,0.49612448,1.0602528,0.4188003,0.080951884,-0.90326774,0.42616385,-0.6768285,-0.96611553,-1.3319308,-1.054464,0.5494479,1.107199,-0.39495024,-0.29847106,-0.35649222,1.899427,0.80957127,0.049453594,-0.40737706,-0.026776254,0.8181268,0.68564796,-0.84633094,0.7967166,0.27312937,-0.54660195,-0.52736986,-0.686388,0.49089998,-0.5844405,-1.3387629,-1.1332022,-0.2617406,-0.21293037,-0.6786658,-0.76058996,-0.19257872,-0.2531134,0.7246309,-0.030009871,0.26799685,1.1152203,0.12369252,-0.38716355,0.901281,-0.953478,-1.1710778,-0.27620938,-0.013095298,1.1588967,-1.8489419,-0.41314688,-0.07708788,0.12431228,-1.0944685,0.18009317,-1.0181779,0.5674959,-0.38685697,-0.029252717,-0.77850485,1.082884,-0.08953913,0.40146694,-1.3632591,-0.102050185,0.19690979,-1.1922548,0.93961,-0.06655044,-1.361761,0.07463956,-0.54554045,0.005729484,1.1521477,-1.4597334,0.6334554,0.014184185,-0.72356254,-0.44116226,1.6709964,-0.068849675,0.45845208,-0.64633185,-0.6698399,-0.025279203,1.6529621,-0.75967014,-0.28966746,-0.46713287,0.42662612,1.3317438,0.03689443,-1.3017161,1.0357194,-1.2494515,0.4384239,-1.275177,-0.58595514,0.7405281,-0.22226836,1.3047698,-1.050674,-0.7406556,-1.0521886,0.38927197,-0.9235287,0.14065954,-0.7094377,-0.1441495,-0.4496447,-0.6167645,0.5042669,-1.1915233,-0.3759798,0.6260193,0.3784452,-0.15642503,-0.3797607,-0.26132387,-0.14244261,0.22143778,-0.8401752,0.55665475,0.78722537,-1.2745856,1.485548,0.8310565,0.8572389,-0.092939734,0.07343998,1.416124,0.6380271,-1.9836988,-0.23039368,0.21018672,-0.12553394,1.2455451,0.91661185,-0.22395195,0.38332742,0.18926625,0.6223261,0.033864725,-0.22957791,0.34912702,-0.9889197,2.3768754,1.6176108,-0.5733985,-0.24883299,-0.72980565,0.33666867,0.71432495,-0.25564077,-1.2497915,0.094072945,-1.2272211,-0.2848044,0.89606255,3.4710143,0.23557411,-0.24329495,-0.7939791,0.5210803,-1.5370244,0.13935652,0.15488091,-0.27340946,0.29258865,-0.14997765,-1.3959026,1.5594606,0.19713971,-1.9321553,-0.89342684,-0.37423828,0.6426613,-1.182436,0.61620253,-0.0045486176,0.56867033,0.24789853,-1.2263439,1.8067617,-0.7932739,0.053102847,-0.536404,0.392655,0.7224797,0.9138235,0.788767,-0.041213725,0.860343,0.4054617,0.044825964,0.33549288,0.14458837,0.24528679,-0.61693734,0.44390637,-1.9013778,-0.6515056,-0.46545252,-1.2507727,0.12277051,-0.14607273,0.6312456,0.20904127,1.2561455,0.66854125,-0.69486684,0.14804454,-0.31908205,-0.21528026,-0.59280413,1.0946323,0.6870199,-1.878935,0.5957554,-0.45304182,1.8933284,0.38653594,-0.38303915,1.0683254,-0.7461936,-1.1023891,0.442304,0.24374862,1.258055,0.01571637,-0.219975,-0.89501375,0.8938127,0.9858094,1.7205331,-0.60867447,-0.5771714,-0.14854491,0.16146372,0.63729155,1.0257871,-0.9974717,-1.1774169,0.17933796,1.5219482,-0.08664644,1.0631422,1.6284873,-0.23360893,1.2255412,-0.38163683,0.4649503,0.8202208,-0.38614985,0.01998548,0.35739437,-1.647983,-0.4127248,-1.0853841,-0.60926825,0.7228564,-0.74827594,0.29016742,-0.08057921,-0.27305683,-1.1376065,1.0230507,-0.10983322,-0.45890442,0.4094039,-1.1774789,-1.027949,-0.7808632,0.6175532,0.3933722,-1.2219278,0.6475821,0.42406777,-0.5658926,1.0907867,-0.1410769,-1.0444946,0.5209439,-0.824377,0.68437797,-0.2188297,1.5772527,-0.6009792,-1.5913457,-0.03268679,1.5075852,-1.5358868,-0.15007496,0.024878561,-1.1449955,-0.77981627,-0.5915479,-1.5583807,0.12938733,-1.2411081,1.2814105,0.42879462,1.5198252,0.3310165,0.20037378,1.6150469,0.5670354,0.12960385,-0.021491706,0.32740268,0.58116996,0.37063187,-0.47801846,0.6564861,-0.34302115,-0.8344932,-0.6547794,-0.13772082,0.33234078,0.003355929,-0.47276005,0.038945112,0.79230225,-0.99016345,0.3154183,-0.002911704,0.38885096,-0.098904856,-0.73055214,-1.2362412,0.07218296,1.0906265,-0.015187983,-0.5214207,-1.2782309,-0.9417216,-0.69791216,-0.56629074,0.15510342,1.3210362,0.7732323,-0.8168979,0.21766517,-1.3188733,0.29125848,0.42467594,0.034926664,0.031529013,-0.058280736,0.30076963,-0.20749974,1.1173095,0.4446579,0.012856939,0.20518534,-0.1643059,-2.5880198,-1.538443,-0.047025703,1.197904,-0.063774966,1.3402607,0.061149027,0.9654792,-1.6399784,-1.3110743,0.9031274,-0.66242474,-1.5003207,-0.70529133,-1.0808958,0.73008007,0.24351385,-0.29110065,-0.2063009,-1.6127293,0.29143554,-1.3642346,-1.2841188,-0.3634181,0.61161214,0.50775146,1.0985022,0.3436153,1.3928764,-0.5531627,0.29972032,-0.32664257,-0.43957493,0.25010312,1.3456728,-0.35445616,-0.3092844,0.27287918,1.0446091,1.1603624,0.5477022,0.7515821,-0.39020202,-0.282762,0.30125576,0.8993481,1.2894499,-0.35365817,1.4147596,-0.19336101,0.22692752,-0.6857768,-0.90396106,0.14265735,-0.7421199,-0.1966833,1.0928266,-0.5320407,0.9830936,0.59779423,1.128889,-0.268168,-0.28876337,0.42080054,0.28681308,0.18970929,-0.32249227,0.22334807,1.0676489,-1.1270785,-0.67779684,-2.3192234,0.8690621,-0.19834793,0.20756926,0.07004044,-1.2959328,-0.70799726,-1.107248,0.52013636,-1.1074907,0.45728627,0.9528715,0.06602172,0.14238453,-1.0736498,-0.60423005,-0.5022967,-0.5839427,-0.905853,-0.11383278,1.5237044,0.8994465,0.49990496,-0.5122414,0.5023731,0.08091266,-0.6317982,0.48947573,0.56047726,-1.9487493,-0.022291189,0.26639575,-1.4679826,-0.282553,1.2294273,0.9285444,0.6047516,1.1724471,-1.6234623,0.8892933,-0.9572436,0.70267075,-0.13804904,1.2030935,0.5128139,-0.16574706,2.1631405,0.019586239,-0.5930356,0.22636339,0.39342704,0.19781278,0.21441497,-0.35513595,-0.18673825,0.17032285,0.49758366,-0.7374581,0.9348098,-0.86167413,-0.36219802,-0.35632768,0.41097376,-0.7215621,0.49831298,0.52135366,0.2293608,-0.17102823,-0.95072657,-1.7580513,-1.4609568,-1.4254409,-0.37411493,1.2856714,-1.0715842,-0.13769476,-0.0731051,0.9575948,-0.42189673,0.4571111,-0.103725,0.25952947,-1.2421299,0.5164861,0.3793634,-0.49003592,1.1915939,-0.716063,0.2122155,-0.5003956,0.29364917,0.39651746,0.5539485,0.15566985,-0.51384395,0.639466,-1.0703026,0.21897446,-0.5179239,1.149522,0.49572375,-0.49981308,-0.23272231,-1.1576623,-0.15378724,-1.3586358,0.91632175,0.18739738,1.4174381,0.32231835,-0.28288436,-0.056428917,-0.075900055,1.4980947,-0.34236598,-0.208724,-0.8552888,0.4902311
q3,-0.8571852,0.5290487,-0.34616125,0.53035533,-0.30472642,-0.63266224,-0.7912447,2.0099733,-0.19736975,0.04579174,-1.1065434,0.7919712,1.4726238,-0.33358005,-0.8982243,-0.40074223,0.004867753,0.07219269,-0.12031002,-0.5549327,-0.03209913,-0.58212745,-0.103987284,-0.46504393,1.4881883,0.4416777,-0.06114045,-1.1663996,0.8779541,-0.50561136,-0.94853425,0.15634714,-0.30812785,0.80159795,-0.66232836,-0.8378069,-0.633359,-0.03321714,-1.1193236,0.7025476,-1.0571898,1.3699714,1.3131608,0.65632963,-0.17491525,-0.5325099,0.39373934,-0.17909251,0.62481654,-0.49857104,0.13829905,-0.7948429,0.458461,-1.0008327,-1.0515615,0.63213927,0.29451182,0.2029981,0.22997771,1.2309371,-2.3990033,0.18830723,0.0035431655,-0.87250686,0.94672567,1.0894059,-0.80664575,0.23575284,-0.895532,-0.689652,0.713275,0.156071,-0.29376504,-0.7705862,0.7558911,-1.6647316,-0.39290416,-1.0435666,0.72382706,-0.9547791,0.08693721,-0.7516854,0.5428185,-0.68706405,0.63311815,-0.03663095,0.14218596,-1.6856061,-0.018371183,-1.4851635,0.91535836,0.3523442,-0.44032994,-1.0140687,0.1990429,0.5491776,0.32768077,-1.0150203,0.64128345,-0.69113135,-0.9029522,0.88590235,0.3172964,-0.5459091,0.2804207,-0.9681626,-0.6443524,-1.708508,0.10384441,-0.9907423,0.25987664,-0.48946622,0.09516576,0.21254407,0.67975473,-1.7045608,-0.7944338,-0.6420619,0.91915125,0.5460388,0.42928392,-0.063855425,-0.06529982,-0.19520989,0.22286353,-0.39740324,-0.09921786,0.116767235,0.17867221,0.37091696,0.15888453,-1.402378,2.1901376,-0.01545254,-0.9697769,-0.74030155,1.0187985,-1.1828843,0.11337514,-1.798244,-0.5870344,0.15815681,0.36163694,1.9997748,0.96525574,0.2019489,0.35011804,1.2631034,0.11668591,0.6647853,-0.101450376,-1.3819869,-0.215197,1.3225164,-1.3106463,0.56614804,-0.6445404,-1.0184966,0.40771845,0.11085248,-0.27576417,-0.59443635,-2.1232483,0.19085102,-0.2400055,-0.1258211,-0.4426634,0.39849624,0.036730077,0.20650202,0.16857903,1.3285939,-0.2683396,0.113455124,-1.0885131,0.20629449,1.1837054,-0.6070308,-0.8349076,0.2611966,1.0337826,-1.6369395,-0.71728116,0.37548763,-0.02946096,-1.8228135,-0.12743148,0.025702538,0.1753508,-1.084033,-0.059902966,-1.1475564,-0.32446635,0.33908457,-0.47930196,0.236516,0.38837194,0.79945374,-0.9139368,-0.15260321,0.64251494,-0.42614576,-0.5164272,-0.22762348,0.04059943,1.5842941,0.908498,-0.37513113,-0.2579017,-0.5286288,1.109541,0.93637776,-0.7184808,-0.48241246,-0.58475554,0.50956327,-0.07163367,1.2295516,-0.14619888,-0.10909904,0.846846,0.33775863,-0.31409577,0.1402996,0.45757458,0.7013975,0.58841157,-1.1723628,0.7451468,-0.40337354,0.8963635,-0.5448784,-1.2298601,-1.8367463,0.32916328,1.448675,-0.24789652,0.8245482,0.13284999,-0.17215843,0.75483114,0.13333304,-0.22417647,-1.210435,-0.5388317,1.3447732,-1.1417624,0.92867035,-0.8995911,-0.37198636,0.2043549,-1.3250642,-0.06243169,1.6638442,0.5097301,0.43059835,0.9429708,0.18810001,-0.89792305,-1.804174,-0.05851221,0.061200216,0.12739694,0.12337612,0.4980073,1.7042947,0.315614,-0.9809011,-0.9493538,-0.36092412,0.5029445,-1.040554,-0.8790769,-0.37560368,-0.29481936,-1.0416918,0.27462032,-0.12570447,0.45899618,2.0613809,1.8212422,1.280272,-0.799031,-0.08852329,-1.1890279,-0.89710975,-0.38249853,1.2370111,-1.4415812,0.028807025,-0.36545932,-0.38690948,0.70278674,-0.32764122,-0.22202697,0.41564825,0.35922056,0.4239146,0.7538429,0.61402136,0.84504604,0.21026473,-1.1941311,-0.5776028,-1.1173266,0.25826606,-0.699573,-0.41574088,0.9118094,1.2098184,0.11866849,-0.9794559,-1.329439,0.05119394,0.45996878,-0.93842447,-1.2230188,0.053348456,-0.35334748,-0.780741,-1.3413554,-0.19662109,0.31087992,0.25788602,-0.34445146,-0.4208826,-0.07323884,0.22900774,0.012247432,1.0506784,-0.42661294,-0.31053716,0.4100943,-1.4174457,1.150935,0.4369831,-1.0684536,-1.7716037,0.7135057,-0.32739493,0.52245784,-0.0855584,0.57208353,0.38542175,-0.9610026,-0.99993515,1.3224187,0.2836367,1.3465698,0.64158845,1.2318301,1.2312369,-0.71588147,1.1608864,0.19140163,-0.2976809,-0.5926648,-0.46317387,-0.5287114,-1.4485173,-0.051868748,0.5586822,-2.0296855,0.3020485,0.9496617,0.5469241,-1.3399704,-0.9060193,0.007336179,-0.09148788,0.022417082,-0.67882735,0.52890706,0.8741546,0.2989013,0.55865836,1.0417501,-0.46378136,-0.5419752,-0.009685034,-0.79236084,0.5312018,-0.4756615,0.6283116,-0.33980244,1.6311458,0.7363342,-0.1049057,-0.68249,-0.09893463,0.092727475,0.35017413,0.31369093,1.1474128,-0.046981715,0.6256696,0.6205891,-0.9063967,-0.37150604,-0.2828278,1.6593518,-0.04407598,1.3288516,1.7489291,-0.28282684,0.2541289,-1.0495435,-1.305183,-1.2567221,0.31891987,-0.41429675,-0.17699236,0.6571112,-0.0033489654,0.86970896,-0.48684132,-0.3789016,0.25236732,-0.18924044,0.19560961,0.59429157,-0.3947506,-0.4391626,0.32302448,0.7015142,0.111751564,-0.037846055,2.7949104,0.94380754,0.43563807,-0.5129721,1.1169906,-0.39260092,0.489658,-0.5432203,0.57760537,1.2870421,0.34520686,0.16284859,-0.45500568,-0.2893016,0.84064466,1.3226808,0.0979633,-0.50496256,-0.22773181,1.9017104,0.002650093,-1.4099532,-0.5168672,0.8227462,-0.16643487,-2.2567856,-1.7524823,0.14536867,-0.17660564,-0.71823287,-1.0323427,0.18228692,0.5536933,0.33856124,-0.044728696,-1.0318242,0.08797204,0.90094167,0.22367778,0.38837615,-0.49186411,1.1543132,-0.99048275,0.2155835,-1.0414538,-0.025575794,1.262548,-1.0447041,-1.4612083,1.0939586,-0.5015013,-0.19059134,-0.42451075,0.9175424,0.56458473,0.11546176,0.41751814,1.0084677,-0.48646754,-0.69877136,0.89608955,-0.3031015,-0.1141378,0.67684805,0.14136131,-1.2007957,0.4401307,1.8787396,1.1683139,-1.0061792,-0.0493291,0.33020326,2.0044947,0.27808583,0.28042248,0.4182382,-0.72292167,0.27530807,-0.03224661,-0.95295376,0.73999715,-0.7742167,-0.45678338,-1.7627574,0.748518,0.5525676,-0.2697369,0.44031283,-0.49806994,2.0681126,-1.2593592,-1.5843807,0.26783893,-1.065709,-0.1181986,-0.35242465,-2.6559374,-0.19504179,0.10714257,0.37429893,-0.30564246,-1.7997117,0.23340315,-0.33021703,0.23757777,-0.21201776,-0.57270885,-0.36834776,-0.9991675,-0.6921619,0.62903756,-0.59391874,0.22467232,0.20531327,1.457801,-1.0606172,-0.9611504,0.6199868,0.8481234,1.7203575,0.9802649,0.4806815,-0.3855486,0.55429536,1.2771084,0.98512554,0.57092863,-0.5155176,0.096302636,-0.90845466,-0.39851487,0.86981624,0.30421323,0.90636784,-1.0602263,0.32606447,-0.41874087,-0.14619704,-0.19094983,-1.1173209,-0.64520717,0.7675293,1.0061568,-0.7385859,-0.6057845,0.5829316,0.9710284,0.8309362,0.39687425,-0.33813527,-0.3819827,1.8912076,-1.6312366,-1.5377705,-0.18672514,0.85368115,0.61776835,1.2852969,1.3798712,0.28342286,0.39385518,0.59993136,-0.90898514,-1.5654995,0.07473249,0.8583841,-0.47620085,-0.5376304,-0.039992567,-1.5728585,0.67923546,-0.50291073,-0.4463933,-0.25386584,1.8361919,1.464418,-0.6526282,0.15540947,-0.6814609,1.0819697,1.1021438,1.2265376,0.6583059,-0.643821,-0.7957094,-1.761922,-1.2335142,0.47350332,-0.16127081,0.82549185,1.4036072,0.95637685,0.49464342,0.28506052,0.22926092,-1.169612,0.74304557,0.090663604,-0.49844816,-0.13457568,-1.9777759,0.17975599,-0.14090617,1.7811992,-1.7765999,0.50817937,0.42979392,-0.45052826,-0.46287176,-0.099593274,0.026935149,1.7906619,0.98857385,-0.40035388,-1.0948783,-0.081638925,0.73865473,0.15928437,-0.5575688,0.7015493,1.1626322,-0.84213185,-1.1965203,0.29546112,1.740435,-0.24721594,-0.7063318,-0.4086429,-0.106405765,-0.17888218,0.36024684,0.80878603,2.6146986,-0.39115384,0.095166236,0.45795938,-0.7554148,0.21970583,-0.58345217,-0.8798477,1.4233148,-0.5536635,0.18165632,-1.2018393,0.4463683,-0.6467933,-0.111990124,0.44055974,-0.104872055,-1.0631295,-0.6797521,-0.8692658,-0.6934874,-1.3720931,0.0077906,0.28359115,-1.406095,-0.81860906,-0.06255824,0.26061267,0.64936584,-0.4587899,0.0030054802,0.013082719,-0.88650644,0.10801303,0.8525259,-0.4198429,-0.13077118,-1.7962807,-0.7474731,-0.050276194,1.1218296,1.1275432,-1.7803674,-0.30833128,0.4715144,-0.5957358,0.35671484,1.2387605,-0.7877793,-1.1172239,-1.6795849,0.3807163,1.2050157,1.5425525,-0.572792,-0.499074,-0.051748395,1.5297742,-0.04502633,0.6557648,-1.1456213,0.12674856,0.6723167,1.2946856,0.7546652,0.9303737,1.2904919,0.56711984,0.49710786,0.56172484,-1.2979491,0.81501937,-1.3496312,-2.684442,-0.19420089,0.9242474,-0.20235008,-0.5765518,-0.534119,-0.3049003,-1.3733319,-0.49612567,-0.25419512,-0.39040363,0.22317809,-0.3587925,-1.253551,-0.054545,-0.72330815,-0.84302175,-0.19623305,0.0875837,0.4835165,1.6832423,-1.5213504,-1.3600454,0.7321492,0.74012417,-1.0989394,0.24095997,-0.75998783,-0.6067539,-0.072563075,2.1792324,-0.22730432,-1.2506481,-0.07606205,-0.8123953,-0.9456367,0.0026430516,0.9567104,0.9023615,-1.379734,0.2163857,-0.22288889,-0.24592663,0.708904,0.7849127,-0.40431845,-1.0515404,-1.3139516,0.41568768,-0.48351395,1.280659,-0.27509144,-0.35600162,-0.5664871,-0.27477196,-0.87852514,0.6011788,0.22910753,-0.93397486,-1.6831509,0.11147302,0.7601953,-1.134416,-0.60973597,0.7872345,-1.283365,0.8886755,-0.37277123,0.2949065,-0.3431194,-0.08875718,0.22603512,-0.43286446,-0.31506228,1.3968921,-0.803746,-1.0065743,0.28029907,1.1367728,-1.2306827,-0.4628741,0.44465667,0.86636186,0.41294995,0.45535278,-1.3718823,-0.40809485,-0.46151304,0.69692874,-0.7983687,-0.581848,-0.0717104,1.0415263,-0.27933934,-0.31666145,0.703453,1.2841659,0.22147255,0.73384035,-0.0639611,-0.26088846,0.015229341,0.7600971,-0.059736546,-1.8276565,-0.12646921,1.6179442,-1.1132013,0.18776508,-0.9797813,0.37900782,-1.5866486,0.75122964,1.1151652,-1.3542776,-0.17439777,0.1708547,-1.7888923,-0.22998904,0.31096643,-0.76515543,0.12926707,0.57456285,1.1487572,-1.2401974,-0.3427396,-2.2585351,0.23957409,0.7423403,-0.07440388,-0.06901682,0.7727955,-1.2026887,-2.2889574,-0.40554598,-0.5240783,0.5303677,0.61730576,0.2967902,-0.8383049,-0.32977098,-0.13859902,-0.87183535,0.3567823,0.60634226,-0.9396702,-0.9887096,-1.2022624,-0.72645336,-0.2327191,-0.008740143,2.5426557,-0.5981872,0.9874106,1.5839425,-0.10210741,0.526411,0.9725907,-0.5841594,-1.2140499,0.00056452915,0.04788007,-0.031359043,1.06096,-0.8943687,0.58943117,0.25719333,0.02276931,0.42452565,0.68503046,-0.16871066,-0.1523631,0.50999683,0.21942869,-0.16844833,0.6000076,-0.5237078,0.8801494,0.5081886,1.1450882,-0.007881931,0.20620432,1.0453595,0.51767343,0.11082933,1.9963971,0.33630484,1.353299,-1.4662881,-1.3806443,0.030967928,0.6932674,-0.44110247,-0.6059754,1.9280319,0.6609511,0.18523422,0.80675673,1.618986,-0.49215126,0.82436997,0.50338656,-0.94787294,-1.2115192,-1.4736367,0.15776937,-0.08855653,0.8143313,-0.09751782,-0.34470806,0.4785523,-1.9589009,-0.75371134,0.53850377,-1.9256612,-0.4719716,0.4029604,0.6084238,0.58115846,0.090679124,1.425274,-0.68326086,0.4961217,1.2432295,-0.59062916,0.44980726,-1.0032407,-0.4852297,0.9435085,0.08607871,1.3903433,0.12294504,-0.07795041,-0.73560375,-0.061772704,0.23075038,0.83389646,-0.16387682,0.9035276,-0.6656329,-0.5250319,0.04927062,-2.705159,0.03244466,-0.80575544,-0.043256734,0.08718588,1.8554105,-0.19312157,-0.1368718,-0.7831153,-0.09642701,-0.116509326,-0.77016425,-0.6204352,-0.5180393,-0.704487,1.0975884,-0.828224,-0.82821923,0.71998405,-0.12260573,0.603791,-0.668453,-0.45958835,0.3122693,0.18779287,0.28015,-0.27830946,-0.3460534,0.03735852,0.6357555,-0.067392044,1.3419179,-2.4733522,-0.74566656,0.5106487,1.1100545,-0.28123212,-1.4067727,0.511616,1.2379601,-0.4333491,0.7835376,1.032726,0.28870547,-0.48780033,-0.2244649,0.08765903,0.8920443,-1.3381066,-0.1815631
q4,-0.6688754,-0.9807417,-0.09735615,-0.013669208,0.41571474,1.1094284,-0.5235461,-0.21322207,-1.3661013,-0.08379357,-0.5422009,0.57386774,0.63630134,0.25087154,0.9461352,0.71346474,-0.56746507,0.27839246,-0.6490982,1.0874335,0.54668105,-1.2350427,-0.69848907,-0.35666928,1.8027172,-0.1380424,0.7569197,-0.45897388,-0.051407754,-1.0597634,0.48039395,-1.4454154,-0.18046127,1.0873541,-0.8769458,-0.69057316,0.8125936,-1.4903489,-1.5343798,0.74222344,-0.99066204,-0.94129354,-1.1020784,-0.4863871,0.2190707,0.49105653,0.131822,0.3621466,-0.9523501,-0.608436,0.13515261,0.2843856,0.5388156,1.5162853,1.3621246,0.03447664,0.32807633,0.8602877,-0.0025760871,1.3679717,0.9091423,0.06302058,-0.5166992,-0.42883825,0.6968853,-0.8274084,0.068480246,-0.42827177,-0.34687063,0.7340506,0.35349303,0.72600156,-0.0124290455,-0.020383418,0.3683518,-1.0149049,0.32928815,-0.5801476,-0.4663448,-0.23899865,0.14227633,-1.3692425,-0.68612534,1.6043364,-0.32568592,-0.7125259,-2.3927038,0.40893444,-0.4589382,-0.39580432,0.66950315,0.18960309,-1.0824597,-0.047391333,1.4525928,1.1827966,0.72466266,-1.5160437,-0.16537891,-0.9691722,-0.28882313,-0.87810624,0.13749096,1.015246,-0.02024275,-0.27908665,0.12390697,-1.531266,-0.6556567,-0.49815866,0.7317743,-1.2179985,-0.38264337,1.3350695,-1.4996992,-1.4352299,-1.0528553,-1.0911869,0.99492925,0.77632296,0.7651559,-1.9547561,-0.42636368,0.12129239,0.0021373886,0.24315166,0.46473202,-0.08520714,-0.072793104,-0.53419006,-0.07741247,-0.48126212,0.6107736,0.085891426,-0.66691,-1.2599545,0.6466312,0.287837,-0.32409352,0.08774471,-0.061140597,-0.2523289,1.3659016,0.946186,-0.30015045,-0.14815743,0.88877064,1.698704,-0.68313736,0.1636597,0.21092066,0.011351109,-0.9591001,0.7461671,-0.21110907,0.36950633,-0.87333506,0.337702,-0.29332143,0.5078878,-0.4309365,0.8536505,0.30011827,0.4378364,-0.67574406,0.22269864,-1.1858488,-0.93107975,-1.2911737,-0.0012939253,0.24261416,-0.566399,0.2731541,1.7114278,0.26079354,-0.31075627,-0.7911445,0.48834547,1.1693233,-0.10049765,0.2869528,0.8804709,-0.11238126,-0.5448812,-0.41895416,1.01051,-0.846713,0.0037986424,-0.7574884,-0.28264937,-0.7416286,0.5133027,-0.22003081,-0.16644457,0.6056336,0.862594,-0.4920517,-0.828052,1.6535494,1.1439755,0.267231,0.52844316,-0.45027202,-0.2854345,-0.045479435,0.5889415,0.74749416,0.2681188,-0.1663536,0.054674797,0.014140667,0.08261061,-1.5454776,-1.0847857,-0.06440677,0.17141512,-0.24591681,-0.3597419,0.27614883,0.6206717,0.58477956,0.33960566,-0.5834635,-0.45849317,-0.08700413,-0.45265707,-1.2597444,0.8210602,-0.58864063,0.35413876,0.51682144,-0.69369495,-0.35408092,-0.73581356,0.25188383,-0.5442769,1.1852571,-0.4206201,-0.5585392,-1.6920263,0.14831862,0.19310842,-0.18251513,2.0837467,-0.8105289,-0.5435101,-0.072032705,0.0937234,0.5268839,1.0566965,-1.2863084,0.6979837,0.5558024,-1.0538768,-0.8041472,-0.22300342,-0.14426234,1.8807784,-0.011722803,0.4328583,1.5480818,-0.44820982,-0.6062759,-0.15590465,-0.25774702,1.7469138,-0.67155373,0.73309916,0.2649093,-0.7025959,-0.08613757,-1.5935565,0.49032253,-0.04168921,-1.0673126,-0.9499186,0.3050437,0.33103827,0.75724566,1.1704088,1.4150732,0.94378793,-0.29345226,-1.3365173,0.7005761,-2.3499396,1.2207634,-0.59617615,-0.42103168,-0.49649373,-0.608462,-0.049354732,-0.20786989,0.20767462,0.2318501,-0.32098502,-0.06494855,0.61330664,0.31091133,0.30397388,-0.7003983,0.37929663,-0.15565434,0.42980602,0.13372532,-0.24779758,-0.9614381,-0.59824294,-0.4599293,1.1709985,-0.10875674,-1.0469027,1.0196546,0.030390266,-0.57169974,1.0582485,0.26411018,-0.009918476,0.16864896,1.6360451,0.025438735,0.34162787,-0.25375673,-0.69593906,0.017573977,-0.07049702,0.48500222,0.34417656,0.47180572,0.51504844,0.6999504,-1.9332784,-0.35330564,-0.073029,-0.5964712,-0.90293443,-0.34910038,-0.030251557,0.77974814,0.15794227,0.13026713,0.03180892,1.2411671,-1.3300508,0.6166708,0.84009963,0.3313865,0.52600056,1.0327181,-0.47320977,0.92019385,0.45334357,0.6129562,0.069202065,0.52440614,0.5528514,0.829275,0.4434484,0.5420333,-0.22963873,0.17647395,0.49606863,0.20004156,0.38590148,0.5244898,1.1696787,0.8525321,1.0322132,-0.14505348,-1.0953487,-1.3720566,1.5764495,0.28733224,0.19996753,-1.1115013,1.0843662,-0.55134064,0.2991837,0.83044803,1.0593089,0.9931634,-0.06936064,0.037681576,-2.2821393,-0.020048115,0.92138875,-0.06953283,-0.6329046,0.65142816,0.083536334,0.12867461,0.71993846,0.2085997,0.9291243,0.62078714,-0.02742614,1.1244763,-0.5242868,-0.52966917,0.31399748,0.4736021,0.8226792,-0.09785104,0.06317466,-1.3191082,0.27548897,-0.9808478,-1.0810796,-0.8618536,0.30303544,0.073796585,0.40244263,0.21967943,-0.42989263,-0.45635894,0.14509174,-0.38472024,-0.93335044,-0.15023518,0.4225698,-0.3812012,-0.21180151,-0.6072091,-1.2456423,0.24439235,-0.6406698,0.39449474,-0.9162993,-0.9836882,1.177911,0.17674045,-0.33581033,0.66829425,0.1918322,0.45691323,-1.0549289,1.3568337,-0.64434206,-0.07507474,-0.9754506,0.5195815,-0.70755595,0.7366508,0.5917714,-1.0489104,1.1001656,0.34761837,-0.45954338,-1.1807823,0.23964551,0.6066784,1.089795,-0.037555013,0.3519206,-0.62965256,-0.7957429,-1.0105718,-1.744149,0.06407313,0.0016822474,-0.41397187,-0.40708622,0.019856738,0.19908646,0.1860708,-0.35171694,1.1951369,-0.6211281,-0.12075025,-1.6535739,-0.4322097,-0.4980523,-0.15710188,-0.45900887,0.5898308,-0.8383079,-0.3926956,-0.6416405,0.5081175,1.0098618,0.13805948,0.66794455,0.056596734,0.20996764,-0.28788918,0.27688834,-0.006426207,-0.43611267,-0.11061413,-0.48054907,0.42990723,0.72755116,1.698144,-0.22234057,0.5617393,-0.20415218,-1.3319952,-1.1926736,-0.27949286,0.7508154,0.21013115,-0.056821235,0.4603799,0.56903535,-0.58916837,-0.5933108,1.6565031,-1.005027,-1.5522782,-0.20343478,0.9350573,-0.42818445,0.045594376,-0.7583869,-1.0803396,-0.623881,-0.08247785,-0.276695,-0.16285102,1.0962976,0.5972858,-0.37178072,0.31198767,0.2436143,-0.010173932,-0.9134134,-0.4317144,1.531427,-0.04592007,-1.9981254,0.34910658,-1.8442925,-0.5643291,-0.42662588,-0.6070131,-1.4241629,0.23174688,-0.34213004,-0.8021576,0.554955,1.2031759,1.1285609,-0.38221,-0.4932743,-0.58633995,-0.64941823,-0.4621603,-0.6155056,-2.2846813,-0.18085644,-0.6100498,-0.32640606,-1.4453226,-0.42015222,0.97083235,-0.4550268,-0.20586787,-0.2690414,0.92875046,0.014619357,0.50123763,-0.45491052,-0.6135398,-0.27927834,1.0760001,0.7276387,-1.2787591,-0.6113262,0.4113557,-0.13145354,-2.040593,-0.4165618,0.124806866,-0.29068324,1.0524843,0.6977979,-0.8411571,0.7579493,-0.470248,-0.4340327,-1.0111244,0.6998797,-0.3513491,0.16882499,1.2738092,-0.8751033,0.31767306,-0.5098454,0.5057381,-0.2599202,1.9353428,-0.88054603,-1.2637835,0.052153666,-0.0885935,0.93412775,0.76487076,-0.6937078,-0.29018965,-0.19164006,0.39609575,1.5342284,0.96723765,-0.4259348,0.9083972,0.9903962,0.62228304,1.0804313,1.4432595,1.2188979,0.38309458,-1.2137028,-1.1472298,-1.0369674,-1.1408132,0.1282576,0.43722764,0.061781745,1.1138583,0.7141078,0.2941046,-0.8308009,-0.2885061,0.72007555,0.13313642,0.19850162,0.54154,0.7637475,-0.96935695,-0.17217834,-1.1377369,-3.7149284,-0.68747485,-0.71364117,-1.4485638,0.21294676,0.01888114,0.86833996,0.6900962,-0.5030488,-0.60359514,-0.06420788,1.54426,-0.23973845,0.061274506,-0.44518587,-1.5983382,-0.57149225,1.2720443,-1.1089202,-0.7411833,-0.64021146,-1.5905075,-1.1685921,-0.1378462,0.29079667,0.53217995,-0.8180345,-0.29560903,0.605364,-0.40241766,-0.47273642,1.3063062,-0.77007824,1.3818662,0.6640324,-0.4066268,1.4308336,-0.2954615,-0.57695425,0.26355988,0.556627,0.80745065,0.6330741,-0.09287649,-0.7838672,0.8576434,0.3833036,0.3590081,0.08215655,-0.7035815,-0.19603965,-1.1586448,0.24719879,-1.4460094,0.027198777,-0.63564026,0.38696122,0.65119857,-0.038823687,-1.2138277,-0.9381972,-0.22804973,0.3694639,0.33523408,1.875179,-0.72766984,0.7677598,0.7118329,1.6270443,0.49317524,0.28190655,0.16443045,-1.2737625,0.36701876,0.52710664,0.49966922,-0.70517814,-0.9621515,-0.8625749,0.5278542,0.6599895,0.60862,-0.19040942,-1.202488,0.91801214,0.052335627,0.42865825,1.1201333,0.9228868,0.43742728,0.011120149,-0.33723027,1.507097,-0.47876933,-0.63613266,0.42728457,-0.071571395,-0.13862455,-0.67161834,-0.09838522,0.47338587,0.71429956,-0.69242686,0.65076226,-1.1676617,0.07170196,-1.4953722,0.23181999,0.26168796,-0.610273,1.6007941,0.08004224,-0.4502475,0.13146462,0.5850282,0.060928505,-1.855422,0.09261899,-0.8417495,-2.0184822,0.504767,0.64906806,0.06799888,-1.1454374,0.31501082,0.3200933,-0.23336339,-0.7018938,0.34683982,-0.6657353,-0.18558009,0.2707958,-0.6289156,-0.31722856,-0.21961546,0.4525459,-2.332917,1.397796,0.582007,-2.2274618,-0.08616088,0.6138712,-0.66927034,-0.25498328,-1.6379536,-0.5198776,-0.8219469,-0.071872376,0.4147411,1.6729641,0.45498815,0.57514155,0.25895125,1.5098354,0.5661727,-1.3477916,0.22124423,-0.5121538,-1.2915325,-0.30284795,0.097027324,-0.04318752,-0.4241875,-1.0200924,-1.0227901,0.59249634,0.6145697,-0.68524903,-0.20253088,-1.0145493,0.6522431,-0.5885002,0.2419817,0.27563053,-1.3152043,-0.6773464,-0.3090801,-0.6056283,-0.8086613,0.0061902828,0.15422334,0.5269729,-0.6324662,0.4706668,-0.008104355,-0.8393919,-0.1440161,-0.77447456,1.6696798,0.6441638,-0.21911897,-1.1433374,0.4624146,0.27680692,0.74308026,-0.36823252,0.26791006,1.5305165,0.09525786,0.7636257,-0.7742706,0.5757222,-0.36577034,0.95054,1.0181613,-0.5750615,-0.93573433,0.6962801,-0.8183137,1.0784199,1.2779051,0.11108943,-0.80432415,-0.9024328,0.8243643,-0.29550734,-0.014005666,-0.40657765,-1.0468836,0.20508231,1.0956196,-0.14256063,0.07817419,0.06086265,1.1210774,-1.1439196,0.009849785,-0.7688407,0.3418251,1.0078416,0.6832703,-1.0754308,0.906487,0.15988518,0.8213411,-0.27206078,-0.43899056,1.0865352,0.8133504,-0.7959479,0.24263275,-1.4068747,-0.7731448,0.23161547,-0.29134914,0.47767466,0.32063475,0.9763219,-0.17322691,0.29818335,0.46128848,1.160547,0.6017834,-0.12135739,-0.30208609,-0.2875761,-1.227029,0.811102,0.17891875,0.090047434,1.3823426,0.50265163,1.1321601,-1.5642256,0.6122581,-1.2752211,-0.6247954,0.52623814,-0.2759685,-0.20919263,-1.2428688,0.31411645,-0.9442487,-1.1107675,0.6864857,-0.2186625,-1.047674,1.4048393,-0.23483612,-0.7115664,0.023383187,-0.8413132,-0.35473633,0.37032768,-1.5771515,0.52564895,0.9588219,0.8468971,0.0045656194,0.032402672,-2.8688223,0.6915693,0.1360775,-0.3549787,0.8250056,0.66046864,-0.079601265,0.2450308,0.24875937,-0.98988456,1.4310738,0.0801726,0.30527383,0.18241751,-2.4818835,-1.3989022,-1.143156,-1.8980929,1.079816,-0.23860268,-0.22942315,1.0481504,-0.08919104,-0.5908354,-0.16340269,-1.4226521,-1.2999088,0.55217147,-0.4627204,0.5136394,-0.14450218,1.0171372,0.6766442,0.19742696,0.6219088,-1.1192,0.9317605,0.2529805,-1.1096826,-0.36790624,-0.79893106,0.27367598,0.93814224,0.36038807,-1.033594,-0.03704797,-0.60569304,0.01852225,0.83151865,0.15592368,0.9978216,-0.6864785,0.8846623,-0.04057614,0.003747378,0.6253916,0.36825672,-1.167265,0.9284829,-0.7882155,0.7215728,0.040712602,0.3194632,-1.0332936,0.21823929,0.22681026,1.0950015,-1.15854,1.3007033,-0.48594585,-1.6159315,1.2839195,-0.75833285,1.2476798,-1.5470521,-0.17868923,0.9078123,-0.58840007,-0.46799508,1.3047984,-1.0004967,0.33625492,-0.034118053,0.4459526,0.89452493,0.49542412,-0.040973786,1.2243131,0.3163653,-0.27229267,-0.32526287,0.5050616,1.3129671,-0.14007877,-0.93622714,0.62404716,0.063199066,-0.8084423,0.72600305,-0.18291143,0.18867953,-0.6430554,0.7790414
q5,0.1893648,-0.9430682,-1.324097,0.5941972,0.46649575,-1.2288843,0.13050959,-0.289214,0.49399838,0.2861779,-1.743455,0.5601156,-0.422806,0.17870532,-0.35324588,-1.0320207,-1.1595416,0.038497612,-1.2258521,0.28936628,-0.56877863,-0.008242483,-0.74965507,-0.30226406,0.9862227,-0.053553965,-0.7935038,0.85365915,0.27142426,-0.53658396,0.66941625,0.71890736,0.75480765,0.36382475,-0.37697935,1.2645664,0.11426588,1.0755016,-0.72787267,0.57325345,0.12678589,-0.34018555,-0.13982204,-0.7061438,-0.49315512,0.42751253,0.7730418,0.06341525,0.0051603434,0.17789428,0.16972607,-1.5489602,1.0938715,-0.8084385,-0.77791923,-0.053642552,0.00013823062,-0.13489266,-1.695892,-0.49377754,-1.2306467,1.7119521,0.08797198,0.8809898,0.35325697,2.7316427,-2.0604954,0.6338044,-0.07376469,0.5102516,-0.52058035,0.50696963,0.1337279,-1.824026,-0.21977465,-0.0029657807,0.33604833,-1.0693053,0.20348509,-0.46972382,-0.57952756,-1.3348047,-1.3514223,-1.3297719,-1.268902,-0.12972647,1.2985591,1.404438,-2.0708249,-0.52126163,1.0967491,0.53920996,0.03155184,-1.322692,-0.38529292,1.565637,-0.9533134,0.86358005,-0.8451417,-1.2909555,0.71762806,0.10640963,-0.09715096,-1.2631476,0.5824464,-0.3724929,0.29737595,-2.5295472,-0.24898122,1.1442056,-0.12575556,-0.5773094,-0.0037218083,0.510971,1.4662873,-0.7448612,-1.508954,-0.23765652,1.1088303,-0.069830336,-0.14603667,-0.696688,0.97215766,-0.44015107,0.9392969,-0.89116746,-0.8782585,-0.6127856,1.3867677,-0.54194224,-0.43589678,0.031218566,-1.1114168,-1.4926239,-0.16701382,0.1652231,0.2910801,-1.4268689,0.03884964,-0.7748475,-1.4418043,0.38833296,-0.9801696,1.6662979,0.494284,-0.06044924,1.1475157,-0.05881093,0.04970024,-1.5238562,1.1703957,-1.0843896,-0.613,0.24097748,-1.3021666,-1.5316458,-1.4575158,0.25675973,0.7556947,0.7689851,-0.065105796,-0.57720166,-0.42430583,0.35292125,-0.6973434,0.70916647,1.1765257,0.3688372,0.96031094,-0.7059342,1.5039988,1.8099545,-0.06995902,0.961711,-0.99285954,-0.2997025,-1.5422177,-0.84529096,-0.3096285,0.646782,0.20773749,-2.1564004,0.9792567,1.3010987,0.8159049,0.72297597,0.10723617,0.32047495,-0.88490486,-2.5563517,-0.61048084,-1.1992695,0.44531634,0.14569092,-0.9927826,-1.2949328,-0.5724309,-0.6505242,-0.107587844,-0.4664618,-0.27865437,-1.227896,-2.1839302,0.96017414,0.5943534,0.9291131,0.26191685,0.5781634,-0.417184,-2.0912971,0.0052683204,0.6252926,0.10957509,-0.37133923,-0.61121285,-0.42563543,-0.43178263,0.6168471,1.0905865,0.7254224,0.5888967,0.4782766,-0.40971422,0.7076207,1.0244591,1.0488225,-1.5193467,-0.5181277,-0.083030514,-0.42470646,-0.08359607,0.23868488,-1.0327532,-2.0421598,0.586613,2.972449,-0.71730494,0.067120604,0.08151111,0.020700997,0.2181739,0.27249476,-0.07660182,-0.41753396,-0.59676105,0.699313,-0.14740367,0.9741757,-2.559654,0.42724124,-1.3382341,-0.6218048,-0.19069307,0.06298995,-0.3544685,-0.40526697,-0.53244096,1.2683076,-0.5074026,-0.79595965,-1.0639919,0.7138672,1.9031895,0.42151776,-1.3332132,1.3086231,-0.622304,0.38054106,-0.9121363,-0.4454728,0.17307866,0.15331887,-1.527897,0.40769264,-0.27108216,-1.7876059,-0.8931966,-0.22135974,-0.9731474,-0.55312794,1.3194604,-0.68917227,1.2166818,1.2965666,-1.140575,-0.29416284,1.6391398,0.8640101,-0.6682732,-0.2097823,-0.1505605,1.0460185,-0.38681647,-0.30091855,0.9288952,1.4860792,1.5956455,1.0663162,0.76267916,-0.01156317,0.1762231,-1.6549162,-0.77970856,-1.4050359,-0.62715584,-0.3493781,0.011407842,0.05438529,0.63162166,-0.2516556,-1.3967744,-0.6007955,0.08111905,-0.88369995,-0.12690972,-0.40240693,-0.53739136,0.2127416,-0.35675442,-0.52786714,-0.85658854,0.21153374,-0.39672193,0.21741088,-0.89637834,0.3956633,0.45091256,-0.22897434,0.7365112,0.38488665,0.35865092,-1.4144462,1.925326,-0.3362356,0.49786398,-0.34945735,0.31710505,-1.938783,1.2843755,-2.167709,1.0184178,-1.8873023,2.1369655,-0.11709919,-0.08162143,-1.2420188,0.15723535,-0.9333763,-0.8938844,0.2554873,0.9179399,0.05504818,-0.7409528,0.6784317,-0.8976862,0.37755212,-0.68030125,-1.6970253,0.28896222,-0.4730002,0.77771074,-0.2013594,-1.8845662,-1.4387206,0.7094683,0.29575577,-0.4141294,-1.208861,-0.07584863,-0.9822533,0.10145303,0.69161373,1.7034861,0.8001361,0.49577022,-0.15577677,1.6591058,-0.9142549,-0.73367006,-0.63040596,-0.21061413,-0.6554496,-0.3622489,0.70042425,0.301509,2.3869338,0.7794659,-0.19404125,-0.7890293,0.66554075,1.3328915,-0.7734363,0.81694746,-0.2621751,0.16773166,0.300823,-1.022265,-0.83912605,-1.5759405,-1.6175677,1.4141804,0.66932774,1.2187065,1.1866183,-0.8616736,-0.7884583,-1.2134405,-0.26244405,-0.9291706,-1.2189245,-0.7915341,-0.26841915,0.5122924,-0.9779041,0.4917543,0.48070398,1.0817118,-0.11632427,-1.1915919,-0.9754178,0.7556455,1.6915274,-0.22198834,0.07803581,-0.09847007,0.15196723,2.2568488,0.39792868,-0.8010406,-0.30424988,-1.7522608,0.25736088,-0.58768874,0.96998805,-0.45364252,0.7321016,0.92110246,-1.2196767,1.6930966,1.0856955,-0.83091164,-0.36552796,0.9383618,0.80411845,-1.290922,0.68174314,0.49721733,0.9731545,-0.99717855,-0.9881566,0.07615331,-0.09894335,-0.6285731,-0.035983283,1.323196,0.09167395,-0.69740653,-0.4203042,1.0796747,-0.7415994,0.8270631,-1.353062,0.4450358,0.54292417,1.7016703,-0.5520405,-0.063525714,0.86556405,0.78125507,-0.8487251,-0.034594145,0.92575717,0.34613013,-0.058266964,-0.80085367,-0.6294475,0.43115637,-0.20127106,-1.3158689,-0.9821395,0.44030038,1.910594,-1.1492593,2.1836627,1.7491732,0.17455165,-1.2448226,-0.5591419,-1.19412,-0.82505924,-0.07524898,-0.49428192,0.16128424,0.13777734,0.23609273,-2.0441787,0.4396933,1.5715637,0.18043931,0.39340997,-0.35748348,2.1705139,-0.96084994,0.24186254,0.7937135,0.33339486,-0.8600083,1.965437,-2.814008,0.320758,0.57277673,-0.5220548,0.24569656,-0.07735212,-1.0638695,-0.7033965,1.6940521,-1.8350269,-1.2659858,0.9408817,-0.8999025,0.19201922,-0.61953884,-1.2521136,-0.97651553,-1.1363045,-1.7191175,-0.20469992,0.28641784,0.6844675,-0.6034748,0.904975,0.4223951,0.55810446,0.281317,0.5060107,0.08538387,0.47579527,-0.4531859,0.24128133,2.5261223,1.1783308,-1.8405579,0.9122586,0.38455844,-1.0844568,1.7959553,-0.50435054,-0.8339741,-0.87950283,1.0243825,0.06704202,1.9075074,0.77250403,-2.2933273,-0.54255843,0.24677902,0.027536346,-0.7336804,-0.74015903,-0.5152213,-1.1755732,0.59990495,-1.1841493,0.15905486,-0.6572661,-1.0014492,-0.611006,0.5152809,0.4942448,-0.19158614,-2.4263961,-0.23329942,0.2868649,0.05475088,-0.1476223,1.004186,-0.14338617,0.64540887,-1.1268643,-0.27120435,1.1498591,0.69189125,1.4518546,1.5652075,2.4500692,-0.24595837,1.3893687,0.3755211,-0.868982,0.6820476,0.4635484,-0.084477,-2.464208,0.39931968,0.6347928,0.13642596,0.7358598,-2.1757624,0.25894865,-0.84717655,0.10948215,-0.10805684,0.7358141,0.31603286,-1.3788352,0.7278388,0.09241006,-1.4017633,0.8853264,-1.6763659,1.3155109,-0.15702622,-0.34877512,-0.92056084,0.44789168,-0.11849627,0.27353194,0.34959364,-0.32932168,0.14215362,-1.4209534,-0.5862916,0.53489506,0.0084316945,0.27030167,0.029745465,-2.55045,0.14410742,0.71288174,-0.70448273,-2.3966882,1.1953717,-0.0041859746,0.37282822,0.8692057,0.31072256,-1.2040616,0.8005797,1.1283847,0.26381668,-1.0211779,-0.80586857,0.46834096,0.1081971,-0.2934662,-0.5555389,1.3630959,-0.5063304,-0.3866764,1.2831106,1.3067707,-0.43462777,-0.6540457,-1.3944725,0.23024054,0.47411248,1.3883419,-0.6234136,2.9068096,-1.8622218,0.6976523,-0.0648844,-0.055789035,0.8101358,-0.32839033,-1.1424351,0.8486767,0.56208664,0.21782131,0.4515891,1.4696821,-0.24488978,-0.07163657,0.3180377,-0.5514314,-1.059288,-0.9792773,0.2548171,-1.7199297,0.35056028,0.64158475,0.43121728,0.3607111,0.41072348,0.5316502,-0.034594446,0.25989512,0.15398453,-0.34622458,1.6263338,-0.9995838,-1.0532472,0.20821536,-0.22554837,1.0281811,-1.7267408,-0.32121488,0.48290908,-0.54104525,-0.058770824,0.084383465,-0.03776422,-0.88766414,-1.4324951,0.27442032,0.6513847,0.20557356,0.17053814,-0.47924396,-0.16156977,0.6949234,1.6987344,-1.3993472,0.19562058,0.8721421,0.94904727,0.14598724,-1.4943709,-0.779172,0.6843218,0.35918698,0.9965221,-0.17166974,0.11268512,1.2976102,0.30071333,1.025553,0.91582656,-1.2293855,0.68512124,-0.58601785,-0.17217986,-0.09638003,-0.22564529,-0.47174284,-0.062098607,-0.77017885,-0.15402056,-1.3202969,-0.23122056,0.8761835,0.09539103,1.9214358,1.3066274,-0.5389207,-1.745478,0.57752806,-0.15668502,0.52935576,-0.6681548,1.3771901,1.9656439,-0.4338219,-1.026291,1.4840578,-1.0870095,-1.1191373,-0.03052172,0.51567835,-0.67090225,0.3118819,1.7324244,-0.85646313,0.36839333,-0.9044549,-0.32342866,-0.19377215,1.1291075,1.9795266,0.4228953,-1.217492,1.0643228,0.7546317,0.13137753,0.5659942,-0.019209756,-0.11806459,1.0669819,-1.1810559,-0.68405443,-1.6100622,1.7680584,0.65565985,0.25872377,-2.5226843,0.6755331,-0.31021547,-0.07668347,-0.44772372,-0.17163913,-0.44758812,0.5433948,0.60144,-0.76183087,0.35566947,0.95175457,-1.2096969,0.56175345,-0.36952958,-0.2972967,-0.4241979,0.9764158,-1.2418731,-0.1879193,0.13712971,0.3103235,-0.7271474,-0.6355038,1.4583284,-0.1600892,0.70694906,-0.06402513,0.07617437,0.8401086,-0.51601654,-1.0324563,-0.34036914,1.052097,-1.2310617,1.5877233,-0.52317643,-0.6074315,0.072914526,-0.5508231,-1.4862499,-0.92543846,0.4667307,-0.42275903,-0.46648526,1.2608304,-0.034920588,0.00355573,0.16820471,0.62828594,-1.6559535,0.15902506,-0.7968257,-0.028669411,-0.35559133,0.94380045,-0.2588147,-0.41134003,1.499803,1.1789672,0.97011137,-1.8740873,0.3967339,0.5310962,-0.173356,0.0822676,0.6599627,-0.62328124,-0.7929153,0.92837805,1.4221778,-1.1178238,0.76061875,-1.2533002,-0.547042,0.41208184,-0.5660406,-0.3947474,0.49993965,0.2803956,-1.2975268,0.116017975,0.7358616,-0.33129066,1.2699398,0.3317003,-0.17865765,-0.44861317,-0.71138495,-0.15003219,1.1786351,0.005348183,-1.8082465,0.07520815,-0.4406344,-0.66382104,-0.33745408,0.58260137,0.83972746,-0.19594355,-0.6246261,1.1190413,-0.4896127,1.0258949,-0.17275108,0.6360542,-0.98630303,1.8206463,1.4673666,0.66464156,1.6274675,-1.727081,0.53126144,1.5852562,1.0612661,-0.19602942,-0.93790436,-0.027129712,-0.70864695,0.5350817,-1.7262765,1.8176994,-0.09215051,0.47340718,0.5109789,-1.4383637,-0.15211637,0.7127188,0.8513148,0.81697077,0.47411498,-0.5973051,-0.8246886,-0.84361166,0.60697484,-1.7356158,0.80628556,1.2454622,0.64828146,1.2316587,0.13243209,1.0422449,0.7681673,-0.9740706,0.68924046,-1.2327027,-0.27289894,1.3105756,-0.10690045,0.40773562,-0.81721073,-0.761826,-0.5361327,0.32209536,0.08728642,2.5866616,-0.49666056,-0.67367023,-0.6682377,-0.2526421,0.1750241,-1.6104636,1.0749584,0.062123045,1.1929296,1.5580359,0.84720093,1.9530773,0.91963357,-0.5130798,0.999757,0.3228345,0.742932,-0.5767366,-0.37998107,0.31599155,-0.36331514,-0.17516495,-0.16477594,1.1022941,-0.9665694,0.14023839,-0.37008587,-0.46896923,-1.6228437,-1.382866,0.05520584,-0.021800427,-0.09240017,-0.14057887,-0.1385338,-0.023388932,-2.186258,-0.4636526,0.13003798,0.013600749,-0.1016623,-0.70064896,0.8696828,-2.072405,1.1615719,0.3145543,0.49713293,-0.26127693,2.482942,-1.099043,0.27463642,0.002404983,-0.1525262,0.5379877,-0.27932975,0.085237205,0.11251771,0.680857,0.24171859,-1.0663208,-0.27449486,-0.9456858,1.1845,-0.120309286,-0.70464206,0.6880076,0.19962262,-0.88803625,-1.7017671,-1.0740657,-0.17505372,0.63060814,0.91396385,0.7348816,-0.2349938,0.32665572,0.50563747,0.51692635,0.364223,0.30012456,1.2063948,-0.10428229,0.6002073
q6,-0.33351576,1.0249059,0.29288158,-0.6313441,0.7247285,-0.7268833,-0.64157903,0.18534476,-0.121836156,-1.6496929,0.19424383,0.69117785,0.85627204,0.64360625,-0.3678478,0.12527397,-0.6282267,-1.0497758,-0.1803591,-0.9761114,0.2761838,-0.25545898,-0.4500504,0.35023943,0.5384976,-0.25409567,-1.1022427,-0.73118234,0.32305518,0.040567312,-0.30087534,0.5136722,0.16458821,-0.057917826,-0.9139464,0.043104824,0.14614296,0.8860776,-1.6943793,0.8490052,-0.16454372,1.2830691,0.8171383,-0.10292519,0.2910824,0.14939871,-1.2310758,1.1419415,-0.5524375,-0.093944125,-0.73920584,-0.008650351,-0.674013,-0.575487,-0.2153107,0.21055748,1.0257958,0.1771059,0.12611552,-0.114218794,0.26926893,0.1367926,-0.7195395,-0.3007611,1.0692222,0.55956715,0.46702448,-0.109401636,0.37390968,0.22023062,-0.37904957,1.7452257,0.7695086,-0.41889915,0.77537733,-1.1999356,-0.30868208,-1.6880544,-0.13690488,0.49533156,-0.81258225,0.8999424,-0.6228185,-0.056246057,-0.6161012,-0.68886226,-0.1321814,-0.014246355,-0.7792921,-1.1859417,2.0945573,0.937045,0.53976595,-0.44711283,0.7318423,-0.44875458,0.4528921,-0.8944487,0.14718792,-0.40060604,-0.44184977,-1.0003633,-0.5268363,0.32520077,-0.58677363,1.1194721,0.34597504,0.2890252,0.9880994,-0.28176856,1.4308743,-0.10674848,1.0719687,1.0555243,0.41209137,-0.34870133,-0.10253566,-0.91810185,1.9581367,0.13538621,0.1914698,0.037854426,-0.9794549,1.0944949,1.2370898,-1.8387231,0.772548,0.40614966,0.08590363,-1.1770076,-0.32504803,-1.1888416,0.68314636,0.1660078,0.09477332,-1.3166457,0.7159943,-0.12362782,0.88857013,-1.3262353,-0.38413805,1.7073102,-0.044623587,1.3699353,-0.124479145,0.9544385,1.063669,-0.22593747,-0.2419502,-0.6180806,-0.85950685,-0.47709882,-0.8393242,-0.8041093,-1.2970263,0.010739948,0.44051552,-0.6500434,0.99193996,0.44227305,-0.32991043,-0.30199555,-1.16244,1.401964,-0.64022946,0.9588096,0.36685717,-0.12704694,-0.09076375,0.2136815,-0.21462144,-0.5129138,0.42409766,-0.9760361,0.37919354,-1.0893025,0.9302008,-0.01739207,1.2772604,-0.45052874,1.2301453,-0.7442962,0.14945695,-0.25197166,-0.036058705,-1.1209283,-0.19465092,0.9894717,-0.22072917,-1.5331813,0.1835149,-0.5204774,-0.35286105,1.2851003,0.8274158,0.8251836,-0.14543542,0.5033202,-0.25554234,0.013733003,0.2707058,0.27681035,-0.4201351,-0.15731221,-0.98195046,1.9910679,1.3236815,0.5830529,-0.6427779,-0.81871724,1.7031822,0.8647056,-1.3087709,0.37682495,0.7106444,1.9253091,-0.42569193,-0.6029119,-1.1229464,0.840594,0.63627416,1.0076188,-0.25836042,-0.008915808,-0.9241388,1.2021108,-0.48602355,-0.22223735,0.2216176,-1.0517387,1.2876482,-1.5406193,-1.1064982,-1.6655087,-0.32780302,-0.8927724,0.010011722,0.5755884,0.14748417,1.058198,0.50331795,-0.7324461,-1.5662028,-0.19149213,-2.510442,1.6898133,-2.043661,0.8043409,0.23209898,-1.5054867,0.3958719,-0.62007713,0.3643779,0.6125991,-0.6899676,0.7155324,0.89454067,0.83592963,-0.508742,-0.27584764,0.21494186,0.06687278,-0.298836,-0.48782757,1.5244374,0.86459976,-0.6012086,-0.34870803,-0.22647871,0.15612276,0.7084328,-0.19211696,-0.43014303,-1.0884631,-0.015881153,0.8723586,0.4272395,-0.4702024,-0.4833218,0.6626626,2.2621193,0.3429499,-1.520392,-0.46907848,0.30826777,-0.2547378,1.0960904,-0.2378006,-0.49819788,-0.56309,-0.63591087,0.1614537,0.4905815,-0.27002698,0.6064043,1.4630322,-0.8857043,0.13350855,0.6752846,0.29994375,-0.0028586115,0.31105256,0.024730226,0.051477358,-0.02799699,-1.1261538,0.88604474,-0.09269133,0.44695187,0.7805597,-0.5223312,-1.0351568,-0.021109032,-0.105241366,-0.7635317,-1.6840856,0.4463125,1.3026856,0.2773764,-0.5428643,-1.390272,-0.4356191,1.1326432,0.8603313,0.4050028,-0.12928425,-1.0980926,0.70994735,-0.29622617,0.49708354,0.53345263,0.05288191,-0.694127,0.7109829,0.42925763,-0.8235419,-1.177752,-1.1030409,0.11644794,-0.6775308,0.57747054,0.34680894,1.6614207,-0.25866497,0.2173729,-0.15664761,1.6511048,-0.6335025,1.7232417,-0.29656607,1.9849453,0.35265967,0.07168699,0.51613504,-1.4838444,-2.2015824,-0.21365231,-0.088886835,-0.0113750445,-1.0412736,-0.94631875,-0.5369587,-0.6877311,0.6589976,0.001010716,0.3036502,0.71036595,-1.1595871,-1.0158651,-0.82676876,1.2698342,-1.2849139,-0.7648962,-0.5812614,0.21600105,0.46789324,1.5258517,-1.6001754,-0.49146187,-0.6030047,-1.0323157,-0.21476242,-0.47421598,-0.23188591,-0.76109767,2.448686,-0.0074124816,-0.18908522,-1.5670428,-0.88378274,0.28591278,-0.74904805,1.4814634,1.8449874,-0.40357092,0.6714056,0.7512792,-1.1124738,-0.22309306,-0.6345003,1.3093414,-0.5074396,1.081633,0.7382392,-0.34356782,-0.314944,1.2003442,-1.2845227,-1.7864099,-0.5752933,-0.73894143,0.42065364,0.92686105,-1.2332801,0.29976332,0.52520794,0.24060673,0.5400047,-0.37039247,0.5679822,-0.13349777,0.88438636,-0.45106274,-0.5486009,-0.18350083,-0.03881853,1.2237399,1.0520825,-0.26456952,0.5131805,-0.23764594,1.0843596,0.17348313,-0.18678173,-0.31517085,0.3768461,0.91825986,-0.09831957,1.2816538,-1.3066984,0.6083554,-1.1022304,1.4807034,-1.5705255,0.31099576,-0.32989454,0.46912062,-0.5284875,-0.41565254,0.6939078,0.5677754,0.13076003,-1.3197361,-1.337562,-0.7429441,1.0775113,-1.5930864,0.12888187,1.6898683,-0.6791139,0.1029912,-0.09296786,-0.35841012,0.65565467,-0.33490312,-1.4093729,-0.25525013,0.20114759,0.36213136,-0.504265,-0.17522897,-0.11196828,-0.17512989,0.26451048,-0.19975534,-0.29246724,1.3553351,-0.04059866,0.61314386,-1.6052049,0.3778622,0.71788734,1.4437679,-0.6651037,-0.8236838,0.9994581,-0.55672336,1.4065821,-0.1372903,0.4768602,-0.9741049,-1.3242747,-0.6316688,0.13464953,1.7369168,1.0664907,-0.08635968,-0.98068607,0.8351377,0.6248977,0.8850357,0.3643983,0.001548323,0.07644394,-0.859667,-0.40680468,-0.23318285,0.6671604,-0.6136013,-0.7533414,-1.9854989,1.3516924,-0.35642633,0.81914747,-0.93015236,-1.33495,0.69592106,0.44685704,-1.3809723,-0.7030559,-0.40534464,0.57175076,0.2610269,-2.051285,1.5576624,-1.0338538,-1.4675354,-0.57138973,-0.9902255,1.3848147,0.733597,0.1106047,-0.5946362,0.41613767,0.27258116,0.48955277,0.62458646,0.65291715,-0.4884561,0.16323623,-0.8545086,1.2092508,-0.17730261,0.23706467,0.07584123,0.29531205,0.6860234,-0.11228005,0.5613814,-1.5352592,0.21170789,1.1134224,1.1999775,0.729004,0.73449737,-0.5119205,0.20148909,0.44885826,1.7052203,-0.17552517,0.15438037,-1.3711584,1.2884588,0.39052784,0.50497836,-0.52985984,-0.80964667,0.8630429,0.8429339,0.56445533,-0.63327867,-1.7690942,0.6063621,0.9962845,0.88771653,-0.14357778,-0.7591492,-0.79988897,1.6085654,-0.49861464,-0.6738751,-0.5231111,0.12715195,-0.049639743,0.07989224,-0.5130123,0.46258825,0.29459894,1.4494511,-0.35494345,0.2208998,0.8539007,0.61120594,-0.28868783,-0.39890742,-0.41116697,0.10472563,0.42427534,-0.0938031,0.44753334,-1.1450021,0.7881095,-0.19300292,-0.13316512,1.3315187,0.16136362,0.4053365,0.19661087,-0.5589119,1.9380984,-0.95272136,-0.7067387,-1.4664551,0.09058011,0.9765246,1.0378137,0.5209645,0.23006362,0.3203853,-0.12949647,0.8012857,0.59395057,-1.6306542,0.24964608,-0.8847582,-1.5104537,0.6705955,-1.226114,-0.75638837,-1.6976652,-0.113318,-4.8687277,0.079185694,1.4464017,0.29590127,-1.4415629,-0.29247633,0.17121619,2.7517593,-0.03728291,0.0037731496,-0.4662643,-0.06385688,0.7587531,-0.828233,-0.67484975,-0.13085549,1.0035663,-0.559449,-1.6784889,2.7302554,0.31803387,-0.7502982,-1.7576236,-0.12183502,0.45473534,-0.6283502,0.20047396,1.5837625,0.04369205,-0.35827824,-0.2641931,0.2832806,-1.2289382,0.66970056,-0.78531086,-1.0079111,0.693888,1.1735952,-0.5852402,0.6128146,0.081097454,0.58640724,-0.2604846,-0.076721504,-0.44534206,-0.12437018,-0.34677863,-1.9337196,-0.1985471,-0.83304834,0.10420358,0.11455587,-0.8826225,-0.2395351,-1.1484512,0.2195311,-0.2867943,-0.30568436,-0.019415477,0.059191186,-0.9863972,0.8935675,0.9751342,0.37103686,-0.43901372,-1.3413988,0.44018996,0.49523857,0.7803585,0.08271341,-0.799929,-2.4109313,-0.43026426,-0.12824553,0.09845957,0.8416933,-0.951014,-2.3432083,-0.61108273,0.0573126,1.4640145,-0.19762856,-0.55799425,-1.043107,0.58835626,0.14362067,0.3124024,-0.6922913,0.94191635,-0.43437475,0.35914448,-0.37522262,0.80511254,-0.06102327,0.87792313,1.043765,-0.33464888,0.1932723,-0.7350957,2.269391,-0.36558115,-0.53694224,-0.5333997,0.51010007,-0.585184,-0.056490976,-0.6125171,0.508012,0.3173622,0.06734017,-0.6076508,-1.4195454,0.03839855,-0.56642616,-0.5346881,-1.4991752,-1.128202,-0.16232489,-0.95987046,0.31633505,-0.040258627,2.147096,-0.2337993,-0.9323191,0.20700023,-0.5217502,-1.391323,-0.34367827,0.4395123,-0.28867427,-0.08774783,1.044371,-1.0859644,-0.0026312498,-0.43282083,-0.27108425,-1.3365107,-1.584192,0.263673,0.7205169,-1.0973655,-0.2893316,-0.120139584,-0.99225533,0.10328306,-0.8661217,0.6923733,0.51354563,-0.2996924,-0.12116913,-0.804227,0.949849,-0.4398978,0.9456396,-0.86837703,0.5802586,-0.71873254,1.1148468,-0.0713479,1.0829412,-0.76523244,1.2630244,0.6170465,0.07718304,-0.21530516,0.6940497,-0.6210128,-0.30207527,-0.15501934,-0.009622521,-1.1962792,0.20152166,0.17955305,-0.94188106,-0.6873543,-0.13647786,0.51398027,-0.3511557,-0.26990652,0.19867805,-0.7651789,0.51024395,-0.6229455,1.0639298,0.23951517,-1.2589297,1.0347933,0.5911639,2.1713386,0.51167655,0.22472398,-2.3397684,0.1594008,0.18673976,0.36226737,-0.7817858,0.6641546,-0.179652,0.7963579,-0.401508,0.0108284885,-0.113948055,0.29917154,-0.32651654,-1.8288903,-1.6851559,0.13069649,1.7992835,-0.70081913,0.10254125,-1.043106,0.14828676,-0.6388181,-0.18405627,0.9871111,-0.956066,-0.24935502,-1.4020435,0.2460179,-0.3868117,-0.65741205,0.50061345,1.0432729,0.38239405,-0.31842557,-1.6897836,-1.8042597,-2.2255685,0.8050932,-0.6054794,-0.26977035,-0.70630866,0.12832329,1.0192294,0.28830916,-0.34499022,-0.8045916,0.09009785,0.6493307,0.94956326,-0.3940586,0.5128362,-0.007894114,0.7022604,-0.2004171,0.16426732,-0.43121052,0.22153243,-0.27881315,-0.77678156,-0.48163182,0.5649993,2.34924,-0.06924418,0.76582116,0.49311644,-1.3593742,-0.67173034,0.25114092,0.0075911316,1.0949558,-1.4162265,0.16746551,-1.0367707,1.0610844,1.0914459,0.42541566,-0.11136358,2.0116208,-0.6982298,-0.6712785,-0.6657405,-0.6226723,0.30828798,-1.4151942,-0.9683965,-0.29253256,-0.5920216,0.4210875,0.3031509,-1.1713858,0.25746158,0.6475966,1.544335,-0.99202335,-0.30687082,1.4688764,0.2090327,0.6336629,-1.0231315,-0.7423141,1.9262578,1.0791582,-0.27126488,-0.9687557,2.1129308,0.42445529,1.2005619,1.6364372,-0.844149,-0.41863078,1.2372049,-0.40923303,-0.7903015,-0.35859668,-0.9608574,0.43418983,0.38359082,1.7225997,1.0448582,0.034194477,0.8413518,-2.1149333,-0.44408235,-0.12105848,-2.0656817,-0.80139214,0.97261524,-0.70341456,0.94210106,-0.6698987,0.92361325,-0.89651227,0.52615136,1.2206991,-0.14411731,2.2187693,-0.26990083,0.09102157,0.2542354,0.19998239,0.8244131,0.95191354,-0.30673262,-1.4530315,0.37402353,-0.2473997,0.12393965,-0.2956659,1.7290835,0.0870737,-0.9952967,0.64779186,-1.4875845,-0.35508502,0.13974278,-1.1952627,-0.7004778,0.8325803,-0.70472366,-0.46150887,0.28804138,-0.06592066,0.68276733,-1.2343669,-2.1389885,0.8807869,0.01100768,0.45280775,-1.343812,-1.0780178,0.2981977,-0.24920757,0.15755036,0.67393017,0.36901987,-0.01004881,1.1353431,0.407341,-0.5562008,-0.323407,-0.9527322,-1.1432341,0.5245599,0.7003449,-1.0489289,-0.6931247,0.99412835,-0.54384345,0.20873052,-0.35495085,-1.1419759,0.7270494,-0.40333807,0.36765143,-0.057134673,-0.2490327,-0.92469555,0.96465194,-1.218179,-0.46512413,-0.7663633,0.022502555
q7,-0.244425,-0.12141172,-0.1261031,0.3481157,-0.4005151,-0.50720596,-0.3174582,0.4789467,-1.6625291,-0.02419976,1.0839205,0.7807255,-0.35387495,-0.76873404,0.9912699,1.1060654,-0.51386726,1.1096711,0.29287824,0.8689731,0.8759883,1.1724607,-0.44109818,-1.1435815,1.1735035,0.54298335,0.23014331,0.45110214,-0.0038070728,-0.11698487,-0.085855566,-1.4155321,-0.42022932,-0.0685237,-1.3370708,-2.2137337,-0.3371941,-0.7306719,-0.9629373,1.2543148,-0.96325797,0.25155273,-0.20196277,-0.15484713,1.215603,-0.5836013,-0.1825024,-0.59194416,-0.16255684,-0.9869507,-0.30022624,0.42813766,2.1278603,0.69590354,1.5499916,0.35870317,1.5877842,0.4057121,0.60978645,1.2344555,0.4274889,-0.4188148,0.3981248,0.5398136,1.0320803,-0.8375214,0.092704944,0.07067683,0.5484348,0.03737212,-0.07954479,0.5285629,0.1973605,-0.03242247,-0.6293133,-0.19491605,2.185984,-0.8623104,-0.74065846,0.0059828814,-0.2573338,1.6373271e-05,0.08015376,0.84456587,-0.9862001,-0.8317158,-0.94959885,0.84214926,-0.039385956,-0.4403679,0.39784122,-0.124286376,-2.7545621,-0.8053307,1.2751924,0.79787064,0.64364284,-0.79647154,-0.31482866,-2.0874627,-0.7503727,-1.3435007,0.45330665,-0.025895735,-0.02587322,-0.32921097,-0.10009029,0.40003452,0.17889257,-0.12073106,0.0738135,-0.3665732,0.34896335,1.3583261,-1.4012442,-0.54509085,-0.56613517,-0.34195814,0.32737726,0.9547773,0.652458,-1.7772778,-0.35181582,-1.098475,-0.34269333,0.8359193,0.12032899,0.8989008,1.7103592,-0.6602059,-0.020278284,-1.2473086,-0.34662935,0.18600029,0.5033598,-0.50337154,-0.0044461736,0.37847194,-0.491112,-0.44119096,-1.2757357,-0.86423117,-0.14897332,-2.0580368,0.3947287,-0.20768194,-0.028567957,0.95245284,1.5129323,0.71394753,-0.47962216,-0.477942,-0.030774413,-0.23983693,-0.303157,-1.1082225,-2.2985313,1.2624129,0.278189,-0.1590374,-0.51643217,-0.0033317383,1.1797429,1.1071211,-0.14763437,0.5737655,1.0560287,-1.2774762,-0.4386333,-1.4154348,-0.78670114,0.5861921,1.7096006,1.362339,1.3460875,-0.13724054,0.5107518,0.6802115,1.6674252,-0.09627962,-0.085211374,0.8584049,-0.38810265,-1.1302688,0.3938358,0.5029295,-1.3578161,1.1069914,-0.70075536,0.8714277,-0.95266,0.91687363,-0.5411307,0.07976338,-0.021650463,0.08181575,-0.20726295,-0.11068811,0.5971727,-0.015258786,-1.0082505,0.17940162,-0.01957902,1.1059452,-0.09068209,-0.3228066,-0.08716031,-0.08062528,0.89977723,0.38709858,0.23617333,-0.5025757,-0.79390854,-0.21208544,0.00941579,-1.4287658,-0.91715616,-0.035020046,-0.40939796,0.78730154,0.5488683,-0.025077233,-0.2275718,-0.5209958,-0.5661415,0.2368357,-0.56852436,1.1526909,0.6149889,-0.08024221,0.5665359,-1.3757323,0.0005562256,-0.35274175,-0.16564609,-0.069436476,0.2604186,0.3445904,0.14547653,-1.2511275,1.2254937,0.22579668,0.0018105401,0.14644761,-0.8344064,0.040050197,-0.63662225,1.3571901,-0.4801611,0.9967173,-0.4977142,-0.89970773,0.8678694,-0.63450855,-0.9135592,0.096074484,-0.37055314,1.185592,0.22577111,-0.8557524,0.5727251,-0.4489548,-0.6822036,0.45404267,-1.5731555,0.9947441,-0.09095985,0.9869902,-0.20909254,-0.6164222,-0.48372707,-1.6118942,1.0139042,0.51997626,0.8729767,0.22843494,-0.14466132,1.0555917,0.45324406,-0.42458808,0.8358435,0.33083135,0.7676372,-0.85275906,-0.2816379,-2.3106956,1.3450059,-1.2860638,-0.23486875,-0.75903493,0.77711254,-1.358245,-0.44020498,-0.18116747,-0.8344911,0.49631247,0.5394856,-0.10185849,-0.030844733,0.4294195,-0.7942489,-0.5880693,-0.069390185,-1.0517036,0.42603397,-0.3588011,-0.6641497,-0.02308491,0.11267332,0.9432578,0.3400834,-0.9873595,0.25580025,-0.30481383,-0.66647726,0.080570884,-0.45513248,-0.79354256,0.5499831,-0.091830075,-0.040817816,-0.0503871,-2.2121255,-0.48025525,0.64097446,-1.2486131,-0.83095604,-0.3587496,-0.14303325,-0.227998,1.3203553,-0.023950368,-0.67126733,-0.39645624,-2.0547416,-0.48456946,-0.063537754,-0.7327488,-0.19063239,-0.14682333,0.20540147,-0.49135184,0.2636353,-0.17473693,0.23228574,0.3650607,-0.48876604,1.3068348,-0.7995567,-0.20403904,0.3822042,0.76041174,1.4188827,-1.2027664,0.6921916,1.0193065,1.262823,1.3522311,-0.7440255,-0.36274037,0.4243438,0.08351302,-0.98717546,1.6257635,2.2759745,0.16452132,1.2232488,-0.06147964,-0.6320204,-1.596191,0.1372744,0.61517304,0.08395263,0.46162072,0.14453061,-0.25271606,0.16053638,-0.12296483,1.0198436,1.241491,0.8076311,0.028583333,0.7373781,-1.662963,-0.9865683,0.4421035,0.35620353,0.58027744,-1.6488427,-0.30105135,0.17840736,0.1248765,0.9943385,0.28112748,0.51600367,1.1770308,0.11278128,-0.21112758,0.5148092,-0.42292416,0.7870891,-0.009396851,0.34996703,-0.7196307,-1.2813965,-1.0886527,0.06284286,-0.31278515,-0.81011456,0.51813287,-0.13002513,0.25251397,0.6758233,-0.32887065,-0.22920702,1.008684,0.26315477,-0.9295645,0.70213556,0.3359345,-0.91530544,0.026907334,-0.35804093,-0.68476397,1.1632141,-0.40044037,1.4518455,-0.9127922,-0.48348546,0.26224986,0.15609007,-0.0114750415,-0.2186621,-0.04561922,-1.4262317,-0.21788402,0.040203627,0.2719098,0.5257768,-1.0566155,-0.728292,-0.5126946,0.989809,1.0684024,-1.2603317,0.30754724,-0.06560075,0.03201339,-0.2163825,0.4039503,0.97952527,1.1331663,-1.1520318,-0.18132807,-0.18196599,0.07578445,-1.5374945,-1.6075644,0.56086785,0.9467147,0.7239558,-0.674759,-0.8225482,0.17318828,0.26467615,-0.5487459,-0.5438471,-0.47124922,-0.3272164,-0.35467818,-0.29129437,-0.7103348,-0.61827374,-0.0019192621,0.20762987,-0.8285301,-1.2233957,0.33384982,0.1873715,-0.56826663,0.9204324,0.4771359,0.5194598,0.30200067,-1.3527468,0.07267729,0.8303156,-0.41002032,-0.1466804,0.07830623,-0.0126547115,0.12355069,1.4163443,0.40472892,0.7082029,-0.72612095,0.21360373,-0.059287157,-0.3251712,0.38470432,0.4375808,-0.15247093,-0.35046706,0.46352887,-0.34095383,0.095786326,0.1531481,0.80199546,-1.1029416,-0.2515588,1.2018974,-0.47978544,-1.4556719,0.65719223,-0.901233,0.057833124,-0.06972759,0.40529427,0.28809652,-0.2634626,0.2953858,0.4842225,-0.5252099,-0.64241505,1.3042145,0.14418298,-0.6847043,0.15739535,0.06229802,0.0036659788,-0.50272983,-1.120515,0.2682648,-0.16517763,-0.6640454,-0.026060725,-0.27684233,-0.48428425,-0.7861994,0.46987674,-0.6580338,-0.30612093,-0.305625,0.6415327,0.35267648,-0.24584383,-0.92720586,-0.13392799,-1.6851496,-0.66620797,-0.94430023,-0.6406213,-1.7348233,-1.1660733,1.0788383,0.46971896,0.676862,-0.8483479,0.6347007,-0.15655729,-0.13113724,0.59070945,-0.13936861,-0.43219492,1.0811499,1.044981,-0.63565725,-0.32490107,-0.051266473,-0.73617476,-0.30261472,1.3410134,-0.37546518,0.5549249,0.51385146,0.20680173,-0.8277921,0.6012912,0.34087574,1.1620559,0.14597307,1.0762655,-0.7003493,0.96654195,0.40542495,-0.40427032,-0.091869734,0.26812878,-0.3697373,-0.32003155,0.56891525,-0.24408709,-0.8596401,1.2433808,-0.5221417,0.7795984,1.0955262,0.5876329,-0.8296325,1.2850248,0.25710672,1.9529625,0.36839613,-0.5874159,0.017902797,-0.20253302,0.5791093,1.353457,0.52886564,0.1696071,-1.2867483,-1.182902,0.48310375,-1.3710445,-0.9244085,0.5041407,0.6475566,-0.10413612,-0.030368367,0.94968754,0.69376713,-1.2239771,-0.74709606,0.5362882,0.35679436,-0.034508247,0.8527917,1.205135,0.6940697,-0.027396403,0.38114786,7.787439,-1.0523955,0.3958089,-0.8925325,-0.29296866,-0.55894166,0.87487906,0.4960837,0.49424306,-0.008053921,-0.55679196,0.4370574,-0.019799298,0.5039194,-1.5342437,-0.20444687,-1.3368503,1.238946,-0.98186535,-0.98713136,-1.3552061,-0.7312791,-0.5423347,0.11529491,0.97037727,-1.5593786,0.040618014,-0.1609962,-1.0011967,-0.076032005,-1.1391227,0.5672826,-0.12493006,0.27717873,0.7427542,-0.26435694,0.93322134,-0.73164684,-0.35074306,-0.023868212,-0.3648609,-0.107632585,-0.11642763,0.1822031,0.2547104,0.79583746,-0.4219607,-0.1628661,0.75875217,0.63271034,-0.16315277,0.066013806,0.018511936,-0.88989705,-0.21842694,0.00562018,-0.21328242,-0.25856254,0.5239994,-0.5917866,-0.78085184,-0.28474015,0.05230935,0.11017293,0.10583964,-0.90226287,0.39744768,-0.12534657,0.45372903,0.25923854,0.4694313,-1.1191511,-0.27783802,0.6096359,0.24473922,-1.1846471,-1.8698568,-1.3001196,-0.56154543,0.020534337,1.1800942,0.3522892,-0.65923625,-0.919429,1.0387137,-1.9154333,-0.19640164,0.21263343,0.4380797,-0.8648421,0.8473734,-1.0554216,0.9730396,-0.57493705,-1.2752904,0.109477885,0.117953986,0.70082015,0.6222814,-0.31770542,-0.10425422,1.1241323,-0.6535909,-0.78532696,-1.0544264,0.13815726,0.017896077,0.09201149,-0.13831954,-0.2812715,0.2933815,-0.29918668,-0.9778838,0.5253846,0.010257594,0.19221227,-0.56854117,-1.2645873,-0.15885285,-2.218408,0.2813327,0.615859,-0.74283457,-0.55415183,-0.48840177,0.021876281,0.0982003,-0.7086938,-0.8736179,0.4732648,0.27671728,-1.7434212,-0.24285857,-1.0578274,0.46747983,1.534626,-1.1160003,0.15983783,-0.62426054,-1.8511024,-0.06930294,0.8284159,-0.007593319,-1.629394,-1.2199019,0.10555166,0.28369257,0.45954087,-1.0149187,0.74618673,-0.042663604,-0.71790767,0.8525953,0.41756734,1.7920336,-0.9123103,-0.5362341,0.32681087,0.29431167,0.15668263,1.1316456,0.3297633,-1.4119259,2.0143173,0.030974785,-0.11821499,-0.38563254,0.24960499,-0.24453348,-0.2015171,0.8173074,0.57040375,0.055242848,0.20358069,-0.39347485,0.90217394,-0.007834938,0.00035773963,0.013106669,0.7468149,0.11287335,-0.23655641,-0.059954435,-0.54022926,0.7734313,-0.29730794,-0.16435069,-1.3464335,2.9329941,-0.32211176,-0.42895564,-0.3348551,0.89127606,-0.3475112,0.2506423,-0.17466803,0.7539544,0.22360452,0.9048133,-0.8435118,1.7418741,0.07159335,0.4527769,0.23509993,0.18220769,1.3404452,0.89223284,-0.24533367,-0.3948985,1.1750134,0.6765283,-1.1624441,0.88979214,-0.8383739,0.97133607,-0.09456879,-0.27850446,0.23203851,-1.4232029,0.16764535,0.98642826,0.26348507,-0.08391436,0.06374835,0.957026,0.40156862,-0.42974007,-0.432181,0.42804408,1.3683084,-0.04234484,-0.68845636,0.3125096,-0.5286873,-0.36515728,-0.33488846,0.5549828,0.61425,-0.12634051,-0.26038998,-0.37659916,-0.961997,-0.11757628,0.55498296,1.7685338,0.20717753,-0.47083938,-0.7792128,-0.561563,-0.86567026,-0.56503904,-1.0094995,0.5939733,0.6629684,0.17667663,-0.5851975,-0.22342233,0.7271147,0.024585648,-0.9014557,2.7652142,-0.53159004,0.60712725,-2.3523483,-0.5785505,-0.5405989,-0.62373,0.1373753,-0.43422556,0.24165149,-0.83445406,-1.009199,-0.27723232,-1.2906209,0.45343304,-1.1630404,-0.8941664,1.1053928,0.67467064,1.9595317,0.6499658,0.45888245,-1.5727323,0.9146611,-1.1717886,1.2448337,1.5441612,0.23658852,0.8439931,0.37046197,-0.51732177,0.013197574,0.17399204,-0.37264618,1.8155953,0.12698016,-0.5543068,-0.18213558,-0.73677206,-0.3893449,-0.032887604,0.68332815,1.0184247,0.76739955,-1.2879864,-1.6925826,0.31485817,-1.4501309,-0.15868126,-0.985666,-0.59438515,0.24536286,-0.5165991,-0.1601751,0.2563233,0.15751238,-0.31775296,0.9923647,-1.2104107,1.2534775,-0.34373334,-0.6278287,-0.7596273,0.23339069,0.16965063,-0.34516904,-0.12557687,0.17109813,-1.1262354,-0.3972868,-0.7049076,0.8458057,1.0895141,-0.076180406,-1.256801,-0.45405075,-1.368865,-0.5471198,-1.0457805,0.096728705,0.39793232,-0.049293205,0.4576441,0.5562728,-0.10031894,1.1622132,-0.39972997,-0.5838216,0.7337303,-0.62160146,-0.18629451,0.2783354,-0.0571361,-0.7183177,-1.7006756,-0.9660794,0.4681183,-0.9998927,0.9353473,-0.20270364,-0.40938118,0.30113298,-0.024950065,0.2520739,0.66904116,-0.08608892,1.5035195,0.17302126,-0.7462397,1.3651296,-1.8556365,0.22593963,-0.93240994,0.38220155,1.3336829,-0.80758387,-0.021799602,0.6739619,-0.29610816,-0.65847373,-1.2053382,-1.5197705,0.5414211,1.1431204,-0.9163954,0.16259807,-0.51054674,-0.4888463,0.7074124,-0.056301367,0.02490989,-0.17319717,0.108788855
q8,0.45776543,0.3914182,-0.44801214,0.9096918,0.46017042,-0.69135183,1.2400631,1.1641,0.30567902,-1.3237289,-0.30158138,1.1849382,0.7347219,-0.44253537,-0.070276454,-0.28051174,-0.6084103,1.1873426,-0.16669114,-0.3139898,0.9349635,-0.5315585,0.64936996,0.25022087,2.031827,-0.2240647,0.45250353,-0.5617309,0.45148414,-0.7118255,0.07713283,0.9509536,-0.3768025,0.3289827,0.074458465,0.85574406,-0.40573347,-1.1745464,-0.42420676,0.84487367,1.5403597,1.5157926,-1.0284011,-0.7532042,-1.4522525,0.5204828,0.17881694,0.74292034,0.1740955,-1.0122504,-0.8424181,-0.68589,-0.44368535,-0.07404491,-1.4633564,0.8126357,-0.6048268,-0.5615207,-0.51321244,0.2588727,-0.3612957,1.0745121,-1.921153,-0.25729233,-0.036307096,0.4515816,-1.7873399,-0.24888203,-0.21543509,-0.44478443,-0.09782922,0.15312342,-0.2605515,0.43108463,1.5579363,-1.4032804,1.1155652,-0.97317475,0.41334873,-0.47259393,-0.8354604,-0.80526847,0.76459366,0.441012,0.3253051,-0.5617268,0.53401566,-1.5871918,-0.81786567,-1.5725094,0.12009989,0.49095196,0.18961717,0.29334813,0.6485334,-0.77206254,0.7262771,0.5958535,1.1948457,-1.3642688,-1.0852023,2.1801631,0.039484914,0.5680257,0.25603023,-0.820835,0.029435702,-1.4386591,-0.67127585,0.4273109,0.39524466,-0.41847005,0.3572197,-0.2778796,1.8400162,-0.27466527,0.40887845,-0.72003716,-0.875633,-0.19184034,-0.33438408,-1.3388661,-0.8931415,0.6025903,0.27372402,0.97343516,0.8986384,-0.65415806,-1.4029192,-0.9488799,0.459461,-1.7270491,-0.0055968263,0.5054743,-0.6211742,-0.37933403,0.03893338,-0.15268916,-1.0102502,-0.7181712,-1.6021969,0.32679236,0.20743603,0.15487997,0.8168533,-0.8345349,0.38233662,-0.18273121,-0.26317626,-0.8103978,-0.80439866,-1.2312245,-1.085982,-0.48484272,-0.53056794,-0.47760126,0.069430254,-0.39387098,-0.65578336,1.2368925,0.5724108,0.107269585,-0.32932353,-0.37219414,0.29762614,-1.5792636,-0.32258633,-0.06379174,-1.302897,0.8930401,-0.4856524,0.5506831,-0.5338745,-1.0092311,-0.038337417,-0.2270786,-0.23262769,0.337232,0.56457293,0.011394464,2.095993,0.071671285,0.013967331,-0.5194297,0.34607628,-1.3068603,-0.4011973,-0.43093157,-0.1564284,-0.47038093,-0.2324839,-0.9261961,0.016558018,-1.088901,0.3125146,-0.49783707,0.71366745,0.036651716,-0.029719852,-0.43112773,-2.159529,1.1826012,-1.9144546,0.095835246,0.87126625,0.57256764,0.78150874,0.3543656,-0.35202804,-0.6358955,0.06621938,0.07536784,-0.59940076,0.69696283,-1.3811132,0.6164577,0.57825774,-0.17801636,2.4438107,0.7278801,0.73443484,-1.3268118,0.1601616,-0.008885037,0.45698515,0.8530867,0.6334842,-0.19257376,0.2116831,0.2804994,-0.1977508,-0.2130489,-0.8255298,-1.1586282,-1.4187679,0.09828961,-0.14775153,0.6115986,-0.068097554,-0.31109196,-1.2624032,-0.01911171,-1.0596585,-0.32949686,-1.7449714,0.2545686,-0.5131795,0.4338845,0.76598686,-0.7550753,-0.6327311,-0.6796824,-0.080610186,1.4741915,-0.4638789,-0.023522772,0.15045047,-0.9222766,-1.1667137,-0.90164405,1.6318784,1.0083617,-0.17987312,-0.74785364,0.1400067,-0.15121303,0.38201785,-1.5824597,0.21209024,-0.3691865,0.12926346,-0.42259762,-1.5971913,-1.1551037,-1.6756568,-0.95399773,0.655924,0.56070286,0.089875035,1.0127414,3.1212294,0.71785516,0.25786656,-0.68055654,0.7780398,-1.1016762,-0.42443484,0.63061386,-0.712072,-1.329076,0.1018683,-0.2320884,-0.5330268,0.79128563,0.058233935,1.35016,-1.175529,-0.4365782,1.405851,0.16790685,0.8530935,-0.36092365,-0.36995846,-0.065845646,-0.31154984,-0.81876785,0.58565944,-0.52317804,1.7377044,0.37361062,-1.0833517,-0.9073708,-1.0148689,2.3650503,-0.30653334,-0.6232293,0.3787347,0.48192072,1.2294079,-0.47404426,0.05439965,-0.83817595,0.32951322,0.33552334,0.9599804,0.3047961,-0.75781655,0.43197334,-0.5450756,1.3733709,-0.054782834,-0.3012339,-0.26011097,-0.47834337,-0.7141765,-0.84268856,-0.6745108,-0.01693591,0.12455043,-2.352767,0.66664296,-0.5719131,-0.18681225,0.5995448,-0.6436632,-1.1488038,0.45649827,-0.6239961,-2.2244866,0.47904813,1.4023986,0.7110402,0.55567664,0.6324038,0.3395442,0.53676003,-0.378656,-1.2828237,1.7106539,-2.2280784,0.5096644,0.31965548,-2.0183783,-0.23440497,0.15321295,0.79566735,1.647353,0.4483112,-0.20389675,-0.5614316,0.7491243,1.00714,-0.6317492,-0.24420823,-1.4234407,0.47860655,0.31052244,-0.1694455,0.7353799,-0.54531455,-0.3025355,0.957042,-0.071557574,-0.28795323,0.98810565,1.4307234,-0.1528816,-0.33473834,-0.82115555,-0.06941106,0.8256131,-1.2166942,0.5607713,0.21410885,0.027677886,1.4143432,1.9886632,-0.82423836,0.577576,-0.27645457,1.6399662,0.2932654,0.20941947,0.80414414,1.5310729,-0.06646155,-0.17150706,-0.37039676,-1.619213,0.19522811,-0.15505481,0.8954762,0.8082921,0.4013007,2.5527296,0.24067797,-1.0521669,-0.946732,0.0051279142,0.5585431,0.027401984,0.19705498,-0.9056128,-0.8137669,0.441043,0.028679239,-0.47758994,0.94917816,-0.7613139,0.9554454,-1.9572111,1.0110784,-0.024157561,0.35354078,1.2330987,-0.2777352,0.32258016,-0.16192667,-0.26909718,-0.19774595,-0.8284867,0.69485456,0.8120102,-0.73911583,0.035893902,-0.13121264,-0.111084096,1.0443248,-0.9334093,0.34148753,1.2228843,0.051013023,-0.73362,-1.6828593,0.6510639,-0.4711575,-0.43220437,-0.21132076,1.4946595,-0.012760984,-0.82381034,1.0147109,-0.26604378,1.5097682,0.5915506,-0.63812995,-0.33700493,-1.8963723,1.1192346,1.1092645,-0.9619147,-0.5720949,-0.29375246,-0.1828654,1.2244669,-0.96460575,0.91989696,-0.64319336,0.5267075,-0.7953281,0.6581719,-0.25260392,0.11604163,-0.5361156,0.794379,-0.8869417,-0.6823344,0.9768933,-0.3762101,-0.0025327255,-0.5507815,-2.0190575,-1.5854825,0.060785837,1.393468,0.14454149,0.09305836,0.24531811,1.0227653,-0.22746891,1.0890412,-1.9044385,0.15249261,0.13239509,-0.8150141,0.30868283,-1.5252982,0.6733951,-0.8392903,1.1929593,-2.3138316,-0.5997052,-0.9314873,-0.16880122,-0.6327982,-0.26992822,-1.1970128,-0.43944687,-0.61486304,-0.15834717,-1.2947534,0.66680545,0.19957218,-1.5460699,-0.74321115,-0.42901677,-0.2608353,1.8313105,-0.5291592,0.74003375,-0.13797408,0.56097174,-0.32941195,0.8733616,0.10052654,-0.7731597,1.2490051,0.21654457,-0.03233436,-0.14916843,0.3953646,0.9339082,-0.33538234,0.33007374,0.92344135,0.66837543,1.7633955,-0.18877628,0.7591068,-0.46135065,0.33832702,1.1560094,1.898919,-0.25504816,0.7220839,-0.6541839,1.0997946,-0.8936532,0.16219085,-0.79009885,1.2004882,-1.1013715,-0.7503023,-0.9830449,-0.8107926,-0.41131672,-1.0338025,-0.61427754,-0.7669451,0.64251137,-0.075043514,0.6863291,-0.3323798,0.3804385,-0.19261278,1.7395991,-1.2416825,-0.74279153,2.305397,-0.95608264,-3.4498546,0.08809913,0.37068698,1.5808241,-0.1479165,0.23561546,1.719182,0.5353415,-0.8192685,-1.2291445,-0.815042,-1.0123501,-0.18605907,-0.47053513,0.20908529,-0.9492558,-0.10641648,0.118771516,0.5767429,0.665766,-0.73004496,1.4746705,0.90250504,-0.5625668,0.6041535,-0.19737966,1.9111514,0.30343068,1.5438066,-0.264915,-0.39659888,-1.1293368,0.2522843,-1.4716214,1.1043823,0.28329885,0.6326803,0.28838107,0.055020828,0.77420783,1.4973199,0.26641363,-0.9353356,-0.09815409,-0.6888654,0.0478333,1.0260109,0.007813875,-0.6624254,-0.057897832,0.07375214,2.312502,0.32886288,-0.13860543,0.004161176,-1.6793925,-0.9277048,0.37664437,0.5185155,0.963227,-0.2617612,-0.9627931,-1.3112568,1.2325854,-0.0074578947,-0.11633922,-0.23763005,0.3141212,-0.81476563,-0.69339097,0.31478375,0.3141046,-0.18460542,-0.2217291,-0.23641504,0.69226223,0.55499303,0.20103632,-0.5742037,0.6399195,-0.61513925,-0.5150139,0.6476164,-0.24796718,0.5528501,2.2566602,2.2004573,-0.5978064,-0.80574495,-1.5851922,-0.7076989,1.8702579,-0.5637909,0.06071941,0.9039244,-1.0725812,0.4228617,0.91003776,-0.9608224,-0.8177047,0.6863455,-0.6504108,0.22453171,-0.6342096,2.256388,-0.40486452,1.2353357,0.347781,0.01781037,-0.19564952,-0.115112334,-0.57137257,-0.9767406,1.0437598,-0.07628727,0.7650082,-1.5076022,0.20677872,-1.487664,1.4709888,-0.004802452,0.6981731,0.30514708,0.735689,-0.24898762,-0.6504209,2.3095267,-0.44331375,0.6632746,0.4808552,-0.3744057,-0.24998368,0.88211083,-0.2723213,-1.3398312,0.6772927,2.0157795,0.09118397,-1.7993785,0.3980277,1.091567,-0.7171774,0.1818882,1.4535855,-0.067439176,1.0663831,0.9716046,-0.042278793,0.60713744,-0.022710174,2.0637822,-1.1988477,0.09550902,-0.96102226,0.27414,1.7195469,0.16110788,-0.5130237,0.028749768,-0.9234239,-0.4395821,1.4168367,-0.08433286,0.38821182,1.280972,-0.5792187,-1.7298006,-0.19405375,1.4056747,-0.3150147,-0.30051267,1.0012964,1.5340763,-0.33869976,0.64513737,0.17623505,0.022457382,-0.1945609,-0.090631165,-0.002111988,-0.020545533,-0.97273487,0.54092383,-1.3967056,-1.8633643,0.6828077,0.56822383,-1.0888656,-0.34163207,1.2786572,2.4919798,-1.435636,0.92264587,-0.35489142,0.70839196,-0.0055167354,0.63720274,-0.15290076,-0.16490059,-0.42728838,-0.07883099,-0.30245286,0.6484225,0.6920512,0.6011921,-0.5199412,1.0717008,-1.4353231,-0.78291917,0.23542754,-0.16623358,-0.58647656,-0.09907883,-1.1888943,-2.0270023,-0.59186864,-0.17663692,0.0756937,-0.6799262,-0.49998224,1.0686132,0.4646659,-0.9963773,0.29441884,0.0269321,-1.1392134,0.58166313,-0.18206719,-0.45709297,-0.49021065,-0.25306648,-1.1847999,1.0118899,-0.62084407,0.19684318,-1.3610969,0.4256152,-1.229028,0.54000014,0.8489425,-1.4927095,0.046422888,-0.8687575,-0.5543656,0.80861175,0.7593371,-0.29911768,-0.5037943,0.021621844,-0.61702967,-0.26691607,1.4257063,0.51736,0.5194663,0.52226424,-1.5806912,-0.9342702,0.029652545,-0.27488518,-0.5498762,1.1780555,-1.6376885,0.022732405,-1.427959,-0.30895078,1.0850745,-1.7335753,1.1891618,-0.43156517,-0.26489308,0.023950709,-1.2107217,0.30963624,-0.48696342,0.30043948,1.8547579,-0.002259151,-0.35039896,0.5267195,-1.2343216,-0.08402049,0.5240838,0.4755792,0.10164017,-1.5501268,-0.2252451,0.5756856,-1.5178823,-0.33615017,-0.17349152,-0.66273326,-0.03000723,0.34173363,0.12928608,1.1609845,2.0265608,0.031757053,-0.6052406,0.23378798,-1.1859872,-0.786371,0.17891058,0.14594615,2.07174,-0.044274047,-0.9776981,0.23473474,-1.5904244,0.91791356,0.77272666,0.034533072,-1.64577,1.3790851,0.7317961,-0.5633221,0.55113775,-1.4857519,-0.18989451,0.08946216,1.6654407,1.4465547,0.6085734,1.1388597,-0.09430371,0.34031826,-0.7951381,-2.0716922,-0.536354,-0.50664353,0.61494225,-0.17733996,1.2811283,-1.2980216,-0.43084303,1.1148387,0.15722412,0.43212822,0.93838894,1.2197303,0.108481154,0.7277126,-1.221259,-0.29272503,1.0129635,-1.7412071,-1.5517625,3.3509817,0.57013357,1.4205109,1.2574474,1.9174025,-0.7151759,0.69829214,0.6617433,-2.0092463,-0.82231086,-1.5357118,-0.4888463,0.6202285,0.20135994,-1.1616393,0.7557719,-0.0066886856,0.054113146,0.7766221,1.706899,-2.451796,0.6599936,-0.3439852,-0.748594,-0.028516445,1.3177757,1.8025265,-0.9914203,1.0797459,0.4476311,-0.60406125,1.3971615,-1.048656,0.4399913,0.12808746,0.97240174,0.538942,0.5419395,-0.65781784,-0.5573418,0.30007926,0.19093882,0.8107021,-0.45983627,0.19659795,-0.5339038,0.0890017,-1.4670357,-1.5821195,0.16185835,-1.1888846,-0.033021715,-0.29525545,0.24883029,-0.25928295,-0.66777176,-0.6185707,0.4700122,-0.0020911768,0.089939274,1.0279385,0.20538296,-1.5703965,-0.99749553,-1.528237,-0.0811147,0.63932335,-0.641449,1.1021262,-1.5830284,-0.5500339,-2.1825166,0.4324364,0.8403833,-1.2776556,-1.0090282,-2.0012043,-0.49346203,0.20676783,-0.21620134,-0.99951196,0.023684947,-1.5335041,-0.17265736,0.1849888,-0.18694977,-1.4853926,0.64831954,-0.49704164,0.61738276,-0.4964907,0.06109161,-0.651192,0.6032324,-1.0154356,0.49931636,-0.48142686,0.25878644
