question-id,0,1,2,3,4,5,6,7,8,9,10,11,12,13,14,15,16,17,18,19,20,21,22,23,24,25,26,27,28,29,30,31,32,33,34,35,36,37,38,39,40,41,42,43,44,45,46,47,48,49,50,51,52,53,54,55,56,57,58,59,60,61,62,63,64,65,66,67,68,69,70,71,72,73,74,75,76,77,78,79,80,81,82,83,84,85,86,87,88,89,90,91,92,93,94,95,96,97,98,99,100,101,102,103,104,105,106,107,108,109,110,111,112,113,114,115,116,117,118,119,120,121,122,123,124,125,126,127,128,129,130,131,132,133,134,135,136,137,138,139,140,141,142,143,144,145,146,147,148,149,150,151,152,153,154,155,156,157,158,159,160,161,162,163,164,165,166,167,168,169,170,171,172,173,174,175,176,177,178,179,180,181,182,183,184,185,186,187,188,189,190,191,192,193,194,195,196,197,198,199,200,201,202,203,204,205,206,207,208,209,210,211,212,213,214,215,216,217,218,219,220,221,222,223,224,225,226,227,228,229,230,231,232,233,234,235,236,237,238,239,240,241,242,243,244,245,246,247,248,249,250,251,252,253,254,255,256,257,258,259,260,261,262,263,264,265,266,267,268,269,270,271,272,273,274,275,276,277,278,279,280,281,282,283,284,285,286,287,288,289,290,291,292,293,294,295,296,297,298,299,300,301,302,303,304,305,306,307,308,309,310,311,312,313,314,315,316,317,318,319,320,321,322,323,324,325,326,327,328,329,330,331,332,333,334,335,336,337,338,339,340,341,342,343,344,345,346,347,348,349,350,351,352,353,354,355,356,357,358,359,360,361,362,363,364,365,366,367,368,369,370,371,372,373,374,375,376,377,378,379,380,381,382,383,384,385,386,387,388,389,390,391,392,393,394,395,396,397,398,399,400,401,402,403,404,405,406,407,408,409,410,411,412,413,414,415,416,417,418,419,420,421,422,423,424,425,426,427,428,429,430,431,432,433,434,435,436,437,438,439,440,441,442,443,444,445,446,447,448,449,450,451,452,453,454,455,456,457,458,459,460,461,462,463,464,465,466,467,468,469,470,471,472,473,474,475,476,477,478,479,480,481,482,483,484,485,486,487,488,489,490,491,492,493,494,495,496,497,498,499,500,501,502,503,504,505,506,507,508,509,510,511,512,513,514,515,516,517,518,519,520,521,522,523,524,525,526,527,528,529,530,531,532,533,534,535,536,537,538,539,540,541,542,543,544,545,546,547,548,549,550,551,552,553,554,555,556,557,558,559,560,561,562,563,564,565,566,567,568,569,570,571,572,573,574,575,576,577,578,579,580,581,582,583,584,585,586,587,588,589,590,591,592,593,594,595,596,597,598,599,600,601,602,603,604,605,606,607,608,609,610,611,612,613,614,615,616,617,618,619,620,621,622,623,624,625,626,627,628,629,630,631,632,633,634,635,636,637,638,639,640,641,642,643,644,645,646,647,648,649,650,651,652,653,654,655,656,657,658,659,660,661,662,663,664,665,666,667,668,669,670,671,672,673,674,675,676,677,678,679,680,681,682,683,684,685,686,687,688,689,690,691,692,693,694,695,696,697,698,699,700,701,702,703,704,705,706,707,708,709,710,711,712,713,714,715,716,717,718,719,720,721,722,723,724,725,726,727,728,729,730,731,732,733,734,735,736,737,738,739,740,741,742,743,744,745,746,747,748,749,750,751,752,753,754,755,756,757,758,759,760,761,762,763,764,765,766,767,768,769,770,771,772,773,774,775,776,777,778,779,780,781,782,783,784,785,786,787,788,789,790,791,792,793,794,795,796,797,798,799,800,801,802,803,804,805,806,807,808,809,810,811,812,813,814,815,816,817,818,819,820,821,822,823,824,825,826,827,828,829,830,831,832,833,834,835,836,837,838,839,840,841,842,843,844,845,846,847,848,849,850,851,852,853,854,855,856,857,858,859,860,861,862,863,864,865,866,867,868,869,870,871,872,873,874,875,876,877,878,879,880,881,882,883,884,885,886,887,888,889,890,891,892,893,894,895,896,897,898,899,900,901,902,903,904,905,906,907,908,909,910,911,912,913,914,915,916,917,918,919,920,921,922,923,924,925,926,927,928,929,930,931,932,933,934,935,936,937,938,939,940,941,942,943,944,945,946,947,948,949,950,951,952,953,954,955,956,957,958,959,960,961,962,963,964,965,966,967,968,969,970,971,972,973,974,975,976,977,978,979,980,981,982,983,984,985,986,987,988,989,990,991,992,993,994,995,996,997,998,999,1000,1001,1002,1003,1004,1005,1006,1007,1008,1009,1010,1011,1012,1013,1014,1015,1016,1017,1018,1019,1020,1021,1022,1023
Q1,-0.61466944,0.08976497,0.28744102,-0.49092963,0.20445403,0.4566882,-0.9529222,1.132534,-1.2023875,-0.7155412,-1.6044095,0.43369988,-0.2557113,0.5071658,-1.2691202,-0.6786795,-0.103084706,-0.38703614,-0.31585008,0.019871645,-1.1094,-0.32676625,-0.5686533,0.14719288,0.9143112,-1.3589237,-0.14778791,0.70601344,0.5549533,-1.6044335,-0.40642598,-0.07082954,-1.0674636,0.57354355,-1.2875692,-0.5785134,-1.3333243,0.64809924,-0.853564,0.26450214,-0.76050496,0.9574932,0.6097769,-2.0761049,0.26769105,-0.26766315,-0.019036923,0.7253593,0.33110765,1.003893,-1.3147701,0.07002759,1.0430847,1.3373637,-0.045857202,0.83686733,0.7986048,1.4981894,-0.14188184,2.0893564,-0.25274983,0.39517844,-1.6158271,-0.7924932,0.8816019,-0.13346398,-1.2816418,-0.72593313,0.37217858,0.1683795,0.23298866,0.56857735,-1.0254283,1.1137952,-0.42179152,-0.19900976,-0.16726267,0.6205612,-1.2698249,0.05388513,-0.47391307,0.5730911,-1.7040195,0.5251491,-2.0086305,-0.30158475,-0.6603808,0.81629145,-0.45918906,-0.5304049,2.3218179,-0.25049677,-2.0236807,-0.10633214,1.0515506,-0.038192257,1.130328,-0.2965686,-1.0101131,-0.06563028,0.48482046,0.5208234,0.14843911,0.9688578,1.5409766,0.5746504,-0.51691556,-1.8266888,0.60999393,-0.6832979,0.7186587,1.164117,-0.15374859,1.0243454,0.24360353,-0.35280344,0.6019833,0.17457095,0.25106013,-1.2604369,-0.58672106,-0.32810324,-0.12740491,1.3092675,-0.05035996,-0.78988934,0.03808448,-0.9563606,0.39671686,-0.61710453,-0.3893568,-1.8068582,0.7111396,0.26576415,1.0587124,-0.6879315,0.7208105,0.99773175,0.11002744,-1.5076534,-0.85471934,-0.6777532,0.4155239,3.0424483,-0.9400907,-1.1325983,1.0651749,0.42975676,-0.56969345,-0.45996448,0.8882072,0.58252925,-0.6585764,0.9321266,-1.3341955,0.6244261,-1.1993277,-1.079973,1.2370328,0.55504996,-0.37742653,1.177806,-0.78953844,0.6324157,-0.9080391,-0.07024871,-0.49967661,-0.8042192,0.17338286,1.7525704,1.4971185,1.5386434,0.7925405,0.68814266,0.1767207,-0.17746669,-0.90425926,0.5019431,0.35808232,0.88627917,-0.38580278,-0.30710667,-0.018998757,-0.13565108,0.9682846,0.4582701,-1.9152465,-0.39208135,0.053733382,-0.03879635,-1.3758559,0.47580338,0.9014263,0.959922,0.76495624,1.1505691,-0.06479567,0.3811445,0.21194306,1.1865026,-0.88471246,-1.2413864,-2.203253,0.75598645,-1.0313879,-0.35481808,0.40854865,0.90768933,-0.46503744,0.1805998,0.4963581,2.5635064,-0.9892992,-0.35006618,0.9514103,0.078067616,-0.67687714,0.2591361,0.86492157,0.29883543,0.5533665,0.6690973,-0.14128697,1.4368201,-0.24648887,0.36587942,-0.017421441,-0.88396966,-0.6971872,-0.6493166,0.80418944,-0.9958412,-0.53646225,-1.8237544,1.6010699,-0.1853748,-0.09038706,-0.37630308,-0.7704376,-0.73414475,0.84646124,0.033734307,-0.62083304,0.66307044,-0.16437764,0.16571164,-1.2644128,0.33822578,0.24260932,0.6168885,-1.2975861,-0.9492729,0.1904572,1.6430789,0.043711316,-0.574482,-0.7671745,2.2613251,-0.3050253,-0.31808126,0.7153513,-0.04978218,0.015545824,0.62017,0.7056692,1.9025178,-1.6096417,1.3116888,-0.18772648,-0.6694638,-0.7327111,-0.081413254,-0.7591959,0.41468704,-0.30364498,0.010618958,-0.015620782,1.1188976,0.31671298,1.2435504,1.6788441,0.12691881,-1.1300343,-0.098228924,0.13183118,-3.051468,0.3387769,0.11413097,-1.2757713,-0.47936156,1.0430455,0.58824193,-1.3205627,0.42488462,-1.3854855,-1.3181838,-1.651662,0.61449903,0.5758739,2.0108643,1.2733502,-0.20180973,-1.0049887,0.05274755,1.6833789,-0.039563123,-0.6516205,-0.528178,1.293908,0.76393324,-0.86000055,-0.014768824,1.0639241,-0.27883452,-0.9326397,-1.4788727,-0.31629607,1.2553401,-0.13048415,-1.067027,-0.6342892,0.49204722,0.22937264,-1.3515165,-0.4883436,0.7237598,-0.96978706,0.45878613,-0.005712783,-0.51553607,0.5533521,-0.22204088,-0.30963156,-1.0937575,-0.48053667,-0.5177028,-0.5128395,-0.3392699,-0.60712224,-1.4925164,-0.07763714,-0.6070378,0.9670961,-0.053432282,-0.58859724,-0.7019763,0.027082838,-1.3091552,0.63402456,0.40039223,0.48614398,-1.0809051,1.0572487,-0.21862559,-1.7957566,-0.005332413,0.40902987,-0.052195035,0.059410747,0.90422606,0.84718686,0.99995404,-1.7792004,0.046388198,0.7075587,-0.23131166,1.8736917,-1.0518669,-0.8084196,-0.28603232,0.7856354,1.9481144,0.021972617,0.25249246,-1.6089183,0.34803927,0.054066375,-0.07777244,-0.54946136,1.1220337,-0.43323916,-0.59609264,-0.31108886,0.06666794,-1.2865094,2.917454,-0.26629552,0.0012507059,0.45256948,0.88725704,1.1099533,0.021176537,1.1674782,0.87482893,0.27672645,-0.6480494,1.0154027,0.15545024,-1.8543166,-0.046273854,2.332012,-0.043031476,0.5565397,0.9315516,0.06805697,0.45405605,-0.87216127,-1.3216095,-1.9677887,-1.6884557,0.14994493,-1.1287947,0.40958482,0.35986534,0.39984706,0.30292517,-0.9862572,-1.7851753,-0.391372,-1.8539363,0.113596104,0.62297416,-0.78055865,0.10525756,0.8784439,-0.1937874,-0.9199781,-0.29251152,0.098642685,0.91463417,-1.6226325,0.3015606,0.7157884,-0.41818973,0.024956612,-0.34375826,0.20738687,-0.10012191,0.49609315,-0.50774497,-0.6213618,0.2722697,-0.16919716,1.5801842,-0.7832798,0.7674909,1.1708356,0.38416526,-1.8685069,0.3809921,-0.25507984,0.53797936,-1.414146,-1.6655532,0.59282666,-0.875815,-0.49328348,-1.4773968,0.25715956,-0.33456567,0.18306799,0.947831,-0.42854777,-0.5057511,1.5322165,-0.32132962,-0.15611266,-1.1036711,0.15700804,-1.0816716,0.13909276,0.40164644,0.2106009,0.15577577,0.36228883,-1.0624428,0.5525313,0.23471518,-0.11678402,0.745095,0.03944596,0.5736816,-0.7754673,0.15017022,-0.31000176,0.24813327,-0.73220694,1.0286059,-0.21018904,-0.8336019,-0.16221759,-0.15689753,1.1607267,0.58258146,0.8753367,0.39189348,-0.37000462,-0.50299335,0.45253506,1.3911562,-0.55160564,0.26661202,0.12238739,0.18367487,0.07708811,0.06948108,0.35935533,0.5150101,-1.3184619,-0.7557022,0.037709784,0.54566634,-0.9873464,-0.33049658,-0.623728,0.14880496,-0.36684343,0.20411888,0.28843096,1.6826373,-0.67175204,-0.25553447,-0.1068586,-0.7219393,-0.56037515,-0.016786933,-0.031857744,-0.41779244,-1.8327918,-0.7863343,-0.701503,-0.44477767,-0.23081185,0.5311064,-1.0018077,-1.5606364,-0.10871193,-0.07280284,-2.5696445,0.95178264,-0.24874997,0.9972385,-1.3588938,0.09666827,0.53370994,0.43864372,1.4229214,0.8557924,-1.993964,0.60862243,-1.6204711,0.520097,-1.3475308,-0.8389134,0.37791875,-0.75607705,-1.1583166,-0.805702,0.22322108,0.0077880104,-0.5149397,-1.2050335,-0.8620001,0.3143093,0.3154167,0.014840457,-0.08786272,-0.05590801,1.3708134,0.5354982,-0.69465834,-1.668228,-0.31784895,-0.8622968,-0.32955396,0.96044177,-0.86530805,-0.45836714,1.0197822,0.3441228,-1.4631057,-0.10448687,-0.3429537,-1.3703065,-0.5196334,-0.5357236,0.7352574,-0.47087488,0.40790597,-0.7653833,1.7694294,-0.08877813,-0.07950544,0.29089412,-0.055279005,0.6014242,-0.1207829,-0.32461524,-0.6329977,-0.49331138,0.9752226,1.2124786,0.3487244,-0.95120203,0.9280189,0.08928768,-0.16919889,0.04209404,2.1598155,1.9228439,1.0453467,-0.9926865,-1.2719479,-0.8292258,-0.74923575,0.91897845,1.1715019,-0.8907642,1.5001191,-1.2415447,-0.16109815,-1.0528617,-0.65883857,1.411337,-0.82091385,0.6576275,0.73031807,0.46653545,0.16601713,-0.2873428,-1.2496171,1.2905726,0.2585278,-0.022295924,0.31938097,-0.4290781,-1.6142287,0.7112528,1.9494072,0.026044816,0.044557516,0.34200338,0.5070923,-0.301832,0.24121739,-0.3940343,0.12782896,0.17586856,1.6253357,0.29083845,0.6303944,0.22731017,-1.1857319,-0.49686858,-0.483786,0.64345443,-0.4128619,1.1451873,-0.38510978,1.1035907,0.8515842,-0.45638636,0.63852614,-0.9967881,0.35719684,0.6657173,0.14952439,0.76025754,0.45625514,0.6412027,-1.939528,-0.14231847,-0.24218698,0.8079834,0.16957206,-0.38452828,0.55079645,-1.125431,-1.8957214,-1.8413234,-0.121064276,0.048568334,0.08705645,0.32483035,-0.7284227,-0.4223527,0.19306804,0.27123043,0.17075564,-0.5593625,-0.8382253,-0.61786723,-0.5318786,-0.680201,0.041004635,-0.3348408,-1.160692,0.75451475,0.7960479,1.5526128,2.0984967,-0.56185246,1.7011425,0.71926844,0.081853986,0.1268751,-0.60419965,-0.05297214,0.56280166,-0.77523863,-0.38022277,0.7633669,0.59939295,1.8186195,-0.3506187,-0.61454046,1.0276588,-0.5584378,-0.83065546,1.0352103,-0.51207155,-0.019369107,-0.23610765,1.8388556,0.4207227,0.3764492,1.1075249,0.039861042,0.7901792,-0.68379635,1.563231,0.54484725,-0.51958674,0.031219672,1.142861,-0.33039683,1.1576157,-1.5803006,-0.1155883,0.85331786,1.0514203,1.0475788,-0.02054988,-0.28489485,-0.28456056,0.9865806,-1.4450434,-1.0344477,-0.36517382,-0.101501636,-1.0198109,-0.45866883,0.68219453,-0.16075747,-0.75065273,0.6193453,-0.6088226,-1.6286887,-0.11821102,-1.4202873,-0.79848003,0.7959736,-0.68673825,-0.087446906,-0.5252356,1.8353101,-0.67496127,-1.6628512,0.531413,1.4924792,-1.1096749,1.5994358,0.7004568,-0.9081382,0.67494875,-0.52416044,-1.0438441,0.72158945,-1.597796,-0.48212764,-0.2676416,1.195443,0.33435872,0.64913327,1.1830134,1.2060107,-0.80923116,0.081349835,-0.5219523,-0.56022114,-0.011194772,-0.8287285,0.5675482,0.030253382,-0.12065279,-1.2808045,-0.949415,-0.6510857,-0.399632,-0.44716004,-1.0268685,-0.08858965,-0.4529673,-0.5331352,0.6556688,0.84765625,-0.20791326,-0.0890684,-0.9471241,0.30513534,-0.10163241,0.36128518,0.6400517,-0.9142347,0.5504028,1.2352301,-0.7778341,-0.53776586,0.5120371,0.45494965,-0.34179613,2.6100378,-0.6436115,-0.2035749,0.5983779,0.93809944,0.77547455,-0.6755998,-0.55907434,-0.94054466,-0.16084331,0.98432004,-0.32905415,-0.008052555,0.2155591,-0.3661236,-1.2112793,1.089143,1.6798841,-1.352476,1.3624743,0.032116633,0.6928548,-1.2141172,-0.7717542,1.5840118,-1.8356091,-0.4573847,1.3329136,-1.416003,0.9528641,1.1360453,0.58810717,-0.7174399,-1.4010974,0.28995726,-1.3535233,-0.045695078,-0.30406502,-0.41657856,0.5996118,0.8622475,-0.33734295,0.9478548,-0.14493619,0.061583087,0.252888,-1.0498549,0.9794977,0.7086443,0.22751631,-0.488449,-1.3294786,-0.19360755,0.9098971,0.007850062,0.5199858,-1.088573,0.7191576,-0.12014911,1.0061656,-0.09821571,-0.20316397,1.6437314,-0.27265355,-0.015976667,-0.62631613,-0.36014283,0.18025456,-0.92824453,0.45683938,0.27100232,-0.67523867,-0.13421649,-0.8939202,2.317116,-0.40274718,-0.75623876,0.9446401,-0.99592096,-0.0161546,-0.9816005,-1.0137788,-1.8704963,-0.40123364,-0.15761289,-0.7281021,-0.4713581,0.45396945,1.9203324,0.53657746,-0.71451926,-0.18093492,0.45663148,1.6318401,-1.2875047,-0.54109144,1.0076789,-0.9829823,-0.07268404,-0.93913686,-1.4242226,-0.46857473,0.18164316,-1.3251452,-0.1871007,1.8236405,0.98475456,0.958312,0.1743551,0.15331697,1.2364769,0.5515106,0.22191642,-0.27854323,-1.5826046,-1.5521969,-0.6206978,-2.2529573,0.11535848,0.10369552,0.7809959,2.4427373,-0.75102574,-0.7518724,0.79559535,-2.8771055,1.5381657,-1.1809751,0.4959302,-0.050880358,-0.22708152,1.8114976,-0.2544075,-1.1910969,1.2175739,-0.22320966,-0.7722721,-0.46893805,0.25974992,-0.3825371,0.62344754,1.2259259,0.09186406,0.8809708,-1.8574231,-1.1164868,-0.079664156,0.07160978,1.1616997,-1.274927,1.6437336,-0.61801696,-0.14728208,-0.14366929,0.5581846,0.026483309,-0.42383912,0.38625762,0.663835,-1.363903,-1.2407008,-0.3067377,0.91422075,-0.34633353,0.68344593,-0.14852025,1.139759,-0.68844444,-0.07520467,-0.55032355,-1.6898925,0.23152666,-0.2772502,0.054943755,-1.1675075,0.5202424,-1.2288322,0.52857643,0.34977755,0.22818808,-0.17530169,-2.5712948,0.6840427,-0.03012086,0.39754704,0.6635302,-0.26523307,1.1857148,-1.0340817,0.39734137,-1.4971664,1.0700479,0.66386485,-0.7131975,-0.94056624,0.3544006,1.1982402,-0.71728235,1.3713145,0.9516037,0.4343954,-0.23772064,1.1211491
Q2,-0.34013337,-0.12368535,-0.46341202,0.44849175,0.47211817,-0.83434373,-0.37131846,0.071711056,-0.1469507,1.5446588,-0.20962748,2.852894,-1.4443607,-0.71987796,-0.9690111,-0.0367998,-0.57325107,1.3515366,-0.13538398,1.1501042,0.27000454,-0.72749686,0.2460873,0.18801245,-1.5831382,1.1084572,0.66771483,0.7517213,0.87961787,-0.3672556,0.06564379,-0.7113348,-1.3139125,-0.3601119,-0.799544,-1.0696238,-0.13839073,-1.7615151,0.03801644,-1.135544,-1.0267171,-0.18130985,0.30806786,1.033133,-0.84689593,-2.011103,0.680282,0.15368699,-0.5879305,-0.82802445,-0.08588109,-0.5420755,0.6009812,-1.4346217,-0.17623626,0.8600678,0.46884224,-0.14576946,0.5970967,-0.3705775,0.6285775,0.63593656,0.54071915,0.8013294,-0.55999166,-0.90551955,-0.86886615,0.7537018,0.83508927,-0.27429506,0.29684827,-0.55480886,0.37183514,0.1658141,0.38060948,-0.0415584,0.3252421,0.68437386,-0.64853024,-0.3947819,1.339147,-2.3735747,0.2559452,-0.28296077,-0.62060654,-0.19788939,-1.7948838,1.314984,-0.72874093,0.11902047,1.0043231,-0.8150248,-1.8871117,-0.7172699,1.6254994,-0.8704494,1.2660384,0.55664486,0.32452586,0.34676743,-0.5233247,-0.3072057,0.49463403,-0.21358109,-0.048524186,-0.5249877,-0.5169319,-0.7786743,-0.10979975,0.67992496,0.5489658,-0.5210705,-0.92131764,1.5985069,0.12239408,-1.3723906,-1.1970513,-0.06546326,0.18849845,0.5955104,-0.3228331,0.33527803,-1.6859651,-1.0389942,-0.51334727,-0.24621591,-0.51982784,0.09772591,-0.016014926,-0.4940278,-0.021071829,-1.455977,0.47504026,0.6555405,-0.063744575,-0.778997,-1.1889027,-1.4623959,-0.83942837,-0.21919328,-0.7928591,-1.4065129,0.06538299,0.60570914,0.119638294,-0.5068072,1.7442325,1.3403815,0.99343944,0.51487786,-0.38148168,-0.97108597,-0.77672905,-0.08116661,0.2820059,1.222696,-1.7336406,0.35252205,0.0019182916,0.13729408,-0.6777348,0.58933467,0.8879211,1.7776436,-0.52468467,0.37130806,0.2877795,-1.0449047,0.16627973,0.8513865,0.9194985,0.18657134,0.77696073,0.30868694,-0.89987504,-0.5418061,0.09226255,0.4712515,-0.532429,-0.19580299,-0.39127854,1.4798312,-0.43870106,0.06525808,0.06789313,0.34431577,-0.59855896,0.5290034,-1.4597539,0.7618787,-0.19096188,0.7277348,0.1955592,0.35522267,0.9833999,-0.5353041,-0.18831006,-0.76677555,0.2928708,1.4503957,-0.7309005,0.19552876,-1.1300278,0.20801897,-0.9184908,0.56327766,-0.70301753,0.14229928,0.35390964,0.744533,0.3050537,-0.15520468,-0.13473086,0.74251074,0.13354452,-0.5671311,0.4299989,0.06829736,-0.2649388,-0.26613787,-0.17356724,-0.42674324,0.45350343,0.10225408,-0.2481417,-0.22597279,-0.63717246,-1.8364422,2.2567205,-0.24803591,-0.08449729,-1.073881,-1.2036477,-1.2239166,0.16666447,0.5690953,0.53215545,-0.54169965,-1.1997379,1.2163182,0.9930378,-0.5432921,-0.81458193,-1.2653772,-1.074701,1.195874,-0.33687207,0.5382815,1.0416442,0.53638524,-1.1314642,-0.730525,0.49969062,-0.21199308,-0.08137004,-0.46817234,-0.19685522,1.3901324,-0.72341794,-0.7075243,-0.5421943,-0.5651915,-0.4981229,0.9944683,0.07618857,1.3789684,-0.38814917,0.9031322,-0.042527612,-0.28551227,-0.1600889,-0.7226935,1.4499328,0.048487663,-0.46029776,-0.2403205,0.7678595,0.109271795,1.7364624,-0.0605348,1.2882415,-0.17748493,0.8965437,0.09547944,0.01617412,-0.2060741,-1.2891954,0.4540491,-0.52442175,-0.7223359,0.012485282,0.53205943,-1.5705979,-0.08823345,0.64650095,0.9179464,0.48118675,-0.088555746,0.22565721,0.90216255,0.379337,-1.0131791,-0.90704405,-0.990531,0.2888273,-0.864901,-0.51038414,-0.25752887,2.1489837,0.6050034,0.5489139,-0.7647593,0.0773055,-1.8962586,1.4528584,-0.17628598,-1.1915352,1.0107929,0.5882312,1.0399457,-0.44967356,0.11401152,0.36025348,-0.6855732,0.17211647,-0.4733422,-1.3740641,0.3658409,0.014103548,-0.21874417,0.6059048,-1.5858,-0.53668386,-0.3460225,-1.5540012,-0.115199454,-1.1818982,-1.3490089,-0.6453375,-0.5530692,0.48029605,1.3011471,0.77633476,-0.37501237,-1.350821,0.0429417,0.5120068,-0.021393405,-0.3916887,-0.1187845,0.45478728,-0.05324124,-1.0413079,-0.54288363,-0.39090022,0.32827625,0.28005874,0.9858177,-1.1065688,0.23565024,0.55087256,0.4122052,-1.1472278,0.7765144,0.92894155,1.0851088,-0.49126637,-0.5173261,-0.4238241,-0.88509715,1.0698638,1.1193153,0.3152371,0.033155616,-0.36465293,0.4608637,1.0903474,-0.7678049,-0.6422424,0.9230594,1.1248035,-0.38071597,-0.35581014,-0.43973693,-0.15090032,1.0897574,0.20126256,0.0986315,-1.3817455,-0.69566464,1.0779041,-0.25669718,-0.13233666,0.25411466,-0.021801682,-0.59800506,0.98575443,-0.6696279,-0.6979339,-0.56174695,1.0145198,-0.051934935,-0.74578804,0.41686776,0.62144756,-0.59565204,-0.15639783,-0.56873524,-0.8980549,0.7810721,-1.1687832,0.51905227,0.62138253,0.12765871,2.16959,-0.59350926,-0.044215962,0.76934046,-0.030862283,0.1535648,-0.15397722,1.380804,-0.6736688,-0.19314617,0.3495579,-0.15689059,-0.60444,0.4560734,0.29862455,0.9126833,0.026958443,-0.0040025176,0.2522459,0.39000148,-0.024886895,-0.19018994,0.045012705,-0.37370196,0.7339998,-1.5135487,-0.38179895,0.36499026,0.73024154,1.9214634,-0.26217306,1.047292,-0.39174604,0.4649562,-1.0630533,0.1150035,-0.01075621,-0.27913293,-1.1467274,-0.69888836,0.60824853,1.456218,-0.16539599,0.18415438,1.6768689,0.18033399,0.018900096,-0.38164356,0.18573332,0.3371809,1.1857948,0.09922318,-0.4656412,0.11343715,0.657414,0.91270643,-0.009834788,0.93770957,0.3244943,0.012812314,0.48694944,-0.80287135,-0.048414435,-1.0995466,1.3574759,1.1304985,0.13719492,1.536182,1.100584,-1.0326287,-0.047066,0.22653574,-0.4140623,-0.33131638,0.4693569,0.7242957,0.398956,-0.15917093,0.64237493,1.3336643,-0.10205726,1.2026248,-0.9648935,-0.3706641,0.8196102,-0.7633024,0.19439036,1.0012379,-0.11156663,0.20430146,-0.42283276,-0.61032385,-0.36664277,0.93932724,-1.4356412,-0.42337224,1.3363494,0.66589797,-0.40880176,0.5680597,0.72634417,-0.027511148,-1.0362991,0.11182497,-0.3611673,1.6896605,-0.7750908,-0.09358821,-0.12970875,-1.5977523,-1.5900646,1.0573589,0.3895172,1.9301591,-0.6585536,-1.1472116,-0.2639583,0.03863336,-1.0911406,0.88310874,-0.46859634,-0.47090694,-0.7830921,-1.2436779,-0.15344158,0.07501633,-1.246883,-0.5396762,-0.502605,-0.47760537,0.45416462,0.1452081,0.3409717,0.3447316,-1.6429998,-1.3347317,0.46188614,0.37661532,-1.1535455,-0.66395605,-0.8296362,-0.15285288,-0.15456407,0.34161893,1.2063428,0.4407443,1.1635239,-1.5380962,-1.9474727,-0.14092828,0.8898944,0.35646304,-1.477214,0.20414568,-0.058199417,-0.05531797,-0.7419684,0.34134105,-0.7193017,-0.42465678,-0.15162855,0.6469608,0.03546307,1.1291531,0.06839922,-0.22407289,-1.4529821,-0.16306216,0.29084828,-0.9233807,0.8507271,0.8090225,0.5962255,-0.76451284,0.16267419,1.2830447,1.6379943,-2.2722592,-0.21796484,0.4027715,-0.5324401,0.71889156,-0.53783834,-0.05428344,-1.2690955,-0.40277722,-0.5121143,0.5507779,0.14034882,-0.6150047,1.1382128,-0.10201435,1.7452896,0.74819183,0.28572515,0.99149173,0.24153894,-0.15410315,0.7021011,0.00508132,0.024452714,1.474801,0.1777226,-0.35378492,-0.190938,-0.37264517,-0.12061191,-0.38686883,0.3556805,0.50472337,-0.17929187,0.6784044,1.5845451,0.22321916,0.042899776,0.017056601,0.18775417,-9.201026,-0.29707024,-1.3539977,-0.02956334,-0.6653013,1.0100017,0.92014354,1.3259994,-0.22273423,0.9311821,-0.062349655,-0.17953879,0.006906932,0.9994614,-0.43406972,-0.6195059,-0.6183758,-0.32140788,-1.9058415,0.1473157,0.16120106,-0.4138684,-0.31211364,-0.6108897,1.1560453,-1.5338237,1.4435525,-0.03189776,1.0633736,-0.22038065,-0.31955898,0.7960482,0.8603466,0.71869403,1.2096202,0.60457313,0.3990012,0.11473668,-0.3946398,0.53257346,0.78202075,-1.2026032,-0.5619039,0.15065016,-0.23459662,0.0281074,0.26347062,0.7964018,-1.1285852,-0.31284153,-0.043533716,-0.11574095,0.38848412,-1.5540242,0.4193097,-0.5222213,0.53008235,-1.2447553,-1.170911,1.4933548,-0.18370701,-0.94682974,-0.53657174,0.71873707,-0.017983368,0.08309192,-0.5726015,1.0447376,0.39281663,0.018781668,0.2103855,-0.8272598,-1.256996,0.27669895,-0.10437839,-0.39865723,-1.0798999,-0.33059266,-0.34345484,-0.9844189,0.9181221,-0.21082406,-0.8764385,-0.9507819,0.44967955,0.22794265,0.33400005,-0.8217384,-1.1657208,-0.26426065,-0.15792502,0.4409895,0.9553776,0.18809691,-0.50254124,0.13104837,-0.5846178,0.843277,-0.33017647,0.85639876,0.54450357,-0.3173399,-0.12499339,-0.08966528,-0.44415873,-1.3187938,-0.89357257,0.8129114,-0.47717884,1.5169373,-0.045406554,-0.6468256,0.19775781,0.97799534,1.4686664,-0.34894592,0.7518205,-0.32342598,-0.36088288,-0.07786246,0.09634603,1.133338,-0.43986985,-0.62424684,0.79888415,-0.24156426,0.6359635,0.45679247,-0.8293714,0.89713216,-0.5694886,0.44391033,1.1601677,0.5102957,0.90964544,-0.58513266,-1.5624431,-0.17952181,-0.34714082,-1.9966079,-0.19131352,-0.33145425,-0.6707301,-1.4414992,-0.5614515,-0.51869917,0.590589,-1.6315573,-0.30322433,-0.2619437,-0.024105765,1.8194302,-0.2738032,0.030877203,1.0814471,-1.4036021,-1.3349932,0.6372319,-0.21089445,0.8976019,0.08862984,0.6326544,0.67892915,-0.98313355,-0.68610185,0.99655974,-0.98159766,-0.61707014,0.3602746,-0.0006590567,0.39759445,-0.61455095,0.5503497,0.022982037,-0.19980092,0.32473403,-0.52023894,-0.30099922,1.0297328,1.4065242,0.3117091,0.23517953,-0.9491194,0.6013126,0.3674776,0.09399757,0.3989684,0.37371996,1.169779,0.34611943,-0.7455816,-0.47983333,0.5789774,-0.78335434,0.15592033,-0.67401624,0.62663823,0.12266584,-0.018965729,0.7161122,1.0503215,0.19719745,0.0076911557,0.60266405,-0.8368688,-0.42959327,0.08096749,0.48026016,-0.8093763,1.3495507,-0.035775926,0.7786486,0.026810616,-0.56874084,0.44650948,-0.6162183,-0.14346632,-0.23438683,-0.7738956,-0.3713127,1.2063022,-0.47695267,-0.12537524,0.056684375,0.49480972,0.2569086,0.35364354,0.027894719,0.45037308,1.4803848,-0.35519364,0.49634182,0.7206039,0.39780322,-1.849886,0.7769451,0.71319747,-0.40396166,1.3027686,-0.96301365,-1.3353562,-0.4503688,-0.51300776,1.164704,1.4432694,0.24346928,-1.8835762,-0.02870667,-0.08609203,-0.43562946,-0.08802872,-0.0027154847,1.18753,-0.46961686,1.0309242,0.45140553,-1.0620693,0.31331006,-0.33364096,-0.24878687,1.86811,1.2566731,0.58439445,-0.76915455,0.5829796,-1.3112378,1.6020695,1.4901286,-0.4478934,-0.92077374,0.050506987,-0.33929542,0.5404492,-1.1622081,0.041281793,-2.1304114,-1.5525326,0.556497,0.88802874,-0.13047045,0.9680652,-0.7565378,-0.77797073,0.27862114,-0.8185176,0.41513416,0.89777637,-0.5415024,-0.3665743,-0.3262205,-0.8492525,-0.55220145,0.51371896,0.58022493,1.9157673,0.718631,0.32964796,0.1256267,0.049432483,0.8596857,-0.45531425,0.658029,0.7499081,-0.7749903,-1.3264698,-0.20249477,0.41990244,-0.066326745,-0.45453987,1.3068937,0.33026162,0.340503,0.3837001,-0.080201335,-0.30294827,-0.7832525,0.42578438,1.0036732,-0.9279551,0.2915579,-0.073169775,0.61438507,0.23705083,-0.56531686,0.8572233,-1.1285524,-1.344678,0.1752714,0.30317813,-1.3878622,-0.29999846,-0.15526246,-0.30545738,-0.11401339,-1.4942948,-1.8585327,0.2894406,-0.2979872,-1.2239903,0.7363001,0.9527026,-1.5206898,0.1523902,-1.2005397,-1.4735163,0.6789604,-0.66296214,-0.73767,-0.54954624,-0.5870623,-1.7285632,-0.45266458,0.23589006,-0.53746736,1.1976218,0.5961249,-0.8966741,-0.32769334,0.14449555,-1.0282918,-1.0550177,1.3193218,-0.4725682,0.94321805,-0.8675409,-0.33034748,1.0416267,-0.5502563,-0.57518226,0.4266778,-1.0219283,-0.342598,-0.53774464,-0.8157686,1.0582463,-1.2838374,-0.3234218,0.9539745,-0.8398855,0.007221444,0.47414485,-0.7250108,1.193967,1.1944569,-0.9581751,-0.6405619,0.68347186,1.1396025,0.102693684,-0.3541723,0.8252272,-0.6224404,0.19676404
Q3,-0.20200743,0.08772961,0.10091068,1.4551152,0.038672864,1.1314476,-0.9347303,0.24444787,-0.88355756,-0.7541059,-0.15559655,1.7767277,-1.2039155,0.7917479,0.78085387,1.3331801,-1.0951726,-0.19573769,-0.067083806,-0.02319285,0.22909087,0.29411173,-0.036514103,0.45846608,-0.071545966,0.6825905,1.182795,-0.076501474,-0.04741101,-0.98442405,-0.119859844,-1.1124611,-0.22551778,1.3535888,-1.0523956,0.39047527,-0.643514,-0.49646944,-0.07983147,0.98269486,-0.7214178,1.1415266,-0.59925675,0.56535363,0.50332344,0.5276662,-0.14115173,1.2727884,0.5798436,0.32351318,-1.3045771,0.29253018,0.7243859,0.50979203,1.1958369,0.013684301,1.9939584,0.2572884,-0.98938113,1.1387062,1.3465836,0.36659986,-1.1568255,-0.6784085,0.46153766,0.13456295,0.10912382,0.10320935,0.8415553,-0.7173599,0.3365579,0.4091821,-1.0092217,0.9683659,0.97245085,-0.050466172,0.19715929,0.3776584,-0.5265508,0.7152122,-0.9792005,-0.19070397,-0.35241488,1.4208817,-1.4618169,-1.6343563,-1.2686247,-0.56358945,-0.2335449,-1.1238263,1.8137683,0.31974083,-2.1164153,0.69812745,1.3674719,-0.56670696,1.252679,-0.7567565,-0.4086712,-0.5173096,0.5038615,-0.2921297,-0.73262787,0.25328892,0.2165034,-0.8444533,-0.65432906,-0.7884548,-0.38195848,-0.3205399,1.6315233,0.45572633,0.54314655,0.7070555,1.5286006,-1.3152155,-0.4387064,-1.3477018,1.8383857,-0.60535616,0.24006726,-1.9953938,-0.94498473,-0.6799186,-0.36003274,0.26669174,-0.14812799,-0.23164794,0.33065164,0.62583834,-0.8661785,-1.4604727,0.5498943,0.06905668,0.52610767,-0.959362,0.74123704,0.40030533,-0.8194508,-1.0822647,-0.88017786,-0.35057205,0.31904867,3.467921,-0.45275015,-0.19116479,1.2214416,0.7350234,-0.19210815,0.03316534,-0.5434342,-0.00740667,-0.29657495,0.21530503,-0.94824815,0.46831667,-0.85778606,1.0616556,-0.20477517,0.17833132,-0.30642116,1.6429799,1.3270555,1.4539058,-1.0782342,-1.7161514,0.19195086,-1.14769,-1.6049092,-0.76495767,1.0035269,0.17486177,0.22800285,0.7642655,0.7202587,0.898552,0.24044552,0.19449861,2.0321188,-0.90240985,-0.45112866,1.8482444,-0.41722107,-1.0472987,-0.30455935,0.76437026,-0.7603148,0.73534435,-0.81060606,0.44818783,-0.9657825,1.2197928,0.13513607,-0.5457973,0.3268831,-0.24683827,-0.15202355,-0.0031755795,0.44202688,0.7637402,-0.39113298,0.504621,-1.2344817,0.051823396,-1.9512006,1.4571391,-0.53532416,1.906989,-0.123878054,0.06947067,-0.5804726,1.5302836,-0.34858748,0.67383254,0.7095604,-0.5620733,0.11807593,-0.80180573,1.4604084,1.4965965,1.0662193,0.18063459,1.1486969,0.35222176,-0.41530812,-0.69809943,-0.8355334,0.6826045,-0.63800776,-0.89379317,-0.19391976,-1.2940127,-1.3272879,-0.9479545,0.91902584,-0.31796438,0.69811475,0.67754567,-0.8086425,0.4675318,-1.3943086,-0.46752584,-0.006859658,-0.10273269,-0.56683993,-1.446481,-1.4055678,0.37149608,0.75097173,0.24076392,-1.4994276,-1.9725045,-0.11344076,-1.2857649,-0.22374736,0.2786045,-0.1227611,1.6421256,-0.34449255,0.34446305,1.1773067,0.18115269,-0.5663277,-0.53215337,0.56159115,2.9266167,-0.50562036,1.1124784,-0.7805688,-1.0259595,-0.86617005,-1.5105729,-0.28770134,-0.41177756,-0.42388186,0.16555549,1.2331041,-0.13396193,0.83457476,0.9917708,1.5801044,0.9195887,-1.4321334,-1.0876867,0.74590355,0.13474414,0.34892458,0.22931513,-0.31730068,0.111309566,0.20761941,-0.24661748,0.008561691,0.46515304,-0.8007692,0.4548226,-1.7145841,-0.63680416,0.64395154,0.5703205,-0.8343883,0.29844534,0.8077821,0.6501998,1.7927579,0.058121003,-0.4226637,-1.0806669,1.1030405,1.2027006,-0.7089849,-1.215639,0.40276957,-0.08130011,-0.2500734,0.33190125,-0.744316,1.5561621,-0.053499755,0.36980945,-0.5191379,0.29857284,-0.6143533,-0.7667382,0.6954101,0.12365122,0.90738493,1.481195,0.22474167,-0.6627941,0.616195,-1.4766083,-0.754901,-0.49653882,-2.0171123,0.060423292,-1.4378172,-0.33259392,-0.3363605,-0.99985474,0.12871228,0.020977808,0.9592885,-1.839837,-1.5851499,-0.3237713,1.7257133,-0.6297815,1.522708,0.52682555,0.0768208,-0.36845082,1.3490537,0.28626716,0.3091694,-0.4895361,0.52394646,0.19366851,-0.5351339,-0.61975676,0.50910395,0.9568869,-1.8991628,-0.32663065,0.6566743,-0.385164,1.7258798,-0.17825906,-0.99697006,-0.22683205,0.41091016,1.3887781,-0.8234793,0.5279577,0.2648431,1.1178882,0.32208648,0.37450048,0.7616345,1.5711887,0.82987124,0.18133554,-0.009735057,-0.9455729,-1.4775918,0.98779863,0.41544014,-0.30901334,-0.10921187,-0.023514615,-0.19910105,-0.8267702,0.65534526,2.0126066,0.5790577,1.0191016,0.6661818,-0.52255756,-0.1299455,-0.2136886,3.267668,-1.0423818,-0.6162123,1.4281919,0.45907748,-0.75956815,0.14551447,-1.1706253,-1.4856789,-0.3322775,-0.20521775,0.7331612,-0.14280477,-0.9828769,-0.6444037,0.12682316,-1.153082,-1.054723,-0.7380549,0.89211315,-1.3381709,1.0100198,-1.4669408,-1.3574952,0.23078178,-0.14876689,0.95697564,-1.003164,-1.2533396,0.9147448,0.97274816,-0.17875259,0.6796024,-1.0275556,0.6603963,0.15175308,0.9455668,0.16582586,0.15414223,-1.6403,0.2812958,0.23561928,-0.23002742,0.21229202,0.45295015,0.357603,0.8618352,0.95640725,-1.5005181,0.12099517,0.21232976,0.23606826,-1.2305373,-1.6943586,-0.47547573,-0.63682073,-1.1417136,-0.4827806,0.63711506,-0.07753882,-0.22416908,-0.28925624,0.06564513,-0.2506412,1.3885518,-0.5923674,0.5870905,0.22400306,1.7732456,-0.3789692,-0.12880401,-0.61158496,-1.5516104,-0.7299548,-0.18201971,-0.9424829,0.80062616,-0.11416503,0.6156095,0.8983395,0.765257,-0.3496399,0.71039253,-1.2981746,-0.20662469,-0.65854585,-0.4749495,0.61543125,-0.28015718,0.19578703,-0.36385176,0.38756788,-0.22303788,0.7440815,0.9715398,-0.27321357,-0.59883505,-1.2284158,0.68919045,0.37107798,-0.18913445,-0.3502819,0.5261671,-0.5105862,-0.6557323,-0.47984225,0.5119042,0.01724811,-1.2456763,-1.308663,0.010669332,-0.43899557,-0.2607358,-1.159663,0.020602955,0.023449995,0.6834506,0.8227253,0.09978283,0.71972907,-0.96545446,0.1910101,-0.060894992,-1.8952997,-0.64539,0.5098578,0.22431612,1.5854005,-1.1516232,-0.52763623,0.23337902,0.4061958,-0.67914474,0.5513165,-1.926848,-1.1185917,0.57650656,-0.025401734,-0.68785274,0.9061337,0.47941935,0.584889,-1.6075442,0.30362254,0.48470035,0.025713496,-0.15260442,-0.2832278,-1.991134,-0.20356783,-1.3899891,-0.29540917,-1.3054836,-1.5979118,0.1933748,0.6182678,0.02263124,-0.36731264,1.6926986,0.60806924,-0.6371044,-2.2629519,-0.3016392,0.27408147,0.82923156,-0.45358175,-1.5493264,-0.51001465,0.34793943,0.5644534,-0.75242776,-0.8733863,-0.36756742,-1.1234931,0.3914148,1.0568488,-0.7568579,0.58413404,0.22551335,1.2144401,-2.2283652,-0.44686335,-1.601023,-1.1392075,-0.665408,-1.4032512,-0.90712607,-0.7728967,-0.05707149,-0.4656105,1.6422937,-1.2334658,-0.4113296,-0.041236594,-1.025712,0.1486358,0.12783177,-0.8882109,0.2824682,0.36231282,-0.09990769,1.2993581,1.8253558,-0.5328902,1.3045189,1.0619394,1.9471691,0.15354833,0.9833707,1.7184067,-0.19063576,-1.6153185,-0.8724399,0.47055262,0.062361665,0.25887102,0.8362952,-0.17851096,0.31204236,0.7359971,1.0157251,-0.40659362,0.39096993,0.73203266,0.22544521,0.9428682,1.2262937,1.6411109,-1.7699853,-0.20411283,-0.38009942,-3.870277,-0.5614674,-1.2659824,-0.7623497,-0.538753,-0.63096607,0.3818564,2.8066723,0.32342193,-1.0616834,0.8667807,-0.26923963,-1.5519363,-0.08406694,-1.9639722,-0.2742636,0.03539804,-0.4207441,-1.3003916,1.587596,-0.19485906,-1.773135,0.121352635,-0.08523068,1.5102627,-1.6301898,-0.5010288,0.52150553,-0.20470649,0.05582826,-0.5171817,1.1532134,-0.89746463,-0.20697817,-0.5652822,0.09050974,0.455702,0.20151351,0.5773517,-0.22363138,1.0281036,0.8621536,0.3510607,-0.15529427,0.088732846,0.9043029,-1.1363297,-0.22072604,-1.0939189,0.46443683,0.15347414,-0.3290836,-1.4824325,-1.5054743,0.42620736,-1.0057158,1.4798484,0.08666785,-0.95505196,-0.3960559,-1.0090718,0.6096796,0.18718964,0.4235614,0.90073806,-1.6911527,1.2280813,-0.36128476,0.8913686,-0.5675399,0.28464693,0.77396625,-0.2018396,-0.87262374,1.6100405,-0.03457423,0.7871262,-1.2472897,-1.4258188,0.23016503,1.4678046,0.10119053,-0.7094765,-1.3379358,-0.5634131,0.5696593,0.19295126,-0.40400484,0.2589373,0.11429686,-0.49327672,-0.4866352,1.855119,0.13429588,-0.47542042,0.10988916,-0.6255777,1.001932,-0.2970738,1.7196902,1.5303885,1.0500523,-1.0590528,0.27192578,-1.7518877,-0.28595197,-1.0252187,-1.059854,-0.28512862,0.5694797,-0.009997349,-0.27201387,-0.9986626,0.4439125,0.58647853,-0.8671253,-1.6033491,0.25728312,0.13228123,-2.0872798,-0.5507764,0.37225044,0.11607526,-1.2234731,0.559002,0.6600326,-0.72649765,0.033620827,0.36119255,0.04245871,0.2772457,-1.482121,0.83482784,-0.9554259,0.6931824,-0.46588367,-1.9805934,-0.48800308,-0.50829786,-0.6760982,-0.1540683,1.0663593,-1.4801517,-0.74408174,-1.331935,-0.84966606,0.7808293,-1.4168766,1.0244758,1.3977852,0.8223268,-0.24659967,0.29055294,0.8968995,0.69610155,-1.2960029,-1.7424747,0.81090033,-0.6094299,0.3489377,0.5604117,0.14764874,-0.49905765,-0.11720479,-1.6258724,-0.5583679,-0.080809355,0.09345505,-0.62594074,-0.35635927,0.36010635,-0.40644187,0.23034622,0.20222434,-0.30275008,0.6270345,-0.028234102,-0.7216219,-0.15840429,1.1003761,0.23885554,0.03371456,-0.20459531,0.5314086,0.24007885,-0.059591677,0.107530765,0.94540364,1.7343507,-1.2260678,0.89995694,-0.8089856,0.050345007,0.20453142,1.0955199,-0.34142607,0.13717529,-0.7927768,-0.58902353,0.48252013,1.7784721,0.34262842,-0.16188961,-0.17393383,-0.81836194,-2.7808478,0.6650903,1.3202177,-0.88995963,1.9513509,0.22420558,0.3283038,-0.13930723,-1.0955813,1.3576335,-1.4754231,0.15179612,-1.3833089,-0.3193806,1.5406226,0.5569484,-0.35469535,0.27555373,-0.9544513,0.4891006,-0.22329274,-0.42742407,-0.6854292,0.3270613,0.37004328,1.153022,-0.25688913,0.33112907,-0.8726105,0.3528562,-0.4280768,-0.34627202,-1.0972736,0.22713663,-0.5487946,0.015219746,0.34180146,0.16884272,1.3927382,0.67862576,0.58870065,-0.28119293,0.3640648,-0.6389151,0.459988,1.5213335,-0.69474053,1.2145543,-0.59363866,0.6756843,-0.14857318,-0.464279,0.49343556,-0.78605556,0.049852405,0.9805406,0.10594146,1.2619742,-0.6025676,1.9128292,0.0014605522,0.3141603,-0.08257847,0.79071623,0.5525059,-1.3561591,0.5038106,0.088462636,-1.237778,0.090403475,-1.71824,-0.16343337,0.2896027,0.30910757,0.8857714,0.42671025,-0.6371014,0.059147615,0.045170195,-1.3203233,0.008835987,0.96447664,0.37460902,0.33508703,-0.4887647,-1.7370089,0.12290256,-0.06505591,-1.1385949,0.27357018,1.3947983,0.8088018,0.9942022,0.2943987,0.42013982,0.2205498,-0.5834446,1.1643364,-0.09113465,-2.3437853,-0.3019169,-0.46667612,-0.79675853,0.6683993,-0.067839876,0.37051237,1.2451885,-0.2602957,-0.44205782,0.32704479,-2.0858226,0.11447699,1.3315876,-0.07068654,0.033771854,-0.6027475,2.4672956,-0.18135372,-1.0813795,0.16533309,-1.5656823,1.0421324,0.3819918,0.1154995,-0.6763481,0.0609476,1.6086818,-0.45471537,0.37109825,-1.3243974,-0.16470042,-1.6314365,0.26990443,0.21182999,2.118678,1.8124392,0.34674332,1.0020244,-0.089667186,-0.45378017,-0.32013866,0.71352017,0.009332036,-0.3777754,-1.4271191,0.09106542,0.5652269,1.2843273,-0.12766607,0.4526865,-0.9421303,0.37704474,-1.5346067,-0.06409089,-0.3887485,-2.1571202,1.695787,-1.5195947,0.8770433,0.19813456,-0.21510841,0.23812881,0.6760119,0.6954454,-1.0180305,-0.58852184,-0.76825166,-0.28340113,-0.14941308,-0.2026592,-0.67598844,-0.25547177,0.69921875,-1.365296,-0.56217045,-0.5427526,0.7928673,0.007823912,0.45903417,0.0054742945,-1.1219544,-0.3848933,-0.69282544,1.011831,0.38763604,0.038795725,-0.3010847,0.06370215
Q4,-0.52901095,0.77863735,0.21590154,0.57774067,0.6966015,-0.90839803,-0.42382714,-0.1905969,-0.5360971,-0.078396074,0.3053947,0.42065716,0.485652,0.20140281,-1.1052054,0.35462743,-0.83164793,-0.030817503,0.54824275,1.1252594,0.24518515,0.7837463,0.09826565,1.2576087,1.1104465,0.03457842,0.36588085,0.90185106,0.30865562,-1.4513521,-0.34924474,-0.98653394,-0.060542367,-1.0238335,-0.873894,0.4411455,-1.1251298,-1.6602817,-0.4075883,0.4943361,0.6886667,-0.507179,-1.1641697,-0.753888,-0.6267176,-0.54751474,-1.2362182,0.75693214,1.0130769,0.11266088,0.11829088,-0.45925874,0.21561666,-0.77505416,1.0633328,1.7337685,-0.3081962,0.2743412,0.31538782,1.1626503,1.0571477,0.49132663,-0.19216812,0.130149,-0.19720471,0.43815827,-2.6202738,-1.3333689,0.46832347,-0.6679743,0.50658125,-0.51410216,0.36108354,0.9186951,0.653937,0.091449946,1.3047285,0.37169495,-0.67440915,1.1412666,0.42627373,-1.3509754,0.5716288,0.111535765,-0.7580553,-0.086051315,-0.84374684,-0.04595563,-1.1377302,-0.46800455,1.4362631,-1.5178077,0.7570812,-0.32778987,0.53526247,0.7185955,0.81483334,-0.23994114,-0.15262482,-0.7459511,0.3460303,0.24357912,-0.39176857,0.10618374,0.17539039,-0.6097014,0.33507326,-1.4061275,1.4779607,-0.5507663,1.6579396,0.63212454,-0.17327872,0.6372509,0.79865116,0.5092707,0.8626902,-1.2572901,-1.9263021,0.8680916,0.85653454,-1.1102822,-1.3350213,-0.39450812,0.19160265,0.8426736,-0.5937901,-0.75785863,0.0017639166,0.17222515,1.5364926,-1.939961,0.40642127,0.68356085,-0.38320848,-0.88191414,0.29586563,-0.38639507,-0.40013865,-1.7187364,-0.5237142,-1.0471563,0.17065826,1.697375,-1.6044885,-0.98201895,1.0129083,0.86516976,-0.38708836,0.3340576,0.71744245,-0.21787362,-0.7103751,-0.42991045,-1.3659264,0.2415196,-0.4766356,0.6795658,0.56346846,1.0029325,1.2723355,1.096516,0.44634375,0.6721691,-0.13745563,-0.8578194,-0.45925257,-0.96033686,-0.73984426,1.9682578,1.7389354,0.6197783,-0.058691118,-1.0842073,0.16116191,0.5147557,-0.18185902,1.1027074,0.98444414,0.13935234,-0.8051236,1.1260333,1.4437827,-0.31785846,0.914513,-0.7316664,-1.3277317,0.87884164,-0.9181945,-0.20938146,-1.0099505,-0.8438034,-0.6448879,-1.2205516,0.80549437,0.31394273,-0.03991017,-0.93421936,1.2282901,-0.980122,-1.1059662,0.43655428,-1.7632747,-0.23154445,-0.417367,-0.016453698,-0.23463643,0.8985509,-0.15023397,-0.7727313,-0.6907401,0.96601063,-1.1036471,1.7404832,-0.066451505,-0.3618569,-0.59317386,-0.65547436,0.624407,0.41953933,-0.9907389,-0.10991917,-0.04781214,0.6586478,0.20753899,1.4705726,-0.068686485,-0.0083423285,1.446729,0.036502767,0.070880674,-0.22402452,-0.15101294,-0.63080305,-0.24646792,-0.056875296,-0.21083874,0.26040888,-0.44756716,-0.6829953,0.14132142,-1.0821788,0.1594533,0.24087839,0.92480475,0.10721697,-0.6569669,0.97922516,1.407594,0.60050195,-0.869087,-1.4086131,0.9245936,-0.6466808,0.39497754,0.3851842,-0.9459957,1.4528301,-0.034547232,0.05677507,1.2876172,1.4717137,-0.57269555,-0.65128285,-0.7614954,0.6975983,-0.45288244,0.08321847,-0.67299503,0.48112044,0.73500204,-1.4561124,-0.17129044,-0.89634615,-1.780403,-0.6670227,0.7532716,0.5869052,-0.2235879,-0.2641201,1.6039258,0.72622645,0.78834105,-0.34558454,0.49248832,-1.0209994,0.16147368,-0.11654668,-1.0647027,-1.4590361,1.460657,-1.6331948,-1.7953651,1.2504045,-0.25802955,0.801615,1.4356265,-0.30320936,0.4355363,0.30152068,0.024500478,-0.2091476,0.18567106,-0.07756361,-0.2638695,0.36437508,0.74455583,-0.69484544,0.73404783,0.9019771,0.0002120811,-1.091664,-1.1258267,-0.3812282,0.66175544,0.059521466,-0.5796463,0.96776515,-0.30825987,-1.1696804,0.38056985,-0.055399522,0.34842524,-0.76152503,0.39689744,-0.17146827,0.7731584,-0.6640039,-0.15638627,0.34906632,0.6006121,-1.0967429,-2.7911363,0.49118966,-0.5073436,-0.41628405,-0.3294136,-0.50916046,-0.086136304,-1.4144199,0.92241365,-0.36515656,0.37833253,0.56321806,-0.84213936,0.4503157,-1.7943348,-0.53202343,-1.7430899,0.26426163,0.94761574,0.16469571,-1.3554558,2.1875947,-0.7112567,0.52354765,-0.31029594,-0.20137462,-0.7038057,-1.2271025,1.48349,1.1713144,-3.958167,0.85224193,1.0366533,2.17503,1.992435,-0.7485059,-1.0835499,-0.21844922,0.3558147,0.8453212,0.63198495,0.45771882,-0.2995984,0.84527636,-0.10192818,-0.906595,0.7386885,1.343163,0.7877254,-0.8320114,0.083984196,-0.5014418,-0.8579144,1.8866345,-0.3598717,0.75232065,-0.83906084,-1.5664477,0.42946774,-0.43609118,0.26083225,0.22919676,1.3168008,0.4721411,1.1049261,-0.5424707,-1.0543232,0.06468887,2.2810977,0.56001604,0.0046028392,0.34637845,0.85545117,0.15280631,-0.6599701,-1.2373458,-1.3569386,0.2776735,0.8706068,-0.06079655,-1.1720722,1.7969241,1.8577385,0.34968638,-1.9675031,-0.67213094,-0.5258675,-0.25937325,0.29589248,0.309169,-1.3259281,-0.034153424,-0.12541352,-0.8337798,1.4435078,1.4860634,-0.906748,1.7721856,-2.2856672,0.009025058,0.56231546,0.9225015,0.30707827,-0.6571746,0.63402134,-0.62718695,-1.7430536,-1.6215321,-0.9402205,-0.22790898,-0.31371972,-0.2847116,0.91915995,0.9468852,1.0498188,0.7916735,-0.82449555,-0.84013194,0.5303799,-0.7686189,-1.0049063,-1.150375,-0.8706099,0.0016492436,-0.6612163,0.953947,1.0328141,-0.60737467,-0.027579246,0.71603566,1.0246379,1.3440292,1.6534611,0.4682504,0.092007354,-1.2624104,2.051594,0.19964217,-0.4881584,0.48119724,-1.2071757,0.7445264,0.65881896,-0.20453224,-0.10110972,-0.7473789,0.29586026,-1.2512885,-0.25663266,-1.3633116,2.4528477,-1.7838722,-0.44623855,0.46307045,0.58452624,0.24849558,-0.51878434,-0.2639963,-1.0563356,-0.5340424,0.12137782,-0.090891525,0.8028255,-0.16990033,0.16430877,-1.0866485,1.8462508,-0.47425926,1.0299377,-1.0638083,0.37067443,1.5386398,0.7059669,-0.5574021,0.111998685,0.64276415,-2.2432897,-0.0790708,-0.4633668,-1.2002242,-0.85443944,-1.2687458,-0.50893885,-0.46179155,-1.0380545,1.616853,0.23508555,1.0064358,-0.90914917,-0.98241574,0.6781462,-1.9178467,-0.4522441,-0.09319081,0.4925591,1.6171281,-0.14511389,-0.806483,-0.8232235,0.25507838,0.2947662,1.4652332,0.031824216,-2.983106,-1.4875962,1.3464681,-0.51850384,0.23788825,-1.6614834,0.9444555,-0.4236717,0.115772866,-0.19767682,0.0022984678,1.5482891,-0.22503491,-1.1724569,-0.61736166,0.3233755,0.16604224,-1.2868738,-0.39785534,-0.82620126,-1.143047,-0.022892686,-1.6173309,0.35733888,-1.540265,1.6146958,-0.9409258,-1.4996797,0.08189228,0.85903484,0.8317568,-1.195068,-0.17924139,-0.20300801,0.7062222,-0.7516675,0.8006196,-1.6932766,-0.6244872,0.15858482,1.5142484,-0.6110289,-0.06500482,0.8519154,0.043187678,-2.3290017,-0.0023342294,0.95134884,0.91547155,-1.3245397,-2.3813791,1.234302,-0.6434742,-0.7262916,0.10434079,0.17732455,-1.2872708,-0.3825156,0.39602047,0.47074425,-0.36529616,0.3122269,-1.3229532,0.83622867,1.1508313,0.026918167,1.0220304,-1.3176001,-0.3770054,0.862138,0.40973324,0.6216401,0.7684044,1.5941594,0.461954,-0.24670115,-1.4156425,0.3043261,0.23302507,0.5378647,1.2756798,0.16032203,-0.17951609,0.8504082,-0.5819397,0.16920109,1.2266608,-0.72710395,-0.10785717,0.66987944,0.15910855,1.2763045,0.8480244,-0.12591621,0.72828203,-1.470108,-7.8725586,-0.81054735,0.51583725,0.5163402,-0.4106088,-0.22657038,0.3230952,-0.07562773,-0.3354203,-0.2497252,-0.07542481,0.64360887,-0.26346368,1.1783898,-0.83007616,-0.9171352,-0.11918956,0.7942439,-2.1241136,0.052249018,-1.7434566,-0.3932851,0.45224857,-1.8452722,1.7853241,-0.46857092,1.2382059,-0.25121522,0.6316381,0.21422672,-0.41587982,0.9836335,-0.4025862,0.4891016,2.0183659,-1.8438306,0.18542379,-0.2524473,-1.378716,-1.1202404,1.5362116,-0.11138908,-0.32317847,0.8905235,-1.0618101,0.85246545,0.78101456,-0.30466798,-0.8057785,0.2182741,-0.6877517,0.09420358,0.29495007,1.1475521,0.3338333,0.06407945,0.23671623,0.16180381,-0.0832172,1.4694482,-1.0993267,-0.2392079,0.18710604,1.0292008,-0.9770906,-0.7956058,-0.050759245,1.2058792,0.2088961,-0.4931073,-0.14263563,-0.61067915,0.21795459,0.9633386,-0.62741905,-0.52031237,-1.0581077,0.06671135,-0.19653292,0.5660534,-0.085839495,-1.0026503,-0.4184632,-0.025876682,0.51067984,0.43414235,-1.2804857,-2.7725825,0.10502566,0.07534109,-0.690463,0.324125,0.5940299,0.4561744,-0.9061254,1.0575695,-1.615258,0.9872634,-0.27334183,1.9308345,-0.49673674,-0.69408053,0.57593644,-0.1685695,1.3485111,0.045946784,0.3750591,0.23483044,-0.018361794,1.8229259,1.2032837,-0.9325613,-0.46586114,0.3473511,0.44394025,-2.068304,0.09757156,-0.8857854,0.6452588,-0.6637615,-0.71284634,1.5748472,-0.6297912,0.9163982,0.49529997,-0.42775282,-0.96694225,0.9409023,-1.2078018,-0.022202183,-1.0794427,-0.30698922,-0.37634662,-0.5765843,0.49427205,1.4136457,-0.31217507,-0.9198887,-0.33182168,-0.8644691,0.47453266,-0.20019133,-1.7203631,0.7686718,-0.40803012,-0.3248012,-0.13104863,-0.15653488,-0.5131831,0.16811764,0.9945903,-0.17053974,0.51581746,0.12952468,0.6377831,-0.43264297,0.6368907,-1.0124722,0.42554155,0.14799133,-0.123918764,1.5331769,0.38427812,0.7506154,-2.1728373,-0.091578715,0.2630942,0.3089463,-0.36603165,-0.13752794,0.41039035,-1.7738508,-0.07459265,0.70287,-0.42260182,0.516188,-0.8089563,-0.54657495,-0.33415696,0.31320173,0.6732312,0.9686981,-1.315096,1.3294483,-0.54502404,-0.2627625,-0.6995648,0.4673153,1.8296247,0.028768685,0.6495951,-0.7789251,-0.40574235,1.5013931,-0.71814054,-0.21190277,0.68196654,0.2551221,-0.72282976,1.7103903,1.4046844,-0.41239715,0.29313073,0.7757374,-0.2828524,-1.1382339,0.84995484,0.46643788,-0.42784268,1.2556459,-0.31887576,0.9698137,0.8831694,0.120178826,0.32075334,-1.9364383,0.36267802,0.58240056,-0.6093364,-0.30799288,0.45536846,0.9712876,-0.5837008,0.5112605,1.9469643,0.4316111,0.20812765,1.0425506,-1.4201068,1.0161068,0.5914688,1.2886921,0.27995843,-0.60113394,0.12699811,0.10345836,-1.5253462,0.16792023,0.0042445334,0.18005626,-0.26693803,-1.0592729,0.29581463,1.5769365,0.7196453,0.019336337,-0.8438869,0.8987452,-0.40721637,0.45131376,0.729465,-0.64505786,0.47406057,0.6050711,-0.627151,-0.16575661,-2.216413,0.45405656,-1.9057863,0.27734578,-0.41577786,1.3795296,0.19461128,-1.753819,1.3163648,-2.1727014,1.1717623,0.6028135,0.8858291,-0.2807014,0.39170277,-0.27102596,-0.47297364,-0.4636264,-0.77576697,-1.1649563,-1.3037252,1.3456602,0.67050636,0.5968521,0.2515688,-1.761956,-0.056113098,-0.13957529,-0.19302128,-0.3957653,0.463592,-0.5705571,-1.5889226,1.7606107,-1.6540946,-0.7365574,0.7390207,0.65531445,0.69333327,1.3845019,1.0596025,1.198281,0.65072405,1.0253576,-1.2288464,0.26457042,0.73713404,-1.2199742,-1.1716644,-0.1053865,-0.24001381,-0.56664395,0.30729184,-0.28632927,0.50533587,1.786425,0.015660731,1.1230434,0.9359214,-1.1132514,0.49677524,0.10174287,-0.920649,-0.3054031,1.1900394,0.117223315,-1.1304326,-0.06771701,0.26014352,-0.93275326,-0.33670646,-0.8247034,-0.12221567,0.71966666,0.87879544,-0.078421704,0.86009645,-0.12706162,-0.492197,-0.386586,0.35145015,-0.80852777,-0.6143862,0.13616018,0.83061045,0.21841477,0.10976697,0.308512,-0.84723896,-0.35070366,-0.121769935,-0.35410824,-0.7687372,-1.256557,-1.408022,0.10411284,0.038988817,0.84463036,0.51203096,0.16859838,0.22434951,-0.673299,-0.09665351,-0.5826873,-1.9846793,0.66101396,-1.6251026,0.17605105,0.25280574,-0.39708263,-0.42864934,0.41902584,-0.054844074,-0.48415425,-0.70481956,-1.3726159,-1.1536316,0.6511486,-0.88388485,0.24103886,0.136359,-0.3542881,-0.3159736,0.39579296,0.9193183,-0.8765766,-0.23589516,0.5114185,-0.59913546,0.7678272,0.3259956,-0.053601984,0.16628046,-0.9101511,0.86890817,0.36506137,-0.067095734
Q5,0.2972002,0.4495077,-0.7808198,0.22860225,0.002793415,0.36021036,0.025245983,0.9992231,0.71205604,-0.3998804,-0.6318449,-0.10472492,0.88071406,-1.3830856,0.960965,0.81661975,-0.3491798,0.21927457,0.17039351,1.1845808,0.18658113,0.22581951,0.33712274,-0.048034053,1.1327549,0.92270565,0.8594074,0.5442062,0.24076644,-0.07083117,0.224293,-0.93635523,-0.21039438,0.65562236,-0.39558452,1.579704,-0.68975765,0.0077111693,-0.6891859,-0.18032184,-0.13830726,-0.3567989,-0.8267873,0.5393852,0.09988694,1.2787472,0.5278033,0.49205574,0.71850574,0.5931039,-0.4380811,-0.31736505,-0.10816406,-0.20365748,-0.28305325,0.38277775,0.9259785,-0.6230483,-0.89417094,0.37336147,0.30184117,0.39517784,-0.25218257,-0.13961251,0.763521,-0.76370823,-2.1264412,0.0121499235,1.2253182,-0.08422647,0.36176637,0.7060318,-1.1719695,-0.02747699,-0.53000134,-0.5148447,0.75485456,-0.034905564,-1.115361,-0.18952075,0.552981,-1.3319248,0.6072165,0.6232718,-1.0426238,-0.34952945,-0.7417326,0.04683935,-0.008684513,-1.5212295,1.5939271,0.65321964,-2.0934691,0.26440892,0.366292,-0.2541302,-0.19198875,0.4818449,0.5894166,-0.7830736,-0.16528708,1.3526781,-0.5155663,1.041808,0.98048174,-0.7027479,0.5696977,-1.7686088,-0.17300881,0.27501962,-0.2467689,1.282224,0.050234716,-0.104679205,1.8967111,0.7071017,-0.39910483,-0.08735838,-1.0043924,-1.4402996,-1.2489421,-1.3182619,-0.65308654,-0.90946406,-0.38342285,1.130834,-0.035363443,-0.35109356,0.25270635,0.5704863,0.54411936,-0.5081668,-0.8281013,1.1826236,-1.5884402,-0.006214565,0.43212613,0.338754,-2.3129642,-0.41769952,-0.7455257,1.0322955,0.80975515,1.4455115,-0.42867914,-1.1851431,0.45182776,0.6555323,0.23411226,-0.67114794,-0.41992646,-0.78256917,-0.4942338,-0.47313818,-0.831316,-0.34787,-0.75275695,0.77529305,-0.07186338,0.64125913,0.03506303,0.796216,0.70598435,-0.7099865,0.5127255,-1.2915738,0.38774154,-1.341146,-1.4693362,0.1345563,0.91436636,1.4036438,0.5304548,0.35746235,-0.13705787,0.0621513,-0.79860085,0.40562463,1.446069,0.026451468,1.0432717,3.0553367,0.45259255,-0.4434074,0.6057776,0.2057532,-0.36101684,0.7569757,-0.44563252,-0.10843418,-0.51722753,-0.0840434,-0.5767559,-1.4602034,-0.30368546,-0.35058466,0.6353156,-1.2877591,0.54883343,-0.21399412,-1.6206,0.7784491,-1.6279138,0.17251195,0.37469047,0.0963568,-0.31750107,0.40084666,-0.25758177,-0.2242878,-0.9532684,0.3888309,-0.34779924,0.67071486,-0.4444529,-0.05636009,1.341046,0.030429298,1.989826,1.368077,0.61881965,-0.93320334,1.1649339,-0.077472344,0.36954367,0.64761114,0.12566867,1.6671715,0.4761784,0.48566514,-0.6771498,-0.7304923,-1.4364201,-0.8554756,-0.38650793,-0.23184514,-0.20972028,0.90486443,-1.3738458,0.52673405,-1.4753466,-0.22907217,0.3676398,-0.8086363,-1.8876774,-2.552092,-1.1819975,0.4777015,0.79317087,0.91683674,-1.3422987,-1.0232534,0.5719307,-0.04983765,0.15652257,0.5751026,-0.9082758,1.3492739,-0.6390777,-0.6293947,0.9403375,-0.07570791,0.14471836,-1.2280953,0.21907715,1.0974315,0.097165,-0.11260285,0.71187526,-0.6074499,0.79316014,0.2939239,-0.6481885,-0.8342139,-1.121453,-1.7964907,1.3204236,0.9323252,0.1442453,0.84659004,2.3406224,0.62655383,0.18707779,-0.24376912,0.795488,-0.85138273,1.0161085,0.31339547,-1.2688446,-1.169178,1.3174369,0.0063440083,-0.6337641,0.28717217,-0.46520868,0.040702526,-0.022095695,-0.6540157,1.8036371,0.0665187,0.6415496,-1.0736504,-0.026672006,-0.3372137,1.2731903,0.004537762,-0.14621766,-0.22349635,1.262197,-0.076551184,-0.66359884,-0.4139308,0.094308995,0.7202835,0.35888582,0.61222565,-0.5541024,-0.06339299,0.8629243,0.19693592,0.23662548,-0.2040168,-0.6822945,-0.0788481,0.50778294,-0.51173323,0.3707153,-0.057560068,0.90544856,0.6642849,0.47267598,-1.1979358,-0.8882817,-0.15390581,-2.12011,-0.28439742,-0.160853,-0.107511625,0.54963404,-1.5112271,0.7350668,1.1495697,-0.6619042,0.20870416,-0.1471366,-0.7151059,0.6980293,-1.3040727,-1.9750946,0.3715971,-0.28379658,0.555831,0.28829938,1.3660481,-0.27885407,0.88371,0.018612992,-1.460261,-0.5012978,1.0155287,1.0166069,-0.13426979,-3.0888207,-1.2706387,0.24555245,-0.43078804,0.89523697,-0.42016363,0.015317075,-1.383194,0.25660652,1.5843914,-0.4676172,0.5718799,-1.0299389,-0.38518363,0.4835561,-0.34331438,1.4584258,0.87580234,-0.15061407,0.92110425,0.4329812,-0.2167863,-0.5064493,-0.012249428,0.8568961,-0.35678458,-0.56482613,0.11784728,0.76971155,-1.0157394,0.5830432,-0.54612,0.10069714,1.4204538,0.5223042,0.091032565,0.0142934825,-0.057070125,1.7717791,0.70046985,-0.6195705,0.29467058,-0.28263885,-1.5845382,-0.25851995,-0.21358296,-1.0810387,1.1164724,-1.218208,0.7697128,0.676298,-0.8314289,1.5859783,0.30917233,-1.5266749,-0.21362376,-0.47255102,-0.77761716,-0.81506824,0.44464,-2.2918613,-1.3587879,0.14217973,0.63548124,0.29807845,-0.82043564,-0.6366657,1.0234022,-1.1201484,0.996019,0.5912591,0.11485183,-0.4952848,0.12744126,-0.7569661,-0.03570938,-0.22952351,0.43972808,-0.18267424,0.5417337,-0.5884861,-0.42431927,-0.45603436,0.1419373,-0.5118186,1.151427,-0.89178956,-1.205417,1.2711403,0.20061731,-0.02949757,-0.5721997,0.8040948,-0.66749585,-1.8372452,0.025443614,0.1907216,-0.4616573,-0.33741182,-0.20137596,-0.13194999,0.27736995,1.3586919,0.6500875,0.030050348,-2.1543224,2.4105554,-0.43749586,-0.39435118,-0.18665388,-1.244173,0.056452453,0.9501111,-0.09663011,1.0490162,-0.4391623,1.3540413,0.065981746,-0.24629393,-1.3033367,1.06791,-1.0123891,-0.5751638,-0.15788239,-0.6400338,0.38225284,-0.47827157,-0.30677253,0.06986729,-0.23735109,-0.073365994,1.3835099,0.4915352,-0.6669259,0.35766876,-0.28350005,0.10352294,-0.7313403,0.8667342,-1.3779243,-0.41899166,-0.55104893,0.100747444,0.067241505,0.25073266,0.7294754,-0.84595025,0.16355763,0.0030764088,0.0692533,-1.4560678,-0.83151007,-0.6181679,1.4730258,-0.12166784,1.2553313,1.3962247,1.1861166,-0.6989613,0.3702791,0.5517254,-0.4271392,0.108105734,0.7226983,-1.695859,2.4003778,-0.060990036,0.80735457,-1.2050864,0.33055767,-0.06084559,1.5523474,-0.07563233,-1.130318,0.34669322,0.2842571,-0.092058435,0.48526868,1.8534657,0.49946293,-1.4373449,0.3920521,-0.3956445,0.5093688,-0.7935685,-0.21269274,0.46472907,-0.86551857,0.2699782,0.34482798,-0.16607288,-1.3298559,0.09268711,0.43114072,0.22586569,-1.2912325,0.13794723,-0.22683644,1.6339365,-0.49566922,-0.63485587,0.4958787,-0.25025466,0.41322193,0.17800672,-1.2207997,-0.5199717,0.23654082,-0.42201957,-0.41325465,0.3400138,-0.9913467,-0.5378208,1.1450863,-1.0737627,-0.6957786,0.93014824,0.45630303,-2.1755745,-0.5321071,-0.3387208,0.30559,-0.82111377,-2.0291908,0.04597009,-0.11020521,-0.39487976,-1.1140769,0.9214219,0.035013527,0.19871105,-0.09425016,-0.83422774,-0.95903623,0.7346577,0.042678345,-0.89013684,0.49446827,0.35499126,0.6581165,-0.02858063,-1.5673659,-0.028278742,0.7094822,1.9959221,0.035827424,1.8052804,-0.2784503,-0.8586342,-2.271097,0.35737246,-1.0492798,1.2801825,1.254626,0.495706,0.19807997,-0.022493491,0.8532406,1.8609594,0.47500873,-0.84415084,-0.1517641,0.20885246,0.7783818,1.8210872,0.78379357,-1.6058061,0.61541396,0.22041884,-2.3344612,-1.1076849,-0.89054585,0.14685182,-1.6516339,-1.0112922,0.4136541,0.458764,0.8397354,-0.49555564,-0.19785357,-0.16128655,0.5325729,-0.19609556,-0.2915389,0.37476635,-0.59705424,-0.72336787,-1.2265669,0.8347454,-0.6175868,-0.6156152,0.4375844,-0.2963239,0.7756156,-1.0556056,0.9426297,-0.1478965,-2.157226,-0.5084293,-1.4230484,-0.006974357,-0.46485502,0.063334025,2.5121462,0.8168122,0.20618503,-1.3271669,-0.24032888,-1.1152977,1.1023552,-0.14340189,1.0562626,0.81158847,-0.9845101,0.53753114,-0.60495824,-0.07781403,-0.9798315,1.5185868,-0.8539214,0.71950114,0.5129787,-0.19861291,-0.6396555,-0.021873306,-0.02310136,0.09964947,-0.90749836,0.05059403,-0.05673771,0.12318607,0.03077127,-0.55270034,0.07885207,-1.7531471,0.079544075,-0.27342686,0.051994096,-1.3289511,-0.051545937,0.56991565,-0.089556195,-0.77493906,-0.28296956,1.0663767,1.1428047,1.5377958,-0.18987024,0.24721423,0.7655931,0.36279482,1.6163251,-0.7317461,0.72137356,0.34525043,0.36571681,-1.4398454,0.18276612,0.2075469,-1.8104284,-0.39960605,0.61344796,0.6956603,-0.22728181,-0.28709644,-0.91507655,1.1371355,0.6744002,1.026263,0.5010432,0.6900964,-0.51356643,-1.0123072,0.5516277,0.63002884,-0.82585514,-0.5711641,-1.3243897,-0.13886897,-0.306847,-0.24042782,-0.07526864,-0.06079372,-0.41623658,-1.0152485,-0.3912324,1.0973356,0.11659688,-1.6724831,0.3164808,1.1964842,-0.7914313,0.21984772,0.37960306,0.8553656,0.14904335,0.13449849,0.3707574,0.15249473,-0.93617,-1.5743549,-0.6690257,-0.97906935,0.77876794,0.7236891,-0.5881422,-0.69103456,-0.10056994,1.0978997,-0.34626937,1.252979,-0.8717222,0.8097969,-0.6444928,-0.81426525,0.10049075,0.24791856,-0.09472297,0.5938293,0.37243152,-1.5962365,0.6761838,0.8599496,1.4305004,-0.12360076,-0.89866924,-1.1923068,0.23287758,0.27214932,-1.615902,0.58406043,-0.48801398,-1.30143,-1.6999137,-1.5032846,0.2580753,-1.0194852,-0.55922943,0.5920582,0.46517912,-0.30804178,0.024901401,0.8968302,-0.20479682,0.6134111,-0.42842254,-0.66983324,0.23452072,0.43978482,1.0424803,0.031377472,-1.1874557,0.25142786,-1.1510525,0.8247098,-0.89285374,1.0537267,0.84667146,-2.880096,-0.5360815,-0.7667273,-0.5120611,-0.41822568,0.16707642,0.5614165,1.4913934,0.05560606,-0.25222462,0.26242045,1.6112114,0.6913725,-0.4023857,1.1728939,-0.18635122,-0.57985514,-0.2668549,-1.0254412,-0.8865569,1.5401695,-0.12869258,-0.26915854,-0.1007369,-1.1916137,1.0800014,-2.230273,-0.64098036,-0.7412383,0.37676302,1.4259666,0.34510604,0.8092079,-0.26452327,0.25222045,1.6286962,0.86428624,0.01692615,-0.4737791,-1.5910022,0.7488662,0.53139615,0.24238369,0.43821472,-1.3253138,-0.65689194,0.19736972,-0.37113422,0.3278533,0.6404064,0.60365194,-0.019655842,-0.43958545,0.09172267,0.41247922,1.5438433,-0.41300955,-0.218726,1.248745,-0.812374,0.0633892,-0.39997756,-1.0453893,0.5260314,0.31989723,-1.3091129,-0.8649181,-1.2582862,1.6748005,-0.14539737,-0.41958743,0.713074,0.6534769,1.287449,-0.7311591,1.2257473,-1.8207277,-0.27534398,0.5205598,1.3602313,0.4320283,-0.26400462,0.23025031,1.4543331,-0.3738645,0.84149474,-2.579097,0.04027637,0.17160574,0.5094484,0.589189,0.7438285,-1.8075035,-0.90975046,0.1441733,-0.17968853,0.5114465,0.0867365,0.62771195,-0.113626994,1.2539082,-0.59041446,-0.87559444,0.1830409,-0.8825571,-0.67647564,1.0864214,0.9859484,0.71555495,0.43228093,-0.489429,0.17348723,-0.72922593,0.8594664,-0.04087763,-0.7417911,0.11501473,-0.75054294,-0.5077675,-0.4355948,-1.251199,0.92016363,-0.47881803,0.7681826,0.9678563,1.1465328,-1.9890432,-0.2025601,-0.19055374,-0.5870147,0.25921598,2.1387134,1.7877855,-1.705302,-0.0074643507,0.19350256,-0.10883753,0.91255987,-0.6878978,-1.4623947,-0.04923757,-0.02740084,0.64990515,-0.48634464,0.3270344,-0.5142449,0.8859456,-0.0019312829,0.033131886,-0.86719686,2.6244094,-0.09048621,1.1203722,-1.5317631,-0.15574388,0.6002747,-1.0402298,1.7555106,-0.007476587,-0.63092643,-0.34370548,-0.7648304,-0.10589371,0.20734231,-0.74428654,1.412885,-0.0028964789,0.6453427,-2.3749597,-0.45117673,-0.7066637,-0.5936099,0.24957688,-0.20958976,1.6477082,-0.5082206,0.117366076,-0.5874745,0.09643595,1.1708522,-1.2219988,-1.573762,-0.6324726,-0.13136509,-0.32126656,-1.4883585,-0.46900254,0.5779495,-0.8184613,-0.018199679,-0.21603337,0.072257206,-0.5333291,0.07097516,0.08847867,0.0059219315,-0.2163982,-0.13217875,0.07895991,0.6233109,-0.114528514,-0.34382895,-0.97876775,0.74791753
Q6,-0.2401876,0.7707454,0.15638599,0.1372304,-0.061927784,-0.499997,-0.035444807,0.19141461,0.25020015,0.49547595,-1.1328945,0.16197404,-0.4131952,-0.71380365,-1.5135456,-1.2415864,-0.28931618,1.4981902,-1.2828257,0.92560065,-0.5731311,-0.08101024,0.7719137,0.9809001,0.69902,-0.09483714,-1.1079667,0.16796927,0.9637228,-0.42250967,-2.2744057,0.17235336,-0.8461834,0.5134244,-1.1359866,-0.48812953,-0.1347911,-0.2216913,-1.7883173,1.0824722,0.410863,1.2418532,0.31626076,-0.40563107,-0.44415873,-1.1073234,-0.60437036,0.77633077,-0.82835275,-0.32260057,0.32190585,-0.4239419,0.14307407,-0.09652461,0.5308622,0.21699587,-0.70011836,1.0901676,-0.260753,0.89796036,-1.0445181,-0.8463036,-0.9588621,-0.20408025,-0.6070245,-0.15996058,-0.8379409,0.6658171,-0.46478748,0.25902328,0.5893581,0.573832,0.33665356,-0.8651779,1.0313303,-1.2908481,1.696574,-0.3322324,-1.2705933,1.3092189,-0.31063452,-1.3826988,-0.09794978,0.29430518,-1.1878684,-1.1627811,-0.22101817,1.7589346,-1.3843889,0.8701669,1.0613102,-0.7440623,-0.33579174,-0.9909166,-0.06091232,0.06888968,0.035936315,-0.4426848,1.1473665,0.28987104,-0.81116354,1.5016279,1.082798,0.19987337,1.5933177,-0.27311486,-0.59919435,-0.44114828,0.38311157,0.1472908,0.3984205,0.114330634,-0.5093461,0.16340294,0.9459766,0.5479307,1.3195165,0.32359105,-1.4322999,-0.48176536,-0.36302894,0.18438672,0.18369293,0.3476561,0.33847457,0.026800597,-0.43383798,-0.66342247,0.38394874,-1.4110076,-0.3952375,-1.3066398,1.272605,-0.67143226,0.005813527,1.0282465,1.1337211,1.1778247,0.27689958,-0.85099393,-0.7470734,-0.024868201,0.28848234,1.3452413,0.22077055,-0.9291433,0.4580919,0.8286804,1.0808984,-0.022027021,1.1631751,0.23974438,-0.095128454,-0.921723,-0.16330515,0.32169038,-0.1891652,-0.50309366,-0.11299442,0.56052136,0.51870555,1.692919,-0.13519093,1.5884476,0.68907017,-0.29816425,0.18991992,0.6512353,0.32147497,1.783776,0.84893465,1.187244,0.19439109,0.39277643,-0.23628512,0.0734022,0.2780582,1.0181363,-0.621081,0.9605514,0.7039536,-1.0785573,-0.016404456,0.49663597,0.8684211,-1.0458412,-0.41200003,0.038398575,-0.9500095,0.06806309,-0.6452637,-1.3166153,0.45799246,-0.7056165,0.72747827,0.761163,-0.15017684,0.50066423,-0.14559655,-0.13747461,-0.9428078,-0.35885182,-1.2967274,1.2424004,-0.2271127,-0.84325,1.2010956,-0.7541131,-0.12218368,-0.71259403,0.9232252,1.437155,-1.3751205,-1.2621896,-1.067662,-0.5316762,-2.2127304,0.019173661,-1.1350348,1.1561455,0.19742486,1.061032,0.13703792,0.14544943,-0.059645213,0.87529165,0.2788121,-0.51562274,-0.45392054,-0.27948684,0.7169932,0.80238307,0.7965437,-2.4140568,-0.37878373,-0.3262587,-0.11942164,-0.08186028,0.030630702,-0.13099681,0.27881327,-0.28451392,-0.8902836,-0.4197742,-0.45522976,0.46254912,-0.13029015,0.41111916,-0.9099928,-0.0020613044,1.1878386,1.0947931,-0.16007444,1.0630049,0.9926588,0.3350739,-0.6189845,0.28606343,-0.6524908,-1.4649807,0.42991596,0.6814441,0.44021362,0.522292,1.3504994,0.9142005,-0.7855264,0.67185575,-0.40817803,-0.2542728,0.28496426,0.15463421,-0.39980456,0.18895797,-1.7457888,-0.8472209,-0.2657079,0.011686802,0.78845185,0.03661401,1.8215697,0.26684588,-0.1521022,0.5529993,-0.35492772,-1.1970648,1.2171221,0.9447929,-1.3484604,0.18793127,0.91738796,-0.7177464,-1.5142072,0.50194526,-0.6911069,-1.0301517,-0.41104984,-0.99303114,0.66969055,1.3301761,1.520251,-0.4303915,-1.1686245,-0.9168253,-1.3348647,-1.5911312,0.7928733,0.22196217,0.7760135,0.4166244,-0.977812,-1.0450199,-1.0406722,-0.31352597,-1.0917833,-1.5371654,-1.0238194,-0.3649276,0.11356463,-1.8037126,-1.297369,-1.2161592,0.79830563,-0.15188988,-1.3052456,-0.20990303,0.4193852,0.3106328,-1.5955293,0.5633737,-0.34905618,-0.8607314,-0.3920323,-0.8602438,0.028144425,-0.17507774,-0.7759654,-0.78458583,-0.18610817,-0.57103664,-0.2932148,-0.3734723,0.46359405,1.4449743,-1.1283567,-1.237234,-0.15238203,-0.6121429,-1.1399348,0.34016004,0.3753955,-0.28657058,0.2833828,2.3289652,-1.4404806,-0.8742983,0.61304146,-0.9909294,-0.17463283,-0.7757365,0.8213293,1.8465741,-3.0742872,0.37553462,-0.059119333,0.49599418,0.986972,-0.37018412,-0.8992442,0.7577814,1.1452913,0.12664364,0.8560382,0.127366,-1.2905655,-0.55211186,0.1303471,0.099535234,1.6066964,-0.67933965,0.049106214,1.0941579,-0.53896236,0.23568484,-1.0605348,2.6023529,1.3382404,0.6527482,-0.98797834,-0.6709986,1.4264983,-0.26445588,0.67377967,-0.030312415,-0.78621733,0.031063568,1.16963,-0.9966812,-0.45927286,-0.16888054,0.8182856,0.34305167,2.2277775,-0.8644458,-0.00069510937,0.41598853,-0.89571905,-1.2093287,-2.523994,-1.0866929,0.4652663,-0.9996232,-0.3233691,0.6032487,2.074479,-0.5697074,0.105095685,-0.039108895,-0.9216425,-0.9325182,0.24977548,-0.07887951,-0.92737067,-0.09005971,0.30189365,0.0714431,0.89987373,1.8978249,-0.8692209,0.6949446,-2.9481936,-0.8045866,-0.69894046,1.0531199,0.24859369,0.49299192,0.251571,0.45021543,1.1745846,-1.3581955,-0.832728,1.4056358,0.24513157,0.61156654,-1.2257099,0.5352207,0.33843046,-0.110515915,-1.4538013,0.37816173,-0.0950602,-0.5966951,-1.3369197,-0.702774,-0.09453649,-0.9092804,-0.6447487,-0.084479794,0.86107445,-0.10331915,-0.8875353,0.49453244,-0.37385142,0.92270297,2.1212022,0.0527184,-0.95400983,-0.76258457,-0.5905797,-0.21148953,-0.44057512,0.23338428,0.20650072,0.05558182,-0.0521814,-0.6582238,1.4122318,0.07316357,-2.081987,0.016059335,0.7829982,-0.10535228,-0.16551349,1.7075279,-0.061943136,0.5204601,-0.6766509,-0.091010086,-0.7204915,-0.89905643,-0.3294351,0.12328879,-0.39463994,0.6184515,1.2199883,0.4516386,-0.17810889,0.88103753,1.2696282,0.8537835,-0.39724892,0.43754688,0.08044499,-1.0027758,0.16647515,-1.5253999,-0.5602226,0.31973153,-1.5452499,0.9670321,-2.11081,1.1812617,-0.38026085,-2.070344,-1.0502985,-1.0217402,0.24247667,-0.5351219,-0.3831862,0.38996902,-0.3717465,-0.0121625215,0.16152394,-1.616617,-0.5364336,-0.13074839,0.56987953,-0.071812354,-0.012746575,0.10622674,-0.79491806,-0.26995403,0.14518812,1.3855425,-0.1765128,-1.9207337,-0.7268567,1.2769322,-0.947497,0.78416836,-0.7775867,1.714214,-1.142698,0.22089013,0.49619645,-0.29045212,1.8571339,0.85899925,0.86162007,-0.2180572,0.6407982,0.7195701,-0.23921701,0.38987145,-1.1688772,-1.3608034,-1.0585487,-0.7136291,0.32955784,-0.1591727,-0.96838915,-1.3189353,-1.6064342,-0.9128308,0.27382255,0.7059157,-0.41729373,0.39499703,-0.71631914,-0.19609128,-0.45342702,-0.67448866,0.87494123,-0.23298936,0.6111976,-1.0072362,-0.8993675,-0.7298455,0.21425076,0.45562068,-0.006750929,0.7693164,0.4517371,1.440059,-1.025522,0.5638666,1.7383211,-0.46059456,1.1951622,-0.15829848,1.0047991,-0.8028511,-0.18259867,0.339824,0.8278788,-0.1279076,1.4673148,-0.8211939,0.46811265,-0.8931271,0.12367944,1.3416412,-0.08444422,-0.69692165,1.1093477,-0.62589633,-0.63749063,-1.5014873,2.0096803,1.4448283,-0.7659315,-1.6462921,-0.52777445,0.0390313,-1.0197045,0.17908308,1.0589688,0.54545975,1.481652,-0.8881157,0.08163168,0.5429843,-1.1147503,1.3207457,-1.0709002,0.7575123,0.95685136,-1.4645232,-0.051861703,-0.34245172,-0.08279473,-3.1046023,-0.13672844,-0.50624037,-0.071995564,-0.017194059,-0.29175636,0.57295215,0.5751565,1.4506199,0.154616,-0.93818283,0.5764907,-0.17608158,0.55818695,1.5302517,-0.9348251,-0.38741082,-0.7162217,-0.44585282,0.47014967,0.11995818,0.6677102,0.55062616,-1.092212,-0.2959852,1.017906,0.3149461,-0.5654622,2.0301323,-0.035968937,-0.08970209,0.1994257,-1.4544111,1.0999087,2.086717,0.021441523,0.5944996,1.418092,-0.308681,-0.9584149,1.0996882,-0.33885035,-0.06849309,0.18613529,0.37352282,-0.4538413,0.11996398,-0.63474655,-1.6492277,-0.20835319,0.18033154,0.6314446,0.6058974,0.3437918,0.46663323,1.6169555,-0.025594568,0.76821834,0.27598366,-0.2332217,-0.5390707,-0.28494298,-0.597257,0.87925893,-0.44214383,-1.1956301,1.090002,-0.043595467,0.46013013,-0.25106147,-1.6083825,0.09820576,-0.3160406,0.46108952,-0.3544841,0.040565375,-1.7237536,1.4306234,-0.9129656,-0.45187765,-0.1727184,-0.078384526,0.050750982,-0.63214463,-0.41527635,0.5879558,-0.9231598,-1.0975659,0.989518,-0.13347055,-0.037963863,0.7648364,0.7801633,-0.7594081,0.5337007,-0.058051728,-1.1639898,0.43092927,-1.3033695,1.400634,-0.94515514,-1.0417097,-0.6721494,0.953495,0.3881526,0.8208033,0.36066598,-0.5437316,-1.6090599,0.15216145,1.1725919,0.19048196,1.9207516,-0.8162452,-0.31328088,-2.0388637,0.8244854,-0.84995526,-0.47395152,0.30395684,1.3573043,2.1841428,0.041282304,-0.12425773,0.092961565,-1.5168455,-1.3388938,0.6111576,-1.1259823,-1.2833805,0.86254424,-1.2992183,-0.60587656,-0.8836986,0.1712935,0.34798488,-0.6322076,0.3135833,1.0654752,0.04991607,-0.35587668,1.2098968,-1.4425768,1.2825366,0.5201551,-0.48267928,-0.21232323,0.0005591229,-0.70211136,-0.89342844,-0.14128058,-1.2715462,0.6066486,0.8571707,-1.2174238,0.22318582,-0.32879606,-1.1941981,0.5533827,-0.8273231,-1.975866,-0.49554768,0.28842553,0.040926356,-1.2887574,0.47863922,-0.8960303,-0.625052,0.7141044,0.21509235,-0.06778453,-0.12964995,0.31219482,0.38507947,-1.4292338,1.3322098,-0.3424802,-1.3965969,-0.020138925,-0.3648041,-0.049136735,-0.014080947,0.060814746,0.2540992,0.40307745,-1.5260832,-0.17921785,0.64167184,0.45898995,-0.46194425,1.1365873,0.75341785,-0.517698,-0.18698868,-0.83957833,0.9168069,-1.3248506,0.3257371,-1.7494938,1.5465398,0.76694405,-1.4203651,0.42947784,0.7896005,-0.20337348,-0.0014341563,0.038550597,0.95331496,-0.45782933,0.40251908,-0.16650346,0.8164396,1.007911,0.33671552,0.81446135,-1.042106,-0.7501486,0.32060897,-1.0686892,0.72722656,0.20801778,0.29337567,-1.1928024,-0.7150854,1.0144331,-1.0931203,0.7600043,-0.09480278,-0.85661775,1.0309646,0.014280778,-0.81553155,1.9441004,0.32613158,-0.8252724,0.4629423,-1.3870832,0.34379512,-0.028579,0.83428353,-0.47603148,-0.061838757,0.96005374,0.6930978,1.4780607,0.30971628,-0.20668253,0.3819223,-0.60376894,0.9315462,-0.1268013,1.4809792,0.21307652,1.386298,-1.0479035,-0.027524287,0.57981455,1.0446485,0.25954336,-0.0024377077,-0.09200301,1.501586,-1.0864671,-0.4106595,1.3573539,-2.2297533,0.47692418,0.48543876,-0.020941315,-0.5443836,1.222529,-0.24207485,-0.23036747,0.080436744,-0.93432933,1.8909657,-1.3658495,0.056081086,1.1109688,1.1920401,-0.07866745,-0.25130588,-0.15027818,1.4836185,0.71128863,-0.22711065,-0.76233155,-0.89324176,-0.21281727,-1.4081652,-0.011622121,-0.67611516,0.82268983,-0.36586574,-0.3676713,1.3154577,-0.5663606,0.31879908,0.19241527,0.8621353,0.092372976,-0.014068097,1.136197,-0.8677753,-0.11689286,-0.59882826,0.44593817,-0.64421093,0.7506424,0.4038888,0.20943065,1.4515215,-0.84947604,-1.7428468,0.1471918,-1.5230367,1.0838099,-0.1308959,0.47358376,0.061212026,-0.12685786,1.6036444,-0.28680483,1.0100302,0.781021,0.42699808,-0.67231596,-1.0485039,-0.976717,0.35610685,1.2644625,1.4698598,0.65639466,-0.9455533,-0.3873648,-0.503977,-0.07207516,0.58996904,0.12391657,0.09796956,-1.102556,-0.39931566,-0.16803019,-2.5105038,1.0406996,-1.5051495,-1.2659363,-0.3599275,0.19768059,-1.0460097,-0.8156174,0.50196594,0.65897703,1.1485479,0.40692177,0.063279286,-0.6509983,-1.0363718,0.80655324,-0.28961092,-0.915116,-0.23387392,-0.26528844,0.92845094,-0.982484,0.12516005,-0.6310105,0.2801095,-0.34015256,0.32386026,-0.6599514,-1.4738724,-0.6942101,0.39427984,1.006613,0.53641266,-0.21701021,-0.36872268,-0.35522777,0.2308816,0.025892118,-0.39737245,1.2904415,0.16147335,-0.30630222,1.5982968,1.5736058,1.2446384,0.59090024,0.19707985,0.08017058,-0.036179077,1.6472508
Q7,-0.3111185,0.91911715,-0.3847291,-0.4293902,0.7347804,-0.13438278,-0.4018171,0.38048354,-0.72933024,-1.300261,0.4343439,0.35708854,-0.20319927,-1.3928446,0.37022135,0.25210133,-0.07576863,0.21727662,-0.58836895,-0.8364004,-0.28419098,-0.37269044,-0.94522446,-0.13146071,0.773706,-0.58095455,0.10688963,0.7056362,-0.19578537,-1.4276294,-0.5173457,-0.298717,-0.75128955,-1.1098902,-1.1324935,0.89645797,-1.2108079,-0.0009806509,-0.6014098,-0.3093563,1.4075376,-0.40912032,-0.9320533,-0.94934696,0.14473471,0.7702708,-0.40659943,1.0987989,-1.3867099,-0.8890886,-0.98861516,0.06932705,0.17476878,-0.7056095,-0.2788607,0.7732199,-0.15959539,-0.46125704,-0.31813553,0.74752176,0.20750488,-0.483292,0.46426412,-0.3301994,-0.2571081,1.2100744,-1.6238904,0.93722874,0.31696317,-1.1021242,0.11629393,0.76940763,-1.3050797,0.566332,1.5728979,-0.5408239,1.4583696,-1.9128131,-0.52557623,0.81982565,0.2366416,-1.1416047,-0.53866756,0.55867976,-1.6154615,-0.22007847,-0.32884032,1.6586164,-0.89722425,-1.2515789,1.2258767,-0.3269599,-0.6833348,-0.8490294,0.3807644,0.15666592,0.35206768,-0.14796261,0.99628305,-0.2766615,0.006139321,0.24902259,-0.060290538,0.66131896,1.5944457,-0.5682144,-1.7063215,-2.2869713,0.5765614,0.19562547,1.1396796,0.1987596,-0.60909003,1.3970468,2.137734,1.3777865,0.66343343,-0.46547267,0.36593598,-0.41137522,-0.29780474,-1.2914234,0.09604321,-0.6911712,-0.94347143,-0.56420213,0.13768671,-0.54876035,-0.67358094,-0.55922705,0.23683013,-1.1506114,0.47062624,1.0580952,-0.9084316,-0.31768885,0.76147264,0.040432572,-2.130235,-1.4194607,-1.1037331,-1.1032935,-0.16757202,1.8456321,-0.7302675,-1.484956,0.41929713,0.10504035,0.31752643,-0.9746095,-0.3961652,0.62099814,-0.67799544,-1.4094375,-0.96175766,-0.3712364,-1.5652416,-0.29367492,0.2328104,-0.71687967,-0.6277058,0.6349393,0.6834621,-0.08764949,1.2932402,-0.16908005,-0.04493541,-1.5549583,-1.2786335,1.6753314,2.2230904,0.8809502,-0.5907439,-1.634738,0.06184832,-1.8793198,-0.76850367,1.4353554,1.0238539,0.15501998,0.28589168,1.0090302,-0.44322988,0.49491882,0.4895167,-0.8047546,-3.154731,2.6991184,-0.9366135,-0.33682674,0.2620282,-1.0032287,0.7056466,0.38164005,-0.1160439,0.32658696,0.020501358,-0.69452494,0.7770016,-0.58720446,-2.1309676,1.678353,-1.629507,0.9006957,-0.41984844,-0.5733555,0.05919927,0.39352798,-1.3124877,-0.09933842,0.15695901,-0.09436183,-0.7877649,0.12971404,-0.8148088,-0.230454,1.6228313,-0.597238,-0.01812028,1.0920839,0.4357696,0.5206605,0.7654393,0.36614627,-0.10352393,1.7780935,-1.5312172,0.17673467,0.011520906,-0.33027607,2.1918886,0.33576494,0.26010484,-1.575339,-0.038217034,-1.0187759,0.72429913,1.0816798,-0.96994543,0.23593734,-0.650497,-0.26465923,-0.840028,-1.9511099,-0.14317103,-0.33187968,-0.35127854,0.052225504,0.3741394,0.6280695,-0.8472453,-0.74090785,0.3709975,0.45207748,1.0719244,-0.76685345,-0.92225474,1.2397834,-0.19902512,-1.1450609,-0.067764506,0.24574752,-0.34211358,0.5837765,2.530604,0.69509786,-0.4123653,-0.09307135,-0.4969685,1.4691421,2.1658013,-0.02666173,-0.13738303,-0.15809028,-2.1433647,-0.4366766,1.7589754,0.7560601,1.5309733,-0.33693928,1.5157218,-0.9339529,1.1060855,0.26566437,0.66482586,-0.8977356,1.8259579,-0.028006857,0.063700825,0.06329026,0.84027946,-0.37712106,-1.3664181,-0.39459294,-0.10071503,-0.30606455,0.036780603,-0.28719845,1.5429506,1.4285047,1.7745631,-0.4407537,-1.0421377,0.75960046,-0.20179473,-0.7227626,1.115672,-0.26859006,2.1000001,0.28696436,0.43914405,-0.8921841,-0.16707191,-0.6628528,1.0819957,-1.585227,-1.3115975,-0.40200067,-0.7003458,-0.8689538,0.7620887,0.8019393,0.5580718,-0.62316304,-0.20912392,0.019565828,0.9121441,0.56727874,-0.75380456,0.019275408,0.7159219,-2.3331394,-1.3096364,0.42488676,-0.14888965,-0.7652726,-0.83098906,0.19945167,-0.31212568,-0.32663974,0.41264766,-0.47000548,-0.26661032,-0.3722969,-0.11760394,-0.43480602,-0.45341974,-1.5911436,-0.6960371,0.27542475,0.5181523,-0.44747725,-1.7051052,2.2467928,-1.460176,1.0008497,-0.33503285,-0.5259941,-0.98860973,0.2517788,0.8142096,0.59531504,-2.8393037,-0.21810399,0.57173115,0.31517112,0.19151808,-0.111308,-0.6294443,0.19030343,1.465491,0.41360864,-0.18654558,-0.23334363,-0.02139159,0.76328164,-0.5356512,-0.42717823,1.7014017,1.8450681,-1.6587372,-0.27834418,0.9445773,0.64925075,0.016577113,2.4388509,1.2737644,-0.711505,-1.1238159,-2.5956047,1.48152,-0.84801275,0.8146912,0.08340617,0.32929325,0.3474248,1.6937065,-1.4877623,-0.3712271,-0.07100724,1.5688882,-0.8938462,-0.46373835,0.17086315,-1.1354575,-0.8565561,-0.8186594,-3.250863,-0.719878,1.2542963,0.0077051786,0.13247019,-0.70841616,0.35311708,2.4934545,-1.4574943,0.6040665,-0.14827706,-0.9036343,-0.7695223,0.7937553,0.24047355,-1.2473105,-0.5383272,1.1812692,0.025418593,-0.15944593,1.6729026,-0.7195221,1.0944386,-1.3712697,-0.8746175,0.90397,1.8844455,1.5222701,0.22851035,-0.8626383,0.4098026,-0.10880081,-0.9993777,-0.5439352,-0.81158286,0.5684734,1.7143607,0.20688292,1.1756417,-0.45374805,0.73846835,-0.9169173,-0.12711315,-0.32790795,-0.3633194,-0.2295598,-0.7669344,0.8158184,-1.3175484,-0.17450388,0.21114302,1.7678225,0.3191223,-0.6280535,0.23657674,-0.25720808,0.9100506,1.1628857,-0.106987916,-1.4187804,-0.7294035,0.8117421,1.2100065,-0.3789224,-0.08453189,0.52999085,-0.21134083,1.5417888,-0.9979688,0.11578285,-0.35289907,-0.60337347,-0.33797488,-0.75812536,0.18014687,-0.1309318,-0.20709166,-0.84666073,-0.15246601,-0.40501088,-0.9192026,-2.042239,-0.73609966,-0.125073,-1.0644193,0.5884123,-0.9155978,0.61679476,-0.35270438,-0.040249538,-1.8501356,2.4807153,-0.37156332,0.3780919,-1.0163099,-0.18237902,0.1552238,0.6242506,-0.20977145,-0.64267904,1.5544683,-1.9226309,0.07035651,-1.8606473,0.36141717,-0.9537271,-1.4119993,1.7924827,0.2605728,-0.9108636,0.9216828,-0.04639247,1.554774,-0.27786383,-1.2664579,0.6219077,-2.5320463,0.31026363,-0.34963474,0.3045823,1.671578,-1.0559092,0.55799115,1.3042445,-0.6246998,-0.9095251,1.3694918,0.034658417,-0.9080884,0.04559387,1.319917,0.4064129,0.1131354,0.08806925,0.7458958,-0.930648,0.56630945,-0.0038118958,-0.22555143,2.1861286,0.13963245,-2.2225056,0.24783337,-0.8293963,1.1451832,-0.9706082,-0.9404112,1.9690528,-0.436425,0.47832575,0.06740878,-0.08707109,-0.75253373,-0.39430737,-0.70008254,-2.043837,-0.14773753,-0.55736715,1.3499532,-0.85338503,0.23938972,-0.16455457,0.35978368,-0.6670456,-1.220006,-0.5580839,-0.14389056,-0.7420882,0.7208259,-0.45222127,-0.19118734,1.3767905,-0.09582335,-1.308063,-0.44777077,0.7918216,0.08689672,0.21194755,-0.7971253,0.4552126,-0.22098325,0.6351819,-0.36306003,0.8387485,-1.0900714,0.39197263,-0.71590936,-0.5084045,0.59278315,0.25387633,-0.350518,1.181324,0.71253747,-0.27557462,0.8383148,-1.5925839,0.58810234,0.3865676,-0.62601966,0.37499788,0.98087806,-0.09239491,1.0771799,-0.120916344,-0.70659125,-1.1678365,-0.23090191,0.35098478,1.7450241,0.8873887,-0.5402983,0.29274464,-0.9040668,0.03128357,0.48778078,-0.4685366,0.62687755,0.6283325,0.020501526,0.66793174,-0.8442481,-0.87769395,-0.5570095,-0.6345795,0.55184674,-0.4683991,-0.014516303,-0.78265405,-1.1316705,1.1874323,-0.15867952,-0.5446232,-0.08983543,0.9336028,0.46426192,-0.5362042,-1.9845794,0.4457395,-0.5465692,-1.7795349,-0.74894935,-1.0079465,-0.5652288,0.30703604,0.26554942,-0.38785735,0.5084942,-2.5200303,0.30167246,-1.0968598,2.2173755,0.44276276,0.26207265,0.14094636,-0.792028,1.1269693,-0.12054682,0.29921693,1.6239964,-0.8358118,0.61462927,0.40301332,-0.24556988,-1.17385,0.440295,-1.0145874,0.14083488,-0.5845728,0.40084687,1.1854925,-0.94641745,-0.4818512,-1.0247126,-0.7143037,0.00454229,0.6577351,0.004550498,-0.3411739,0.2232765,0.5947137,0.9558968,-0.69579566,0.3786424,0.74223536,-1.1550816,1.0836316,0.68700534,1.1058617,-0.15484218,-1.0427731,1.3981265,0.16743736,-0.6518408,-0.31673998,-0.8166585,-0.3802483,0.0864693,1.1239692,0.1485929,0.9773385,-1.605339,0.25695756,-0.89440376,-0.028473414,1.1736631,0.063573696,0.7216173,-0.54111,0.3982079,0.280181,-0.08592961,-1.501198,0.29650855,-0.12538798,-0.24741447,0.50746095,0.9608788,1.0735369,-0.56798667,-0.053008914,-1.0852283,-1.0016363,0.04066021,0.7866023,-0.44239426,-0.1624052,-0.7106583,-0.25054723,2.6399796,1.6316546,0.5766859,-0.4185163,-1.025321,0.8145026,0.12635322,-1.6230758,0.43613186,-0.5258179,0.82073575,-1.4946609,1.9677863,-0.1427901,-0.05565666,-1.1061069,-0.51862705,1.8847076,0.47401348,1.0485197,-0.4864924,0.09320399,0.08552542,0.58249104,0.11898151,-0.28057796,-0.3261883,-0.47355637,-1.6075989,-1.8997545,0.511474,0.24646272,-0.44297144,-0.12694764,0.7585662,-0.6068483,0.36147234,-0.40151057,-1.3385018,0.035291504,-0.9088965,0.8165247,0.22089466,-0.1621938,-0.9077534,-0.2792648,-1.0060098,0.029377924,0.97224057,0.27301094,0.42713135,-0.95713377,-0.6251035,-0.23230779,-0.2940053,0.7253461,-0.52967775,1.0449551,-0.5137507,-0.80814403,-2.328285,-0.6028271,-0.89530784,-0.6736414,-0.45284835,0.23756662,0.23731749,-1.6645572,0.13779436,0.4226078,-0.1207483,0.86750424,0.53122663,0.76097775,-0.0069452617,-0.43584594,1.5084419,1.0441642,-1.3139238,-0.10213115,-0.3210833,-0.77578634,-1.0072447,-0.115784094,0.7981632,-0.5290495,1.196123,-0.5201399,0.042765353,0.40937847,-0.27852702,0.70121247,1.5701938,-0.9586377,-1.9240512,0.7102441,1.8924364,1.083749,-0.573905,0.41435087,-1.234079,0.05346907,0.8167414,-0.8663043,-1.2068183,1.2766744,0.028138224,1.0846858,0.10388155,0.5441365,1.1161925,-2.0252774,0.221743,0.061395086,-0.06596479,-1.3990927,0.5812382,0.085751,-0.9344679,-0.49046397,1.6309366,-0.12742233,0.9959487,-0.39263138,-0.7552025,0.9054946,0.8015015,0.60316163,1.279411,0.2190383,-0.6850235,-0.2002017,-0.7139023,0.04321137,0.5356939,-0.017037168,0.7114601,-0.11491785,0.048869547,-0.23784974,1.8321354,0.22843818,-0.5900267,0.10424845,-0.2338751,0.53747535,0.8018504,0.09528544,2.5012367,1.041597,-0.24968748,-0.7161546,-2.4473455,1.6903963,-1.1440737,1.4601264,1.5430115,0.26930675,-0.623171,0.5695281,1.4841241,0.20991425,0.7693756,0.67663366,1.971871,-0.048907217,0.5837331,-1.0781901,0.06132102,-0.7632287,-0.6583771,-1.4358345,-0.20295228,-0.4959589,1.1699781,1.0501872,-1.0278082,-0.6183276,-0.2522061,0.27092132,-0.6649912,-0.37372032,-0.47839203,0.9667184,-0.5120838,-0.502985,-0.35723394,0.11190038,0.44852713,0.39595217,0.4209892,2.0605257,-0.27766448,2.0417862,-0.23612379,0.95915014,0.63015825,-0.9948164,1.0183948,-2.2999306,-0.08740526,1.1742128,-1.1902189,-0.52818835,0.047080208,0.4714776,-0.08756621,1.8926039,0.27141115,-0.28347805,-0.12059219,-1.2134857,0.19460629,1.0539505,-0.9258166,-0.764022,1.7047962,0.8865489,-0.20463614,0.790992,0.20370947,-0.964827,0.61165696,-0.17143744,0.61763465,-0.16932091,0.81690085,1.5349618,-0.19815671,-0.17920105,-0.8068037,-0.5298239,0.3028038,0.33560842,-0.60995114,-0.4068087,0.5731328,-0.2852782,-1.4866263,-0.2242657,0.054160707,0.38043243,-0.017518586,0.45311737,0.28634915,-0.827223,-1.031581,-0.35836586,0.050427876,0.9415167,0.086294256,0.7939003,0.90604913,-0.26536867,-0.05943932,-0.63645524,-0.84694743,0.19202371,-1.3103687,1.7829504,0.3574665,-0.22954336,-1.2722021,0.45558047,0.59074616,-0.79105693,0.42566887,-0.5223664,-1.0269748,0.13317765,0.5050084,-0.7525195,-0.25822356,0.42055297,-1.1914344,-0.15821388,0.5249766,-1.1585926,0.94470257,-0.22231591,0.1493915,-0.9460636,1.356857,-0.57837284,0.23663536,-0.06746229,1.0298734,1.4417949,0.7896265
Q8,0.43199724,0.5485499,-0.74256945,0.019988129,-0.074817464,0.99362326,-0.121891424,1.1937461,0.6381205,0.27665517,-0.8214843,0.4328671,-0.59919655,0.09305743,-0.2678775,-1.1363826,-0.14575252,-0.39154476,-0.8020196,-0.7609618,0.19660181,-0.6028298,0.7676745,-0.113588385,0.37952405,-0.7683652,0.5123252,1.5028751,0.084847905,-0.21047518,-0.34588593,-0.35222122,-0.12998539,0.52291435,-0.2912142,0.49954432,-0.8504465,-0.37247726,0.2415514,1.0479175,-0.1054987,-0.5539543,-0.23737141,-0.5802622,-1.2025745,-0.23859145,0.61730546,1.1745348,0.353674,-0.24293801,-0.036307145,-0.009146702,0.35916948,-0.041702356,1.2376258,1.0181828,0.54465306,0.72423995,-0.98163724,0.8403339,-0.48124495,0.7125294,-0.08160438,-0.28253287,-0.42744702,-0.82528764,-2.1077652,0.11623341,0.3158586,-0.9407804,0.96642256,-0.046346433,0.19577736,-0.71721375,1.2544005,-1.2294704,0.16402517,0.102370255,-0.10541754,0.06787277,0.27142486,-1.0229787,0.12810086,0.5109142,-1.1038432,-0.9271599,-0.048117004,-0.650531,-1.3202249,-0.16899313,2.592039,0.08237981,-1.2108693,-0.34942886,0.8444605,-0.5178035,0.71037436,-0.24121709,0.94361585,0.59248525,0.07606177,0.62898695,0.024203125,0.13421872,1.0741332,-0.5458351,-1.6709719,-1.6009202,0.17585984,-0.081897475,0.664287,0.41394058,0.59299505,0.21696863,1.3332134,0.46690333,0.3415376,-1.1838851,0.3457726,-0.49577826,-0.6005743,-0.4980286,-0.20235303,-0.3157436,-0.208231,-0.011372067,-0.22682229,-1.4307028,1.4144428,-0.2581681,-0.20246257,-1.3193891,-0.17295784,0.95634663,0.20353766,-0.2688595,1.7420287,0.8303058,-2.6181178,-1.8355327,-1.5632702,-0.9234983,0.32312354,3.2714424,-0.86431587,-1.255538,0.9209306,0.16966379,-0.67431915,-0.92624235,-0.1223063,0.40488443,-0.645443,-0.19072138,-1.0387682,-0.44177043,-0.85705984,0.99449486,-0.61351335,0.24022734,0.22939387,0.52349997,0.37962896,1.4871812,-1.0027405,-1.8005222,-0.90100133,-1.2440119,-0.18968815,0.87836313,1.4625349,2.9526148,-0.85772455,0.44120792,-0.43013316,-0.44150552,-0.6822051,-0.31026018,0.6759301,0.1414183,0.57411295,0.934461,0.55072314,-0.093867615,0.18134066,0.47966993,0.38217854,1.2731754,0.53944415,0.30227876,-0.8126024,-0.66631985,1.0238678,-0.9001672,-0.8103514,0.81101793,-0.7474029,-0.5009362,-0.33834085,0.15016916,-1.16693,0.10219682,-2.1534798,0.53037715,-0.7153188,-0.47110003,-1.2257445,0.23614594,-0.3112208,-1.9028862,0.5586187,0.7058148,-1.5393412,1.2691597,-0.7761884,-0.8752017,0.43117207,-0.51971394,2.052961,0.74736726,0.9738843,0.38313338,1.2435379,-0.15563892,0.48821008,0.8220037,-0.5712639,0.398872,-0.10334487,0.36935705,-0.3172321,-0.03745509,-0.2761353,-1.5234505,-0.4443491,0.39630014,-0.5114345,1.2210733,-0.10802292,-0.09098623,0.27424705,-0.43444768,-0.89886403,0.023201562,-1.0827116,-0.4489267,-1.9926962,0.5830037,0.22084264,-0.101904266,-0.4353779,-0.49037385,1.0096116,-1.0930133,0.7947552,0.31311396,-0.8407696,0.3968618,-0.32378754,-0.09918596,0.3444471,1.9489493,0.546143,0.62735164,1.0452504,1.1878682,-0.733289,0.02805036,-0.13399513,-0.23477261,0.6797142,0.12880448,-0.946272,0.12929435,-1.0152059,-1.2925955,0.69886774,0.4974877,0.0662973,-0.49428087,2.0249052,-0.01748684,-0.12980397,-0.7133677,0.1769175,-1.85861,-0.2074634,1.0166447,-0.71313584,-1.279703,0.790587,-0.38963452,-0.66912496,0.9701458,-1.8009925,-0.4247145,-0.6907398,0.20410319,0.7376837,0.090904504,0.71236527,0.06010583,-0.94266284,-1.2391957,-0.2649197,1.1214771,0.93523943,-0.34322998,1.0134208,0.58615726,-0.9786293,-0.13611944,1.0212618,0.7532519,-0.35366195,-0.18664539,-0.103036895,1.2585007,-0.91609156,-0.74668694,0.105430156,0.4129185,1.2024366,-0.49234474,0.01212866,-0.08985332,0.92571276,0.63344646,-0.64171624,-0.26011032,-0.20162581,-0.74114925,-1.4314013,-0.87286067,-1.8895133,-0.7751274,-0.29322028,-1.1415355,-0.1926569,-1.6839327,0.6737857,-0.4376601,-0.46719414,0.2092209,-0.98543394,-0.84457034,0.79590535,-1.352616,-0.81249404,0.3261419,0.45404336,-0.35945123,0.3595531,0.83974016,-1.0821192,0.4711113,-0.31449723,-1.7178411,0.6862795,-1.0174705,0.72426975,-0.0031587342,-2.6894338,-0.039443586,0.1809161,-0.22625238,1.1270604,-1.0957465,0.4534397,0.06913279,0.39969563,2.333979,-0.3969708,0.29161102,-0.8280779,0.39634022,0.7430898,0.823412,1.3789502,0.6578833,-0.19735444,-0.40550333,0.5310538,-0.32794994,-1.0869554,2.3479695,0.68652666,-0.45083958,-1.0836499,-0.13842359,0.88156617,-1.1221032,0.6833337,0.53467125,-0.23891175,0.46411455,1.0985104,-0.66777927,-0.5995163,-0.17183977,2.5254867,1.0425502,1.2982035,0.4771862,0.2716226,-0.7321636,-1.0080853,-0.6959832,-1.3096478,-1.0967004,-0.34042114,-0.20582804,-0.23257977,-0.036391657,1.3926919,-0.0900753,-0.9227825,1.0246528,-1.3244845,0.40887025,0.31812322,1.4478604,-1.7124649,-0.42841497,0.56081975,-1.0686901,0.82228005,0.53818274,-0.3021692,0.890151,-1.6285989,-0.43337896,-0.67125523,0.04666563,-0.26874983,-0.552225,0.0062267147,0.071924336,-0.8955509,-0.4720131,-0.15661374,1.0087049,0.2290866,-0.5760518,-0.18433511,0.31508407,0.88345426,0.8588326,-2.796639,-0.8838318,0.28992492,-0.0049490705,-1.1552262,-0.4798193,0.7775786,-0.4630964,-0.14142407,-0.5641914,0.16448653,-0.6421201,0.5121624,-0.96659887,-0.60406524,1.1339612,1.0623374,-0.060687285,0.24267699,-1.4424939,2.7799878,0.6159742,0.11699581,-0.58620596,-0.38322037,0.6722392,-0.32031375,-1.5816216,0.78520656,-0.18994737,0.34302038,0.74570566,0.4568923,-0.9513997,0.6425288,-1.1732466,0.30821568,0.043582924,-0.45955196,-0.31311762,-0.93920803,-0.44728154,-0.23545858,0.31575978,-0.97306466,-0.09428091,1.2258799,-0.19104145,0.10103016,-0.6629588,2.1400056,0.21947019,-0.012830742,-0.39271498,0.11964683,0.4122632,0.4799847,0.50912637,-0.0052794972,0.9987425,-1.91466,0.5480427,0.37785053,1.4052045,-1.5990418,-1.5305791,0.13079904,-0.34753895,0.26244015,1.3928448,1.0683765,1.3185478,0.6510478,-0.17935058,0.6067106,-1.8088489,-0.52117735,0.39480263,-0.2763359,0.6338855,-1.3812491,0.66948664,-0.61154366,-0.17456262,-0.9666254,1.5509602,-0.8812115,-1.6887395,-0.35575354,0.30647638,-0.64782137,0.2800051,0.0975064,0.8417553,-1.1538568,-0.1130148,0.29652667,0.6985112,-0.05775346,-0.19010507,-0.3385151,0.33675256,-0.4548172,0.46409702,-0.5241258,-0.71387374,-0.29268643,0.64986897,-0.5503658,-1.0342501,0.9809216,0.062108945,0.92993486,-1.5594878,-1.1089358,-0.67908573,0.29302374,-0.17348985,-0.4366332,-0.13798738,0.34698856,1.4585545,-0.8571131,-0.3731739,0.6995041,-1.0409558,-0.49970895,0.43589434,-1.0485525,-0.63930225,0.35875377,0.10546023,-1.7141716,0.35409132,0.47951645,-0.22244146,-0.14291726,-0.85790324,1.1216578,-1.645933,-0.056019224,-0.49757755,-0.71485955,-0.29407555,-0.4907985,0.7041394,0.0053690076,0.87800837,-0.352117,-1.0811734,0.55064356,0.6278241,0.62779737,0.15106307,-0.44332922,-0.6504329,0.23540083,0.4689083,1.9296206,0.14474167,0.4854447,1.4938867,-1.5527624,-0.69952434,-0.923571,-0.873474,1.2564353,1.0329837,-0.12031496,-0.43604392,0.80139446,0.034934692,1.1249986,-0.7756176,0.034936372,0.705641,0.83299446,1.1003029,2.0675569,-0.22651464,-1.0240501,0.14642797,-0.25025257,1.3770322,0.18470404,-0.55616415,-0.16028948,-0.40983856,-0.81361353,0.23714583,1.396018,1.0020331,0.025198206,-0.4180538,0.14113449,-0.16790022,0.7177286,0.11114712,0.19686937,0.33686036,-1.042117,-0.49255335,1.6226906,0.71372473,-1.0295479,0.1716427,-0.9980717,0.39830232,-0.06683606,1.4145204,-1.3673632,1.044883,-0.67018586,0.11474557,-0.090358354,-0.7712395,-0.5194708,1.641818,0.7396432,-0.2878321,-0.13081074,-0.10340607,-0.76406825,0.4576197,-1.4413348,-0.27984938,1.0289726,-0.91103804,1.4137481,0.0045072427,-0.3616169,-1.706462,-0.7386048,0.036665626,0.42355487,-0.9517202,-0.13752697,0.013950735,0.016605139,-0.67016476,-0.31646374,-0.5123805,0.12285443,-0.47541893,0.67019266,0.37540174,0.41792035,0.20318207,-0.8373743,1.0040213,0.48457927,0.9884969,0.044937365,-0.3153975,-0.20057294,-0.23695685,-0.58033603,0.66495574,0.46784446,0.17465043,0.8504554,-0.4859595,-1.2628468,0.27418923,0.63881695,-0.25856623,-1.7096374,-0.25318956,1.8894384,-0.0006464906,-1.9813855,1.1709945,0.6797413,-1.4547243,0.0060146227,0.82312584,0.10740026,0.42997342,-0.46579126,-1.6131098,0.586573,0.025677115,1.3003088,-0.238281,-0.8903258,-0.9010665,0.17372216,1.4719379,0.8662463,-1.1657776,-0.10047054,-0.3217891,1.1091113,0.30779195,-0.43888846,1.0885324,-0.64514923,0.2614996,-2.3431065,-0.9505143,-0.18359564,1.2747593,-0.28938544,-0.15523274,1.2464991,-0.35675624,-0.6783632,0.8264512,-0.13640836,-0.54359055,1.0074698,-1.1695706,-0.14603144,-0.084440395,-1.2347257,-0.45522854,-2.287843,1.3211242,-0.8917223,-1.5077094,0.3437057,0.04092031,-0.12593076,-0.3550626,0.8763009,-0.8416206,1.0525823,0.3119666,-0.58047676,-0.08714305,0.25715232,-0.14605202,0.7948155,0.43209466,0.15517336,1.129276,0.9096977,0.09957178,-0.047144555,-2.496191,-0.791731,0.9042338,1.5003965,-1.6421242,-0.25110793,-0.20279673,-0.056627158,-1.7969375,-0.264024,-0.41214544,0.033739798,-0.07768008,-0.4950767,-0.30345744,-0.38532162,0.2675826,0.2582533,-0.08137955,0.9715474,-0.1514315,-0.9250726,1.7729614,-0.38858595,0.06207201,-0.28325486,-0.7892882,1.9843681,-0.15615489,-0.23504032,-1.097718,0.46139103,0.9363457,-0.8311689,0.48090434,-0.67013514,-1.017472,-0.15035427,0.1479989,0.4416238,-0.17955057,-0.52413833,-1.278322,0.6830835,0.75783837,0.1500479,0.059258126,1.2083249,-0.038284667,-1.4367692,-0.2240879,0.43172398,-1.3260479,1.6928606,-0.12553737,0.9321462,-0.78666663,0.19029379,1.5200808,-2.6797366,-0.50649405,0.9978161,-1.1525624,-0.052058347,0.49054635,0.39509606,0.5217695,-1.6899135,2.0528018,0.09659629,1.578615,-0.099625856,-0.1678782,0.48402908,0.23001117,-0.74949634,1.5689535,-0.70745003,-1.477879,-0.2295304,-0.47024697,-0.20305058,-0.42662087,0.087805524,-0.6547637,0.08592355,0.0885683,0.73268217,2.0144668,-0.0045865662,-1.2229604,0.48681492,-1.5254356,1.1594965,0.9179685,0.20251238,1.6437027,-0.30677605,-0.41261545,-1.3640912,-1.4408522,1.2176814,-0.59842706,0.10798295,0.6961575,1.1880049,0.06425406,-1.1756096,1.7612224,-1.4958913,0.13940687,1.020902,0.55388,0.9207019,-0.6969794,0.49972773,-0.24624373,0.60394704,0.49211338,-0.07561633,0.19575553,0.44567955,0.57203573,0.57445604,-0.040681057,-0.915592,-0.6022948,1.261081,-1.0883069,-0.9545876,0.13356572,-0.33866,-0.4918057,-0.15129349,-0.55161154,-0.8104547,0.9084865,-0.8410496,0.9830486,0.9894203,1.5863398,1.4379518,-0.37068605,1.7499056,-0.6107069,0.24247415,0.094537735,0.110465705,-1.6761137,-0.7057395,-0.7122006,-0.5564314,0.7038578,-0.3946874,0.8298075,1.5284806,-0.4875202,0.08465126,0.89606166,-2.2435346,0.83760834,-0.22781852,-1.1600883,-0.24454693,1.1019701,2.4051936,-0.64574313,0.37196273,1.1463393,-0.46920997,0.027997965,-0.34121805,-1.1070585,0.17283237,0.6814767,0.92001176,-1.1095867,-0.11923589,-0.73735934,0.2320168,0.98820925,-0.28447592,0.16972995,0.79753673,0.9728424,0.2834225,-0.4439608,-0.97040105,1.3145937,0.087984756,0.5017504,-0.63833463,-0.77954185,-1.1437254,-0.5218475,0.18699777,0.2756595,-0.13721567,0.9148555,0.49164754,-0.18569395,-0.8990399,-0.104643345,0.086160645,-2.1225536,-0.014718145,-0.7655344,1.1236001,-0.6362387,-0.93370163,-0.1495199,0.4905534,-0.51597315,0.13658877,-1.2726371,-1.0802402,-0.41497982,0.70687205,0.4421667,-0.01460091,0.3793368,-0.5331598,-0.8229146,0.06870548,-0.8567544,0.23334613,-0.23113404,0.062377833,-0.5514575,0.10688689,0.32326764,-0.1433923,0.9141767,-0.8552533,0.87901205,-0.29801574,0.5144478
