question-id,0,1,2,3,4,5,6,7,8,9,10,11,12,13,14,15,16,17,18,19,20,21,22,23,24,25,26,27,28,29,30,31,32,33,34,35,36,37,38,39,40,41,42,43,44,45,46,47,48,49,50,51,52,53,54,55,56,57,58,59,60,61,62,63,64,65,66,67,68,69,70,71,72,73,74,75,76,77,78,79,80,81,82,83,84,85,86,87,88,89,90,91,92,93,94,95,96,97,98,99,100,101,102,103,104,105,106,107,108,109,110,111,112,113,114,115,116,117,118,119,120,121,122,123,124,125,126,127,128,129,130,131,132,133,134,135,136,137,138,139,140,141,142,143,144,145,146,147,148,149,150,151,152,153,154,155,156,157,158,159,160,161,162,163,164,165,166,167,168,169,170,171,172,173,174,175,176,177,178,179,180,181,182,183,184,185,186,187,188,189,190,191,192,193,194,195,196,197,198,199,200,201,202,203,204,205,206,207,208,209,210,211,212,213,214,215,216,217,218,219,220,221,222,223,224,225,226,227,228,229,230,231,232,233,234,235,236,237,238,239,240,241,242,243,244,245,246,247,248,249,250,251,252,253,254,255,256,257,258,259,260,261,262,263,264,265,266,267,268,269,270,271,272,273,274,275,276,277,278,279,280,281,282,283,284,285,286,287,288,289,290,291,292,293,294,295,296,297,298,299,300,301,302,303,304,305,306,307,308,309,310,311,312,313,314,315,316,317,318,319,320,321,322,323,324,325,326,327,328,329,330,331,332,333,334,335,336,337,338,339,340,341,342,343,344,345,346,347,348,349,350,351,352,353,354,355,356,357,358,359,360,361,362,363,364,365,366,367,368,369,370,371,372,373,374,375,376,377,378,379,380,381,382,383,384,385,386,387,388,389,390,391,392,393,394,395,396,397,398,399,400,401,402,403,404,405,406,407,408,409,410,411,412,413,414,415,416,417,418,419,420,421,422,423,424,425,426,427,428,429,430,431,432,433,434,435,436,437,438,439,440,441,442,443,444,445,446,447,448,449,450,451,452,453,454,455,456,457,458,459,460,461,462,463,464,465,466,467,468,469,470,471,472,473,474,475,476,477,478,479,480,481,482,483,484,485,486,487,488,489,490,491,492,493,494,495,496,497,498,499,500,501,502,503,504,505,506,507,508,509,510,511,512,513,514,515,516,517,518,519,520,521,522,523,524,525,526,527,528,529,530,531,532,533,534,535,536,537,538,539,540,541,542,543,544,545,546,547,548,549,550,551,552,553,554,555,556,557,558,559,560,561,562,563,564,565,566,567,568,569,570,571,572,573,574,575,576,577,578,579,580,581,582,583,584,585,586,587,588,589,590,591,592,593,594,595,596,597,598,599,600,601,602,603,604,605,606,607,608,609,610,611,612,613,614,615,616,617,618,619,620,621,622,623,624,625,626,627,628,629,630,631,632,633,634,635,636,637,638,639,640,641,642,643,644,645,646,647,648,649,650,651,652,653,654,655,656,657,658,659,660,661,662,663,664,665,666,667,668,669,670,671,672,673,674,675,676,677,678,679,680,681,682,683,684,685,686,687,688,689,690,691,692,693,694,695,696,697,698,699,700,701,702,703,704,705,706,707,708,709,710,711,712,713,714,715,716,717,718,719,720,721,722,723,724,725,726,727,728,729,730,731,732,733,734,735,736,737,738,739,740,741,742,743,744,745,746,747,748,749,750,751,752,753,754,755,756,757,758,759,760,761,762,763,764,765,766,767,768,769,770,771,772,773,774,775,776,777,778,779,780,781,782,783,784,785,786,787,788,789,790,791,792,793,794,795,796,797,798,799,800,801,802,803,804,805,806,807,808,809,810,811,812,813,814,815,816,817,818,819,820,821,822,823,824,825,826,827,828,829,830,831,832,833,834,835,836,837,838,839,840,841,842,843,844,845,846,847,848,849,850,851,852,853,854,855,856,857,858,859,860,861,862,863,864,865,866,867,868,869,870,871,872,873,874,875,876,877,878,879,880,881,882,883,884,885,886,887,888,889,890,891,892,893,894,895,896,897,898,899,900,901,902,903,904,905,906,907,908,909,910,911,912,913,914,915,916,917,918,919,920,921,922,923,924,925,926,927,928,929,930,931,932,933,934,935,936,937,938,939,940,941,942,943,944,945,946,947,948,949,950,951,952,953,954,955,956,957,958,959,960,961,962,963,964,965,966,967,968,969,970,971,972,973,974,975,976,977,978,979,980,981,982,983,984,985,986,987,988,989,990,991,992,993,994,995,996,997,998,999,1000,1001,1002,1003,1004,1005,1006,1007,1008,1009,1010,1011,1012,1013,1014,1015,1016,1017,1018,1019,1020,1021,1022,1023
Q1,-0.50043374,-0.5633619,-0.03104918,0.5133988,-0.9729978,-0.2609539,-0.865448,0.08370937,-0.15739541,-0.112396784,-0.24457996,0.84231347,-0.58494157,-0.06418069,0.95471346,0.7482238,0.30587816,0.50832534,0.90508753,0.44730118,0.27681383,-0.06476242,-1.1586012,-0.2584939,-0.0016674189,0.5461407,0.6423012,2.7567997,-0.750328,-0.6384637,-0.6249893,-1.3337142,-0.60631824,1.5620339,-0.03325264,-1.200189,-0.7753881,0.6011262,-2.3462677,0.12388939,-1.0288188,-0.89063954,-0.8216316,1.0264987,1.1850823,-1.7027549,-0.08769947,-0.47225598,-0.28019965,0.44651058,1.3352891,0.167324,1.0219594,0.4649445,1.2900665,-0.017495152,2.0852797,0.77096695,0.047302127,0.11855692,1.5928547,-0.14903088,-0.0056576063,0.0341449,0.2638044,-0.17387895,-0.54768306,0.31850645,0.9850126,0.10701679,0.19102706,0.6107813,-1.031171,-0.73237765,-0.93270874,-0.46385577,1.2837942,-0.40134072,-0.2269748,-0.25454885,0.24908127,0.051609594,0.058977056,-0.33412862,-2.06237,0.008400084,-1.6598135,0.58357644,-1.6927749,0.026442511,1.4112619,-0.21081392,-1.696129,-0.51602894,1.0183272,0.5030272,-0.61007416,-0.9478541,-0.39677644,-0.74583054,-0.3750902,-0.23841067,0.16046435,0.22007753,0.7036477,-1.0535121,0.18626,-0.96944696,-0.939583,-0.10798405,-1.1648698,0.06062773,1.2628039,0.95462656,-0.9475035,0.19318956,-1.1116617,0.006579999,1.149922,0.9999549,-0.6389708,-1.931841,-0.447193,0.31077987,0.79802066,0.16286054,0.33530077,-0.722114,1.1196394,0.005872642,1.0877805,-1.7375404,0.24767463,-0.48593062,0.3809129,0.20487502,-0.83726156,0.8842426,-1.382643,-0.10247797,-0.69607157,0.5083699,0.28531155,0.73488915,-0.8191372,0.04689917,0.8266202,0.37935096,0.47256637,1.8956171,-0.20285173,0.7304661,-0.9207305,-0.38576946,-0.7749802,0.015872184,-1.8374519,0.09558693,0.024810392,-0.2609393,-0.5077587,0.47619846,0.4461002,0.8424893,-0.38780084,0.7345182,-0.013357394,-1.3943489,-2.2527602,0.87296724,0.86975265,-0.11449026,0.53296906,2.092943,0.9216296,-0.06539982,0.008400491,0.031322297,-0.096302964,0.39533997,-0.32135716,1.1222228,-0.7886224,-0.70187926,-0.53913516,0.3725794,-0.28010586,0.69113153,-0.20269674,-0.9104017,-1.3827294,0.09471837,2.0664785,-0.4893805,1.4610789,1.5859054,-0.4469637,-0.35802823,1.6665251,0.52071685,0.3431037,0.6671632,-0.13727473,-0.2735182,0.2819747,1.2440608,0.7400456,0.12875578,-0.4924806,-0.8829166,0.28268972,0.09145777,0.2829182,0.75201905,-0.9496441,0.26703238,-0.17407277,1.0307758,-0.4489811,0.03409828,1.2232282,-0.8890538,-0.29193264,-0.89256203,-0.14778058,0.12873608,-0.12891603,0.19042471,0.15289426,0.21596895,0.10714633,-1.3306074,0.055328306,-1.2876902,0.25790393,-0.03697654,-0.43373188,-0.068778045,0.033442877,-1.0610821,1.0754995,-1.0444627,-1.1534063,1.0010911,-1.4010222,-0.73439705,-0.123651296,-0.37298882,-0.06859809,0.015376067,-0.75337076,-0.4374887,0.3146695,-1.5966613,-0.46676525,0.3362876,0.32038575,1.4817045,-0.3222391,-0.32781005,0.89363325,0.68990546,-0.0396373,-0.6328023,1.6082834,1.8568408,-1.1898961,1.4120601,0.40594107,0.5325505,0.39592496,0.2164012,0.8164087,-0.33897293,0.3425763,0.064376034,0.325042,2.2153924,0.37450257,-1.8299117,0.87667924,1.7006764,-0.21956272,-0.3220437,0.31612697,-0.72889465,0.88330966,0.60859686,-0.7209168,-1.4628167,1.7151769,0.14477603,-0.36683804,0.400655,0.16986911,0.14690755,-0.08984839,0.02324065,0.8858997,0.56715953,1.2929308,0.8300514,-0.44973537,0.10151217,0.15757991,-1.2053347,-0.4916486,0.7574889,0.50285006,-0.49876952,-0.17300774,0.2645131,-0.28847423,-0.35698238,-0.69603366,0.39654127,-0.7105241,-0.38199446,-0.1908118,-1.1972417,0.46190533,-0.70523566,-2.3855891,-1.0937834,0.62679833,-1.1491932,-1.2188852,-0.8161446,-0.48788008,1.1672379,0.46808982,-0.5368886,-0.66265845,0.21930861,-1.602534,-0.27637413,-0.1657791,-1.3824944,0.97610587,0.17588845,-1.5856928,-1.4163346,0.8926834,-0.75787586,-0.12219331,-0.5305171,-0.13079143,0.8011322,0.5307856,-0.29721162,-0.24710217,-1.229785,0.10295152,-0.05896701,-1.2383217,-0.08463762,-1.1388593,0.53395414,-0.6613894,0.5346164,-0.03726867,-0.6322737,-1.996885,0.5912061,1.4102271,-0.9115052,1.2544106,0.7389161,0.9185327,-1.4713756,0.06629544,0.6113455,-0.04649803,-0.050600223,0.16168158,-1.0013119,0.49498513,0.051286872,0.050543517,-0.7880986,-0.27116743,0.103811644,0.016777467,-0.84949887,-0.1707617,2.1417189,0.49194932,-0.8345027,-0.6298878,-0.45297122,0.62592214,-1.2405833,0.2731011,0.41234934,-1.2483109,-0.19255102,0.3131202,0.5401527,-1.3541017,0.073085435,1.3599806,-1.4550604,0.18070605,-0.033617105,-1.3174486,0.18916292,0.77551204,0.22652552,-1.2492726,0.46299154,-0.6791058,0.32374534,1.146312,-0.67998075,0.50440645,-0.5382577,-1.0498108,-0.21003512,0.03266874,0.28971758,0.64351577,0.4155986,-0.6867446,0.08244787,0.11520206,-0.2404738,-0.43906334,-0.5929817,-0.31798586,0.2540662,-0.26717716,-0.73302877,-0.0040138005,-0.4549234,-0.20056257,0.31998262,0.1599067,-1.2901769,-1.1417663,0.5326419,-0.030653758,0.7291265,0.17172658,-0.8589645,0.7571015,-0.090892114,0.5607111,-0.8786243,-2.0597682,-0.9097089,-0.46041712,0.9527125,0.046270225,0.18028179,0.1808297,-1.965111,-0.60850805,-1.1801145,-0.21721923,0.34882128,0.060451955,0.687172,-1.1409665,-0.28008246,0.22019148,0.57253176,0.08285821,0.025464995,-0.124501735,0.48273143,0.29225245,-1.4047728,0.4760526,-0.6734723,0.12561408,-0.34988275,1.0909778,-0.48050532,0.116258144,1.0416098,0.20427746,-0.35487714,1.4108706,-0.28498554,-0.30025652,-0.40972382,-0.28803867,-0.87425905,-1.0283712,-0.050493665,0.097598724,0.4601516,-1.1050119,0.17837217,2.2049546,-0.32842845,0.7142253,0.17337883,0.8363819,1.0722723,-0.2802577,-0.9139841,0.5853654,0.51822567,-0.34241384,0.56807554,0.96343064,1.5201682,-1.1035616,-0.46556395,1.5335987,2.059733,-0.3709955,-0.90914184,-1.3426877,-0.24874322,0.61320305,0.9795678,-0.32533637,0.23403385,0.19497399,-0.09231888,0.69190097,-1.5266485,0.61538744,-0.58947545,-0.3511043,0.31789652,0.4599114,0.11899843,0.20995408,0.033807673,-0.15200678,0.17520341,-0.43839607,-1.1245363,0.0046249726,0.2693338,0.9148752,0.7124025,0.28295,-0.94620156,-1.5628425,0.03954926,-0.76112944,0.44746125,-0.92914087,1.226961,-0.072572626,-0.12867184,1.291809,1.0994104,-0.77065367,-0.7441072,0.24252342,0.8483187,-0.737617,-0.896633,0.029182907,-1.1161988,-0.3565774,-0.360201,0.8295204,0.40291405,0.34654322,0.85203844,-1.350235,-0.8151401,0.18827197,0.42846468,-0.40804666,0.4770848,0.74558616,-0.44221318,-0.39451408,0.513222,-0.5140425,0.8766368,-0.50693876,2.137647,0.1132922,0.23128034,0.2490367,-0.24219993,1.2896147,-0.06738242,1.3898134,-0.44730338,0.10264587,-0.2545501,1.1405236,0.60521317,-1.8930727,-0.062232375,-0.10813817,0.025637392,0.6868532,-0.21827947,-0.13777745,0.68357724,-0.7140465,1.9268484,1.0258396,0.12635358,0.31165344,0.93357515,0.5991225,0.59046817,1.6064562,2.2617664,-1.4560082,0.32485566,-1.0898411,-0.2908134,1.1472546,1.0408407,-0.07237013,-1.5516416,0.14245105,0.061559144,0.5360057,-1.7045015,-1.5229534,1.3552587,0.9915498,0.5845203,1.4570225,1.4012842,-1.0401931,0.41352347,-0.007951449,-3.351419,-0.91423595,0.30041403,-0.81928915,0.21826386,-0.2857231,1.7394487,0.92567205,-0.5143238,-0.3120838,-0.69311863,-0.8379446,0.22901167,-0.092065044,-0.42428428,-0.22597866,-0.8104572,0.99063647,0.25018665,1.6937052,0.8444313,0.25752226,0.41611555,-0.034618665,-0.03467136,-1.6509186,0.2285264,-1.0077324,-0.94429195,-0.5217995,-1.4322119,0.48675078,-1.447592,-0.28913423,1.8967417,-0.20773047,1.036183,0.052304238,-0.96806055,0.10309249,0.6411309,0.49664712,0.62818164,0.12711106,0.18017505,0.9231097,-0.09464787,0.8440131,0.0062561315,-0.3271069,0.26406518,0.17560229,0.89973164,-1.3594582,-0.6046093,1.1017542,-0.17011838,-0.17185083,-0.55692095,0.58089685,-1.2889738,-0.094410524,-0.14024077,-0.6040237,1.3327488,-1.4924581,-0.19315092,1.3930981,0.01963637,-1.2460644,-1.0589246,0.36603907,-1.5545509,0.5583366,0.9606641,-0.27501708,-1.4636339,-0.34011197,-1.6990781,-0.55466557,0.85897565,0.09022503,-0.30227914,1.4496518,0.1566072,-0.14414227,1.1122711,0.58622974,-0.21434171,-1.1392457,-1.5839344,-1.1705078,0.59188634,-0.4721213,0.007733303,-1.3299041,0.03917119,0.24083446,1.5376801,0.7357149,0.38073617,0.56610215,-0.7032872,-0.33281156,1.7018079,-0.62391275,-0.060483105,-1.9078921,-0.03701142,0.31223744,-0.79668736,-1.1444175,0.8377035,0.038804404,0.49390164,-0.5087142,-0.9371055,-1.1412263,-0.79932415,-0.9297699,0.6835455,0.98543334,-0.6800326,-1.0634148,-0.43228143,0.2981458,-1.4392653,-0.8745176,0.39884925,1.3760979,0.382066,-1.4230413,1.3313954,-1.8058022,-1.7439646,0.15795827,-2.0580163,-0.76297766,-0.0024368921,0.102468535,-0.13768156,-0.4191756,-1.1506366,-1.387418,0.13572173,-1.8066895,-0.6306781,0.12108738,0.9202133,0.90195245,0.514216,-1.0948391,1.8178993,1.2518454,0.31953534,-2.3207698,-1.5587965,-0.4377406,-1.2173115,0.73413694,-0.55226004,-0.21127184,0.14942576,1.0985558,-0.54402685,1.3758892,-0.38087562,-1.7487195,0.6311693,0.79006135,-0.54867226,-0.72838455,-0.051754147,0.07865365,-1.3207622,0.21478978,-0.67198324,-1.150875,0.4440769,0.26247856,0.8274142,-0.12193719,0.7001252,0.49602154,0.26441354,1.1427552,-1.0412307,-1.1024141,1.4284735,-0.94465154,-0.9956515,-1.6673002,-0.23939669,-0.8591292,-0.038343355,0.16218616,0.44005525,-0.54806626,0.027800953,0.17205189,0.8301669,-0.36304307,-0.9219554,-0.030285576,0.5899469,-0.31986845,-0.42885056,2.0581253,-0.75970006,1.2253171,-0.9297717,0.4676207,-0.19708507,-1.2827424,0.67998815,-0.17763926,-1.7027663,0.15229826,0.7048642,0.68759245,1.7526008,0.050665688,0.426767,-1.176769,2.1353693,0.2207543,0.3961019,-1.0992991,-0.23835385,0.72931135,0.91304564,-0.9118914,-0.51446986,0.5134173,-0.15329409,-0.26595238,0.67822546,-0.06367027,0.9278549,-0.45007318,-0.71890324,-0.9607601,0.3597617,0.6798022,1.1932983,0.31888407,-0.04576485,0.652996,0.14042535,1.0556763,-0.6627412,1.1169777,0.034811836,1.2708844,-0.5610056,-1.2080823,0.83936644,0.54579824,-0.05132187,-0.46338275,1.9322919,1.4275651,1.1414281,-0.5571407,2.360603,-0.666126,-0.7377282,0.62543476,0.5058246,0.60567087,-1.7583516,0.32784367,-0.25285104,-1.1839207,0.85903883,-1.3981619,-0.4739579,0.20461789,0.29246604,-0.21237195,1.2554529,-1.4681594,-0.6924989,0.21137863,-1.7100948,-0.78269184,1.3465307,-0.017483067,-0.26644105,-0.6940267,-1.5075096,0.49687514,0.60489845,0.36115062,1.042221,-0.12325126,1.2985395,0.5590129,-1.2174062,-0.5742753,0.9828837,0.9584805,0.13691641,0.9208341,-0.81704247,-0.66407394,0.15331206,-0.599692,-0.02385892,0.13405819,0.81999964,0.607972,-0.8332447,0.42142627,-1.0621303,0.7443081,0.6109091,-0.23164466,-1.1531985,0.45033664,-0.37848544,1.5374103,-1.2415557,-1.5011445,0.9582601,-0.66717196,0.08701403,0.07832917,-0.7055985,-0.5648748,-0.39244586,1.0925246,1.3614805,-0.46125436,-1.4756696,-0.06540331,-0.62268996,0.9767153,0.13867912,1.7880005,0.2318045,0.18235382,0.88143635,-2.3831654,0.13519207,0.97619194,0.6079881,-1.3976617,-0.34965757,-0.9931452,-1.0651188,-0.41076314,-0.11341701,0.7036129,0.13375491,-0.118388385,-0.37998167,-1.0760193,-0.98210144,0.22876765,-1.7077456,-0.43401557,-0.016919214,-0.012763379,-0.8349705,0.34998393,-0.049827762,-0.14418527,-0.95183897,1.3611795,-1.3889326,-0.57245404,-0.8542557,1.1278582,-0.49001122,0.5960937,-1.4764464,0.5139524,-0.5739109,0.037827365,0.04938814,0.43390477,1.0464367,1.620782,-0.04402491,0.5638689,1.3355356,-0.36412126,0.7662651,-0.4115274,-0.26430637,0.45129514,0.98617655
Q2,-1.9768885,1.3036283,0.38658932,0.24396649,-0.058862075,0.6361647,-0.7512113,-0.47030917,-0.2867873,-0.70088905,-0.58785087,0.65969276,0.34101325,0.10293639,-1.7204733,-0.21856248,-0.79417366,-0.90640396,0.22237976,-1.3565494,1.4362253,-0.25357172,-0.12023096,-0.1650194,-0.2811134,0.09915648,-0.26291478,0.45152497,0.50611603,-0.022579573,-1.1148554,-0.21562958,-1.1335086,0.35045403,-1.4732859,0.85785437,-1.3852183,-0.58274674,-1.2018236,0.97055525,-0.6070074,0.47240517,1.3741745,0.5627618,-0.39648214,-0.00056631427,0.029485643,0.7657602,0.71794,-1.0727129,-1.2583941,-0.6360042,-0.40251306,-0.4467907,0.6096398,0.19035055,0.15137514,-0.039335497,-0.7634507,0.40090945,0.06715783,1.5981637,-0.22705378,-0.5423445,0.22802533,1.1360991,-1.6934699,-0.13826692,0.063141756,0.4798677,0.57422304,1.097501,1.0157636,-0.15838565,0.45519137,-0.6944086,0.53507954,-2.0919802,-1.1302384,0.18131825,0.25658247,0.7404569,1.2865703,0.26204437,-0.91608953,-1.4183106,0.4972229,-0.07815931,-0.70827603,-1.2649908,1.4961052,0.43944296,0.49605814,-0.1449318,0.76139903,0.3642673,-0.2564546,-1.481378,0.7208007,-1.6658489,0.4923609,0.28393105,0.78748226,1.335322,0.5048062,-0.95003474,-0.43955332,-0.021470904,0.9495799,-0.35004926,0.86019146,-0.35588333,0.543725,-0.4177413,-0.87740225,-1.0405471,-0.7597654,-1.3042319,1.4190533,0.62688905,0.625706,-0.043752886,-1.7849927,0.43423638,0.5114379,-0.035537194,1.2213961,-0.30084726,0.119478226,-0.40988252,0.43811288,-1.7857008,1.1367593,0.4580129,-0.7960509,-0.24697562,-0.16300997,0.0062952642,-0.3821406,-1.3928219,-0.0290164,1.3014107,0.4271365,2.2389104,0.07180518,-0.2699549,1.5509619,0.43432295,0.43999994,-0.05731491,-1.2441082,-0.50444216,-0.50822306,0.46631357,-1.0926576,0.610473,-0.09640786,-0.64280146,-0.7250766,1.1909832,-0.43245006,0.917057,-1.3323759,0.25746262,-0.47872645,1.597892,0.2508784,-0.74731576,-0.44668046,1.3176072,0.9241977,0.63098943,-0.007543655,0.85493714,-0.5254569,0.596112,-0.7273601,1.4888675,-0.5149292,0.29195753,-0.71321774,-1.123882,-1.2655467,-0.14578861,-0.34590152,-0.8251494,-0.7695915,1.3639125,-1.0136489,-1.135012,-1.4980509,-0.7731526,0.6163655,0.92087555,0.1495471,1.8405886,0.026507465,-0.74638194,-0.06676931,0.61259645,-0.38508415,1.7309244,-0.5976526,0.077745765,-1.3753322,0.9474974,0.5370122,-0.4629577,0.15008119,0.3640509,1.1329442,0.79978555,-0.9769942,1.4029739,0.11841315,1.3119948,-0.17506841,0.7380639,0.5201195,0.7087865,0.4178863,1.2153229,-1.1669986,0.23942162,-0.20078576,-0.19730486,-1.042262,-0.50922054,0.46636087,-0.44788063,1.0405245,-1.4024745,-0.8890827,-1.4754443,-0.15341909,0.51304996,-0.20798628,0.59273684,-0.71483254,-0.92403543,0.28214753,-0.3163962,-0.91870695,-1.2250813,0.49439448,1.4050796,-1.0438977,-0.807879,0.76331145,-0.31879294,0.048198253,0.23523375,-0.5381434,0.43242756,0.5792382,0.88907325,0.33219457,0.66584706,-0.24837548,-0.58884466,0.34683007,1.5312318,-0.9565141,0.7779607,0.9460738,2.2209032,-0.63685864,-0.27010056,-0.74947506,0.60816044,0.25437954,-0.23242195,-0.28540325,-1.4834839,-0.36490512,-0.4938018,-0.4313681,0.28846955,1.1374477,0.7361913,1.3262534,0.98033154,-0.9407073,-0.643054,-0.3744468,0.33419502,0.19738716,1.6195295,-1.028664,-0.016637709,0.26866946,-0.007581183,-0.09801764,0.69443953,0.100966975,-0.36864674,-0.8230625,0.27395585,1.0555857,0.4627137,-0.20670672,0.12679653,-1.0588514,-0.066907674,-0.24436665,0.2263576,0.44597024,0.47131786,1.0256085,1.9722707,0.38202184,-0.8920639,-1.1411278,-0.4010171,-1.0250717,-1.4547998,-0.41629198,2.1084597,-0.14532334,-0.7891337,-0.60595626,0.7295549,0.7175336,-0.7665453,-0.62812203,0.7235965,-1.0947847,0.76300836,0.5401846,-0.3956709,0.6125543,-0.4727401,-0.45023274,0.30146712,0.24085493,-0.0022275692,0.20652148,-0.87924415,-0.43114448,-1.4597249,0.48902208,0.27222776,1.0275372,-0.20702586,-1.0745549,-1.0422841,0.38490397,-0.3514568,1.141572,0.16835827,0.33732632,0.12466282,0.20524298,0.6768446,-2.2617772,-1.405252,-0.7401994,-0.25179112,-0.7015521,-0.22813517,0.46566233,1.1060505,-0.6405234,-0.1902614,1.4965925,-0.028680515,0.13506596,-2.1390703,-0.88773656,0.008097312,1.4505795,-0.11843708,-1.3877671,0.28165644,-0.5119983,0.3705717,-0.16158257,-0.15659022,-0.5989525,1.1303167,-0.8441388,0.05580223,-0.1168676,0.16627766,-0.28219756,2.9617922,0.17357886,-1.4843382,-1.3296238,-0.6138279,0.8750632,-1.1210985,1.0171834,1.675189,0.8308533,0.24343504,1.1942813,-0.36813754,0.15529315,-0.4891578,2.5296292,0.0619215,0.21776575,0.3312632,0.2577857,1.6397604,0.41414785,-1.9209335,-2.2615552,0.63760054,0.07649614,0.020528954,0.9535978,0.47751942,0.84893197,-0.23135218,-0.9418416,0.35613632,0.7756359,0.27636597,-0.07895109,0.03631738,-1.2250392,-0.28491464,0.9037513,0.34620014,-0.55381125,0.8438727,-0.31018272,0.34296417,-1.8192887,0.36417806,-0.37273753,1.642153,1.335893,0.59839195,0.7835788,0.022902656,-0.054620195,-0.1621876,0.45613465,0.68653387,1.9352689,0.42363846,1.179543,0.0014691892,0.76483005,0.0036562383,-1.6608407,-0.28363252,1.1159811,0.7225617,0.33068156,-1.5642093,-1.3951423,-1.0959821,-0.49870604,0.2354271,0.9385595,0.5075433,-0.41387933,-0.022938117,0.89851165,0.2391156,0.5922604,-0.16399142,0.10355997,-0.2510265,1.2150953,-0.61557984,-1.2574278,-1.0128832,-0.036304295,0.38946006,0.9826192,-2.6005783,-0.088855326,-0.49969605,1.9520142,0.24045293,-0.6388326,0.6492713,0.9644276,-0.8717777,0.6411342,0.8845483,-0.5667973,0.97144306,0.12260316,0.16463912,-0.14667842,-1.0284835,-1.5693034,-0.2898413,1.2391418,-0.02176285,-0.26063725,-1.8274502,1.8721398,0.77303076,-0.054815114,0.1347954,0.060934402,0.66538507,-0.5272064,0.36936924,0.6958471,0.25895792,-1.3581189,-0.119972534,-1.5932448,1.6084143,-0.84645116,0.30345723,0.24741285,-0.9865292,-0.1777368,-0.44173455,-2.0728045,0.06641925,0.42216974,-0.16416109,0.6652705,-2.4225168,0.22100556,0.21925035,-1.6184577,0.038521376,-1.3463945,-0.390735,0.6920514,0.14435723,0.3410224,0.18541457,-0.538903,-1.3843132,0.15096201,1.1099188,1.1317643,0.95353967,-0.5933294,-0.061108932,-0.72084326,0.3548702,0.32220283,0.7116679,1.1419904,1.041827,-0.15884061,-0.93127567,0.88623786,0.29152477,0.12909298,0.46773762,0.4019124,-0.36805573,-1.3523302,-0.10055334,0.55788636,-0.71092325,-0.6570804,-0.9400794,-1.315828,-1.1854743,-0.9633593,0.7924755,-1.0689025,-0.37637082,0.89105433,1.4303892,-0.544846,-0.7696447,0.2763582,-0.62654674,-0.0014636144,0.26747116,-1.1710837,0.5450503,0.40661818,-0.7129098,-1.0683038,0.6340689,0.99246305,0.25259966,1.1212378,-0.090698764,1.3761219,-0.14571536,1.1042335,-0.103974216,-0.27979708,0.09470624,-1.460683,0.44513977,-0.69875914,0.022510177,-0.26967153,-0.99817353,-0.7075167,1.3453858,1.1515377,2.993014,-0.30149943,-0.53619224,0.6062761,-0.4545108,1.9358197,0.89359987,0.44173795,2.1546834,-0.28991666,-0.767255,-2.3522503,-0.2860769,0.21248329,-0.017662842,0.9450797,0.38759008,-0.16524325,-0.33098525,-0.39569712,0.5257892,-1.171938,0.27932507,-0.4378852,0.36157203,-0.0021118838,0.5255753,-0.5764124,0.49658322,0.49349302,-0.9856361,-0.400574,0.5696273,-0.73530364,0.72063154,0.91884845,0.2465118,1.7818133,-0.030791426,0.13240547,0.23938642,-0.48893306,-0.73936194,-0.050897602,-1.5145218,-0.023918057,0.6250472,-0.6598615,-0.060238935,-0.27420527,0.46339697,-0.6832548,-0.24733165,-0.6878801,-0.77179307,-0.39109933,-0.32381937,1.1595846,0.08498624,0.29276586,-0.41453847,0.17320602,-1.3878249,0.24299338,1.5218488,-0.5804839,0.15508497,0.25984508,-0.28509182,-1.2468363,-0.3047817,-0.529209,0.4180446,0.6357512,0.3874194,0.8298256,-0.15661466,0.37382102,0.7078804,-1.3794434,0.77860165,0.40691948,-0.7710933,-0.24708675,-1.3080779,-0.3056487,0.14481525,0.49643853,-0.22382896,-0.5585306,-1.3647478,0.015585182,-0.24107462,-0.667017,-0.19271411,-1.7723932,0.6799951,0.26452345,0.2375246,0.49074483,-2.028427,-0.22451408,-0.7047557,0.8074347,0.9537964,1.0492262,-0.6672615,-1.3493037,-1.5714054,-0.27250877,0.44982666,0.35305366,0.48440623,-1.0290427,0.24312973,0.41347528,-0.31176034,-1.592857,-0.095608525,-0.371253,0.27117893,-0.5351832,1.0343697,1.0474792,-0.65379673,0.59677744,-0.101975285,0.037945192,1.0028987,2.648216,-1.3734733,-1.9685013,-0.36054766,1.0208105,0.9131366,-0.19187431,-1.1531483,-0.8219738,0.006479379,0.89184386,0.26471928,-0.88157904,-0.26077867,-1.448066,-0.6889652,-1.5136086,-1.119946,-0.39309764,-0.16895711,0.6966235,-0.37948966,1.1341174,0.20351754,-0.40795052,1.0009134,-0.080435194,-0.4468739,-0.69515264,-0.6236031,0.31138447,0.7885015,0.76716554,-0.93727595,-1.1877344,-1.634034,0.028779078,-1.5033311,-0.36578572,0.57453763,0.8590416,-1.1250021,-0.26050082,0.150806,-0.6531643,1.106707,-0.36581331,0.1288564,-0.395702,0.38643846,-0.066844046,0.52751255,0.031773664,-0.22194637,0.07034026,0.38728252,-0.89013255,-1.3073415,-0.13523185,-0.39443412,-0.2516314,0.052822545,0.2959204,-0.36091664,0.30262157,-1.1567655,-0.16057566,-0.86056334,0.101576455,1.2270472,0.15736827,-0.9108762,0.55625314,-0.73232704,-0.41280255,-0.58581716,1.2451825,0.42140004,0.20523255,-0.56374156,0.98012286,-0.9363444,1.1258279,0.62316734,1.3056386,0.5396368,-0.91405284,-0.5683892,0.13694482,0.9473853,0.09831992,1.5993795,-0.5181258,0.44726172,-0.23562953,0.9205406,-0.80189437,0.37411237,-0.9652611,-0.3742973,0.27462283,1.383954,-0.43310332,0.21761853,-0.95301384,-0.947349,-2.25891,-0.7039491,1.6452119,-1.7506341,0.92548615,-0.98530185,0.8041819,-0.60526145,-0.081948675,0.83675224,-1.65444,-0.79995936,-0.5230185,-0.39014506,-0.6552357,0.4450746,0.2712541,0.03389106,-1.9084592,0.7992473,-0.40676165,-0.5439309,-1.1046948,0.14257066,0.5751399,-0.20518187,-0.7160044,0.43974966,-1.0006403,-0.39398116,-0.7363287,-0.29615185,-1.9374784,1.9559957,-0.019823926,-1.768662,0.38140962,-0.013403789,0.18560812,0.6037333,0.81144935,-0.74769664,0.5212442,-0.95201063,0.35506785,1.5062834,0.48452473,2.2161155,-0.37596613,1.3615206,1.0487311,-1.0454279,0.64177114,-0.18630159,1.237076,0.60506296,-1.0965879,-0.19149807,-2.3062668,2.1698792,0.019372042,-0.10871524,0.3034507,0.63548374,0.69512767,-0.6729459,0.13997085,-0.7859779,-0.12057718,-0.5401079,-0.08358736,0.0110133495,-0.9051765,0.8634727,0.52319854,0.29858106,0.32740092,0.6902925,0.115013614,-0.47525764,-0.13183612,0.8887618,-0.45301342,0.8746535,-1.3249506,-1.4578918,0.59711695,0.74106836,-0.14161757,0.15221906,2.2699697,-0.10667461,1.0554931,0.39322895,0.12030408,-0.8577538,0.42919272,-0.02860557,-1.0459349,-1.4640036,-0.24887402,0.36116076,-0.7373032,0.760599,0.70250857,0.23080507,2.1368854,-1.3601828,-0.6512685,0.7094325,-1.130265,0.74207026,-0.073750556,-1.030841,-1.4787986,-0.0098848175,1.5609586,-0.6965738,0.21155015,1.6602188,-1.3268082,0.3773161,-0.86413604,0.75580347,-0.3052311,-0.7084958,1.081896,1.3109957,-0.6705487,-1.0507112,-0.4648101,-1.1112763,0.51422536,-0.14153706,1.6388061,-0.5529153,-0.90757364,0.3478127,-0.8794808,-0.05294995,-0.41508028,0.19418477,-0.16304737,0.8092638,-2.1059587,0.14695436,-0.26913565,-0.111698374,0.25669572,-0.8781724,-0.78387403,-0.6761902,0.22517878,0.30323628,-1.0009514,-2.316534,-0.13313292,-1.2130508,0.7747887,-0.6458345,-1.1854771,-0.17486589,0.43139553,-0.08055309,-0.11101402,-0.32460397,-1.7113062,0.5661555,1.89527,-0.31504774,-0.656841,-1.3571355,0.9752964,-0.98419076,1.2293082,-1.341475,-0.4186275,1.0955412,-0.45661408,0.7619577,1.5897833,0.26606292,-1.5674847,0.65354836,-0.1688303,0.16251813,-1.342832,-0.5060344
Q3,-0.32119626,0.9886269,0.4564938,0.016905937,-0.4082029,0.63956785,-0.09325609,-0.28600356,-1.0207524,-0.60115063,-1.0381457,0.33601457,-0.21250093,-0.7748247,-0.64445764,0.1276218,-0.48128974,-0.4650204,0.6104409,-0.8839623,0.3521811,0.506958,-1.5182288,0.35209385,1.2372657,-0.024931401,0.09818378,1.2463468,-0.23560376,-0.053242885,-0.8594445,1.3220283,-0.51651484,-0.8975688,-1.1269331,-0.18334812,-1.2675636,-0.3376154,-2.5529888,-0.07608406,-0.016040826,0.57538635,-0.69782627,-0.47525403,-0.016425155,-0.9945396,0.1525777,0.3897787,-0.31597087,-0.95014167,1.151406,-0.7100312,1.1972114,0.6875421,-0.67073935,0.5908808,1.3739256,0.76341045,0.6443068,2.1221669,-1.2767211,0.39943853,-2.0934126,-0.28858578,0.6912182,-0.46338552,-0.21894136,1.4733826,-0.11317075,-0.0002129944,0.081488244,0.47697768,-0.07659451,0.28353778,-0.055058114,-1.102737,0.05807746,-0.6898868,-0.7015203,0.003933724,-0.659488,-0.52360636,0.8933287,0.23433107,-0.970639,-0.4730314,-0.20529105,1.9905441,-0.816242,0.51764256,0.2622472,-0.1286221,-0.96754915,-0.3184076,1.090536,-0.45843643,-0.037118785,-2.0019455,-0.33571678,0.59729934,-0.05646229,-0.27473137,1.1150908,1.2623056,-0.39956215,-1.069041,-0.5756869,-0.90131813,-0.4241977,0.2715414,-0.9550461,-0.04754421,0.27474082,0.74559,-0.84519786,-0.6739239,-0.58202773,0.44539112,0.13139081,-0.39227456,0.135028,-0.48632303,-1.0345149,0.53035736,0.3879875,0.16116707,0.9912753,-0.45899618,-0.5023721,0.24939352,0.45937994,-0.42472786,1.3696262,0.47587407,0.7758346,-0.2340239,-1.0652153,1.5564182,-0.90319693,-0.8352278,-0.2631054,0.20798226,-0.087170176,0.29038686,-0.08789926,-1.1107157,0.12198828,0.93897593,0.95272475,0.13505179,0.1960029,-1.5746281,-0.77453655,-0.38175115,0.26481518,0.9591152,-0.44970417,-1.1675923,0.06342352,0.734317,-0.3041045,1.3327934,-0.2523195,0.20589414,-0.14715448,0.6797475,-0.7889594,0.26921454,0.12715425,0.7334138,0.98489034,-0.17913781,1.1789415,0.67303056,-0.6055209,-0.4280736,-1.0532221,0.022605002,-1.0058314,0.909932,-0.2889454,-0.6255072,-0.91563135,0.17626837,0.481787,-0.83897865,-1.3544998,0.90034866,-0.28678855,-0.4101274,-0.27898392,-0.63945657,1.7239938,1.0025785,0.5765845,0.39025885,0.29890892,0.14015482,0.96762836,0.57435536,-1.0961162,0.45261616,0.67861235,0.3080071,0.3239033,0.16646203,-0.27543163,-0.04062479,0.47857448,-0.008578052,0.50379705,1.653245,-0.6862798,-1.2735009,-0.8689927,1.2534153,-0.67718226,0.8074021,-0.46340352,0.29055217,0.27695787,0.48639345,-0.65346056,0.43768448,-0.019178681,-1.1147946,-0.2741312,-1.1112086,0.37629703,-0.15315972,1.277049,-0.7879961,0.0008075088,-1.063045,1.576406,-0.4499699,0.04779991,-1.0450927,-0.44969466,-0.2877775,0.73027545,-0.46110675,-0.28760123,-1.4825592,-1.3093157,0.47350174,-0.5504112,0.7897901,-0.082416445,-0.5433602,0.1882442,0.49003834,-0.26054522,0.9123027,-0.07974759,-0.35167137,0.3244747,1.0255008,-0.5983823,-2.16463,0.41136807,0.24738951,1.1848482,0.23662867,1.181052,0.8509735,-0.66686237,-0.43997005,-0.37075108,0.86108565,0.32702684,0.3870162,0.996719,-0.49382675,0.54309666,1.6373084,0.64247036,0.5551353,1.1161293,0.2320608,1.8690969,0.34665662,-0.32222846,0.36390656,-0.9269634,-2.015144,-0.5187138,0.7377357,-2.5389109,-1.2299474,-0.62968725,-0.5785931,-0.5573231,-0.2080239,0.10631717,-0.5675512,0.40341982,0.013577808,0.15267724,2.6682184,1.1914558,0.03305187,-0.6661717,0.65589726,-0.37428582,-1.1266309,-0.9229361,-0.69618964,0.90625256,-0.15329546,0.6883529,-0.61036086,-0.8938763,-0.3454959,-2.017276,-2.0656443,0.024284096,0.4029072,0.4290178,-1.0344477,-1.2689452,-0.5726646,-1.0362351,-0.91438854,0.09236083,0.33497685,-1.210668,-1.5925381,-1.1337082,-0.14675714,0.23669887,0.68395936,0.6210181,0.4779494,0.47802624,0.92952526,0.23763748,-0.33672312,-0.40676656,-0.89430434,-0.30123883,1.3824276,1.5526742,-0.6556535,0.2046676,-0.37733305,-0.7049023,0.06787166,0.22170673,-0.30444235,0.041311577,-0.59845275,-1.0579236,0.07211321,-2.024971,-0.8377435,-0.1404006,-0.011855355,-0.31408754,-0.1707629,0.66814053,1.2434759,-2.456232,-0.00926537,-1.4877094,-0.45531893,0.17879851,-1.2483152,0.036139898,-0.6107702,1.2408308,0.016791988,0.10575303,0.3529805,-1.4977793,-1.11729,0.65314704,-0.28712118,0.20890163,-0.48263997,-1.5816709,-0.389139,0.9956516,-0.29391417,0.9196357,2.4128225,0.8896168,-0.015713288,-0.94865924,0.70017594,0.84196144,-1.4315424,0.71695644,0.6354578,-0.9736182,-0.6736441,1.4314797,-0.03265832,-0.7624696,-0.19551529,1.0678743,-0.80384094,0.13271412,0.5862837,0.45382088,0.8521426,0.03728199,-1.9644468,-1.5490379,-0.42807388,-0.26773354,-0.6796895,1.0126623,0.093315594,1.0643189,-0.3389738,-1.257802,-1.0176704,0.6492265,0.44412467,2.3449302,-1.3125342,-0.046004325,-0.74801993,0.7447887,-0.43606317,-2.466868,2.6076274,0.71464115,1.1628357,-0.96582216,0.4867036,-0.13202181,-0.9671589,1.2679145,1.477812,-0.3088703,-0.22330567,0.0076315533,-0.98284847,-0.5427862,0.17729917,0.5757688,0.9537574,-0.50427663,0.6396213,-0.28200096,-0.5487291,-1.6801412,0.047121696,0.86172754,0.5987006,-0.71557033,-1.97184,0.5032095,-1.1305717,0.032459028,-0.90091836,0.397192,-0.15455231,-0.03972519,0.85771716,-0.061871752,-0.066933975,0.55882806,0.5946967,-0.54752195,-0.8004173,-0.51010996,-0.26770478,-1.2906033,0.1340223,0.6396414,-0.3154441,1.5869657,-1.3869913,-0.0025297636,-0.39971602,0.6253888,0.62586254,-0.7322812,1.3185021,-0.981165,1.4486423,-0.09219154,0.28154105,-0.03475669,-0.11225946,0.054887637,-0.2118058,0.59981734,-1.1359795,-0.2370708,1.4280694,0.83536196,-0.03275223,0.91570723,0.55579084,1.618451,1.4366859,-0.7556612,0.31696108,-0.46389058,-0.12635319,-0.62786764,-0.120527774,0.0069648065,1.5402883,-1.5865746,-0.23502685,-1.4640205,1.1534827,-0.87495637,0.8629846,0.47395343,-0.99286216,-0.6075318,-0.9569026,-0.80261767,-0.03439,1.0778003,-0.8872676,0.82749534,-1.1500518,-0.1835582,0.2665823,0.55870086,1.2575254,0.19201519,-0.6668723,0.36455348,-0.33444676,-0.29191723,-0.10959107,-1.3807414,-1.2654374,-0.45303878,1.4095031,0.8135246,1.0515482,-0.41214335,-0.7267515,-2.07533,-0.14638203,-0.019145764,0.9288987,2.2711897,1.8794503,-0.66186255,1.2457186,-0.6685253,1.4108007,0.13517125,-0.64391375,0.36527517,0.17872818,-1.0761148,-0.19241577,-0.17005847,-1.0360402,0.31051216,0.16204962,-0.20603117,-0.59743166,0.8050842,0.69239193,-0.3243968,-0.020448893,1.0924764,1.0993613,-0.014385638,-0.73978007,1.0722319,0.91382676,0.711809,-0.14861985,-0.819467,1.0604,-0.16269371,0.7464181,-0.28302205,-0.853401,0.19023412,-0.39972064,0.9373357,1.1494198,1.6424096,0.053070925,-0.00179887,-0.18206537,0.68484765,0.18901722,-0.13587242,0.29219532,0.0042583095,-0.69358134,0.73489636,0.68882823,0.90873826,-0.13874048,-1.2130073,2.5112,-0.019113488,-1.0091937,0.6375896,0.6235833,0.47982028,0.7297259,1.3611412,2.1729357,0.4115646,-1.1821578,-0.21898746,-0.3813352,-0.75441885,0.66382784,2.2890828,0.41723096,1.008368,0.16804752,-0.3481502,-0.47593585,-1.1879766,0.01565365,-0.53435093,0.3531498,0.08567446,-1.1391298,-0.86371624,0.6234167,-0.6496382,4.2005415,-0.3837292,-0.4605273,-0.13836902,0.63248223,-0.44133767,0.425202,0.7609151,-0.47705534,-0.49442482,-1.1430601,-1.4265219,-0.75358826,-0.11035194,-0.020029873,-0.3234746,0.28681663,0.08290328,0.31804034,1.270467,0.98099935,-0.89781463,-0.6311582,-0.70549434,-0.22203994,-0.65639883,1.2209798,2.3823633,1.1085231,0.8622715,-1.0648583,0.7348021,-0.77534664,-0.020469904,2.0319865,0.35675877,0.3088057,0.7893811,0.15006517,-2.6186373,-0.57359153,0.107912384,0.615933,-0.64240915,0.106066294,0.0332579,0.038730823,-0.4562539,-0.2786828,-0.66823906,0.5036837,0.6531501,0.9539448,-0.040725928,-0.7639907,-0.14793496,1.1128408,0.64281875,-0.80632263,0.10894353,-0.075982735,-1.1099384,-0.35073698,0.16225365,1.0820905,-0.50591594,-0.056723036,-0.23743305,1.1132629,-0.013332201,-1.641639,0.14400603,0.15245801,1.459349,-0.41216138,-0.17954388,-1.0528622,0.49818507,-0.84297144,-0.87253577,1.2710106,0.69184697,2.4523191,0.10154705,-0.49709123,0.15386623,-0.42951608,-0.84372044,0.19868815,-1.5378792,-0.015499542,-0.5711107,0.72657263,-0.46259955,0.16393211,0.011081245,-0.6672021,-1.1474682,-0.9685758,0.38975546,-1.1617613,-1.3620678,-0.23197769,0.4978739,0.6583335,0.1323621,-1.0298072,-0.97836286,0.50388765,-0.4622987,-0.46600917,-0.51928395,0.9131159,-1.3131392,-0.9131713,-0.1556851,-0.10114434,-0.1240616,-0.92347413,-0.7442151,-0.11335914,1.53923,0.078865014,-0.33012763,0.43568498,-0.13168196,0.19186316,-1.0796483,-0.13565488,0.40401775,0.83507484,-0.49236357,0.18798451,-1.2029194,-1.2583041,1.0611359,-2.077693,-0.41858828,0.9387089,-0.15009448,-0.82520753,0.5317175,-0.6285348,0.022007778,-0.11892977,-0.062720776,0.44379216,-1.6125201,-0.07293732,-0.43398917,0.06631386,-0.38150048,-0.27893883,0.02107554,-0.40542963,-1.7281185,0.8256438,-0.11929217,-0.21758427,-0.41207212,-0.72419095,0.3470336,-0.02661045,0.37568703,-0.9144565,0.91429734,-0.703624,-0.29668936,-0.83779013,-0.3967444,-0.7431579,0.49236143,0.6548348,0.18705142,-0.97450024,0.91229165,0.8816783,-0.5595429,-1.2752117,0.8906031,0.7016813,-0.28114086,0.53130734,0.026472585,0.100765355,0.16258238,0.17632636,0.16409388,0.23363155,-0.91199887,1.3718666,-0.51883674,0.587503,-0.017400078,-0.51899195,0.657334,-0.24798632,0.20531853,-0.4573819,0.14491333,1.04498,-0.82911515,-0.39951137,-0.36115533,-1.1366282,-0.36134896,-0.46101213,2.3584616,-0.68911934,0.5674379,-1.315943,0.5625911,-1.95006,-1.1309606,1.0603248,-1.2102889,-1.741009,-0.28362817,-0.10296024,0.19226973,1.0327322,-0.77848756,-0.7040857,0.09447065,1.2681527,-1.2211294,-0.6621323,-1.2644066,-1.1547518,1.767857,0.028603852,-0.79073286,1.4542594,0.19490486,0.27538824,0.2758908,-0.81503564,0.04762102,1.7275244,0.46294144,-1.7510679,-0.09383607,1.0467596,0.40226945,1.5773515,2.0829175,-0.41401902,-0.38340673,-0.64055884,1.5645148,0.2907963,0.04067301,0.92280275,0.6474019,0.6665303,0.32661372,-0.29956436,0.08032661,-0.29023975,0.089709856,-0.56709635,-1.2686148,-0.46931148,-0.33406365,1.634998,-0.18072605,0.20396657,-0.12262039,-0.90751565,-0.8719696,-0.5814494,-0.10413379,0.021194737,-0.10459001,-0.45401335,-0.23988506,-0.31165832,-1.3134594,1.1401309,0.6099313,-0.14264962,0.9654359,-0.036617707,1.9103682,-0.60595196,-0.39586425,1.0837944,0.015623208,0.54133177,-1.0665905,-1.6054561,0.2644265,1.1934613,-1.6868767,0.24500766,1.4504292,-0.0008139424,0.11486501,-0.59748286,0.6061451,-1.1755973,0.1853806,-0.2862085,-0.7523051,-1.7537957,-0.44788662,1.0109558,-0.11321664,0.48325226,-0.14386347,1.3503686,-0.19811669,0.36599153,0.056829445,0.14331372,-1.432729,1.1441231,-0.40762928,-0.528331,-0.3795959,0.1593832,0.68396884,0.75986606,-0.62101275,1.5546542,-0.6602216,-0.5023981,-1.1002852,1.3020802,-0.09299456,0.17497995,0.5912187,0.51023734,-0.7535656,-1.2200402,-1.4317405,-0.41520873,-0.0813712,-0.52079403,-0.34425274,0.1612866,-0.00016142428,0.17839283,-1.7100857,-0.26861224,-1.4663395,-1.0809678,-0.5276363,2.1197844,-0.7500331,-0.6373271,-0.39256194,0.27597353,0.0017740265,-0.74761295,0.5728258,-0.4769555,0.1633013,0.5742837,-0.1341867,-0.4966758,-0.13809133,-1.2765821,-0.42700982,-0.5225426,0.9994494,-0.3989892,-0.4993069,0.8832477,0.79759866,-0.7911206,-2.0473425,0.7258121,1.2614577,0.34279403,0.3317458,-1.1742413,-0.6169323,-1.0111604,0.7105182,-1.3573699,1.3948363,1.3862742,0.2988457,0.009021946,1.3928936,1.0915368,0.29474962,0.892576,0.24948472,0.13337612,-0.8604011,0.4793637
Q4,-1.5363426,1.3470112,0.41085818,0.4431561,-0.54201555,0.113731205,0.33654794,0.03614605,-1.3998909,-0.23606619,-1.1352357,0.6858954,0.039111335,0.094971746,-0.4889444,0.097180165,0.91288775,0.15319964,0.6622328,-0.8471272,0.14367568,0.23590495,-1.981154,-0.41021538,0.4969779,0.32607374,-0.78046244,0.8469727,0.8783936,0.45730075,-1.3290881,0.75840044,-0.61902606,0.8773071,-1.5487369,-0.12620774,-0.90808296,0.13650586,-1.5643432,0.9867476,-0.5303195,0.69703686,1.161642,-0.48352015,0.45513096,-1.2943404,0.44891965,0.08632696,0.25877675,-0.7979737,0.33963573,-0.5487752,0.48262787,-0.14794208,-1.2322571,-0.43446887,0.073951624,1.372357,0.40006194,0.7459441,-1.1214716,1.1694036,-0.91929483,0.09954149,-0.016554277,-0.35599732,0.00885875,0.6464716,-0.23533778,0.85492986,0.1482906,-0.29329652,-0.86915267,0.25738424,0.61702293,0.12848921,-0.6058712,-1.6077958,-1.9660554,-0.54570544,-1.218094,-0.19995645,1.058254,0.07568013,-1.473207,-1.1883928,0.8937673,0.67401063,-0.5371443,-1.0964446,0.79550993,-0.013472717,-0.12588213,-0.12323084,0.33436546,0.3049413,-0.17364363,-1.84136,-0.2946179,0.14231977,0.3161333,-0.4638159,1.1429124,1.8922287,-0.5598796,-1.0904118,0.91189575,-0.18679386,1.2026846,-0.32070088,0.12713839,-0.6392561,-0.79365915,0.98052263,-1.141547,-0.69563216,0.26643637,0.2488243,0.8345755,0.020727431,0.6902387,-0.43819845,-1.3247863,0.36363336,0.25675204,0.8780447,0.7766615,-0.22784805,-0.55162954,0.445624,0.66042703,-0.24642588,1.8792105,0.324115,-0.59962404,-0.34715977,-0.8446349,1.6672405,0.15486567,-0.6613021,1.0348169,1.0605259,-0.040506713,1.1646525,0.24971151,-0.37954226,1.1093397,0.16776016,1.0348018,0.9256425,0.29276305,-0.5418126,-1.2573916,-0.3498677,-0.96484643,0.97229344,0.20040998,-0.19394904,0.48051745,1.1086079,-0.55609024,1.3177269,-1.0882366,0.06804736,0.23083936,0.4479971,-0.09212627,-0.39613095,-0.6310894,1.1361994,1.0545671,0.21587537,0.18082123,-0.20291984,-0.427964,-0.49916297,-0.8332931,0.70017797,-1.2300744,1.3678263,0.7952979,-0.7896921,-0.9551094,0.098786175,0.004609415,-0.91428834,-0.8861355,0.40022227,-1.3099637,0.7695117,-0.3143045,-0.09998291,0.7173201,1.2391244,1.3958135,0.33299476,0.4965876,-0.6693649,-1.1092371,0.7342432,-1.0375584,0.21279602,0.531584,-0.81992644,-0.16071859,0.96483904,1.1693598,-0.44482142,-0.8206849,0.36825833,0.39123306,2.019263,-0.63771653,0.24292918,-0.027890848,0.97416365,0.4165221,0.68115634,-1.2100188,-0.23278336,0.9705391,-0.3839456,-0.6396921,0.4937193,-0.21224298,-0.073218524,0.06683029,-0.49818832,-0.17038359,0.1172294,0.95453775,-0.8099922,-0.45333847,-0.5424466,0.75754124,-1.2859449,-0.03590534,-0.8213805,0.009441092,-0.27803826,0.85078984,-0.27375954,0.0531372,-1.4313425,-0.60267574,0.70582706,-1.0795288,0.15787645,0.17956215,-0.65835905,1.5034105,0.22825101,-0.31335378,1.5479925,0.8601984,0.1666137,0.23375621,0.5245525,-0.17967981,-1.0018157,-0.10541192,-0.30848193,0.07860794,0.2933255,0.9090711,1.2414432,-0.5824216,0.06780855,-0.71833134,0.6812854,-0.0036032342,0.6871808,0.45399264,-1.2839375,0.0665189,1.1571926,-0.13415994,0.1977344,1.4986027,1.4044574,1.4154929,1.1202401,-0.3468094,-0.7738681,0.086343564,-0.56706786,0.18539765,0.27095833,-2.0519886,-1.6636248,-0.91937816,-0.9562592,-1.3455395,-0.52575153,-0.28934363,-1.1387874,0.3028738,0.6447901,0.9660675,2.1638126,0.840439,0.6019149,-1.1045502,0.48871973,-0.29906046,-0.6646689,-0.21916276,0.5207249,0.3363556,0.42467022,0.10092767,-0.45459422,-1.4563572,0.054793727,-1.6013485,-2.1420066,-0.49931756,-0.24418633,0.22775756,-1.1652544,-0.5485528,-0.09511726,0.014932199,-0.78369635,-0.31178057,0.81387025,-1.5386425,-0.7698981,-0.021241125,0.3426731,-0.31538996,-0.13151279,0.3160008,0.38840348,1.3216984,0.32021564,0.7750189,-1.588777,-0.5721897,-0.32364085,0.1603641,0.17290995,1.1337818,0.77227014,-0.38833028,-0.2651757,-0.87001306,0.0072656744,0.95189154,0.7371861,1.2499667,-0.4849209,-0.66475946,1.3881993,-1.5461352,-2.4309182,0.19326529,0.58158433,-1.492828,0.47025445,0.25135282,1.9928008,-1.3546977,0.39405298,-0.22357047,-0.84394073,-0.377602,-1.282139,-0.90780336,0.41398776,0.85475963,0.012569139,0.022219075,0.33344343,-0.7645138,-0.5192403,-0.18449445,-0.5990449,0.1192982,-1.2738434,-1.9416912,0.043015946,-0.48631024,-0.22635178,0.2732372,2.4989715,1.2553266,-0.66761875,-0.083651684,-0.5942988,0.8795707,-1.1565261,0.3958433,0.7696125,0.48984042,-0.12579614,1.286389,-0.1349797,-0.5849373,0.23505838,1.239515,-0.90244395,0.53319854,1.6318464,0.01299502,0.553093,-0.66004306,-1.5882635,-1.2114229,0.14083564,-0.03521316,-0.4903855,0.33325443,-0.023130663,0.686994,-0.40280733,-0.81616443,0.11430842,0.5813928,0.91605204,0.9540474,-1.3745724,-0.5624708,0.08665601,0.6119804,0.49705228,-1.8952687,2.342553,0.9556895,0.67545176,-0.33373952,0.26550657,0.7221408,-0.5226689,1.1387427,1.1402851,-0.42786846,0.82399267,0.053347174,-0.35582313,-0.7847783,0.84243846,0.526785,0.6272932,0.30318147,1.2626852,0.63191813,-1.0814515,-0.94843817,-0.51728076,0.5938202,1.5007668,-0.40433967,-1.4513092,-0.24594069,-1.6185411,-0.10764203,-0.5280879,0.94486195,-0.1138772,0.10312582,0.5630092,-0.70250803,-0.15477034,0.8077035,0.6232202,0.68842584,-0.90879995,-0.4662841,-1.0012416,-0.3606158,-0.99606675,0.083055995,0.60316527,1.6317214,-1.0331982,-0.1502353,-0.10316629,0.6010728,0.0263753,-0.6778992,0.56130046,-1.0019715,0.90474963,0.3866915,-0.7498577,-1.1486769,0.43131763,-0.13090965,0.50868815,0.07224984,-0.5788463,-0.99620086,1.261438,0.87897754,-0.0866574,0.13119622,-0.4223184,0.84031844,1.0542994,0.6185481,-0.28165427,0.4681216,0.07797692,-0.14288335,-0.2839999,-0.74883103,1.42034,-0.89554965,0.15532482,-2.0294273,1.0473022,-1.0199547,0.54865426,-0.32639673,-1.784211,0.45046148,-0.6504861,-1.512971,0.43909624,0.8029832,-0.63179404,1.0584507,-2.179323,0.13087763,-0.50351685,-0.5014014,0.35288963,-0.7424461,-0.5073863,0.5230968,0.74103975,0.15728422,-0.20381486,-1.0419872,-0.73708004,-1.3497959,0.70109385,0.120572075,0.91926897,-1.4575657,-0.22538672,-2.5836785,-0.3164552,-0.46575347,0.5776565,2.097664,1.5391738,-0.19757633,0.37844232,0.55036575,1.5557425,-0.031907696,0.5826011,1.7071096,-0.92100734,-0.4553668,-0.7500611,0.33180296,-1.216149,-0.6699812,-1.4298156,-0.4296884,-1.3437746,-0.6740921,0.4239862,-1.1968176,0.42305654,0.77356833,1.2206806,-0.019695785,-0.5830148,1.0835676,0.8016895,-0.38912192,-1.2585751,-1.1153053,0.68699515,-0.27745616,0.92938274,-0.42401996,-0.6281949,1.1235391,0.4081007,0.30963525,0.29184255,0.93844664,-0.25147012,0.89351684,-0.25833958,0.12934718,-0.5066461,0.18666446,1.2096685,0.08858085,-0.91663283,0.4242845,0.8589586,0.85233927,-0.22280912,-0.3693743,2.0238438,0.041438937,-1.4478939,0.13974896,0.26449943,0.18766172,0.968511,1.6861271,2.0486732,0.18090446,-0.7123513,-0.5551497,-0.27481455,0.4130498,-0.032051,1.6734649,0.97167647,0.33059296,0.5120409,0.009727978,0.5802511,-1.2574859,-0.3064884,-0.53379595,0.69676816,0.8572278,-0.17622364,-1.2241683,0.20329623,-0.341848,-3.010632,-0.7073103,0.74223274,-0.7467014,-0.029762883,1.1333388,1.6268555,1.1946505,0.066353925,-0.3628499,-0.6037868,-1.447484,-0.85198766,-0.4775018,-1.3089784,0.35349903,-0.0077010724,-0.14778613,-0.6150753,1.1123681,0.21271214,-0.5360915,-1.3550133,-0.13595837,-0.4222024,-0.33502173,0.41307983,2.572343,1.1569248,2.3651772,-0.98067665,0.7640802,-2.1874096,-0.3646911,1.0011415,-0.84936064,0.010351245,0.4818585,1.286515,-1.4202187,-0.03321365,0.40078408,0.7128542,0.64807016,0.07059397,-0.11392124,-0.43934682,-0.8216957,0.108916044,-2.1131182,1.577211,0.9491351,0.24721237,-0.6388671,-0.20010825,0.282511,1.0802915,0.98965895,-0.31393632,-0.58960694,-1.6727731,0.54775476,-0.17809978,-0.11454628,-0.98659426,-0.29680213,-0.5248696,0.2840825,0.96733093,0.030548347,-1.3428339,0.23819627,-0.49188417,0.69687384,0.80805516,-0.69850487,-0.5811262,-1.0781444,-0.37494886,-0.93405163,0.1766996,1.3155203,1.8897097,5.446296e-05,-0.5686848,0.7517325,-0.02963266,-1.5054587,0.19929212,-1.0431365,0.060252078,0.14074405,0.60974693,0.5912245,0.82090616,0.002910221,0.28658274,-0.39188528,0.3275787,1.3821783,-1.9463698,-1.7725613,-0.022486242,1.1289517,0.8110087,0.013399479,-0.9268536,-1.9827799,-0.27662233,-0.74163634,-0.74344057,-1.3033594,1.0188991,-1.8183851,-0.20572616,-0.05353861,-0.3408842,-0.4797811,-0.8100644,-0.5847373,-0.28860113,0.842529,-0.015045831,-0.78173846,-0.41360247,-0.10660392,-0.73224306,-0.34946454,-0.33418462,-0.6246195,0.51112956,-0.20856202,-1.5845107,-1.5333647,-1.5364729,0.16182384,-1.089448,-0.73506874,1.794872,0.09753332,-0.6350649,-0.25674897,-0.6699338,-0.6515517,0.7264446,-1.2127616,-0.066106856,-1.8259624,-0.5320247,0.32818907,0.18010902,-0.20232439,-0.5833007,0.8795329,-0.47405076,-1.1893427,0.066011004,1.0480745,-0.6222363,-0.6923719,-0.953287,0.34957018,-0.743433,0.3669908,-0.770722,0.60706204,-1.1138327,0.1508441,0.109129466,-0.17585233,-0.18855576,-0.24382947,0.97740096,-0.23746619,-0.7488469,1.2007308,0.20481429,-1.2453557,-1.0504204,1.2887566,0.11817529,-0.4268194,-0.30632678,0.8532523,-0.07990724,-0.32941648,-0.08977509,0.26733306,1.3710885,0.49569336,0.77036905,0.14933331,-0.3898491,0.6160537,-0.2977147,0.290395,0.31121913,-0.7080496,-0.52136505,1.166678,1.9011596,-1.1736948,0.5234491,-0.5972657,-1.1069821,-0.4898201,0.18095368,2.281267,-0.99036616,-0.09303896,-0.86175406,0.65103453,-1.4667889,0.19786379,0.8615324,-1.733875,-0.91336924,-1.0179669,-0.51984686,0.19079906,0.48703474,-0.045164008,0.03285367,0.25132066,0.67353636,-0.6688146,-0.6651892,-0.79005736,-0.6758175,2.2291849,0.78276324,0.037950207,1.279397,0.12375139,0.4635122,-0.05496688,-0.14204355,-0.6925308,1.3616639,0.61920816,-1.9170562,-0.07286177,1.1790581,0.3531715,0.10239048,0.20954613,-0.11740881,-0.72226954,-0.21240719,0.9243633,-0.4286892,-0.38652667,1.835936,0.6667954,1.4976244,0.20218441,0.22568823,0.080686696,0.0316452,-0.10124433,-0.09271308,-2.0278978,-0.24084407,-1.2101265,2.3367157,-0.12047566,0.40821078,-0.2819048,0.5303769,-0.9004644,0.7211137,-0.7654502,-1.0862616,-0.89342165,0.1017731,-0.05267491,-0.15040715,-2.03885,0.9880409,0.99181014,-0.31361705,0.6092698,-0.16912313,1.1997075,-0.40501618,-0.7773172,1.784964,-0.16295135,-0.8490205,-1.1701083,-0.9118809,-0.49939653,0.6122194,-1.483051,-0.7470851,1.262879,0.19488825,-0.77234,-0.13130829,0.97888505,0.39868498,0.22001003,0.005620679,-1.2279575,-2.2005951,-0.7679049,1.3586582,0.08843679,0.26155436,-0.6806886,0.39171162,0.7053313,-1.0074644,0.43239996,-0.017141053,-1.3660254,-0.089902,-0.13911149,-0.048499666,-0.49122325,-0.90224,0.79899675,0.18661098,-0.13454132,0.5799983,-0.563828,-0.60533315,-1.0427091,0.3352869,-0.42677572,0.12447603,0.21497078,0.8500158,-1.2350498,-1.6367872,-0.91985655,-0.7489867,-0.30673495,1.0856886,0.93597263,-0.23838091,-0.9047777,0.93875605,-1.5051763,-0.662386,-0.5327247,-0.26797524,0.5532959,1.9723376,-0.42596492,-0.8438319,0.15642273,0.1262287,0.5284568,-1.474444,0.21007931,0.50968844,0.07912722,0.030141138,-0.061497338,-0.62892044,-0.010618053,-0.5198664,0.19816038,-0.5019914,0.6552554,-0.55259556,-1.2179557,0.7812734,1.1826956,-0.17183568,-1.2183992,0.7601962,1.0729886,0.4378539,-0.20002082,-1.0851716,0.46219665,-0.83044446,0.7159377,-1.0771686,0.61878246,1.4428996,0.7241842,1.0151349,1.7040851,0.030202018,0.07463033,0.5820098,0.39873382,-0.19545685,-0.2976203,-0.02965582
Q5,-1.4672011,0.83156127,0.50106573,0.8265591,-0.19732419,-0.25759232,-0.5541627,-0.18231308,-0.56054026,0.07258028,-1.0891517,0.46251044,0.8154721,-0.2555535,-1.3693299,0.7885227,-0.2261014,0.0163791,0.84418106,-0.47807106,0.49475646,0.36851507,-0.7351442,-0.17437617,0.6712854,0.30182534,0.030975642,-0.5124723,0.582606,-0.48765925,-1.147056,0.5347929,-0.6276322,1.3280404,-1.730204,-0.19171387,-1.77651,0.33520466,-1.2822099,1.5361611,0.0821101,0.31326196,1.2256879,1.3589485,-0.855637,-0.5021174,0.4592621,0.40006882,0.037736174,-1.7898582,1.04877,-0.53777784,0.35867405,-1.1390085,-0.49017623,-0.38103625,-0.2193471,0.08381153,0.4215017,-0.324807,-0.6920246,1.6750822,0.094151065,-0.90262455,-0.91595405,0.64558184,-0.95850223,0.11893201,0.24965389,0.2738249,0.71903574,0.32529733,-0.21902686,0.9635566,0.17592356,-0.20334476,-0.26373786,-1.5060462,-1.5882179,-0.461397,-0.48609033,-0.09357632,0.24640922,-0.4025616,-0.54087883,-1.1516919,0.5881796,0.038135193,0.35233244,-1.3100665,1.3414861,-0.086361706,-0.1509332,-0.15286696,0.62799025,0.7209962,-0.034920786,-1.880149,0.50480944,-1.2388676,-0.0077440343,0.5609414,1.1132643,0.9282313,0.22439092,-1.5055143,0.5985406,-0.86606705,0.5371447,0.2594784,0.4008653,-0.77823704,-0.4376128,0.9291996,-1.953214,-1.1677884,-0.7998291,-1.3831748,0.9645448,1.148564,0.0508596,-0.6561893,-1.1214671,-0.07934178,0.9381085,0.6419187,0.67860496,0.24268343,-0.11971051,-0.45583567,1.2126366,-1.65405,1.968994,-0.34709868,-2.2814312,0.60982805,-0.33316654,0.014069311,-0.51276505,-1.7418984,0.28487337,1.4886637,0.686943,2.5804064,-0.021807244,0.027084494,1.209879,0.33556932,0.48083684,0.93788105,-1.1198686,-0.3938412,-0.024138821,0.84562826,-1.0865048,0.84399027,-0.21455114,0.38620365,0.2778888,1.1266497,-0.4544253,0.616602,-1.8953935,0.01477451,-1.2120723,1.2071534,0.49637008,-0.4640346,0.073608585,1.1746308,1.1454298,1.1461755,0.55445015,0.8711154,-0.46485022,0.41277388,-0.55806196,1.4697189,-0.6720048,-0.4843795,0.014032622,-1.6573251,-1.173634,0.59534454,-0.15895347,-1.2623342,-1.2299612,0.7288986,-0.9350925,-0.18487656,-0.92406625,-0.41121697,0.41572383,0.7822318,-0.19537763,1.4760917,0.70419073,-0.14244145,0.2705825,0.39647007,0.21594517,0.6520034,0.048755817,0.3902036,-0.81046635,1.7421832,1.6193877,-0.18366307,-0.8374811,0.4278276,0.544283,1.4269594,-0.9472077,1.1758411,-0.19987129,1.5536951,0.42407945,1.0452263,0.06722283,-0.2792711,0.62974995,0.11036416,-1.4840568,0.22320507,-0.18092826,0.26898572,-0.03492013,-0.6607297,0.766979,-0.53887063,0.81520045,-0.79665744,-0.3967165,-0.819099,0.26491973,0.48080394,-0.86408114,-0.5016419,0.2541426,-0.24029471,0.080318645,-0.043563604,0.19334468,-0.44311577,-0.13923492,1.0977255,-0.94981056,-0.8310113,0.5816721,0.6350863,-0.18007243,0.18397959,-0.51609534,1.5464975,1.015578,0.6704601,0.84336483,0.8985554,0.14896154,-0.39551818,0.32000625,0.9546622,0.11421205,0.128846,1.0767596,2.0365472,-0.37530383,-0.17041887,-0.20802657,0.28724194,0.58687437,0.7538105,-1.1145658,-1.4852791,-0.95937675,0.14561357,-0.8077339,-0.12912968,1.2382629,1.0771096,0.9976247,1.9549478,-0.2787411,0.056279898,-0.94266176,-0.11217526,0.53349066,1.4281106,-1.5517813,-0.89752614,-0.12923701,-1.3273219,-0.57631403,-0.09388376,-0.05414587,0.20764218,0.21919815,0.6800948,0.524359,0.5467848,0.14004582,0.7724082,-1.3593059,0.37311813,-0.67838144,-0.30178753,0.4362986,0.46329322,-0.098922625,0.4147948,0.5633011,-0.50271213,-2.041226,0.2019338,-0.63837284,-1.5058784,-0.555509,-0.07516875,0.079998545,-0.89231783,0.010074645,-1.1136312,0.059014693,-1.0086589,-0.7095495,-0.0649859,-0.97731733,0.26042524,-0.18975599,-0.31024855,0.055379648,-0.49333942,-0.3426742,-0.07379429,1.7776542,0.11052494,-0.6015429,-1.3983872,-0.26638255,-0.75884163,0.088442795,-0.39700112,1.3230524,1.5451281,-0.44487387,-0.28529617,1.0962402,0.33888277,1.3760866,0.9776177,0.56641555,0.4978435,-1.3615133,0.36614567,-2.3840275,-1.7935048,-1.0761193,0.19442871,-1.3963282,0.12968321,0.9012382,1.1845473,-1.8500453,0.15460394,1.5018156,0.17150508,0.3637359,-1.4637803,-0.5852994,-0.5945842,0.35218933,-0.56691176,0.026979443,0.63834214,0.9643589,0.11411524,-0.024918012,-0.8284812,-0.48727417,0.13959004,-1.5597606,0.35681176,0.48504195,0.37027237,-0.6389827,2.0833814,0.4712857,-0.653188,-1.215809,-1.985195,1.1324022,-1.5159944,0.5931537,1.1523489,0.5288592,0.71336216,0.51543206,0.40452856,-0.44630134,-0.0876938,1.6410162,-0.423152,0.025153438,0.98349726,-0.6565461,1.8373975,0.090078786,-1.0760298,-1.4193311,0.16980435,-0.3825228,0.37538257,1.3642141,0.060038958,1.2489091,-0.3193917,-1.0615611,0.2749411,1.0780307,0.20115155,0.51174355,-1.0691843,-1.0554098,0.09956598,0.5354731,0.14803432,-0.92935103,1.9203572,0.081458375,0.27852276,-0.8217906,-0.20176974,0.2945547,1.3095553,0.60159504,0.7304145,0.60084176,0.45054823,-0.5129899,0.8006446,-0.1811742,0.5738402,1.1643947,0.7561892,0.5870934,1.2774155,0.9623808,0.05541756,-1.3329214,-0.15436104,0.46900144,0.69051176,-1.1431226,-1.4871664,-0.17799962,-1.649251,-0.33658245,-0.033289846,1.1671827,0.2297519,0.48671734,0.78689337,-0.2129885,-0.3557436,0.7212002,0.2526276,0.18902916,-0.113664724,0.25796863,-1.3657945,0.0404242,-0.6830941,-0.46152312,1.1603935,0.4021954,-1.2236105,-0.011202645,-0.30673376,1.1076888,-0.577599,-0.80785364,0.5256819,0.2836592,-0.23127344,0.44762558,0.31041944,-0.64158225,-0.43659863,-0.12932552,1.2563543,-0.7965226,-0.063668236,-0.95568496,0.2241595,1.4256151,-0.1028358,-0.48808938,-2.0512624,0.6776275,1.0542055,0.65393406,-0.16103746,-0.27320468,0.22223777,0.18940394,0.017054364,-0.854899,0.49858725,-0.52569383,0.029532852,-2.7342267,1.8508422,0.0009122317,0.4375908,0.0030703126,-0.50794584,0.5591086,-1.029495,-1.7228774,1.1889036,0.38040748,-0.4617586,0.6557824,-2.3307583,-0.22438535,0.12986356,-1.7718503,-0.029368248,-0.63385177,-0.33398584,0.71943194,1.058019,0.12938869,0.92626244,0.2127638,-0.94383746,-0.46854642,0.9230142,0.5358596,1.0330607,-1.034006,0.4835139,-0.7101993,-0.20692009,-0.31581843,0.5445537,1.5702065,1.1507156,0.008924948,-0.6194553,0.36780632,1.4378909,0.4422996,1.2157826,1.1828153,-0.19063146,-0.82816494,-1.1334809,0.57454807,-1.1383634,-0.40859196,-2.2264628,-0.78735816,-0.76252866,-1.8329985,0.8696217,-1.5230887,-0.3578502,1.1643339,1.1011046,-0.19480489,-1.1585387,0.610049,0.83096796,0.60360235,-0.26189372,-0.96593964,0.33099332,0.65024686,-0.6677137,-0.3057794,-0.51510125,1.2541023,-0.2814523,0.8675382,-0.15797931,1.6849648,0.24041441,0.8235826,-0.7832358,-0.30677152,0.04010832,-0.79646695,0.29333746,-0.36702657,0.09696104,-0.14523979,-0.6430233,-0.117588766,0.32954127,0.24617994,1.8663467,0.6399299,-0.3892512,-0.108107775,-0.2123157,1.1452223,1.3690962,1.1774544,2.1775954,0.2930469,-0.39918122,-1.8477911,-1.0351256,0.8087453,0.2018479,1.2747521,-0.27662915,0.7647868,0.017223336,0.14551117,0.41916987,-1.2762483,0.11485297,0.0009093373,-0.105821945,0.0547892,0.39783216,-1.5785688,0.24196175,0.779549,-3.8522034,-0.24812517,1.034349,-1.8020488,0.4827154,1.3464948,0.84661764,0.41399968,-0.19522049,0.30488813,-0.060919143,0.24015109,-0.046804428,-0.035216402,-1.70027,-0.5108475,-0.28293023,-0.04939282,-0.45274892,-0.067894705,-0.08562584,-0.2520177,-0.18223159,-0.17645508,-0.86840844,-0.8769868,1.291567,2.1823568,0.25606018,0.60967803,-0.20382717,0.033396576,-1.987593,-0.1253025,1.249783,-1.2536776,1.3168312,-0.22414105,0.1094562,-1.2602341,0.05848821,1.1363177,0.9709706,0.4816532,-0.051801328,-0.53933567,-0.1726479,0.66617996,0.68483835,-1.7465258,0.53659964,1.0777857,-0.19282751,-0.57814187,-0.08183255,0.18745606,0.07067156,1.1852752,-0.023029784,-0.019440519,-1.9163502,0.619576,-0.25785413,0.10373869,-0.39524266,-1.4224687,-0.60618854,0.05112686,0.33816645,-0.38504738,-1.9391156,-0.14906351,-0.053183164,0.04987623,1.5659922,0.7825766,-0.7698952,-1.2090513,-1.1126226,-0.027150618,-0.8944862,0.50397545,0.10774457,-0.1579768,-0.3767837,0.92250365,-0.5938862,-1.4190247,-0.5560525,-1.0608357,1.3569453,0.3574697,-0.2554151,0.81436807,0.24903373,0.23383419,0.7002931,-1.2836332,0.40881637,1.5065213,-1.4403329,-2.230748,-1.408339,1.8164233,0.6262317,-0.30779406,-1.2575332,-1.546852,0.28436244,-0.013585962,-0.9045333,-0.74819374,0.03690391,-1.8046693,-1.9204956,-0.7348357,-0.22094768,-0.8449971,-0.6189668,0.4203733,0.24498232,0.7873475,-0.89860356,-0.074883424,0.39310822,0.20967025,-1.083543,-0.23817475,0.028453736,-0.3610684,0.5028915,1.1558102,-1.2011919,-1.7250276,-1.5288959,0.10834085,-0.9687199,-0.56658334,0.86942035,0.71371526,-0.7105345,-0.21381159,0.052746467,-0.8945016,0.6147802,-0.47280446,0.10191888,0.07120003,-0.076285265,0.4016777,-0.544423,0.2228898,-0.2921611,0.609617,0.056371983,-1.3898367,-1.2571676,0.1421706,-0.9321658,-0.6140148,0.11145862,0.4015554,-0.6425319,0.61812526,-1.3321116,0.3016314,-1.1874329,0.36917302,0.45037216,0.33283114,-0.7205419,-0.4172989,0.2468395,-0.39332852,-0.14398575,1.0573235,0.5687333,-0.420411,-1.100832,2.0363383,-0.6747491,0.17672643,-0.20521927,0.36477083,0.39147937,-0.91925365,-0.09232219,-0.20326175,0.90935034,1.5278219,1.0177171,-1.1899534,0.46966273,0.10498627,-0.12763824,-0.5057197,0.74221617,-0.89648485,0.1562394,0.7238046,1.8185048,-0.15122452,-0.6756621,-0.4896386,-0.6450283,-1.745317,-0.38117063,0.5903401,-1.4286153,0.5316732,-0.2728483,0.5258613,-1.344504,0.38969588,0.9611995,-1.666069,-1.2398515,-1.1774862,0.07882295,0.02534511,0.8016048,0.60143435,0.70449144,0.38609976,1.0087621,-0.7800523,-0.33833262,-1.3423766,-0.8805961,0.8622382,-0.54766995,0.6950745,0.4654392,-0.26701266,0.034919683,-1.1570884,0.27393955,-1.0254521,1.656156,1.2262625,-2.5527143,-0.057581697,-0.48313752,0.0067873686,0.1884311,0.42312685,-0.4442054,-0.20689957,-0.30567405,0.6124667,-0.41274178,-0.62990975,1.879535,0.49639773,1.7385368,1.0419768,-0.12202167,0.5746035,-0.61838204,0.048392434,-0.8992393,-1.7759799,-0.94812036,-0.6351435,2.5851223,-0.17886995,-0.19873701,0.04957659,1.1743398,-0.19131468,-0.20443164,-0.77848464,-1.0441886,-0.42923242,0.13388328,-0.9094758,-0.18799037,-1.2305732,0.47400796,0.9741291,1.3393418,0.7023642,0.14499448,0.26707882,-0.74205995,0.03595125,1.5609975,-0.015059798,-0.13904178,-1.7001717,-1.324983,0.835294,1.380012,-0.3126184,-0.4574183,1.0723464,0.24434064,0.107113786,0.6911507,-0.44011626,-0.8679763,0.098531336,0.6765102,-1.7797192,-1.2994806,0.17010406,1.1934602,-1.3236135,0.38171235,0.27932993,-0.07772575,2.0215003,-1.2095174,-0.3525066,-0.22924854,-0.70377046,0.006966031,-0.23732452,-1.2496225,-1.4748496,-0.5568194,1.1187068,-0.8143071,0.40113682,0.76343566,-1.3830603,0.08943504,-1.1036009,-0.18794058,-0.875145,-0.41350314,0.6248648,1.1011813,-1.5284431,-0.75133944,-0.6509219,-0.56320465,-0.35759,1.1196426,1.7483646,-0.62170804,-0.94280523,1.0714846,-1.4278542,-0.33528507,-0.4891498,0.67605925,0.320605,2.343577,-0.5768901,-0.4345312,0.26031333,0.33517188,0.93189126,-1.3706008,0.32272106,-0.8328072,0.36985993,0.5570354,0.16461886,-1.6175178,-0.86659396,-0.992236,0.37199172,-0.96398246,-0.35780385,0.38668144,-0.6399202,-0.24631613,0.27214447,0.4406439,-0.595735,-0.3740761,1.6075194,-0.1373327,-1.4800712,-0.90633994,0.33596042,-0.92280287,0.8441369,-0.3965619,0.09591346,1.0880936,-0.27709493,1.7041785,1.5019433,0.042047784,-1.2521288,0.25723264,1.1576177,0.3517873,-1.5273974,0.09775909
Q6,-0.47469428,1.1328603,-0.36969015,-0.07796214,-0.58051264,-0.03832112,-0.35952473,0.07220257,0.35292146,1.3920994,-0.8206399,1.4592557,-0.14716056,1.4736562,0.014330022,-0.8596771,-0.4217243,-0.33067784,0.62909085,-0.5417304,0.58223027,0.3853201,-0.6080997,1.0060326,0.9455049,-0.014235201,-0.26892745,1.3929764,0.37293947,-1.3129184,-0.91307974,1.4162482,-0.617877,0.22621895,-1.5316323,-0.581268,-1.1106788,-0.2028581,-0.27747557,0.59477216,-0.45384446,1.3118947,0.5308582,0.5998895,-0.8147047,-1.2443037,0.24166541,-0.11146592,-0.29988834,-0.8646264,0.56121796,-0.16780911,1.0319372,-0.13174725,0.10706631,0.51082915,-0.063310824,1.582842,-0.09763815,-0.24940592,-0.5344891,0.34295437,-0.11302096,-0.7009384,-1.067844,-0.9499305,-1.1120644,0.6440026,0.49608195,-0.45855796,1.0970341,1.1059036,-0.360003,0.46210468,-0.84119153,-0.47127938,-1.3741747,0.6256806,-0.8945532,-0.59435046,-0.52443403,0.3806268,0.5791379,-0.67842436,-2.0994766,-0.31238258,-0.8610577,0.7079658,-0.39306223,0.21353813,2.082322,-0.69262975,-0.91544694,-1.2689531,0.32732138,-0.52671057,-0.80390626,-1.1903754,0.63737947,0.75381845,-0.1748418,1.4713173,0.63362134,0.17834859,0.4984381,-0.90908414,-0.8908244,-1.2854086,1.9789916,1.0487943,0.6727405,-0.10873521,0.14381188,0.10189203,-1.0361503,-1.2517934,-1.0102805,-0.20822102,0.9356611,-0.06623942,0.4447441,0.03117793,-0.5521917,0.29582995,0.044092875,-0.25041136,-0.764973,-0.5225504,1.2711467,-1.2931063,0.36372367,-2.2506437,-0.06679732,0.19563024,0.19552583,0.7827632,1.0858959,0.93260926,-1.5187234,-0.40049002,-0.88592,-0.5002553,0.17497502,2.1642435,-0.4571402,0.39706132,1.6054463,-0.43006048,-0.32350975,1.2789358,0.4523784,0.07483236,-0.37118194,1.6746818,-1.5090665,0.4485244,-0.5389865,1.2362217,-0.103804044,0.49993384,-1.5056785,-0.24148507,-0.46162507,1.744433,-1.1509213,-1.2375945,1.3974043,-0.30923852,0.5564236,0.5444559,1.8670102,3.1826155,0.6476125,0.7054294,-0.45864245,-1.0503579,0.44489715,0.35033068,-1.5678512,0.2710347,-1.4854318,-0.82036024,-0.5209457,0.040570814,1.2401804,-0.83091927,0.21947338,0.5814317,0.08912263,0.36438358,0.5873713,-1.4840554,0.5479087,0.2560212,-0.4198164,0.12098079,-0.83376485,-1.0560969,0.095641136,-0.34388915,-2.064475,-0.95024985,-0.6837984,1.2903818,-0.644718,-0.009759203,1.0196742,0.57627404,0.117806315,0.0035226129,0.7977755,0.6939284,-1.6671395,0.3836508,-0.55883425,-0.065942496,0.57752126,1.0942373,0.022491701,-0.78314257,0.9010305,-0.45119083,-0.20616317,0.32803744,2.1103218,-0.011794814,0.6369427,-1.986678,0.9991646,-0.47609082,0.9813568,-0.9303286,-0.48903704,-1.6758183,-0.48789462,1.2406033,0.15005748,0.54177606,-0.13843012,-0.43571758,-0.5208875,-0.5844089,-0.6639399,-0.19715427,-0.5828863,-0.20921306,-1.3789344,0.897165,0.6170208,0.5028271,0.36684608,0.7194509,-0.5420901,1.6632575,0.66890854,-0.17680807,-0.324031,-0.12723076,0.20848972,-0.9451607,0.7377438,0.058855504,1.3878883,0.392114,-0.28652948,3.1247597,-0.42563215,-0.75003344,-0.23598708,-0.8937436,-0.15158238,0.8351753,-0.67187643,-0.11045074,-0.56649035,1.2648846,-0.7404862,0.39580682,-0.29719177,1.3360385,1.0896276,1.1863858,-0.8435785,0.27596343,-1.482144,-1.7509462,-0.62195975,-0.20369653,-1.1790935,0.41417256,0.12934941,-0.34281233,-0.90395075,-1.193034,-1.188934,-1.2797146,-0.15172306,-0.7529265,0.46027526,1.599708,-0.061120566,-0.13513902,-1.3830942,-1.0118898,0.85152656,0.19044816,0.29713213,0.13311173,0.45726213,0.77885133,-0.5998256,0.3798727,-0.6178588,1.0370516,0.14646547,-0.26294836,-0.19592482,-0.46158823,0.74891466,-0.95896786,-0.0427424,-0.24442051,0.021684753,-0.9497506,-0.98418784,-0.037451323,-0.4386122,0.08872641,0.44357786,-0.50989974,0.26346382,-1.7174591,-0.19912899,-0.5123973,0.42202628,0.30467007,-0.27987954,-1.357985,-0.5870778,-1.4715124,1.0216751,1.0749606,1.5565825,0.35996917,-1.5098143,-0.98766583,-0.21699405,-0.26045585,0.71189046,1.2428268,-0.41247988,-0.59233683,-0.5141041,0.5429812,-2.8648503,-1.0068375,-1.1988591,-0.5629334,-0.77544016,-0.7530956,0.6485322,0.7964533,-1.34095,0.17074269,-0.119212545,-0.0637405,-0.12130061,-1.1642909,0.92563945,-0.13592108,0.67513865,0.12933038,-0.048013985,-0.04622805,-0.6158337,-0.34502813,0.14274561,1.292378,-0.5859473,1.7018014,1.2188648,0.97857785,0.001241838,1.3384677,-1.1335188,1.7377243,0.2636797,0.05938037,-0.27959886,-1.0532495,1.3353248,-0.13848135,0.21158761,0.29625592,-0.83199316,-0.37792957,0.025997892,-0.056462985,-1.192124,0.20473199,2.6375134,-0.68964833,1.9148937,1.6203068,0.27577707,1.7612456,-1.1869267,-0.87092024,-1.6507821,0.06472129,-0.5547058,0.11123395,0.61497074,-0.23927774,0.8732605,0.20675659,-0.386228,-0.24323152,-0.11856867,-0.93552524,-0.5237432,0.10164046,-1.4734268,-0.116517596,0.6074274,-0.3590344,-0.95418495,1.1268276,-1.2021072,0.5733375,0.0032244306,-0.4830203,0.74725014,-0.039390672,-1.3243636,0.19656958,-0.8116819,0.22664411,-1.0538639,0.20828515,-1.5700898,0.25159213,0.62958413,0.06724672,-0.9866771,0.52439314,0.49295345,-0.6145782,-1.166647,-0.13904767,0.7535732,0.07165862,-1.6401509,-1.1587011,-1.2797779,-0.4296495,-0.10664454,0.19122793,-0.8005273,-0.21770655,1.0938073,0.3151801,-1.0615501,-0.17091544,0.5051107,0.9620243,0.69769007,-1.1809449,0.04320754,1.0145868,-0.3540206,-0.32256624,-0.2794862,0.46973196,-0.30379018,-1.2496938,0.5250036,0.12908237,1.46746,-0.5321885,-0.7491761,0.08884754,-0.14453891,0.50944865,-0.09725994,0.5239015,-1.2079302,-0.09373227,0.1969559,0.46752408,-1.0303534,0.91976243,-1.2227371,0.3475918,1.9155535,-1.4541754,-0.5674196,-1.1162306,0.52491575,0.49582148,-0.5875596,1.0619509,0.40692982,0.1595552,0.92276543,-0.010494086,-1.4486699,0.8486628,-2.2185514,0.19716664,-0.97868234,0.38388753,0.013923604,0.40820554,-0.41549352,-0.6544129,0.11318985,-0.43264866,-0.0034249884,0.48610917,1.5733894,0.18013251,0.806025,-1.4279847,0.3833482,0.66081136,-1.8089184,0.41495848,-0.77530473,-0.3659192,-0.44453096,-0.37758026,0.4658213,0.3276495,-0.6062197,-0.6161246,0.49153236,-0.0857782,-0.15706895,1.3730731,-0.6300159,0.362152,-2.3578773,0.44207323,-0.32909307,0.47886777,-0.65732837,1.7604445,0.554355,-1.4365249,0.7411035,1.3571286,0.3582833,0.35964718,0.5035823,-1.6856989,-2.0278795,-1.4718975,0.31995064,-0.0065123327,0.9291916,-0.8806672,-0.4972309,-0.3786657,-0.8565731,-0.6071963,-0.7106859,-0.7638356,0.101958476,0.747202,-0.14569305,0.2838353,-0.18690962,-1.0071477,1.2979562,0.23136078,-0.9389263,-0.05747482,1.9333797,1.1330982,-0.12799622,-1.0253731,0.12156251,-0.35729507,-0.13347198,-0.9238388,0.41638693,-0.13118188,1.3132943,-2.2886667,1.06343,-0.59180677,0.2788093,0.9362617,0.56919366,-0.9397035,0.1699171,-0.28011227,0.6152406,0.41021177,0.85889333,0.51055235,1.8085185,0.51356465,-0.1988111,-0.2735429,-0.22764455,-0.06374681,0.030630419,2.2015078,0.5948299,0.61594206,-1.1508819,-1.5381254,0.36936793,0.6896549,1.1639043,-0.6172213,1.2655503,0.8585034,0.25832072,0.09125114,-1.4332429,1.4414047,0.7243082,1.0748105,1.1219722,-0.1465191,0.7458133,0.942713,0.5624289,7.6033616,-0.8656516,0.14832376,-0.15085727,1.0475281,0.83722514,1.5409938,2.581526,0.5589704,0.15320657,0.7333004,0.16766723,0.4904704,0.2056791,-1.4026009,0.3604853,-0.72039217,0.4732182,-0.2392567,-0.79099125,-0.13593636,0.11215642,-0.4597791,-0.49638358,-0.63567907,-0.30105823,1.5676001,1.1413245,-0.04415688,-0.076963454,-0.28372362,-0.12792423,-0.5706417,-0.3097453,1.0181494,0.19574387,1.1784854,-0.36516786,1.0517427,-0.88095814,0.2953386,-0.5216641,0.4697249,1.0126058,0.23271017,-0.14629176,-0.13913384,-0.71555156,-0.08299163,-0.7094965,0.39686885,1.2423028,0.29215923,-0.90325326,0.2996655,-0.4900432,0.22508466,0.00967035,-0.12772816,-1.0829479,-1.2116966,-0.09296497,-0.7396615,0.6724343,-0.9198442,0.3267657,0.78037745,0.18821384,0.61698234,0.15835929,-0.6133987,-0.9130514,-0.91257113,0.31142506,0.8063653,-0.539826,-0.16562305,1.2088324,-0.7592394,0.48238358,-0.79244757,-0.13486229,0.90043736,-0.12769918,1.3362902,0.82909966,-0.85950184,-0.6988466,-0.46140525,-1.3582636,-0.04623863,0.5338904,1.5509005,0.5544156,-0.07895478,-0.6315123,-0.563398,0.7946494,1.4293776,1.4914707,0.1980053,-1.648542,-0.6186326,1.5187484,0.6204003,-1.0026511,-1.536324,-0.39758182,0.6211001,0.7558344,0.53914255,-0.76856357,1.1834296,-0.97233945,0.36487654,-2.010911,-0.6681974,0.11014571,-0.19117413,0.046117205,0.31164458,-0.44809046,-1.1062161,0.48449054,-0.07279817,0.6932462,-1.8192331,-0.51473695,-1.0676692,-0.85067636,0.013284962,0.03383606,-1.4139236,0.5629648,-0.7946861,-1.8735749,-0.7245489,0.6358607,-0.61430526,-0.18078136,-0.08890495,1.1187294,-0.2170016,-0.13837476,-0.67913955,0.4744796,0.46993876,0.9470909,-1.1302124,-0.47964588,0.12720568,-0.34622702,-0.0052023516,0.77845335,0.8953805,-0.49077797,-0.8978625,-0.800309,-0.32943448,-0.34450534,-1.0616938,0.79538614,-0.35545716,0.07802259,-0.80977446,0.3449726,-1.2076255,0.8073714,-0.28873542,-0.7080539,0.26031396,0.22846095,-0.42124593,0.62156147,-0.49020982,1.8445495,-0.27210897,-1.1972054,0.4185463,2.1756575,-1.8730189,-0.83884597,-0.15124378,0.9087476,0.53502053,-0.3515973,0.82155675,1.0386795,0.021391578,0.6246407,1.0526829,1.3204314,-0.40255496,-0.6155242,-0.62622714,-0.13772428,-0.4168464,-1.03605,-1.221502,-0.049265716,1.1965297,-0.5512814,0.7866116,-0.33034238,-0.33507225,-1.5464983,-1.110046,1.03394,-0.65576726,0.88329,-0.008827145,1.0335764,-0.84662557,0.36747146,0.91172117,-0.47336707,-1.0180773,-0.6106683,-0.9580388,-0.7449219,0.76422054,-0.5634083,-0.25767335,-1.4555081,0.44717816,-0.91251105,1.4843398,-1.0063057,0.2901957,0.6933637,0.727066,0.1937838,1.2479339,0.8197396,-1.2473594,-0.94224787,-0.15888806,-0.5598269,0.51599103,0.69342166,-0.82399124,-0.641915,0.5548693,0.058112536,0.75641125,0.3146324,-1.5613955,-0.00080449384,-0.23768763,1.5932382,-1.7070836,-0.6057355,1.2889842,0.5350488,1.8657981,-0.32939056,-0.11435867,0.93214303,-1.239176,-0.2761601,0.9327732,-0.9342268,0.25536633,-0.8893202,2.6048844,-1.2383665,-0.5929724,1.7230936,0.04272997,-0.6012836,-0.011979058,-0.5588458,-1.7788453,-0.44192374,-0.23246883,-0.6522682,-0.40292287,-0.48244926,0.48300317,0.18348725,-0.06540978,-0.24068147,-0.5818651,1.8667526,-1.7339921,-0.928107,2.4215786,-1.4481372,0.043205682,-2.0545118,-0.31091982,0.35489997,0.61732584,0.17273867,0.38856545,0.1390066,-0.07552015,-0.9374891,0.05638696,0.57542205,-0.9127336,0.1423655,-0.060374778,-0.54577523,-0.3825142,-0.7395057,-0.9274958,-1.8089571,0.19194444,-0.30742005,-0.5991382,1.7292172,-0.39453185,-0.4518268,0.27505508,-0.746707,0.12555636,-1.3828577,0.28500676,-0.68564385,-1.1739622,1.9662791,-1.6209761,-0.39089426,1.3159922,-0.00054647215,-0.14624159,-1.6047021,-0.39408362,-0.47883084,0.88621545,0.39980972,0.4903396,-1.6219329,-0.5572403,-0.88746375,-0.61126584,-1.4852923,0.17935799,1.4570827,-0.15708953,0.46720064,0.32247683,0.07599637,-0.037767135,0.72401166,1.358107,0.41503152,0.6664365,-1.1185181,-0.8031668,0.7112162,0.100901596,-0.36411694,-0.046586495,0.8047406,0.010772421,0.43161544,-0.22194128,-0.5038037,-0.99097055,0.34538615,-1.4037982,0.77812415,-0.9944764,-0.43839848,-0.30338547,-0.3655046,-0.31090033,0.8263819,0.4404113,-0.56983,-0.19346416,0.11797961,0.26764545,-0.5045623,0.02278719,0.84047335,-0.16543275,0.5759334,-1.9135398,0.5502166,0.8651909,0.23353691,-0.5289919,0.76913023,-1.0310965,-0.3147129,1.4690518,1.0464861,0.8154034,-2.1371667,0.5930645
Q7,-1.247672,0.5850095,-0.3034044,1.0205266,-0.58034694,-0.73325837,0.17279635,-0.5253944,-0.9677364,0.34144154,-0.8942521,1.2751274,0.1893425,-0.67557365,-0.81912756,1.6753528,-0.4610475,0.13807619,1.1733946,-0.4104395,0.36965114,0.24023037,-1.9761353,-1.1401161,1.3423475,0.84565055,0.93419236,0.7212762,0.03490427,-0.7114874,0.021227965,0.15948501,-0.08574132,0.8026185,-2.3448205,-1.3159764,-1.7193319,1.1941783,-1.7739887,1.1932067,-0.3171721,0.22073586,1.7830979,1.8547357,0.8018741,-0.6984043,1.0494431,-0.25684172,0.5317296,-1.4136702,-0.7168087,-0.23568138,1.3122243,-0.6671325,-0.5904582,-0.095788516,0.583953,0.22680439,-0.41568512,-0.23600368,0.37767965,0.8281127,0.32071,-0.25718,0.27218986,-0.24445152,-0.9807769,0.5380871,0.83305556,-0.2593343,0.27255514,0.19698696,0.13119723,0.04711601,-0.33321637,-0.7417182,0.41162798,-0.6259814,-0.26946208,-1.0763963,0.37553653,0.32811183,0.26452932,-0.6499419,-0.66922003,-1.5976189,-0.42817515,0.26069984,-0.030502915,-0.71334904,1.2416388,-0.39508253,-0.5327071,-0.47095123,0.966447,0.48334068,-0.79468316,-1.1743367,-0.10226513,-1.7572986,-0.12260367,-0.38515833,1.2227963,0.3751863,-0.06890408,-1.4023788,0.22296116,-0.6996173,0.6659137,-0.5467995,0.2966888,-1.4273199,0.88756657,0.48049095,-1.3570155,-1.7265321,-1.0763384,-0.9662608,2.209682,1.4019736,0.07116131,-1.0649941,-0.7339889,-0.47413054,0.3142533,-0.02347074,0.9554757,0.64437157,0.3025443,0.41524878,1.3974667,-1.8721616,0.73387605,-0.51293087,-1.653879,0.01730549,-1.0190411,0.19666755,-0.22292529,-1.4165809,-0.5544894,0.01912017,1.3175839,2.0087183,-0.15262456,0.20686916,1.2995492,0.3314585,1.8569838,0.65565366,-1.0912155,0.02721368,0.29225096,0.28676757,-0.91085345,0.24355386,-2.8894799,-0.18694568,0.99272543,0.6702005,-1.1191294,-0.18755639,-0.77816284,0.31482607,-0.49752632,1.1681081,0.93339616,-1.1194541,0.17520097,-0.19113626,1.0397806,1.5253623,1.0984416,1.5412232,-0.24999861,-0.33609337,0.37238696,0.6216616,-0.19769394,-0.41007656,-1.4594934,-0.6444086,-1.6151239,-0.47141665,0.8471523,-0.6623164,-0.4623039,0.7943588,-1.1161641,-1.1091424,-1.4195101,-0.3487448,0.55241376,0.9204475,0.6918991,1.4034885,0.6680481,-0.14458893,0.016898219,-0.5185181,0.23053347,1.2775127,0.26797965,0.45452088,-0.5403018,2.0012186,1.5599651,-0.23047303,-0.98213875,0.3958508,1.0568833,-0.2851884,-0.89845246,1.4285448,-0.19760236,1.0043856,0.0698302,0.6074787,0.67460763,-0.21271159,1.2602011,0.30374184,-0.5278706,-0.8236789,0.18667415,0.60275584,-0.2555543,-1.0621114,1.2227582,-0.61384535,0.59211403,-1.3583477,-0.5744017,-0.7940456,-0.53354406,0.33846834,0.038007855,-0.15281904,-0.26656455,-0.7689456,0.7902277,-0.60552734,-0.12191857,-0.80883604,-0.20465364,-0.3393109,-1.2087393,0.37180874,0.52392304,0.033624716,-0.018240001,-0.35394433,-0.06245831,1.7854856,0.75955933,0.29187298,0.6664165,0.13825159,-0.26045826,-0.7115841,0.6630693,0.09169154,0.08973627,0.18973993,0.82812876,2.749472,-0.31567243,0.3660609,-0.3340183,0.21468684,-0.15815078,-0.051951524,0.1721745,-1.524407,0.07382022,0.22981875,-1.412926,0.8484084,0.50819427,-0.5232063,-0.1550117,2.0449653,-0.63628787,-0.7077734,-0.5774406,0.13429496,-0.25158966,0.5869189,-0.8687801,-0.07878176,-1.1950514,-0.4493712,-1.8724777,-0.44330904,0.24914329,0.04136238,0.6187995,0.6208263,0.54414195,1.3844458,0.21761052,0.28940627,-0.8124194,-1.1827668,0.05544145,0.63233757,-0.87329865,0.6909291,0.30712655,1.581622,-0.19566195,-0.15108779,-1.684768,0.1431881,-0.70752037,-0.18488102,-0.80679286,0.36719057,0.66593874,0.5956602,0.2980903,-1.6812323,-1.1060636,-1.5738293,-0.14618838,-0.53845114,-1.2463322,0.17899646,0.809267,0.19504294,0.1824678,-0.29023567,0.12999222,0.37520084,0.54409164,-0.37518066,-0.24487051,-1.7368411,-0.16315682,-0.3552165,0.031968165,0.45359415,1.6454904,0.36532807,-0.5543205,-0.4889067,0.83536524,0.8463598,1.8645227,-0.6218732,-0.57031775,0.65509087,-0.8637289,-0.83801323,-1.282796,-0.44610456,-1.1143469,-0.33000454,-1.893613,0.23936649,0.852434,-0.42045102,-1.17213,-0.010030695,1.0710009,-0.26807842,0.6896741,-1.5849632,0.3575749,-2.1570992,0.5882553,-1.3151032,-1.189845,0.26968724,1.3433845,0.88904494,-0.8056771,-0.28623602,-1.6329223,0.7843209,-1.1403726,0.8552932,-0.5128445,-0.12065369,-0.019604068,1.1636814,-0.13580558,-0.60544986,-0.95442164,-0.69505894,0.07153271,-0.7047438,0.5043633,1.571244,-0.7713757,-0.02259131,-0.55907357,0.3332505,-0.69457537,-0.37978718,2.0605338,-1.5538025,-0.34081373,0.97207445,-0.7790051,1.3610758,0.99139977,-1.2913748,-1.5125694,1.2914556,-0.5079532,0.19857891,1.9892719,-0.23133865,0.6156718,-0.11009182,-1.6607087,0.6215019,0.9742933,0.5917043,0.21317415,-1.8030559,-1.640165,1.1238858,-0.16201155,-0.10336532,-0.85444164,0.5685231,0.15860482,0.405799,0.14410426,-0.1978179,-0.4078339,-0.08273197,-0.37139344,1.0734411,1.0297825,-0.046099167,-0.7591729,1.0054034,0.46204978,0.9450796,0.13761203,0.7920359,-0.038107954,0.12855372,0.6140524,0.56134206,-1.0479873,-0.60909784,0.20895436,0.9587188,-0.4514555,-0.99980134,-1.4476253,-1.1171556,-0.08601685,0.43038255,0.81314605,0.31389457,0.3597884,0.4363385,-0.10252498,-0.7448592,0.9322044,0.43860096,0.4449461,-0.08835276,0.20406695,-0.4195432,-0.24142668,-0.4396167,-0.38616678,0.07814584,1.4508168,-1.4123746,-0.5337535,0.61211926,1.481922,-0.6796474,-0.14097382,0.87606144,0.6184676,-1.3773168,-0.312963,-0.060740262,-0.9492388,-0.15990415,0.9312895,0.5671381,-0.19303605,0.20730415,-1.5744569,0.3573205,1.5694376,-0.8760845,0.10700194,-1.3916637,0.94481325,0.35471183,0.28530535,-0.7077298,-0.016433636,0.7451206,0.32410377,-0.5279883,-0.3887122,0.7008551,-1.5095084,-0.16348304,-0.13347825,1.9253342,0.48178264,2.0266747,-0.87735844,-0.6265626,-0.2903125,0.016885782,-0.61822814,-0.4325449,0.79843146,-0.43026194,0.62903154,-1.7976799,0.5719886,0.5560116,-1.3324403,-0.62530094,-1.1623939,-0.09431561,0.14930381,0.15620384,0.5961398,-0.07819695,-0.29948476,-0.22677794,-0.1955241,0.66894644,0.7200564,1.522744,-0.63196707,-0.25597462,-0.42069238,-0.1898258,0.019195931,0.88777983,-0.07854117,1.1183249,-0.11188169,-1.0182637,1.2161783,0.8752103,1.2956963,0.43072692,-0.17380917,0.30949372,-0.79216564,-1.2063974,0.8562724,-0.1934208,0.5506802,-1.3950865,0.43822724,-0.13982266,-1.0164568,0.16720088,-2.20319,-0.31256822,1.2457973,1.5878067,-0.30490878,-1.5272242,0.91214436,0.16531631,-0.29132834,-0.08773377,-0.9817206,0.1025833,-0.15910926,-0.118894994,0.33255318,0.7925857,0.61886185,0.22649825,1.0853353,0.6969579,0.374532,0.45029423,-0.06565019,-0.5888998,-0.7573632,0.47634816,-1.0277731,0.029197766,-0.7936023,0.22766265,0.3569738,-0.45631507,-0.90718883,0.3252806,0.49044698,1.9902916,0.8453757,-0.19938768,-0.24827385,-0.32520387,1.2963175,2.4593856,-0.05253151,2.085621,-1.1861421,0.75319195,-1.6642265,-0.5179115,-0.13784014,0.17012022,0.5752744,-1.0781467,0.3740187,1.2198277,0.9468277,-0.6897584,-1.0299861,-0.039486744,0.26372287,-0.5321715,-0.007066552,0.795754,0.0043601734,0.44279853,0.4442448,1.2492689,-1.033183,0.27248618,0.08143706,0.5307779,1.4291763,0.70005643,2.0887766,-0.47290602,-0.35838634,-0.36373195,0.68985546,0.09315496,0.24679372,-0.98595816,-0.2472128,-0.16274631,-0.046967454,-0.38691306,-0.54429245,0.6740715,-0.05722168,-0.34248063,-0.8756946,-0.6480036,-0.90501165,0.7348841,2.775977,-0.25446457,0.9307131,-0.36016032,-0.5327162,-1.3091164,-1.0033348,0.5858079,-0.6648399,1.7518747,-0.427259,-0.02336261,-1.5472782,-0.311505,0.5870914,0.70096064,0.50130373,0.12979344,-0.6721157,-0.18834294,1.0302569,0.92493045,-1.8446914,0.336214,0.5211695,-0.4603329,-1.668452,0.18483432,-0.029766653,0.44607422,1.8529586,-1.0686687,0.20264639,-1.6046995,0.7092587,-0.65165365,-0.554533,-0.07267767,-0.6459716,-0.2160804,0.7575714,-0.10661155,-0.6057086,-1.5452597,-0.68916833,-1.6545073,0.3516424,0.7840229,0.7511526,-1.6185791,-1.503279,-1.8774196,0.25941682,0.35248515,1.3391525,-0.31409213,-0.16622782,0.38996783,0.3095595,-0.09437107,-0.4559799,-0.75930756,-1.4827726,0.42971253,-1.0467216,0.672882,0.68828297,-1.1297348,0.3148191,1.1502593,-0.42413735,0.93551934,0.53605086,-1.1528493,-0.87422925,-0.75687903,0.716951,0.91361207,-1.1936476,-0.40481442,-0.8224682,1.2389867,-0.032073192,-1.3714838,-0.6766569,0.6214138,-0.606106,-0.4241361,0.26541072,-0.905453,-1.0122364,-0.23188078,-0.4752193,0.07333904,-0.32470948,-0.2937074,0.40428358,1.032028,-0.41950268,-0.8889193,-1.3352823,-0.25658628,0.50620455,0.63808244,0.966147,-0.23453857,-0.8603584,-2.0570147,-0.08084118,-0.95058405,-0.6933873,0.2026279,0.6229803,0.1655534,-0.032403585,-0.023977766,-2.6191952,0.3076817,-1.0441118,0.46236235,0.13255396,0.5139705,0.69242233,-0.0624385,0.13270512,0.09482087,-0.094347045,0.938537,-1.7385587,-0.49172857,-0.03175765,-1.0642841,-0.002694479,-0.10234149,0.75784963,0.28015932,0.84762096,-1.1630605,0.93044287,-1.4872606,0.53212273,1.5148728,0.78214216,-0.47858778,-0.22034343,-0.19620647,-0.13015763,0.56963015,1.5885781,0.6208518,0.14045961,-0.5936045,1.7663211,-0.6440485,-0.40016648,0.2711578,0.33130884,0.7114061,0.62899166,0.046657797,-0.5175015,0.68788433,1.325249,0.8728228,0.10431029,0.62746984,-0.4217291,0.5778497,-0.65499693,1.9089549,-1.7750574,0.4471338,0.6262395,1.5663177,0.16352515,0.010545017,-0.6517431,0.31763914,-1.561081,-0.7502101,0.5377186,-1.171322,0.8073841,-0.28988305,0.06255126,-0.72149163,0.14228019,0.90691227,-0.6119863,-1.3362807,-0.6176462,-0.06365765,0.25346303,1.0333399,-0.64239824,0.35074714,-0.82490635,0.6231842,0.13161345,-0.8015439,-1.040845,0.30555722,0.52976817,-0.17846723,1.2408069,0.26248088,-0.7555291,-1.6902128,-1.7424095,-0.3882394,-1.7190269,1.8210744,0.64768934,-2.3545933,-0.75311524,-0.2133011,-1.1081761,0.2970657,0.85382897,-0.9690898,-0.41042265,0.21690203,0.16688187,0.7086877,-0.78617686,1.0766808,1.125015,2.0859365,1.0741268,0.08556527,-0.3027223,-0.21100454,0.7733301,0.68386555,-0.99275464,-0.5995348,-1.0163804,2.5994394,-0.21735,-0.88956785,0.65690523,-0.04150117,0.004976839,-1.3594408,-0.69502836,-1.0273818,-1.0063742,0.25803813,-1.4021673,0.42660442,-0.992382,1.0819486,0.33394486,1.0615529,0.1975029,0.13693269,0.5695351,-0.73498833,0.16237985,2.1583972,-0.16335373,0.6340043,-1.2119995,-0.5962049,0.22943255,0.72913694,1.1490129,0.49044505,-0.12346862,-0.12957099,0.44841695,-0.827559,-0.91299313,-0.6568343,-0.15029266,0.7507177,0.17022026,-1.3633877,-0.4152493,0.22179429,-0.73652637,0.73865014,0.63837636,0.620658,0.7903895,-1.4743605,0.021596627,-0.33422565,-0.6081727,0.13335867,-0.3297955,-1.053701,0.0765794,-0.67604005,1.5974623,-1.8851296,-0.9247686,0.0027484964,-1.0759377,0.7157097,-1.5310056,-0.07615097,-0.12346228,-0.3682374,0.49940583,1.8023148,-1.0477192,-0.809661,-0.8514981,-1.6669289,0.0020997976,0.7401656,2.2379158,-0.6692451,-0.1577845,1.140911,-1.3686379,-0.31664923,-0.2229044,0.45635518,0.5003583,1.1394031,-0.34434262,-0.99599165,0.5025,-0.071563765,-0.4710063,-1.5649099,-0.50802094,0.07167138,0.2820602,0.21431687,0.5778723,-1.9202689,0.8896659,-0.30888033,0.6895251,-0.5733689,-0.37480184,0.6854363,-0.69868225,-0.04651389,0.5534451,0.28359848,-0.35679737,0.3244688,0.9755317,0.012064517,-1.1566342,-1.808233,0.71281606,-1.0336384,1.356806,-0.6155888,0.34235033,1.1238854,0.76795626,0.9340462,1.121828,-0.55909973,-1.1555969,0.43239418,-0.070650704,0.072961226,-1.4863021,0.022324042
Q8,-1.5835061,1.578488,0.93216026,0.80209506,-1.1867809,0.5908584,-0.62045944,-0.69554657,-0.6768136,-0.67276055,-1.1262449,-0.9488754,0.30924767,-0.8164095,-1.091305,0.3797088,0.53326625,-0.64216596,0.7646441,-0.562631,0.21346769,-0.47629288,-1.1483465,0.033671685,0.38169885,-0.4525805,-0.20001659,0.123551674,1.023477,0.48980078,-1.3757938,0.94728106,0.15033375,1.56135,-1.4563276,-1.3091754,-0.5072562,0.14116338,-2.7321777,0.32008228,-0.32743764,-0.09102954,0.37991673,-0.4204385,0.63652545,-1.3549328,-0.08295924,-0.30829453,0.4959845,-1.3245543,0.8155263,-0.087478675,0.38965935,-0.19267012,-0.76024413,-0.82369924,-0.047279228,0.26788762,0.8176831,1.3214769,-0.5367909,1.3846735,-0.021396646,-0.82263666,-0.6514861,0.32907736,-0.8319061,-0.2777417,0.07193311,0.9584548,0.19568413,-0.027413383,-0.33550593,0.7305924,-0.04120144,-0.09396426,-0.14348707,-1.4810988,-1.4465773,0.010149058,-1.1184301,0.86168927,-1.1712873,-0.28744432,-1.7531527,-0.6874402,0.21720445,1.0170236,-0.3495995,-1.0906032,1.7582098,-0.34859812,-0.6245683,-0.24289322,0.56662667,-0.37837327,-0.89417046,-2.1127002,-0.46523494,-0.083661705,0.12911466,0.06988708,1.1173831,1.9234234,0.9272941,-0.9142863,0.5226166,-0.32467604,0.19016305,0.083538584,0.027060753,-0.096288055,0.25407583,0.53286505,-1.2189814,0.2586757,0.36161217,-0.96728796,0.84559995,-0.87267125,0.04504674,-0.8341357,-0.41958898,0.74856955,0.903959,-0.43386522,-0.58365315,-0.3810051,0.044248153,-0.010189312,0.78266174,-0.44313908,1.5978252,0.5902946,-0.74626285,0.23546132,-0.10151064,0.85997736,0.3244957,-1.1697938,0.41824663,0.7408719,0.6713802,1.9386308,-0.78912556,-0.05316758,1.2700909,-0.021950943,0.5234315,1.6442198,-0.033648673,0.06916938,-1.0457625,1.0541959,-0.5240581,0.85211354,-0.47318318,-0.102044865,1.1220028,0.5285526,0.0575495,1.4207889,-1.507672,0.061797585,-1.1031955,1.1162623,-0.3017318,-0.2954795,-0.5685791,1.5520296,2.5385563,1.3927116,0.98493886,-0.030810243,-0.326257,-0.30161768,-0.2633698,0.7556911,-1.6557444,0.882275,0.47807288,-1.6586769,-0.900573,0.81807166,0.30584082,-0.6286922,-1.1319991,0.82443416,-1.1686779,0.35112017,-1.0063097,-0.5471238,0.7597586,1.5516573,0.5693094,1.2250987,0.9720882,-0.55047226,0.009995438,0.41152832,-0.6032939,-0.83890635,0.71474385,-0.87275696,-0.15019682,1.0819193,1.5884115,0.32569605,-0.74602497,1.0007211,-0.4454723,1.7012947,-1.2175791,0.26365995,0.15465777,1.5776004,1.0103772,0.44738308,-1.3410611,-0.54058766,0.49249813,0.86208886,-1.6014497,0.96748835,-0.6544053,-0.116882175,-0.3878465,-1.1631705,-0.71911097,-0.42625737,1.1968768,-0.7829127,-0.014934482,-0.1160339,0.6338454,-0.019833222,-0.40929735,-0.610531,-0.16300605,-2.0440922,0.8217179,-0.8321488,-0.5850297,-0.16634333,-0.58779824,1.5619246,-0.45077124,-0.64731175,0.14939594,-1.279356,0.76317596,-0.17866206,-0.41815358,0.75320846,1.2124462,0.19157985,0.61835116,1.3227434,0.60737455,-1.2116117,-0.26357472,0.81046516,-0.20494105,0.24615301,1.2699882,1.4514103,-0.5664492,0.09263565,-0.2601377,0.4194816,0.16667657,0.40367705,0.25308383,-1.5509062,-0.55073917,0.13287461,0.14059392,1.1113602,0.56987906,1.0666239,0.7724571,1.0619887,-1.0752467,0.43454003,0.50533825,-0.74536705,0.22899349,0.65359604,-1.4584299,-1.2878488,0.4942433,-0.69213265,0.15418121,-0.45795807,-0.72707593,-0.9491728,0.6314333,0.36706758,0.51264524,1.2301611,1.160668,1.6154668,-1.3581421,0.0002400279,-0.76175135,-0.4519467,-0.14291297,-0.09641326,0.31844836,-0.26859134,0.91887665,-1.2467664,-1.7430992,-0.009444093,-0.39735943,-2.4591143,-0.82033145,-0.56069666,-0.21406066,-0.6873525,-0.54223144,0.0022959781,0.33272633,-0.75840455,-0.7088307,0.49682176,-1.8667917,-0.81098855,0.55787855,0.061374407,-0.11266214,0.4540479,-0.41409737,0.2986628,2.2583704,0.5350377,0.34554398,-0.4159662,-0.757348,-0.29378143,-0.48140875,-0.39220187,2.1867855,-0.47459194,0.11145605,-0.70972663,-1.3178579,0.09401039,2.103313,0.9044148,-0.06251401,-0.72459376,-1.1418481,1.328838,-1.9280039,-1.1577475,0.27791226,0.115193695,-1.4135059,0.8711413,1.3925073,1.234554,-1.5742832,0.06815712,1.0762582,0.19773063,0.4026398,-1.2686533,-1.3008567,-0.25060126,0.41592616,-0.78588307,1.1585661,1.2864801,-0.1475027,0.016101742,-0.7052393,-0.78598905,0.7215702,-1.385515,-1.4046252,0.08211523,0.3751917,-0.14612643,-0.86388934,2.3909297,0.5816491,-0.64489925,-0.18121582,-1.4170061,2.437602,-0.34301338,1.3401932,0.6351411,-0.01686773,-0.8610799,0.51784736,-0.05917143,-0.5784156,0.62686074,1.6129085,-0.4680194,0.7119886,0.36008954,0.34919453,1.401966,-0.6362194,-1.8155313,-1.1987307,-0.81738883,-0.67002195,-0.63441926,0.9234799,-0.29223642,1.0036948,-0.15112756,-1.4721227,-0.26547945,0.45995632,-0.16430366,1.3702787,-1.0736994,-0.1765494,0.10525448,1.35254,0.4813707,-1.1439825,2.430978,0.6782076,0.9734782,-0.18737127,0.29141468,0.4899427,-0.38833317,0.50819385,0.75271153,-0.1860961,0.4184423,0.7900547,-0.5477948,0.078182116,0.096964575,0.6725355,0.82095766,-0.7601213,0.6858502,2.3277242,-0.75327444,-1.8801107,-0.105236664,0.40625927,0.4425614,-0.6967795,-2.2815678,0.11469054,-1.9081202,-0.77994126,-0.12566411,1.0085554,0.21720062,0.6159005,1.0648042,0.012236536,-0.59156096,0.57502663,1.0269954,-0.13824348,-0.071463205,-1.370448,-0.80017674,0.39904898,-0.84268886,0.9472193,0.42169058,0.5769183,-0.6361245,-0.19997004,-0.29952344,1.132929,0.644498,-1.01121,0.5832778,-0.9479085,0.67271554,0.6742,0.046787392,-0.46210143,0.036265317,0.30591208,0.3564662,-0.005151703,-0.5217906,-0.55294365,0.47208706,1.4708772,-0.5358995,0.48601082,-1.0428257,0.30928144,1.0444962,0.1192757,-0.072735325,0.4816754,0.5621334,0.17364462,0.17623135,-0.52050865,1.0090737,-0.33977726,-0.30453563,-2.240716,1.4332858,-0.55177015,0.022163805,-0.45974982,-0.81621027,0.60777193,-0.5111195,-1.9956665,0.59378076,0.9435198,-0.7395798,1.324536,-2.035443,0.6029691,-0.11170012,-0.047020078,-0.74883413,-0.5702264,-0.59844077,0.78629774,0.7548598,-0.10628279,0.44753557,-0.5364794,-1.2701807,-0.14675075,0.48660374,0.42295012,0.89945996,-1.2973917,0.48089176,-1.7132212,-0.76359797,-0.44887048,0.32936123,1.8406359,1.8774567,-0.03644987,0.8370275,-0.023661127,1.4139352,-0.5607995,1.5167539,1.6497189,-0.31081533,-0.10730154,-0.8386399,-0.64231557,-1.0274051,-0.7421551,-0.4425994,-0.3305652,-0.15254231,-0.7364716,0.352079,-0.40368062,0.4476537,0.8119325,0.47617155,-0.98985463,-1.2663964,1.0777388,0.9246009,0.26309124,0.3822818,-1.4383382,0.5584029,0.015784297,-0.22837621,1.0505247,-0.60393053,1.855459,-0.549562,-0.33330908,0.36328033,1.5052929,-0.7328137,0.3840462,-0.62105525,0.6394758,-0.056919128,-0.3707931,-0.6663842,-0.11092327,-1.4434534,1.2649168,0.4823913,0.86171633,-0.060310762,-0.25792032,1.7036978,1.0304503,-0.8960528,-0.32769197,0.563705,-0.019394407,0.42591813,1.9581854,2.1253254,0.031243103,-0.92140627,-1.4145803,-1.0871438,-0.56159353,0.9643409,1.7289991,-0.3800649,0.32928327,-0.27246404,-1.1820034,0.19234693,-1.4686663,0.3697885,-0.8744089,0.4323858,0.32422775,-0.7234491,-0.31360176,-0.0013108798,1.0412694,1.6728377,-0.3591913,1.7014378,-0.5688791,0.092891656,0.15407555,1.6720304,1.1605101,-0.84867275,0.27545705,-0.5212787,-0.2200222,-0.6010488,-0.62922657,-0.61173564,-1.0841036,0.17603645,-0.11469243,-0.11596209,0.8630711,0.45300373,0.10753978,-0.27878478,-0.28062034,-0.2892967,-0.93528163,1.6732764,1.8776845,0.8688222,2.1993396,-0.15702775,1.0241942,-2.7898762,0.044338983,0.48746705,-0.5165055,0.10493367,1.2236764,0.6991946,-1.6965761,0.7250386,2.1852307,0.6215113,0.011944785,-0.14724706,-0.24125168,-1.0463498,-1.0709012,-0.52946395,-1.5922858,0.6565732,1.4899554,1.1248652,-1.2959869,-0.8634796,0.8626747,1.0557382,1.1975781,-0.31605718,-0.39857107,-1.6581109,-0.05882273,-0.05193316,-0.28428498,-1.0174868,-1.0455828,-0.4988585,-0.006074159,0.44706064,0.7185222,-2.3578632,0.3429413,0.030713655,1.4734508,0.7283918,-0.52305067,-1.9634916,-1.2054907,-0.6155305,-0.89621705,-0.06830814,0.67095655,0.58224326,1.1594033,-0.20412189,0.7541677,-0.9510638,-1.4432695,0.89328676,-1.2277336,0.0025647006,-0.36941555,0.92770433,1.0663236,0.58088005,-0.8179028,0.29335803,-0.103489034,-0.47739255,0.7977654,-0.5983521,-1.549753,-0.76908755,1.5273719,-0.074254334,0.034914907,-0.7404764,-2.2530107,0.51170063,0.6354486,-0.9421357,-0.25251347,0.86468977,-2.0897563,-0.73707455,-0.06018495,-0.9686897,-1.0292869,0.24133828,-0.019939587,-0.4743302,0.4227283,-0.9848789,-0.4896946,0.26507592,0.097807474,-1.3910954,-0.60127854,-0.21597597,0.29611272,-0.22109647,-0.13313314,-1.6858215,-1.4745872,-0.85574305,0.15915768,-1.4586209,-0.8216872,1.7848394,0.9727062,-0.4522789,-0.0866118,-0.08921543,-0.7078232,0.89674395,-1.0049716,-1.5099193,-0.88076955,0.16849402,-0.5473662,0.22263883,-0.70189065,-0.10309867,0.8440316,-0.24251568,-1.1807894,0.31621346,-0.25856107,-0.30674985,-0.48409286,-0.28789797,0.5171643,-1.659001,0.63473874,-0.9386328,0.60756207,-0.57578117,0.20330529,-0.55041754,0.06983692,-0.44730827,0.5009393,0.3849267,0.16427505,-0.6439479,0.73666066,0.6191098,-0.812732,-0.71057194,0.8624274,-0.24283925,0.4147944,-0.7712838,0.4525686,-0.016606806,-0.07910569,0.052700996,0.17575276,0.28183717,0.6111354,1.230369,-0.38408044,0.30799127,-0.61962265,0.033296864,0.40424657,0.21367477,-0.6697261,0.043482013,0.1295132,1.4426543,-0.41945758,-0.9895631,-0.51774883,-0.49820396,-0.016044404,0.30583242,1.8766514,-0.9685767,-0.042866334,-1.477823,1.1980692,-2.5445986,-0.10218717,1.015505,-1.640686,-1.2669634,-0.34859356,-0.33383644,-0.22990005,0.071761765,0.43908888,-0.99815196,1.1703563,-0.0044718897,-1.4604906,-1.0280081,-0.6674733,-1.3350121,1.5838633,-0.07193116,-0.347138,-0.46904483,0.018541943,1.0100126,-0.24031346,-0.6231482,-1.0198591,1.4406431,0.55817366,-0.9255572,0.52069205,-0.05203661,-0.0061400705,0.28228638,0.3458229,-0.68921995,-0.24556692,-0.13723929,0.9570695,-0.8407584,0.044873167,0.86295265,1.057809,1.3608189,-0.18429741,0.9506854,0.14962718,-0.22883217,0.32637504,-0.29188278,-1.6020361,-0.9223601,-0.14516555,1.9843456,-0.4540998,-0.071968324,0.1854079,0.57212937,-0.9166835,0.015391743,-0.7550042,-1.7189883,-0.39297023,-0.46144372,0.9115087,-0.64043915,0.04644755,1.3105295,0.7394342,-0.12105252,0.07420893,0.4383074,1.045404,-0.8252428,0.06790592,2.1947787,-0.009848247,0.3717881,-1.262406,0.020286927,0.22143039,1.4819664,-1.5805013,-1.2036701,0.5408496,0.6542041,0.18782812,-0.12806508,0.8871039,0.3839655,-0.31420627,-0.6010905,-1.5612093,-2.0137756,-0.6713536,1.4389627,-0.92012215,-0.55877984,0.19028763,0.32872948,1.3170894,-1.3025957,0.13129604,-0.1887992,-1.1559881,0.26813644,-1.3780607,-0.95321876,-1.2522638,-0.4981028,0.59212255,-0.14759934,0.044971626,0.85309356,-0.9338969,-0.8118364,-0.43985763,0.85410863,-0.7742929,0.0045000683,0.24126236,0.5048423,-0.78220224,-2.0634868,-1.0601691,-0.49855113,0.8202859,1.5328649,-0.18211535,0.27005893,-1.1563609,0.972642,-2.3209538,-0.47283676,-0.7904396,0.20561682,-0.07665077,0.87838185,-0.43818012,-0.5610095,-0.83208776,0.75686246,1.1195638,-0.96848506,0.37052345,-0.7100047,0.076162934,-0.10663167,-0.79098874,-1.1676124,-0.70102006,-0.6249388,0.58667135,-0.11482319,0.7253274,-1.2064754,-0.61773753,0.7834033,0.27561307,0.42890897,-1.337486,0.0533313,0.80454093,0.4571854,0.023994777,-1.6661553,0.9644281,-0.9786887,1.0115787,-0.08626543,1.4574373,0.6212813,-0.27070907,1.288765,1.3739808,0.6015534,-0.46893927,1.1855494,0.72835356,-0.13875239,-0.9085333,1.1318182
