question-id,0,1,2,3,4,5,6,7,8,9,10,11,12,13,14,15,16,17,18,19,20,21,22,23,24,25,26,27,28,29,30,31,32,33,34,35,36,37,38,39,40,41,42,43,44,45,46,47,48,49,50,51,52,53,54,55,56,57,58,59,60,61,62,63,64,65,66,67,68,69,70,71,72,73,74,75,76,77,78,79,80,81,82,83,84,85,86,87,88,89,90,91,92,93,94,95,96,97,98,99,100,101,102,103,104,105,106,107,108,109,110,111,112,113,114,115,116,117,118,119,120,121,122,123,124,125,126,127,128,129,130,131,132,133,134,135,136,137,138,139,140,141,142,143,144,145,146,147,148,149,150,151,152,153,154,155,156,157,158,159,160,161,162,163,164,165,166,167,168,169,170,171,172,173,174,175,176,177,178,179,180,181,182,183,184,185,186,187,188,189,190,191,192,193,194,195,196,197,198,199,200,201,202,203,204,205,206,207,208,209,210,211,212,213,214,215,216,217,218,219,220,221,222,223,224,225,226,227,228,229,230,231,232,233,234,235,236,237,238,239,240,241,242,243,244,245,246,247,248,249,250,251,252,253,254,255,256,257,258,259,260,261,262,263,264,265,266,267,268,269,270,271,272,273,274,275,276,277,278,279,280,281,282,283,284,285,286,287,288,289,290,291,292,293,294,295,296,297,298,299,300,301,302,303,304,305,306,307,308,309,310,311,312,313,314,315,316,317,318,319,320,321,322,323,324,325,326,327,328,329,330,331,332,333,334,335,336,337,338,339,340,341,342,343,344,345,346,347,348,349,350,351,352,353,354,355,356,357,358,359,360,361,362,363,364,365,366,367,368,369,370,371,372,373,374,375,376,377,378,379,380,381,382,383,384,385,386,387,388,389,390,391,392,393,394,395,396,397,398,399,400,401,402,403,404,405,406,407,408,409,410,411,412,413,414,415,416,417,418,419,420,421,422,423,424,425,426,427,428,429,430,431,432,433,434,435,436,437,438,439,440,441,442,443,444,445,446,447,448,449,450,451,452,453,454,455,456,457,458,459,460,461,462,463,464,465,466,467,468,469,470,471,472,473,474,475,476,477,478,479,480,481,482,483,484,485,486,487,488,489,490,491,492,493,494,495,496,497,498,499
Q1,-0.010656697,-0.03413703,0.057240058,-0.10020559,0.05193594,-0.011884932,-0.120141454,-0.16513138,-0.02125122,0.06633969,0.00085788075,0.09348077,-0.0057028043,-0.07440974,0.046320986,0.08856423,-0.012620541,0.072206885,0.008616045,-0.05390247,0.054406613,-0.046127453,0.06613211,0.06983296,0.01897682,-0.08204527,0.017632043,0.0222231,0.008800267,-0.04442485,0.16191219,-0.101692036,-0.042253803,-0.16742119,-0.014422142,0.101990394,0.04030262,-0.027119987,0.05191508,0.0753426,-0.038982775,-0.045608684,-0.026057554,-0.051204685,-0.024853487,0.07300967,-0.083097026,-0.014300543,0.030172959,-0.0185514,-0.01218596,0.0675016,-0.04591607,0.16370668,0.02436653,-0.026992168,-0.11437502,0.13877644,-0.0028572294,-0.084184304,-0.040685743,-0.041140124,-0.052079607,0.040859748,0.026530046,-0.005984153,0.03329691,0.10633013,0.008254212,0.027123528,-0.027468566,-0.057825487,0.0116691515,0.0042430926,0.05060321,-0.077915065,-0.037782688,0.019113362,0.002343667,0.02735937,-0.049921356,-0.06453141,0.00566675,-0.001601632,0.13009241,0.038358804,-0.13058743,-0.08404962,-0.0774645,-0.08289356,0.03550154,0.021198586,-0.01613166,-0.03134747,0.059937406,-0.025222592,-0.1480746,0.0643581,0.010243629,0.03510102,0.01630943,0.12223761,0.039727505,-0.048684414,-0.045958266,-0.10715332,-0.044686772,0.026667751,0.029171875,0.060174324,0.054514594,0.2249811,0.12619607,0.09529416,-0.014949418,-0.072076306,0.06631837,-0.021134278,0.07576763,-0.019917019,0.0825661,-0.08905165,-0.07895173,-0.0107353935,-0.092386894,0.042920638,0.013722894,0.109408826,-0.029451594,0.013595139,-0.019241652,-0.014898107,-0.121013425,-0.011038458,-0.09190028,0.05381643,-0.05686374,-0.082104504,-0.04971457,-0.028697785,0.01570052,0.1566253,-0.026271107,-0.15383904,-0.08521385,-0.081543185,-0.06323726,0.30286297,-0.0072641247,0.13779373,-0.06619497,0.058166597,-0.07287048,0.026860982,0.037670415,0.0057714363,-0.041727673,0.029337443,-0.027562609,0.05464048,-0.049939964,-0.031887162,0.01646438,-0.0040210974,-0.022934763,-0.038217638,-0.037042215,0.10057954,-0.04429632,-0.05182476,0.044760928,-0.017994836,-0.03247618,0.086494744,-0.008098019,-0.12326117,0.010562591,0.044568215,0.061511792,0.057196226,0.0048129926,0.00059757853,-0.01872893,0.11830506,0.046470944,-0.13258561,0.042298105,0.074455895,-0.037360646,-0.08317999,-0.021898743,0.050226375,-0.015204013,-0.01863411,-0.020843837,0.04817147,-0.12477778,-0.14838071,-0.040705394,-0.19638519,0.047663663,-0.14995873,-0.10001388,0.022119576,-0.0017762333,0.19494134,0.04020425,-0.025175154,0.035190847,0.057182785,-0.00627981,0.11026338,0.1371503,-0.06464127,0.056893013,0.012091947,-0.17462736,0.024274478,0.021162402,-0.06771321,0.013795276,-0.009130532,0.059571076,-0.019220203,-0.03938442,-0.062400125,-0.023976319,0.020972686,-0.026381934,-0.029908,0.11802028,0.043304242,0.009467557,0.038539197,-0.022394855,0.07392378,0.008059233,-0.12558308,0.044153534,-0.0014192165,0.024825005,0.081784286,0.021366099,0.048826415,0.012099793,-0.04027883,0.086565375,-0.013793411,-0.034354057,-0.05513425,-0.031483997,-0.061258346,0.14994659,-0.005262556,-0.05788764,0.047244053,0.05951877,0.0918566,0.1017421,0.029625233,0.06077425,-0.046223477,0.055084508,0.13539454,0.020435773,0.08887661,-0.11138637,0.15736322,-0.050266907,-0.04109076,-0.03880294,-0.0082353065,0.06531544,0.053060513,0.0016007936,-0.0026279443,0.098775454,-0.13084514,0.12212476,0.08624642,-0.06339603,0.04131228,0.039853536,-0.02511445,-0.1578494,0.023984917,0.016354153,0.00089440215,-0.03465955,0.04810834,-0.010395202,0.04558691,0.03274527,0.22215053,-0.014110734,0.016840504,-0.072823025,-0.07925679,0.07430756,0.013784567,0.05976859,0.07224661,-0.0885059,-0.041471213,-0.0009877831,0.056134325,-0.04932276,0.107563384,-0.017835367,0.005913963,-0.08397238,0.041166812,-0.0662177,0.0042025633,0.0172189,-0.031145219,-0.0057173586,0.036050934,-0.010188412,0.21226762,-0.10475545,0.04547447,0.007709786,0.039715108,-0.03409624,0.07032154,-0.02635056,0.061596166,0.040989928,0.014173829,0.02025934,0.033320297,0.0081988685,0.018875036,0.042904723,-0.056806337,0.06392707,0.053746592,-0.006101962,-0.084745914,0.009438056,0.062044635,-0.016512461,-0.016039561,0.031481043,-0.034570467,-0.017125843,0.035289347,-0.022368507,0.07914619,0.0019365574,0.060821228,0.009963708,-0.05227683,0.14116049,0.03924747,-0.017374072,-0.07201922,0.12525845,0.057181176,0.0929926,-0.029523702,-0.06171637,0.08578479,-0.052557327,-0.02661262,0.045911532,0.024863197,-0.09287407,-0.1059912,-0.22147304,0.027402822,0.10257227,-0.005907092,-0.004647544,0.03924334,0.021655453,-0.04664175,-0.09688405,-0.1700179,-0.15908387,0.10194487,-0.012657281,0.0008650918,-0.0016033746,-0.032320034,0.020068448,0.28976977,-0.11476427,0.030140586,-0.083191246,0.010456027,0.033435214,0.06575457,0.038992036,0.034788918,0.058419608,-0.004954599,-0.11569174,0.07728061,0.01591414,-0.01433209,-0.04688032,-0.0054605617,-0.07624782,-0.021315118,0.009826022,-0.093611054,-0.08536401,-0.05376002,0.07608376,0.09498851,0.10495364,0.037544023,-0.092513986,-0.12637292,0.11618716,-0.011168048,-0.0816735,0.037060052,0.017558353,-0.043641914,-0.038998693,-0.027496498,-0.03277923,-0.15862332,0.06625974,-0.0031572273,0.029749157,0.1037521,-0.008728863,0.0798762,-0.0737455,0.0075208247,-0.011867546,0.14133398,0.057108812,-0.092305824,-0.07234521,-0.12768228,-0.05046618,0.00862254,-0.07573279,0.040595535,0.042368457,0.11324331,0.00885188,-0.050374452,0.100913696,0.069549695,0.045681268,0.017159365,0.019868946,0.01578106,0.18323994,-0.019707652,-0.0090120165,0.01744094,-0.022610663,-0.029737895,-0.07727857,0.028138794,-0.07089263,-0.053457826,0.04317889,-0.025741382,0.050438263,0.15371564,-0.03943725,-0.0315183,0.01290662,0.02153083,0.012235554,-0.009171457,0.10628818,-0.01910102,0.017698012,0.06354854,0.061876744,-0.0121859405,0.05193192,0.08364953,-0.010075097,-0.02809641,-0.024528356,-0.035277985,-0.08591847,-0.08162492,-0.020942958,0.052324533,-0.015834067,-0.10405926,0.05542498,-0.027255952,-0.023260659,0.070400596,0.08847669,-0.035970807,0.16966757,0.06974655
Q2,0.004097825,0.022988167,0.041077737,-0.027407054,0.061104618,0.0075971317,-0.106768146,-0.12378774,-0.020639718,0.08777956,0.025665991,0.09544435,-0.0037279732,-0.013753956,0.05816182,0.06026113,-0.010783326,0.10523357,-0.045411788,-0.024146203,0.08440127,-0.03591173,0.042824075,0.02705106,0.050823193,-0.075170055,-0.052348733,-0.024923299,-0.02398694,0.02118186,0.15139647,-0.067341916,-0.0072873803,-0.15438507,-0.031127665,0.037381284,0.055582467,0.021285223,-0.020704221,0.0691234,-0.03931786,-0.010394039,0.003597201,0.046558447,-0.0016666767,0.07839838,-0.26171118,0.035399407,-0.01679559,-0.030433288,-0.024711052,-0.0031598972,-0.015374945,0.1525846,-0.034092568,-0.030215014,-0.005398822,0.16034594,0.08693208,-0.09410313,-0.050858397,-0.06453084,-0.041283708,0.06345544,0.0111546945,0.02454544,0.034222472,0.067760535,0.054741472,0.037855767,-0.0068341405,-0.073692024,0.010843601,0.00016485272,0.044791486,-0.07512335,-0.025118375,-0.02205754,-0.020621488,-0.069687046,-0.10701569,-0.048556596,-0.010027426,-0.014590947,0.10882152,0.08494953,-0.16726008,-0.053684995,-0.028959772,-0.14137226,0.045670748,0.048883874,-0.022968348,0.047403112,0.08463695,-0.017351475,-0.17422985,0.06088407,-0.023985399,-0.008352415,0.0147951115,0.025080053,0.04231699,-0.056354053,-0.022133239,-0.11681353,-0.10480604,-0.010636976,0.055634324,0.06399315,-0.0078052087,0.20781985,0.05826757,0.13351922,0.056075543,-0.046567164,0.025678208,-0.046254102,0.110778525,0.04464931,0.12917814,-0.02392618,-0.08066686,-0.0042732856,0.018583532,0.06848438,0.0548618,0.12924732,0.016983166,0.079738244,-0.0556817,-0.015745467,-0.107381865,0.0043217423,-0.018302735,-9.507182e-05,-0.06849421,-0.07551895,-0.09347049,-0.07730048,0.036870364,0.18501666,-0.024760602,-0.14999427,-0.019456629,-0.12046697,-0.11266746,0.2157974,-0.015792998,0.10111728,-0.04385661,0.03479221,-0.056140464,-0.006357192,0.054872215,0.047807444,-0.052428488,0.0038252561,0.0038904625,-0.028847156,-0.060192633,-0.01738435,-0.05007242,-0.075266555,-0.07939365,-0.029290345,-0.026825404,0.073673286,0.021887133,-0.05614649,0.02898215,0.0046893144,-0.055982556,0.02282416,0.051407367,-0.1242159,0.04033886,-0.02414058,0.020961236,0.0064300178,0.04498117,-0.008112104,0.004109174,0.04768469,0.023090558,-0.14591777,-0.012352636,0.061742306,-0.10707154,-0.10452161,0.012191691,0.003877022,0.015251978,-0.070602804,-0.014345279,0.009262728,-0.110863544,-0.10344487,-0.10118114,-0.11775961,-0.03129471,-0.041817326,-0.12926266,-0.009284197,-0.015539542,0.1635773,-0.02109172,-0.07200109,0.047347218,0.06437033,-0.0015901632,0.14710951,0.2553717,-0.02296527,0.061279044,0.09707867,-0.10717895,0.053783506,0.008128536,-0.021082576,0.009691316,-0.09728436,0.04373454,-0.0033915292,-0.0045627034,-0.029046053,0.010307718,0.041776463,-0.06945442,-0.010541121,0.1282173,0.034469444,0.043468237,0.032482646,-0.0077964016,0.018612701,-0.009348353,-0.11004982,0.03636188,-0.039621536,-0.0087542,0.118223056,-0.024662402,0.041351557,0.027167218,-0.07433997,0.024816005,-0.028719947,-0.08305373,-0.06187807,0.073483884,-0.07337033,0.065158166,0.060458574,-0.11672391,0.009533691,0.08804736,0.1028531,0.05701351,0.06362789,-0.017179841,-0.09409402,0.045197044,0.0856482,0.0039153276,0.07508444,-0.11377551,0.17194,-0.033116724,-0.021008203,0.018079598,-0.06465268,0.08234639,0.06076751,0.059706233,0.046579123,0.0642385,-0.12004714,0.14502534,0.09068618,-0.005314818,0.03776672,0.045906812,-0.052804478,-0.15959316,0.014321259,-0.02925378,0.01040201,0.048469238,0.08912683,-0.0034565765,0.026806604,0.021908293,0.210505,-0.04028572,0.06219458,-0.08460132,-0.07743652,0.041523464,-0.031218829,-0.027648404,0.057890706,-0.045125857,-0.06552967,-0.046289586,0.07357054,-0.08646302,0.111761376,-0.06742575,-0.07624152,-0.04022155,-0.0035389662,-0.029039398,0.027081285,0.06307477,-0.037473816,-0.06038708,0.0016632252,-0.0014524283,0.14446579,0.045291416,0.0603487,0.060347345,0.02335977,-0.11456426,0.076849535,-0.10702215,0.0138199115,0.0173755,-0.0046728714,0.011746192,0.06503681,0.003057081,0.057036914,0.06365793,-0.0070308065,0.0005152947,0.0117717,-0.005169316,-0.06611499,-0.09418699,0.05217048,0.015614813,0.036397167,-0.038797565,-0.0060752896,-0.03705027,0.016035259,-0.03273618,0.077210665,0.013527225,0.045052726,0.021755172,0.008675658,0.05678703,0.02026607,-0.009086032,-0.034139372,0.073312506,-0.025448447,0.15243027,-0.025079427,-0.026453972,0.076142214,-0.027648194,0.0063430434,0.1204675,0.028006136,-0.12574907,-0.051698577,-0.14910439,-0.0068318467,0.13374832,0.02604259,0.01982629,0.0074850447,0.08381463,-0.10267847,-0.095952295,-0.13657343,-0.106744915,0.1003082,0.01103147,-0.01311023,0.026381375,-0.045822237,0.046022978,0.2159679,-0.080843754,-0.00889491,-0.07821692,0.040650874,-0.0076020868,0.010829667,0.15642308,0.047164384,0.11988859,-0.081363685,-0.08116354,0.04881836,-0.06676048,-0.0038649086,-0.047704555,-0.06589955,-0.05554467,-0.080950215,0.05263579,-0.03769766,-0.05859399,-0.09618743,0.038149536,0.093870714,0.053859875,0.14635712,-0.0576943,-0.07569174,0.04675284,-0.0077570444,-0.02742325,0.0613955,0.016666288,-0.15509592,-0.104361646,0.025656013,0.0082789,-0.11171085,0.05667715,-0.005804803,-0.016031513,0.065228894,0.08872576,0.09682743,-0.080671825,0.059332576,0.04123902,0.032515105,-0.040263947,-0.094272755,-0.0634503,-0.06699188,0.045502678,0.02244578,-0.026306147,0.01588036,0.0004592968,0.005142216,0.04919386,-0.020499831,0.034972586,0.03144662,0.11369034,-0.008120694,-0.011746444,0.03159485,0.16236678,-0.025582002,0.032390717,0.03360373,0.05576309,-0.00040915515,-0.0972052,0.03197283,-0.10633583,-0.0035691897,0.015287547,-0.008799766,0.0029372615,0.17468397,-0.07803864,-0.040404197,-0.0065994104,-0.00092936173,0.08667959,-0.022176111,0.15427595,-0.0026581148,-0.05568613,0.008872694,0.08350014,-0.005777528,0.1008334,0.103034146,-0.03626748,-0.036669075,-0.039773535,-0.10391117,-0.045599543,-0.08215805,-0.037479043,0.019418085,-0.09406999,-0.09531918,0.06989656,-0.08279634,-0.05845658,-0.012831343,0.021935092,0.055723406,0.10983881,0.062695764
Q3,-0.036122777,-0.050522037,0.09704112,-0.058874793,0.038626652,-0.036835365,-0.11557898,-0.17063676,-0.03536542,0.09309898,0.038456503,0.11976557,-0.008320415,-0.039766584,0.06164156,0.051944524,-0.036230765,0.10915961,0.028580312,-0.056704372,0.07081817,-0.07048678,0.1073695,0.022718173,0.06032831,-0.032316092,-0.019153306,0.017502341,-0.03660524,0.011782252,0.18523094,-0.08496539,-0.0041397596,-0.19340903,-0.0146315405,0.058981936,0.0452415,0.02921726,-0.005367719,0.14290312,-0.046634063,-0.12711631,-0.039961744,0.021664357,0.02645833,0.102354445,-0.19311224,-0.03689206,0.032077383,-0.03366709,-0.0020625975,0.05262675,-0.06406856,0.19483382,0.023353366,-0.04475029,-0.006854901,0.19226465,0.046834446,-0.07288155,-0.05590393,-0.096510425,-0.03827011,0.05479161,0.072467625,-0.0392412,-0.021015244,0.099040486,0.014210514,0.036146816,0.031831358,-0.0608236,-0.035744194,0.04000931,0.08232136,-0.08678989,-0.043732066,-0.04082432,0.033163667,-0.019869039,-0.09316731,-0.08561988,-0.014995661,-0.017104523,0.071110874,0.049050488,-0.18514839,-0.07054298,-0.05313323,-0.059873335,-0.05200954,0.025871169,-0.020045973,-0.014609063,0.083001286,-0.04326883,-0.22433177,0.049519736,-0.015702201,-0.02210034,-0.016308134,0.06406912,0.04927594,-0.015590986,-0.034605853,-0.09963983,-0.09610023,0.047508124,0.04030661,0.054791547,0.022549832,0.2573027,0.11831594,0.12233787,0.007957417,-0.06938768,0.0050526713,-0.05213275,0.10159619,-0.014772957,0.12574282,-0.009343821,-0.11863779,0.0069696154,0.03462262,0.0408615,0.02626489,0.09773467,0.013205008,0.056363378,-0.043524735,-0.06283894,-0.15558659,-0.077132516,-0.0349056,-0.009913394,-0.12149428,-0.1184026,-0.14254014,-0.09397446,0.03306761,0.21602696,-0.0894608,-0.19065963,-0.042143334,-0.12552401,-0.05970948,0.27916896,0.015318496,0.1219321,-0.01641756,0.003780775,-0.09055537,-0.014251108,0.04623915,0.010439963,-0.10012597,0.0038287204,-0.039567705,0.0016036044,-0.04542871,-0.07796229,-0.05714864,-0.04571096,-0.019570602,-0.03321431,-0.038414825,0.07690651,0.0637877,-0.028195836,0.0152584985,0.002116035,-0.060397837,0.057045527,-0.01736026,-0.11829415,0.10017735,0.06335096,0.04102092,0.03898899,0.045361605,-0.002876427,0.0880711,0.042487204,0.049810585,-0.14392707,-0.012367988,0.059650596,-0.09267148,-0.1262775,-0.036979947,0.06072728,-0.021027373,-0.07699035,0.0017191,0.046243872,-0.13385102,-0.11601769,-0.064128004,-0.14153872,0.0029910735,-0.11367608,-0.12531017,0.023489993,-0.0447078,0.18943365,0.036262445,-0.056876365,0.048494563,0.04432856,0.028075984,0.14158937,0.1809823,-0.08162736,0.12963912,0.07258941,-0.14278449,0.045366805,0.022157973,-0.015226658,0.007514612,-0.04546642,0.0876776,-0.018734487,-0.037868172,-0.06870382,-0.020403728,0.05714265,-0.0988055,-0.026732717,0.15124455,0.05686041,-0.012523481,-0.000972097,0.029764563,0.05322693,-0.04725176,-0.114906855,0.0052462085,-0.030722244,0.008978881,0.08633216,-0.021551093,0.04254983,0.040426955,-0.056632057,0.022333987,-0.0043428945,-0.04860492,-0.08856686,0.067384265,-0.104584694,0.09546534,0.027305616,-0.12170425,0.016364872,0.036376856,0.13957606,0.032304946,0.075267516,0.01784427,-0.117576696,0.03298935,0.098254785,0.072308734,0.1409044,-0.1936222,0.20939758,-0.025899403,-0.005669214,0.029136265,-0.09635602,0.15073226,0.044115745,0.09312203,0.07858401,0.15010175,-0.10536791,0.09043773,0.09759257,-0.04560489,0.0047198604,0.069929324,-0.06421536,-0.16513175,0.010964483,-0.003917885,0.007599492,0.052252296,0.07835141,-0.012476811,0.07059903,0.034122296,0.24753132,-0.0410453,0.060082603,-0.10047646,-0.0538008,0.027161399,0.00046288385,0.005390445,0.008752315,-0.047963798,-0.064634636,-0.03223282,0.04529052,-0.13357453,0.10275321,-0.078294225,-0.061873775,-0.082816824,0.04276235,-0.028605785,-0.023720454,-0.010808035,-0.034925524,-0.059285644,0.0066232667,0.011442831,0.1957419,-0.059144154,0.12763208,0.050125152,0.01980983,-0.08661573,0.040749446,-0.04993695,0.06105727,0.047550775,-0.06874607,-0.04749685,0.052217178,-0.010791808,0.02232994,0.10009644,-0.026514033,-0.015867451,0.035665836,-0.027654182,-0.14557055,-0.061720848,0.024162006,-0.0105345445,-0.011213734,-0.039118547,0.019161006,0.003942958,-0.0013817648,0.011285909,0.1078769,-0.006640651,0.09190343,0.017220885,-0.020611111,0.09549752,0.024519132,-0.081032924,-0.09501049,0.12478715,-0.017008198,0.10095626,-0.03308113,-0.06974543,0.106951125,-0.058763098,-0.0141793,0.08008406,0.06851351,-0.13640879,-0.16454467,-0.20926926,-0.013431764,0.1333002,0.034675285,0.041285105,-0.0133641055,0.0425161,-0.09715739,-0.10084413,-0.16557495,-0.18125026,0.07360003,0.042695854,0.023452537,-0.004361311,-0.123633794,0.050209623,0.27844608,-0.14789465,0.059865043,-0.055075705,0.026856113,0.051892333,0.049978204,0.17873718,0.06756536,0.09907431,-0.104324,-0.10847925,0.06464499,-0.018362056,0.0022008303,-0.07891992,-0.026995856,-0.10313108,-0.092133105,0.005067741,-0.08990973,-0.04337636,-0.08182537,0.079084516,0.09141306,0.0782977,0.12747201,-0.027509548,-0.11327077,0.058003213,-0.004338379,-0.070474125,0.058423575,-0.016845219,-0.11864757,-0.08776132,-0.023171209,0.036508247,-0.18326966,0.052028947,0.011356518,-0.0011056163,0.06184364,0.008878304,0.09020896,-0.012532666,0.014515485,-0.009541051,0.119897775,-0.002931153,-0.1087972,-0.08902251,-0.095703416,0.0003237407,0.08884871,-0.090115055,-0.008537847,0.0575492,0.15501368,0.04382807,-0.019868677,0.07074317,0.03898809,0.05124599,-0.004042354,-0.018756876,0.052611124,0.2316605,-0.008685623,0.013505186,0.05527009,0.023725266,-0.011921812,-0.09321809,0.00083402114,-0.1774384,-0.019754378,0.008920346,-0.01660057,0.022329552,0.20661195,-0.12543724,-0.021722995,-0.018788755,-0.0039617526,0.11084582,-0.04224537,0.1521715,-0.02156299,-0.043672662,0.0426096,0.17616804,0.012823596,0.11319858,0.09649494,-0.06315938,-0.032626044,-0.060499337,-0.07985107,-0.06898272,-0.069298595,-0.04026026,0.057055224,-0.07798405,-0.090899706,0.031656645,-0.085139975,-0.068987064,0.014585679,0.02099415,0.037835073,0.14694361,0.059633378
Q4,-0.0043076454,0.034791324,0.1125041,-0.02159326,0.018731013,0.0049683256,-0.13255301,-0.21052563,-0.011326281,0.11319089,-0.015989382,0.07894895,-0.013545115,-0.024534445,0.096934974,0.019253006,-0.050742984,0.19207759,-0.061201602,-0.019221604,0.13740246,-0.024820533,0.07187212,0.07664375,0.038873866,-0.07481494,-0.011723922,0.0046002194,-0.068911344,0.0046480494,0.19612522,-0.025484784,-0.026106676,-0.19123304,-0.09818424,0.08939674,0.010397819,0.029243339,0.03633552,0.12221838,-0.088936344,-0.053641357,-0.010372665,0.02933757,-0.020403428,0.1078141,-0.24607542,0.07084336,0.06390664,0.0049503073,-0.04633787,-0.012980316,0.021570653,0.16947716,-0.02780074,-0.013445543,-0.011464085,0.165932,0.1154024,-0.024496142,-0.10408556,-0.06235539,-0.031043135,0.09903048,-0.020137547,-0.0030143447,-0.024444088,0.13501292,0.059919618,0.049735043,-0.016355546,-0.059014745,-0.014352031,-0.10246574,0.039417095,-0.045937214,-0.05482918,-0.091233745,0.00020050071,-0.0660459,-0.08718661,-0.10882777,0.019754127,-0.015936226,0.106866665,0.07632283,-0.12683217,-0.06195337,-0.041370045,-0.13523394,-0.0069388095,0.035426226,-0.05005354,-0.029228535,0.091341555,-0.041998956,-0.20893398,0.021601874,0.0014392571,0.053165276,-0.015179761,0.07908484,0.04851985,-0.07129808,-0.02170692,-0.121704035,-0.10368213,0.039596006,0.05882963,0.06623353,0.024716461,0.29500002,0.009782694,0.13088813,0.04839027,-0.073276564,0.09498762,-0.039375905,0.12529072,0.041346084,0.123306595,-0.06821485,-0.089164376,0.022247422,-0.017015971,0.05181226,0.05693359,0.13891423,-0.029090665,0.08796552,-0.02484886,-0.031547595,-0.15261436,0.044500515,-0.05636804,0.015403842,-0.0591731,-0.07356389,-0.06968463,-0.08700602,0.095498666,0.22525534,-0.03304252,-0.12950255,-0.020265907,-0.20348683,-0.03886289,0.27478376,-0.011790791,0.1531774,0.038729377,-0.005527187,-0.10357568,-0.04419186,0.029565042,0.024115233,-0.10236853,-0.009928463,0.068199396,-0.06494505,-0.05534207,-0.046273835,-0.06959461,-0.043483615,-0.021877902,-0.06654304,-0.04428624,0.09901969,0.054102,-0.060791828,0.05689179,0.019409971,-0.10061634,0.089810036,-0.050166637,-0.13650964,0.045170136,-0.009891024,0.062432487,0.023202276,0.019763373,0.026069917,0.0066087833,0.12798455,0.047054313,-0.08531676,0.052357208,0.08982749,-0.11394202,-0.1500617,0.018902056,0.008284338,0.010991412,-0.070387214,-0.04288257,0.089311436,-0.14937693,-0.13789958,-0.107368685,-0.16058335,-0.023253957,-0.069898605,-0.1274031,-0.091536425,0.006217566,0.15197365,-0.020794963,-0.028926399,0.07203491,0.073693894,0.0112837665,0.14694718,0.23929183,-0.035006367,0.062277686,0.11255566,-0.07344374,0.045347206,-0.00086410996,-0.09489546,-0.04118886,-0.09116276,0.08198596,-0.016120188,0.08095604,-0.06396853,0.032424696,0.046480417,-0.023272546,-0.05755388,0.13304257,0.017533686,0.07726138,0.07660118,0.006038525,0.019660912,-0.05045847,-0.13086432,0.042792663,-0.019271482,-0.03871544,0.11428881,-0.015521595,0.029012853,0.082788765,-0.12350554,0.03820894,-0.010066854,-0.085011914,-0.08703079,0.0034635449,-0.077122554,0.07881218,0.11325205,-0.16902545,0.13315529,0.09193447,0.10900613,0.099178955,0.06036537,0.012556563,-0.068129145,0.041095223,0.091433465,0.05060263,0.13663785,-0.14605615,0.24276462,-0.045605477,-0.03132438,-0.034189306,-0.12981765,0.0975298,0.08517971,0.05092331,0.043528322,0.11585289,-0.16172746,0.14105646,0.11733213,-0.024755955,0.039082393,0.13320163,-0.05561179,-0.21037889,0.06920686,-0.041054863,0.029407222,0.038161032,0.06267365,-0.07472396,0.034241877,0.025619121,0.2728271,-0.022470586,0.092155986,-0.13288617,-0.06344935,-0.0047766836,-0.09686464,0.01038732,0.06213694,-0.10475282,-0.10754609,-0.0011614859,0.06419891,-0.08186869,0.091756746,-0.019360404,-0.06887298,-0.024241053,0.015017327,0.0059217284,0.0101111885,0.040939942,-0.062144265,-0.024112098,0.021588795,0.014687249,0.14490393,0.0038429433,0.0674759,0.06506277,0.0033557047,-0.15410736,0.10538226,-0.14073354,0.042347677,-0.021088095,-0.01769512,-0.015661508,0.09114352,-0.0017283037,0.05768301,0.13126627,0.030672539,-0.005365107,0.06283924,-0.026756827,-0.036286645,-0.05199217,-0.015347514,0.0072424086,0.025893725,-0.0162604,0.025199404,-0.004030995,-0.020011805,0.025752027,0.089665465,0.05388093,0.016944103,0.030353416,-0.049510486,0.06827153,-0.02806059,0.014309319,-0.06451208,0.17598201,0.06404626,0.19253883,-0.044937782,-0.09411782,0.10108805,-0.035770964,-0.006339507,0.10249112,0.09239255,-0.14184153,-0.1377807,-0.18298168,0.0046057156,0.118617475,0.06642132,0.026109241,0.039161026,-0.008594537,-0.07985819,-0.10040225,-0.082341485,-0.18027814,0.021923773,0.03632227,-0.01189155,0.012350816,-0.04928212,0.039030932,0.25500178,-0.14653757,0.08369077,-0.11744246,0.056626454,-0.03851469,0.11438112,0.1815786,0.045927875,0.18192196,-0.14797375,-0.18793526,0.030247824,-0.056799818,0.012175373,-0.045873277,-0.013516004,-0.060134005,-0.094572335,-0.0042219427,-0.13243686,-0.10621791,-0.082277834,0.07695836,0.12145086,0.09074488,0.059336156,-0.07556974,-0.081594735,0.08100041,0.010801459,-0.081692174,0.04014855,-0.024575923,-0.16427827,-0.12362304,-0.011371678,-0.052124325,-0.1994663,0.056048553,0.036163867,-0.018041039,0.032196976,0.034852296,0.15636824,-0.100526266,0.035762444,0.013726715,0.1010015,-0.045791358,-0.1405414,-0.056501098,-0.097603425,-0.0007658331,0.01449539,-0.058769494,0.07272333,-0.007656025,0.09424953,0.05557199,-0.043071143,0.088018835,0.03932952,0.08976802,0.005823913,0.00816615,0.0012691077,0.2110581,0.04708332,0.008871201,0.018351141,-0.0013389979,-0.051559705,-0.1332757,0.059346557,-0.114390075,-0.021156456,-0.034640048,-0.02465391,0.035755478,0.20992726,-0.062401205,-0.028520966,0.032542035,-0.015889794,0.12996398,-0.026080512,0.19297981,-0.01438454,-0.03924127,0.063382454,0.06483845,0.0032796748,0.13257962,0.10960891,-0.017753813,-0.01794044,-0.01405837,-0.12075725,-0.089992575,-0.08782944,-0.019689217,0.086112484,-0.10062757,-0.14050284,0.062981546,-0.10541145,-0.053826287,0.03350214,-0.002262854,0.045397643,0.13660789,0.069127664
Q5,-0.021180768,-0.056162715,0.14863464,-0.14161707,0.056569222,-0.029184202,-0.16093856,-0.19662973,-0.013012549,0.16740996,-0.03733065,0.12235519,0.03050885,-0.070331074,0.05048453,0.10354219,-0.12982844,0.19370727,0.08594149,-0.030904206,0.061670672,-0.0335634,0.11617813,0.07276255,0.10099246,-0.09189022,0.03847488,0.06148042,-0.06524889,-0.016989214,0.19494359,-0.12842286,-0.03365089,-0.2721424,-0.05218339,0.0997164,0.087400205,0.05309173,0.048117936,0.19419356,-0.051125623,-0.064901255,-0.054322585,0.052625578,0.03215643,0.12891704,-0.18642773,-0.050269116,0.14846727,0.026834795,-0.021234287,0.14150459,-0.004920779,0.23213132,-0.004329756,-0.07676672,-0.09109908,0.17564215,-0.0056996313,-0.09511397,-0.06638902,-0.08427504,-0.0772553,0.04973992,0.00067739293,-0.069537394,-0.013258466,0.13599066,0.037675895,0.02256313,0.016476298,-0.030987205,-0.061585583,-0.040337246,0.17601456,-0.08867577,-0.06123352,-0.03706409,0.08500587,-0.0063800495,-0.043460947,-0.18043005,0.008511177,0.025725594,0.14838015,0.06633684,-0.09055415,-0.086513266,-0.014794311,-0.0854826,-0.0061094756,0.028584914,-0.023348805,-0.033794153,0.090109214,-0.0784659,-0.22396995,-0.007808267,0.030705404,0.06183978,0.019457791,0.14636879,0.04390861,-0.05090204,-0.07785212,-0.13723126,-0.090957634,0.08147896,0.057632804,0.03870788,0.098775774,0.3209056,0.115356736,0.087092265,0.019736232,-0.12070336,0.064136714,-0.04909291,0.0467917,-0.029448248,0.049792536,-0.117696494,-0.10780434,-0.00502698,-0.07633711,0.057478484,0.011503686,0.13287786,-0.02208667,0.06953799,-0.02279272,-0.05252226,-0.18608482,-0.008268644,-0.14049733,0.020265345,-0.1380994,-0.19110991,-0.07760006,-0.10069685,0.038005944,0.23529519,-0.04081325,-0.2335698,-0.08843984,-0.1916234,-0.033581056,0.3523678,0.020934569,0.22958362,-0.009304772,0.015026232,-0.0970378,-0.04003955,0.045165267,-0.0014572158,-0.1445554,-0.020070506,-0.059588864,0.05842754,0.016990589,-0.07900196,0.010034399,0.002778655,0.032897446,-0.026835028,-0.029243855,0.112019055,0.03679005,-0.025013683,0.08898065,0.044885986,-0.024425393,0.12056279,-0.048341915,-0.15017636,0.005031375,0.025312554,0.05421018,0.03713914,0.030171053,-0.0057785464,-0.012304347,0.11838202,0.045361154,-0.111420795,-0.023056861,0.09166274,-0.050842814,-0.13489063,0.026422719,0.10186798,-0.008859954,-0.033108052,-0.013943395,0.10434377,-0.13834828,-0.11053257,-0.08176889,-0.26236174,0.035732362,-0.14280745,-0.16944744,0.0061315782,-0.03585549,0.2342354,-0.068065524,0.030457536,0.030022446,0.112079054,-0.0019522449,0.14422691,0.21968971,-0.14454406,0.14099273,0.055549294,-0.16211829,0.026456546,0.04758867,-0.12097718,-0.044212986,-0.0016331315,0.08286192,-0.044790637,-0.00495866,-0.08759628,-0.036532756,0.022045692,-0.009729473,-0.09973077,0.1747476,0.029200993,-0.022200141,0.024613364,-0.000515389,0.17042895,-0.027461264,-0.17325646,0.08994642,-0.07359017,-0.013457935,0.11563068,0.040053718,0.034941573,0.07209742,-0.12060691,0.110410966,0.051828135,0.0066660685,-0.077840276,-0.041449085,-0.081847794,0.1476105,-0.012696475,-0.159174,0.1297674,0.011053054,0.07266959,0.066610344,0.003889176,-0.017745826,-0.04078721,0.06732519,0.107147485,0.03426687,0.12224973,-0.18735692,0.23699237,-0.038338017,-0.116868615,-0.09147259,-0.044140957,0.09869422,0.01344339,0.026544968,-0.008817048,0.18371041,-0.13063028,0.13871808,0.12504975,-0.021103714,0.087675884,0.14533551,0.02601419,-0.20380512,0.11504816,0.017772913,0.010758226,0.0077920845,0.02892338,-0.049789213,0.10709856,0.057920873,0.31744874,0.019865537,0.08110836,-0.144214,-0.05067848,0.037199035,-0.037959617,0.071964,0.0060884026,-0.12795821,-0.06643352,-0.012816503,0.0009928893,-0.048617665,0.15880902,-0.035857625,-0.0027464963,-0.13093482,0.061595503,-0.020241456,0.039789524,-0.0029522604,-0.060186025,-0.039614704,0.042288434,0.0021548811,0.28263685,-0.14952938,0.039321035,-0.052315123,-0.049648136,-0.008401587,0.06500539,-0.024614325,0.08729768,0.04003741,0.010310974,-0.005844026,0.07966038,-0.0026226207,0.0048553133,0.041363865,-0.05840459,0.1120195,0.08307623,-0.021234073,-0.0359654,0.01569646,0.057616763,-0.0023014194,0.041847847,0.067581974,0.0015339322,0.047833834,0.06686677,-0.04515447,0.0900819,-0.024625674,0.09670914,0.03400196,0.015967866,0.21552679,0.013618271,-0.05872528,-0.13176322,0.16188405,0.06537002,0.118490934,-0.09896225,-0.07240568,0.061509848,-0.019560602,-0.10039205,0.09202151,0.10130341,-0.20113952,-0.17950949,-0.36707735,0.04621775,0.1778019,0.0073607867,0.0402402,0.061681993,0.043472074,-0.11954499,-0.12284324,-0.18431933,-0.3266972,0.0686324,0.043253634,0.006926074,0.04567712,-0.084296994,0.030241668,0.40738472,-0.20587745,0.078666225,-0.026583308,-0.005850552,0.03881312,0.12802239,0.17537647,-0.009829617,0.13757639,-0.08259237,-0.14541654,0.07349316,-0.02562274,-0.008037825,-0.061992615,0.019125247,-0.054233737,-0.06368278,0.04037787,-0.080149956,-0.1587334,0.0009377386,0.09040344,0.15813288,0.17435223,0.011743901,-0.092215374,-0.10832743,0.17903243,-0.017427001,-0.13858788,0.08822335,-0.0013053517,-0.038329486,-0.044696342,-0.054070927,-0.044827662,-0.2589215,0.008406343,0.044236053,0.06856207,0.050345298,-0.097158894,0.11173917,-0.082249954,-0.035154022,-0.07061574,0.14779608,0.040195677,-0.11179182,-0.102661744,-0.1871037,0.0036401637,0.043254763,-0.1088574,0.10435553,0.05662995,0.23555492,0.030629935,-0.08200996,0.142018,0.07722712,0.06873818,0.028413787,0.015987655,-0.016885892,0.24820134,0.085230686,-0.006576036,-0.033014324,-0.031841442,0.028126458,-0.13189961,0.051222075,-0.08795485,-0.054529455,0.052012347,0.0067989863,0.07272507,0.23216264,-0.12766394,-0.032353587,-0.03761558,-0.0054255663,0.04693377,0.04410105,0.17535913,-0.056242757,-0.052000813,0.05002921,0.10032935,-0.004069088,0.1145444,0.14198937,-0.04111012,-0.08879958,-0.032127347,-0.06603527,-0.10519367,-0.16890368,0.009287122,0.047830664,-0.036565676,-0.14886974,0.02977833,-0.08990155,-0.056570455,0.08230278,0.0678084,0.0019842028,0.25081074,0.13310419
Q6,-0.043505374,-0.028504115,0.04508298,-0.11926112,-0.0038032003,-0.10408942,-0.067144945,-0.1101665,-0.02016984,0.13200954,-0.045704093,0.08590341,0.04054425,-0.087926395,0.026487242,-0.02082949,-0.02797241,0.12766635,0.012051793,-0.01351959,0.021405665,-0.051664937,0.07216641,0.04900463,0.030263962,-0.05367734,0.053919513,0.012639535,-0.06221356,-0.029166263,0.1014658,-0.0898074,0.018525394,-0.14561643,-0.07183313,0.07395369,0.039612986,0.009932799,0.060816646,0.122694306,-0.026271503,-0.039641067,-0.04177348,0.0067983684,-0.016089117,0.079705134,-0.124774165,-0.009194685,0.08865279,-0.035027105,-0.0151891,0.109611034,-0.029584704,0.15574539,-0.020853784,-0.034178685,-0.035993043,0.08026464,0.0033592507,-0.029897952,-0.015585827,-0.017359886,-0.065048635,-0.0011580962,0.008939394,-0.046424285,-0.07403821,0.04349306,-0.030040996,0.027097594,0.041602507,-0.03036105,-0.025013588,-0.06836239,0.099104315,-0.09078867,-0.051097307,-0.021878768,0.060733534,0.06875615,-0.079116434,-0.16837545,0.020515317,0.004149628,0.08378635,0.07503681,-0.035412323,-0.08142559,-0.04675859,-0.074673094,-0.02348267,-0.012619852,-0.041859683,-0.008792574,0.10871576,-0.016039966,-0.15784442,-0.023536317,0.01488465,0.09170714,0.03547623,0.18127126,0.046191774,-0.0058770715,0.0010561295,-0.106601514,-0.08890812,0.015711736,0.03456957,0.06599037,0.024732668,0.27626008,0.038008977,0.118474945,0.037136097,-0.061544005,0.076392874,-0.04450577,0.015687188,0.049649123,0.024153225,-0.075237915,-0.07277055,0.044680584,-0.021305561,0.036872797,-0.05131073,0.07839854,-0.057851568,0.0645717,-0.010963276,-0.05152733,-0.19629017,0.029860154,-0.10240917,0.07204841,-0.09146099,-0.11762431,-0.04874424,-0.020028967,0.030075518,0.16901594,-0.012283618,-0.114613496,-0.024420071,-0.21820866,-0.006462862,0.23829533,0.019351264,0.175586,-0.034067027,-0.029388549,-0.07233862,-0.045827422,0.05813167,-0.024657566,-0.08508453,0.044524975,-0.06704166,0.067831255,-0.02236848,-0.05323468,0.015278249,-0.02570038,0.026732555,-0.02466726,-0.03674783,0.07258795,-0.0010843887,-0.030998984,0.07722563,0.03148326,-0.0024817106,0.12688741,-0.0011132337,-0.08783021,-0.032892104,0.043997757,0.04030961,0.03909728,0.06536679,0.037997987,0.01531926,0.12686086,0.037320424,-0.031398468,-0.011320946,0.03319767,0.011203634,-0.13671906,-0.0048354967,0.07557028,-0.039147925,-0.0016533782,-0.06308795,0.13176896,-0.12589946,-0.14121403,-0.0042741876,-0.18504216,-0.025505453,-0.119446605,-0.14272924,0.0561383,-0.034369577,0.062398218,-0.0014469497,0.0136042135,-0.009005278,0.062021792,0.04390521,0.07038591,0.19358431,-0.11817936,0.07883378,0.020569326,-0.10278976,-0.03114662,0.04762453,-0.024047388,0.018696485,0.013901328,0.012479884,-0.0024469984,0.0122905215,-0.027192736,-0.023404881,0.07441592,0.08843212,-0.070971414,0.13735265,0.011371811,-0.07101799,0.01584774,0.018074837,0.102855794,-0.032732632,-0.09735054,0.06912204,-0.026455127,-0.017134637,0.10381509,-0.0004208866,0.01723488,0.014797206,-0.031134458,0.09748021,0.04554244,0.039647974,-0.026954377,-0.018571237,-0.08787934,0.06990368,0.022526596,-0.08161277,0.036355335,0.02580167,0.09109622,0.069339395,-0.004230264,0.03506381,0.0022747857,0.048485447,0.06244522,0.02333735,0.0971724,-0.15381569,0.15349966,-0.019839937,-0.10944502,-0.031793702,-0.072827585,0.005026886,0.020185517,-0.025681587,-0.015881294,0.16903608,-0.11997346,0.11601547,0.06697544,0.014949783,0.15282378,0.03177768,-0.04254941,-0.1636707,-0.024796503,0.0042747958,0.006946519,-0.038246498,-0.038075037,-0.026727377,0.07588843,0.07561047,0.22974099,0.022349998,0.09608845,-0.114705764,-0.048655637,0.0019963419,0.021387693,0.08686037,0.053532578,-0.16330306,-0.036201082,0.07218306,-0.017261228,-0.03657079,0.10467918,-0.0042641805,0.021213567,-0.07511385,0.06124317,0.00697998,0.053554412,0.023346784,-0.03502508,-0.027475573,-0.023663506,-0.026092738,0.19362327,-0.07777701,0.08924757,-0.014490563,-0.050798472,-0.003529583,0.076984614,0.0011392169,0.1015914,0.057323013,0.049860366,-0.017472623,-0.0024168668,0.0151460245,-0.009262414,0.049264297,-0.00818263,0.09961059,0.01537586,-0.033629015,-0.013318493,-0.042083826,-0.015131721,-0.015639963,0.0055302116,0.03162931,-0.041515823,-0.010119358,0.04665537,-0.03928978,0.08756029,-0.01564823,0.04062138,0.01436826,-0.0017919254,0.15666685,-0.03724626,0.016970642,-0.058223866,0.13233918,0.047596414,0.043600112,-0.038140316,-0.07762532,0.040347867,-0.018778257,-0.0766671,0.036825433,0.060314886,-0.14872424,-0.17588799,-0.24730088,0.00022899851,0.13294305,0.024461001,0.057176825,-0.020184249,0.05471296,-0.056660846,-0.06523606,-0.11000925,-0.15783724,0.10918076,0.09428211,-0.020744618,0.0077080363,-0.036338534,0.014122784,0.19422156,-0.18247873,0.055501338,0.050099768,0.012694806,0.03289806,0.11446281,0.058118902,-0.017196624,0.07528764,-0.047125474,-0.1315167,0.07283468,0.043331258,0.054767326,-0.0308967,0.045532357,0.0057384395,-0.083932646,0.02981547,-0.14627127,-0.0761049,0.057784393,0.041756768,0.10726485,0.08574982,-0.030413536,-0.0037240575,-0.08873803,0.14597662,0.01949534,-0.123218186,-0.003324947,-0.059091646,0.02273657,0.044036355,-0.017740676,-0.0057603917,-0.18863164,-0.0075723617,-0.025466671,0.03820756,0.08061743,-0.042564757,0.043887757,-0.06897419,-0.059431862,-0.08397758,0.12321166,0.07854568,-0.039623555,-0.12631528,-0.11357011,-0.007477186,0.0226328,-0.09419626,0.07346147,0.047658466,0.24795121,0.046945408,-0.0871005,0.12243866,0.07645078,0.05584789,0.051616978,0.03152402,-0.008218108,0.12056712,0.08133889,0.00931777,-0.025349265,-0.0041340915,-0.01788267,-0.13961598,0.0067304624,-0.07923868,-0.046218153,0.07402952,0.046533708,0.060980853,0.1788139,-0.061227847,-0.042227957,-0.08380172,-0.048061516,0.022700194,0.06638197,0.14428219,-0.01925971,0.0005333666,0.036194332,0.10649717,0.014424181,0.062593594,0.14502582,-0.01634503,-0.09046178,-0.04895304,-0.041688066,-0.0658691,-0.100308545,0.052777726,0.036267594,-0.030166514,-0.06686563,-0.001661367,-0.054792695,0.0005680566,0.023341374,-0.008731677,0.02572551,0.19394514,0.058969043
Q7,-0.11752273,-0.04268267,0.08029183,-0.073700316,-0.026266335,0.00031291542,-0.095609546,-0.15153024,0.018122092,0.104054675,0.03914876,0.113816544,0.09049403,-0.03599055,0.0664438,0.026848566,-0.09642461,0.20724225,0.015080173,0.006020194,0.045547124,-0.046518967,0.062982194,0.07371658,0.028635673,-0.06793424,0.045687463,0.03774605,-0.049248226,-0.03241596,0.19118847,-0.05469625,-0.0009245471,-0.1612792,-0.13907455,0.059929505,0.051163405,0.021187067,0.0073927497,0.15083435,-0.0032073986,-0.08370214,-0.056712165,0.019958762,-0.030865792,0.058656417,-0.17065571,0.022587143,0.043183476,0.05508576,-0.060559187,0.09385418,-0.04004363,0.1409916,0.005280595,-0.0071212496,-0.015405116,0.12055644,0.046470527,-0.018870806,-0.07128724,0.028791616,-0.02505649,0.03122229,-0.019074522,-0.014050257,-0.03174788,0.012838273,0.01805419,0.009707747,0.006096183,0.002631807,-0.08352555,-0.023800438,0.10684958,-0.12028279,-0.029400963,-0.05709078,0.055276927,0.008404103,-0.07985463,-0.15464677,0.027738094,-0.0061608106,0.023700284,0.05470519,-0.0740223,-0.1453724,-0.0013743192,-0.12849289,-0.021138305,-0.0025322768,-0.07035381,-0.0057791783,0.13900459,-0.0008903485,-0.18775387,-0.005410832,-0.004269567,0.04760427,0.03522558,0.115251094,0.01421092,-0.046538394,-0.03792517,-0.1168831,-0.110582806,0.05339808,0.008666683,0.07552077,0.02084597,0.29342085,0.028329916,0.13201487,0.032107178,-0.067759916,0.092972934,-0.06789033,0.02895837,0.03827379,0.039643664,-0.0781868,-0.104415946,0.022388905,-0.0019810812,0.09464051,-0.048429668,0.07966546,-0.02542705,0.063791156,-0.018741893,-0.09548137,-0.16254154,0.038786564,-0.10337287,0.008206661,-0.07104117,-0.089869134,-0.0700086,-0.10670571,0.009983167,0.16809556,-0.05308048,-0.18231249,-0.03252062,-0.19766264,-0.068233125,0.31467217,0.025122575,0.15508859,0.0020043193,-0.0387656,-0.09975755,-0.03263289,0.047136802,0.008830247,-0.09619592,0.07062785,-0.06346683,0.046645045,0.008746395,-0.069535926,-0.029893259,-0.0920876,0.002528144,-0.04889131,-0.08992792,0.12039392,0.01710814,-0.10573643,0.100038044,0.03748044,0.0039770347,0.11285762,-0.0524867,-0.09695829,0.024990916,0.04385959,0.040253453,0.06112392,-0.016506603,-0.0055930265,0.013129848,0.080272675,0.06492514,-0.054841872,-0.013359295,0.078940555,-0.08127138,-0.1418335,0.026337823,0.041751944,-0.014355307,-0.084302545,-0.06030748,0.07279365,-0.16541979,-0.12371229,-0.058749344,-0.16846217,-0.026459752,-0.13707843,-0.13873589,-0.03496331,0.009746836,0.13306376,0.0054346374,-0.0070364946,0.018361943,0.051375896,0.03602797,0.1208865,0.19580688,-0.102018245,0.08310339,0.061564997,-0.15308906,0.0053694923,0.067226335,0.020327207,0.009193424,-0.020581864,0.06114312,-0.01767442,0.040091738,-0.011866676,0.031959046,0.06778545,0.08297775,-0.04270323,0.1304139,0.07271439,-0.037376367,-0.0029432236,0.024322875,0.028227959,-0.08163763,-0.11329943,0.025546502,-0.01420262,0.020486778,0.08707398,0.0077103474,0.0372259,-0.00429246,-0.016777989,0.076364,0.054517858,-0.032079887,-0.083583385,-0.00387649,-0.061732244,0.08019189,0.0716541,-0.13199195,0.047873594,0.048348904,0.1353778,0.015146794,0.016411215,0.018679492,0.035939213,0.00056202646,0.058582902,0.06415671,0.15655597,-0.12834209,0.21375123,0.014859545,-0.103373766,-0.042929243,-0.10122542,0.0864121,0.05680964,0.0076498864,0.015488191,0.19773626,-0.13414727,0.09710994,0.080131404,-0.023606798,0.09573697,0.10087961,-0.055817463,-0.14070085,0.022096727,-0.005400399,0.041742004,-0.0072643375,0.05129912,-0.07662902,0.13893457,0.041656125,0.21381313,0.0149116395,0.10100969,-0.12373769,-0.040007636,0.010431015,-0.0007977628,0.014119275,-0.009114842,-0.14453533,-0.08516436,0.0147552425,0.05752205,-0.02600303,0.15353021,-0.047888465,-0.039623886,-0.07451871,0.038554948,-0.0028382486,-0.066034615,0.028870273,-0.054012373,-0.049727116,0.07040683,-0.05341643,0.20020564,-0.04807124,0.10251834,0.024306534,-0.027237795,-0.07102629,0.036850102,0.007256671,0.16743653,0.06900395,0.012256577,-0.08065728,0.043264616,-0.04700611,0.0050631748,0.06473062,0.04664439,0.04421131,0.0451355,-0.035895187,-0.053895425,-0.031988256,-0.022699125,0.036112007,0.013188129,-0.015533816,-0.015912522,-0.040266372,0.0077889264,-0.008797906,0.10123648,-0.0027554338,0.040198706,-0.03386012,0.008502163,0.15703411,0.0021152068,-0.012057346,-0.10884126,0.14663443,0.040579952,0.13353126,-0.015015289,-0.09400841,0.05438324,-0.010199497,-0.041870926,0.062352184,0.103460506,-0.106111094,-0.1891503,-0.2849166,-0.029493278,0.18200307,0.06240503,0.0015643743,-0.06525749,0.00399769,-0.09799451,-0.08247903,-0.16149852,-0.17132597,0.07457812,0.050460055,-0.009734362,-0.0007179043,-0.068622686,0.04692701,0.24334808,-0.15594546,0.15504837,0.032642215,0.030169472,-0.0066839964,0.11140538,0.13000761,0.022974854,0.09037729,-0.09016968,-0.17823537,0.034876555,-0.04420402,0.033235624,-0.12282782,-0.010677345,-0.011349178,-0.05325571,0.009054328,-0.10498735,-0.024841756,0.041909236,0.019333938,0.14734451,0.03420907,0.025553,-0.08065454,-0.14393373,0.11502221,0.012372199,-0.092764854,0.050875805,-0.05170421,-0.061085016,0.009858465,-0.008073692,-0.009770549,-0.104705885,0.016188521,-0.012578925,0.013514411,0.091732346,-0.045751806,0.046659388,-0.034640428,0.00034841077,-0.07883711,0.085242525,0.03456055,-0.076708704,-0.10126788,-0.1092369,-0.00798833,0.011266731,-0.053293653,0.105631284,0.06565201,0.19242306,0.02867554,-0.07168892,0.08955633,0.057666186,0.082256705,0.085844,0.058665484,-0.0024516413,0.17288461,0.06123852,0.025208104,0.025950471,-0.06106094,-0.014089424,-0.09484124,0.013048289,-0.09764798,-0.041702263,0.016668761,0.0029117418,0.028509099,0.16709968,-0.057195786,-0.0078066364,-0.046139278,-0.018948117,0.06306374,0.039665177,0.19842948,0.025787411,0.01629168,0.029895708,0.14564796,-0.015198228,0.07342635,0.10377903,-0.0631633,-0.036079805,-0.0062100706,-0.07670055,-0.05386551,-0.11354511,0.0172657,0.04094829,-0.06811416,-0.12221738,-0.024075484,-0.052826256,-0.014844087,0.03017205,0.017427558,0.075243995,0.21511409,0.05788058
Q8,-0.061973374,-0.0066290004,0.13393997,-0.08871387,0.034387488,-0.011058572,-0.13414633,-0.13142295,-0.016656868,0.12522852,-0.0073386272,0.12493141,-0.019573802,-0.04160148,0.04642554,0.022512978,-0.076025516,0.20118655,0.018228851,0.009143137,0.121706955,-0.038222283,0.09306176,0.0036454487,0.044349257,-0.050588008,0.034952912,0.035435673,-0.066630624,-0.007753151,0.20736402,-0.111522056,-0.035125565,-0.2875452,-0.040870883,0.021258144,0.0645042,0.08950058,0.0009993211,0.19274133,-0.068619244,-0.098126665,-0.054449804,0.05588371,0.033400886,0.14002737,-0.3166084,0.03279667,0.023065047,-0.038365968,-0.010145282,0.040688615,-0.0044575036,0.23134446,-0.021837251,-0.036465548,0.024874462,0.13230248,0.054512214,-0.06947984,-0.08304183,-0.05030076,-0.075653076,0.07543974,0.040155545,-0.07307602,-0.056764558,0.09620472,0.023358684,0.051950432,0.060499128,-0.0009126571,0.014554818,-0.05715863,0.10777093,-0.14532833,-0.03927217,-0.036609445,0.025125131,-0.02664812,-0.09827633,-0.12376338,0.03643353,-0.012886211,0.12506194,0.08732268,-0.1702781,-0.07954282,-0.016784733,-0.09254053,-0.012002717,0.06464183,0.0011154744,-0.0856337,0.13496068,-0.07573351,-0.1823043,0.03562401,-0.0048543178,-0.026542906,-0.043239668,0.11372313,0.026274543,-0.038724843,-0.078174725,-0.13502857,-0.14545347,0.0009648187,0.061554886,0.036312986,0.027046846,0.32736477,0.049515467,0.15835632,0.060282204,-0.087278105,0.04748211,-0.05423277,0.077909976,0.06002735,0.1338692,-0.08816571,-0.09401911,0.02586634,0.010264147,0.054196425,0.036399662,0.1728426,0.038188204,0.098921284,-0.019445833,-0.027829414,-0.1684019,-0.03472894,-0.058415506,-0.034832075,-0.108162194,-0.18330084,-0.15641005,-0.08605052,0.022763375,0.28179348,-0.06516835,-0.21989085,-0.032760102,-0.25817215,-0.016310737,0.37684146,-0.02699679,0.16962014,0.042457156,0.06106497,-0.12703022,-0.059786208,0.06801456,0.03100082,-0.15189128,0.031983484,0.020273892,-0.014693979,-0.030055027,-0.08072908,-0.03931472,-0.061805148,-0.029755732,-0.10197563,-0.051727463,0.065139145,0.05911001,-0.035972204,0.06828524,-0.013777967,-0.07872155,0.17128463,-0.03728748,-0.136769,0.08174442,0.019772293,0.07146948,0.029735362,0.03521981,0.044101276,0.039297245,0.11499074,0.035378348,-0.17234245,0.009572523,0.096932374,-0.12560195,-0.19564709,-0.032550674,0.06890035,-0.010896882,-0.14302449,-0.012374704,0.05200961,-0.20855723,-0.16484493,-0.118945844,-0.25690222,-0.05315906,-0.10848336,-0.18276693,0.004587492,0.015549246,0.2053002,-0.041105665,-0.012696909,0.07138125,0.05255722,0.021210153,0.15849622,0.2513147,-0.073736414,0.120206594,0.048822675,-0.12953599,0.028427005,0.020428648,-0.0651271,-0.0049469704,-0.03528235,0.10618368,-0.0046642744,0.025172004,-0.05889187,-0.0059698704,0.107673764,-0.0412096,-0.048647575,0.23552863,0.04070724,0.021783648,0.029908307,-0.0016937151,0.06740004,-0.061892897,-0.10315294,0.03404451,-0.083227485,-0.008599238,0.14981683,0.006631677,0.034188066,0.051854488,-0.055709958,0.075672746,-0.008255989,-0.04907787,-0.10126739,0.03816929,-0.10187482,0.116178155,0.022927422,-0.17812777,0.049935415,0.09764713,0.20182069,0.08839915,0.021594433,-0.029388823,-0.09384024,0.019765984,0.087067924,0.11268114,0.13114922,-0.21107718,0.2500816,-0.06416918,-0.061835527,0.020013854,-0.12229788,0.1137881,0.07938918,0.06328157,0.029961782,0.23167275,-0.1622215,0.15477479,0.08926644,-0.021257762,0.050348848,0.14699396,-0.0472529,-0.19235353,-0.03906498,-0.012395071,0.024939884,0.06853728,0.085299395,-0.088498645,0.135437,0.07896667,0.3484976,0.001258432,0.07181414,-0.16163564,-0.046678353,0.03558069,-0.06557048,0.007922267,0.06270051,-0.0801378,-0.091345675,0.018077586,0.09548786,-0.072421126,0.08234677,-0.045779455,-0.08436222,-0.08771372,0.03535036,0.013578951,0.057693355,0.019353503,-0.034566425,-0.088942446,0.01875951,0.048977625,0.20007217,0.0024478205,0.102906786,0.049086478,0.033297457,-0.06708315,0.035606276,-0.07997902,0.058433518,0.037238948,-0.05581166,-0.04532599,0.070000544,0.0010516043,0.04908398,0.109248735,-0.020697873,-0.035674766,0.013189683,-0.038620718,-0.12446794,-0.1318024,0.03907542,0.009659653,0.048744716,-0.0038028304,0.0110175265,-0.010248865,0.027571771,-0.016482284,0.11362751,-0.018173046,0.066354886,0.044585995,-0.03271587,0.122459136,-0.025204143,-0.03664307,-0.11318172,0.20213044,0.013344706,0.1695426,-0.048808057,-0.11896285,0.14785773,-0.06539906,-0.051992502,0.10472723,0.08768524,-0.21467139,-0.18916373,-0.29249632,-0.0041665304,0.15042742,0.07788357,0.039848484,0.03728249,0.06373383,-0.14278293,-0.080077164,-0.1678174,-0.25146732,0.060293823,0.009757803,-0.01652319,0.04817519,-0.060853813,0.039556112,0.3257216,-0.1996339,0.04549147,-0.07217232,0.027692443,0.034036264,0.12530227,0.18759027,0.082554504,0.16371006,-0.1474398,-0.11783492,0.061078943,-0.018685034,0.008612453,-0.06334224,-0.03487768,-0.09436105,-0.12253097,0.024142409,-0.09287138,-0.040997844,-0.11952156,0.120819286,0.11304967,0.10057992,0.07389898,-0.05553981,-0.13310742,0.077863865,-0.01142674,-0.09453223,-0.009147149,0.008763925,-0.12759365,-0.08791158,-0.0020233137,-0.033487596,-0.18764587,0.063029975,0.010877632,-0.037591647,0.0422346,0.0055004465,0.11927643,-0.059648056,0.0076545863,-0.029586691,0.10397513,-0.033912156,-0.15087418,-0.07956259,-0.12657651,-0.021859076,0.08699277,-0.10319515,0.053603902,0.03199529,0.19738394,0.052103117,-0.088720396,0.054253742,0.05683216,0.060641933,0.0329711,-0.01113369,-0.011331707,0.2735289,0.032418348,0.035216037,0.059078924,0.039548814,0.01362729,-0.20189154,0.0024389399,-0.20154268,-0.015997736,-0.02523686,0.04007733,0.04484908,0.24216895,-0.12338961,-0.040636327,-0.049039297,-0.015303615,0.15126547,-0.018827297,0.21846567,0.018546754,-0.051538933,0.027318437,0.14762646,0.038395986,0.18010254,0.15024665,-0.051578246,-0.029340172,-0.09048586,-0.0893391,-0.13239442,-0.08867703,-0.035348743,0.033159453,-0.07927127,-0.15916836,0.021721493,-0.08302813,-0.034348764,0.029497383,-0.0083912155,0.116838425,0.19658431,0.010431124
Q9,-0.074775636,-0.0478028,0.076169044,-0.020119067,0.015958514,0.0111476,-0.12637813,-0.16669632,0.012807582,0.08750471,0.027050491,0.06864855,0.02887985,-0.015439676,0.07559585,0.05891118,-0.026914557,0.115915164,-0.027982008,-0.07872502,0.06581537,-0.0685091,0.085259706,0.0693391,0.05082756,-0.07836482,-0.010973625,0.019688094,-0.024426548,0.014470041,0.11366295,-0.028066121,0.002217141,-0.1696608,-0.079597026,0.10788728,-0.037552472,0.059034467,0.043435507,0.120967254,-0.024029734,-0.09326664,-0.0063917995,-0.02795913,-0.047015596,0.07215306,-0.10448328,0.0385406,0.07326772,-0.031503983,-0.031732652,0.0672551,-0.01326646,0.1569073,0.00502628,0.004059015,-0.0802702,0.19893187,0.059591897,-0.11311163,-0.068463944,-0.002468253,-0.039312653,0.05490794,0.018999916,-0.025390143,0.046702277,0.086386465,-0.012680925,-0.016646612,-0.010958593,-0.057439204,-0.006792957,-0.061778657,0.041958828,-0.050389815,-0.056826733,-0.038618084,0.027465627,-0.020372275,0.013423769,-0.024460455,-0.058248043,-0.036465596,0.06842492,0.037298284,-0.07875364,-0.138943,-0.07037019,-0.049187694,-0.07825115,-0.026238177,-0.07834278,-0.031024907,0.05320973,-0.018087097,-0.20708162,0.043033592,0.05588914,0.0079517625,0.038901396,0.07375149,0.0496021,-0.04217524,-0.009826737,-0.10815745,-0.04876329,0.08560797,-0.0015539716,0.032283284,0.03501627,0.26770535,0.0781411,0.12131227,0.005756827,-0.08939503,0.074674204,-0.052216645,0.05730004,-0.03062996,0.07509562,-0.13348041,-0.09879741,-0.03528309,0.027327318,-0.008685578,-0.040570688,0.1405452,-0.02875916,0.059737116,0.007979297,-0.061042808,-0.21072392,-0.047400016,-0.08824354,0.06954754,-0.09210831,-0.07201357,-0.087093584,-0.15455124,0.026084438,0.19575964,-0.07775819,-0.091848694,-0.054476153,-0.12535569,-0.07140784,0.26716143,0.029303364,0.16552919,0.03800046,0.00040668354,-0.08731728,-0.02553502,-0.0050719287,0.0018804852,-0.0626494,-0.000399559,-0.06591082,0.013799852,-0.024513302,-0.03898707,-0.033662483,-0.10389668,-0.008101137,-0.027431536,0.012031821,0.10473938,0.020820338,-0.071788885,0.0399012,-0.023136653,-0.025402317,0.05066738,-0.0138682425,-0.119628385,0.06554584,0.08135043,0.07108421,0.059860665,0.06292354,0.042031627,0.049979497,0.09392762,0.10802188,-0.03216494,-0.007835111,0.060867686,-0.10981275,-0.08298369,-0.029104892,0.04569646,0.003051063,-0.07321542,-0.07884329,0.06571016,-0.14966352,-0.18394646,-0.017499689,-0.14068653,0.005285149,-0.14112106,-0.10438321,0.004172263,-0.07419506,0.1728238,0.03205697,-0.047274284,0.04330294,0.06416215,0.030413112,0.14776625,0.0914792,-0.12274713,0.11107497,0.104053736,-0.15893564,0.0069426913,0.040510245,-0.028651698,0.026805902,-0.03386869,0.038954362,-0.0040095337,0.026460903,-0.014858458,-0.036133897,0.008138858,-0.011654766,-0.02871403,0.0821872,0.019079551,-0.0012131616,0.08689776,0.04225228,0.04308769,-0.06484055,-0.14392108,0.006756619,0.04391596,0.05754498,0.13336805,-0.0031322439,0.04762356,-0.014869125,-0.08445011,0.06158279,-0.010196343,-0.08149743,-0.070708975,-0.0038293065,-0.10985036,0.07891394,0.04991612,-0.11908416,0.06618805,0.08786638,0.11726132,0.045721315,0.058504254,0.069991715,-0.039187,0.10028102,0.121282235,0.05363672,0.15988715,-0.11681352,0.23112752,-0.0045881853,-0.0542353,-0.0070822416,-0.07818362,0.09701293,0.034263827,0.010870004,0.056603104,0.1991883,-0.0874393,0.12759756,0.08588038,-0.020026721,0.052758075,0.057120893,-0.03243641,-0.16309893,0.00968221,0.042479694,-0.04249278,-0.0768375,0.10867892,-0.037884794,0.041281488,0.05072301,0.23282441,-0.0049725673,0.11128176,-0.11501214,-0.039344627,0.03993679,-0.007157875,0.03151898,-0.02143262,-0.11751196,-0.074007,0.011088694,0.059327703,-0.035619542,0.11583515,-0.07595728,-0.044306338,-0.10611983,0.03838209,0.034337737,-0.112595215,-0.012774652,-0.088196464,-0.018463312,0.05300367,-0.03912644,0.21426326,-0.121379875,0.11669459,0.029509148,0.011629147,-0.063405655,0.09215256,0.013149393,0.09759642,0.065280266,0.009250687,-0.046237227,0.00939329,0.006523216,-0.023206769,0.09384002,0.0017690008,-0.015991572,0.058201756,-0.034662995,-0.14083114,-0.021190107,-0.018416109,0.018492935,0.0010959345,-0.034074508,-0.046552196,0.015658906,-0.05331881,0.0045904233,0.08653954,0.029694067,0.013362083,0.008677906,-0.024008706,0.08830244,0.0055999923,-0.03801451,-0.0599307,0.15617089,0.055894453,0.10219022,-0.010337524,-0.05676691,0.09194418,-0.066721864,0.025274398,0.05293448,0.093048014,-0.0640292,-0.17668115,-0.27247956,-0.015478988,0.14723091,0.017550984,0.026813498,0.029930552,0.029375255,-0.02368274,-0.08678689,-0.085201405,-0.18996324,0.073608786,0.074854225,0.008433343,-0.048174083,-0.027576616,0.023765873,0.1932107,-0.18561777,0.12865572,-0.11505043,-0.009213722,0.0058558085,0.08418421,0.08377999,0.034776617,0.058073156,-0.04994504,-0.2099777,0.005965589,-0.027909445,0.06412473,-0.060754064,-0.0116445515,-0.06471937,-0.08527316,0.008257535,-0.13363159,-0.062417362,-0.0128592,0.053784,0.1147231,0.07388201,0.022285076,-0.1273511,-0.08495415,0.11416069,0.014867319,-0.09863884,0.030954594,-0.010455108,-0.067919515,-0.015711475,-0.022024693,-0.0046219495,-0.15868607,0.10742303,0.0064498284,0.008796597,0.07721101,0.00048235073,0.084202245,0.020896386,-0.017293641,-0.03295672,0.12614731,0.012941515,-0.1199031,-0.090877056,-0.085515596,-0.03549822,0.03421339,-0.11407626,0.04552997,0.08796025,0.17268321,0.038735982,-0.02636768,0.101534955,0.025035704,0.10027567,0.07337764,0.0006716209,0.10786018,0.12592734,-0.00081900216,0.0223834,0.0029861091,-0.07004293,-0.025203697,-0.07650917,0.037953362,-0.18237484,-0.048532736,0.046378113,-0.0073633324,0.0910778,0.18038815,-0.07948256,-0.03440968,0.008310912,0.011064567,0.09546175,-0.025036817,0.1703531,0.012790213,0.04178612,0.047376063,0.11204109,-0.02555603,0.05960248,0.11585837,0.0070842644,-0.04734893,0.03489542,-0.06302928,-0.053926133,-0.04227456,-0.04036606,0.11583149,-0.10480822,-0.1265633,0.027594995,-0.10181708,-0.03079397,0.063179925,0.059626322,0.025373662,0.14808632,0.09338709
Q10,-0.06737371,0.0032816315,0.115976416,-0.047013935,0.021168107,-0.005203035,-0.13782798,-0.19126578,-0.06388231,0.17698252,-0.028183112,0.16569532,0.018533468,-0.040333472,0.06490689,0.012042064,-0.07182494,0.25634825,-0.012461444,-0.045113247,0.113540694,-0.06778592,0.09642451,0.026440034,0.06733031,-0.07886594,0.008626351,0.043817602,-0.120459996,0.008249432,0.2687701,-0.05785462,0.031191165,-0.26651827,-0.112593,0.04540786,0.04512084,0.1050068,-0.03469293,0.22074592,-0.06992578,-0.12142437,-0.027784968,0.07407385,-0.029818173,0.15620182,-0.362574,0.041207172,0.08556772,-0.013897914,-0.006237413,0.048697565,-0.09214727,0.26056227,-0.04803862,-0.073407754,-0.0018075345,0.19789807,0.093666375,-0.06806921,-0.085783824,-0.09158081,-0.06899627,0.113952965,0.037948396,-0.06694199,-0.05732625,0.06449537,0.042863254,0.029684708,0.050078515,-0.09509974,-0.039296437,-0.131083,0.069395125,-0.12589207,-0.05750042,-0.121658005,0.05094408,-0.08651495,-0.13991722,-0.14385317,0.03958814,-0.021108538,0.14879425,0.14997165,-0.18955289,-0.1420296,-0.06187613,-0.19381975,-0.046829008,0.04150043,-0.05359856,-0.02319782,0.103955306,-0.06625011,-0.2766125,0.023098014,-0.013831042,-0.035765894,0.041054066,0.13601016,0.048753254,-0.053997196,-0.025084563,-0.18540666,-0.18221578,0.0055131866,0.06447798,0.06548852,-0.04371336,0.40104517,0.07396685,0.21599339,0.09498147,-0.13055477,0.08931876,-0.098748304,0.12740767,0.074614555,0.13810074,-0.061202943,-0.09437668,-0.0003041842,0.08057254,0.037631843,-0.021259222,0.19198787,-0.018743183,0.13926925,-0.024052551,-0.065746985,-0.26166686,0.0030947926,-0.048109297,-0.020759746,-0.12971257,-0.1143072,-0.17548244,-0.22613727,0.094427265,0.33221617,-0.085183226,-0.25600228,-0.033114024,-0.29216924,-0.029458126,0.35569176,-0.012874778,0.2366199,0.041750662,-0.0014668511,-0.1361806,-0.08567993,0.040559232,0.038149815,-0.18618278,-0.025217513,0.024489278,-0.014925963,-0.058856744,-0.07475057,-0.11796343,-0.1584707,-0.023308238,-0.07363889,-0.07269119,0.11451287,0.081555165,-0.10905495,0.09107199,0.05170197,-0.08229289,0.12468337,-0.0141891185,-0.14395335,0.101369925,0.033301562,0.040625498,-0.010290455,0.104501605,0.100284666,0.08882776,0.11123845,0.076669835,-0.1694704,-0.0012098111,0.12428969,-0.21396974,-0.24548584,0.0037983123,0.059586458,-0.04956026,-0.14243591,-0.04763949,0.10762439,-0.24075675,-0.1937976,-0.14030854,-0.18156071,-0.05343099,-0.120704465,-0.18837044,0.0143621955,-0.014889347,0.25640368,-0.0038573232,-0.019991156,0.091969475,0.10700354,0.022582443,0.17293409,0.2888421,-0.07477964,0.13650016,0.1487458,-0.18808381,0.060167465,0.041618522,-0.018163223,0.03647161,-0.10827951,0.083970085,-0.041964598,0.021319441,-0.028824605,-0.010693519,0.102617025,-0.04538603,-0.06584769,0.19032252,0.022928407,0.049475465,0.047169037,0.06909761,0.043288473,-0.076953836,-0.14901276,0.034051977,-0.091611415,-0.07107213,0.14290431,-0.030361399,0.030261828,0.025013588,-0.08153065,0.045559295,0.010786708,-0.106401205,-0.08785933,0.06013015,-0.14691155,0.07924089,0.09854555,-0.28033188,0.11066303,0.07039334,0.17601167,0.059379123,0.036527805,-0.027224313,-0.08404197,0.06319103,0.12441609,0.15340947,0.256426,-0.22638816,0.29739326,-0.039063852,-0.055890873,0.023321414,-0.1480197,0.13159257,0.07986482,0.05145147,0.089617126,0.28159857,-0.14308876,0.17292692,0.116465226,0.0070446376,0.13450876,0.13304104,-0.05996931,-0.2517983,-0.009686343,-0.010105307,0.05741008,0.039374284,0.03502418,-0.04236435,0.12055913,0.072435915,0.3544121,-0.055190247,0.17647845,-0.18322916,-0.04211458,-0.016646128,-0.0690837,-0.02334577,-0.015038281,-0.11777374,-0.09645195,0.055209085,0.099342465,-0.1004326,0.12280488,-0.07757992,-0.07718559,-0.059185512,0.0034153596,0.07216129,-0.031396482,0.0124385115,-0.063451365,-0.13715027,0.042087972,-0.022118408,0.19504622,0.06299595,0.15310882,0.051476303,-0.0065351,-0.13739365,0.06173242,-0.10173796,0.11312462,0.04976948,-0.07774765,-0.1141255,0.11604527,-0.021667464,0.04274378,0.14486636,0.026271423,-0.04969563,0.025317296,-0.067987815,-0.14843588,-0.12549482,-0.045583483,0.04033136,0.0749897,-0.069975846,-0.07109433,-0.024398055,-0.01968567,0.005456822,0.1983314,-0.011255134,0.032258995,0.024350282,-0.0023128442,0.12747829,-0.028703662,-0.06314737,-0.09926815,0.2442181,-0.03100221,0.18125913,-0.020999333,-0.1120398,0.17337471,-0.07139887,-0.075753465,0.13094431,0.116117276,-0.26018843,-0.27909315,-0.35109347,-0.0026627537,0.20209526,0.0831075,0.042403806,-0.021649944,0.08870818,-0.13355665,-0.15401733,-0.15366723,-0.27600747,0.07361391,0.10647329,-0.017253328,0.03176681,-0.09577535,0.055103067,0.2607901,-0.2066786,0.1071321,-0.055559468,0.017455062,-0.01633234,0.12956472,0.27599186,0.019754136,0.2467768,-0.1642839,-0.23909944,-0.003187368,-0.08148012,0.037477415,-0.074672446,-0.030459095,-0.10182045,-0.17819412,0.037732206,-0.07093185,-0.09406064,-0.010135727,0.11585208,0.18212408,0.11127949,0.12096419,-0.12029211,-0.06550726,0.11214888,0.01644957,-0.106105074,0.09543745,-0.016793251,-0.13859819,-0.072302334,-0.018397918,-0.03452935,-0.22577545,0.09937109,-0.00014546076,0.0055817263,0.0563809,0.044030234,0.1168999,-0.10717812,-0.02195107,-0.04349624,0.13694593,-0.09086668,-0.17376505,-0.10901091,-0.10158647,-0.01866193,0.0838115,-0.09977611,0.03523963,0.03348835,0.2225234,0.09752001,-0.06177311,0.122592464,0.013128651,0.10413186,0.07124185,-0.013145785,-0.0039386493,0.2507516,0.060039807,0.038656615,0.017196853,0.023979973,-0.0034216112,-0.21058702,0.041144557,-0.21754217,-0.08447873,0.01969724,0.02317645,0.08641806,0.27209327,-0.1167719,-0.052808557,-0.06058936,-0.027773552,0.22673148,-0.036439557,0.3374198,0.026170095,-0.065405935,0.07186844,0.24740168,0.024172138,0.19614619,0.13154665,-0.03405144,-0.021812579,-0.07197478,-0.1426576,-0.09132288,-0.114189334,-0.016990265,0.07406463,-0.15960145,-0.14252397,0.060834404,-0.09236576,-0.08116837,-0.024520459,-0.022469835,0.090614,0.22415571,0.06345793
Q11,-0.058572758,-0.03532186,0.10229978,-0.09383458,7.377633e-05,-0.0030033998,-0.12969062,-0.2246781,-0.02707811,0.11044913,0.041406415,0.14163005,0.049005505,-0.06499839,0.08435746,0.07654587,-0.08532015,0.19520459,3.2123822e-05,-0.04665898,0.06884308,-0.056822665,0.08072781,0.037301533,0.07916473,-0.08593674,0.028487159,0.003977884,-0.07291776,0.013113465,0.17658867,-0.112568535,-0.012205459,-0.22262298,-0.12105154,0.11874734,0.06551163,0.04776649,0.015378732,0.199645,-0.056708258,-0.1290564,-0.031235212,0.0019710942,-0.032336418,0.14092922,-0.22862442,0.008219588,0.0918379,0.015749909,-0.029834995,0.062016405,-0.067877285,0.2568527,-0.01307389,-0.08078311,-0.054607138,0.21742287,0.03541843,-0.14829928,-0.08360565,-0.021585707,-0.08184345,0.04490701,0.033476785,-0.04005584,0.015240615,0.06268285,-0.0012406622,0.0132743325,0.030884126,-0.043236654,-0.052959856,-0.02531194,0.102018945,-0.10336338,-0.06784369,-0.047516506,0.029054131,-0.03494368,-0.033862874,-0.07024041,-0.036540307,-0.000412817,0.1032694,0.052355535,-0.15602858,-0.15078895,-0.048083235,-0.113809794,-0.029188285,-0.0007169491,-0.06472765,0.005236327,0.098191544,-0.041158482,-0.21342742,-0.008686936,0.024771344,-0.010962811,0.070335045,0.11528435,0.07597867,-0.03880087,-0.017752344,-0.15916176,-0.09529594,0.05128682,0.026738513,0.06519238,0.04313197,0.35430062,0.1576714,0.16440228,0.006889948,-0.114129014,0.07365499,-0.07362093,0.10533698,-0.053913876,0.10119545,-0.09881809,-0.12267538,0.0117868725,0.008774643,0.05061828,-0.040686846,0.15145347,-0.023686498,0.07075618,0.021666426,-0.08191796,-0.24645802,-0.041618995,-0.10539896,0.017680062,-0.10975814,-0.05871296,-0.110331,-0.19932385,0.041991144,0.25056076,-0.07354476,-0.2230183,-0.096730255,-0.21866734,-0.06687489,0.43541834,-0.0007508131,0.20593075,-0.0028503835,0.03367046,-0.095631085,-0.0043408466,0.04236627,0.026058944,-0.120204754,0.029495558,-0.065779805,0.052408967,-0.038805615,-0.075357065,-0.03696306,-0.11784245,-0.01975573,-0.03235948,-0.06864916,0.12275386,0.020600649,-0.10499056,0.10086139,0.014640459,-0.012119901,0.08654543,-0.02855862,-0.11953713,0.05277996,0.05417216,0.06511471,0.044428535,0.020175526,0.036146272,0.060682975,0.119745195,0.09310073,-0.11300701,0.00233158,0.08809494,-0.17304108,-0.14434399,-0.021076513,0.07542721,-0.027524654,-0.12455773,-0.07602087,0.063231006,-0.16981031,-0.21504621,-0.065361425,-0.1939667,-0.0014618038,-0.17540705,-0.19178958,0.02288537,-0.04781006,0.2389544,0.0263722,-0.015687315,0.04627058,0.10865344,0.029504204,0.1867399,0.18564326,-0.14164971,0.16001321,0.12043248,-0.25375256,0.03811691,0.06509278,-0.03945159,0.0065934164,-0.07585509,0.05279854,-0.023006896,-0.0031232343,-0.048488855,-0.02465093,0.060004313,0.027486192,-0.03975297,0.12566932,0.101034254,0.04731522,0.07754056,0.019823303,0.08840272,-0.07090309,-0.1687112,0.037427235,-0.03264292,0.00909418,0.12006898,0.009499423,0.054832783,-0.004952005,-0.060537286,0.08802085,0.043226127,-0.099247605,-0.087164156,0.009250259,-0.11727345,0.16656008,0.07212243,-0.19457975,0.061276697,0.09033274,0.18086068,0.09093343,0.04267395,0.0592481,-0.06725632,0.08507654,0.1361428,0.11437934,0.26459354,-0.19522278,0.25823343,-0.02622836,-0.0965059,-0.012224621,-0.12179547,0.11712274,0.05576452,-0.032610137,0.066603884,0.2264309,-0.13356285,0.18548253,0.107111804,-0.05520453,0.04458605,0.119293444,-0.055644847,-0.20014831,0.016013017,0.016097592,0.03829049,-0.013334311,0.092970565,-0.029831484,0.07837574,0.075441435,0.31273648,-0.016965842,0.12712508,-0.1505825,-0.03510942,0.0064942515,-0.020393806,0.058558457,-0.004789205,-0.11350389,-0.15439749,0.0015693316,0.094915554,-0.05239719,0.14983258,-0.07859136,-0.060060423,-0.09773441,0.05979009,0.03440026,-0.07912264,0.024715351,-0.079817176,-0.061376497,0.10075645,-0.05010211,0.26176497,-0.08605603,0.13733439,0.039523087,0.02950066,-0.10127608,0.059484627,-0.032655742,0.1733421,0.07777594,-0.041932546,-0.09813121,0.06898238,0.01522059,-0.008027695,0.09744205,-0.0030745347,0.023993297,0.026066173,-0.081892535,-0.10523803,-0.037619285,-0.03972679,0.037649922,0.019513657,-0.050973054,-0.044876,0.007995271,-0.022620833,-0.0016791044,0.16094905,0.011857679,0.05465713,-0.013871673,0.011827377,0.15440324,0.018903373,-0.081964225,-0.13002299,0.18683204,0.024138017,0.15129669,-0.018761571,-0.095053755,0.10795399,-0.054674864,-0.038672622,0.06735435,0.13390219,-0.14512743,-0.23485033,-0.3211924,-0.032667268,0.19593066,0.05616269,-0.042856414,-0.04589669,0.05557969,-0.12294572,-0.1389795,-0.19157384,-0.29040995,0.07006974,0.1092747,0.0072012343,0.024327079,-0.06023999,0.049955904,0.36275604,-0.17669207,0.098965116,-0.1053976,0.011113959,0.019325508,0.08175717,0.1566824,0.04129647,0.13894527,-0.09709106,-0.19613239,0.015276923,-0.070438154,0.009868417,-0.13422781,-0.0466595,-0.10748247,-0.06360663,0.043759372,-0.11397094,-0.07901447,0.02898283,0.08225871,0.19264723,0.091827415,0.0769933,-0.14143124,-0.06585726,0.15452631,0.031562902,-0.11145057,0.07744683,-0.010690652,-0.064914286,-0.019831263,-0.04452097,-0.018712258,-0.17834106,0.09068871,-0.017033236,-0.0028936395,0.122184604,-0.008359397,0.1064709,-0.05769181,-0.0024271794,-0.06961108,0.15931028,-0.0013874985,-0.15969004,-0.11478993,-0.15706831,-0.025015853,0.034845345,-0.11897147,0.060201,0.053621437,0.23760638,0.017305516,-0.037862156,0.12640753,0.029350746,0.08929802,0.07862571,0.03578543,0.050898932,0.26706952,-0.0040711686,0.017221551,-0.0025836756,-0.035686363,-0.00046544886,-0.14069016,0.03894674,-0.16274437,-0.049196757,-0.0011493837,0.03180745,0.11372373,0.2112162,-0.108615495,-0.05169815,0.02892726,0.0069392123,0.10803782,0.015379978,0.22517683,0.013700701,0.033988707,0.07781273,0.19626391,-0.031354833,0.089193396,0.13194048,-0.05548897,-0.016484791,-0.0042682155,-0.09713193,-0.08813618,-0.135253,-0.016754856,0.10039412,-0.10168018,-0.18076278,0.029668652,-0.079043895,-0.079715624,0.05311111,0.04282945,0.060963567,0.17099236,0.10258809
Q12,-0.08463306,-0.0207821,0.14572512,-0.08083648,0.017164774,0.046246447,-0.2074476,-0.2088621,0.0050393417,0.13445136,-0.006476172,0.1499462,0.019526985,-0.041710608,0.092480354,0.043446496,-0.106997944,0.23453592,-0.027399376,-0.018838149,0.065146804,-0.06522811,0.08644023,0.0770429,0.06817668,-0.10244224,0.036616076,0.07397392,-0.06621438,0.00054315553,0.24912016,-0.056294683,0.0048948913,-0.2579665,-0.116942026,0.11768267,0.018493962,0.08406183,0.0082577495,0.21852574,-0.038108893,-0.12976554,-0.029678896,0.022682674,-0.019426307,0.119684614,-0.28831455,0.05865705,0.05164393,-0.01722738,-0.055969875,0.082751475,-0.061207425,0.25643468,0.0033119922,-0.06637658,-0.047560193,0.23631175,0.062012307,-0.08686234,-0.088918366,-0.033513397,-0.050556622,0.07238105,0.02207964,-0.07211534,-0.014704402,0.06595709,0.062250122,0.025781391,0.032877427,-0.056609735,-0.044882152,-0.0571845,0.09490821,-0.081949934,-0.056328043,-0.064155675,0.029100599,-0.04504152,-0.024417894,-0.16418211,0.012065614,-0.017617892,0.102007814,0.07061981,-0.18572053,-0.1433473,-0.016057268,-0.15635885,-0.07693319,0.059778668,-0.07694065,-0.019500244,0.12140517,-0.024290701,-0.27149963,0.02917857,0.038254563,0.010320821,0.024866104,0.122326806,0.016727481,-0.095665194,-0.051052652,-0.16037318,-0.10614933,0.07081314,0.025209544,0.06594534,0.037247244,0.35680112,0.10469964,0.14047828,0.044872034,-0.11797522,0.10295229,-0.05309193,0.0968802,0.034100223,0.10324221,-0.13447337,-0.10785244,0.011699974,0.01879941,0.072816044,-0.02489764,0.165035,0.0028093092,0.095784664,-0.013929046,-0.047631264,-0.24044283,-0.00037490562,-0.11104451,0.043022566,-0.074114874,-0.108402915,-0.15475045,-0.1680416,0.075223505,0.24738611,-0.10746173,-0.24466714,-0.049307145,-0.23986392,-0.06187018,0.35874906,0.0122125335,0.20050731,0.031730834,-0.008330613,-0.11058836,-0.03242136,0.03067506,0.04075102,-0.15082979,0.03816223,-0.06852589,-0.0062208124,-0.020569606,-0.095208414,-0.035782717,-0.11515707,0.020837773,-0.06618344,-0.04944633,0.13841829,0.027830286,-0.1131159,0.09756583,0.02556809,-0.055257294,0.1378622,-0.050318584,-0.13661589,0.07774267,0.054422278,0.07688317,0.038869843,0.03954155,0.044313435,0.03134202,0.07546341,0.09954138,-0.09554391,0.006123618,0.13134754,-0.15967472,-0.16815986,-0.006970499,0.08902629,-0.002209095,-0.13341667,-0.06725319,0.067623116,-0.20703648,-0.19336186,-0.04941507,-0.22523758,-0.0013599325,-0.13522846,-0.17990074,0.0034086385,-0.020047683,0.24877267,0.016458686,0.0072547654,0.055594284,0.086885385,0.008464991,0.17053817,0.22422174,-0.12002358,0.13631164,0.08778541,-0.21189183,0.04270808,0.024029195,-0.015882703,-0.01889179,-0.07300803,0.11006936,-0.025403641,0.027000835,-0.03619179,-0.026247509,0.06855803,-0.01524056,-0.06380884,0.15763484,0.023426961,0.016953295,0.047637384,0.006143359,0.09127361,-0.10359717,-0.15313746,0.078381605,-0.03719256,0.026936643,0.15751079,-0.010118228,0.06406783,0.017771047,-0.09203818,0.07898463,0.046563428,-0.08249596,-0.12574302,0.0031337715,-0.091848716,0.14181763,0.06603131,-0.22473206,0.11435224,0.07579846,0.18303011,0.061576795,0.041177075,-0.02137721,-0.03882708,0.08974965,0.12410089,0.14911252,0.21973412,-0.15663561,0.29667085,-0.040372543,-0.056530718,0.00077770476,-0.11832482,0.18541671,0.06271689,0.062939584,0.06003954,0.23751132,-0.14425293,0.16210505,0.12429834,-0.042645577,0.10182363,0.12715207,-0.043800376,-0.2241034,0.06282027,0.005990576,0.025430808,-0.029578267,0.09335467,-0.06793916,0.11924475,0.045098618,0.32430485,-0.02730945,0.14647561,-0.19076842,-0.04569028,0.013768023,-0.044480465,0.013096941,0.024082568,-0.15022513,-0.096108526,0.025808627,0.113937244,-0.063516125,0.12187344,-0.110413685,-0.08297925,-0.095222846,0.0343174,0.006003535,-0.08968849,0.0028949818,-0.075062215,-0.06390404,0.057235755,-0.022962676,0.24844919,-0.078335576,0.15067989,0.032423373,0.034812566,-0.11280732,0.096595615,-0.03895047,0.14043552,0.042747058,-0.046278134,-0.09722199,0.11718843,-1.19349625e-05,0.006735606,0.0853167,0.002877167,0.024603141,0.07197469,-0.03982957,-0.12035978,-0.06555677,-0.00068704225,0.027158717,0.05041595,-0.009807869,-0.05072079,-0.025133127,-0.029971654,-0.0069465674,0.15908642,-0.015697416,0.058307033,0.0137510495,-0.032190554,0.15563823,-0.012367953,-0.04587986,-0.11327003,0.21325205,0.034280248,0.18445778,-0.039930344,-0.10086042,0.13638633,-0.07537373,-0.03299831,0.12435846,0.1480875,-0.19002493,-0.23045173,-0.37387213,-0.022122148,0.2117262,0.08363982,0.01334905,0.02761021,0.017155986,-0.077079356,-0.16478583,-0.16279,-0.23619209,0.04700587,0.06892265,-0.0053385627,-0.012781841,-0.07402428,0.040628828,0.3431157,-0.19110897,0.15733388,-0.06441583,-0.01976041,0.031761937,0.11487163,0.25739625,0.0473904,0.15037675,-0.12059886,-0.2715124,0.014237084,-0.06641211,0.007563813,-0.06254582,0.00075231266,-0.10202273,-0.09338611,0.026741724,-0.08983415,-0.06329449,0.0034631295,0.06535832,0.15527046,0.12204733,0.063513815,-0.13152947,-0.11331254,0.17780896,0.036082298,-0.13414063,0.13226043,-0.013593791,-0.12745108,-0.05723913,-0.07557035,-0.03364696,-0.23073342,0.1184299,0.005166965,0.0013320314,0.07880528,-0.011361288,0.10467668,-0.08553484,-0.039356202,-0.048771612,0.153393,-0.034696076,-0.157683,-0.10705504,-0.15296476,-0.03396557,0.05128643,-0.11567158,0.08745463,0.116361015,0.24596028,0.056671876,-0.10280113,0.119765826,0.04897187,0.10854073,0.07718819,0.0063497266,0.028789071,0.2647228,0.03047539,0.027447259,0.02799914,-0.042817615,-0.021824235,-0.13655777,0.07247658,-0.19639501,-0.044430155,0.006470702,-0.0034210382,0.07971492,0.26256913,-0.08963074,-0.04085563,-0.005256273,-0.0016521163,0.14380613,-0.0095653,0.2763679,0.021839458,-0.013261919,0.04743091,0.2089491,-0.0056330175,0.116003685,0.1321314,-0.09057038,0.008383222,-0.020302007,-0.12412304,-0.08967396,-0.106155515,-0.032139268,0.098396234,-0.11429401,-0.18840337,0.032285728,-0.08457053,-0.060638707,0.048808627,0.005249005,0.077278726,0.24470796,0.0840963
Q13,-0.030356757,0.033354975,0.043041345,-0.028236244,0.012855245,0.034921415,-0.13885577,-0.12452574,-0.021114044,0.10601385,-0.02079642,0.052696392,0.00067828933,-0.039589442,0.05667556,-0.00037241622,-0.02428516,0.13119283,-0.042896356,-0.03773428,0.12405539,-0.06887248,0.09811677,0.08834587,0.030745544,-0.08335462,-0.008278777,0.006294059,0.008042639,0.007204552,0.15634741,-0.029366747,-0.029379044,-0.12629233,-0.045343395,0.075066864,-0.018114902,0.032935463,0.040234014,0.06115288,-0.050480243,-0.08644622,-0.035115577,0.009915117,-0.050149493,0.044870656,-0.12152852,0.0031502515,0.019400822,-0.072847664,-0.018311,0.052860968,0.022263061,0.12634312,0.017074142,0.035089538,-0.04659539,0.112312675,0.061992973,-0.065361254,-0.07622728,-0.06834692,-0.030109107,0.080046475,0.044841748,-0.0123522,-0.02915907,0.124996156,0.018134894,0.03993958,0.00025584913,-0.029833244,0.0237509,-0.14303412,0.101296626,-0.071414135,-0.022404157,-0.01836357,0.0273413,-0.038246546,-0.06480381,-0.02798356,-0.049213175,-0.03893662,0.113035195,0.100489706,-0.101210974,-0.072390124,-0.07253814,-0.08162493,0.017272854,-0.009991426,-0.026373092,-0.045194287,0.0512483,-0.036522515,-0.16482879,0.11751852,-0.036766678,0.075513706,0.0033471857,0.076366544,0.052584834,-0.027338162,-0.017990327,-0.11895833,-0.094986044,0.03091752,0.051762164,0.0699476,0.013196768,0.19568168,0.024943544,0.1051376,0.011409405,-0.050053976,0.069290064,-0.05265577,0.102873236,0.04754049,0.10190112,-0.10472238,-0.038035527,-0.0049655703,-0.0105689885,0.026397541,0.018642986,0.13439287,-0.049022637,0.07589823,-0.020838693,-0.012593285,-0.16389449,-0.0121881515,-0.054942183,0.06582372,-0.059511572,-0.09393678,-0.04650531,-0.082638025,0.024979169,0.17843066,-0.017891616,-0.08430073,-0.033284668,-0.13123,-0.020397592,0.18752673,-0.020254053,0.110468894,-0.0053806948,-0.026140567,-0.107577555,-0.086998634,0.04707473,0.05704554,-0.068394676,-0.01847578,0.027178712,-0.0053874487,-0.06504766,0.0064539174,-0.045474898,-0.027322978,-0.044237833,-0.046114177,-0.022518368,0.062167156,0.00035000753,-0.043488335,0.06752646,0.011998038,-0.07129059,0.06572762,-0.017129332,-0.13260604,0.05321711,0.04907929,0.08665732,0.002162581,0.10835678,0.025858136,0.060097706,0.16108392,0.07334378,-0.07369375,0.03743409,0.064971365,-0.021859907,-0.11312897,-0.043995105,-0.01608477,-0.0068563726,-0.014718202,-0.017320294,0.08579623,-0.121480495,-0.15775676,-0.098844334,-0.16251256,0.00035643802,-0.08508218,-0.11595891,-0.032905716,0.011547935,0.12363345,0.015591887,-0.022747913,0.09210054,0.088372566,-0.037934233,0.13816528,0.16546623,-0.027251173,0.039248336,0.0764912,-0.03981656,0.00032163324,0.0594864,-0.046740495,0.015146365,-0.04557423,0.036180835,-0.012711654,0.08491962,-0.015812144,-0.01914895,0.028304366,-0.016032316,-0.011024849,0.1662912,-0.016529443,0.012371165,0.083114356,-0.014808048,0.018837223,-0.03912866,-0.13877119,0.009874998,-0.02119088,-0.011709991,0.1109098,0.0074879136,0.101105385,0.03817124,-0.06375148,0.00802526,-0.030316569,-0.0981483,-0.087292105,-0.024797244,-0.11455417,0.060449183,0.050273407,-0.095023505,0.08122893,0.09865525,0.077781506,0.07529781,0.032217655,0.017997453,-0.08628874,0.05354336,0.08681542,0.046019103,0.065752864,-0.1194886,0.20880133,0.0064341193,-0.027585797,0.015126483,-0.05062702,0.039781086,0.09754468,0.060584478,0.01857133,0.1536176,-0.10732287,0.15164243,0.09476249,0.0022421104,0.082245,0.026568614,-0.037473824,-0.17026858,-0.011096422,0.05560281,-0.028491968,-0.01633104,0.0059299814,-0.08520538,0.0077070124,0.034044545,0.20748653,0.023941753,0.0206829,-0.13538814,-0.04805602,0.019700857,-0.044474397,0.013710784,0.032499313,-0.09883768,-0.046330187,-0.005105489,0.03770448,-0.061016396,0.08229768,-3.765782e-05,-0.023661325,-0.017840808,0.046961695,0.01693203,0.060883116,0.036848493,-0.054540727,-0.03589574,0.011603573,0.015921924,0.13380685,0.00220617,0.077487245,0.06381894,-0.048081208,-0.062926695,0.10297466,-0.0996426,0.016907103,-0.010862385,-0.009058897,-0.011845076,-0.029488547,-0.021610094,0.06464231,0.0974337,-0.028070055,0.009437229,-0.011143528,0.009600577,-0.12420624,-0.052147325,0.02366297,-0.011320226,-0.009338515,-0.00019232213,-0.016705196,-0.03040848,-0.003361804,-0.01568697,0.07151034,-0.007489504,0.010567533,0.016273698,-0.029297102,0.07226402,-0.09058662,0.068746254,0.019506466,0.1619272,0.029358178,0.094961494,-0.013108396,-0.057870213,0.107362375,-0.020885224,0.010894504,0.079866946,0.058759265,-0.10034057,-0.10962513,-0.25729266,0.033058982,0.055037368,0.0569139,0.06754531,0.08512196,0.0557536,-0.05577587,-0.037542745,-0.07124258,-0.10408065,0.08469406,0.025277102,-0.0345291,-0.009114667,-0.041825242,0.019367188,0.16059576,-0.0949789,0.055372592,-0.07232585,0.07232587,-0.05562893,0.08613858,0.09226365,0.023489622,0.093353674,-0.089884564,-0.14538898,0.04265379,0.021217352,0.032850552,0.0063325632,0.017551694,0.0043885903,-0.147321,-0.02484307,-0.09781025,-0.107907996,-0.09445913,0.064795725,0.07575599,0.05441897,0.015353039,-0.06310178,-0.11335175,0.0850589,0.008002668,-0.09980584,-0.0071272906,-0.034771767,-0.06981696,-0.0427113,0.013287285,0.0025542793,-0.17505197,0.0816463,0.010919165,0.03599149,0.04190681,0.03787661,0.104905196,-0.05531109,0.00066960044,-0.005301425,0.122732714,-0.02470453,-0.08218221,-0.08147692,-0.08863903,-0.04866146,0.043717775,-0.07454675,0.032461528,0.0028258027,0.120314,0.10528225,-0.049664777,0.07287809,0.0580184,0.04081032,0.010844169,-0.023193926,0.04948686,0.14097153,0.015772156,0.0070903315,-0.03511072,-0.01480366,-0.052002497,-0.13020827,-0.016776249,-0.14792387,-0.058635704,0.053527378,-0.005828795,0.09853643,0.14394304,-0.007393716,-0.007419679,-0.0088744,0.0047737896,0.15633546,-0.01742743,0.16733076,0.0023092246,0.015644906,0.03501707,0.1222499,0.013436805,0.11996294,0.11108875,0.067168415,-0.082785204,-0.01493496,-0.050553087,-0.044875134,-0.04823767,-0.028214129,0.03952135,-0.07580488,-0.081923,0.04222826,-0.10149595,-0.049212564,-0.024975516,0.035274923,0.0059602284,0.12052959,0.08075884
Q14,-0.022350702,-0.021623287,0.08607487,-0.046858355,-0.012426485,0.0077434937,-0.068146326,-0.14668457,-0.016657643,0.12814647,-0.044240676,0.13449457,0.070281304,-0.0049883593,0.062180422,-0.015970074,-0.050383467,0.15085743,0.0025749456,-0.023100495,0.072569475,-0.07047584,0.09727189,0.07480132,-0.02576014,-0.092102624,0.010420892,0.09071622,-0.07314833,0.0063669034,0.1037058,-0.021644285,0.026614081,-0.18423396,-0.055616084,0.091496766,0.03429254,0.09266274,0.0026578996,0.1722637,-0.030245146,-0.14661705,0.01626351,0.013723035,0.0017710883,0.0878439,-0.26147085,0.055631116,0.04419173,-0.07063653,-0.012043433,0.061632942,-0.10056847,0.1900397,-0.09918264,0.0024591542,0.016195515,0.14505632,0.07014111,-0.09916131,-0.071272254,-0.078311436,-0.030463506,0.108990386,0.007842029,-0.033315837,-0.01699427,0.07392886,0.004001179,-0.0112719415,0.082116604,-0.04745341,-0.020710545,-0.19240649,0.08006015,-0.052148174,-0.10313334,-0.040486544,0.025788387,-0.05302212,-0.03246541,-0.07223386,-0.016854228,-0.033901364,0.07616658,0.048821192,-0.07490278,-0.1669222,-0.07797758,-0.09838404,-0.10084132,-0.018582212,-0.09347748,0.029337065,0.12145498,-0.015790297,-0.22837293,0.0033900845,0.002688967,-0.031833474,0.057973467,0.09492045,0.029109826,-0.07247658,-0.08153726,-0.0713666,-0.09218936,0.06866582,0.05959515,0.07097767,-0.005967353,0.3091098,0.088999964,0.13024665,0.040320344,-0.15381981,0.06514292,-0.10994598,0.030216744,0.04650819,0.07195632,-0.09757118,-0.032190416,-0.049018085,0.02230476,-0.05295146,0.0024904322,0.18592304,-0.032686885,0.10789362,0.03172018,-0.03760615,-0.23093182,-0.0042900485,-0.08727041,0.025151862,-0.14802924,-0.051693227,-0.080125,-0.20766236,-0.02461175,0.22978552,-0.08608595,-0.1090614,-0.0044642286,-0.15880919,-0.04289246,0.27597138,0.011774361,0.18149523,-0.0010897708,0.04935555,-0.08273406,-0.03894376,0.034427185,0.045593653,-0.101344176,-0.006288229,0.044396047,0.029683448,-0.0075133126,-0.03200511,-0.09179709,-0.09017164,-0.032811463,-0.08082242,-0.022602525,0.09069874,-0.024172176,-0.02316044,0.08312518,0.041339964,-0.09912809,0.10838623,-0.031208219,-0.10364924,0.09318187,0.07471909,0.10730814,0.016695466,0.07495743,0.092667274,0.12188902,0.023695853,0.10059339,-0.12209796,0.014179492,0.047592334,-0.12562118,-0.1777472,-0.035594516,-0.009873918,-0.025030399,-0.14062345,-0.07260263,0.023226244,-0.19457218,-0.16714497,-0.05533391,-0.18556257,0.06423917,-0.1312598,-0.10541492,-0.013964011,0.011240662,0.14085963,0.017804347,-0.034369297,0.06789195,0.09547163,0.054619137,0.1488776,0.16134833,-0.14426355,0.1269414,0.10402664,-0.18466851,0.046365246,0.10738611,-0.019004598,0.041604765,-0.047085542,0.10287433,-0.043910235,0.0937192,0.014991716,-0.014964924,0.09686738,0.052608978,-0.022623554,0.16174519,-0.04318606,-0.008261228,0.036059957,0.011867815,-0.0017701351,-0.08006672,-0.12805319,0.033030767,-0.042983882,0.03855599,0.11060039,0.034271806,0.045010876,-0.03879357,-0.052886676,0.032371413,0.035689685,-0.071368374,-0.0150285065,0.017317647,-0.12527412,0.0060153008,0.101333454,-0.16047755,0.07341794,0.090264484,0.2225792,0.08581412,0.014628083,-0.01733872,-0.05028136,0.08436047,0.069757804,0.091047935,0.20199174,-0.1385926,0.25969127,-0.036881436,-0.011824649,0.006576025,-0.12593956,0.11825188,0.098846115,-0.023946803,-0.007909392,0.27558625,-0.098135516,0.13125113,0.11317013,-0.06107734,0.090879925,0.14808014,-0.048930876,-0.15859444,-0.07413478,-0.003179235,-0.05019216,0.048816614,0.106728844,-0.04700526,0.09462836,0.101665065,0.2680405,0.020183422,0.0770741,-0.13565244,-0.012885619,-0.0076879933,-0.05455954,-0.02273833,-0.071276955,-0.106917776,-0.056385387,0.03606086,0.10064709,-0.063083805,0.11545199,-0.039547756,-0.04210081,-0.048591785,0.045476478,0.096291415,-0.03134062,0.051479682,-0.046867035,-0.05311983,0.06574493,0.0037959996,0.19338389,0.0022159927,0.16740759,0.033776097,0.009610382,-0.05767334,0.08566695,0.004488416,0.08121233,0.07865094,-0.072502434,-0.091302834,0.0067916038,0.019963833,-0.0038634553,0.107405625,0.055885185,-0.039984602,-0.018218154,-0.07742341,-0.1975991,-0.07500863,-0.083607905,0.06405171,-0.006585824,-0.09382321,-0.071697846,0.03757855,-0.01468948,0.000110357265,0.1240747,0.033459865,-0.067885146,0.020264007,0.021819986,0.08930418,-0.07244027,-0.04246188,-0.0044688126,0.17004256,0.013390611,0.15404752,-0.03082926,-0.12277736,0.13103941,-0.048784245,-0.0054233456,0.0048316964,0.07188077,-0.1814862,-0.20490392,-0.38189143,-0.05912247,0.11352126,0.003945812,0.03132402,-0.005971763,0.02792417,-0.10771255,-0.05787455,-0.03396492,-0.1311352,0.037704777,0.003840608,0.027830828,0.025935814,0.016024102,0.019057408,0.17285357,-0.19856632,0.11208902,-0.1362829,0.060045864,0.0023537471,0.07587848,0.18104823,0.0032544958,0.12608644,-0.11412339,-0.21690437,0.0051564663,0.01904836,0.040291354,-0.07682565,-0.0449737,-0.008831625,-0.08651319,0.008843459,-0.106314644,-0.00089641084,0.024019336,0.064007044,0.1175761,0.03603638,0.052846104,-0.06205591,-0.08547689,0.08194878,0.012634856,-0.063088596,0.0041098725,-0.003713529,-0.053917706,-0.02224781,-0.007756075,-0.083113864,-0.09247423,0.10974468,0.0008410843,-0.008794204,0.06056038,-0.025917502,0.064759776,-0.0037642098,0.00012335351,-0.052345503,0.06794743,0.010396989,-0.061511077,-0.098874524,-0.1032014,-0.03793502,0.07103165,-0.12775971,0.07556401,0.02119684,0.22282845,0.113515,-0.10599997,0.09125604,0.056677695,0.07202026,0.06426725,-0.061182868,0.003840711,0.10453128,0.05689306,0.063802905,-0.04484304,-0.034333598,-0.009161965,-0.15331718,-0.009679393,-0.26229733,-0.092634924,0.036680363,0.034126207,0.12368648,0.15622799,-0.06375585,-0.036629796,-0.06583182,0.0038961335,0.17670348,-0.056091335,0.2194685,0.06334892,-0.0017180472,0.09381149,0.27276206,0.03999205,0.16469589,0.14233585,-0.01880337,-0.009566975,-0.06431831,-0.06297434,-0.114276625,-0.040085398,0.024717726,0.09279627,-0.12485577,-0.078852445,0.03240313,-0.09408745,0.02972992,0.052906968,0.025957426,0.073434666,0.17019217,0.025477096
Q15,-0.065847166,-0.057361875,0.13543953,-0.16042295,0.037112404,-0.010006049,-0.15169004,-0.2129012,0.004980864,0.1715415,-0.03338003,0.13968922,0.034509383,-0.06473656,0.079956695,0.039453134,-0.097840026,0.18772234,0.05462413,-0.035483282,0.06260066,-0.07856964,0.1081288,0.10130043,0.114418976,-0.10268976,0.048503436,0.04697523,-0.053785786,-0.05605463,0.24804893,-0.16680242,-0.049937468,-0.27421102,-0.11620005,0.10727208,0.057138003,0.046852525,0.032362018,0.19725052,-0.094467066,-0.1180041,-0.06228348,0.035834715,0.01485497,0.10766404,-0.2100041,-0.036861148,0.089026205,-0.00678374,-0.02205674,0.109997995,-0.05432961,0.25091952,-0.022075746,-0.050876502,-0.06692091,0.17184432,0.013439987,-0.05387016,-0.07012749,-0.06507127,-0.065197095,0.045808665,0.025677906,-0.1125324,-0.063770555,0.1038896,0.04553415,0.07334625,-0.0024879812,-0.031867217,-0.06670467,0.06361979,0.17168204,-0.13935825,-0.06558349,-0.05159885,0.06044889,-0.04200226,-0.1321533,-0.19169955,-0.007307217,0.020893196,0.1187559,0.08601122,-0.13338219,-0.12236794,-0.030709635,-0.120065644,-0.052500907,0.06201019,0.005674618,-0.011757029,0.1384675,-0.05961839,-0.26199716,0.017139556,0.012841994,0.063120656,0.019467574,0.21079786,0.029772123,0.0048447945,0.010343501,-0.15989532,-0.15484457,0.0067665204,0.048887778,0.08624926,0.06658163,0.33818123,0.12029783,0.14450394,0.025751982,-0.12160102,0.07399862,-0.062610745,0.08342494,-0.027264081,0.09726433,-0.09512359,-0.18782648,0.016956026,-0.040084604,0.09478528,-0.028637707,0.1257107,-0.0047319983,0.088693015,-0.013008095,-0.07847457,-0.22358268,-0.01360239,-0.14318092,0.026770292,-0.10159484,-0.18323822,-0.10950554,-0.108956985,0.04714853,0.2531182,-0.09059793,-0.21600915,-0.093632594,-0.22877108,-0.025233075,0.38682547,-0.011390574,0.23806019,-0.024032647,-0.02728541,-0.118158415,-0.04785836,0.040260393,0.038721893,-0.1700987,0.053414356,-0.07995283,0.0511777,-0.07787498,-0.11520114,-0.033864517,-0.06324536,0.017124673,-0.049795624,-0.097757585,0.08676897,0.071688294,-0.06804494,0.09426996,0.0001624287,-0.013680965,0.14606048,-0.092594296,-0.16308586,0.018145269,0.04701508,0.065836936,0.053888198,0.06465226,0.017275786,0.033483043,0.16268964,0.040792137,-0.14019947,0.023598565,0.1321038,-0.08938228,-0.16631982,-0.0142342355,0.0940722,-0.052523386,-0.09062875,0.014106564,0.09375691,-0.20174545,-0.16138738,-0.121612884,-0.24204178,-0.014783106,-0.14847481,-0.23900287,-0.006753651,-0.04154642,0.24061528,-0.022226613,0.031640217,0.030089423,0.12131048,-0.0171355,0.16641814,0.24314103,-0.096401915,0.12372951,0.067183256,-0.2191292,0.00558658,0.030105952,-0.05329227,-0.020871425,-0.062731184,0.10451567,-0.023459567,0.023770718,-0.06633388,-0.003830039,0.087343015,0.0052883653,-0.089289114,0.21002565,0.06402207,0.02574558,0.027900228,0.01320551,0.12568754,-0.06514921,-0.1910064,0.062284715,-0.055344764,-0.056233343,0.09443159,0.0047339327,0.07117728,0.0038876021,-0.05395594,0.08016038,0.0483499,-0.029225972,-0.11623865,-0.047187448,-0.08951658,0.15154041,0.018041108,-0.16730817,0.13317332,0.029525056,0.12795505,0.020297745,0.016051514,-0.03151176,-0.06493003,0.047843896,0.13490634,0.15018271,0.18507026,-0.2126763,0.257732,-0.03443536,-0.103908524,-0.029010305,-0.09287149,0.12947524,0.07502848,0.025502848,0.02504512,0.21417715,-0.145062,0.15036894,0.12729138,-0.04949777,0.0940287,0.084780045,-0.045942508,-0.23622748,0.05264237,-0.018669399,0.08242931,0.028401488,0.020420475,-0.062349703,0.16075863,0.030469967,0.33774063,0.007117177,0.124095246,-0.20470963,-0.04590355,0.019979613,-0.0313648,0.08412597,0.04027629,-0.13148195,-0.09949968,0.038685296,0.008924749,-0.10684764,0.12927482,-0.05212918,-0.04029185,-0.10162833,0.0644854,0.00049923296,0.033665527,0.0007166174,-0.05436707,-0.076145664,0.013255357,0.0054583577,0.23570177,-0.07633699,0.110458545,0.008283588,-0.024683664,-0.05466569,0.04778235,-0.076772,0.149308,0.0007835135,-0.018425103,-0.041621316,0.085306674,0.0038166686,0.06310603,0.045690402,-0.058918986,0.045288183,0.060882222,-0.0718337,-0.112543054,-0.011299372,0.017285863,-0.0031190584,0.03211221,0.055706516,0.016079325,-0.0041020177,0.07055376,0.0047284393,0.15330945,-0.022526033,0.09085447,0.026049742,-0.036424007,0.2008988,0.02677245,-0.02396923,-0.094571605,0.21902555,0.04991296,0.10532582,-0.05350138,-0.119672075,0.12710348,0.0044778236,-0.058764614,0.09890695,0.16791454,-0.23007539,-0.2658276,-0.30139053,0.035521824,0.17536558,0.07668078,-0.007883264,-0.015484632,0.020688523,-0.11785336,-0.118816465,-0.2520945,-0.25515258,0.08878744,0.059400894,-0.016002173,0.016007667,-0.15739581,0.04404027,0.38234964,-0.22262193,0.115524866,-0.0230855,0.029578708,0.018476937,0.13014051,0.1533044,0.009689466,0.15201527,-0.10518452,-0.19141588,0.09188904,-0.02855915,-0.030170629,-0.07825254,0.0027942704,-0.076167695,-0.090371035,0.048320483,-0.11899404,-0.12360796,-0.06321279,0.057618316,0.19581547,0.18447463,0.03174478,-0.08766555,-0.106037006,0.2040007,0.01470962,-0.13893963,0.08669651,-0.022538636,-0.063107796,-0.04966983,-0.047863312,-0.04700088,-0.2693084,0.034779243,-0.033852912,0.02053344,0.09666564,-0.056805898,0.13004667,-0.1060648,-0.05303006,-0.11838831,0.19567636,-0.008180444,-0.11854736,-0.08986593,-0.18353318,-0.014242877,0.06548025,-0.11128331,0.08707678,0.06741847,0.21808323,0.069843456,-0.10832203,0.16723701,0.063843474,0.08558949,0.049359746,0.047055032,-0.04088512,0.27611828,0.059206545,0.0075719757,0.018540496,-0.012013638,-0.015843295,-0.13295773,0.024775593,-0.12464518,-0.04926116,0.020992314,0.029338924,0.07374145,0.23692925,-0.099959955,-0.04161504,-0.040669117,-0.020507084,0.084274255,0.02433622,0.22637908,-0.0044984976,-0.044315815,0.05396826,0.15210466,-0.01826677,0.095917456,0.1263061,-0.07790553,-0.0677479,-0.06370859,-0.09926203,-0.08296004,-0.121360146,-0.020769717,0.08404465,-0.057531524,-0.1713543,0.04391822,-0.045162544,-0.08714794,0.0014114664,0.056802884,0.061835498,0.20902944,0.09577684
Q16,-0.037101816,0.0063429144,0.053262558,0.0122422185,0.027133053,0.021341078,-0.12399493,-0.113270015,-0.014747947,0.09799229,0.017527664,0.08878316,0.030372195,-0.003583325,0.0036086317,-0.0049200137,-0.0348736,0.16191055,-0.03928017,-0.011582902,0.094865486,-0.050719205,0.029014766,0.04587274,0.020925995,-0.041888095,-0.025933556,0.02881144,-0.07224516,0.030817948,0.13885017,-0.016753059,-0.009554146,-0.12223664,-0.08020717,0.07171971,-0.01401362,0.058175147,-0.006553633,0.111760296,-0.041900408,-0.07789635,0.016598692,0.050799355,-0.022748107,0.09761774,-0.18594176,0.08353895,0.016121866,-0.025458358,-0.039867807,0.010210749,-0.012667781,0.1407659,-0.034002062,-0.02763626,-0.008608745,0.14274335,0.06974492,-0.0653919,-0.04331489,-0.02595098,-0.02602979,0.07347841,0.016941462,-0.010224021,-0.008675499,0.02182606,0.03815964,0.025071321,0.0418278,-0.04288516,-0.00070412934,-0.058949642,0.032047275,-0.053253017,-0.017545221,-0.06306464,-0.020975126,-0.08076313,-0.02760014,-0.07089993,-0.023583276,-0.00017823395,0.0722854,0.059237186,-0.14590219,-0.063381985,0.0012582742,-0.10795287,-0.018153613,0.00037484767,-0.052403837,0.0024510256,0.04732103,-0.0074668424,-0.18031275,0.03649638,-0.009067395,0.0074869567,0.026017772,0.033461064,0.006737522,-0.03760162,0.02144359,-0.089012764,-0.06495984,0.037037447,0.02086543,0.05195226,-0.00017120811,0.22085197,0.042580605,0.1316877,0.04579496,-0.07777551,0.072936416,-0.07382032,0.076671146,0.022801558,0.08327021,-0.09333379,-0.07267721,0.011983174,0.07654221,0.021720117,-0.020059591,0.095877476,-0.010480856,0.093457155,-0.017244218,-0.023780825,-0.1469802,0.018154077,-0.04557376,0.056892585,-0.054235812,-0.04079478,-0.0916271,-0.14428756,0.05242134,0.16403835,-0.08356054,-0.12850115,-0.009162843,-0.16734302,-0.040453177,0.1895696,-0.0063578463,0.11742675,0.015339673,-0.012017355,-0.045006637,-0.014355594,0.027764536,0.038840707,-0.07569475,-0.028025018,0.020541642,-0.040620223,-0.023656597,-0.023530776,-0.057483353,-0.10881853,-0.014752927,-0.045395285,-0.03346186,0.07667288,0.00093111,-0.08860411,0.04362298,-0.007673956,-0.047686204,0.07125391,-0.010958865,-0.054699488,0.072211586,0.013062668,0.046201818,0.01607759,0.044462103,0.036448292,0.045703694,0.040887047,0.0811907,-0.03304998,-0.0024171972,0.09671651,-0.1303973,-0.0878622,0.01694577,0.030059254,-0.0065532294,-0.07590454,-0.04630721,0.044384975,-0.11329419,-0.1565731,-0.066047095,-0.08121757,-0.023032658,-0.06776713,-0.11274821,0.00070570793,-0.018194372,0.116255715,0.0076447884,0.014445771,0.041093364,0.07534409,-0.014118664,0.11525457,0.19293553,-0.03759142,0.10257597,0.069754,-0.1074606,0.052639592,0.002743393,0.02115437,0.00066295743,-0.09643423,0.056002192,0.0014578411,0.07084625,-0.020741768,-0.015841074,0.054110255,-0.04679804,-0.034375403,0.096681535,0.0084723225,0.042962603,0.055327617,0.029803663,0.01628332,-0.07192881,-0.048102293,0.039847616,0.022777377,0.028876543,0.0981348,-0.035947368,0.02879231,0.019467942,-0.042718045,0.034000043,-0.03030376,-0.07128891,-0.0785169,0.011367699,-0.07876557,0.049391493,0.08089698,-0.14826044,0.06761314,0.08748472,0.11565538,0.06367056,0.05426792,0.008846409,-0.055961683,0.05658156,0.07121991,0.06826335,0.14886992,-0.096020795,0.18927562,-0.008747824,-0.007642712,0.0258725,-0.078934856,0.09116749,0.05618872,0.047710817,0.08767896,0.11501324,-0.093424566,0.12647955,0.06219185,-0.029638521,0.056555383,0.08603893,-0.036552005,-0.14183617,-0.015131128,-0.012881858,0.013376292,0.00590057,0.071243666,-0.053113554,0.036288537,0.036841664,0.20053402,-0.048281796,0.07486621,-0.11324215,0.00089444825,-0.019902334,-0.038470265,-0.04811597,0.05192388,-0.07327602,-0.036669876,0.039283548,0.086294904,-0.052669093,0.09053162,-0.0685301,-0.069694854,-0.05413418,-0.0028108482,0.05370627,-0.046512704,-0.014415869,-0.058490124,-0.0675472,0.031910677,-0.035289682,0.10932212,0.033903044,0.08910283,0.066176616,-0.002020689,-0.10880881,0.06924169,-0.08189471,0.057230074,-0.0030129198,-0.025225908,-0.071707554,0.06309142,0.0043226928,0.0015419569,0.08865928,0.018694783,-0.029677985,0.014948062,-0.035666686,-0.065439954,-0.08235717,-0.04049626,0.014899902,0.047325253,-0.061898384,-0.031448446,-0.013349462,-0.05227829,0.019419251,0.08164517,0.041307703,0.043470755,0.025852194,0.013646901,0.049671553,-0.06493833,-0.014069717,-0.04837049,0.11263338,0.013710482,0.13656047,0.001462326,-0.058242995,0.07788053,-0.07045434,-0.00845434,0.11069371,0.07811783,-0.11000899,-0.14428279,-0.16374464,0.0062865405,0.12686802,0.08189039,0.032490343,0.04404103,0.006076335,-0.07081875,-0.07977792,-0.061935905,-0.12924834,0.03110151,0.06519391,-0.03665312,-0.040552292,-0.05080786,0.04133434,0.12508042,-0.085235015,0.077994466,-0.034190133,-0.011164389,-0.019995324,0.06399091,0.18569507,0.034716684,0.14992167,-0.10265609,-0.17897882,0.01976002,-0.043016326,0.047281474,-0.061160512,-0.015297707,-0.044892393,-0.09671605,0.03157034,-0.053996608,-0.04562501,0.00085942744,0.03969427,0.08441279,0.057139464,0.079916276,-0.10461194,-0.04411843,0.065805316,0.032976575,-0.0856214,0.06959132,-0.031218018,-0.105975024,-0.072969735,-0.0272385,-0.04298796,-0.15293714,0.09705612,0.029214581,-0.023560856,0.047339477,0.057417095,0.09729243,-0.04042314,0.014335809,0.008200856,0.06408288,-0.108602695,-0.09987204,-0.08848378,-0.060043912,-0.025185708,0.047027364,-0.060801268,0.044334404,0.039654687,0.10535991,0.07649472,-0.031175338,0.052996095,-0.0176065,0.097257785,0.023753649,0.022670869,0.06652616,0.1494058,0.020324478,-3.6184094e-05,0.043207515,0.0005438676,-0.025823012,-0.07545318,0.02588724,-0.15840068,-0.01291762,0.0037179762,0.0032709334,0.07727514,0.16568293,-0.048635658,-0.04169926,0.040224012,-0.007068511,0.13958842,-0.03340754,0.19092084,0.028571038,-0.0009895649,0.029190242,0.12442242,0.008400603,0.05978565,0.1040558,0.010522768,0.0040884614,0.0008722693,-0.12224347,-0.04033038,-0.044074945,-0.030821571,0.05214407,-0.067578994,-0.11789028,0.06268228,-0.07973404,-0.073355906,-0.026614577,-0.0322173,0.054732397,0.12257616,0.036846552
